%YAML:1.0
opencv_ml_svm:
   format: 3
   svmType: EPS_SVR
   kernel:
      type: LINEAR
   C: 1.0000000000000000e-002
   p: 1.0000000000000001e-001
   term_criteria: { epsilon:1.0000000000000000e-003, iterations:1000 }
   var_count: 1488
   sv_total: 1
   support_vectors:
      - [ -2.34276304e-004, -1.15071668e-003, 2.07457272e-003,
          1.50044542e-002, 2.02514231e-002, 3.45688127e-003,
          4.50185640e-003, 1.16120763e-002, 1.09430924e-002,
          -3.13549885e-003, 3.57064232e-003, 1.15516661e-002,
          8.34834110e-003, 1.76747516e-003, -2.39909627e-003,
          9.94127896e-003, -7.49138556e-003, 4.65051271e-004,
          -8.28424748e-003, -4.08184994e-003, 1.19494675e-002,
          1.40925664e-002, 1.40221016e-002, -1.16734835e-003,
          9.34014563e-003, 4.54451831e-004, 3.86733632e-003,
          9.81006073e-004, 3.83985438e-003, 1.38484500e-002,
          2.33219787e-002, -2.28628144e-003, -9.60119069e-003,
          -5.03633311e-003, -5.52279502e-003, 1.00145768e-002,
          4.24125791e-003, 4.83289780e-003, 6.45728840e-004,
          3.68068554e-003, -4.54877829e-003, 3.60154547e-003,
          1.35523255e-003, -9.95227229e-003, -9.52702947e-003,
          1.26945495e-003, 8.49340751e-004, -1.01587800e-002,
          -3.31861316e-003, -6.71541272e-003, -6.93737762e-003,
          -3.94846685e-003, -1.21467942e-002, 1.61495595e-003,
          1.68471155e-003, 6.80565601e-004, -1.00552719e-002,
          -5.23673743e-003, -1.15047237e-002, -3.73418396e-003,
          -2.21771581e-004, 1.57259603e-003, -1.27654029e-002,
          -7.41399173e-003, 1.09496259e-003, -2.54655303e-003,
          -2.29231943e-003, 1.40661187e-003, 3.47047788e-003,
          2.35577929e-003, 4.00386844e-003, 8.03474616e-003,
          8.61113146e-003, -6.47020875e-004, -1.76696144e-002,
          -2.23661307e-002, 9.50353593e-003, 8.69721081e-003,
          -6.75801141e-003, -7.85649940e-003, -2.90419417e-003,
          5.67730225e-004, 1.04815001e-003, -1.60463806e-002,
          -2.07732432e-002, 1.05722239e-002, 8.65256041e-003,
          -4.79798717e-003, -4.24325978e-003, -1.20701473e-002,
          1.63719163e-003, -8.53853021e-003, 3.35059920e-003,
          -1.72367822e-002, -1.45640252e-002, -6.02218555e-004,
          -6.87627215e-003, -3.63226136e-004, 5.84752671e-003,
          1.10957809e-002, 5.35138068e-004, 8.87382682e-003,
          1.49796894e-002, 1.18613169e-002, 6.34326658e-004,
          -8.48828070e-003, -1.41740618e-002, 4.17257706e-003,
          8.84774700e-003, -6.18160330e-003, -1.15579106e-002,
          2.45999591e-003, -2.90863100e-003, 8.05060263e-004,
          -1.50353061e-002, -1.46884369e-002, 6.06637588e-003,
          1.58354938e-002, -5.80474455e-003, -1.98767218e-003,
          -9.89724044e-003, 3.24488315e-003, -6.53039152e-003,
          6.96194032e-003, -1.16224904e-002, 2.90388102e-003,
          9.70638078e-003, -1.33706871e-002, -6.91881496e-003,
          6.65217079e-003, 8.30259174e-003, -4.01547551e-003,
          1.76421995e-003, 1.83955987e-003, -6.51089661e-003,
          2.49702018e-004, 8.16544332e-003, -7.97557458e-003,
          -1.11902850e-002, 7.20893638e-003, 3.31375655e-003,
          -1.39736636e-002, -4.27451357e-003, 4.76399931e-004,
          8.27512890e-003, -4.92658373e-003, -1.72277782e-002,
          -9.02731530e-003, 1.16329892e-002, 1.42129138e-003,
          -1.04048243e-002, -1.45281618e-002, -3.92072788e-003,
          -2.92335451e-003, 9.36509576e-003, -1.48531515e-002,
          1.00367889e-002, 1.12784775e-002, -2.16067899e-002,
          -2.76957005e-002, -1.08373174e-002, 2.05453788e-003,
          -3.65215912e-003, 3.11013404e-003, 1.48805054e-002,
          -3.63118271e-003, -1.46764684e-002, -1.18010445e-003,
          -1.24085713e-002, -1.20457774e-002, -1.55723211e-003,
          4.59490670e-003, -4.53594094e-003, 9.67191532e-003,
          7.41292816e-003, -4.41075861e-003, -1.86436642e-002,
          -2.81657372e-002, -2.29223557e-002, -6.83260243e-003,
          -8.59465508e-004, -2.66052363e-003, -2.42619459e-002,
          -1.67699810e-003, -1.13876043e-002, -1.67003681e-003,
          9.23396379e-004, -3.44679900e-003, 2.55008042e-003,
          2.22171261e-003, -1.78171357e-003, -8.17101076e-003,
          7.54582346e-004, 7.44399568e-003, -1.97398174e-003,
          -4.72481642e-003, -2.30448577e-003, 4.95031942e-003,
          -2.25441065e-003, 1.08088991e-002, -2.17083143e-004,
          1.07195862e-002, 1.10680319e-003, 5.66452462e-003,
          -7.23852962e-003, -7.50678126e-003, 5.56179648e-003,
          2.00906908e-003, 1.47163579e-002, -6.27524778e-003,
          7.47228507e-003, 5.66806877e-003, -2.14844639e-003,
          5.24368277e-003, -9.82885528e-003, 1.63860470e-002,
          -1.30298629e-003, -5.61146671e-003, -9.68657713e-003,
          -5.24234911e-003, -7.60533614e-003, -5.41905873e-003,
          -3.03126313e-003, 1.56126815e-004, -3.19476263e-003,
          -4.30985494e-003, -6.52117375e-003, 4.32815962e-003,
          1.14860211e-003, -1.44122411e-002, 3.14008398e-003,
          3.23011889e-003, 3.62983672e-003, -7.27962935e-003,
          -4.22836281e-003, -1.35126486e-002, -5.60375070e-003,
          -6.36001350e-003, -1.48087479e-002, 3.93002713e-003,
          2.36466737e-003, 3.52612487e-003, -1.05478279e-002,
          -1.06813544e-002, -6.45604450e-003, -2.03723740e-002,
          4.96846577e-003, -6.85261749e-003, -1.31113566e-002,
          -1.06819365e-002, -4.62844176e-003, -1.31197749e-002,
          -1.06642013e-002, -6.73176302e-003, -2.99438112e-003,
          -8.54030345e-003, -4.70372988e-003, 9.22099780e-003,
          1.25984326e-002, 1.19071861e-003, -1.50656505e-002,
          -1.01969857e-002, 1.39525384e-002, 8.49812385e-003,
          -6.65425276e-003, -1.14088068e-002, 5.68617252e-004,
          2.34795711e-003, -1.63493829e-003, -1.63295493e-002,
          -1.16623007e-002, 5.05883340e-003, 6.65923860e-003,
          -1.36095388e-002, -1.45598063e-002, -8.73507559e-003,
          -1.35631356e-002, -9.18581442e-004, -1.12146288e-002,
          -2.04337835e-002, -1.72157399e-002, -3.42243048e-003,
          -1.10983299e-002, -7.91279506e-003, -4.35142778e-003,
          5.58183892e-005, -1.80812285e-003, 9.78357857e-004,
          1.35263661e-002, 1.88842099e-002, 1.73811300e-003,
          -1.17676668e-002, -9.86418966e-003, 9.17129591e-003,
          6.06329273e-003, -7.99022429e-003, -1.88526344e-002,
          -9.08119895e-004, 5.32431295e-003, 2.99092964e-003,
          -1.28917862e-002, -5.96667780e-003, 2.20719469e-003,
          2.87300604e-003, -1.00037269e-002, -1.51223904e-002,
          -9.37680155e-003, -1.21219810e-002, -1.24660297e-003,
          -7.56558403e-003, -1.33145228e-002, -5.43878600e-003,
          6.36884617e-003, -1.04950564e-002, -1.31449820e-002,
          -5.58967097e-003, 1.50081178e-003, -5.52016869e-003,
          5.25710406e-003, -2.36924490e-004, 2.38374318e-003,
          5.67526417e-003, 2.94181355e-003, -1.56923343e-004,
          -9.12255127e-005, 3.76244425e-004, -2.08888599e-003,
          -2.14996748e-002, 1.04334741e-003, 2.42012460e-003,
          9.34323296e-003, -4.00777208e-003, -6.11262582e-003,
          -4.04086476e-003, 2.26969598e-003, -6.86020078e-003,
          -1.41252335e-002, -3.15820193e-003, -1.51646761e-002,
          -1.25512737e-003, -5.44060487e-003, -1.53634632e-002,
          -2.48478749e-003, 5.28031541e-003, -1.64785907e-002,
          -2.58789081e-002, -1.69712603e-002, -1.93714246e-003,
          -4.53990046e-003, 4.56724549e-003, 1.76519863e-002,
          2.63580028e-003, -6.26049004e-003, -6.85184728e-003,
          -9.13984317e-004, -6.72356831e-003, -1.70189864e-003,
          1.44642114e-003, -1.09064383e-002, 1.47113223e-002,
          3.16833542e-003, -2.42916495e-003, -1.78396869e-002,
          -1.40395053e-002, -1.73888858e-002, -2.89415545e-003,
          -4.55674808e-003, -7.72815710e-003, -8.42140429e-003,
          -1.99613590e-002, -4.04897844e-004, -1.14842840e-002,
          6.54895930e-003, 2.10723374e-003, 5.98978624e-003,
          4.72659478e-003, -4.62699309e-003, -7.13760778e-003,
          3.03625665e-003, 6.60068123e-003, -2.28237198e-003,
          -4.79607377e-003, -1.38149841e-003, 7.83940777e-003,
          3.52728268e-004, 2.11314075e-002, 5.64047974e-003,
          5.68402465e-003, 1.70440436e-003, 9.75818187e-003,
          -5.07210009e-003, -2.08478700e-003, 1.15270289e-002,
          5.83047280e-003, 1.18413260e-002, -5.04763518e-003,
          6.55361405e-003, 5.21812029e-003, 3.33658676e-003,
          5.61515801e-003, -2.65748426e-003, 1.86362751e-002,
          7.11223902e-003, -1.92291301e-003, -1.12272929e-002,
          -7.03977840e-003, -4.92126634e-003, -9.71952267e-003,
          -9.60066728e-003, -4.77178080e-004, 1.81998149e-003,
          -3.97481583e-003, -4.05270094e-003, 6.90421928e-003,
          5.38207544e-003, -3.93279735e-003, 1.69256814e-002,
          5.76394750e-003, -3.19483620e-003, -6.08817441e-003,
          3.97868035e-003, -8.90180375e-003, -3.37685901e-003,
          -3.64013133e-004, 6.96290866e-004, 1.10869743e-002,
          -5.01247868e-003, -3.26340523e-004, -7.08315568e-003,
          -4.63919947e-003, -3.33528407e-003, -1.43945646e-002,
          6.54150033e-003, -7.74538785e-004, -5.08409692e-003,
          -1.48714548e-002, -8.17719009e-003, -1.29352547e-002,
          -1.24928206e-002, -5.90267219e-003, -6.13632100e-003,
          -4.91172587e-003, -6.71532145e-003, 5.58744790e-003,
          1.62375029e-002, 4.41667158e-003, 1.59963476e-003,
          1.10552488e-002, 4.11536358e-003, 5.41785907e-004,
          -1.01574259e-002, -4.29617101e-003, -1.61796855e-003,
          1.91248849e-003, -2.23661214e-003, -2.30437797e-003,
          3.16965929e-003, 1.46411872e-003, -4.67278156e-003,
          -1.55154439e-002, -1.08161140e-002, -5.85692516e-003,
          -1.24574760e-002, 3.32672242e-003, -7.69929495e-003,
          -1.10351713e-002, -1.65267009e-002, -6.01151865e-003,
          -1.29277892e-002, -9.42852441e-003, -2.04048655e-003,
          4.06968314e-003, 5.35469619e-004, 1.55885669e-003,
          1.46058784e-003, 1.35287512e-002, -2.27312514e-004,
          -7.90678896e-003, 4.17146599e-003, 3.42029077e-003,
          5.89207467e-003, -6.78823376e-003, -1.48635767e-002,
          -8.17361753e-003, -5.72627876e-003, -6.02231175e-003,
          -1.19692096e-002, -6.30286348e-004, 3.28633399e-003,
          6.04120968e-003, -6.89772516e-003, -1.22137181e-002,
          -5.46363462e-003, -1.37284677e-002, 8.27043375e-004,
          -6.67520100e-003, -1.01241916e-002, -8.10879562e-003,
          5.01841167e-003, -1.38848769e-002, -1.17719248e-002,
          -2.46134493e-003, 5.16981166e-003, -6.73431810e-003,
          1.56381435e-003, -1.20259207e-002, 7.65981444e-004,
          -2.22321320e-003, -6.97288616e-003, -1.62477593e-003,
          -6.66743843e-003, -3.31611256e-003, -7.59278145e-003,
          -1.64062493e-002, -3.70214623e-003, -2.96017365e-003,
          7.18387892e-004, -1.41269667e-002, -5.54585736e-003,
          -6.18146546e-003, -7.47623388e-004, -1.58031397e-002,
          -1.30485110e-002, -6.07879553e-003, -1.89667922e-002,
          -5.94720757e-003, -1.49200605e-002, -1.07681211e-002,
          -3.61898215e-003, 4.92580235e-003, -1.36119006e-002,
          -2.70248577e-002, -1.18599301e-002, 7.53418484e-004,
          -4.17944463e-003, 1.13071362e-002, 1.34029742e-002,
          1.36603918e-002, -4.06117504e-003, -1.00560877e-002,
          -2.39817216e-003, -7.19303358e-003, -5.21326857e-003,
          -5.88611886e-003, -7.40455044e-003, 1.47944195e-002,
          9.13794711e-003, -2.19405949e-004, -1.93340573e-002,
          -1.65510457e-002, -1.42995389e-002, -5.89159783e-003,
          -9.27774049e-003, 1.16005796e-003, -4.59873211e-003,
          -1.77430380e-002, 9.27443616e-005, -1.03840725e-002,
          4.53454349e-003, -1.07885955e-003, -9.26462744e-005,
          -9.56713688e-004, -4.14399151e-003, 4.75696893e-003,
          -4.11726721e-003, 3.03682667e-004, -1.47824312e-005,
          -4.98323608e-003, -2.70341785e-004, 9.02324263e-003,
          3.32600973e-003, 2.26749405e-002, -4.63835720e-004,
          6.44161692e-003, 4.26982995e-003, 4.91860555e-003,
          -5.10851061e-003, -5.91737358e-003, 1.03371609e-002,
          3.39386938e-003, 9.81302653e-003, 3.22790095e-003,
          1.42864033e-003, 3.58763244e-003, 7.23704463e-004,
          -2.28646724e-003, -1.30829844e-003, 1.07154483e-002,
          1.36811445e-002, -7.63639668e-003, -7.99412001e-003,
          -1.44293311e-003, -8.65510665e-003, -7.95747153e-003,
          5.28926076e-003, 2.03875965e-003, -4.63437405e-004,
          -3.21621913e-003, -4.18999745e-003, 2.03305623e-003,
          5.89345163e-003, 7.20877724e-004, 2.00861525e-002,
          -2.47858115e-003, -3.11715237e-004, -1.27082421e-002,
          -5.79407206e-003, -1.21846693e-002, -2.54982081e-003,
          2.67051929e-003, -2.39380519e-003, 1.37615064e-002,
          1.82936015e-003, 4.21783049e-003, -1.33414920e-002,
          -1.06165158e-002, -3.15239280e-003, -9.73064918e-003,
          -2.12807115e-003, 2.38384609e-003, -6.97217323e-003,
          -7.34516466e-003, -6.88120141e-004, -5.33043919e-003,
          -1.22624747e-002, -3.50852555e-004, 3.85042769e-003,
          -1.17259694e-003, -9.23940074e-003, -2.35483679e-003,
          4.90479229e-004, 2.38208217e-003, 5.30225225e-003,
          1.28258234e-002, -8.34890828e-003, -5.90044726e-003,
          -1.68708265e-002, -7.15241767e-003, -1.23695927e-002,
          -9.12435167e-003, -3.52853467e-003, 3.19380197e-003,
          1.28929717e-002, -3.43347783e-003, -1.90385082e-003,
          -1.71318781e-002, -1.64473802e-002, -4.53282800e-003,
          -1.55092189e-002, -7.30527565e-004, -7.10488763e-003,
          -6.32977905e-003, -3.15448293e-003, -2.96224956e-003,
          -1.11229792e-002, -3.80948465e-003, -4.29925369e-003,
          1.15687521e-002, 6.65050419e-003, 2.50396994e-003,
          -7.82283768e-003, 7.38239149e-003, -5.68268821e-003,
          1.46610977e-003, 1.01007521e-002, -8.89348984e-003,
          -8.98492709e-003, -1.67500712e-002, -2.10168529e-002,
          -1.52486600e-002, -8.05516448e-003, -8.22880398e-003,
          -7.90813193e-003, -4.96519206e-004, -5.68046281e-003,
          -1.19385135e-003, -9.81376600e-003, -1.66325048e-002,
          -7.09084794e-003, -1.36478469e-002, 3.08579300e-004,
          -8.39911494e-003, -9.40110628e-003, -1.75100891e-003,
          -3.47513123e-003, -1.88968927e-002, -8.11543129e-003,
          1.07466877e-002, 5.68202557e-003, -4.24748892e-003,
          -3.49430414e-003, -2.21337751e-002, 3.68244248e-003,
          9.70237714e-004, -7.87925092e-004, 1.19659211e-002,
          -1.33474283e-002, -8.57493840e-003, -6.09840173e-003,
          -1.17674517e-002, -1.46592539e-002, -7.49938982e-003,
          -5.88911073e-003, -1.34131508e-002, -1.21073809e-003,
          -2.00621507e-004, -2.71571591e-003, -9.16373357e-003,
          -1.33860996e-002, -6.59367954e-003, -1.29193272e-002,
          -6.34020986e-003, -1.14081101e-002, -9.40466858e-003,
          -4.96455687e-005, -5.73489210e-003, -1.73578355e-002,
          -1.68332197e-002, 3.47003830e-003, 8.06606025e-004,
          -6.52359752e-003, -4.33688564e-003, 2.54535046e-003,
          6.59668725e-003, 6.37432374e-003, -4.23690258e-003,
          5.54143032e-003, -1.20501025e-002, -4.05665208e-003,
          -9.53718903e-004, 1.35973399e-003, 8.18087626e-003,
          6.32416748e-004, -2.90973950e-003, -1.81162935e-002,
          -4.80066752e-003, -6.54552691e-003, -2.08585104e-003,
          -4.94193519e-003, -4.81738476e-003, -1.13196496e-003,
          -1.07075712e-002, -5.91591699e-003, -8.09798203e-003,
          3.04947933e-003, -3.39980307e-003, 7.48826610e-003,
          7.41549069e-003, -4.37288452e-003, -1.97505602e-003,
          -2.59899534e-003, 2.63933535e-003, -5.38692169e-004,
          -1.14238337e-002, 6.20392011e-003, 5.36610233e-003,
          5.40984271e-004, 1.67478826e-002, -6.30163355e-003,
          -2.33016675e-003, 4.40184318e-004, 5.74954366e-003,
          -1.00777289e-002, 5.79010975e-003, 9.70684458e-003,
          1.23726847e-002, 1.00374622e-002, -8.76134727e-003,
          -5.97883202e-003, 6.29675225e-004, 6.91375928e-004,
          -3.06927832e-003, -8.94759432e-004, 3.81285092e-003,
          1.08520249e-002, -9.93957743e-003, -1.62940565e-002,
          -6.41713291e-003, -7.19654420e-003, -1.34068215e-003,
          3.85452551e-003, -5.25782676e-003, -3.34813772e-003,
          -5.67320036e-003, -6.05141930e-003, 8.01376440e-003,
          8.48005153e-003, -4.96958150e-003, 2.24109869e-002,
          -4.47299564e-003, -1.06573349e-003, -7.92185497e-003,
          -7.61016086e-003, -1.35925487e-002, -1.04971025e-002,
          9.55074618e-004, -8.52546562e-003, 1.69276930e-002,
          1.02770922e-004, -7.63084693e-003, -1.11279683e-002,
          -1.26873851e-002, -7.96016958e-003, -4.82065789e-003,
          -5.89736598e-003, -2.44032708e-003, -1.14812970e-003,
          -4.30643884e-003, -6.29808661e-003, -7.72692915e-003,
          -1.13305738e-002, 6.83208508e-003, 8.19144025e-003,
          1.71526408e-004, -8.91550165e-003, 3.28784017e-003,
          1.03273906e-003, -1.59765361e-003, 2.45522195e-003,
          1.95015911e-002, -1.46301296e-002, -1.20800771e-002,
          -1.10610873e-002, -4.40295367e-003, -5.87769412e-003,
          -6.19057007e-003, -9.41985566e-003, 1.88224809e-003,
          1.30437687e-002, -1.58889208e-003, -2.92979577e-003,
          -9.35523212e-003, -1.21356910e-002, -9.71056707e-003,
          -4.87675751e-003, -4.30691289e-003, -9.16403835e-004,
          -1.03859778e-003, -9.28796362e-003, -3.30524147e-003,
          -7.23374868e-003, -4.94074123e-003, 2.58673914e-004,
          9.48890299e-003, 4.65536397e-003, -6.72848383e-003,
          -5.28355269e-003, 7.27270124e-003, -8.98579508e-003,
          -2.79284781e-003, 1.90861858e-002, -8.95496644e-003,
          -1.37010356e-002, -1.66948661e-002, -1.63270012e-002,
          -1.22216325e-002, -5.33699617e-003, -1.23290950e-002,
          -5.17921057e-003, 8.02299846e-003, -3.05249705e-003,
          -4.55940608e-003, -1.20165283e-002, -2.02443805e-002,
          -8.76663905e-003, -8.99443682e-003, -9.38482024e-003,
          -3.26553476e-003, -4.94128233e-003, -3.30800307e-003,
          -5.15396055e-003, -1.74330808e-002, -8.81234929e-003,
          1.54988503e-003, 7.32595474e-003, 4.41155687e-004,
          -5.26523544e-003, -1.64440461e-002, 7.66080478e-003,
          -2.88671884e-003, 1.79871754e-003, 1.17346039e-002,
          -1.82380751e-002, -1.48752825e-002, -1.13185244e-002,
          -5.09414868e-003, -9.45651345e-003, -4.28368757e-003,
          -1.02001596e-002, -1.01121012e-002, -1.99351786e-003,
          -1.11438446e-002, -8.34124908e-003, -1.11414557e-002,
          -1.00218765e-002, -6.46255910e-003, -1.01273442e-002,
          -1.28412200e-002, -9.81744286e-003, -8.10312387e-003,
          -2.93214223e-003, -7.78634613e-003, -1.71656199e-002,
          -1.56031428e-002, 5.92834083e-003, 1.61866215e-003,
          -8.09797365e-003, -8.01018625e-003, 3.50096589e-003,
          1.27882436e-002, 8.20720941e-003, 7.54181179e-004,
          8.74855090e-003, -1.20363450e-002, -9.12732817e-003,
          6.05216436e-003, 6.93252357e-003, 1.26472674e-002,
          2.40061269e-003, -1.59784569e-003, -1.07896551e-002,
          5.52552170e-004, -6.54869620e-003, -4.92304843e-003,
          -1.78168539e-003, -1.61933771e-003, -1.43347238e-003,
          -2.77504791e-003, -5.56665566e-003, -6.40863180e-003,
          -8.09321273e-003, -1.83475937e-003, 3.10737919e-003,
          4.47068131e-003, -7.03529874e-003, -9.86979436e-003,
          -8.01185612e-003, -1.56296603e-003, 2.55196495e-003,
          -4.77520237e-003, 4.97168535e-003, 4.19400493e-003,
          -3.38515011e-003, 4.34755767e-003, -5.79687208e-003,
          -4.64665610e-003, 2.02095206e-003, 7.96199962e-003,
          -1.20819686e-002, -4.56331734e-004, 5.49494196e-003,
          4.34646383e-003, 6.55943819e-004, -1.09118139e-002,
          -1.02572963e-002, 2.74079532e-004, 1.06197326e-002,
          -5.83794015e-003, -5.93738817e-003, 2.68715690e-003,
          -9.92974150e-004, -1.98609922e-002, -1.22530535e-002,
          -9.31902230e-003, -5.09874290e-003, -6.45689433e-003,
          -2.93967198e-003, -1.11340638e-002, -8.01793113e-003,
          4.64393379e-004, -2.93183187e-003, 4.38822852e-003,
          6.41548261e-003, -4.95344494e-003, 1.33513547e-002,
          -4.83282981e-003, -5.41877188e-003, -2.02312996e-003,
          -7.02935504e-003, -1.75745450e-002, -9.22300667e-003,
          2.44139708e-004, -7.10904505e-003, 1.11739282e-002,
          -5.92574757e-003, -1.45493168e-002, -8.15366581e-003,
          -4.66489606e-003, -1.34835886e-002, -1.06419884e-002,
          -4.91355360e-003, -7.56521104e-003, -1.13466997e-002,
          -8.62450339e-003, -1.08445436e-002, -1.27884168e-002,
          -1.21917604e-002, -2.00249883e-003, -1.89450081e-003,
          -1.30855618e-002, -9.04137362e-003, -6.10360969e-003,
          -5.64734312e-003, 5.53690037e-003, 9.44039878e-003,
          2.03615781e-002, -1.14345159e-002, -1.27268080e-002,
          -2.72918958e-003, -3.82768601e-004, -1.99768376e-002,
          -1.52676916e-002, -5.79317380e-003, 5.62261650e-003,
          7.10040517e-003, -2.59876787e-003, -1.16868513e-002,
          -1.29754338e-002, -7.71811558e-003, -1.25171039e-002,
          -1.06838141e-002, -1.09338677e-002, -6.17237203e-003,
          8.79901985e-004, -1.20424516e-002, -7.65414257e-003,
          -1.11177377e-002, -1.10057201e-002, -3.83549929e-003,
          -1.29214535e-003, -3.87036055e-003, -1.07857818e-002,
          -3.27872764e-003, 8.62115901e-003, 6.95561711e-003,
          2.28026602e-003, 2.20404919e-002, -8.04989040e-003,
          -1.46371322e-002, -1.41029600e-002, -4.24581254e-003,
          -8.48427694e-003, -6.87662046e-003, -1.14334992e-003,
          -1.61533186e-003, 5.67136565e-003, -6.58752257e-003,
          -1.40836136e-002, -1.74869727e-002, -1.53681282e-002,
          -9.06010531e-003, -5.79248089e-003, -9.14518069e-003,
          -6.70966366e-003, 8.16106505e-004, 2.50344095e-003,
          -6.68892264e-003, -1.66307762e-002, -9.68043786e-003,
          3.11582629e-003, 9.36747529e-004, -1.83920085e-003,
          -6.49659662e-003, -6.78721536e-003, 4.24696505e-003,
          7.89754372e-003, 1.88506651e-003, 1.08859288e-002,
          -1.27597228e-002, -1.78339500e-002, -1.13737741e-002,
          -2.99549592e-003, -9.33378097e-003, -1.51026843e-003,
          -3.28962505e-003, -6.79747388e-003, -1.25513203e-003,
          -4.31265542e-003, -1.42932450e-002, -1.24729527e-002,
          -1.03757167e-002, -5.26695047e-003, -2.95251771e-003,
          -1.18185850e-002, -8.62234365e-003, -3.97082465e-003,
          -4.41006152e-003, -8.31848010e-003, -1.56987384e-002,
          -1.52822398e-002, 1.16927056e-002, 5.14810067e-003,
          -2.63884570e-003, -3.54245258e-003, -1.17349019e-003,
          4.73091751e-003, 1.47894425e-002, 6.66449545e-003,
          6.78297225e-003, -1.32711604e-002, -1.58893038e-002,
          -8.29168316e-003, -5.26838424e-003, 1.06954351e-002,
          7.17444206e-003, 6.22021593e-003, -4.30627307e-003,
          -9.70804074e-004, -1.95141498e-003, -6.83747511e-003,
          -9.24389064e-003, -9.96351242e-003, -6.82033505e-003,
          -1.66289078e-003, -9.00786929e-003, -5.11113368e-003,
          -5.11199096e-003, -6.68958249e-003, 1.84174732e-003,
          6.94137020e-003, -1.70161331e-003, -1.09737115e-002,
          -3.47194145e-004, 2.61159311e-003, 5.17295208e-003,
          -8.28515738e-004, -2.09376030e-003, 3.16685019e-003,
          2.44657014e-004, 1.41785189e-003, -2.55594292e-004,
          1.33357313e-003, 3.31749907e-003, 5.84543962e-003,
          -6.47307653e-003, -2.76817544e-003, 3.57488007e-003,
          3.20511404e-003, -8.19059648e-003, -1.12267230e-002,
          3.39116715e-003, 4.31411620e-003, 8.54772422e-003,
          -9.96041019e-003, 2.69020442e-004, 3.97247449e-003,
          7.55340047e-003, -1.87028386e-002, -1.27490172e-002,
          -1.26819024e-002, -9.04258341e-003, -1.82268937e-004,
          -1.90184961e-004, -4.04557958e-003, -3.85954068e-003,
          1.92797673e-003, -4.68296325e-003, -3.06722103e-003,
          1.39528997e-002, 1.76237640e-003, 1.01697864e-003,
          -4.22853557e-003, -5.54500706e-003, -1.33926852e-003,
          -1.10853100e-002, -2.05258280e-002, -1.37180192e-002,
          5.36255399e-003, -9.66176391e-003, -5.41985594e-003,
          -8.30531493e-003, -7.61015341e-003, -5.46026090e-003,
          -6.10995525e-003, -1.82396453e-002, -6.10778295e-003,
          -1.00615602e-002, 1.18410855e-004, -1.05648730e-002,
          -5.90732601e-003, -7.89438840e-003, -1.88323259e-002,
          2.52562971e-003, 6.05275529e-003, 2.54440424e-003,
          -8.98945797e-003, -2.02567666e-003, -5.94062451e-003,
          -1.57082770e-002, 7.66226416e-003, 1.09104614e-003,
          2.68528500e-004, -9.32039414e-003, -5.38880192e-003,
          -1.06134480e-002, -4.39376244e-003, -1.17267035e-002,
          -2.03413591e-002, -6.73403498e-003, -6.85161445e-003,
          -1.36567059e-003, -5.58379432e-003, -5.88816917e-003,
          -1.81930196e-002, -8.21779016e-003, -1.76359210e-002,
          -4.99657309e-003, -1.40467258e-002, -3.59471026e-003,
          -3.60346097e-003, -8.52137245e-003, -8.14202614e-003,
          -7.71953398e-003, 3.71764577e-003, -3.35744844e-004,
          -6.94536418e-003, -8.34230147e-003, -5.92490379e-003,
          2.58776010e-004, -3.17064882e-003, 6.78357622e-003,
          2.25111726e-003, 1.06037837e-002, -2.85195420e-003,
          -3.69241647e-003, -6.26418134e-003, 1.11313420e-003,
          -4.32814332e-003, -1.13351494e-002, -5.82024455e-003,
          -5.59736975e-003, -4.57607163e-003, -8.18453543e-003,
          -9.36341099e-003, -1.48247462e-002, -1.11332461e-002,
          -1.21369297e-002, 3.54961143e-003, -1.23176668e-002,
          1.67852244e-003, 2.06831656e-003, 4.93184803e-003,
          -6.16443763e-003, -1.35436393e-002, 3.31416936e-003,
          -1.89459405e-003, -3.51025932e-003, -8.98296013e-003,
          -2.14652135e-003, -1.07960356e-002, -1.52885150e-002,
          -5.04518277e-004, -1.78672245e-003, 1.09963883e-002,
          -3.89201124e-003, -5.08994190e-003, -6.37489324e-003,
          -5.45082521e-003, -1.09206960e-002, -1.20969340e-002,
          -9.59431380e-003, -6.98120473e-003, -5.70688909e-003,
          -2.49752798e-003, -7.41656870e-003, -1.53517835e-002,
          -9.04188678e-003, -1.07779000e-002, 4.47260449e-003,
          -1.95438080e-002, -4.37477743e-003, -1.92061160e-003,
          9.71347210e-004, -3.89401778e-003, -1.21421441e-002,
          -1.61422770e-002, 5.79989515e-003, 9.53703187e-003,
          -3.70854978e-003, 6.02912065e-003, 5.13042789e-003,
          -5.04756521e-004, 1.20927626e-002, 9.44848638e-003,
          5.73491165e-003, -1.05672255e-002, -3.59070161e-003,
          -1.00538237e-002, -1.12613766e-002, 2.05454063e-002,
          1.03958547e-002, 7.55299302e-003, -1.46741758e-003,
          -2.57521356e-003, -5.91755146e-003, 6.96097827e-003,
          -1.21283410e-002, -4.75744950e-003, -6.57239521e-004,
          3.08091566e-003, -1.25074945e-002, 1.10765558e-003,
          3.49555933e-003, 9.99675482e-004, -4.55898792e-003,
          -3.40251764e-003, -5.32779796e-003, -2.24594306e-003,
          6.66393992e-003, 2.54686247e-003, 4.21621092e-003,
          2.08140980e-003, 9.34089441e-003, 6.82790671e-003,
          -8.46747402e-003, -3.26199736e-003, 4.23264550e-003,
          4.56027687e-003, 3.32084484e-003, 4.54016728e-003,
          -8.98973725e-004, 3.91771412e-003, 2.39606481e-003,
          -4.14180197e-003, -6.18644990e-003, 6.08433178e-003,
          1.19019337e-002, 4.69470210e-003, 5.81359118e-003,
          -8.06339085e-003, -8.81029351e-004, 7.07366830e-003,
          1.39205242e-002, -1.03502180e-002, -8.04402214e-003,
          -1.62196923e-002, -9.53887496e-003, -2.10327934e-003,
          2.33342103e-003, 7.29549257e-003, -3.88184423e-003,
          7.13467039e-003, -3.79022211e-003, 8.19059834e-003,
          1.01550631e-002, -1.39544616e-002, -7.28684058e-003,
          -9.35465097e-003, -7.15480931e-003, -6.37519080e-003,
          -6.90396549e-003, -1.10372966e-002, -3.64849507e-003,
          -4.20499919e-003, -9.89603810e-003, -8.69288575e-003,
          -7.72717362e-003, -2.44299095e-004, -9.69622377e-003,
          -1.61303312e-003, -1.92815606e-002, -8.34019110e-003,
          -5.34136640e-003, 3.63810577e-005, -1.55100459e-003,
          -1.13098612e-002, -7.73710245e-003, -1.48044899e-002,
          3.09432135e-003, 8.44477117e-003, 1.35876723e-002,
          -5.75819425e-003, 1.17057469e-002, -4.95195994e-003,
          -2.47180089e-003, 7.39439204e-003, -7.56440777e-003,
          -6.91032596e-003, -9.37236100e-003, -5.72454603e-003,
          -1.31534617e-002, 3.74596985e-003, -2.94767204e-003,
          -1.29864980e-002, -6.24403264e-003, -6.53217593e-003,
          -5.81899844e-003, 1.86804507e-003, 4.78536496e-003,
          -1.56533122e-002, 7.60208769e-003, -1.60593539e-002,
          3.97566619e-004, -7.17371376e-003, 2.40660785e-003,
          3.02854599e-003, -8.84364080e-003, -7.13279005e-003,
          -1.64102035e-004, 9.82804224e-003, 8.68568197e-004,
          8.00267328e-004, -3.14013450e-004, -2.81844893e-003,
          6.40053349e-003, 7.95500819e-003, 5.96413016e-003,
          -1.41908787e-002, -1.15646152e-002, -1.30359577e-002,
          -1.35223540e-002, -1.09949624e-002, 4.20729537e-003,
          6.35022670e-003, -5.24309790e-003, -2.18832609e-003,
          -5.52233495e-003, -7.72299303e-004, -9.03953798e-003,
          -1.18027665e-002, -1.31704547e-002, -5.56682795e-003,
          -1.43618491e-002, 3.95701081e-003, -1.29456250e-002,
          2.83071771e-003, 4.74469597e-003, 3.38040665e-003,
          -5.54298144e-003, 2.94021703e-003, 2.20437534e-002,
          1.33810584e-002, 7.98097625e-003, -2.61517736e-004,
          -7.26770004e-003, -9.86775476e-003, -8.02039728e-003,
          -1.35521195e-003, -1.07242679e-002, -1.30077861e-002,
          -2.46869214e-002, -1.45306755e-002, -6.04289398e-003,
          -8.99130944e-003, -2.61558103e-003, -4.50763106e-003,
          -8.97687860e-003, 3.42533807e-003, 1.69218506e-003,
          -6.58204453e-003, -8.57893005e-003, -8.28794204e-003,
          -1.73279047e-002, -1.35981338e-002, 9.44566075e-003,
          -1.84235312e-002, -3.74145969e-003, 7.61592702e-004,
          3.65672773e-003, -3.09355045e-003, -6.02698512e-003,
          -9.23359860e-003, 1.90056046e-003, 1.26440935e-002,
          -2.97865085e-003, 3.86639941e-003, 1.26816677e-002,
          2.25043707e-002, 1.26828952e-002, 7.59892224e-004,
          -6.06444525e-003, -2.92587914e-002, -9.51479655e-003,
          -8.92856158e-003, -1.09683312e-002, 2.50831824e-002,
          2.94985585e-002, 1.05644446e-002, -4.22231900e-003,
          -7.41541618e-003, -2.11877599e-002, 7.29459221e-004,
          -9.61496867e-003, -4.60614124e-003, -2.61191116e-003,
          1.63034890e-002, -2.03473326e-002, -2.31169310e-004 ]
   decision_functions:
      -
         sv_count: 1
         rho: -7.4756519049405168e-002
         alpha: [ 1. ]
