%YAML:1.0
opencv_ml_svm:
   format: 3
   svmType: EPS_SVR
   kernel:
      type: LINEAR
   C: 1.0000000000000000e-002
   p: 1.0000000000000001e-001
   term_criteria: { epsilon:1.0000000000000000e-003, iterations:1000 }
   var_count: 496
   sv_total: 1
   support_vectors:
      - [ -9.76523501e-004, -3.48355599e-007, -8.43672198e-004,
          1.26354652e-003, 9.56051445e-005, -1.62725977e-003,
          -5.63656431e-005, 1.98598515e-004, -1.16792624e-003,
          -1.29137037e-003, 3.96419433e-004, -8.61744338e-004,
          7.28283543e-004, -2.24362803e-003, 2.17687385e-003,
          7.66593032e-004, 5.18782872e-006, 4.90042905e-004,
          1.62367977e-003, -1.02428789e-003, 6.23248634e-004,
          -3.17667844e-004, -3.18022619e-004, 1.31790806e-003,
          1.25140185e-003, 4.94643173e-004, 7.47550803e-004,
          -4.92127379e-004, -1.07215601e-003, 4.40295960e-004,
          -2.65556708e-004, 6.59793790e-004, -2.34033621e-004,
          -1.69391348e-003, 1.47126836e-003, -1.13774673e-003,
          -5.17568435e-004, -2.06767744e-003, 3.78670840e-004,
          -1.29794294e-003, -5.65836497e-004, 9.98872420e-005,
          -9.30477472e-005, -3.90388421e-004, -1.46799802e-003,
          -1.64055295e-004, -9.50849790e-006, 1.08645053e-003,
          3.47279303e-004, 2.98962509e-003, 4.31279303e-004,
          2.06880318e-003, 7.78372108e-004, 3.34334536e-003,
          1.32498145e-003, 1.36175309e-003, 8.26760137e-004,
          -2.46382871e-004, -6.53910509e-004, -2.37413769e-004,
          -9.24200984e-004, -8.22603586e-004, -1.27955375e-003,
          9.15953191e-004, -2.88069667e-003, 9.29007729e-005,
          -2.54071294e-003, -1.63358636e-003, -1.12125650e-003,
          -1.18931232e-003, -2.94570375e-004, -1.65782368e-003,
          2.65953434e-003, -1.18893024e-003, -5.35318337e-004,
          -6.85967330e-004, -1.63392222e-003, 4.06342122e-004,
          1.41773932e-003, -9.00535088e-004, 1.88396720e-003,
          -5.73339232e-004, 2.23491318e-003, 1.59069756e-003,
          2.13388470e-003, 9.28368070e-004, 1.17448694e-003,
          -4.09535278e-004, 5.28488250e-004, -1.09534361e-003,
          -1.67073403e-003, -1.77063327e-003, -1.14352850e-003,
          2.98569765e-004, -5.91168005e-004, -1.57047960e-003,
          -4.45325422e-004, 6.82330516e-004, -1.23186992e-003,
          -3.45232687e-003, 3.18873092e-004, 1.71257625e-003,
          4.71149833e-004, -1.90490601e-003, -1.83103571e-003,
          3.77043965e-004, -5.87371062e-004, -1.21653592e-003,
          4.05600440e-005, 3.96760443e-004, 3.14574900e-005,
          -9.20532329e-004, -1.52736975e-005, 1.05678604e-003,
          6.16649166e-004, 1.52401975e-003, 1.85285253e-003,
          1.46298285e-003, 1.83022500e-003, -9.86246392e-004,
          -1.14914367e-003, 1.51639120e-004, -1.14440662e-003,
          -1.86579057e-003, -2.11734936e-004, -1.37931132e-003,
          -2.37863674e-003, -6.09505863e-004, 7.12521549e-004,
          -8.55119666e-004, -1.03709433e-004, -6.51070033e-004,
          -2.13623769e-003, 9.51403112e-004, 5.31561440e-004,
          -8.33460072e-005, -7.06183666e-004, 2.82959401e-004,
          4.85124212e-004, 1.97017594e-004, 1.96790555e-003,
          -6.00441017e-005, -4.98043664e-004, 7.14925991e-004,
          1.20200007e-003, -3.38614569e-004, 1.04271877e-003,
          1.48489838e-004, -7.07659172e-004, 1.65407939e-004,
          7.57742906e-004, -2.89705087e-004, -1.44003506e-003,
          -2.38985915e-004, 6.12515651e-005, -1.02914470e-004,
          8.78211984e-004, -1.38405585e-005, -1.81293479e-004,
          4.84376331e-004, -1.80397078e-003, -1.88174227e-003,
          -8.37761734e-004, -1.78394112e-005, 9.71889473e-004,
          1.22411014e-003, -4.14900278e-004, -2.14319164e-003,
          -1.04633742e-003, 5.00384194e-004, -7.51397165e-004,
          1.44898760e-004, 4.22100740e-004, -7.23466161e-004,
          8.37114421e-005, 1.65975289e-004, 9.17358731e-004,
          2.12363782e-003, 2.64795474e-003, 8.71469383e-004,
          -3.13243072e-004, -8.66717077e-004, -4.27753606e-004,
          -1.65625568e-003, -5.89574222e-004, 5.19655820e-004,
          -1.10397628e-003, -6.57796685e-004, 2.09423379e-004,
          1.95031593e-004, 7.97454792e-004, 4.65058634e-004,
          -6.18463673e-004, -1.71940203e-003, -2.53714644e-003,
          -8.12478014e-004, -5.14519052e-004, -1.65226031e-003,
          8.69411961e-005, 8.21425710e-005, -4.05104016e-004,
          2.11689359e-004, 4.55020228e-004, -1.48165840e-004,
          1.37648464e-003, -1.51285413e-003, -1.15004113e-004,
          1.88007241e-003, 1.29117325e-004, 3.12195765e-003,
          2.21630000e-003, 1.99380258e-004, 1.35358295e-003,
          -2.13090098e-004, -1.25473889e-003, -7.76046480e-004,
          -1.37013604e-003, 8.62617570e-004, -5.31962840e-004,
          -1.76918961e-003, -3.48389731e-004, 3.23628366e-004,
          -2.78964853e-005, -8.61408771e-004, -1.47226208e-003,
          9.94671354e-005, -5.50544537e-005, -1.11039286e-003,
          -7.19313452e-004, -5.66426432e-004, 5.99819468e-004,
          3.20911167e-005, -6.73741859e-004, 1.06999569e-003,
          1.02303433e-003, -4.84891789e-004, -1.08706066e-003,
          2.48328706e-005, 6.70328445e-004, 5.11754653e-004,
          -3.98212433e-004, 2.11572670e-003, 1.50072994e-003,
          6.68879366e-004, 1.63977547e-003, -9.64659441e-004,
          -1.30690436e-003, -1.31291780e-003, 3.33791162e-004,
          6.68977227e-005, -6.14125107e-004, 6.06552290e-004,
          -1.67568141e-004, -9.72425158e-004, 1.48169347e-004,
          -5.09486199e-005, -5.01962961e-004, 1.88473717e-003,
          -6.39015110e-004, -1.26531138e-003, -2.25938647e-003,
          2.42485228e-004, -5.11651684e-004, -9.38392943e-004,
          -5.00722323e-004, -3.27899870e-005, 2.09705759e-004,
          -7.39833165e-004, 1.80164550e-003, 1.27953695e-004,
          -5.73209720e-004, -2.77465388e-005, 8.91796881e-005,
          -5.85565926e-004, -1.32806518e-003, -2.25222181e-003,
          -1.86942727e-003, 1.10056356e-003, 5.83160610e-004,
          -7.01420242e-004, 6.78762561e-004, -8.56518571e-004,
          -1.70778634e-003, 2.11650593e-004, -1.33235345e-003,
          -1.14590465e-003, -8.77786952e-004, -2.77275714e-004,
          5.26367745e-004, 1.76049618e-003, -1.32998824e-003,
          -8.31263955e-004, -1.13225065e-003, -1.80601433e-003,
          -1.59963663e-003, -2.64905189e-004, 1.02532678e-003,
          6.50950460e-005, -2.48877826e-004, 1.66491244e-003,
          2.63928389e-003, 5.90157462e-004, 2.21327250e-003,
          -1.07391702e-003, -2.69235432e-004, 6.92253991e-004,
          -7.63589807e-004, -1.61344570e-003, -1.86564552e-003,
          -3.11282725e-004, 2.54194980e-004, 1.18990405e-003,
          -1.29806006e-003, -7.98814232e-004, -8.83205037e-004,
          1.87968079e-004, -6.03940571e-004, 2.08492333e-004,
          -1.43495970e-003, -5.42863738e-004, 1.91347871e-003,
          -9.07506037e-004, 1.53678426e-004, -1.54096819e-003,
          -6.79388817e-004, -1.29125692e-005, -1.33512996e-003,
          -1.88890623e-003, 2.59725959e-004, 6.84277969e-004,
          4.71240957e-004, 1.34288683e-004, 5.81836153e-004,
          -1.57511269e-003, 2.49510864e-003, -8.17095162e-004,
          2.07238877e-003, -5.86297421e-004, -1.05220487e-003,
          -1.71860959e-003, -4.23016347e-004, 6.12333009e-004,
          3.31619485e-005, 7.98105495e-004, -1.58279645e-003,
          8.35928600e-004, -1.66388380e-003, -2.32124832e-004,
          -5.35464147e-004, 5.53283782e-004, -1.87599013e-004,
          -5.48962795e-004, -9.01762745e-004, -1.44131205e-004,
          -1.47586293e-003, -3.51680140e-003, -2.03309228e-005,
          -1.62464770e-004, -1.21761223e-004, -1.76864141e-003,
          1.97601179e-003, 4.17199539e-004, 2.09413440e-004,
          -6.23354048e-004, 1.15485815e-003, 1.08715984e-004,
          1.14538234e-005, 2.44397693e-003, 3.25877976e-004,
          -1.79077976e-003, -1.64367270e-003, -7.85721873e-004,
          3.16609559e-003, -8.20235175e-004, -9.88737796e-004,
          -6.76385942e-004, -1.91840867e-004, -2.76510813e-003,
          -2.69109150e-004, -3.94660019e-004, 6.24640670e-005,
          1.22633041e-003, -6.78535784e-004, -1.09065708e-003,
          -2.36473884e-003, -1.25347939e-003, 8.29601369e-004,
          -2.40322348e-004, 2.20749367e-004, 1.03503349e-003,
          9.61753714e-004, 3.74475385e-005, -3.73613031e-004,
          8.79436673e-004, 1.46430366e-005, 9.36453944e-005,
          -1.28717988e-003, 3.34349519e-004, 1.19909516e-003,
          -6.14324876e-004, -6.32621290e-004, -7.29096006e-004,
          -4.72190062e-004, -5.00426744e-004, -7.72639411e-004,
          3.22255772e-004, -1.77424471e-003, -8.87850329e-005,
          -1.54750503e-003, 9.31794930e-004, 3.97184922e-004,
          1.63456181e-003, 2.04848940e-003, -3.79907578e-004,
          8.12570564e-004, -1.60779757e-003, -2.88169854e-003,
          -1.74364436e-003, 8.63536188e-005, -2.58639664e-003,
          -1.66944970e-004, -1.35439658e-003, -6.89504726e-004,
          -7.44575460e-004, 2.12956523e-003, -1.15212845e-003,
          4.50660445e-004, -1.95292709e-003, 1.29748310e-004,
          -1.44054799e-003, -2.05171667e-003, 4.88783335e-005,
          -3.40148062e-003, 1.71948946e-003, -2.57503445e-004,
          2.73020938e-004, -9.23704007e-004, -1.62708585e-003,
          -3.13578028e-004, -1.69251335e-003, -2.59233057e-004,
          3.88788962e-004, -1.34496065e-003, 4.84490069e-004,
          2.62065179e-004, 2.92190118e-004, -2.26092016e-004,
          -1.11234467e-003, -1.75961899e-003, -7.10660534e-004,
          3.87055828e-004, -3.61249055e-004, -1.72676446e-004,
          -1.07173626e-004, -1.05921028e-003, 3.50704038e-004,
          -1.00113347e-003, 1.47633697e-003, 1.01053607e-004,
          2.34884603e-004, 1.76635443e-003, -5.67522715e-004,
          -9.16865887e-004, -1.39090791e-003, -1.13204261e-003,
          1.59494492e-004, -1.13470317e-003, -6.17970945e-005,
          -6.59745012e-004, 1.01239036e-003, -3.47041729e-004,
          -2.39984668e-003, -5.22776856e-004, 2.39895351e-004,
          1.70686760e-003, 9.32793017e-004, 2.02962576e-004,
          -1.00839266e-003, -1.15934422e-003, -1.69598288e-003,
          8.06702476e-004, 4.26076382e-004, -3.28082795e-004,
          -2.23544412e-004, -5.58745814e-004, -5.08519530e-004,
          -1.66634200e-004, 2.97710139e-005, 1.22927979e-003,
          -1.69193663e-003, -4.29397449e-004, 6.61237864e-004,
          8.29175478e-005, -7.78620961e-005, -9.33834177e-004,
          -8.76932812e-004 ]
   decision_functions:
      -
         sv_count: 1
         rho: -1.9516752660284076e-003
         alpha: [ 1. ]
