%YAML:1.0
opencv_ml_svm:
   format: 3
   svmType: EPS_SVR
   kernel:
      type: LINEAR
   C: 1.0000000000000000e-002
   p: 1.0000000000000001e-001
   term_criteria: { epsilon:1.0000000000000000e-003, iterations:1000 }
   var_count: 868
   sv_total: 1
   support_vectors:
      - [ 1.12446202e-002, 2.96726171e-002, 8.31518788e-004,
          -6.74949167e-003, 1.18739475e-002, 1.00834039e-003,
          -1.21038966e-003, -5.06648188e-003, -1.95907913e-002,
          -2.60361638e-002, 1.46339536e-002, 1.17750987e-002,
          1.60084013e-002, 3.27575137e-003, -1.27474302e-002,
          -1.17080035e-002, -2.56153420e-002, -2.36474723e-002,
          -9.16593149e-003, 3.06047350e-002, 3.54621839e-003,
          4.48354194e-003, -4.75383783e-003, -1.43350586e-002,
          -2.02539228e-002, -3.16891260e-002, -4.10255045e-002,
          -2.29221527e-002, -1.47301825e-002, 6.76587690e-003,
          1.57793537e-002, -4.80312994e-003, 2.06703842e-002,
          -9.48102027e-003, -3.04568633e-002, -7.68809533e-003,
          -4.93869651e-003, 2.23523495e-003, 2.53439974e-002,
          1.46415411e-002, -2.03955714e-002, 1.43060274e-002,
          -1.53053897e-002, -1.22295199e-002, -2.10834015e-002,
          -9.19407513e-003, -2.94534639e-002, -4.28833514e-002,
          -4.55235094e-002, -2.68666577e-002, 7.12770969e-003,
          -2.94887032e-002, -3.66124175e-002, -3.87316570e-002,
          -1.61560792e-002, -2.45769173e-002, -1.65206511e-002,
          -3.05637792e-002, -3.95832658e-002, -4.35361713e-002,
          -7.04494910e-003, 7.08536943e-003, -2.66783731e-003,
          1.24933748e-002, -1.20123625e-002, -2.36034468e-002,
          -1.04729068e-002, -7.92968087e-003, -9.04229376e-003,
          3.54627185e-002, 1.88691523e-002, -3.78451981e-002,
          4.10283171e-003, -5.60341356e-003, -1.92997716e-002,
          -5.42919561e-002, -1.35612430e-003, -1.60291847e-002,
          -4.29093055e-002, -3.79009284e-002, -2.75114812e-002,
          8.83684866e-003, -1.38876131e-002, -1.92236304e-002,
          -4.55233492e-002, -1.00392206e-002, -2.64891218e-002,
          -1.00629292e-002, -2.31222399e-002, -2.48010382e-002,
          -4.45554443e-002, -1.40567580e-002, -1.55978892e-002,
          -4.57456103e-003, 2.10748781e-002, 3.26477773e-002,
          5.60953864e-004, 7.70027144e-003, -8.16452783e-003,
          -1.45820770e-002, 9.36066266e-003, 1.57437976e-002,
          -2.84690708e-002, -2.96250582e-002, -3.40636782e-002,
          -2.63263285e-002, -4.67378423e-002, -2.91566253e-002,
          -1.48543324e-002, -2.67530214e-002, -1.96212418e-002,
          -2.71079447e-002, -1.52016683e-002, -1.03546483e-002,
          -2.42534205e-002, -3.40425558e-002, -2.94757430e-002,
          -2.63942406e-002, -1.88756902e-002, -6.43362012e-003,
          -1.95781942e-002, -2.84873359e-002, -1.50091806e-002,
          -2.92442758e-002, 2.02442240e-002, 3.01259421e-002,
          -4.91309259e-003, -5.97767532e-003, -7.29211792e-003,
          -2.02309005e-002, -1.91101488e-002, -3.37766134e-003,
          -8.84850230e-003, -1.48189049e-002, 1.14491135e-002,
          1.74402259e-002, 9.27254558e-003, 3.99504928e-003,
          -7.13782676e-004, 9.64979269e-003, -1.86689338e-003,
          -4.10942174e-003, 1.93817317e-002, 4.29722108e-002,
          7.11326813e-003, 1.62089837e-003, -5.80657599e-003,
          -1.98609792e-002, -1.59070306e-002, -6.12464547e-003,
          -1.07945539e-002, -1.36767020e-002, -1.51663329e-002,
          1.24172792e-002, 2.15724036e-002, 4.35168156e-003,
          -1.52755557e-002, -3.40562053e-002, -2.61296704e-002,
          -1.71240475e-002, -1.39116533e-002, -1.07336650e-002,
          4.35692770e-003, -2.17655743e-003, -1.42149953e-002,
          3.17720659e-002, 1.03399204e-002, -4.76932270e-004,
          9.54499654e-003, 6.98569790e-003, -1.82808433e-002,
          -2.02462450e-002, -1.65022127e-002, -7.19816750e-003,
          5.39805787e-003, -1.13786627e-002, -2.03242097e-002,
          -8.60827044e-003, -8.87871906e-003, -2.68721189e-002,
          -1.41515676e-002, -1.48445563e-002, -1.86924059e-002,
          -3.69682275e-002, -5.57082822e-004, -1.18810253e-003,
          4.96559171e-003, -1.39285298e-002, -3.90193276e-002,
          -1.92011651e-002, 4.97549213e-003, -6.92772865e-003,
          3.13885947e-004, 3.18875611e-002, 5.58233634e-003,
          -3.85877155e-002, 1.67765878e-002, 2.85172313e-002,
          5.79261919e-003, 9.46572982e-003, 2.71522198e-002,
          -1.56460050e-002, -2.54548714e-002, -1.43306544e-002,
          -5.66887250e-003, -8.91281699e-004, -7.95890391e-003,
          -1.61960057e-003, 5.14978636e-003, 1.22776162e-002,
          -1.82132460e-002, 1.76930299e-003, -2.95982161e-003,
          2.35365843e-003, -2.08706576e-002, 9.12818965e-003,
          -8.36728979e-003, 6.62471680e-003, 3.39080542e-002,
          6.75524026e-003, -2.01561060e-002, 4.27149888e-003,
          -1.08927554e-002, -2.12752502e-002, -1.22426625e-003,
          -7.29264505e-003, -2.83476487e-002, -6.15372416e-003,
          -1.59753747e-002, -7.00658537e-004, 2.61632148e-002,
          1.45530356e-002, -6.86604530e-003, -4.46294609e-004,
          4.21302073e-004, -1.54825747e-002, 1.18075777e-002,
          -1.49924569e-002, -1.28777539e-002, 1.79242715e-002,
          -4.30667214e-003, -3.37850451e-002, -7.08387373e-003,
          -7.51787890e-003, 1.19959367e-002, -2.15657819e-002,
          8.81321914e-003, -1.17985038e-002, 2.22985540e-002,
          2.60224286e-002, -5.91090182e-003, -1.25660393e-002,
          -1.20932353e-003, -7.14218197e-003, -2.77661830e-002,
          4.41831304e-003, -2.26887246e-003, -2.97924653e-002,
          3.28024640e-003, 2.62862369e-002, 9.78526846e-003,
          1.73074882e-002, 6.64110668e-003, -4.74391319e-003,
          -1.53814387e-002, 2.10535573e-003, 1.63718089e-002,
          2.19499543e-002, 2.19371561e-002, 6.79492438e-003,
          5.67414681e-004, -1.14391884e-002, -3.16324942e-002,
          -1.00933323e-002, -2.80787796e-003, -5.94953867e-003,
          -1.54105574e-002, 1.86425634e-002, 8.07437021e-003,
          -8.77880258e-004, -1.51287680e-002, -3.38121168e-002,
          -3.08578033e-002, 3.00439191e-003, -6.20637741e-003,
          -2.64685173e-002, 1.30106378e-002, 8.73794407e-003,
          -2.64386218e-002, 3.37473638e-002, 4.26682569e-002,
          -7.88383745e-003, 6.49863807e-003, 1.58503540e-002,
          -1.81393754e-002, -2.06381436e-002, -1.23527879e-002,
          -1.81232430e-002, -2.01367959e-003, 7.48106884e-003,
          -1.70944519e-002, -3.89301917e-004, -4.84114373e-003,
          -4.12222669e-002, -6.07428513e-003, -3.43283010e-003,
          -2.46293726e-003, -2.74716392e-002, 1.95608917e-003,
          -7.51163764e-003, 3.20996717e-003, -1.42665235e-002,
          -1.30978143e-002, -1.02961762e-003, 2.97335126e-002,
          4.48586326e-003, -1.14423567e-002, 1.71504430e-002,
          8.46642349e-003, -4.71051708e-002, 7.89991766e-003,
          1.70235522e-002, -3.51635590e-002, 2.12571546e-002,
          1.57660898e-002, -3.19977738e-002, -3.29428613e-002,
          -2.11194344e-002, -1.47096720e-002, -2.62176860e-002,
          6.42209686e-003, -1.32770576e-002, 2.90423669e-002,
          9.59701743e-003, -3.62671874e-002, -1.41979046e-002,
          -1.32954093e-002, 1.89298601e-003, -2.80036088e-002,
          4.94916085e-003, -1.80459097e-002, 1.40529806e-002,
          3.35335881e-002, 1.17871789e-002, -1.02526592e-002,
          2.84083430e-002, 8.00151285e-003, -1.65457546e-003,
          1.74862482e-002, -1.08740773e-004, -3.00353020e-002,
          -1.14006434e-004, -1.15659200e-002, -3.83792482e-002,
          3.06130238e-002, -8.12435336e-003, -3.96568552e-002,
          -1.97553094e-002, -3.83873982e-003, -2.64136773e-003,
          2.19544508e-002, -3.60378902e-003, -2.92617604e-002,
          3.58921401e-002, 4.40404052e-003, -3.60273719e-002,
          -3.36235296e-003, -6.19200384e-003, 6.10001804e-003,
          -1.45491492e-002, 1.14536602e-002, -1.22453049e-002,
          2.61448361e-002, 8.88091512e-003, -8.79867282e-003,
          -1.37907565e-002, -4.12082905e-003, -1.96071132e-003,
          -1.31153092e-002, -2.54544127e-003, 1.28567452e-003,
          -5.72042800e-002, 1.43929180e-002, 4.23102677e-002,
          6.88481238e-003, 3.27981380e-003, -1.66745286e-003,
          -1.16142882e-002, -2.01564301e-002, -6.93103240e-004,
          9.00333002e-003, 3.04801315e-002, 3.28939296e-002,
          -1.73831044e-003, -9.15629417e-003, -1.02414796e-002,
          -2.37526670e-002, -2.09472328e-002, 2.21655448e-003,
          -1.60092562e-002, -1.74555350e-002, 8.16455204e-003,
          9.98537894e-003, 1.21964875e-003, -1.97492950e-002,
          -2.81200260e-002, -2.49256026e-002, 9.65569913e-003,
          -3.01908748e-003, -2.01458037e-002, 5.03283180e-003,
          3.33032906e-002, -1.84532274e-002, 6.99143484e-003,
          2.38285214e-002, -1.97923533e-003, 1.31291915e-002,
          2.12250426e-002, -1.43603394e-002, -1.60829406e-002,
          -1.39126284e-002, -7.49856606e-003, -1.35500049e-002,
          6.02971879e-004, -8.19010567e-003, 1.57904662e-002,
          7.85558950e-003, -3.11257690e-002, -9.76766553e-003,
          1.87086314e-002, -5.72405662e-003, -8.18726327e-003,
          -5.06494846e-003, -2.87902495e-003, 8.58173426e-003,
          -3.08768172e-002, -1.48711940e-002, -4.88792686e-003,
          3.61499973e-002, -1.91833344e-004, -1.54014062e-002,
          -6.83603063e-003, 4.41390509e-003, -4.03917097e-002,
          4.22225753e-003, 1.16186934e-002, -1.85991004e-002,
          3.05882599e-002, 2.55403314e-002, -1.73966680e-002,
          -1.98861752e-002, -1.40097663e-002, -8.03972781e-003,
          -2.22832765e-002, -2.39683758e-003, -9.91866179e-003,
          2.30384339e-002, 1.71949174e-002, -2.87941191e-002,
          -2.50331946e-002, -5.38796280e-003, -6.71074027e-003,
          -1.68493427e-002, -4.72675078e-004, -5.30408975e-003,
          -7.14273658e-003, -3.50517314e-003, -1.56115955e-002,
          -9.53574851e-003, 3.96938547e-002, 6.63213711e-003,
          -7.48073636e-003, -3.20372405e-003, 4.98416135e-003,
          -2.40469668e-002, -2.52990378e-003, -1.44591117e-002,
          -2.04078685e-002, 5.21306843e-002, 1.31043624e-002,
          -2.35351417e-002, -8.09638668e-003, -1.00803338e-002,
          -2.68748938e-003, -2.94595375e-003, -3.00695635e-002,
          -1.86769683e-002, 5.08310944e-002, 1.09047284e-002,
          -2.62327660e-002, -1.01580573e-002, -5.17438678e-003,
          -2.56875210e-004, -1.11947618e-002, 3.02169193e-003,
          -7.16878800e-003, 2.12785648e-003, 1.10870721e-002,
          -1.05248131e-002, -8.13803077e-003, -5.91599615e-003,
          -3.54152499e-003, -1.65206715e-002, 1.41555478e-003,
          1.56909283e-002, -5.04467972e-002, -5.50623192e-003,
          9.91746783e-003, -2.81746890e-002, -8.13974161e-003,
          3.68396263e-003, -1.39407255e-002, -1.97713450e-002,
          -1.90142374e-002, 1.46771898e-003, 1.43437590e-002,
          3.86614073e-003, -2.47885585e-002, -1.72000527e-002,
          -5.10985171e-003, -2.74174549e-002, -1.60637368e-002,
          -2.16182307e-004, -2.94119604e-002, -2.49273386e-002,
          -1.16961543e-002, -2.65316316e-003, 4.05824091e-003,
          -9.78560303e-004, -1.50409825e-002, -1.94597300e-002,
          1.78613439e-002, 8.36515054e-003, -1.66579764e-002,
          7.17260782e-003, 2.44657062e-002, -8.07416998e-003,
          -4.42027021e-003, -2.20557814e-003, -3.40574123e-002,
          1.23307062e-003, 1.08674495e-002, -1.82563756e-002,
          -2.40937583e-002, -1.85523387e-002, -6.51763548e-005,
          -7.58977141e-003, -1.13161663e-002, -3.37593406e-002,
          6.11385610e-003, 3.62601993e-003, -3.13402899e-002,
          -1.46118011e-002, 7.96647649e-003, -1.52612552e-002,
          -4.48794756e-003, -1.41820516e-002, -7.44521338e-003,
          5.41390013e-003, -7.17178592e-003, -1.46289933e-002,
          -1.14672985e-002, 3.31971347e-002, -5.48115838e-003,
          -1.25171533e-002, -7.70659838e-003, 5.30400965e-003,
          -1.94801502e-002, -5.03270281e-003, -4.18928312e-003,
          -3.35036665e-002, -2.72718840e-003, 1.35729183e-002,
          -1.27311125e-002, -2.10333746e-002, -1.29918046e-002,
          -2.42913142e-003, -4.62170644e-003, -1.53023917e-002,
          -2.80689076e-002, 1.65102147e-002, 9.19715688e-003,
          -2.08222177e-002, -2.72921678e-002, -3.50273936e-003,
          -2.17765309e-002, -1.19403005e-002, -1.43168466e-002,
          -5.31669054e-003, -2.49205213e-002, -1.77888740e-002,
          -1.26667973e-002, -1.29369283e-002, 5.54791614e-002,
          2.55260151e-002, -6.53649447e-003, -1.04074534e-002,
          9.84122604e-003, -1.55241638e-002, 1.21336449e-002,
          -8.44435953e-003, -1.36678843e-002, 1.40207661e-002,
          -2.13128282e-003, -2.26053819e-002, -1.84048470e-002,
          -1.33026997e-002, -1.30985901e-002, -1.01482356e-003,
          -1.64909009e-002, -8.97343643e-003, 3.18395905e-002,
          2.09736545e-002, -1.75824463e-002, -2.40838509e-002,
          -3.26726795e-003, -1.21269478e-002, -4.11397358e-003,
          -1.16433846e-002, -1.50129676e-003, -9.77493264e-003,
          3.53087187e-002, 1.08770886e-002, 3.37300968e-004,
          -1.42406644e-002, -1.66964829e-002, -1.60994735e-002,
          2.01174361e-003, 1.80790182e-002, -2.29281951e-002,
          -1.53921740e-002, -1.57015529e-002, -3.43279168e-002,
          -2.48688348e-002, -1.83484089e-002, -1.29113607e-002,
          -1.79387759e-002, -2.67863851e-002, 1.78848542e-002,
          2.52262708e-002, 2.75307894e-003, -1.89199019e-002,
          -1.93269271e-002, -2.99091768e-002, -2.63573900e-002,
          -1.33634750e-002, -3.64065636e-003, -3.29040438e-002,
          -2.18001492e-002, -2.27897093e-002, -7.07586529e-003,
          -1.08493334e-002, 2.32515410e-002, 6.48935465e-003,
          -3.21964710e-003, -2.15481361e-003, 2.73652328e-003,
          -7.06641050e-003, -8.31955549e-005, 2.18652654e-002,
          1.73289031e-002, -1.27325598e-002, -1.76913477e-002,
          -3.18840891e-002, -2.45846231e-002, -1.65829230e-002,
          -1.62354689e-002, -2.68729143e-002, -2.71905251e-002,
          1.48504740e-002, 1.35875642e-002, -4.23960155e-003,
          -2.06493810e-002, -4.25534416e-003, -1.23365615e-002,
          -2.16346327e-002, -2.47022714e-002, -3.82817350e-003,
          -1.64866615e-002, -8.37046839e-003, -2.37231664e-002,
          -1.05692120e-002, 1.47176916e-002, 2.50737369e-002,
          -1.77097053e-003, -3.16355540e-003, 2.27205758e-003,
          3.14423069e-003, 3.63652711e-003, 1.00707659e-003,
          1.33826165e-002, 8.89839418e-003, -1.21147241e-002,
          -1.10784089e-002, -1.62019301e-002, -2.13225670e-002,
          -1.00419112e-002, -1.27131641e-002, -2.34181788e-002,
          -2.06684470e-002, 5.58393262e-003, 1.86977293e-002,
          -2.01269332e-003, -7.75729539e-003, 3.40703153e-003,
          -4.56204498e-003, -6.86879503e-003, -2.17036437e-002,
          -6.48257416e-003, -1.43184783e-002, -4.41416632e-003,
          -8.38574953e-003, -1.33602787e-003, -1.52441170e-002,
          6.52218238e-003, 9.83563135e-004, 3.32423928e-003,
          2.00730488e-002, 2.10702084e-002, 1.97208151e-002,
          8.70004389e-003, 1.62033979e-002, -1.92473773e-002,
          -7.69754406e-003, -1.47434492e-002, -1.28572984e-002,
          -3.10323797e-002, -2.27958914e-002, -2.05108356e-002,
          -2.32627746e-002, -2.00545285e-002, -2.88186222e-003,
          5.91915008e-003, -3.52414354e-004, -8.67697690e-003,
          1.39608476e-002, 1.98817602e-003, 3.41061386e-003,
          -1.18376426e-002, 1.63238111e-003, -1.05822580e-002,
          -5.25634084e-003, -1.74623001e-002, -9.52517614e-003,
          4.60227107e-004, 2.76476908e-002, 2.38932595e-002,
          2.94415150e-002, 1.50530795e-002, -4.52967966e-003,
          -7.32353237e-003, -2.55277334e-003, -1.08334944e-002,
          5.57992700e-003, -1.72793344e-002, -2.40122564e-002,
          -3.30189541e-002, -3.03593241e-002, -2.43969988e-002,
          -2.15817485e-002, -2.25167330e-002, -2.82735433e-002,
          2.61182357e-002, 2.68062279e-002, -1.13948190e-003,
          2.98211700e-004, 2.22880510e-003, -2.36376245e-002,
          -2.61214357e-002, -2.27410644e-002, -2.59681288e-002,
          -1.84716862e-002, -2.40960196e-002, -4.08024108e-003,
          -1.20897535e-002, -6.58661127e-003, 2.00305097e-002,
          1.88447498e-002, 3.30382064e-002, 2.48952154e-002,
          9.30707715e-003, 2.11104751e-003, -6.68701762e-003,
          7.70107144e-003, 4.04591262e-002, -8.19039624e-003,
          -5.67511050e-003, -3.41444276e-002, -3.75424549e-002,
          -3.25302221e-002, -2.48640701e-002, -3.55946794e-002,
          -3.72843407e-002, 2.77627409e-002, 2.69541014e-002,
          1.69514176e-002, 1.16805620e-002, 5.71626611e-003,
          -2.20542550e-002, -2.33370177e-002, -4.14584801e-002,
          -2.52424199e-002, 1.20501267e-002, -1.24738524e-002,
          -1.33938082e-002, -2.04590596e-002, 6.45490037e-003,
          2.55406573e-002, 1.01512764e-002, 1.31364716e-002,
          6.25165692e-003, 1.88329257e-002, 1.47769218e-002,
          3.22571083e-004, -2.41879243e-004, 2.31895633e-002,
          -2.44827732e-003, -1.82689708e-002, -2.35898960e-002,
          -3.19908485e-002, -2.93376800e-002, -2.59892102e-002,
          -2.94206943e-002, -2.70117987e-002, 6.69102184e-003,
          3.04946601e-002, 6.89466530e-003, -1.06005720e-003,
          -7.17786653e-003, -9.34305508e-003, -1.26325525e-002,
          -2.83414740e-002, -2.59419698e-002, 4.23190737e-004,
          -1.91276949e-002, 3.95043148e-003, -1.80753134e-002,
          7.99131487e-003, 1.86412372e-002, 5.96652227e-003,
          1.41429082e-002, 8.94495845e-003, 2.26745121e-002,
          9.04043298e-003, -7.23071862e-003, -1.35481940e-003,
          2.54211482e-003, 8.82219337e-003, -3.13894488e-002,
          -1.32975960e-002, -3.89783531e-002, -3.69869024e-002,
          -2.69445907e-002, -2.80844904e-002, -1.20836217e-002,
          1.07750539e-002, 1.76493004e-002, -1.69160161e-002,
          -8.30397010e-003, -2.24866122e-002, -1.70447994e-002,
          -1.75787210e-002, -3.17947455e-002, -7.80593790e-003,
          1.69660430e-002, -2.01154388e-002, -1.40914563e-002,
          -2.87604071e-002 ]
   decision_functions:
      -
         sv_count: 1
         rho: -9.2442644685506892e-002
         alpha: [ 1. ]
