%YAML:1.0
opencv_ml_svm:
   format: 3
   svmType: EPS_SVR
   kernel:
      type: LINEAR
   C: 1.0000000000000000e-002
   p: 1.0000000000000001e-001
   term_criteria: { epsilon:1.0000000000000000e-003, iterations:1000 }
   var_count: 1302
   sv_total: 1
   support_vectors:
      - [ 5.98617224e-003, 3.43951024e-003, -3.87278362e-003,
          -5.63573278e-003, -1.02228550e-002, 3.98681819e-004,
          -3.14629241e-003, 1.30444882e-003, -3.43501242e-003,
          -8.31209030e-003, 1.82105601e-002, 2.40757950e-002,
          -9.67947562e-005, -1.85463242e-002, -1.50126452e-002,
          1.43687567e-003, -3.24451970e-003, 8.15299433e-003,
          6.15032157e-003, 1.43366596e-002, 1.51117910e-002,
          -1.08278701e-002, -2.60978900e-002, -1.52172670e-002,
          -6.81940047e-003, -4.57792543e-003, 1.89067272e-003,
          -9.14027169e-003, 4.24232893e-003, -7.68866995e-003,
          8.57027806e-003, -5.94322628e-004, -1.08297104e-002,
          -9.79163032e-003, -7.02175591e-003, -3.65825044e-003,
          -3.30478256e-003, -6.96263323e-003, -1.90176768e-004,
          -1.71785871e-003, 2.99582840e-003, 2.38520969e-002,
          1.80353429e-002, -9.73864179e-003, -1.39179556e-002,
          -2.93264631e-003, -2.69114599e-003, -5.76483179e-003,
          8.33418407e-003, 8.24595802e-003, 1.27268853e-002,
          8.69865587e-004, -2.21682377e-002, -1.99595522e-002,
          -1.13880243e-002, -1.19266314e-002, -6.87317131e-003,
          4.17507906e-003, -9.68199875e-003, 1.68165043e-002,
          -1.47593664e-002, -4.58387891e-003, 3.16403923e-003,
          1.74317381e-003, -6.83962542e-004, -2.65069772e-003,
          6.16203688e-005, -1.15714278e-002, -1.19542489e-002,
          -7.78191490e-003, -7.38639478e-003, 8.35969206e-003,
          2.79278494e-002, 2.22210120e-002, -1.73753630e-002,
          -1.59724485e-002, 3.56792007e-003, -1.14931539e-002,
          -1.70611423e-002, -2.93028716e-004, 9.10864212e-003,
          2.15405077e-002, 1.16597833e-002, -2.84818131e-002,
          -2.16644071e-002, -8.37041903e-003, -2.16450579e-002,
          -2.18112301e-002, -8.53482913e-003, -2.11971570e-002,
          5.79810096e-003, -1.35591514e-002, 1.14322770e-002,
          1.24651175e-002, 2.84846518e-002, 1.62590500e-002,
          5.98740997e-004, -1.23998919e-003, -1.06941266e-002,
          -6.34632446e-003, -5.16767753e-003, -9.38323885e-003,
          -2.99165538e-003, 5.64230839e-003, 1.16874501e-002,
          -9.18869395e-003, -1.22163016e-002, -2.79129134e-003,
          -1.99733749e-002, -2.68718656e-002, -1.05442749e-002,
          9.25518386e-003, 2.45331023e-002, 1.06134629e-002,
          -1.69193577e-002, -1.96266621e-002, -1.21311266e-002,
          -2.48516593e-002, -3.17157768e-002, -1.94646772e-002,
          -2.10347250e-002, -9.64969222e-005, -1.48080196e-002,
          1.60124600e-002, -2.90202629e-003, 2.38022655e-002,
          1.00422632e-002, 8.52257828e-004, 9.25627723e-003,
          6.03654841e-003, -1.30248414e-002, -8.53759795e-003,
          -6.84267282e-003, 5.44807874e-003, -5.29175857e-003,
          -2.28969231e-002, -1.74193326e-002, 4.42789216e-003,
          7.64756091e-003, -1.45617379e-002, -3.10865100e-002,
          -2.60557383e-002, -4.34073340e-003, 7.78024876e-003,
          -1.35452496e-002, -2.29673851e-002, 2.54869927e-003,
          5.22248074e-003, -2.45586615e-002, -3.86872254e-002,
          -3.25494371e-002, -2.06427444e-002, -1.16099538e-002,
          -1.36018638e-002, 7.62119703e-003, -7.32028112e-003,
          2.09792443e-002, -4.91776038e-003, -2.14159656e-002,
          1.10605620e-002, 1.00910710e-002, -1.73571575e-002,
          -1.26801301e-002, -6.02074713e-003, 1.73885739e-004,
          -1.12692527e-002, -3.04059815e-002, -3.01465522e-002,
          7.27155432e-003, 2.17162687e-002, -1.60017051e-002,
          -4.15619910e-002, -2.74080727e-002, -1.60259698e-002,
          -7.08779786e-003, -3.74286920e-002, -4.12203856e-002,
          -7.81559013e-003, 1.26815997e-002, -2.87256688e-002,
          -5.26602864e-002, -3.29379514e-002, -2.79892571e-002,
          -1.55813266e-002, -1.82193685e-002, -1.13774631e-002,
          -3.99504276e-003, -3.29001760e-003, -1.14597706e-003,
          1.34134316e-003, -7.13427784e-004, -6.79099699e-003,
          -6.92669349e-003, 2.47213989e-003, -4.20705462e-003,
          1.89019355e-003, 1.31027056e-002, 1.26414355e-002,
          -1.02878932e-003, -2.00460013e-002, 1.58915203e-003,
          2.81604426e-003, -2.27229809e-003, -2.93596927e-003,
          8.12061504e-003, 5.13852481e-003, 5.04737347e-003,
          -2.91136955e-003, -5.59659535e-003, -1.43923005e-003,
          -1.60144165e-003, -3.30985757e-004, -7.43744429e-003,
          -3.40796099e-003, -7.25387968e-003, 8.20790511e-003,
          -5.79521293e-003, -7.95306917e-003, -1.31602697e-002,
          -1.27310248e-003, 3.36476439e-003, 3.29088722e-003,
          -1.35960020e-002, -2.99643888e-003, 1.95041101e-003,
          1.71436870e-003, 5.00427885e-003, 1.69582926e-002,
          3.49878159e-004, -4.02172608e-003, -4.65077674e-003,
          1.66687008e-003, -8.30805022e-003, -4.46839677e-003,
          -1.40889932e-003, 6.73436467e-003, 1.66262744e-003,
          -6.00513816e-003, -2.30909139e-003, 5.61794732e-003,
          -6.85233995e-003, -8.11143313e-003, -2.27786065e-003,
          6.46509579e-004, -2.22330727e-003, -3.99074843e-003,
          -1.23025978e-003, -5.53662004e-003, -7.57393800e-003,
          -8.32423382e-003, -6.39345963e-003, -7.27722235e-003,
          -6.80863764e-003, -8.67554266e-003, -1.07985875e-002,
          -8.40639882e-003, -7.97482382e-004, 4.25148848e-003,
          1.34701207e-002, 8.66591278e-003, -8.55497736e-003,
          9.35814984e-004, 1.61416065e-002, -9.36566945e-003,
          -1.18624317e-002, -3.58935213e-004, 7.29138823e-003,
          8.98952968e-003, -1.43298312e-004, -1.27535937e-002,
          2.80440762e-003, 8.69107991e-003, -1.74428020e-002,
          -1.90000404e-002, -2.28029722e-003, -6.62902091e-003,
          -1.25113865e-002, -2.02178629e-003, -3.22454260e-003,
          3.71595524e-004, 3.81206325e-003, 1.75443303e-003,
          -4.84514004e-003, -2.19227769e-003, -1.31623903e-002,
          -1.80388391e-002, -1.43596614e-002, -8.09536129e-003,
          -5.85004175e-003, 4.98951646e-004, 6.16330002e-003,
          -5.38722659e-003, 4.05269908e-003, 2.51946468e-002,
          4.83742356e-003, -2.24256329e-003, -4.26588859e-003,
          4.84094489e-003, 9.03016515e-003, -4.25364543e-003,
          -1.20231668e-002, 5.99350780e-003, 1.24621168e-002,
          -1.12828119e-002, -1.57808177e-002, -1.18885580e-002,
          -1.31478894e-003, -1.16608134e-002, 2.66371691e-003,
          -4.65708226e-003, -1.12063820e-002, 5.94847044e-003,
          6.21656945e-004, -6.18994934e-003, 7.20026903e-003,
          -9.44353454e-003, -2.77024079e-002, -1.98873039e-002,
          7.63939368e-003, 9.74589121e-003, 2.28192890e-003,
          -1.34198023e-002, -1.06362188e-002, 2.51541492e-002,
          2.84614302e-002, 1.22287241e-003, -6.09011995e-003,
          -1.64858364e-002, 1.62948179e-003, 5.67346625e-003,
          -1.20324530e-002, -2.16479246e-002, 1.63132213e-002,
          2.08088625e-002, -1.97538622e-002, -2.52978224e-002,
          -1.00035556e-002, 1.27339410e-003, -1.37808444e-002,
          3.61583824e-003, -6.56346837e-003, -5.37179597e-003,
          8.56656989e-004, -1.28441863e-002, -2.38116998e-002,
          1.52503641e-003, -6.41587237e-003, -2.12321337e-002,
          -1.47221116e-002, 3.30309663e-003, 1.31159360e-002,
          -3.99423623e-003, -1.96997486e-002, -3.76743078e-002,
          1.30574936e-002, 3.25521678e-002, -6.86648441e-003,
          -2.39393599e-002, -1.95613075e-002, 1.54356856e-003,
          -6.80052955e-003, -3.23090144e-002, -5.22793084e-002,
          3.58330994e-003, 1.84602570e-002, -2.54222807e-002,
          -3.55977565e-002, -1.59246922e-002, -6.59188116e-003,
          -3.11984792e-002, -3.94385541e-003, -2.03599371e-002,
          7.83375744e-003, 8.17898754e-003, 6.64127013e-003,
          2.30611628e-003, -3.74770304e-003, -9.50785913e-003,
          -1.39325280e-002, -4.04555770e-003, -7.32774334e-003,
          -3.54070170e-003, 5.59797231e-003, 1.70154851e-002,
          -2.78967014e-003, -1.62000209e-002, 2.34081806e-003,
          -7.80070340e-003, -6.48225192e-003, -5.27287368e-003,
          1.12717124e-002, 6.66193897e-003, 1.28040947e-002,
          9.58384335e-005, -8.08759313e-003, -1.69811014e-003,
          -1.78427789e-002, -1.05666695e-002, -1.17353406e-002,
          -8.44964013e-003, -1.13124978e-002, 4.41018306e-003,
          8.64318979e-004, -4.65036416e-003, -8.84919614e-003,
          9.08152759e-003, 4.35040379e-003, 8.83402710e-004,
          -8.53185728e-003, -1.60856091e-003, -1.48452993e-003,
          5.24512073e-003, 6.13163365e-003, 1.29801864e-002,
          1.00942999e-002, -1.51285285e-003, -1.14055146e-002,
          -1.07627697e-002, -2.03639474e-002, -1.08910985e-002,
          -1.91792136e-003, 7.13937636e-003, 1.27651787e-003,
          1.04037216e-002, -3.77674960e-003, 6.93554466e-004,
          -1.12441815e-002, -1.94552671e-002, -1.18447961e-002,
          4.30652080e-003, -1.01223437e-003, -8.83590803e-003,
          -5.06601064e-004, -5.30141126e-003, 1.57975810e-004,
          -1.01405848e-002, -1.53888355e-003, -9.62238945e-003,
          -2.01730500e-003, 3.20269866e-003, -2.13297564e-004,
          -8.88815615e-004, 1.07856456e-003, -1.03343744e-002,
          1.54688042e-002, 1.91056579e-002, 1.13835642e-002,
          -7.36736367e-003, -4.01629740e-003, -1.55578535e-002,
          -5.90720540e-003, -2.20874805e-004, -4.65954747e-003,
          -7.87563622e-003, 8.85366462e-003, -6.42913906e-003,
          -7.58807582e-004, 5.31546352e-003, -1.30711924e-002,
          -5.79826115e-003, 1.56255905e-003, -1.72072172e-003,
          -7.14588771e-003, 3.61005333e-003, -2.95899576e-003,
          -8.16189684e-003, 1.02694258e-002, 1.33654079e-003,
          -5.25993574e-003, 1.27407098e-002, -2.80808797e-003,
          -7.50747090e-003, -1.41727161e-002, -1.63261883e-003,
          -1.18744569e-002, 4.37761843e-003, 7.15173176e-003,
          8.95643700e-003, -2.44929008e-002, -3.41030792e-003,
          -3.01192678e-003, 1.85053982e-002, -8.86395946e-003,
          -6.35043671e-003, 1.01002129e-002, -2.76078051e-003,
          -4.40633483e-003, 5.33241313e-004, -2.56401417e-003,
          -9.23889130e-003, 1.08240265e-003, -7.27029191e-003,
          -1.00315351e-003, -8.75277352e-003, 2.03984044e-003,
          -5.41637326e-003, -2.38028411e-002, 8.16570409e-003,
          -1.19216600e-002, -7.19522918e-003, 2.27883738e-002,
          -2.47119390e-003, -1.18516656e-002, -2.25544479e-002,
          4.56975913e-003, 1.66286658e-002, 9.36271995e-003,
          -6.33828714e-003, -3.41839134e-003, -1.29702473e-002,
          -9.47394408e-003, -9.87117365e-003, 2.32851803e-002,
          -1.25023685e-002, -4.53228690e-003, 1.01611884e-002,
          -1.61499120e-002, -1.55747645e-002, 1.27734488e-003,
          -6.79679308e-003, -1.96709763e-002, -8.60139087e-004,
          -5.72105730e-003, -7.25385908e-004, -1.12182116e-002,
          -2.35039066e-003, -9.07380600e-003, -1.92585848e-002,
          4.17513167e-003, -1.81306768e-002, -2.54849996e-002,
          8.83221999e-003, 1.07912496e-002, 2.42681068e-004,
          -1.51942382e-002, -4.35429160e-003, 1.24438647e-002,
          -4.09689452e-003, -9.76981036e-003, -2.38698050e-002,
          -4.02734466e-002, -7.85191730e-003, -4.13039746e-003,
          2.11939737e-002, -6.06256071e-003, -6.75895996e-003,
          3.01168393e-003, -2.67124120e-002, -3.94165963e-002,
          -2.27246638e-002, -6.23634690e-003, -9.52332001e-003,
          1.19017879e-003, -7.77623337e-003, -4.82894853e-003,
          -2.32997350e-002, -1.03046950e-002, -1.85110364e-002,
          5.84973628e-003, 4.89446160e-004, 8.59151222e-003,
          2.19601276e-003, 1.95907243e-003, 1.26133801e-003,
          -6.27701404e-003, -7.61099067e-003, -8.59540794e-003,
          -1.25765661e-002, -1.43783123e-004, 8.31679814e-003,
          9.20543168e-003, -9.52668954e-003, 2.54788483e-003,
          -1.87078165e-003, -9.36436653e-003, -2.46111397e-003,
          -2.02516350e-003, -4.19470714e-003, 1.28784282e-002,
          1.90868333e-003, 2.44023278e-003, 4.93164035e-003,
          -6.94251433e-003, -1.51189249e-002, -8.46291706e-003,
          -6.91358559e-003, -1.25201996e-002, 1.19032981e-002,
          -9.59183206e-004, 6.01420994e-004, -7.60445232e-003,
          7.65269855e-003, 6.20313967e-003, 6.53829891e-003,
          -5.31060323e-005, -1.19516589e-002, -2.23086262e-003,
          -9.04358050e-004, -3.01728467e-003, 4.99028107e-003,
          7.66118709e-003, 8.10444914e-003, -5.58466418e-003,
          -9.91327316e-003, -1.48322126e-002, -1.53505160e-002,
          1.76550576e-003, -1.66487612e-003, -1.79723301e-003,
          8.80825613e-003, -2.51368037e-003, 1.05947871e-002,
          -5.75069571e-003, -2.16258075e-002, -1.52575951e-002,
          3.48839618e-004, -2.59420881e-003, -5.78830205e-003,
          1.13884208e-003, -5.92036778e-003, 3.89742316e-003,
          -7.37340422e-003, 4.42693970e-004, 2.30542338e-003,
          -4.39052982e-003, 1.96669460e-003, 4.45371168e-003,
          5.79188950e-003, -7.10060867e-003, -8.81517213e-003,
          2.37601623e-003, -9.18175618e-004, 1.53660979e-002,
          -7.36706983e-003, -1.33291325e-002, -1.00358436e-002,
          -8.53230990e-003, 2.19894783e-003, -9.24144778e-003,
          -1.61928106e-002, -7.05439318e-003, -3.12370481e-003,
          -5.91815962e-003, -6.07014401e-003, -4.52115573e-003,
          -2.80164881e-003, -3.40586901e-003, -6.53581135e-003,
          -6.18526759e-003, 9.79043078e-004, -1.95842516e-003,
          1.29764189e-003, 2.16354529e-004, 4.39348305e-003,
          8.11468530e-003, 4.85197688e-003, -8.01761169e-003,
          1.14317646e-003, 2.19866540e-003, -1.16191646e-002,
          -5.42233977e-003, 8.45737290e-003, -1.16638448e-002,
          1.81030929e-002, -2.09603067e-002, -1.76731758e-002,
          -7.48697901e-003, 1.48965092e-002, -9.64009261e-004,
          -7.24747498e-003, 1.54378999e-003, -1.22311851e-002,
          -5.96083468e-003, -4.53332067e-003, -1.93303861e-002,
          -7.54164718e-003, 8.01787246e-003, -9.36718099e-003,
          -2.87988968e-003, -4.39227046e-003, 6.74615498e-004,
          -2.89384625e-003, -1.38559900e-002, 2.37904349e-003,
          -7.60534685e-003, 6.04345230e-003, 2.12719068e-002,
          -6.28324505e-003, 5.22213383e-003, -2.90731667e-004,
          -8.30072444e-003, -2.57608411e-003, 8.68838653e-003,
          -1.23128518e-002, 9.07718483e-003, -1.16508920e-002,
          -2.62006726e-002, -5.53435413e-003, 2.76591033e-002,
          -8.04707222e-003, -1.86930597e-002, 2.51047430e-003,
          -1.48505270e-002, -2.09261966e-003, -4.48352657e-003,
          -2.36250889e-002, -1.68386521e-003, 1.88357122e-002,
          -1.55980783e-002, 3.40154162e-004, -1.61270215e-003,
          -3.62702925e-003, -5.62054012e-003, -5.83618414e-003,
          2.28384917e-004, -1.71765964e-002, -1.12424623e-002,
          -4.31054644e-003, 1.04121286e-002, 3.29032391e-002,
          2.41545103e-002, -8.62377789e-003, -8.04616325e-003,
          -2.98687187e-003, -7.30029820e-003, -1.63018815e-002,
          -3.39581333e-002, -2.37986017e-002, 3.92847555e-003,
          3.57692316e-002, 1.06925007e-004, -1.46095091e-002,
          -7.07208121e-004, -2.36136913e-002, -2.24542320e-002,
          -2.73688380e-002, -1.22824563e-002, 3.11001558e-002,
          5.03954552e-002, -7.26928888e-003, 8.91260151e-003,
          -5.99204190e-003, -8.26528016e-003, -9.77714267e-003,
          -5.71157690e-003, 8.97810608e-003, 1.27537232e-002,
          -3.81047861e-003, 1.58904251e-002, 7.96533655e-003,
          -8.32999125e-004, -3.33394669e-003, 2.04979721e-003,
          -1.22587876e-002, -1.28303180e-002, 4.19510482e-003,
          1.97237525e-002, -1.31355710e-002, -2.52112374e-003,
          -3.07947572e-004, -1.89929493e-002, -1.21041453e-002,
          -1.75653175e-002, -7.63752684e-003, 1.12452321e-002,
          1.40544241e-002, 8.99151526e-003, 8.95061903e-003,
          -4.69578226e-004, -1.89112592e-002, -7.20356544e-003,
          -1.43250292e-002, -1.43513698e-002, 1.68971121e-002,
          5.04599605e-003, -2.07339562e-002, 2.87825795e-004,
          -1.96004333e-003, -1.21685993e-002, 1.18998401e-002,
          1.17857270e-002, -2.16861721e-003, 6.52669417e-003,
          5.19158365e-003, -1.29973274e-002, -7.79584097e-003,
          7.84869026e-003, 2.81946175e-002, -9.02854744e-003,
          -1.38430903e-002, -1.31910071e-002, -1.97241083e-002,
          -1.99292917e-002, -2.38540433e-002, -8.37771967e-003,
          3.47004551e-003, 2.18688175e-002, 9.62170959e-003,
          3.47550027e-003, -9.86001361e-003, -1.09726768e-002,
          -1.45065794e-002, -7.78358616e-003, -7.54481461e-003,
          -5.96150989e-003, -7.84518011e-003, -1.41314594e-002,
          -3.18462006e-003, 3.80087760e-003, -8.80138110e-003,
          -5.38231060e-003, 2.78781587e-003, 3.45835742e-003,
          5.66232856e-003, -1.50840394e-002, -2.77381241e-002,
          -1.62464883e-002, -2.42664851e-003, 3.96548994e-002,
          -1.37892645e-002, -2.23185867e-002, -1.32324602e-002,
          -1.04388092e-002, -1.16610816e-002, -3.43283489e-002,
          -2.57489178e-002, -8.90016090e-003, 1.48697542e-002,
          -5.72027592e-003, -1.50829507e-002, -7.00994302e-003,
          -5.03026042e-003, -2.46585328e-002, -1.58726517e-002,
          -1.51998801e-002, -1.07714115e-002, -9.57212411e-003,
          -1.52268941e-002, -1.36730541e-002, 1.04606999e-002,
          6.13651890e-003, -4.03468311e-003, -5.49594685e-003,
          4.06040344e-003, 1.80895301e-003, -2.38672011e-002,
          -1.50903808e-002, 5.39536588e-003, -6.50168210e-003,
          2.70904228e-002, -2.32383106e-002, -2.75431424e-002,
          -1.08825956e-002, 8.67264625e-003, 4.74706711e-003,
          -3.07829045e-002, -1.21466788e-002, -2.30898894e-003,
          4.51238314e-003, -1.68939680e-002, -2.95631345e-002,
          -4.67522396e-003, 7.37273926e-003, -1.89705789e-002,
          -1.24146165e-002, -1.12885069e-002, -6.00409461e-003,
          -6.67629112e-003, -1.41169503e-002, -7.87749700e-003,
          1.59648096e-003, 8.48064199e-003, 7.40193576e-003,
          -3.50007880e-003, 8.56716931e-003, -2.39402847e-003,
          -1.46841025e-002, -1.83319692e-002, -2.20747665e-003,
          -5.79441991e-003, 1.04396446e-002, -2.65567787e-002,
          -4.14358564e-002, -1.34490989e-002, 2.02700570e-002,
          -7.69465277e-003, -2.87653133e-002, -1.59934964e-002,
          -3.22388159e-003, 8.77079833e-003, -2.06283107e-002,
          -3.48283872e-002, -9.33065731e-003, 1.16305845e-002,
          -1.69433486e-002, -8.38974118e-003, -1.00770360e-002,
          -1.57540347e-002, -1.35258706e-002, -6.62271492e-003,
          -1.12224845e-002, -6.85561262e-003, -5.70041919e-003,
          -1.77194402e-002, 8.21531925e-004, 3.25258821e-002,
          2.19890084e-002, 2.77179992e-004, -4.17079031e-003,
          -9.28903092e-003, -1.20796380e-003, -1.23223728e-002,
          -3.99754271e-002, -3.68192829e-002, -3.24316369e-003,
          2.95627508e-002, -3.49138019e-004, -8.92520137e-003,
          -9.71308444e-003, -7.97975250e-003, -1.06906630e-002,
          -4.02869582e-002, -2.91550066e-002, 2.24247947e-002,
          4.35740091e-002, 1.34192617e-003, 5.04843006e-003,
          -3.15150642e-003, -1.74744129e-002, -1.75720621e-002,
          -9.39231738e-003, 3.61502799e-003, 1.49979647e-002,
          6.63279044e-003, 1.76542141e-002, -3.45634832e-003,
          -1.29725097e-003, -1.35469541e-003, 6.39008777e-003,
          8.38457083e-004, -9.97605734e-003, -4.43031866e-004,
          9.50453058e-003, -2.39874702e-002, -5.71221532e-003,
          -1.71798863e-003, -7.28374673e-003, -1.08714700e-002,
          -1.23591674e-002, -7.51552312e-003, 1.00752516e-002,
          5.27746649e-003, 2.00297614e-003, 1.26720159e-004,
          -3.59728886e-003, -6.48133550e-003, -4.19083098e-003,
          -3.11229564e-002, -1.27897281e-002, 1.70026217e-002,
          1.94338858e-002, -2.76995320e-002, -3.43402755e-003,
          -1.08824819e-002, -5.22683142e-003, 1.68944392e-002,
          -1.13080733e-003, -2.30530999e-003, 4.71219420e-003,
          2.33288971e-003, -7.47161545e-003, -1.15260982e-003,
          1.18681472e-002, 3.43239307e-002, -9.53720603e-003,
          -7.03176018e-003, -1.72111969e-002, -1.38236349e-002,
          -2.95804143e-002, -2.79544648e-002, -1.03148362e-002,
          -1.20211591e-003, 1.86232887e-002, 6.56900695e-003,
          1.14322361e-003, -1.52087435e-002, -7.43161421e-003,
          -2.48266086e-002, -2.32179016e-002, 3.70098720e-003,
          -1.57921202e-002, 4.02890099e-003, -1.88361928e-002,
          7.29711959e-003, 2.42074556e-003, -1.81397842e-003,
          -5.74415026e-004, -1.88716576e-002, -3.76072410e-003,
          8.40840209e-003, -7.27237621e-003, -2.32062694e-002,
          -2.34139562e-002, -6.76392438e-003, 3.66190933e-002,
          -1.15848556e-002, -1.47039304e-002, -1.94910858e-002,
          -8.18903651e-003, -1.85553879e-002, -3.56722400e-002,
          -2.52616741e-002, -1.02593023e-002, 1.93535711e-003,
          -8.93193670e-003, -2.06896476e-002, -2.00232156e-002,
          -1.92838628e-003, -2.41753645e-002, -2.76067089e-002,
          -4.38696565e-003, -2.68212557e-002, 1.16627803e-003,
          -3.04627009e-002, -1.01223523e-002, 1.09529532e-002,
          1.58168953e-002, -5.83665958e-003, -2.67756041e-002,
          -1.14476669e-003, 9.56775434e-003, -1.27224829e-002,
          -1.88414101e-002, -1.64649040e-002, -2.02599056e-002,
          2.34098136e-002, -1.26521261e-002, -2.54857130e-002,
          -1.18524656e-002, 1.53940385e-002, 6.92646892e-004,
          -4.73926626e-002, -3.69995497e-002, -1.01680057e-002,
          -5.29105915e-003, -1.96279492e-002, -3.67333330e-002,
          -1.34234987e-002, 1.54263545e-002, -1.35160163e-002,
          -2.53888294e-002, -7.97978975e-003, -2.10408438e-002,
          -6.43929350e-004, -2.68595796e-002, -9.16811917e-003,
          7.38605391e-003, 2.11861655e-002, 6.08561561e-003,
          -2.09401380e-002, -2.45097629e-003, -4.25233273e-003,
          -1.22498507e-002, -2.01070681e-002, -2.68546846e-002,
          -1.78680625e-002, 1.53125226e-002, -1.55623714e-002,
          -2.87845638e-002, -6.12366758e-003, 2.99740210e-002,
          -6.97566662e-003, -4.22884263e-002, -3.69038209e-002,
          -4.75217775e-003, -5.63420868e-003, -1.42834866e-002,
          -3.87683250e-002, -7.62317143e-003, 2.03355514e-002,
          -1.52534386e-002, -1.59127936e-002, -3.19665950e-003,
          -2.65240464e-002, -1.01108272e-002, -1.94566865e-002,
          -1.21241165e-002, 1.39255030e-003, 1.94938928e-002,
          -1.54811870e-002, -1.79798268e-002, 2.24815924e-002,
          1.97369456e-002, 8.07553064e-003, -4.82115382e-003,
          -2.20443979e-002, -1.13030327e-002, 1.80862506e-003,
          -2.60491818e-002, -3.71517390e-002, -3.12674372e-003,
          2.86998581e-002, -7.02805212e-003, -2.47070659e-002,
          -2.66113840e-002, -6.52747368e-003, -7.76747754e-003,
          -2.69166455e-002, -4.26219925e-002, 2.21144557e-002,
          4.18827794e-002, 1.51054177e-004, 8.33696779e-003,
          3.64894746e-003, -3.10592297e-002, -1.62237622e-002,
          -1.24367550e-002, 1.81787310e-003, 1.82010792e-002,
          1.52405696e-002, -5.84292086e-003, -1.37852784e-002,
          -6.64032996e-003, -9.58737824e-003, -5.11423219e-003,
          -1.99017391e-004, -1.17357075e-002, 6.69641839e-003,
          2.19351761e-002, -3.75380106e-002, -1.83724705e-002,
          -6.95440685e-003, -3.89334513e-003, -1.68566592e-002,
          -2.11257301e-002, -1.65741183e-002, 1.05250338e-002,
          1.15405815e-002, -1.24493558e-002, -2.89696828e-002,
          -1.64479371e-002, -1.51448958e-002, -2.33245566e-002,
          -5.44179007e-002, -2.37075221e-002, 1.56506617e-002,
          2.23749354e-002, -2.54385099e-002, -1.80927310e-002,
          -1.54072242e-002, 5.90979587e-003, 8.04689713e-003,
          3.41986748e-003, 1.21154101e-003, -3.12342448e-003,
          -6.52517984e-003, -1.07705779e-002, -5.54344943e-003,
          1.94191709e-002, 4.48214523e-002, -3.27646062e-002,
          -2.01148856e-002, -3.15862708e-002, -2.07591448e-002,
          -2.76015028e-002, -3.81431393e-002, -2.22342573e-002,
          -9.54131829e-004, 1.42195299e-002, -1.58027094e-003,
          -1.51816728e-002, -2.67822258e-002, -2.30831373e-002,
          -3.21102142e-002, -3.37099880e-002, -5.34584699e-003,
          -2.81915627e-002, 3.65611399e-003, -1.39893657e-002,
          -1.22181345e-002, -1.60289090e-002, 3.04359733e-003,
          1.21471481e-002, 1.69194318e-004, 8.80364235e-003,
          1.87159015e-003, -1.93466358e-002, -2.70177983e-002,
          -1.51794665e-002, 6.99698692e-003, 3.65726687e-002,
          -3.31901163e-002, -2.15472672e-002, -2.87035499e-002,
          -1.30056487e-002, -1.85814630e-002, -3.81365791e-002,
          -3.47908549e-002, -1.51360044e-002, 9.25793126e-003,
          -7.90680107e-003, -2.27243621e-002, -1.72819998e-002,
          -1.18428729e-002, -3.71515863e-002, -2.90522743e-002,
          -5.28594339e-003, -3.06357928e-002, -5.36053628e-003,
          -3.32085378e-002, -8.35011527e-003, 8.24526045e-003,
          2.53202375e-002, 1.01620639e-002, -2.09345631e-002,
          -1.03336154e-002, -4.58987808e-004, -1.76497139e-002,
          -7.65755307e-003, -4.34199395e-003, -1.16998004e-002,
          1.61967631e-002, -1.96166206e-002, -1.68735646e-002,
          -2.11564098e-002, 2.35256716e-003, -1.12619065e-002,
          -3.83131318e-002, -2.57896055e-002, -8.84966180e-003,
          5.53055573e-003, -1.46387275e-002, -3.91001739e-002,
          -2.99845506e-002, -7.39297690e-003, -2.88968720e-002,
          -1.91385355e-002, -7.43918866e-003, -2.56126374e-002,
          -4.97466279e-003, -1.23371985e-002, 6.61747577e-003,
          6.25638291e-003, 3.90934236e-002, 1.54038994e-002,
          -1.87917147e-002, -1.17981536e-002, -1.00437496e-002,
          -1.93005614e-002, -1.15212286e-002, -2.00794637e-002,
          -2.24752501e-002, 1.39140396e-003, -1.81170963e-002,
          -3.13724428e-002, -1.51776737e-002, 1.16969328e-002,
          -6.38537994e-003, -2.38988474e-002, -1.71840526e-002,
          -1.23928636e-002, 1.11262016e-002, -1.14078904e-002,
          -4.45528366e-002, -2.52317991e-002, -4.70698345e-003,
          -2.32448466e-002, -2.33466667e-003, -6.45037135e-003,
          -2.88220774e-002, -1.75185893e-002, 3.16011743e-003,
          4.21490800e-003, 5.70615334e-003, 2.10528802e-002,
          -2.06914563e-002, -1.70211159e-002, 1.59387924e-002,
          2.03711763e-002, 1.18173901e-002, -5.19269845e-004,
          -1.41405789e-002, -1.45496875e-002, 4.35216958e-003,
          -2.26607267e-002, -5.62354475e-002, -2.00877972e-002,
          1.93484370e-002, -1.31243432e-003, -5.82247798e-004,
          -7.72433262e-003, -6.28342386e-003, -5.18676941e-004,
          -3.74756493e-002, -6.67189732e-002, -8.89783166e-003,
          2.82518454e-002, 7.52783287e-003, 2.47307755e-002,
          2.69988715e-003, -2.91193370e-002, -2.71876324e-002 ]
   decision_functions:
      -
         sv_count: 1
         rho: -1.3307993590831774e-001
         alpha: [ 1. ]
