%YAML:1.0
opencv_ml_svm:
   format: 3
   svmType: EPS_SVR
   kernel:
      type: LINEAR
   C: 1.0000000000000000e-002
   p: 1.0000000000000001e-001
   term_criteria: { epsilon:1.0000000000000000e-003, iterations:1000 }
   var_count: 1240
   sv_total: 1
   support_vectors:
      - [ 1.66874900e-002, 5.44866435e-002, 1.85410623e-002,
          -2.70705968e-002, -3.37107815e-002, -3.32637951e-002,
          -3.12376916e-002, -3.33703235e-002, -1.17604658e-002,
          3.12277582e-002, -1.79062765e-002, -8.31035227e-002,
          -9.83239990e-003, 1.01001570e-002, -1.82743859e-003,
          8.48759152e-003, -2.23097075e-002, -2.42060944e-002,
          5.19824065e-002, 3.79613079e-002, -6.20316155e-002,
          -3.44227366e-002, -1.63120590e-002, -2.99832020e-002,
          -2.30497681e-002, -5.36617972e-002, -2.99465731e-002,
          -5.87981306e-002, -3.83708477e-002, -3.18252202e-003,
          1.07532609e-002, 2.20480468e-002, 6.15244992e-002,
          2.40523312e-002, -3.11166067e-002, -5.04485480e-002,
          -4.35471050e-002, -3.60053629e-002, -3.32411826e-002,
          -1.20042684e-002, 3.29736620e-002, -2.27607656e-002,
          -1.03996657e-001, -7.70452172e-002, -4.79133464e-002,
          7.06801331e-003, 2.03468986e-002, -1.23018296e-002,
          -1.44813331e-002, 6.00955524e-002, 4.81635705e-002,
          -6.95874393e-002, -9.40640643e-002, -7.43834004e-002,
          -3.13145965e-002, -1.66880582e-002, -4.63461839e-002,
          -2.83650532e-002, -3.26774754e-002, -1.96566768e-002,
          -5.91348559e-002, -3.78935002e-002, 2.19800267e-002,
          5.65871969e-002, 1.77503303e-002, -2.38781888e-002,
          -3.74441370e-002, -2.61149965e-002, -1.91393141e-002,
          -9.60272178e-003, -8.92264885e-004, 3.05971298e-002,
          -1.49058485e-002, -6.06661364e-002, -6.43160418e-002,
          -6.42873645e-002, 9.87699814e-003, 1.92571152e-002,
          -1.05529185e-002, -9.00288485e-003, 5.79009429e-002,
          4.85649444e-002, -3.18849087e-002, -6.75084516e-002,
          -6.90004453e-002, -1.69765539e-002, -1.72252592e-003,
          -2.23540813e-002, -1.86227486e-002, 1.29299955e-002,
          2.58070026e-002, -7.02795237e-002, -5.55505194e-002,
          4.38458510e-002, 9.80484486e-002, 5.39614484e-002,
          2.32762424e-003, -9.50580870e-004, -2.29586549e-002,
          -2.40379013e-002, 1.09729916e-002, 1.14623681e-002,
          -8.68507894e-004, -2.94924565e-002, -3.97602171e-002,
          -4.98352610e-002, -4.60503474e-002, 2.05795523e-002,
          4.63185683e-002, 3.25856060e-002, 1.16979992e-002,
          5.29105216e-002, 7.25382641e-002, 1.78622566e-002,
          -3.19222026e-002, -2.95063145e-002, -7.58314691e-003,
          1.42377429e-002, 3.51586230e-002, 1.26349851e-002,
          3.98677960e-002, 5.15781045e-002, -2.25887373e-002,
          -1.33043071e-002, 4.01827693e-002, 8.97094533e-002,
          8.26916620e-002, 3.84744890e-002, 4.23552804e-002,
          5.43842604e-003, 6.67989394e-003, 2.87300441e-002,
          2.83916891e-002, 1.85010973e-002, -1.06137367e-002,
          -8.67467653e-003, -2.85523925e-002, -6.54816255e-003,
          -1.74243208e-002, 2.24169083e-002, 3.39307599e-002,
          3.94407921e-002, 5.82737960e-002, 7.71090239e-002,
          6.30470961e-002, 1.29987719e-002, 1.79348271e-002,
          -1.41545441e-002, 2.46653594e-002, 5.30045740e-002,
          4.95328940e-002, 8.83474797e-002, 8.94493908e-002,
          2.64022057e-003, 1.05411783e-002, 4.31596115e-002,
          6.47073686e-002, 1.48631968e-002, -3.33871357e-002,
          -5.36270626e-002, -4.40395959e-002, -4.63896096e-002,
          -4.87641171e-002, -1.55994371e-002, 6.01766482e-002,
          -4.90930788e-002, -8.49720612e-002, -1.70891937e-002,
          -5.79672493e-003, -2.26699244e-002, -9.73908231e-003,
          -2.56840400e-002, -1.86193120e-002, 9.92948040e-002,
          3.64457145e-002, -6.27681464e-002, -4.40919064e-002,
          -4.44327183e-002, -5.94690815e-002, -5.41505218e-002,
          -7.00637251e-002, -2.83075534e-002, -6.16301745e-002,
          -6.69152290e-002, -4.51581832e-003, -4.85323137e-003,
          2.97405198e-002, 5.26814386e-002, 4.12334036e-003,
          -4.42816019e-002, -6.50201961e-002, -5.18103875e-002,
          -4.97562550e-002, -5.61097078e-002, -2.30705887e-002,
          4.63122986e-002, -2.11445317e-002, -1.02024563e-001,
          -4.77374382e-002, -2.29966007e-002, -1.00341449e-002,
          -2.14845571e-003, -1.40229240e-002, -8.34947824e-003,
          8.44638050e-002, 6.04681000e-002, -7.15964064e-002,
          -7.66532049e-002, -6.45210966e-002, -5.51410094e-002,
          -4.97803539e-002, -6.70554936e-002, -2.48603467e-002,
          -2.49059778e-002, -3.86596173e-002, -5.69518097e-002,
          -6.12776652e-002, 3.91171426e-002, 6.38355911e-002,
          2.68160575e-003, -3.09921093e-002, -4.20234017e-002,
          -3.46584134e-002, -3.66666019e-002, -4.06175107e-002,
          -4.22737934e-002, 4.05652309e-003, -2.74828188e-002,
          -5.42967357e-002, -2.79332846e-002, -1.83052663e-002,
          -1.76232611e-003, 1.40165854e-002, 1.23359833e-003,
          1.87893417e-002, 5.73068708e-002, 6.04565442e-002,
          -3.79005037e-002, -4.43461053e-002, -3.57447416e-002,
          -3.24575230e-002, -1.89238973e-002, -3.57575491e-002,
          -1.80850066e-002, 1.20972637e-002, 1.65580884e-002,
          -5.82192875e-002, -7.09771439e-002, 5.24946935e-002,
          9.85434502e-002, 3.64342332e-002, -6.72735460e-003,
          -1.09174494e-002, -2.75914669e-002, -3.21635231e-002,
          -2.49655861e-002, -1.50399040e-002, -3.32145579e-002,
          -4.31504510e-002, -4.81605344e-002, -3.35203446e-002,
          1.16499038e-002, 3.22844759e-002, 3.87984999e-002,
          1.86053701e-002, 2.52744611e-002, 3.82753871e-002,
          6.10995889e-002, -5.44599537e-003, -2.92691439e-002,
          1.40366866e-003, 5.37268119e-004, 4.24895016e-003,
          -7.49521563e-003, 5.64009603e-003, 3.04797012e-002,
          4.57106717e-002, -3.27015333e-002, -2.52768137e-002,
          2.61038169e-002, 8.48209709e-002, 6.41163811e-002,
          2.44803857e-002, 1.08062066e-002, -9.19265579e-003,
          -1.48428008e-002, -1.92828793e-002, -1.48883397e-002,
          -8.59646499e-003, -1.01042055e-002, -3.35236173e-003,
          -1.07745798e-002, 4.35540713e-002, 3.39838006e-002,
          5.36694191e-002, 3.44712101e-002, 2.90884692e-002,
          2.77625304e-002, 7.39576817e-002, 5.58613576e-002,
          1.40788248e-002, 4.28771749e-002, 2.12231129e-002,
          3.25821079e-002, 1.78818665e-002, 7.01999059e-003,
          8.54613930e-002, 8.49856883e-002, -1.66362431e-002,
          -5.76274889e-003, 5.99150732e-002, 6.35477006e-002,
          1.28488913e-002, -3.02585792e-002, -5.24761938e-002,
          -5.31584360e-002, -5.31308725e-002, -5.48687801e-002,
          -4.19898070e-002, 2.45997980e-002, -3.54428627e-002,
          -6.85858652e-002, -4.85195071e-002, -3.90296169e-002,
          -3.40799056e-002, -2.00051032e-002, -2.18152590e-002,
          1.17549812e-002, 8.28149095e-002, 4.83210869e-002,
          -5.09746298e-002, -7.24847987e-002, -8.07408392e-002,
          -7.96408877e-002, -7.29573891e-002, -7.58339688e-002,
          -2.56710276e-002, -6.56820834e-002, -8.00024495e-002,
          -1.33603206e-002, -2.04144642e-002, 1.58646069e-002,
          8.70997459e-003, -6.60275714e-003, -4.37104739e-002,
          -5.59560955e-002, -4.52054068e-002, -4.05740067e-002,
          -4.58383076e-002, -2.99958475e-002, 4.19159420e-002,
          -3.59650492e-003, -6.01451471e-002, -5.62793575e-002,
          -5.37025854e-002, -4.35740501e-002, -2.98237856e-002,
          -2.52660327e-002, -1.49477972e-003, 7.58558884e-002,
          3.40929776e-002, -5.55226207e-002, -9.01377872e-002,
          -8.64659026e-002, -8.05587620e-002, -6.86963722e-002,
          -6.96213543e-002, -2.67061107e-002, -4.25993651e-002,
          -4.24069203e-002, -6.21846579e-002, -7.68535063e-002,
          2.60207839e-002, 5.56369871e-002, 1.94171127e-002,
          -1.82956960e-002, -2.46164165e-002, -3.06948461e-002,
          -2.44476870e-002, -4.40217964e-002, -6.58275262e-002,
          -3.94948795e-002, -3.05636004e-002, -3.35067287e-002,
          -1.81095507e-002, -9.71647166e-003, -1.55141279e-002,
          -1.99141148e-002, -1.44320726e-002, 1.23530915e-002,
          8.04452691e-003, 3.49586084e-002, -7.20319571e-003,
          -3.11337095e-002, -2.29341071e-002, -4.09509912e-002,
          -4.12009321e-002, -5.69859855e-002, -4.94516939e-002,
          -1.30307851e-002, 7.88191520e-003, -6.06635399e-002,
          -6.41655475e-002, 2.08159685e-002, 5.86471222e-002,
          3.13008167e-002, -1.26936827e-002, -6.24946272e-003,
          -2.27279160e-002, -1.24266278e-002, -2.91043110e-002,
          -3.52296755e-002, -5.64792752e-002, -4.26648967e-002,
          -1.88366696e-002, -6.24019047e-003, 2.62448117e-002,
          2.92529054e-002, 1.48220463e-002, -4.08634864e-004,
          8.35516956e-003, -5.24626067e-003, 2.34772414e-002,
          1.43142594e-002, -1.22986138e-002, 2.52552368e-002,
          4.03416525e-005, -1.12830696e-003, -2.78553441e-002,
          -2.84356698e-002, -6.63420046e-003, 4.11682837e-002,
          -3.86420488e-002, -2.11696811e-002, -2.24514455e-002,
          3.41913030e-002, 3.87463830e-002, 9.20158438e-003,
          -7.24240532e-003, -2.24055331e-002, -1.07619781e-002,
          -2.43402682e-002, -4.62102778e-002, -3.16014104e-002,
          -6.63747313e-003, 6.24562101e-003, 1.84606854e-002,
          6.44697398e-002, 5.04049323e-002, 4.85134721e-002,
          3.25279459e-002, 1.46409031e-002, -3.56184244e-002,
          2.84496453e-002, 4.36844081e-002, 2.91401315e-002,
          5.56146428e-002, 2.07962189e-002, 3.27711143e-002,
          9.01339203e-003, -2.28789728e-002, 2.36993209e-002,
          9.55222771e-002, -4.74626757e-002, -3.05153383e-003,
          6.88377395e-002, 3.88775170e-002, 1.25207091e-002,
          -2.76985951e-002, -5.66079132e-002, -4.74325679e-002,
          -3.55891474e-002, -3.98998670e-002, -2.22265981e-002,
          -8.72433931e-003, -2.81528365e-002, -6.08625598e-002,
          -2.94470787e-002, -8.99904221e-003, -1.25704398e-002,
          -9.39027034e-003, -1.26575502e-002, 3.08784954e-002,
          7.55048692e-002, 3.01674213e-002, -4.04455401e-002,
          -5.57307787e-002, -4.89635915e-002, -5.45344129e-002,
          -4.51440215e-002, -5.26507273e-002, 8.42933450e-003,
          -5.47999106e-002, -5.92526793e-002, 2.45168619e-003,
          -5.84574603e-003, -4.28210152e-003, -1.29672280e-002,
          1.18997367e-003, -3.42782028e-002, -5.67146353e-002,
          -3.55849117e-002, -3.88572142e-002, -4.15880345e-002,
          -8.67684558e-003, 3.98303308e-002, 1.26997996e-002,
          -5.44663332e-002, -9.04237852e-003, 8.57664458e-003,
          -2.57855784e-002, -3.38187404e-002, -2.78380774e-002,
          4.58840467e-003, 4.78635691e-002, 1.80264134e-002,
          -4.46566232e-002, -5.06444648e-002, -4.49951738e-002,
          -5.59456050e-002, -6.71668947e-002, -6.66247010e-002,
          -3.54778575e-004, -3.68877128e-002, -2.25790925e-002,
          -4.28041033e-002, -4.71700281e-002, 2.17293035e-002,
          3.48037444e-002, 1.06825847e-002, -2.20400803e-002,
          -5.07244654e-002, -2.04702001e-002, -4.31869878e-003,
          -2.38281433e-002, -4.16834466e-002, -3.29487994e-002,
          -2.90917624e-002, -3.91209461e-002, 1.35333613e-002,
          5.08224815e-002, 1.42008699e-002, -2.29672026e-002,
          -2.10553650e-002, 1.44582707e-002, -4.61120671e-003,
          7.54713407e-003, -2.28222031e-002, -1.70708969e-002,
          4.34629759e-003, -1.30095128e-002, -2.61205472e-002,
          -4.02936973e-002, -2.22714897e-002, -1.67325754e-002,
          1.78431924e-002, -3.95159610e-002, -3.13705765e-002,
          6.13691891e-003, 3.04863025e-002, 8.24351609e-003,
          -1.41855096e-002, -3.61923836e-002, -2.08640788e-002,
          4.54899622e-003, -1.04130795e-002, -3.25846486e-002,
          -6.99156001e-002, -4.29909565e-002, -2.32035927e-002,
          3.53474095e-002, 8.02351832e-002, 6.52870908e-002,
          4.49921042e-002, 1.75038278e-002, 1.22236786e-003,
          -3.60345021e-002, -5.94040146e-003, -1.10497801e-002,
          5.04704146e-003, 3.98709141e-002, 3.92087102e-002,
          4.08236012e-002, 7.89616909e-003, -2.51521040e-002,
          -1.41042816e-002, 4.66294885e-002, -2.16225609e-002,
          9.67578590e-003, -3.86070460e-002, -1.00778453e-002,
          -2.12454749e-003, -2.06635389e-002, -2.69983131e-002,
          -7.72458792e-004, 2.06407495e-002, 6.90696388e-003,
          -3.72963995e-002, -7.03608692e-002, -2.22862959e-002,
          -9.97409876e-003, 4.04792279e-002, 9.04616341e-002,
          6.98277876e-002, 7.06085414e-002, 4.56498489e-002,
          1.45640308e-002, -6.77994788e-002, -2.22310871e-002,
          -6.00174069e-003, 1.08292783e-002, 6.11914881e-002,
          6.58672675e-002, 7.73754194e-002, 5.19871674e-002,
          -1.88168138e-002, -1.47107579e-002, 9.25731957e-002,
          -3.90087813e-002, 1.77036729e-002, 3.71751003e-002,
          2.92224195e-002, 3.89013141e-002, 1.47698764e-002,
          -3.83170284e-002, -3.53508741e-002, -3.13702077e-002,
          -3.37558053e-002, -1.88672580e-002, -8.67815875e-003,
          -1.59877278e-002, -4.55716625e-002, -1.46563444e-002,
          7.11079128e-003, -8.07793066e-003, -9.71064623e-003,
          -1.23041980e-002, 1.89348590e-002, 6.15190938e-002,
          3.69500816e-002, -1.60014373e-003, -1.49273202e-002,
          -1.99875440e-002, -4.24993858e-002, -3.94987054e-002,
          -4.45982143e-002, 1.96179445e-003, -4.16086875e-002,
          -4.04190496e-002, 7.80620240e-003, 1.45736467e-002,
          -3.46477255e-002, -2.04701032e-002, 2.58193333e-002,
          1.16596194e-002, -3.29652876e-002, -6.26081508e-003,
          -3.13753337e-002, -3.16031016e-002, -1.12174051e-002,
          3.77122723e-002, 2.31176522e-002, -4.61790077e-002,
          3.77380243e-003, 3.29812132e-002, -2.07045507e-002,
          -2.82907840e-002, -2.60507502e-002, -8.25050473e-003,
          2.36803759e-002, 1.68220717e-002, -1.40277715e-002,
          -4.61869920e-003, -1.02623384e-002, -2.89902929e-002,
          -5.56033552e-002, -5.50706349e-002, -1.56669263e-002,
          -2.27085426e-002, -9.99607611e-003, -2.15580184e-002,
          -2.25526895e-002, -7.87789933e-003, 1.18264444e-002,
          2.07811240e-002, -9.44892410e-003, -5.85851222e-002,
          -4.97714290e-003, 1.43408943e-002, 2.22515641e-003,
          -1.53047647e-002, -1.65204462e-002, -2.68426184e-002,
          -4.06215638e-002, 7.41099590e-004, 5.71504757e-002,
          2.14508604e-002, -1.97559502e-002, -1.98113490e-002,
          -9.64239053e-003, -5.65382373e-003, -9.42233764e-003,
          -1.28984191e-002, -1.08952383e-002, 6.53233565e-003,
          6.93231262e-003, -5.80328563e-003, -1.58716775e-002,
          -1.96456164e-002, -2.92658843e-002, 1.36359753e-002,
          -1.92167815e-002, -1.27044264e-002, -1.98571365e-002,
          -2.05777073e-003, 1.06575722e-002, -6.79482147e-003,
          -5.50326109e-002, -2.96713542e-002, -8.93732812e-003,
          1.65134680e-003, 4.77583334e-003, -3.37935910e-002,
          -4.79996093e-002, -3.36622708e-002, 1.89231560e-002,
          7.56476447e-002, 5.81148788e-002, 3.56106162e-002,
          1.89956632e-002, -1.06895138e-002, -4.03142124e-002,
          -3.81785370e-002, -1.82157662e-002, -1.23179611e-002,
          2.28492338e-002, 2.76204217e-002, 2.43390072e-002,
          1.91877484e-002, -9.05066449e-003, -4.77362163e-002,
          3.37441377e-002, -1.72403790e-002, 1.98626183e-002,
          -2.92444881e-002, -1.92141626e-002, -2.17383746e-002,
          -4.68662083e-002, -6.15229160e-002, 1.30855199e-002,
          2.42990311e-002, 1.56327561e-002, -3.84292325e-005,
          -6.45794719e-002, -4.63004075e-002, -3.12439241e-002,
          3.03024892e-002, 8.00641403e-002, 5.89443259e-002,
          3.09841279e-002, 2.59192903e-002, 1.92835983e-002,
          -6.64779991e-002, -5.61757088e-002, -4.53982316e-002,
          -1.90064292e-002, 1.43588334e-002, 5.78035824e-002,
          4.90612760e-002, 3.94865870e-002, 1.52916797e-002,
          -5.41774780e-002, 6.30330667e-002, -4.85571064e-002,
          2.92208269e-002, 2.75296066e-002, 3.53047699e-002,
          4.02155593e-002, 2.98659094e-002, -3.68563719e-002,
          -3.46822217e-002, -3.21597159e-002, -3.01378705e-002,
          -4.22214065e-003, -7.53911491e-003, -2.82683913e-002,
          -5.17948158e-002, -1.94106810e-002, 9.21378098e-003,
          -5.46538876e-003, -1.37139335e-002, -1.67203899e-002,
          5.98302227e-004, 5.47323562e-002, 2.18642689e-002,
          -5.60598774e-003, -1.14918628e-003, -1.21645965e-002,
          -4.00625877e-002, -4.23155762e-002, -4.42572683e-002,
          -4.02731966e-004, -3.96699049e-002, -3.80973108e-002,
          2.36293708e-004, 1.23631237e-002, -3.87435481e-002,
          -2.45291889e-002, 3.17439809e-003, 1.02793630e-002,
          -2.74874046e-002, -2.33707181e-003, -2.77671684e-002,
          -2.85999011e-002, -6.73260493e-003, 4.16933931e-002,
          1.79428384e-002, -5.08218929e-002, 9.36788879e-003,
          3.75437140e-002, -2.06063110e-002, -2.75425203e-002,
          -2.80660037e-002, -1.83638316e-002, 1.55214490e-002,
          6.69704471e-003, -3.09623145e-002, 7.32052466e-003,
          5.25339041e-003, -2.24977601e-002, -5.11726998e-002,
          -5.40178381e-002, -2.02925000e-002, -2.31970157e-002,
          -1.92409214e-002, -2.19499394e-002, -2.12164130e-002,
          -3.04867998e-002, -9.27854143e-003, 1.34207485e-002,
          5.30811539e-003, -5.07317856e-002, 1.20383559e-003,
          1.06416754e-002, 1.40886120e-002, 7.86488759e-004,
          7.67498324e-003, -3.39537300e-002, -3.87313478e-002,
          2.62074415e-002, 8.21557119e-002, 2.40957402e-002,
          -1.88898947e-002, -2.23678760e-002, -2.41093114e-002,
          -3.03526781e-003, -2.42110174e-002, -1.70116909e-002,
          2.57680416e-002, 3.74571346e-002, 1.59330145e-002,
          -8.37190449e-003, -8.79787281e-003, -1.85360983e-002,
          -2.32517216e-002, -1.95267308e-003, 8.30767211e-004,
          4.11948701e-003, -3.51989493e-002, -6.63855392e-003,
          1.61112715e-002, 1.82175394e-002, -4.15936559e-002,
          -1.06421541e-002, -2.75448095e-002, -1.63560454e-002,
          1.69537484e-003, -3.81726422e-004, -3.59820127e-002,
          -4.64690924e-002, 3.59701701e-002, 9.26787034e-002,
          5.89196458e-002, 1.66743472e-002, 1.00445061e-003,
          -2.42901035e-002, -3.86340469e-002, -3.81525271e-002,
          -2.77076419e-002, 2.65377723e-002, 4.52970453e-002,
          4.14219834e-002, -9.70781688e-003, -1.56252328e-002,
          -2.33793687e-002, -2.74667647e-002, -2.79889675e-003,
          6.20216597e-003, 2.22601015e-002, -2.99283527e-002,
          -1.05537735e-002, -1.79883540e-002, -3.90505008e-002,
          -6.09154254e-002, 2.88411565e-002, 7.05006020e-003,
          -7.08660227e-004, 2.49140477e-003, -4.04042639e-002,
          -4.89435755e-002, -4.23571914e-002, 1.68801080e-002,
          5.08486070e-002, 4.31862995e-002, 9.75426845e-003,
          1.27264252e-003, 1.04134972e-003, -5.03948852e-002,
          -5.38147539e-002, -5.48883826e-002, -2.62492765e-002,
          -7.69280689e-003, 5.64283989e-002, 1.99989267e-002,
          9.15118214e-003, 4.94478503e-003, -4.05032523e-002,
          4.39280993e-004, -2.29551643e-002, 1.98028632e-003,
          -5.61697967e-003, 4.54638898e-002, 6.25663251e-002,
          4.75140736e-002, -1.24725848e-002, -2.15713680e-002,
          -2.52431706e-002, -2.28145961e-002, -4.89198649e-003,
          -6.99610729e-003, -4.32263538e-002, -5.23776785e-002,
          -2.09981129e-002, -5.34172449e-003, -1.27153490e-002,
          -2.38221679e-002, -2.03939267e-002, -2.19771005e-002,
          2.69798227e-002, 2.29841340e-002, 2.23379750e-002,
          2.20140181e-002, -4.57720738e-003, -3.25134285e-002,
          -4.43351492e-002, -4.09905836e-002, -1.95334442e-002,
          -3.62002775e-002, -3.47138084e-002, -4.95462725e-003,
          7.55582098e-003, -7.09904134e-002, -6.07926492e-003,
          5.11061251e-002, 5.12267947e-002, -9.40858480e-003,
          -1.06351897e-002, -2.26548761e-002, -2.19579618e-002,
          -1.40811445e-003, 5.36489822e-002, 1.37257399e-002,
          -3.06234788e-002, 1.25178602e-002, -1.79300678e-003,
          -3.41044180e-002, -3.89056876e-002, -3.68037485e-002,
          -4.55296673e-002, -8.37466493e-003, 1.33963181e-002,
          3.31413597e-002, 4.56542410e-002, 1.35021401e-003,
          -3.52014266e-002, -5.65619618e-002, -5.56669831e-002,
          -4.26764004e-002, -1.98378842e-002, -1.72446612e-002,
          -1.82831343e-002, -1.47168413e-002, -5.11835404e-002,
          3.63506051e-003, 7.17176050e-002, 7.34414831e-002,
          -1.36421043e-002, 4.83845826e-003, 9.55800992e-003,
          1.75663698e-002, 1.25416089e-002, 3.06949038e-002,
          -9.51414462e-003, -1.39943426e-002, 1.98522266e-002,
          1.73554290e-002, -1.32210748e-002, -2.84405109e-002,
          -2.67108232e-002, -3.06471512e-002, -3.55939986e-003,
          1.75807588e-002, 5.64092770e-002, 6.09886721e-002,
          1.21071348e-002, -6.77008228e-003, -1.58787854e-002,
          -9.77480225e-003, -1.41980909e-002, -5.96971298e-003,
          -7.66350830e-004, 1.93883404e-002, 2.21594144e-002,
          -3.22542153e-002, 1.06142517e-002, 5.96428178e-002,
          7.28823319e-002, -1.21015776e-002, 1.00559071e-002,
          2.00150046e-003, 3.61585966e-003, 9.01547913e-003,
          1.97733045e-002, -1.13187265e-002, -2.73163300e-002,
          5.95042575e-003, 1.22612724e-002, -6.73506549e-003,
          -2.11572386e-002, -2.10346300e-002, -2.54375134e-002,
          -2.27694511e-002, 2.30776798e-003, 2.65888534e-002,
          4.82426137e-002, 2.66798842e-003, 9.30428272e-004,
          -1.96010713e-002, -1.81661267e-002, -1.57602765e-002,
          -4.94687166e-003, -9.98494774e-003, 1.74145307e-002,
          2.03603189e-002, -1.98152438e-002, 5.70761785e-003,
          2.46433336e-002, 9.32979397e-003, -5.32473549e-002,
          8.82170163e-003, 1.86618455e-002, 2.09342986e-002,
          2.53157020e-002, -1.12629700e-002, -3.05705294e-002,
          4.13552579e-003, 6.91423798e-003, -3.05907652e-002,
          -2.11731568e-002, -2.59242170e-002, -1.49358232e-002,
          -2.82970979e-003, -9.13812965e-003, -1.89232156e-002,
          2.33682301e-002, 4.74627782e-003, -5.85676730e-002,
          -1.56252440e-002, -7.87354726e-003, 5.50512830e-003,
          2.42597945e-002, -1.60882026e-002, -2.20829807e-002,
          2.44815694e-003, -4.76350635e-003, 2.58573284e-003,
          2.90851016e-002, 2.74612643e-002, 5.47246411e-002,
          3.42476927e-002, 6.84813922e-003, -6.70617307e-003,
          -2.26916205e-002, -1.56814735e-002, -6.31800480e-003,
          -6.11762851e-002, -3.36765274e-002, -9.88185685e-003,
          -2.31998395e-002, -2.88634244e-002, -2.93663088e-002,
          -3.57535481e-002, -3.72654162e-002, 2.75335903e-003,
          -4.70239343e-003, 3.62095307e-003, 4.05838825e-002,
          1.76811460e-002, -1.33380685e-002, -3.29588503e-002,
          -5.40263429e-002, -4.43224199e-002, -2.99343355e-002,
          -4.57936265e-002, 1.15938913e-002, -9.22892150e-003,
          -4.55925576e-002, 1.37879862e-003, 2.43373718e-002,
          6.39639199e-002, 4.61469069e-002, 1.68610178e-002,
          -4.34512331e-004, -1.07750762e-002, 1.07375477e-002,
          5.29247373e-002, -6.66379789e-003, -3.14240111e-003,
          3.22960764e-002, -3.92743982e-002, -7.19273761e-002,
          -7.12504461e-002, -6.39240742e-002, -7.39045143e-002,
          -2.87682912e-003, 6.92540267e-003, 2.95945350e-002,
          6.70105070e-002, 1.40010761e-002, -4.18983363e-002,
          -6.53403625e-002, -7.10613430e-002, -6.02102987e-002,
          -1.09495856e-002, -3.21885049e-002, -1.50031212e-003,
          -2.05292441e-002, -3.65083404e-002, 1.61462259e-002,
          3.86739261e-002, 8.29996690e-002, 4.01682071e-002,
          4.06988431e-003, -9.62821301e-003, -1.51606789e-002,
          -3.98497097e-003, 3.52933742e-002, 1.97026636e-002,
          1.86256636e-002, 2.16442849e-002, -7.18946308e-002,
          -9.33566391e-002, -7.17845112e-002, -6.16108961e-002,
          -5.58784045e-002, 1.14628999e-002, 6.08216785e-002,
          6.18111268e-002, 7.17755184e-002, -1.73139665e-002,
          -7.87939653e-002, -7.62944594e-002, -7.35300034e-002,
          -5.47671430e-002, -1.79504920e-002, -4.20485549e-002,
          5.60451578e-003, -1.27721410e-002, -2.27387268e-002,
          3.04053631e-002, 5.75282946e-002, 7.24903345e-002,
          2.31168866e-002, -8.73095472e-004, -1.79589875e-002,
          -2.20197141e-002, -1.96006149e-003, 2.75208000e-002,
          1.43855317e-002, -9.06296633e-003, -1.17281163e-002,
          -8.36609900e-002, -9.13098603e-002, -6.21186942e-002,
          -5.30680381e-002, -3.68139371e-002, -3.22650676e-003,
          4.53284718e-002, 4.51983474e-002, 5.03598377e-002,
          -4.51774411e-002, -8.17984194e-002, -7.35801831e-002,
          -7.14530870e-002, -3.11209504e-002, -1.66202914e-002,
          -4.61480841e-002, 1.08215469e-003, -2.68738009e-002,
          -2.02681422e-002, 2.21908297e-002, 3.07893138e-002,
          3.30152661e-002, -1.24916071e-002, -1.04592629e-002,
          -1.40580265e-002, -7.22548179e-003, 2.47958247e-002,
          2.59184390e-002, 1.47602763e-002, 3.31314430e-002,
          1.38570378e-002, -9.79352146e-002, -8.96367356e-002,
          -7.46629313e-002, -6.03946373e-002, -3.30317542e-002,
          6.03249017e-003, 4.02337052e-002, 5.79257868e-002,
          1.61677115e-002, -8.34676623e-002, -9.25186351e-002,
          -8.33880678e-002, -6.20426871e-002, -4.58241906e-003,
          -2.76468154e-002, -4.69913110e-002, -1.39716209e-003,
          -2.84766201e-002 ]
   decision_functions:
      -
         sv_count: 1
         rho: -2.6458652466534893e-002
         alpha: [ 1. ]
