%YAML:1.0
opencv_ml_svm:
   format: 3
   svmType: EPS_SVR
   kernel:
      type: LINEAR
   C: 1.0000000000000000e-002
   p: 1.0000000000000001e-001
   term_criteria: { epsilon:1.0000000000000000e-003, iterations:1000 }
   var_count: 248
   sv_total: 1
   support_vectors:
      - [ -8.93404242e-004, -3.43853171e-004, -1.60888373e-003,
          -9.22880892e-004, -6.55259762e-004, 5.02111914e-004,
          -7.88539008e-004, 6.45319960e-005, -2.00147531e-003,
          -8.66445247e-004, -1.03215827e-003, -1.94536103e-003,
          4.38799725e-006, -1.97179988e-003, -3.22493026e-004,
          4.41410462e-004, 2.12030645e-004, -1.01650343e-003,
          -9.17248777e-004, 1.62071719e-005, 2.74872547e-003,
          -5.82642795e-004, 3.04843619e-004, 3.32246040e-004,
          1.40622596e-003, 8.21378781e-004, 2.52329465e-003,
          -3.08916136e-003, -2.97778839e-004, -2.00790283e-003,
          -8.01516697e-004, -9.04047105e-004, -7.13174231e-004,
          -1.77150243e-003, 3.97043586e-005, -9.56520846e-004,
          -1.86547555e-003, -1.73981837e-003, 8.21052585e-004,
          -1.15156535e-003, 6.63265935e-004, -5.77773259e-004,
          9.92588175e-005, 1.76720007e-003, 1.42377010e-003,
          -4.32436151e-004, -2.93272780e-004, 6.60862224e-006,
          3.91604030e-004, -7.40268733e-004, -1.98423909e-003,
          2.32206206e-004, 7.29594205e-004, 4.63009113e-004,
          3.93818133e-004, 2.88252742e-003, 9.66552936e-004,
          -8.40282242e-004, -1.18744641e-003, -5.31231984e-004,
          1.15590333e-003, -1.88526127e-003, 1.30632659e-004,
          2.41043876e-004, -2.85525748e-004, 2.26652221e-004,
          -1.19233772e-003, -7.57413043e-004, -1.14924379e-003,
          -1.02246855e-003, -2.38035177e-003, -1.31335563e-003,
          1.00743980e-003, -1.85241771e-003, -1.03658589e-003,
          -1.61660567e-003, -4.84729506e-004, 6.18862396e-005,
          -3.09416791e-004, -3.75410775e-004, -9.16031189e-004,
          -1.26394676e-004, -4.31049193e-005, -2.92811630e-004,
          2.58056819e-003, 1.54381711e-003, 6.91068242e-004,
          2.58822576e-004, 1.36038812e-003, -1.26684830e-003,
          -2.28298944e-003, -1.28462457e-003, -8.73348268e-004,
          -6.23270054e-004, -5.60666027e-004, -1.60173664e-003,
          -4.20789525e-004, 3.09986470e-004, -9.98043979e-005,
          -1.32873000e-004, -1.70755913e-004, 9.37306264e-004,
          1.05771772e-003, 1.48562822e-005, -1.23254489e-003,
          -5.52577025e-004, 8.15686653e-004, -6.06853398e-004,
          -9.54792660e-004, -2.32064584e-003, 2.96683400e-004,
          -5.58185820e-005, 9.24542139e-004, 9.24223452e-004,
          1.14120182e-003, 1.12427259e-003, 2.01061764e-003,
          6.77271979e-004, -5.91942924e-004, 1.29610999e-004,
          -4.19079966e-004, -1.82494245e-004, 4.59691102e-004,
          -2.61348393e-003, -6.11543714e-004, -2.81676766e-004,
          -3.50936345e-004, 1.58795901e-003, -1.42404155e-004,
          -1.32849184e-003, 6.84510276e-004, -6.91159978e-004,
          -6.20573846e-005, -2.56596878e-003, 1.24190189e-003,
          9.45808017e-004, -1.69041462e-003, 2.65184790e-004,
          -1.13739201e-003, -8.42499721e-004, -1.36661076e-003,
          -1.32846448e-003, -8.52725178e-004, -5.97457692e-004,
          1.32768753e-003, 4.67505597e-004, 1.50952244e-003,
          1.75496365e-003, -8.70013668e-004, 1.67063484e-003,
          3.93848837e-004, -2.80160760e-003, -1.36068836e-003,
          7.98924593e-004, -2.54275947e-004, 6.31068309e-004,
          -1.27143774e-003, -1.02543435e-003, -2.35129241e-003,
          5.57414547e-004, -1.20552082e-003, -1.37157296e-003,
          3.95428942e-005, 8.13492865e-004, 9.58877150e-004,
          2.08462006e-004, -9.64155130e-004, -1.01857749e-003,
          -6.23610045e-004, 1.87795340e-005, -7.45654746e-004,
          -1.68035878e-003, 4.42362652e-004, -9.61757731e-004,
          2.94797974e-005, 7.24807833e-005, 1.03081530e-003,
          5.20333298e-004, 1.89937942e-003, 1.32023415e-003,
          -2.86868511e-004, -3.87351436e-004, -6.76390424e-004,
          -3.49352224e-004, 2.63457550e-005, -3.04880226e-003,
          7.13301415e-004, 3.76993557e-004, -3.09407129e-004,
          -2.14233343e-003, 4.46992111e-004, -3.67001980e-004,
          -2.28482113e-005, -2.53012520e-003, 1.54052483e-004,
          -8.44233204e-004, 5.98371960e-004, 1.29538868e-003,
          3.13647557e-004, -6.85956096e-004, -1.27510703e-003,
          -1.83304062e-003, -1.25930179e-003, -2.24621035e-003,
          -5.15432330e-004, -6.86636602e-004, -4.94302541e-004,
          2.32410632e-004, -4.73258988e-004, 1.13654556e-003,
          1.59376694e-004, 5.85141999e-004, 1.33242714e-003,
          -2.84203584e-003, -8.90819239e-004, 6.41509192e-004,
          -1.44202681e-003, 1.38626216e-004, -9.94164962e-004,
          -1.08125224e-003, -1.90974446e-003, -8.20259374e-005,
          -4.06177249e-004, -1.48291909e-003, -2.43479662e-004,
          -1.28338882e-003, 1.27297081e-003, 1.43957546e-003,
          -9.02468106e-004, -3.34227341e-004, -2.11660122e-003,
          -1.66143314e-003, -1.06818334e-003, -1.61979184e-003,
          -2.73847167e-004, 1.38475921e-003, 3.70861613e-004,
          4.91380742e-005, 1.22826663e-003, 5.81069093e-004,
          -5.07808116e-004, 4.30678861e-004, -1.22520578e-004,
          6.15031284e-004, -1.90478703e-003, 1.13204020e-004,
          -1.49537658e-003, -2.65670149e-003 ]
   decision_functions:
      -
         sv_count: 1
         rho: -2.8671245276918889e-003
         alpha: [ 1. ]
