%YAML:1.0
opencv_ml_svm:
   format: 3
   svmType: EPS_SVR
   kernel:
      type: LINEAR
   C: 1.0000000000000000e-002
   p: 1.0000000000000001e-001
   term_criteria: { epsilon:1.0000000000000000e-003, iterations:1000 }
   var_count: 651
   sv_total: 1
   support_vectors:
      - [ -7.68558541e-003, -1.46720413e-004, 5.82722574e-003,
          -3.10729304e-003, 3.77504318e-003, 7.93117750e-003,
          7.89681799e-004, 1.44543825e-003, 7.19455827e-004,
          7.16262497e-004, -5.74542675e-003, -1.73070263e-002,
          -1.50735991e-003, 1.39821917e-002, 5.14360552e-004,
          9.83097241e-004, -1.79268513e-003, -6.40638592e-003,
          6.13554521e-003, 2.83931405e-003, -7.25869648e-003,
          -1.07355937e-002, -8.52930546e-003, -2.94796797e-003,
          1.50470901e-003, -2.10868404e-003, -3.27778189e-003,
          -8.82673915e-003, -9.30176303e-003, -1.77353423e-003,
          1.65953804e-002, -6.93342322e-003, -6.95070345e-003,
          1.24950847e-003, -4.14315658e-003, -3.36762355e-003,
          -8.12869461e-004, -1.54316856e-003, -4.13890881e-003,
          -4.05708561e-003, 1.59681731e-004, -4.92061162e-003,
          -1.34590939e-002, -2.24463223e-003, 9.44775902e-003,
          4.22162761e-004, 5.34250820e-003, -2.49482435e-003,
          -2.37306906e-003, 5.17172273e-003, 2.95768771e-003,
          -2.71959743e-003, -1.20793190e-003, -3.35740019e-003,
          -3.34563968e-003, 1.25123537e-003, -7.39463139e-003,
          -3.91654205e-003, -1.58274022e-003, 3.40829068e-003,
          -1.15072178e-002, -9.55972727e-003, -6.77948771e-003,
          -2.66631297e-003, 4.68215160e-003, -1.92198378e-003,
          1.15080841e-003, -2.77394056e-003, -4.74055437e-003,
          -4.14117007e-003, 1.64671266e-003, 1.78282859e-003,
          -4.57787141e-003, -8.46171658e-003, -4.97420924e-003,
          9.44141019e-003, -7.79331243e-003, 8.70237302e-004,
          -2.08562077e-003, 3.52798495e-004, 7.97544979e-003,
          6.57504192e-003, -2.65997602e-004, -8.18192784e-004,
          8.83164641e-004, -1.16384272e-002, -2.88306968e-003,
          -6.78369217e-003, 1.29248027e-003, -1.64577132e-003,
          1.15982965e-002, -1.52159445e-002, -9.34490748e-003,
          -9.74062923e-003, -2.82600126e-003, 7.58256391e-003,
          -6.61802851e-003, -1.26985488e-002, -7.78194983e-003,
          -2.89329235e-003, -5.87907343e-005, -2.55352119e-003,
          4.53998428e-003, -1.04913674e-002, -1.08087566e-002,
          2.05458933e-003, 1.03561981e-002, -3.41231906e-004,
          5.61994826e-003, -2.93956138e-003, -5.03278617e-003,
          1.57501772e-002, 9.73339286e-003, 1.66264910e-003,
          -4.07092506e-003, -4.83570201e-003, -3.83949629e-003,
          -2.95130973e-004, -3.30386241e-003, -2.56208004e-003,
          -6.47987053e-003, -1.46885198e-002, 1.20547437e-003,
          -1.07622601e-003, -1.27510354e-002, -8.83092172e-003,
          -3.99040850e-003, -6.70522451e-003, -9.83360503e-003,
          -4.25472576e-003, -4.33613872e-003, -4.59557632e-003,
          -2.85406178e-003, -1.99794979e-003, -5.39005175e-003,
          -6.58381172e-003, 8.81403161e-004, 4.58494108e-003,
          -1.50836946e-003, 2.79268832e-003, 4.49057249e-003,
          5.21106552e-003, 1.29525475e-002, 1.05797444e-002,
          2.22826935e-003, 8.58110667e-004, 2.74039397e-004,
          -1.03364268e-003, -1.23583048e-003, 1.84312998e-003,
          6.64960360e-003, 1.43293035e-003, -9.64950491e-003,
          -3.50276381e-003, -1.45240705e-002, -1.18574221e-002,
          -5.15680062e-003, 1.78858626e-003, -6.81543909e-003,
          -9.48469155e-003, -9.30603500e-003, -6.79428596e-003,
          -1.09772421e-002, -4.70291357e-003, -1.37644296e-004,
          -4.01019165e-003, -4.57882835e-003, 1.05443748e-003,
          9.20997281e-003, 6.41646096e-004, 2.93443562e-003,
          3.08115938e-004, -1.11816521e-003, 1.58555862e-002,
          1.19138155e-002, 5.44537790e-003, 3.49924946e-003,
          3.92131275e-003, -3.68924439e-003, -6.49968768e-003,
          -1.13791106e-002, 1.44762313e-003, 5.42374048e-003,
          -5.07529126e-003, -9.33245290e-003, -1.88297629e-002,
          -7.79188797e-003, -4.45732987e-003, 7.60411005e-003,
          -9.78715625e-003, -2.60791345e-003, -9.64274351e-003,
          -6.62833499e-003, -4.61356901e-003, 1.98959792e-003,
          -5.32847550e-003, -1.29698040e-002, -5.80348494e-003,
          -3.16669396e-003, 5.64033911e-003, 7.01815914e-003,
          5.60786109e-003, -2.64653191e-003, -7.46982777e-003,
          1.48874875e-002, 8.43610521e-003, 9.52096097e-003,
          -7.40553765e-003, -1.14424862e-002, -3.67170433e-003,
          -4.68007196e-003, -8.09557829e-003, -1.40737346e-003,
          -3.15705780e-003, -1.29780192e-002, -3.73167382e-003,
          -6.08555553e-003, -8.92791804e-003, -3.62471910e-003,
          -1.10658526e-004, -3.63834016e-003, -3.21206520e-003,
          -2.92476011e-003, -9.78212454e-004, -4.47456539e-003,
          6.32892188e-004, -1.02032870e-002, -7.15593668e-003,
          -1.94912835e-003, -5.10512805e-003, 1.13894476e-003,
          1.75039947e-003, -9.15141194e-004, -1.88788865e-003,
          -3.27240117e-003, 1.07851122e-002, 1.04748155e-003,
          3.02172569e-003, -1.75964052e-003, -1.76834071e-003,
          1.80789363e-003, -6.29332964e-004, -5.71476528e-003,
          6.89013454e-004, -1.84317247e-003, -9.30508226e-003,
          -2.08573625e-003, -1.26260277e-002, -1.33698490e-002,
          -9.73496214e-003, 3.65017308e-003, -1.84404047e-003,
          -1.88253482e-003, -2.80569633e-003, -2.62449216e-003,
          -4.74101771e-003, -4.02669143e-003, -2.91736959e-003,
          -1.73905748e-003, -2.93596531e-003, -4.77533555e-003,
          6.14826393e-004, 1.64980411e-005, 1.33383716e-003,
          -2.07933714e-003, 1.64533395e-003, 1.61259677e-002,
          1.28371632e-002, 9.97957401e-003, -5.61940670e-003,
          -3.25431768e-003, -1.28689560e-003, -2.14739703e-003,
          -7.47412164e-003, -5.21197449e-004, 5.93927084e-003,
          -3.01094283e-003, -9.93270427e-003, -1.57244932e-002,
          -8.14532209e-003, -4.69471980e-003, 4.03746916e-003,
          -6.61204616e-003, -8.30662320e-004, -7.15619931e-003,
          1.79989787e-004, -3.03445221e-003, 3.92514514e-003,
          -1.49375275e-002, -6.65221503e-003, -3.09025100e-003,
          -7.85051193e-003, -9.83365695e-004, 4.87931306e-003,
          4.76456480e-003, 2.21143756e-003, -7.87592307e-003,
          1.16323596e-002, 2.66895373e-003, 6.10858900e-003,
          -7.88059644e-003, -3.12881102e-003, 2.04569870e-003,
          5.48445154e-003, -3.47962836e-004, 1.45005586e-003,
          -4.82314778e-003, -4.32635518e-003, -6.77769398e-003,
          -8.52209143e-003, -1.28367506e-002, -4.49505867e-003,
          2.43620528e-003, -4.45097685e-003, -2.24456657e-003,
          -4.54840623e-003, -1.92207249e-003, -3.68117541e-003,
          9.13859287e-004, -9.30219889e-003, -2.83736945e-003,
          -2.63240258e-003, -5.47275459e-003, -2.67211790e-003,
          -4.19834309e-004, -2.36891862e-003, 6.93224196e-004,
          -3.77664063e-003, 9.27458424e-003, 5.07409219e-003,
          3.11238365e-003, -2.07139691e-003, 4.37363610e-003,
          1.42427150e-003, -2.86428817e-003, -1.38661847e-003,
          4.29932168e-003, -5.84516069e-003, -5.38432179e-003,
          -7.22288294e-003, -9.65153798e-003, -1.60270073e-002,
          -8.65235552e-003, 4.46395809e-003, -2.64069089e-003,
          1.24567712e-003, 4.72836057e-003, -2.92387605e-003,
          -4.58285166e-003, -1.10584346e-003, -8.02201778e-003,
          -6.30335766e-004, -3.17573338e-003, -3.22247972e-003,
          -4.25007334e-003, -4.77694999e-003, -1.32589054e-003,
          3.91897094e-003, -4.82799299e-003, 1.05916774e-002,
          1.50116803e-002, 4.56454325e-003, -2.26696488e-003,
          2.87655508e-004, -2.27955426e-003, -1.05768396e-003,
          1.98255130e-003, 2.03262985e-004, -4.13183402e-003,
          1.47048174e-003, -1.02643855e-002, -1.14961462e-002,
          -1.23813832e-002, -1.87999511e-003, 3.99729097e-003,
          -6.64181169e-003, 1.84818404e-003, -6.58237655e-003,
          -2.19950639e-003, -5.33627532e-003, -4.09393921e-004,
          -6.35195710e-003, -5.76027436e-003, -5.21755064e-005,
          -7.59515911e-003, 4.63004643e-003, -1.79550028e-003,
          5.11367852e-003, 1.03491700e-004, -3.66147514e-003,
          4.82590264e-003, 2.22481042e-003, 5.39891003e-003,
          -9.65698157e-003, 1.24290294e-003, -5.31475875e-004,
          4.11706744e-003, -2.41950940e-004, 2.64087925e-003,
          -7.24864285e-003, -9.54098825e-004, -6.09292090e-003,
          -6.89593237e-003, -9.67734307e-003, 4.43738711e-004,
          -1.22677279e-003, -9.43006855e-003, -5.80190681e-003,
          -1.39421469e-003, 1.46359194e-003, -6.17020647e-004,
          -1.39716477e-003, -2.42432626e-003, -4.72693145e-003,
          2.01476924e-003, -5.38772577e-003, -1.82969356e-003,
          2.18706252e-003, -5.43663511e-003, -2.63200933e-003,
          -4.74897632e-003, 8.31801351e-003, 4.55284305e-003,
          4.40760888e-003, -6.37334958e-003, 4.52657230e-003,
          -9.11187264e-004, -1.46807323e-003, -1.94176007e-003,
          -6.21768238e-004, -1.18987011e-002, -5.45951654e-004,
          -7.20920833e-003, -4.20917291e-003, -1.30774276e-002,
          -5.49753848e-003, 1.48719898e-003, -4.40073712e-003,
          -5.34999371e-003, 5.91533631e-003, -4.31167334e-003,
          -8.09804723e-003, -2.31620762e-003, -7.18595227e-003,
          -2.20962870e-003, -1.94130302e-003, -8.22393515e-004,
          -1.54180615e-003, -7.71384279e-004, -2.96165934e-003,
          -1.23166584e-003, -4.30265442e-003, 9.35308449e-003,
          1.44149624e-002, 6.41870359e-003, -1.77703297e-003,
          -2.98700132e-003, 4.07294789e-003, -1.81658979e-004,
          -6.16835244e-003, -2.52765813e-003, -5.78983361e-003,
          -5.03586780e-005, -1.62414163e-002, -5.55069698e-003,
          -1.05189644e-002, -2.19525094e-003, 4.20693960e-003,
          -2.29053851e-003, 2.48587993e-003, -1.19909151e-002,
          -5.40886540e-003, -1.05891621e-003, -2.71705748e-003,
          -5.58433961e-003, -8.66689719e-003, -2.03268486e-003,
          -4.93529299e-003, -6.17856131e-005, -1.08708758e-004,
          3.15751624e-003, 2.39449623e-003, 3.53290071e-003,
          2.47313827e-003, 2.55188486e-003, 2.07185419e-003,
          -6.50178455e-003, -3.66914249e-003, -4.54054127e-004,
          -1.53383240e-003, 7.02651590e-003, 3.20255547e-003,
          -1.32673383e-002, 1.95538602e-003, -9.83617455e-003,
          1.44715281e-003, -1.12590240e-002, 2.99504329e-003,
          2.67743110e-003, -4.76150215e-003, 1.01255416e-003,
          -1.19230011e-002, -5.19684982e-003, 5.46105672e-004,
          -4.52270469e-004, 3.26462934e-004, -9.35034361e-003,
          -5.61570097e-003, -6.35963958e-003, -5.62076515e-004,
          2.14279117e-003, -5.26439492e-003, -9.37400328e-004,
          -4.73206630e-003, 4.50247014e-003, 3.03953094e-003,
          -4.18688083e-004, -3.76138603e-003, 3.16888839e-003,
          -1.68702728e-003, -3.89845134e-003, 2.33757310e-003,
          6.87371125e-004, -1.46013023e-002, 3.28825816e-004,
          -1.27061130e-002, 2.43665767e-004, -1.55421076e-002,
          -6.68593729e-003, -1.50497037e-003, -4.93121427e-003,
          -3.76652624e-003, -2.03972007e-003, 2.25237134e-004,
          -5.72733814e-003, -3.97321349e-003, -7.41630001e-003,
          8.71176890e-004, -1.57082756e-003, 3.38089233e-003,
          7.14530749e-003, -5.48063545e-003, -5.10614039e-003,
          -1.01404032e-004, -5.80840698e-003, 3.96160205e-004,
          9.80293192e-003, 6.70574605e-003, 4.51900269e-004,
          -6.53166417e-003, 2.32316228e-003, -1.51812076e-003,
          -2.40493310e-003, -1.21190213e-003, -1.31187737e-002,
          5.15261525e-003, -1.53907938e-002, -3.99939250e-003,
          -5.40458132e-003, -2.16934131e-003, 2.53748102e-003,
          -1.52673433e-003, 7.23428966e-004, -9.45924316e-003,
          3.98140773e-003, 3.58365942e-004, -3.98393394e-003,
          -1.13707371e-002, -1.19614378e-002, -5.50713856e-003,
          -1.13494927e-002, 8.37836706e-004, 3.06614861e-003,
          -4.44144523e-003, -7.71429669e-003, 4.18456132e-003,
          -6.28002512e-004, 4.28710831e-003, -2.26935744e-003,
          -8.87031481e-003, 5.03874663e-003, 2.61572003e-003,
          -2.90500466e-003, -4.30017989e-003, 3.73660959e-003,
          -1.87013336e-002, 3.03480169e-003, -1.32638365e-002,
          1.02388847e-003, -1.06725618e-002, 6.68588444e-004,
          -4.30888077e-003, -4.33214987e-003, -7.52197055e-004,
          -2.67612049e-003, 7.50719570e-003, 2.02365452e-003,
          1.92135703e-004, -4.32310742e-004, -8.94474145e-003,
          -6.38224324e-003, -1.12360753e-002, -6.97430281e-004,
          -9.33426956e-004, -1.40582742e-002, -5.79927536e-003,
          7.69596605e-004, -1.03650789e-003, 1.87183346e-003,
          -5.29376324e-003, -1.00403558e-002, 3.16598173e-003,
          3.04303830e-003, -3.06337839e-003, -1.80044945e-003,
          8.31154757e-004, -1.83499940e-002, 4.86738188e-003,
          -1.89551935e-002, 4.12339438e-003, -1.31176328e-002,
          -1.48926571e-003, -1.16993515e-002, -1.22126397e-002,
          1.83041312e-003, 3.86048621e-003, 6.14640303e-003,
          -1.80097250e-003, -8.23700149e-003, -6.14757556e-003,
          3.29738046e-004, -7.03040184e-003, -1.24223949e-003,
          6.89896615e-003, -5.90437185e-003, -1.66798234e-002,
          -8.38412996e-003, 1.43290590e-003, -1.09095627e-003,
          5.59207378e-003, -3.49846995e-003, -5.93807176e-003,
          3.52677261e-003, 4.50205291e-003, -6.70301542e-003,
          -4.73268703e-003, -8.13181628e-004, -1.85829476e-002,
          7.30480254e-003, -2.07793452e-002, -2.56518857e-003 ]
   decision_functions:
      -
         sv_count: 1
         rho: -3.3051155507563323e-002
         alpha: [ 1. ]
