%YAML:1.0
opencv_ml_svm:
   format: 3
   svmType: EPS_SVR
   kernel:
      type: LINEAR
   C: 1.0000000000000000e-002
   p: 1.0000000000000001e-001
   term_criteria: { epsilon:1.0000000000000000e-003, iterations:1000 }
   var_count: 992
   sv_total: 1
   support_vectors:
      - [ -3.31978546e-003, 9.36793862e-004, 2.46506277e-003,
          4.72792221e-004, 3.94656709e-005, -2.13817088e-003,
          -2.89600133e-003, 2.60916044e-004, -4.02717292e-003,
          4.59815981e-003, -1.40973789e-004, -4.56542894e-003,
          -8.99904757e-004, -1.48268871e-003, -8.19764624e-004,
          3.15887271e-003, 1.03896635e-003, -9.47851222e-004,
          -9.91267618e-004, -1.02866720e-003, -8.98726285e-005,
          -4.19696065e-004, -1.59296149e-003, 4.94143169e-004,
          1.15820090e-003, 1.83884214e-004, 5.67402516e-004,
          -2.22166860e-003, -3.33628268e-003, -1.78412331e-004,
          1.83943682e-003, -5.54184802e-003, -3.58590763e-003,
          3.87389120e-003, -2.10604258e-003, -2.44168518e-003,
          -1.55777589e-003, -1.18083856e-003, 2.59508286e-003,
          -2.16701231e-003, 4.69272118e-003, 1.50187651e-003,
          -1.79692009e-003, 1.40609569e-003, -2.59115361e-004,
          -1.89624308e-003, -3.07800510e-004, -2.86669307e-003,
          -1.53810764e-003, -2.08346825e-003, -2.03470699e-003,
          3.15591483e-003, 2.58308928e-003, -3.79394740e-003,
          1.93167792e-003, 9.60231584e-004, -8.79970030e-004,
          2.21297843e-004, -1.84659543e-003, -1.20212801e-003,
          3.74354335e-004, -3.53695080e-003, -6.28664391e-003,
          -2.08425499e-003, 2.54483731e-003, 1.83962937e-003,
          -1.96977955e-004, -5.01334434e-003, -3.03380541e-003,
          9.08704300e-004, -2.01779278e-003, 3.17635434e-003,
          3.09948414e-003, -4.48616827e-003, -4.37579321e-004,
          -1.11237750e-004, 5.37901244e-004, 1.61240064e-003,
          -2.05498800e-004, -2.41597439e-003, -1.81171857e-003,
          -2.05518887e-003, -4.53388959e-004, 3.06025031e-003,
          -4.47526202e-003, 1.32105837e-003, 1.69479428e-003,
          -5.83611778e-004, 1.65588383e-004, -2.71243695e-003,
          -1.58430694e-003, -1.81417819e-003, 1.85441721e-004,
          -1.61118596e-003, -1.80537044e-003, 6.30575698e-004,
          -1.29230216e-003, -1.15363684e-003, -3.65301687e-003,
          1.49406947e-003, 2.05328013e-003, 2.20134575e-003,
          -4.57354239e-004, 3.29529680e-003, -1.33633602e-003,
          -2.08724430e-003, -2.59183107e-005, 5.13181207e-004,
          -2.00088019e-003, -1.70557725e-003, -4.95107844e-003,
          -1.23211381e-003, 1.65226450e-003, 9.92533242e-005,
          3.66714480e-003, -4.22214111e-003, 2.92544789e-003,
          7.09614251e-004, -4.73840220e-004, -1.14076387e-003,
          -2.89919716e-003, -8.72618926e-004, -1.01788796e-003,
          -8.16254353e-004, -3.48496553e-003, -2.65155197e-003,
          1.46306504e-003, 7.22732686e-004, -4.22902522e-005,
          -3.34642897e-003, -4.40851058e-004, 1.51328277e-003,
          2.39206012e-003, 8.54145270e-004, 1.63305923e-003,
          -8.45373201e-004, -1.14367646e-003, -3.23989103e-003,
          -1.16080488e-003, 6.30276091e-003, -2.87876901e-004,
          -4.26538242e-003, -1.06426317e-003, -1.86334684e-004,
          -7.26717233e-004, 6.55368029e-004, -4.29733237e-003,
          1.53845246e-003, 5.11363847e-003, -1.85189035e-003,
          -1.24348490e-003, -8.80809501e-004, -1.73695109e-004,
          -1.86483515e-003, 7.77498062e-005, -3.65254306e-003,
          -1.63104886e-003, 3.25807999e-003, 4.13263944e-004,
          -3.67458328e-003, -3.57916020e-003, -1.25639152e-003,
          3.86445405e-004, 1.64384209e-003, 1.84474594e-003,
          -1.01223378e-003, -3.94676998e-003, -2.70968978e-003,
          -4.97138361e-004, -1.29874703e-003, 3.13762063e-003,
          -1.79464568e-003, -4.67252405e-003, 7.31912500e-004,
          -1.95228530e-003, -2.56369542e-003, 1.24012050e-003,
          -1.22574496e-003, -1.89086515e-003, 9.33538540e-004,
          -2.46174471e-003, 6.55450742e-004, -9.08605056e-004,
          -4.16760892e-003, -3.59415542e-003, -3.05780006e-004,
          -1.14268216e-003, -3.16740386e-003, 1.11168972e-003,
          -2.30927859e-003, 1.11062698e-004, -1.89968641e-003,
          -1.88493566e-003, -2.13466398e-003, 2.23051687e-003,
          3.14296875e-003, -1.35982048e-003, -2.40166089e-003,
          -3.48832039e-003, 7.66629004e-004, -9.30366572e-004,
          5.77775156e-003, 6.13128068e-004, -2.08454370e-003,
          -4.35410242e-004, -1.79742870e-003, -1.00840640e-003,
          1.62363023e-004, -2.82752531e-004, -1.59187766e-003,
          -1.06342218e-003, -1.45968108e-003, -1.50302483e-004,
          8.20130343e-004, -1.35771150e-003, -2.21704438e-004,
          -3.50670260e-003, 1.68359140e-003, -1.98735343e-003,
          -1.24524086e-004, 4.40776610e-004, -3.26599088e-003,
          -8.26522009e-004, 4.63767705e-004, 1.84733164e-003,
          4.07222332e-003, 2.20871321e-003, -2.46251747e-003,
          -4.88885073e-003, -7.05504790e-004, 4.30855853e-003,
          -9.64328865e-005, 1.12307491e-003, 1.70854721e-004,
          -2.33384641e-003, -1.28591969e-003, -2.96288100e-003,
          -3.42064514e-003, -2.48980150e-003, 1.68443774e-003,
          -2.38614902e-003, -4.75662574e-003, -7.03486905e-004,
          1.86930189e-003, 1.16243120e-003, 5.34139574e-003,
          -2.26090616e-003, -4.41858871e-003, -1.42049394e-003,
          5.40298002e-004, 6.27985428e-005, -7.48269158e-005,
          -2.05078558e-003, -1.16305694e-003, -3.42666899e-005,
          2.61186692e-003, -1.97929679e-003, 3.65628308e-004,
          -2.44422141e-003, -3.26007535e-003, -3.07067460e-003,
          9.97081632e-004, 4.67326579e-004, -2.60264915e-003,
          -5.85163292e-003, -2.01666681e-003, -2.02184441e-004,
          2.30119098e-003, 1.64101738e-003, 2.13512732e-003,
          -3.01090698e-003, -1.82218524e-003, -1.30055007e-004,
          -1.52680161e-003, -2.09603459e-003, -1.52449170e-003,
          -6.70333114e-003, 2.08512647e-003, -3.72070633e-003,
          -4.19317978e-003, -1.89144001e-003, 1.25757384e-003,
          -4.37010638e-003, 3.00808082e-004, -3.31719359e-003,
          1.12021611e-004, 4.62726736e-003, -3.54662235e-003,
          -1.79026835e-003, 1.19482086e-003, -5.09210071e-003,
          1.24099455e-003, -1.59853348e-003, -1.27363624e-003,
          -2.75508803e-003, -4.23880434e-003, 4.14813549e-004,
          -1.31341175e-003, 5.73861878e-004, 3.32150632e-003,
          2.77245557e-003, 9.06471862e-004, -1.22128881e-003,
          -1.57674658e-004, 3.09978757e-004, -1.62684487e-003,
          -2.66245590e-003, -5.27508324e-003, 2.20980984e-003,
          -6.01893105e-003, -2.15057214e-003, 3.19657527e-004,
          7.95894011e-004, -1.89878017e-004, -1.75118784e-003,
          -1.74054143e-003, -2.53222068e-003, -1.23561756e-003,
          -2.76438775e-003, 3.59159283e-004, -2.74320540e-004,
          -2.14099954e-003, -3.17455316e-003, -1.04264438e-003,
          -3.09918355e-003, 4.71185049e-004, -2.39813072e-003,
          2.57314416e-003, 5.02761395e-004, -2.70323781e-003,
          1.71506382e-003, 1.45465205e-003, 5.68487681e-004,
          2.51975423e-003, 8.75749160e-004, -2.22508959e-003,
          2.69723521e-003, -1.24375604e-003, -4.21255874e-003,
          2.92044831e-004, -4.25203796e-003, -5.03245788e-003,
          -3.45537526e-004, 2.05940596e-004, 1.27917528e-003,
          -7.07559939e-003, -5.78554440e-003, -1.17468298e-003,
          6.06626680e-004, 1.71139301e-003, 1.01228955e-003,
          -1.78159651e-004, 5.22460847e-004, -2.88723572e-003,
          1.60517637e-003, -1.56263495e-003, -3.15279816e-004,
          -4.16868832e-003, -4.22037346e-003, 1.65569677e-003,
          -3.01205972e-003, 1.14775624e-003, 4.83068638e-004,
          2.57791649e-003, 2.45751510e-003, 9.19377315e-004,
          -2.79452768e-003, 1.55044836e-004, -4.36143484e-003,
          -4.94252471e-003, 4.14605864e-004, -3.27424170e-003,
          -5.78357186e-003, 4.80380346e-004, -4.04624967e-004,
          -1.61655329e-003, -1.75799127e-003, -4.87294560e-003,
          -4.53817629e-004, 3.25550255e-003, 2.49540131e-003,
          -3.46546556e-004, -3.96773499e-003, 3.28091846e-004,
          -1.82754383e-003, 3.71090532e-003, -4.07560868e-003,
          7.12599547e-004, -2.35686149e-003, -1.64113438e-003,
          -1.51723588e-003, -2.76033592e-004, -2.10837577e-003,
          3.55164346e-004, 1.77073153e-003, 1.05863262e-003,
          1.80047471e-003, 5.69933967e-004, 4.27151361e-004,
          -2.65849777e-003, -3.30380606e-003, 3.53362047e-005,
          -2.61576683e-003, -4.38561291e-003, -1.85638038e-003,
          1.01787189e-003, 7.36821676e-005, -7.66774127e-003,
          -4.50675114e-004, -1.05613937e-004, -2.67591956e-003,
          6.25561876e-003, 1.17954449e-003, -1.98813993e-003,
          2.61664763e-003, -4.75659361e-003, 4.65261843e-003,
          -2.72466056e-003, -5.09516976e-004, -1.07795699e-003,
          -4.08005575e-003, 2.05339375e-003, 2.52930610e-003,
          2.50303606e-003, -7.77831068e-004, 3.04289075e-004,
          1.47767132e-003, -9.66222724e-004, -2.34066811e-003,
          9.18781676e-004, -5.85241243e-004, -1.26777857e-003,
          -2.17952905e-003, -3.73748038e-003, -4.33453266e-003,
          -2.48178467e-003, 3.87456705e-004, 1.08476204e-003,
          -7.28385197e-003, -5.49085555e-004, 2.75584112e-004,
          -1.12837541e-003, 2.72992137e-003, 8.16980144e-004,
          -2.23737815e-003, 3.09793511e-004, -3.12525732e-003,
          4.66490816e-003, -6.06511999e-003, 3.65851610e-003,
          -8.90668889e-004, -2.05222098e-003, -2.50861188e-003,
          2.11832835e-003, 2.00341386e-003, -1.47912512e-003,
          7.80548202e-004, 9.36589378e-004, 4.88318177e-003,
          -7.48318562e-004, -1.34127913e-003, 6.39937178e-004,
          -4.23119054e-004, -3.13121872e-003, -4.73187305e-003,
          -3.68695910e-004, -1.44042470e-003, 4.09939355e-004,
          3.06965178e-003, -6.80738920e-003, 6.92735950e-004,
          2.54115672e-003, -1.02277903e-004, 1.85391225e-003,
          1.21528050e-003, -5.35893394e-003, -1.44058710e-003,
          -2.57834879e-004, 9.07676353e-004, -1.78308692e-004,
          1.09240424e-003, -1.92588777e-003, -2.03681458e-003,
          -5.62656263e-004, 1.62584486e-003, -1.41036103e-003,
          -2.36045860e-004, -3.42486979e-004, 2.32129032e-003,
          3.26771638e-004, 1.09713117e-003, -6.11207506e-004,
          3.02727055e-003, 9.95289301e-004, -2.13415851e-003,
          -5.72295487e-003, 2.24603410e-003, -1.97378057e-003,
          -7.75029243e-004, -1.68872578e-003, 7.77624780e-004,
          -1.23869779e-003, -3.55629274e-003, -1.95529265e-003,
          4.16182709e-004, -1.17991457e-003, -3.46736517e-003,
          -8.56183819e-004, -1.06922141e-003, -2.17906153e-003,
          -1.41080958e-003, 1.40791782e-003, 1.44433719e-003,
          -4.56777168e-003, 3.33060580e-003, 1.13179837e-003,
          5.05314674e-003, 1.96781568e-003, -4.03267844e-003,
          1.49807706e-003, 1.28413318e-004, -3.47342953e-004,
          -2.03204574e-003, -5.98272681e-003, -3.02492268e-003,
          -2.21410254e-003, 1.97003759e-003, -2.93586496e-003,
          5.62178495e-004, -1.14085432e-003, -1.70908822e-003,
          4.22152574e-004, -2.22925897e-004, 3.60612816e-004,
          -5.56337822e-004, -1.78932806e-003, 9.80162993e-004,
          -3.48832319e-003, -3.14550055e-003, -3.94643517e-003,
          -6.64522219e-003, -5.21722995e-003, -1.93154253e-003,
          -4.14828566e-004, -2.55922088e-003, -1.36850076e-003,
          5.74105186e-004, 3.57503304e-003, 3.35059618e-003,
          2.52159266e-003, 2.01382954e-003, 5.04100812e-004,
          -3.81775084e-004, -2.31318292e-003, -5.69130667e-003,
          -4.12461720e-003, -3.71437101e-003, -2.20389967e-003,
          -3.04968469e-003, 2.93248449e-003, 5.92343684e-004,
          1.70963490e-003, -1.12963386e-003, -4.46962746e-004,
          -2.34033423e-003, -3.04002990e-003, 2.36687576e-003,
          1.29695970e-003, -1.66281546e-003, -5.20824164e-004,
          -5.82457241e-003, -4.88095824e-003, -6.06740965e-003,
          -5.73616766e-004, 3.08632036e-004, -6.65037474e-003,
          8.32191203e-004, -7.08715233e-004, 1.35913479e-005,
          1.23703480e-003, 5.47808828e-004, -1.44063565e-003,
          -2.32269452e-003, -2.80526164e-003, -8.83311091e-004,
          -3.64564150e-003, -1.75083696e-003, -5.11972373e-003,
          -2.20230245e-003, -2.75316811e-003, 1.58194720e-003,
          4.78808070e-003, 1.82575826e-003, -5.02219703e-003,
          -1.38303486e-003, -1.46094011e-003, 2.19611637e-003,
          3.50562739e-004, -6.17158774e-004, -4.16633533e-003,
          -2.82364781e-003, -4.91154101e-003, -3.61727388e-003,
          -1.32262812e-003, -1.45587744e-003, -2.32274039e-003,
          -3.48731177e-003, -1.07492029e-003, -5.26433403e-004,
          1.00100774e-003, 3.94788152e-003, -5.71442069e-004,
          2.38197995e-003, 5.70522661e-006, 1.01869833e-003,
          -8.35147570e-004, -5.76741714e-003, -1.67514989e-003,
          -3.23218736e-003, -9.22337174e-004, -2.99401721e-003,
          8.59097869e-004, -1.64520880e-003, 2.91348482e-003,
          -3.44375242e-003, -8.18183995e-004, -1.70072238e-003,
          1.76397862e-003, 1.04192796e-003, -1.08204863e-003,
          -3.74155515e-003, -3.32879461e-003, -2.75363168e-003,
          -4.06714296e-003, -2.88622291e-003, 4.96080145e-004,
          -2.44949735e-003, -2.04159343e-003, 5.03168500e-004,
          -4.57932067e-004, 7.24379788e-005, 2.84900540e-003,
          3.30592418e-004, 4.07382904e-005, -7.20468350e-004,
          -5.89693023e-004, 1.93456863e-003, -4.54793964e-003,
          -1.82873584e-004, -5.92886424e-003, -1.53911836e-003,
          -3.02132335e-003, -3.34295258e-003, -3.77940771e-004,
          2.37852894e-003, -2.84495181e-003, -4.21755435e-003,
          6.37201418e-004, -4.10588662e-004, 1.14220404e-003,
          -1.18706061e-003, -1.77673169e-003, 2.44500134e-005,
          -3.78477131e-003, -2.58976989e-003, -3.51319858e-003,
          5.33001381e-004, -1.78556031e-004, -4.04587761e-003,
          1.17473910e-003, -1.72400963e-003, 2.66612158e-003,
          4.09161672e-003, 1.16152747e-003, 1.70389179e-003,
          7.03458092e-004, 2.01050076e-004, 6.39993756e-004,
          -6.12651417e-003, 4.55864734e-004, -5.85156446e-003,
          -1.00566086e-003, -2.37647351e-003, -2.69967550e-003,
          1.51758583e-003, 1.40288239e-003, -4.41687368e-003,
          -2.55323108e-003, -1.71504437e-003, -1.18162425e-003,
          -2.38950038e-003, -2.54809478e-004, -6.80949539e-004,
          -2.95079453e-003, -1.82488933e-003, -3.19523620e-004,
          -2.98901997e-003, 1.99641756e-004, -2.87824124e-003,
          -2.31576222e-003, -2.65102892e-004, 3.25681828e-003,
          1.99538283e-003, 2.10707961e-003, -4.36091708e-004,
          2.91034556e-003, -6.79483492e-005, -1.06583093e-003,
          1.74895872e-003, -7.66142318e-003, 8.57529638e-004,
          -5.64975617e-003, -9.46506276e-004, -2.05187054e-004,
          -3.81630403e-003, -1.45642771e-004, -9.93233989e-004,
          -1.90972758e-003, 2.56940443e-003, -3.44633334e-003,
          -1.89221499e-003, 9.34895186e-004, 3.16330152e-005,
          -6.10884093e-003, 1.06139178e-003, -3.95008922e-003,
          -3.60090402e-003, 2.42175829e-005, 1.66143553e-004,
          6.74425915e-004, -1.01181853e-003, -1.64682046e-003,
          2.60234368e-003, 1.56037766e-003, -3.73946922e-003,
          4.85008117e-004, 3.79031105e-003, -1.49947801e-003,
          1.11079577e-003, 3.65361618e-003, -4.51823696e-003,
          3.42345308e-003, -7.62416981e-003, -1.47185719e-003,
          -1.86939468e-003, 2.82208808e-003, 8.53629608e-004,
          -1.50063948e-003, -2.98154657e-004, -4.42919647e-003,
          -7.53939326e-004, 1.81250903e-003, 1.04283995e-003,
          -8.48321419e-004, -2.85826088e-003, -7.98563380e-003,
          -2.78058485e-003, -4.55129519e-003, -1.08009728e-003,
          1.55067618e-003, 4.83673124e-004, -3.82449874e-003,
          1.94135029e-003, 4.91359970e-003, 2.62330961e-003,
          -1.28421234e-003, 1.07309106e-003, 8.41058863e-006,
          3.13651026e-003, 1.30554452e-003, -1.99351506e-003,
          -7.16832094e-003, -3.58508574e-003, 2.00063293e-003,
          -2.66198628e-003, -4.37656092e-003, 5.06971870e-003,
          2.14725593e-003, 8.15595966e-004, 2.37280293e-003,
          7.80357048e-004, 4.96397074e-003, 4.26444283e-004,
          6.37841877e-004, -7.18632829e-004, -2.60772510e-003,
          -2.75851320e-003, -7.03859096e-003, -8.59836955e-003,
          -2.71252706e-003, -5.01968479e-003, -2.08150013e-003,
          -3.15002981e-003, -1.87083147e-003, 2.82276049e-003,
          4.79031092e-004, 3.25123151e-003, -1.03393476e-003,
          -1.71283697e-004, 5.33661514e-004, -1.49167457e-003,
          -3.02660419e-003, -1.54096633e-003, -2.17387686e-003,
          -3.43401637e-003, -3.15035367e-003, -8.66067689e-003,
          4.64023463e-003, -7.05905550e-004, 9.34570213e-004,
          1.74836500e-003, -2.62964983e-003, 2.49352469e-003,
          3.82586935e-004, 2.17634323e-003, 1.19048415e-003,
          -3.33163678e-003, -2.09875917e-003, -3.73841822e-003,
          8.14769592e-004, -1.55073052e-004, -1.02503889e-003,
          -2.89148069e-003, -1.98821188e-003, 2.09215120e-003,
          -7.93755971e-005, 9.58285818e-004, 2.45549646e-003,
          -1.43889780e-003, -3.09168268e-003, 1.33246137e-003,
          -2.33099353e-003, 5.20997099e-004, 9.40991216e-004,
          -1.33612962e-003, -1.26721396e-003, -4.39229701e-003,
          -3.38226394e-003, 2.46882951e-003, -1.71598524e-003,
          -3.24272405e-004, -5.27473108e-004, 1.25024142e-003,
          6.75301344e-005, 2.02892441e-003, 3.13251722e-003,
          1.10099046e-003, -1.90256117e-003, -1.62219128e-003,
          -3.96510353e-003, -1.34026899e-003, -6.43937616e-003,
          -1.44625234e-003, -3.65698477e-003, -3.85389267e-003,
          1.58174778e-003, 4.50436072e-003, 1.83258194e-003,
          2.46837363e-003, -3.65314074e-003, -4.10113297e-003,
          2.41316200e-004, -1.31654437e-003, 7.71928171e-005,
          -4.28568292e-003, -1.39743742e-003, -2.52861227e-003,
          -1.27641088e-003, -4.79015335e-003, 2.34966120e-003,
          -8.99654115e-004, -1.20198983e-003, -4.36733768e-004,
          3.73456907e-003, 2.05403194e-003, -2.06945173e-004,
          2.35442538e-003, 1.01601298e-003, -2.90617556e-003,
          -1.10731763e-003, -4.11370350e-003, -3.40990722e-003,
          -4.91368724e-003, -1.51338370e-003, -1.03815466e-004,
          -4.60544880e-003, 1.90430530e-003, 5.71812456e-003,
          3.18234321e-003, 3.79194762e-003, -3.12042306e-003,
          -1.39371760e-003, 1.97931469e-004, 3.52139294e-004,
          -1.01548980e-003, 2.82512701e-005, 6.71082875e-004,
          -6.09455025e-003, -3.42006283e-003, -1.61412754e-003,
          2.47748639e-003, 5.92243683e-004, -1.23310077e-003,
          7.51482614e-004, 6.22074062e-004, 5.88624214e-004,
          -4.07209358e-004, 2.10750513e-004, -1.19320117e-003,
          -3.09035042e-003, -3.56473750e-003, -4.83958563e-003,
          -3.01818619e-003, -6.65088929e-003, 2.61569483e-004,
          -7.48567458e-004, -1.80218939e-003, 4.27661277e-003,
          -1.37135119e-003, -4.44523612e-005, 2.42021764e-004,
          9.20902356e-004, -4.18417808e-003, -1.51885534e-003,
          -1.39667114e-004, -1.14059984e-003, -2.14810204e-003,
          -7.35410838e-004, -3.73668876e-003, -4.06073732e-003,
          -1.33085239e-003, 2.32518115e-003, 4.63197473e-003,
          -9.29265691e-004, 7.15733622e-004, 3.84859944e-004,
          -6.26817928e-004, 1.03618484e-003, -2.04451010e-003,
          -3.22721394e-006, -5.72190434e-003, -5.27954428e-003,
          -3.84828448e-003, -3.27058090e-003, -4.19217907e-003,
          -1.68001803e-003, -9.01767402e-004, -2.83983652e-004,
          1.30550925e-005, 1.87150110e-003, 3.55887786e-003,
          2.28155847e-003, 1.56441890e-003, -1.19323283e-003,
          -1.53484149e-003, 1.21530634e-003, -1.27821823e-003,
          -5.81627805e-003, -1.79562985e-003, -6.59340760e-004,
          -1.63710664e-003, -1.03198318e-003, -6.84059807e-004,
          -1.94587698e-003, 1.19328231e-003, -3.87148838e-003,
          2.76407530e-003, -2.23229360e-003, 6.76269774e-005,
          -2.32274411e-003, 4.01017768e-003, -1.55587541e-003,
          -1.06285312e-004, -2.54044659e-003, -7.66340969e-003,
          -5.03010256e-003, 1.43286120e-003, -8.68663657e-004,
          1.55029714e-003, 1.27833860e-003, 1.63015770e-003,
          1.61381217e-003, 2.89926841e-003, -1.75322243e-003,
          6.01353415e-004, -7.70726765e-004, 6.74251060e-004,
          2.07212358e-003, 5.31498983e-004, 6.20423933e-004,
          -5.35591459e-003, -4.67478111e-003 ]
   decision_functions:
      -
         sv_count: 1
         rho: -1.5469483286142005e-002
         alpha: [ 1. ]
