%YAML:1.0
opencv_ml_svm:
   format: 3
   svmType: EPS_SVR
   kernel:
      type: LINEAR
   C: 1.0000000000000000e-002
   p: 1.0000000000000001e-001
   term_criteria: { epsilon:1.0000000000000000e-003, iterations:1000 }
   var_count: 620
   sv_total: 1
   support_vectors:
      - [ -1.62911916e-003, 4.80952585e-004, -5.29633486e-004,
          -9.33139308e-005, 7.71757972e-004, -1.34192337e-003,
          -1.08351593e-003, 1.61387710e-004, -1.66000635e-003,
          2.15921644e-003, -7.32168031e-004, -7.31063774e-004,
          -1.06381066e-003, 6.77520817e-004, -1.58217840e-003,
          -9.47445747e-004, -6.86046609e-004, -4.96794644e-004,
          -1.23012287e-003, 1.98880240e-004, 1.00275467e-003,
          1.54328835e-003, -1.39679745e-004, 2.18681386e-003,
          2.39689485e-003, -2.32672042e-004, 8.67181516e-004,
          -2.52189138e-003, -8.87483882e-004, -1.66195410e-003,
          1.14636426e-003, -4.89843485e-004, -5.99809631e-004,
          3.99506171e-005, -2.28599459e-003, -4.48088133e-004,
          -1.94719597e-003, -6.41351158e-004, 2.67463241e-004,
          -1.86781530e-004, 9.89113003e-004, -9.98694450e-004,
          -1.47607388e-005, 2.06306053e-004, -1.06139656e-003,
          -1.10048742e-003, -2.47228716e-004, 3.85537249e-004,
          -4.58437047e-004, -1.34761876e-003, 1.01722442e-004,
          8.35589308e-004, 1.61100703e-003, -3.17177946e-005,
          3.16913147e-003, 9.45541484e-004, 1.39690062e-004,
          4.50842548e-004, 7.36121365e-005, 1.96732988e-004,
          -1.85218721e-003, -2.46828329e-003, -1.11063011e-003,
          -3.55586060e-004, -3.90026165e-004, 1.40062906e-003,
          1.46063091e-003, -1.70698296e-003, -1.74707762e-004,
          -1.11880747e-003, -6.25473680e-004, -5.60562243e-004,
          -1.29841734e-003, -2.90152989e-003, -1.50918530e-003,
          -4.94986714e-004, -4.12908936e-004, -1.50623987e-003,
          1.20213255e-003, -2.18600384e-003, 4.43291065e-004,
          5.01202652e-004, 6.92582922e-004, 9.41085629e-004,
          3.47890307e-007, 8.42054549e-004, -1.22201187e-003,
          1.13433081e-004, -3.60772567e-004, -5.06946759e-004,
          -2.21163267e-004, -3.21802846e-003, -1.84673467e-003,
          1.25634804e-004, -2.10266490e-003, 8.42969574e-004,
          -6.32886193e-004, 1.08374679e-003, -1.55757088e-003,
          -1.25609702e-004, -9.27909394e-004, 8.89221628e-005,
          1.89281069e-004, -8.67209383e-005, -6.86905812e-004,
          -1.05774344e-003, -8.16679851e-004, 1.00202137e-003,
          2.11070036e-003, 3.98457887e-005, 4.85509081e-004,
          -1.09762256e-003, 1.41653535e-003, 6.53463765e-004,
          -1.33587187e-003, -1.54433283e-003, 7.48377526e-004,
          3.34158831e-004, -1.39965978e-003, 1.80990784e-003,
          5.38160384e-004, -1.46598928e-003, 4.00926248e-004,
          -4.28179163e-004, -1.05203129e-003, -1.26113603e-003,
          3.95660551e-004, 3.69251776e-003, 1.50423148e-003,
          8.76580161e-005, 1.01919274e-003, 5.82346926e-004,
          -3.97669035e-004, 6.28850074e-004, -9.05751716e-004,
          -1.17662956e-003, -3.12917691e-004, 1.95783842e-003,
          -1.10641378e-003, -6.79072400e-004, 2.04330703e-004,
          6.24341308e-004, 2.63110938e-004, -1.81425727e-004,
          -4.39125986e-004, -1.62747665e-003, -2.01720977e-003,
          3.58515186e-004, 1.32693956e-003, 1.13420625e-004,
          -9.21607949e-004, -8.53298407e-004, 1.81109726e-003,
          8.16611573e-004, 1.94287586e-005, 2.71443685e-004,
          -7.75778608e-004, -1.71989028e-003, -1.46880525e-003,
          -1.88796129e-003, -2.43708164e-005, -4.01073397e-004,
          1.63572986e-004, 1.77286947e-005, -1.35463197e-003,
          1.47362426e-003, -1.89708569e-003, -9.52829956e-004,
          -9.49757887e-005, -2.32690340e-003, -1.34754088e-003,
          -8.77983053e-004, 2.41743066e-004, 1.44889258e-004,
          4.60255018e-004, 1.88209023e-003, 1.16541819e-003,
          -6.28853333e-004, 3.38474069e-006, 5.34499064e-004,
          -5.65368042e-004, -1.32394576e-004, -3.11541301e-003,
          -1.72255351e-003, -2.84620473e-004, -9.87566775e-004,
          -6.35933131e-004, 1.03033811e-003, -2.12362036e-003,
          -1.28106098e-003, -1.08065445e-003, -2.22722138e-003,
          -3.83487641e-004, 1.13155460e-003, -1.41709647e-003,
          1.05996965e-003, 1.61945354e-003, -8.37007596e-004,
          -1.62386836e-003, -5.87242248e-004, -2.79861433e-003,
          -7.72956701e-005, -1.18088181e-004, -9.53785668e-004,
          -4.69532184e-004, 2.23100971e-004, 1.69611722e-003,
          1.31598135e-005, 3.37288919e-004, 3.01230262e-004,
          -2.61674548e-004, 1.01037021e-003, 1.24697806e-003,
          -2.02679564e-003, -1.40067516e-003, 1.94838984e-004,
          -2.09591677e-003, -8.34104605e-004, 7.45051831e-004,
          -6.18003251e-004, -6.03575259e-004, -2.61836336e-003,
          -1.79920136e-003, -1.83045247e-003, -5.76372724e-004,
          -2.84845801e-003, -1.89264049e-003, 1.38191879e-003,
          -1.35477690e-003, -9.40667465e-004, -1.07705465e-003,
          -1.48681318e-003, -1.55463314e-003, 9.39628342e-004,
          -5.04399068e-004, 8.90569179e-004, -6.88552915e-004,
          4.78499773e-004, -3.14692646e-004, 3.42434878e-003,
          1.99216581e-003, -7.43428594e-004, 6.77483098e-004,
          8.41194706e-004, -2.93497113e-003, -1.13933790e-003,
          -1.45794253e-003, -2.70448346e-003, -1.13693008e-003,
          1.54236692e-003, 6.08485934e-005, 1.93781816e-004,
          -2.48077395e-003, -1.98913179e-003, 1.65780424e-003,
          1.25066115e-004, 2.11409526e-003, -1.33591448e-003,
          1.24242841e-004, 1.33319141e-003, -5.60601067e-004,
          -9.77660879e-004, -3.68779059e-003, -1.32638961e-003,
          -1.10283851e-004, -1.05756498e-003, 8.99547944e-004,
          2.49092176e-004, 1.08594913e-003, -1.31428801e-003,
          1.38991862e-004, 3.90923535e-003, 7.88484176e-004,
          9.03520675e-004, 6.43802923e-004, -7.71475839e-004,
          -1.36764953e-003, -3.12438613e-004, -1.08943041e-003,
          8.39586952e-004, 1.15343870e-003, -8.22115806e-004,
          6.63851446e-004, -1.70496153e-003, -2.05337928e-004,
          9.44890722e-004, 7.86265358e-004, 2.14172833e-004,
          1.68470404e-004, 1.08423876e-003, -1.05334271e-003,
          5.21019800e-004, -9.21935949e-004, -1.48346229e-003,
          -2.68188072e-003, -2.37173936e-003, -2.33757703e-004,
          -6.13529934e-004, 1.88258884e-003, 1.05084677e-004,
          -1.62164075e-003, -4.78013913e-004, 1.04043644e-003,
          -1.13622780e-004, 5.71514480e-004, -9.34630574e-004,
          1.57791644e-003, -7.65863282e-004, -7.00269011e-004,
          -2.51714955e-003, -1.66736660e-004, 7.19389587e-004,
          -1.28762750e-003, -1.66105304e-003, -1.75420067e-003,
          1.52751585e-004, -3.45167500e-004, -1.20795169e-003,
          -9.73180111e-004, -9.07176698e-004, -1.05834287e-003,
          -1.45815127e-003, -2.01381976e-003, 1.41957402e-003,
          -6.88244530e-004, 1.66047062e-003, -2.26706281e-004,
          -7.33086374e-004, 6.19288418e-004, -1.69805833e-004,
          1.15227804e-003, 4.45688114e-004, -1.90518319e-003,
          9.52893286e-004, -5.03481169e-005, -7.34608853e-004,
          5.46863652e-004, -3.58533347e-003, -1.01303414e-003,
          -4.72717540e-004, 1.07595675e-004, 1.76942558e-004,
          -8.58191925e-004, -2.29377270e-004, -9.72897455e-004,
          -2.58365483e-003, -1.42831239e-003, -1.26295758e-003,
          -1.07940810e-003, 3.59105004e-004, -3.58731486e-004,
          1.52632687e-003, -1.82650005e-003, -2.08110185e-004,
          -1.37912657e-003, -2.22700508e-003, -4.41340017e-005,
          7.86453238e-005, -1.79606234e-003, -7.25303194e-004,
          -7.64407567e-004, 2.37099151e-003, 5.34674677e-004,
          5.82792156e-004, 1.31755660e-003, -6.74782088e-004,
          -1.44175917e-003, 1.09968369e-003, -3.82110663e-003,
          1.75978450e-004, -1.55432324e-003, -1.45362469e-003,
          9.62434933e-005, 6.49281894e-004, -1.09400996e-003,
          1.83178752e-004, -4.04044695e-004, -9.72045120e-004,
          6.04687142e-004, 3.33972945e-004, -2.12624390e-003,
          -1.49085536e-003, -7.14207708e-004, -3.86178726e-004,
          -1.90726144e-003, -1.91386230e-003, -2.84114527e-003,
          -9.34193493e-004, 8.95607285e-004, -4.48697916e-004,
          4.90411127e-004, 2.23045805e-004, 1.14457321e-003,
          -5.17312961e-004, 1.85649679e-003, 3.52412171e-005,
          1.00291240e-004, 1.51654996e-003, 1.78367991e-004,
          -1.69746974e-003, -4.99333662e-004, -2.94988928e-003,
          -7.31559470e-004, 9.65395666e-005, -4.91168816e-004,
          -8.83267552e-004, 1.53127278e-003, -2.93454574e-003,
          -1.31511060e-003, -1.34400639e-003, 5.80307154e-004,
          -3.31480289e-004, 5.32262447e-006, -1.33076217e-003,
          -8.57765612e-004, 3.10328614e-004, -2.35422724e-003,
          -1.47008419e-003, 3.33014119e-004, -2.82425201e-004,
          -1.85522751e-003, -5.45920222e-004, 8.46505398e-004,
          5.13304141e-004, -8.77504994e-004, 8.01753311e-004,
          1.95214711e-003, 1.35119981e-003, 1.22380268e-003,
          -2.25168304e-004, -3.11823818e-003, -5.54780127e-004,
          -2.64023338e-003, 3.76778073e-004, -1.75857378e-004,
          2.49623088e-004, -4.26758127e-003, -9.12606542e-004,
          2.25011748e-003, -1.04064459e-003, -4.59766947e-004,
          -1.36061909e-003, 2.15502176e-003, 7.33783454e-005,
          8.48212803e-004, -8.39157670e-004, -1.60734297e-003,
          -3.89261812e-004, -2.45619821e-003, -1.66543992e-003,
          -1.23939841e-004, -1.33063318e-003, 1.90421313e-004,
          7.36751594e-004, 4.04345832e-004, -1.17221440e-003,
          -4.05912055e-004, 1.55613606e-003, 1.74856267e-003,
          -6.31712959e-004, 1.12641242e-003, -5.99896244e-004,
          -6.66901818e-004, -2.06487370e-003, -1.87856739e-003,
          -2.65491544e-004, -1.17425353e-003, -1.44965702e-003,
          7.38626404e-004, 5.56910934e-004, -4.63821372e-004,
          1.55520672e-003, -6.34120777e-004, 6.44803746e-004,
          1.85403321e-003, -1.61876646e-003, -4.62627300e-004,
          -1.92677043e-003, -2.47819745e-003, -2.76559126e-003,
          8.50676326e-004, 1.08218337e-004, -3.18599836e-004,
          1.06192031e-003, 2.73636635e-003, 7.85320590e-004,
          8.13644321e-004, 4.34734218e-004, 1.94395578e-003,
          -3.00991058e-004, -7.42365082e-005, 5.00116148e-004,
          -1.89060555e-003, 1.32349363e-004, 7.58368580e-004,
          -2.41748802e-003, 6.92126749e-004, -9.03016014e-004,
          -1.15076068e-003, -8.33989121e-004, -6.33897725e-004,
          3.43526801e-004, 2.02333438e-003, 1.34274643e-003,
          5.81626722e-004, -1.71770618e-004, -1.35143346e-003,
          -4.75641311e-004, -2.28761509e-003, -2.78618513e-003,
          -4.64808021e-004, -6.09355338e-004, -2.39700871e-003,
          -2.33029202e-003, 1.06099516e-003, 2.38367356e-003,
          2.10103835e-003, 1.55179179e-003, 8.63442430e-004,
          -1.19049510e-003, -8.97065838e-005, 3.17305938e-004,
          -8.34132021e-004, -1.01132893e-004, -1.79934886e-003,
          -1.13637839e-003, -2.34295195e-003, 2.91139531e-005,
          7.44927034e-004, -2.08553905e-003, -1.34169264e-003,
          4.66546073e-004, -1.20095641e-003, 1.18539738e-003,
          9.00774903e-004, -4.11650763e-005, -4.98478999e-004,
          -2.89149117e-003, -6.28992449e-004, -1.40880526e-003,
          -2.58876430e-003, -1.04654126e-003, 6.81972713e-004,
          -9.67669126e-004, -1.17478904e-003, -6.74000185e-004,
          3.27453576e-003, 3.72075476e-003, 8.09527992e-004,
          2.03631213e-003, -5.41558955e-004, -7.76586123e-004,
          3.92001442e-004, -5.71457611e-004, -1.26561278e-003,
          -1.17386691e-003, -2.12752959e-003, -1.02669769e-003,
          -1.09012029e-003, -4.50437510e-004, 3.84420680e-004,
          -2.00694753e-003, -4.33907728e-004, -5.15117194e-004,
          4.12391848e-004, -7.77086476e-004, -1.09513814e-003,
          1.36844756e-003, -1.44660927e-003, -4.41430166e-004,
          -1.56321283e-003, -1.26863900e-003, 1.88522070e-004,
          9.98517033e-004, -8.69599171e-004, -3.51804774e-004,
          -1.21575531e-005, 1.85466884e-003, 7.89840647e-004,
          1.77108101e-003, 1.75234280e-003, 2.32809014e-003,
          -1.32016826e-003, -3.29859526e-004, 8.56361876e-004,
          -2.52485229e-003, 6.75308402e-004, -1.83625042e-003,
          -5.36888372e-004, -4.55222762e-004, 1.37854530e-003,
          -2.47062603e-003, 1.37046503e-003, 2.36647320e-003,
          3.04487767e-004, -2.79085734e-003, 5.58867352e-004,
          -1.11248854e-004, -1.31784473e-003, 1.03304432e-004,
          -1.45315111e-003, -1.92892144e-003, -1.07997435e-003,
          -3.08069075e-003, 9.02060943e-004, -1.26041542e-003,
          1.01328566e-004, 2.53397599e-003, 2.36861152e-003,
          1.69867522e-003, 8.72448436e-004, -6.85176405e-004,
          6.20145060e-004, 4.74787405e-004, 5.38274762e-004,
          1.31189812e-003, 2.27961806e-004, -1.66484213e-003,
          -3.63555999e-004, -2.37777876e-003 ]
   decision_functions:
      -
         sv_count: 1
         rho: -3.8155099749561661e-003
         alpha: [ 1. ]
