%YAML:1.0
opencv_ml_svm:
   format: 3
   svmType: EPS_SVR
   kernel:
      type: LINEAR
   C: 1.0000000000000000e-002
   p: 1.0000000000000001e-001
   term_criteria: { epsilon:1.0000000000000000e-003, iterations:1000 }
   var_count: 496
   sv_total: 1
   support_vectors:
      - [ 2.00427161e-003, 8.00782407e-004, 1.29784667e-003,
          -1.76677725e-003, 1.53879402e-004, -1.02347648e-003,
          5.33756800e-004, 2.39190855e-003, -1.23908406e-003,
          -4.07549407e-004, 3.22505744e-004, 2.43065035e-004,
          -4.61406657e-004, -1.97217031e-003, -8.32056918e-004,
          -5.52837388e-004, -2.60932691e-004, 2.60513916e-004,
          -2.63063528e-004, -5.76970924e-004, -1.20314930e-004,
          9.19891056e-004, -8.14826984e-004, -9.69934510e-004,
          6.51251816e-004, 9.78218042e-004, -5.77022904e-004,
          -1.28475029e-003, -4.23181744e-004, 3.26654495e-004,
          1.14192092e-003, -6.02466986e-004, -6.68178778e-004,
          8.29033088e-004, -1.77697279e-003, -7.33372726e-005,
          -9.58082499e-004, -1.56328897e-003, 2.22647810e-004,
          -7.13320042e-004, -1.72903284e-003, 1.27267034e-003,
          -1.53799498e-004, -2.21077338e-004, -1.11124164e-003,
          -4.08707710e-004, -4.88410820e-004, -1.63232151e-003,
          -1.72124198e-003, -2.63861177e-004, -9.75861389e-004,
          5.05409611e-004, -1.44591148e-003, -5.32360456e-004,
          2.28522648e-003, 1.13195879e-003, 1.61991187e-003,
          -1.36190021e-004, -1.05188845e-003, 5.58153435e-004,
          -2.05528736e-003, -2.87072826e-003, -8.69805750e-004,
          1.15655991e-003, -1.40633871e-004, -1.33325451e-003,
          -1.61459192e-003, -1.41802256e-003, -1.34385831e-003,
          -1.16219127e-003, 7.58100417e-004, -1.99289061e-003,
          2.35063431e-004, -2.30833117e-004, -3.57322890e-004,
          7.02029560e-004, -1.18737451e-004, -8.26080272e-004,
          -1.26934587e-003, 4.56271460e-004, 9.37775767e-004,
          -1.43153546e-003, -2.52510712e-004, -2.21422734e-003,
          1.50862988e-003, 4.83718235e-004, 9.10058850e-004,
          1.45639607e-003, 4.39134368e-004, -5.82986220e-004,
          -6.86699816e-004, -1.62690366e-003, -1.52021402e-003,
          1.18973944e-003, -1.01244339e-004, 4.35375667e-004,
          1.81093186e-004, -5.44243259e-004, -2.94008409e-004,
          -2.04245071e-003, 8.60901084e-004, 2.75733811e-003,
          -1.35251161e-004, -1.20959326e-003, -9.52477043e-004,
          -2.60469504e-004, 7.16849929e-004, -1.80694531e-003,
          -2.03376799e-003, 2.23230076e-004, 1.20059983e-003,
          -8.56813451e-004, 1.74588454e-003, -3.78027209e-004,
          -2.06996803e-003, -2.00253981e-003, 1.34980283e-003,
          -3.63902305e-004, 1.98866430e-004, 1.91760866e-003,
          9.32960655e-004, -1.15778654e-004, -6.21459098e-004,
          -1.05146936e-003, -3.93724098e-004, -3.00069572e-004,
          2.00560753e-004, 1.17295473e-004, -1.81653921e-003,
          -1.95505633e-003, -5.35061467e-004, -6.70280249e-004,
          -5.48423151e-004, -1.23500498e-003, 3.17384198e-004,
          -9.15284560e-004, -9.89349675e-004, -1.12494617e-003,
          1.00601872e-003, 3.12786666e-003, -5.96573344e-004,
          -8.28778953e-004, -3.02949804e-004, 4.74604924e-004,
          2.42606242e-004, -3.60852719e-004, 3.01679102e-004,
          -7.64184748e-004, -5.95680263e-004, -5.53652120e-004,
          3.10911091e-005, 5.23895782e-004, -1.68115052e-003,
          -5.05115138e-004, -1.70341076e-003, -9.30100487e-006,
          -1.43694808e-003, 1.27969787e-003, -1.88506360e-003,
          4.44542857e-005, -2.05666176e-003, -1.95736834e-003,
          -5.42919617e-004, -1.43502268e-003, -1.50240329e-003,
          1.26158737e-003, 2.37490167e-004, -2.87633826e-004,
          1.38485350e-003, -5.49788936e-004, -1.16734055e-003,
          -1.20804308e-003, -9.81910620e-004, -1.41207594e-003,
          -1.31106738e-003, 1.13936760e-004, -1.92961917e-004,
          1.28699339e-003, 1.26658089e-003, 1.53895489e-005,
          -1.53032277e-004, 2.63602298e-004, -2.82508251e-003,
          -1.53092807e-003, -7.78895745e-004, 3.79747071e-005,
          -1.17666088e-003, 2.32832343e-003, 1.09048255e-004,
          1.92031628e-004, -1.70571881e-003, -8.13045248e-004,
          -1.52886042e-003, -1.23044720e-003, -3.10110772e-004,
          -1.82731496e-003, -5.05633303e-004, -2.75163242e-004,
          1.71712654e-005, -2.27862693e-005, -5.77034836e-004,
          -2.30154023e-003, -1.35318970e-003, 1.68053943e-004,
          2.35186005e-003, -1.20368286e-003, -1.38401054e-004,
          1.50789041e-003, 3.57460021e-003, 2.59494968e-003,
          1.75517634e-003, 1.09019515e-003, 1.23148668e-003,
          -1.15843187e-003, -1.68362248e-003, -1.23294711e-003,
          -1.02219253e-003, -1.80814345e-003, -1.09367487e-004,
          2.77956191e-004, -3.58281221e-004, -2.67507206e-003,
          -2.19203546e-004, -8.19234527e-004, -5.22155198e-004,
          6.60104910e-004, -3.67390516e-004, 2.33088344e-004,
          -5.88274910e-004, -7.37732567e-004, 1.77272840e-003,
          1.89997532e-004, -2.41547311e-003, -1.07915862e-003,
          7.43584591e-004, -8.10565834e-004, -4.47172351e-004,
          1.42218650e-003, -7.31366163e-004, -2.39797460e-004,
          7.22020748e-004, 2.86900043e-003, 2.65827519e-003,
          -6.87218795e-004, -9.76507785e-004, -1.94542133e-003,
          1.24893428e-004, -8.90265743e-004, 3.64416774e-005,
          3.01364853e-005, 1.38955226e-003, -1.05546089e-003,
          -9.39272635e-004, -1.83404714e-003, 1.27935768e-004,
          -6.30902010e-004, -1.43123791e-004, -2.17259498e-004,
          1.12805310e-005, -1.17348938e-003, -8.82416905e-004,
          -1.90244711e-004, -1.82703807e-004, -6.17245038e-004,
          -9.35635413e-004, -1.75841502e-003, -2.03943206e-003,
          -2.21805624e-003, 4.78928618e-004, 1.40343781e-003,
          1.66656711e-004, 6.55744690e-004, -6.06261427e-004,
          1.12692840e-004, 9.26445064e-004, -1.81289879e-003,
          -1.33769587e-003, -8.45923088e-004, -2.29523430e-004,
          2.28887005e-003, 5.53627833e-005, 8.52792291e-005,
          1.03426317e-003, -2.60955212e-003, -2.02987320e-003,
          3.02426692e-004, 1.82416392e-004, -1.27389422e-003,
          -8.94823519e-004, -7.94446969e-004, -8.82049033e-004,
          -3.00134794e-004, -2.09345529e-003, -2.10374990e-003,
          -2.71816109e-003, -1.89670967e-003, 6.46353234e-004,
          -3.94708524e-003, -8.72285338e-004, -2.14274507e-004,
          9.33071424e-004, 1.83941238e-003, 8.94949364e-004,
          6.05514157e-004, 1.16575439e-003, -4.81012044e-004,
          -1.52494933e-003, -1.64214813e-003, -4.03274409e-003,
          1.07075449e-003, -7.14228372e-004, -7.86970253e-004,
          1.27014332e-003, -1.68914767e-003, -1.04401226e-003,
          2.93310557e-004, -1.03422953e-003, -1.36098382e-003,
          7.53006432e-004, 1.05390290e-003, 7.58576862e-005,
          2.60622823e-004, -3.98226024e-004, -1.30547443e-003,
          -9.62707680e-004, -2.34109233e-003, -1.58960023e-003,
          -9.49765788e-004, -1.00108108e-003, -9.20022430e-004,
          8.62397021e-004, -1.81494426e-004, 6.91044028e-004,
          -4.16738156e-004, 9.14040254e-004, 1.54242630e-003,
          2.50017678e-004, -4.50446591e-004, -1.50287338e-003,
          -2.00392259e-003, -9.78125492e-004, -1.16466940e-003,
          -6.43469335e-004, 6.47650624e-004, 1.35173905e-003,
          -2.44609057e-003, -1.18998298e-003, -1.88171060e-003,
          -1.46609335e-003, 6.26803841e-004, -1.45873229e-003,
          -1.14724447e-003, -5.00179071e-004, -1.09082845e-003,
          -2.92695222e-005, -1.55424670e-004, -1.91536604e-003,
          -3.55355121e-004, 7.06646533e-004, 2.58169166e-005,
          -1.65687618e-003, 4.38460149e-004, 5.99683728e-004,
          3.43448155e-005, 1.65974954e-004, 6.38422847e-004,
          7.82388204e-004, 2.39999441e-004, -1.85485964e-003,
          -2.63710157e-003, -1.80190057e-003, 5.84465277e-004,
          3.92456044e-004, -4.78515431e-004, -1.23006490e-003,
          1.05202734e-003, -3.25074722e-003, -2.58348463e-003,
          -3.05945083e-004, -2.08374974e-003, -1.30159967e-003,
          -1.03837613e-003, 1.13980274e-003, 1.46344630e-003,
          -4.49078798e-004, -1.36986957e-003, -2.63990322e-003,
          7.66640296e-004, 1.63266563e-003, 3.14551638e-004,
          1.80994696e-003, 6.36580953e-005, 7.30487751e-004,
          -2.09412479e-004, 5.33403771e-004, -3.29816132e-004,
          7.19694071e-004, 5.06601355e-004, -9.93231661e-004,
          -4.41341801e-003, -1.09485094e-003, 6.57994708e-004,
          1.50531589e-004, -7.92869032e-005, 2.37214263e-004,
          -2.47389456e-004, -1.19568151e-003, -1.32011584e-004,
          -6.06351823e-005, 1.76218955e-003, 7.51953630e-004,
          -2.53000035e-004, -1.03631744e-003, -1.34044210e-004,
          -1.35186681e-004, -1.21036905e-003, -2.74072099e-003,
          -1.46167807e-003, -6.81009260e-004, 4.80022427e-004,
          1.22715451e-003, 2.05112708e-004, 7.07023719e-004,
          4.21068020e-004, 2.24019215e-003, -5.14812476e-004,
          -4.72438725e-004, 4.81667405e-004, -1.40641257e-003,
          1.14208597e-004, -2.15827883e-003, 1.25117053e-003,
          -2.34734849e-003, 9.40450002e-004, -1.34770840e-003,
          1.85876235e-003, -1.21737190e-003, 4.78750211e-004,
          -2.28420584e-004, -5.26494056e-004, 5.67231269e-004,
          -2.69394834e-003, -6.61766622e-004, 2.53161037e-004,
          -4.58977651e-004, -3.11472383e-003, -2.01688055e-003,
          -1.45159627e-003, -1.14944100e-003, -3.03633133e-004,
          6.34217809e-004, 1.13536697e-003, 2.43932381e-003,
          -2.92140269e-003, -1.03950198e-003, 1.94786314e-003,
          -2.06181430e-003, -3.40159604e-005, -4.68078419e-004,
          -9.32189927e-004, 6.29648799e-004, 3.04121844e-004,
          -1.46810062e-005, -3.48719279e-003, -1.63102173e-003,
          -1.51614228e-003, 6.29290764e-004, -6.32907177e-005,
          -2.69861135e-004, 7.19413045e-004, -3.77179647e-004,
          2.90663098e-004, 1.79700751e-003, 1.04597770e-003,
          1.28650965e-004, 2.84141977e-004, -4.86853707e-004,
          -2.65195337e-003, -2.46681477e-004, -9.59294790e-004,
          1.28858839e-003, -1.12385803e-003, -1.15325011e-003,
          1.46609871e-003, -3.72535753e-004, -2.04351521e-003,
          -1.07892149e-003, -1.39879796e-003, -9.84359533e-004,
          -5.51279809e-004, -1.72769278e-003, -9.95624461e-004,
          -5.99630352e-004, -5.94868383e-004, -6.98694261e-004,
          6.37085002e-004 ]
   decision_functions:
      -
         sv_count: 1
         rho: -5.5029118061065141e-003
         alpha: [ 1. ]
