%YAML:1.0
opencv_ml_svm:
   format: 3
   svmType: EPS_SVR
   kernel:
      type: LINEAR
   C: 1.0000000000000000e-002
   p: 1.0000000000000001e-001
   term_criteria: { epsilon:1.0000000000000000e-003, iterations:1000 }
   var_count: 1240
   sv_total: 1
   support_vectors:
      - [ -1.53202377e-003, 2.74808402e-003, 1.14028258e-002,
          -2.35062838e-003, -1.04957949e-002, -5.10659395e-003,
          9.89998691e-003, 6.01140410e-003, 5.43350866e-003,
          1.52167538e-003, -6.82220096e-003, -1.50300050e-002,
          6.00172719e-003, 5.26366848e-003, -1.25661492e-003,
          -5.89960814e-003, -5.86891361e-003, -2.27596611e-003,
          6.99966121e-003, 5.70876850e-003, 3.60201346e-004,
          -8.10782192e-004, -8.80138658e-004, -5.75212901e-003,
          6.46598265e-003, 3.05707217e-003, 6.42613461e-003,
          -9.07991920e-003, -4.06203698e-003, 5.36077283e-003,
          3.84241575e-003, -3.78621480e-004, -6.13508048e-003,
          8.50745477e-003, 7.03265565e-003, -3.46745178e-003,
          1.43202837e-003, 7.05062132e-003, 6.99239410e-003,
          -2.31988681e-003, -4.47195303e-003, -5.27234515e-003,
          -1.98040158e-002, -5.04319440e-004, -8.59532878e-003,
          -6.02589175e-003, -7.92970881e-003, -1.19952448e-002,
          -1.25843678e-002, -5.80955343e-003, -6.73099235e-003,
          -7.14593753e-003, -3.00062913e-003, -6.91615557e-003,
          -8.27914337e-005, 1.86754612e-003, -1.44106522e-003,
          -9.84056480e-003, -1.31940618e-002, -4.68277885e-003,
          -8.40520393e-003, -1.28027366e-003, 4.58142394e-003,
          -1.63816672e-003, 5.07379137e-003, -2.02747295e-003,
          -1.07194288e-002, 6.70281472e-003, 4.06226609e-003,
          1.12187872e-002, 7.79415667e-003, -1.08588403e-002,
          -9.42287128e-003, -1.75753813e-002, -7.79879605e-003,
          -6.78312918e-003, -8.82784743e-003, 5.59732644e-003,
          -6.89122314e-003, -1.57446582e-002, -1.35729555e-003,
          -9.25105996e-003, -9.21834819e-003, -1.02398591e-002,
          -1.28540685e-002, 2.39211391e-003, 9.97940358e-003,
          7.47905578e-003, -1.46413536e-003, -1.60228442e-002,
          -1.91071630e-003, -9.10283625e-003, 1.93092949e-003,
          3.47559853e-003, -3.12520843e-003, 7.83064123e-003,
          4.11514984e-003, -1.25217289e-002, -3.44782195e-004,
          -5.81834186e-003, 5.36898570e-003, 9.29216947e-003,
          -8.84415489e-003, -1.31661789e-002, -1.71063673e-002,
          -1.20511930e-002, -4.00885893e-003, -1.25631326e-004,
          1.08734481e-002, 2.27855355e-003, -4.43224702e-003,
          -1.35113602e-003, -1.39176408e-002, -1.05823446e-002,
          -1.25305075e-002, -1.53010627e-002, 4.69194027e-004,
          1.05007563e-003, 5.68442792e-003, 1.56581507e-003,
          -1.81897972e-002, -4.05809283e-003, -5.22737019e-003,
          9.41585656e-003, 1.54293538e-003, -1.91221642e-003,
          6.72897731e-004, 3.07504251e-003, -3.76175297e-003,
          2.91180302e-004, 7.33671593e-004, 1.12765683e-002,
          3.11119598e-003, -1.66897122e-002, -9.04712640e-003,
          -1.52441133e-002, -8.58057290e-003, -4.20543551e-003,
          -1.32858893e-002, -5.53844264e-003, -2.88840267e-003,
          4.92416881e-003, -1.38139222e-002, -1.46203386e-002,
          -1.75894499e-002, -9.47611500e-003, -1.56598762e-002,
          -1.34684816e-002, -7.76307797e-003, -2.87896419e-005,
          6.31905114e-003, -2.08776370e-002, 3.40839592e-003,
          -1.31590124e-002, 4.45329351e-003, 5.94982831e-003,
          6.02130964e-003, 8.33476521e-003, -3.30899353e-003,
          -7.37489341e-003, -7.44248182e-003, 2.97121494e-003,
          3.39045451e-004, -4.09111101e-003, -3.55223496e-003,
          -2.17982680e-002, -1.59004647e-002, -6.85866340e-004,
          5.58307674e-003, -2.79159844e-003, -4.21656575e-003,
          3.41102341e-003, 6.63248450e-003, 1.38059091e-002,
          -8.19261884e-004, -3.15215322e-003, -4.23128949e-003,
          6.56630378e-004, -4.93560266e-003, 3.84908798e-003,
          6.38240064e-003, 6.02831040e-003, -3.35169770e-003,
          -1.86762717e-002, 1.36781018e-002, -6.69709221e-003,
          3.51697742e-003, -4.94960137e-003, -9.07954527e-005,
          -5.27741446e-004, -7.98781309e-003, 2.88299285e-003,
          4.26659081e-003, 2.03738152e-003, -1.14574842e-002,
          -4.54855664e-003, -1.02585526e-002, -1.51574099e-002,
          -4.62155836e-003, -4.22710693e-003, -8.62226076e-003,
          -3.06623103e-003, -4.08724975e-003, -3.21229361e-003,
          4.12720052e-004, -6.57925010e-003, -6.24491973e-003,
          -5.45783853e-003, -4.20895405e-003, -1.43285606e-005,
          4.16107755e-003, 2.36432184e-003, -4.88971919e-003,
          -9.39909182e-003, -1.71918720e-002, 5.86290145e-003,
          -1.23221315e-002, -1.86802039e-003, -5.73276542e-003,
          -4.04873909e-003, 6.80667395e-003, -1.26967272e-002,
          1.03525305e-003, 4.96874236e-005, 2.54297024e-003,
          6.36090001e-004, -6.37001963e-003, -7.63279293e-003,
          -1.72179732e-002, -4.64118039e-003, 4.98558208e-003,
          -6.76628901e-003, -2.17751507e-003, -4.93508345e-003,
          -2.39394535e-003, 7.84984510e-003, -3.41324299e-003,
          -1.45779159e-002, -8.70412868e-003, -4.07459913e-003,
          3.71258333e-003, 1.70499855e-003, 4.18165512e-003,
          6.32529007e-003, -6.42701378e-003, -1.39385546e-002,
          -4.92183142e-004, -7.62649719e-003, 3.71660735e-003,
          -2.43035262e-003, 2.51387269e-003, 1.42207916e-003,
          -1.60405263e-002, -4.03200136e-003, -1.24336015e-002,
          -1.58127188e-003, 7.22187990e-003, 6.72220951e-004,
          1.80741365e-003, -1.95723586e-002, -1.01271495e-002,
          1.02164494e-002, 4.43046121e-003, 3.68953333e-003,
          7.77483336e-004, -5.17162867e-003, 1.23149529e-002,
          -1.07923429e-002, -1.60662737e-002, -1.08616995e-002,
          -3.12313414e-003, 1.89374457e-003, -3.87862581e-003,
          -3.74445319e-003, 3.19877290e-003, -2.01046257e-003,
          -1.71646755e-002, 4.62265173e-003, -1.90922315e-003,
          -1.34560671e-002, -7.39987101e-003, 8.38507712e-003,
          6.49243360e-004, -2.12660823e-002, -8.21551774e-003,
          -5.62614994e-003, 6.07161364e-003, 4.89717396e-003,
          -5.62941702e-003, -4.60142083e-003, -1.06593976e-002,
          -3.67767434e-003, 8.46771244e-003, -2.49249948e-004,
          2.05635349e-003, -3.81396315e-003, -8.36099498e-003,
          -6.96399715e-003, -1.38996551e-002, -5.14201215e-003,
          -8.79777409e-003, -9.66916606e-003, -3.38808959e-003,
          -3.72856506e-003, 4.77184949e-005, -5.95391402e-003,
          -8.56602681e-004, -1.90376583e-002, 5.11086429e-004,
          -1.00456802e-002, -1.45247730e-003, -9.54701845e-003,
          1.47216674e-002, 3.26794456e-003, -6.34911144e-003,
          -1.57904271e-002, -1.02774454e-002, -2.05330737e-003,
          -2.06981041e-003, -8.53962323e-004, -2.40328303e-003,
          -1.32020805e-002, -7.14314263e-003, -2.00074934e-003,
          6.88523147e-003, 3.80161148e-003, -3.84276733e-003,
          -1.58298455e-004, 3.27058602e-003, 1.04454067e-003,
          6.54027471e-003, -4.63624205e-003, -8.45070556e-003,
          -5.02160890e-003, -2.20181933e-003, -2.60746665e-003,
          1.79896841e-003, -1.00504551e-002, -1.89807322e-002,
          8.48628674e-003, -2.30264175e-003, 9.97212250e-003,
          -1.42081464e-002, -4.49622748e-003, 1.99085427e-003,
          1.58375537e-003, -1.06765032e-002, -2.95591610e-003,
          1.46308984e-003, -1.31318066e-002, -5.65780047e-003,
          4.29454842e-004, -9.84846987e-003, -1.00927697e-002,
          -8.65780097e-003, 8.80734622e-003, 2.54294346e-003,
          -8.02360289e-003, 6.39841237e-005, -3.01342295e-003,
          -1.23867029e-002, -4.60751634e-003, -1.12597467e-002,
          -7.08124740e-003, -8.62336543e-004, 1.18532765e-003,
          -3.81854898e-003, -7.49824988e-003, -8.93326756e-003,
          -1.93246752e-002, 5.88032836e-003, -6.32852223e-003,
          3.42065096e-003, -1.64351370e-002, -6.13420084e-003,
          8.42600595e-003, -3.26914340e-003, -1.29538067e-002,
          -8.16112664e-003, -5.91762539e-004, -6.38052914e-003,
          -1.26547171e-002, 3.03025730e-003, -9.03674401e-003,
          -2.30020587e-003, 6.25343644e-004, 3.92090343e-003,
          7.44789315e-004, -4.23865998e-003, -5.15787955e-003,
          -1.20622490e-003, -1.20678674e-002, -1.37337949e-002,
          -3.66923213e-003, -6.96878228e-003, -8.41712696e-004,
          -2.69547128e-003, -2.36955634e-003, -6.08354295e-003,
          -4.99772653e-003, -1.55593110e-002, -2.04108423e-003,
          -9.05448850e-003, -5.61883347e-003, -1.61943696e-002,
          6.81173429e-003, 1.48950284e-002, -3.10628023e-003,
          -1.44858435e-002, -1.08640529e-002, -3.09823966e-003,
          1.01646157e-002, -6.69504341e-004, 8.51522491e-004,
          -8.12611543e-003, -2.49510020e-004, -2.13438808e-003,
          7.12057250e-003, 6.41687820e-003, 5.39270462e-004,
          -5.65598672e-003, -6.46671921e-004, -2.02338062e-002,
          -3.66114941e-003, 4.00218833e-003, 2.18478939e-003,
          -3.06690414e-003, -1.43555889e-003, -2.09937547e-003,
          -1.85633847e-003, -1.74616033e-003, -1.20158093e-002,
          7.11380551e-003, -4.38424712e-003, -1.15537448e-002,
          -9.10722278e-003, 8.36854335e-003, 8.02217517e-003,
          -1.92535128e-002, -1.93610471e-002, -6.33341959e-003,
          -4.10043495e-003, 5.75481169e-003, -4.88549843e-003,
          -4.03407263e-003, 1.90156372e-003, 2.93286005e-003,
          5.59497299e-003, 1.21449190e-003, -4.74109920e-003,
          -2.29851576e-003, 1.38797075e-003, -8.30476079e-003,
          -1.12989964e-002, 1.75455271e-003, -4.90194070e-004,
          -1.31291030e-002, -1.58049650e-002, -8.82712193e-003,
          -4.66300361e-003, 6.30666129e-003, 7.38379240e-005,
          -1.34935295e-002, -1.17010984e-003, -9.21173953e-003,
          -7.86730181e-003, 2.55062873e-003, 1.19546391e-002,
          5.64604020e-003, 4.03466588e-003, -1.11324796e-002,
          -5.45290904e-003, -5.37489215e-003, -5.04935393e-003,
          -6.92692678e-003, -6.40976150e-003, -1.61496792e-002,
          -1.14676673e-002, 1.42435613e-003, 5.42475889e-003,
          3.72679112e-003, -1.92957360e-003, -4.72541433e-003,
          -1.91412761e-003, 5.65082254e-003, -1.48450403e-004,
          1.41547748e-003, 5.65906707e-003, -1.20966649e-003,
          9.57959273e-004, -4.43955790e-003, -8.25678091e-003,
          -1.51288593e-002, -1.06172618e-002, -3.28588602e-003,
          6.53487723e-003, -5.37980488e-003, 1.92159822e-003,
          4.37636254e-003, 1.50703604e-003, 1.71249395e-003,
          -1.46651473e-002, -2.56823888e-003, 3.16290953e-003,
          -5.41660655e-003, 6.80293981e-003, -6.87179482e-003,
          -1.75021309e-002, -2.08565593e-002, -1.06860492e-002,
          8.02554935e-003, -1.93466165e-003, -3.32394452e-003,
          -2.01185420e-003, -9.18695517e-003, -6.38408773e-003,
          -8.88583250e-003, -9.41495039e-003, -2.30234931e-003,
          -1.13470142e-003, -2.17288942e-003, 9.81963938e-004,
          -5.96687756e-003, -1.30392238e-002, -1.27855614e-002,
          -4.96645598e-003, 7.59336399e-004, -5.62826637e-003,
          -2.47586123e-003, 1.03748334e-003, 1.12482486e-002,
          6.40457915e-003, -1.38515681e-002, -1.67774968e-002,
          -2.40831519e-004, 6.42658956e-003, 3.02232360e-003,
          -3.42072541e-004, -1.30767161e-002, -1.72633063e-002,
          -5.24010882e-003, 3.61586362e-003, 1.02110661e-003,
          -2.17059933e-004, -8.47093668e-003, -2.34089163e-003,
          -4.28524055e-003, -1.00385649e-002, -2.04447773e-003,
          5.66153834e-003, -6.28850795e-003, -1.10346433e-002,
          2.42558797e-003, 1.20279472e-003, -2.64727324e-003,
          -8.03827401e-003, -6.57787034e-003, -6.68748841e-003,
          -6.84890710e-003, -1.31201325e-002, 2.98164017e-003,
          1.04031656e-002, 6.12777472e-003, -1.23900110e-002,
          -8.07955116e-003, -3.28194257e-003, 9.47988406e-003,
          1.06096873e-003, -9.07496375e-004, -9.07577481e-003,
          -2.00587977e-002, -1.70212630e-002, 5.90494229e-003,
          3.52284336e-003, 7.74252403e-004, -7.78506044e-003,
          -2.29695975e-003, -1.03245741e-002, -5.06563112e-003,
          -3.82262631e-004, 6.30694209e-003, -3.61590064e-003,
          -2.17069243e-003, 1.75120847e-004, -1.10675872e-003,
          -6.48130570e-003, -1.40392212e-002, -6.71147252e-004,
          -6.29729638e-003, -1.42809292e-002, -5.01117343e-003,
          6.71632122e-003, 1.10173970e-002, -2.13990314e-003,
          -1.82846021e-002, -1.05027566e-002, -9.06016328e-004,
          3.54476366e-003, -7.82268867e-003, 1.80072954e-003,
          -1.85561844e-003, -8.75806808e-003, -1.28173670e-002,
          7.76800211e-004, -8.34427215e-003, -7.03631062e-003,
          -4.15659882e-003, -6.59002783e-003, -8.22977256e-003,
          8.08453828e-004, -2.71339831e-003, -6.58684876e-003,
          -1.15211383e-002, -1.56899970e-002, -5.12361294e-003,
          1.14216027e-003, -8.57355539e-003, -1.45947952e-002,
          -3.87814618e-003, -9.75112710e-003, 2.78706226e-004,
          4.98672668e-003, 5.75665617e-003, 3.13452352e-003,
          6.84189494e-004, -9.95374005e-003, -7.49698514e-003,
          -1.21649792e-002, -4.90010018e-003, -4.81847441e-003,
          -3.05416738e-003, -9.26758721e-003, -9.42000467e-003,
          -2.32739985e-004, 9.44655854e-003, 7.06400396e-003,
          3.68853041e-004, 3.07872222e-004, 5.81959961e-003,
          4.81137540e-003, 1.61137054e-004, 1.48956518e-004,
          -3.06063821e-003, -2.69469735e-003, -3.98158445e-004,
          -1.04954960e-002, -4.90453793e-003, -1.76065303e-002,
          -2.61411350e-003, -6.35640183e-003, 1.27741285e-002,
          -7.31822802e-003, -3.40028154e-003, 2.32698373e-003,
          9.88944201e-004, -1.66465552e-003, -9.56156012e-003,
          -8.50224029e-003, -5.66978427e-003, -1.13894814e-003,
          6.75505586e-003, -7.02793977e-006, -1.28755793e-002,
          -1.61268171e-002, -2.74023926e-003, 1.21643627e-002,
          5.67243341e-003, -2.32293177e-003, 8.40528373e-005,
          4.95390675e-004, -7.43227080e-003, -8.31613410e-003,
          -8.54890049e-003, -3.17419786e-003, 1.03553105e-003,
          -1.00649835e-003, -6.40292047e-003, -2.16719066e-003,
          -4.83127404e-003, -7.93248508e-003, -1.20130572e-002,
          4.34800563e-003, -9.34693217e-003, -9.50717274e-003,
          -4.84638585e-005, 1.29046673e-002, 7.70682283e-003,
          -1.43842902e-002, -1.64339859e-002, -1.03387414e-002,
          -1.36707153e-004, 9.50759742e-003, 7.54935259e-004,
          -5.73806791e-003, -1.69945732e-002, -2.77470518e-003,
          1.00540621e-002, 5.52381109e-003, 2.60980637e-003,
          -2.25833128e-003, -1.64835982e-003, -8.17725062e-003,
          -4.55048354e-003, -6.34264247e-003, -6.08758652e-004,
          -4.73006722e-003, -6.17632829e-003, -6.33589923e-003,
          1.11025979e-003, 2.49848212e-003, -4.45746537e-003,
          -9.02172085e-003, -7.35688442e-003, -1.33589171e-002,
          -1.12079978e-002, 4.36844630e-003, 1.54876560e-002,
          6.07293379e-003, -1.00972541e-002, -4.66728117e-003,
          -5.21361083e-003, 3.97897745e-003, -1.37318193e-003,
          -1.79506443e-003, -5.61106158e-003, -1.67050920e-002,
          -6.47159899e-003, 1.23950765e-002, 5.04455157e-003,
          8.46171228e-004, -6.79073995e-003, -5.60926227e-003,
          -1.07964026e-002, -3.06890812e-003, 2.83614220e-003,
          3.71349603e-003, 1.07654463e-003, 1.08734856e-003,
          -4.17088903e-003, -1.78031158e-003, 1.64988195e-003,
          -1.06218122e-002, -2.45287875e-003, -5.12038451e-003,
          -1.67450234e-002, -5.12139057e-004, 5.56224864e-003,
          1.91666633e-002, 6.85785152e-003, -5.70834195e-003,
          -1.34909956e-003, -7.37302331e-003, 3.69534548e-003,
          -9.59987193e-003, -2.21753074e-003, -2.90517113e-003,
          -1.70465801e-002, -3.14316433e-003, 1.24541987e-002,
          -4.23556427e-003, -8.24414194e-003, -1.85669623e-002,
          -9.51599423e-003, -1.54566835e-003, 1.69423153e-003,
          9.01868916e-004, 2.92391190e-003, 1.94738025e-003,
          -5.77354105e-003, -1.44851711e-002, -9.91170760e-003,
          6.21161750e-003, -1.89488046e-002, -1.57060486e-003,
          -9.21992585e-003, -2.56746472e-003, 6.79087453e-003,
          1.53655972e-004, 4.28480655e-003, -2.85713212e-003,
          -7.69935409e-003, -7.60731986e-003, -1.11740381e-002,
          -2.20873510e-003, -6.39116345e-003, 6.00472186e-003,
          -8.98032915e-003, -8.62000789e-003, -5.47109870e-003,
          1.03235133e-002, 6.08580373e-003, -4.19083983e-003,
          -3.65392677e-003, 1.01059198e-003, 5.63423475e-003,
          -5.16350707e-003, -2.82449473e-004, -5.47275459e-003,
          -5.78926003e-004, -4.86172765e-004, -1.21622849e-002,
          -8.37156177e-003, -1.58970132e-002, -6.50953269e-003,
          -2.18236214e-003, 6.78034360e-003, -1.21798366e-002,
          -3.36417370e-003, 1.33647304e-003, 2.95354286e-003,
          -2.55725137e-003, -8.09666794e-003, -8.57640244e-003,
          -4.43999935e-003, 1.61115860e-003, 2.50001508e-003,
          7.10740685e-003, -1.22850481e-002, -1.82694215e-002,
          -8.75011738e-003, 1.17935343e-002, 3.07708792e-003,
          -5.02764573e-003, -1.34259777e-003, -2.57648341e-003,
          1.39533752e-003, -6.49387762e-003, -9.34546627e-003,
          -1.05902739e-003, 1.73093437e-003, -3.72458622e-003,
          -8.42184108e-003, -9.94821661e-004, -8.54387879e-003,
          -4.12622467e-004, -1.38455620e-002, -2.89392658e-003,
          -1.20210797e-002, -9.48676094e-003, -3.43300402e-003,
          1.48925688e-002, 3.17027373e-003, -1.04666045e-002,
          -1.21495798e-002, -5.97229972e-003, 5.68048563e-004,
          7.48232892e-003, 3.82226100e-003, -5.96279930e-003,
          -1.59895122e-002, -8.61085113e-003, 1.32328859e-002,
          3.79470759e-003, -2.80497945e-003, -2.12315214e-003,
          -3.10625392e-003, -7.48405932e-003, -5.49629750e-003,
          1.75098900e-003, 2.94890860e-003, 3.33790365e-003,
          -6.45190198e-003, -7.71269994e-003, -6.83936232e-004,
          -1.95966754e-003, 3.29385023e-003, -1.54431323e-002,
          -5.71697997e-003, -1.53347040e-002, -2.28901627e-003,
          7.69013399e-003, 1.29372897e-002, 5.97927719e-003,
          -6.71353750e-003, -5.14522986e-003, -3.12355551e-004,
          2.49027414e-003, 2.42385804e-003, -1.62396790e-003,
          -6.63810596e-003, -2.12612431e-002, -9.34605487e-003,
          1.13587650e-002, 5.81831718e-003, -1.42321375e-003,
          -7.60418409e-003, -6.32944843e-003, -2.65247491e-003,
          1.46404793e-003, -4.30045475e-004, 1.10931881e-002,
          4.82633244e-003, 3.89141875e-004, -2.30348809e-003,
          -5.40081365e-003, 4.09790827e-003, -5.43599157e-003,
          -1.01116011e-002, -2.21794448e-003, -1.98533200e-002,
          1.11333800e-004, 1.16906418e-002, 1.01097850e-002,
          2.43668351e-003, -2.33918964e-003, -2.96375761e-003,
          -9.62764723e-004, 6.48780260e-003, -3.37607204e-003,
          -2.08110572e-003, -6.32594526e-003, -2.32066326e-002,
          -6.13552658e-003, 6.13548560e-003, 3.56905075e-004,
          -1.39743337e-004, -8.12640414e-003, -7.19609298e-003,
          1.29995740e-003, 5.27561316e-003, -1.17359310e-003,
          9.97184683e-003, 7.04655831e-004, -4.07870486e-003,
          -3.68168950e-003, -4.70395619e-003, 1.36013795e-002,
          -1.22118210e-002, -7.11838994e-003, -1.22700827e-002,
          -1.47180888e-003, 1.21551463e-002, 5.06607303e-003,
          1.59803464e-003, -6.02178276e-003, -1.03753787e-002,
          -6.89865835e-003, -3.76304006e-003, 2.47726659e-003,
          -2.16601111e-004, 3.36429174e-003, -1.42318280e-002,
          -1.90305635e-002, -1.13228038e-002, -1.04683044e-003,
          4.66989214e-003, -4.70443070e-003, -8.58876109e-003,
          6.89606369e-003, 1.13074174e-002, -3.99049139e-003,
          -9.40592587e-003, -1.11210691e-002, -1.18107516e-002,
          -3.65751609e-003, -7.13565899e-003, -6.60487451e-003,
          -2.29208414e-002, -4.70315199e-003, -7.46662077e-003,
          7.58829853e-003, -1.37299197e-002, -2.75633694e-003,
          3.03914421e-003, 6.99422508e-003, -3.26132821e-003,
          -4.76561254e-003, -7.89767038e-003, -2.22527003e-003,
          1.07553247e-002, 1.31951841e-002, 5.11149224e-003,
          -1.52333649e-002, -2.34156009e-002, -1.34488530e-002,
          2.59239529e-003, 1.36979902e-003, -3.50848516e-003,
          -8.45422689e-003, 3.95645108e-003, 5.61684463e-003,
          -5.00754314e-003, -8.43852665e-003, -7.88433198e-003,
          -8.49773828e-003, -5.18860482e-003, -4.30136640e-003,
          1.67050317e-003, -1.33848833e-002, 7.84898829e-003,
          -2.02318802e-002, -4.60501324e-004, -1.39963012e-002,
          -9.86383529e-005, 4.78856405e-003, 1.18432362e-002,
          6.85632182e-003, -3.74170765e-003, -9.23943333e-003,
          -1.72426982e-003, 5.56131778e-003, 8.45499709e-003,
          -5.48120076e-003, -9.95824952e-003, -1.44531121e-002,
          -6.62685791e-003, 8.84757470e-003, 1.56740611e-003,
          -4.46341606e-003, -2.63255183e-003, -5.93083864e-003,
          -4.49283887e-003, -5.50732890e-004, 2.19658785e-003,
          8.43001064e-003, -1.11333339e-003, -8.30253493e-003,
          -7.28475070e-003, 1.63673656e-003, -5.32130152e-003,
          1.16679063e-002, -1.96083412e-002, 1.71416742e-003,
          -8.10435601e-003, 2.86143343e-003, 5.26618492e-003,
          1.74288321e-002, 8.40501487e-003, 1.28038542e-003,
          -6.22166088e-003, 1.60271476e-003, 7.45513709e-003,
          -5.97262848e-003, -1.06753688e-002, -8.23051389e-003,
          -1.44556854e-002, -9.27789044e-003, 4.62079700e-003,
          1.84220611e-003, -4.91905631e-003, -1.51287932e-002,
          -1.21447230e-002, -5.52990148e-003, -2.74301763e-003,
          4.89853043e-003, 1.01597738e-002, 1.78452081e-003,
          -5.31363348e-003, -3.60563654e-003, -1.06335729e-002,
          7.66728655e-004, 6.88639190e-003, -2.05950029e-002,
          -2.24815775e-003, -1.42088989e-002, -2.23437650e-003,
          5.58794988e-003, 2.08420902e-002, 7.92038534e-003,
          4.96252952e-003, 1.80870655e-003, 4.82115243e-003,
          8.96863639e-003, -8.41288827e-003, -1.17425462e-002,
          -2.22187582e-003, -7.49514671e-003, -3.49394535e-003,
          -2.55422725e-004, 4.02399851e-003, 4.98295121e-004,
          -8.21533054e-003, -8.95256642e-003, -9.09827370e-003,
          2.61469488e-003, 1.44635029e-002, 1.88417751e-002,
          3.14749964e-003, -6.78466095e-005, -5.57664665e-004,
          -3.51317809e-003, 2.05644965e-002, 4.70064161e-003,
          -1.61614176e-002, -8.56005121e-003, 9.64271370e-003,
          1.34222219e-002, -9.38653201e-003, 3.91795365e-005,
          5.69581403e-004, -1.00576109e-003, -7.03000743e-003,
          -7.98497628e-003, -7.69019546e-003, -1.97925558e-003,
          3.61983723e-004, -1.14397369e-002, -1.24956090e-002,
          -1.12075228e-002, -6.56743674e-003, -5.70716523e-003,
          -2.73229042e-003, -7.02121528e-004, 3.29854386e-003,
          7.55173527e-003, -1.60327870e-002, -9.02952719e-003,
          -4.77989065e-003, -8.62054527e-003, -1.32914567e-002,
          -1.31846257e-002, -1.24909803e-002, -2.47214157e-002,
          -1.59923937e-002, 1.02103166e-002, 1.32716587e-003,
          -8.21852405e-003, 4.28022817e-003, -3.38653103e-003,
          5.59848128e-003, 7.62891164e-003, 3.18898587e-003,
          -2.78169941e-003, -4.53758566e-003, 1.72061578e-003,
          1.72742363e-002, 4.11449140e-003, -9.78912506e-003,
          -1.24823498e-002, -2.01524161e-002, -8.19393713e-003,
          -1.00845732e-002, -6.21871045e-003, -2.23562145e-003,
          4.92414972e-003, 8.98653362e-003, -1.18036959e-002,
          -1.15160260e-003, -4.02969541e-003, -1.91799912e-003,
          -1.65344253e-002, -1.23492414e-002, -2.75821285e-003,
          1.82005123e-003, 1.22862311e-005, -1.62246060e-002,
          -6.47902722e-003, 7.15864939e-004, 1.34937502e-002,
          -7.55142467e-003, -3.61008104e-004, 8.61601159e-003,
          1.01925235e-003, 6.70494279e-004, 3.78108467e-007,
          1.53520645e-003, 1.56170744e-002, -2.30693305e-003,
          -4.04942874e-003, -1.02607226e-002, -1.47922561e-002,
          -7.09887547e-003, -5.82503667e-003, -1.35629019e-003,
          -5.51696809e-004, 6.46728650e-003, 1.55253978e-002,
          -8.89222324e-003, -4.68297862e-003, -3.14576621e-003,
          -8.62305239e-003, -9.08004399e-003, -6.15093019e-003,
          -1.38200494e-003, 9.30666644e-003, 3.61074600e-003,
          -1.11546256e-002, -7.64851877e-003, 7.38346111e-003,
          1.70958657e-002, -5.27106784e-003, 6.22818945e-003,
          1.26786651e-002, 4.81510442e-003, 2.48955074e-003,
          4.40768432e-003, 2.89738132e-003, -4.91401413e-003,
          -1.50810163e-002, -1.03872195e-002, -8.30960181e-003,
          -9.81546286e-003, -1.26352021e-002, -6.62167906e-004,
          2.34175171e-003, -7.31338980e-003, -2.34421299e-004,
          7.01413956e-003, -1.20892404e-002, 3.07449792e-003,
          -2.86513101e-003, -1.22325383e-002, -4.06780001e-003,
          2.05895794e-003, -8.09195172e-003, 2.00735722e-002,
          3.47040873e-003, -1.45371798e-002, -1.56306755e-002,
          -3.93450755e-004, 6.95846975e-003, 2.09253689e-004,
          4.16605454e-003, 1.31740812e-002, 1.49352672e-002,
          1.12472298e-002, 1.14350142e-002, 5.39969560e-003,
          4.01021913e-003, -9.90795344e-003, -4.32578009e-003,
          9.06441011e-004, -2.18856800e-003, -4.95637814e-003,
          5.17986203e-003, 3.20176687e-003, -2.99350242e-003,
          5.21907397e-003, -1.51177880e-003, -8.63423629e-004,
          2.16021901e-003, -2.58397055e-003, -4.46249312e-003,
          1.22057158e-003, 5.75423893e-003, 2.44080380e-004,
          4.55471277e-002, 1.30890869e-002, -1.13377441e-002,
          -2.08728593e-002 ]
   decision_functions:
      -
         sv_count: 1
         rho: -6.5782529115677502e-002
         alpha: [ 1. ]
