%YAML:1.0
opencv_ml_svm:
   format: 3
   svmType: EPS_SVR
   kernel:
      type: LINEAR
   C: 1.0000000000000000e-002
   p: 1.0000000000000001e-001
   term_criteria: { epsilon:1.0000000000000000e-003, iterations:1000 }
   var_count: 930
   sv_total: 1
   support_vectors:
      - [ 9.00378358e-003, -1.54820662e-002, 1.11270193e-002,
          6.40624808e-003, 6.21674443e-003, 1.54292108e-002,
          -7.98720028e-003, -2.30249576e-002, -1.95461027e-002,
          -1.21632144e-002, 8.78918171e-003, -9.15938616e-003,
          -2.51925644e-002, -3.01019978e-002, -1.22658173e-002,
          -1.34041207e-002, 1.27264056e-002, 2.25366149e-002,
          -8.16576649e-003, -8.37630872e-003, -9.28957202e-003,
          -2.00306773e-002, -2.44695749e-002, -4.33018664e-003,
          -1.77332647e-002, -1.39303701e-002, -4.14889911e-003,
          -2.55295336e-002, -1.77512467e-002, 3.75846808e-004,
          7.03506079e-003, 1.27591882e-002, -1.84515044e-002,
          -1.02795856e-002, -1.07383970e-002, -1.81852020e-002,
          1.74390655e-002, 1.23331733e-002, -2.25557457e-003,
          -1.53187029e-002, -2.41208561e-002, 2.30097608e-003,
          8.40474200e-003, -3.75404693e-002, -2.56248694e-002,
          1.24843838e-002, -2.34348215e-002, -1.98078854e-003,
          -1.29796145e-003, -2.39519533e-002, -1.77411139e-002,
          7.48331426e-004, -4.77088243e-002, -4.45898548e-002,
          1.61787458e-002, -5.08977519e-003, -5.42215165e-003,
          -1.94585212e-002, -1.81918833e-002, -1.11091109e-002,
          -1.90201141e-002, -9.90018900e-003, -5.67448791e-004,
          -8.80544167e-003, -9.87991574e-004, 2.80565838e-003,
          -7.75245996e-003, 8.96162633e-003, 1.27316071e-002,
          1.60469990e-002, 4.65647830e-003, -2.66255904e-002,
          -3.23793069e-002, -4.87040309e-003, -1.40942074e-002,
          -3.48367728e-003, 3.42763513e-002, -2.57369131e-002,
          -2.52694506e-002, -1.69010628e-002, -1.10670887e-002,
          -3.01728696e-002, -1.54825998e-002, -2.75126565e-002,
          -1.48987221e-002, 3.03716213e-002, -1.10994158e-002,
          -7.61740049e-003, -1.13979764e-002, -9.86736827e-003,
          -1.30292261e-002, -1.45177012e-002, -4.06665495e-003,
          3.40645760e-002, 2.81190556e-002, -9.28804837e-003,
          -1.57098491e-002, -2.05771420e-002, 2.29156781e-002,
          1.15199834e-002, 4.68618469e-003, -1.39901033e-002,
          -3.52034383e-002, -3.93127091e-002, -2.31764410e-002,
          -5.06755244e-003, 2.24650092e-002, 3.18366312e-003,
          -2.95380056e-002, -3.54629830e-002, -9.81878489e-003,
          -6.92050578e-003, -1.31533304e-002, -3.60859148e-002,
          -2.41688676e-002, -6.31873310e-003, 1.84279960e-002,
          -1.81319267e-002, -2.64473725e-002, -1.94947589e-002,
          -8.21647886e-003, -6.30280329e-003, -1.87033750e-002,
          -1.87213402e-002, 2.70889066e-002, 1.83207747e-002,
          -1.49179660e-002, -4.09548208e-002, -5.35699017e-002,
          3.26995179e-002, 4.89486754e-002, 2.87751518e-002,
          1.73420794e-002, -7.23452773e-003, -1.99627317e-002,
          -1.13804697e-003, 1.35765327e-002, 3.02892365e-003,
          -1.79519355e-002, -6.97839484e-002, -6.81191087e-002,
          -2.61447225e-002, 2.02700980e-002, 2.95144273e-004,
          -1.71766914e-002, -1.91377718e-002, -2.70277560e-002,
          2.48112483e-003, -1.34316497e-002, -3.55676003e-002,
          -7.68055907e-003, -1.46830622e-002, -5.72702335e-003,
          -2.11284589e-002, -1.97421107e-002, -6.59388304e-003,
          -2.67709494e-002, 2.69242353e-003, 1.21339522e-002,
          -1.13954591e-002, -3.62194628e-002, -2.13056486e-002,
          -1.33774588e-002, -6.21729856e-003, -3.74224293e-003,
          -6.51231408e-003, -1.66418739e-002, -2.12212484e-002,
          -1.95222404e-002, 5.54172229e-003, -1.75123999e-003,
          2.10927147e-002, 1.58941075e-002, -1.51977846e-002,
          -3.41798365e-002, -2.52708457e-002, -2.19353344e-002,
          -2.89856363e-002, -2.43920758e-002, -2.36518160e-002,
          7.44140300e-004, 3.47545510e-003, -2.25567352e-002,
          -3.27575617e-002, -6.26521884e-004, -7.18737347e-003,
          2.13446608e-003, -3.63498144e-002, -2.56060846e-002,
          1.08425459e-002, -1.32006053e-002, -2.14956142e-002,
          -9.38791968e-003, -2.33796472e-003, -2.28069280e-003,
          -1.21928109e-002, 2.86459806e-003, 2.06361376e-002,
          -1.00275793e-003, -3.17327026e-003, 1.28407972e-002,
          -1.48186972e-002, 3.77396028e-003, 7.19101261e-003,
          -2.47717202e-002, -3.30032706e-002, -1.48610072e-003,
          -1.64607838e-002, -2.30372176e-002, -2.50279140e-002,
          -2.29010843e-002, -1.19033409e-003, -3.09887948e-003,
          6.03185850e-004, -1.59492660e-002, -5.83284628e-003,
          -1.72697362e-002, 8.59769341e-003, -1.09769218e-002,
          -1.65362395e-002, 1.50266755e-002, -3.55655258e-003,
          -1.61829926e-002, -4.46431711e-003, -3.46222660e-003,
          -2.22154167e-002, -3.45012993e-002, -1.98440570e-002,
          1.18804062e-002, 4.35559358e-003, 1.38549721e-002,
          3.12278494e-002, -9.45964362e-003, 3.41117033e-004,
          1.38301426e-003, -1.24955829e-002, -2.00764034e-002,
          -8.81200749e-003, -1.14621976e-002, 1.57404109e-003,
          6.69092033e-003, -1.50669795e-002, -8.36405961e-004,
          -1.82993244e-002, -2.48169503e-003, -1.35320174e-002,
          2.54325033e-003, -1.22360894e-002, 3.83928865e-002,
          1.96151882e-002, -2.74206381e-002, -1.35572506e-002,
          -2.05662288e-002, 7.04738870e-003, -1.51704694e-003,
          -1.44993071e-003, -1.32434443e-002, -3.40206213e-002,
          -3.66705507e-002, -1.40231587e-002, 7.30613666e-003,
          4.38608304e-002, 1.96186583e-002, -2.87280623e-002,
          -3.46890725e-002, -1.22034606e-002, -7.62524782e-004,
          -1.80299394e-002, -3.71366329e-002, -1.72082372e-002,
          3.09098070e-003, 2.08610296e-002, -2.86482964e-002,
          -3.36463153e-002, -2.57666074e-002, -1.77332156e-004,
          -1.28086573e-002, -1.11210980e-002, -2.40927991e-002,
          3.28375027e-002, 7.53267528e-003, -3.69910039e-002,
          -3.01022455e-002, -4.64943983e-002, 2.12235302e-002,
          3.55166011e-002, 9.03828256e-003, -2.20270595e-004,
          4.51198174e-003, -4.97315498e-003, 1.61335003e-002,
          1.53007861e-002, 1.02192126e-002, 1.75868906e-003,
          -4.02073637e-002, -5.01176938e-002, -1.43603189e-002,
          3.29863690e-002, 1.19132604e-002, -2.02957001e-002,
          -2.30564382e-002, -1.80276763e-002, 1.21952957e-002,
          -2.37304671e-003, -3.29136439e-002, -1.15661155e-002,
          5.75037301e-003, -1.16108460e-002, -7.03682005e-003,
          -1.98148899e-002, -8.61899368e-003, -1.99170578e-002,
          -8.08478612e-003, 1.38197355e-002, 6.18398376e-003,
          -3.93492579e-002, -1.23689147e-002, 5.36722085e-003,
          4.76543698e-003, -5.18946256e-003, 1.01832929e-003,
          4.21393011e-003, -3.32346708e-002, -1.65266301e-002,
          1.03401206e-002, -9.15887486e-003, 1.06504746e-002,
          1.13285123e-003, -2.18852386e-002, -2.27488037e-002,
          -7.12521654e-003, -9.78299696e-003, -1.62717048e-002,
          -1.27430120e-002, -1.93277895e-002, 8.58798902e-003,
          -6.00120611e-003, -1.47017930e-002, -2.44842321e-002,
          -5.43580577e-003, -1.40689735e-004, 3.20396823e-004,
          -1.95247326e-002, -2.24229153e-002, 1.95424128e-002,
          1.68346073e-002, -1.88659895e-002, -1.53717084e-003,
          1.06569668e-002, 2.79013952e-003, -1.40517307e-002,
          -6.38247002e-003, 1.43811014e-002, 3.63772549e-003,
          -2.20856909e-002, -2.29871944e-002, -1.38324294e-002,
          -3.75161925e-003, 1.36175589e-003, -2.60104835e-002,
          -3.70277949e-002, -8.44174810e-003, 1.55749219e-002,
          -1.51785593e-002, -2.92675626e-002, -1.32740838e-002,
          5.76753402e-003, 1.50974188e-003, -6.22132211e-004,
          -8.75660591e-003, -1.03960177e-002, -1.60124414e-002,
          1.90227032e-002, -1.22774555e-003, -2.73250192e-002,
          1.50941135e-002, 2.14262474e-002, 2.27618450e-003,
          4.57009487e-003, 4.28834057e-004, -1.40987206e-002,
          -3.88227478e-002, -3.30969766e-002, 7.00727617e-003,
          -7.35963928e-003, -2.93217599e-002, -1.04693696e-002,
          -3.89737752e-003, 1.48926172e-002, 1.68897293e-003,
          -2.06787381e-002, -2.79284120e-002, -2.10552234e-002,
          5.05156815e-003, -6.82000816e-003, -1.33081451e-002,
          -2.69119325e-003, 1.38996514e-002, -9.82989185e-003,
          -3.43049131e-003, -1.89912338e-002, -2.81807641e-003,
          -1.21008828e-002, 2.77011804e-002, 7.64106913e-003,
          -3.12626399e-002, 1.49314373e-003, 6.11512968e-003,
          -8.91739316e-003, 6.97933079e-004, -1.07473542e-003,
          -1.15899844e-002, -3.23429257e-002, -3.35257798e-002,
          -3.51461605e-003, -1.91370901e-002, -1.27687864e-002,
          -2.69913161e-003, -1.63916219e-002, -1.52725801e-002,
          -1.58714559e-002, -1.44002689e-002, -2.15816330e-002,
          -3.01245991e-002, -1.50412749e-002, -1.31005552e-002,
          -7.86418188e-003, -1.32100452e-002, -1.46641731e-002,
          -2.96969935e-002, -9.94784292e-003, -1.91663019e-002,
          -1.68697890e-002, -2.97796037e-002, 2.06576046e-002,
          -1.33862235e-002, -3.64439823e-002, -2.12606182e-003,
          -1.27573069e-002, -8.07604752e-003, 2.60902587e-002,
          2.25970335e-002, 4.45566094e-003, 1.01974709e-002,
          4.00773110e-003, 1.61460589e-003, 3.99322482e-003,
          -2.30231266e-002, -3.12850066e-002, -2.83878949e-002,
          -2.62246132e-002, -1.07638221e-002, 2.77492013e-002,
          4.11284668e-003, -3.13531794e-002, -2.07241494e-002,
          -3.41451168e-002, -2.82092225e-002, 6.76795607e-004,
          -1.24555081e-003, -3.90341366e-003, 9.89384949e-004,
          -1.47180418e-002, -1.21701844e-002, -2.07039937e-002,
          -1.95631403e-002, -2.78858002e-002, -1.15314871e-002,
          5.39999409e-003, 2.16343515e-002, -9.50884540e-003,
          9.40703601e-003, 1.65972132e-002, 1.73287950e-002,
          -8.93662777e-003, -1.75486971e-002, -1.68585461e-002,
          -4.46464419e-002, -1.09852832e-002, 5.79443108e-003,
          2.21315515e-003, 1.62636824e-002, 5.84890414e-003,
          -3.10838874e-002, -4.05736901e-002, -2.50586309e-002,
          -2.09535081e-002, 4.72994288e-003, 1.19726844e-002,
          1.13206115e-002, 2.83248015e-002, 2.24284623e-002,
          8.54533631e-004, -3.18098404e-002, 1.98593270e-002,
          -2.04771236e-002, -7.94984028e-003, -2.67031379e-002,
          -1.72532331e-002, 1.21651236e-002, 2.22269483e-002,
          -3.72037292e-003, 9.21029132e-003, 1.95488315e-002,
          1.22294901e-002, -1.89346112e-002, -2.10305490e-002,
          2.70934310e-003, -2.59984285e-003, -5.68280416e-003,
          -2.22126078e-002, -1.82105545e-002, -6.58743223e-003,
          -2.76543258e-004, -3.42459157e-002, -4.25100811e-002,
          -1.05097471e-002, 2.75526033e-003, 9.77534242e-003,
          -1.16528114e-002, -5.54199517e-003, 1.38530610e-002,
          8.32741149e-003, -5.71626378e-003, -1.36397416e-002,
          7.47315260e-003, -2.25630496e-002, 1.49152474e-002,
          -1.95278749e-002, -2.78999601e-002, 6.18796563e-003,
          1.80581938e-002, 1.44608421e-002, 6.40607951e-003,
          -1.53339170e-002, -6.81272149e-003, -1.31738978e-002,
          -2.57367571e-003, 1.12968311e-002, 3.98085918e-003,
          -2.52561141e-002, -1.09084137e-002, -4.90118517e-003,
          1.62659697e-002, 3.31121031e-003, -1.39506795e-002,
          -2.07087342e-002, -9.75927338e-003, 1.39989499e-002,
          -2.36702315e-003, 9.97648691e-004, -1.06089341e-003,
          9.74341994e-004, -1.68184971e-003, -9.19749215e-003,
          -4.92164679e-003, 3.44990380e-003, -4.18201601e-003,
          2.79289056e-002, 2.20294879e-003, -1.19066415e-002,
          8.91775591e-004, 1.00794928e-002, -2.15355698e-002,
          -2.02603322e-002, -1.40082352e-002, -1.52634308e-002,
          -1.58318970e-002, -9.29078460e-003, -5.63376816e-003,
          -2.04458535e-002, -1.15232263e-002, -4.56145965e-003,
          -1.42225325e-002, -6.81131473e-003, -5.42213209e-004,
          -4.43219766e-003, -4.94604278e-003, -1.05656525e-002,
          -1.03068221e-002, -1.09633747e-002, -2.22024154e-002,
          -3.20266560e-002, -1.91441122e-002, -1.69135444e-002,
          -2.69758254e-002, -4.47572302e-003, -1.60556082e-002,
          -1.41209178e-002, 1.07284328e-002, -2.07957700e-002,
          -1.73335914e-002, -4.00177203e-003, -1.00073898e-002,
          -1.84986517e-002, -8.55684094e-003, 2.54982919e-003,
          6.39499107e-004, 1.94790792e-002, 7.70814857e-003,
          -3.15049023e-004, 5.20158792e-003, -1.41615774e-002,
          -2.44981777e-002, -2.34567355e-002, -2.10261270e-002,
          -5.05713932e-003, 2.22708508e-002, 3.43953120e-003,
          -1.06693450e-002, -1.73152592e-002, -3.13041508e-002,
          -3.63453627e-002, -2.95713730e-002, -1.71719100e-002,
          -2.26820144e-003, -1.07758027e-002, -3.46792629e-003,
          -3.07589825e-002, -1.22263059e-002, -3.07432469e-002,
          -2.07405072e-002, 1.62869657e-003, 1.17556509e-002,
          5.54741435e-002, 1.70301739e-002, 2.03514285e-002,
          2.44431477e-002, 2.19880007e-002, -1.51119605e-002,
          -2.86596175e-002, -2.09627766e-002, -4.80667464e-002,
          -9.80709400e-003, -1.88381295e-003, 7.50141637e-003,
          8.74534808e-003, -8.57955962e-003, -3.76745760e-002,
          -4.22311053e-002, -1.77151263e-002, -1.09963072e-002,
          2.76125912e-002, 1.97295994e-002, 2.67943796e-002,
          3.48529331e-002, 1.01654455e-002, -1.13601265e-002,
          -2.89788600e-002, 5.08051664e-002, -1.78376101e-002,
          -3.76731083e-002, -1.98601373e-002, -6.93993783e-003,
          9.79831722e-003, 2.75512896e-002, 7.53644202e-003,
          1.19164670e-002, 1.99284926e-002, 2.10311990e-002,
          4.93628532e-003, -1.67850908e-002, -1.18976142e-002,
          -1.79867521e-002, -1.35374106e-002, -2.51907799e-002,
          -1.70736890e-002, -7.85957277e-003, -1.05351759e-002,
          -1.82312429e-002, -2.98785530e-002, -1.67171471e-002,
          -3.82657303e-003, 5.20765362e-003, -9.46848840e-003,
          -1.07787247e-003, 1.08214673e-002, -8.58924701e-004,
          -2.72848941e-002, -1.63483601e-002, 1.06824106e-002,
          -6.00601546e-003, 3.35348072e-003, -2.43344046e-002,
          -2.27542445e-002, -2.58400338e-003, 1.80687103e-002,
          8.50097556e-003, -7.74217653e-004, -1.50272120e-002,
          -7.32626580e-003, 1.28915906e-002, 1.27604818e-002,
          7.52838515e-003, -3.80883971e-003, -2.66457070e-002,
          -1.76336095e-002, -9.22875479e-003, 2.28734687e-003,
          -5.46766026e-003, -1.48500456e-002, -5.28452406e-003,
          -1.07484711e-002, 1.64996460e-003, 4.50688927e-003,
          -4.95680701e-003, -1.04338573e-002, -1.26715703e-002,
          -1.00510372e-002, -3.72935757e-002, -3.99953313e-003,
          -1.05144258e-003, 9.25512053e-003, 3.53399366e-002,
          -8.68713297e-003, -2.01382954e-002, -1.06617315e-002,
          -5.94384829e-003, -3.26591246e-002, -3.11932266e-002,
          -2.61161756e-002, -2.52928827e-002, -9.46318358e-003,
          4.87798546e-003, 1.13042640e-002, 1.11916894e-003,
          -1.15203140e-002, 1.31431343e-002, -9.42077674e-003,
          -9.93911308e-005, 3.05201719e-003, 1.01399012e-002,
          1.94365159e-003, -2.68833479e-003, -5.11127710e-003,
          -8.89190473e-003, -1.30621819e-002, -3.74001637e-002,
          -2.48939991e-002, -1.98689625e-002, -5.37596308e-002,
          5.72310248e-003, -1.87498461e-002, 9.10607260e-003,
          1.09737692e-002, -2.73673702e-002, -3.30312587e-002,
          -2.14720517e-002, -3.11117861e-002, -3.41677517e-002,
          -2.15349812e-002, -1.10634919e-002, -1.09344805e-002,
          1.98220275e-002, -1.96434488e-003, 1.53908425e-003,
          4.85715363e-003, -3.28115351e-003, 2.05565970e-002,
          -5.31869614e-003, -9.58774891e-003, -9.76798777e-003,
          3.00563630e-002, -3.14002711e-004, -2.16906685e-002,
          -2.44767088e-002, -3.27187926e-002, -9.90142208e-003,
          -2.33229212e-002, -1.94700286e-002, -1.21942414e-002,
          -2.11381521e-002, 1.55694997e-002, -6.21982776e-002,
          -9.00266413e-003, -1.24341538e-002, -4.55719791e-003,
          4.92212223e-003, -6.16767118e-003, 4.67815325e-002,
          3.75029668e-002, 4.30480354e-002, 3.45155336e-002,
          2.64160912e-002, 5.85457683e-003, 9.66895279e-003,
          4.40226076e-003, -2.34090630e-002, -1.08343279e-002,
          -2.32227575e-002, -7.96223350e-004, 1.00925891e-002,
          3.68505158e-003, -8.54711607e-003, 2.52805394e-003,
          5.94741711e-003, -9.25427675e-003, 2.89005991e-002,
          1.69599187e-002, 3.65262851e-002, 3.70508917e-002,
          2.18386296e-002, -1.63038187e-002, -3.61473858e-002,
          9.58489552e-002, 2.51760241e-002, -2.76840627e-002,
          -1.41639002e-002, -3.51216621e-003, -1.37140574e-002,
          3.92836928e-002, 3.93455513e-002, 3.12138982e-002,
          1.62248369e-002, 1.37920938e-002, 2.04115920e-002,
          2.38431748e-002, 9.85265151e-003, -1.79805104e-002,
          -2.67814901e-002, -2.89556887e-002, -1.86458137e-002,
          -1.02569740e-002, -1.80095024e-002, 2.55379302e-004,
          1.34870363e-002, 5.23453439e-003, -1.19034005e-002,
          1.77654512e-002, 1.77350137e-002, 9.61665064e-003,
          6.79053040e-003, -4.82804282e-003, -2.68948190e-002,
          -2.41866428e-002, 3.83567922e-002, 1.94484014e-002,
          -4.22521407e-004, -2.18153093e-002, -2.33215522e-002,
          -1.33685227e-002, 4.92466316e-002, 4.07810584e-002,
          -9.30035301e-003, -1.42793078e-002, -8.09527561e-003,
          3.99597436e-002, 3.77219617e-002, 1.15755517e-002,
          -1.31236948e-002, -4.15216833e-002, -2.83253584e-002,
          -2.35859342e-002, -1.51904002e-002, -1.06016900e-002,
          7.05146883e-003, 2.25472208e-002, -1.06585734e-002,
          -1.92910042e-002, 2.09426023e-002, 1.06896907e-002,
          -3.12516838e-002, -2.91096494e-002, -2.07694322e-002,
          -4.29512337e-002, -1.68889519e-002, 1.87487174e-002,
          2.05070041e-002, 1.23384027e-002, -1.60027128e-002,
          -2.39235684e-002, 7.36386108e-004, 2.68553328e-002,
          1.40746385e-002, -3.76869105e-002, -2.22651698e-002,
          -1.99618842e-002, 1.18233263e-002, 1.58479735e-002,
          -4.47191810e-003, -1.45027004e-002, -4.09020968e-002,
          -1.71819814e-002, -2.99151596e-002, -2.51031462e-002,
          -2.01749299e-002, -5.98033657e-003, 4.29665524e-004,
          -2.62757074e-002, -8.67488235e-003, -7.09931599e-003,
          -1.05883302e-002, -6.41511083e-002, -4.66609262e-002,
          -3.86040993e-002, -8.52542073e-002, -1.79509781e-002,
          -3.12290271e-003, 1.65659264e-002, 2.57599186e-002,
          -1.98108777e-002, -3.76942903e-002, -1.69376247e-002,
          -4.57418617e-003, 2.73581245e-003, -3.94157507e-002,
          -3.29095796e-002, -2.41659991e-002, 3.77723239e-002,
          1.35363368e-002, -9.98638105e-004, -2.09550355e-002,
          -4.48113084e-002, -6.73653511e-003, -2.88162157e-002,
          -2.22911686e-002, -1.20503884e-002, 4.77355123e-002,
          1.39772464e-002, -2.89305728e-002, -2.61039939e-002,
          -3.93591821e-002, -2.13425756e-002, -6.35575578e-002,
          -5.25285564e-002, -3.11772861e-002, -3.06041744e-002,
          2.66318470e-002, -8.44668821e-002, -2.10968088e-002 ]
   decision_functions:
      -
         sv_count: 1
         rho: -1.3233776643872391e-001
         alpha: [ 1. ]
