%YAML:1.0
opencv_ml_svm:
   format: 3
   svmType: EPS_SVR
   kernel:
      type: LINEAR
   C: 1.0000000000000000e-002
   p: 1.0000000000000001e-001
   term_criteria: { epsilon:1.0000000000000000e-003, iterations:1000 }
   var_count: 775
   sv_total: 1
   support_vectors:
      - [ -1.33252330e-003, 4.12824957e-005, 1.09111203e-003,
          -1.14574365e-003, 7.49452156e-005, 7.97659959e-005,
          -2.69092066e-004, -5.59176202e-004, -1.35015463e-003,
          -1.14406529e-003, -1.22641050e-003, -2.07443791e-003,
          -9.63196391e-004, -8.00260692e-004, -4.53955610e-004,
          1.07831578e-003, -2.80465989e-004, -2.18401707e-004,
          -1.76923664e-003, -5.83449786e-004, 2.54076510e-003,
          -4.41220414e-004, -6.70050096e-004, 1.29011029e-003,
          4.77840840e-005, -1.10073900e-003, 1.40743781e-004,
          -3.43964435e-003, -2.15979933e-004, -3.42300424e-004,
          -4.57960326e-004, -4.00827674e-004, 1.37398636e-003,
          1.59618759e-003, -1.96649809e-003, -3.16039368e-004,
          -4.93012078e-004, -1.59423496e-003, -1.68307777e-003,
          -2.97572522e-004, 1.11240312e-003, -1.20626157e-003,
          -3.40261729e-003, -9.77095449e-004, -7.31826469e-004,
          -9.01174790e-005, -1.98905030e-003, 3.87719920e-004,
          -1.94842496e-003, -1.22315658e-003, 5.88002440e-004,
          1.11299357e-003, 6.18865946e-004, -5.92647120e-004,
          1.68368232e-003, 1.61975948e-003, 1.44613499e-003,
          2.08419422e-003, -1.64064683e-003, -1.73388817e-003,
          -1.25563133e-003, -1.32190075e-003, -8.22550617e-004,
          -3.04535148e-004, 2.75604427e-004, 9.50437912e-004,
          3.08124494e-004, -1.21070317e-003, -8.89233896e-004,
          -3.00063100e-003, -3.10057978e-004, 7.87239696e-004,
          -1.45194225e-003, -3.24268360e-003, -3.67631437e-005,
          -1.51666260e-004, -1.64354325e-003, -8.38021282e-004,
          -7.26341241e-005, -2.16337293e-003, 2.57429178e-003,
          -8.01752049e-006, 2.07468634e-003, 6.68012828e-004,
          4.33960930e-004, 3.16054327e-003, 2.14799796e-003,
          2.22150679e-003, 1.75363454e-003, -1.98137457e-003,
          -1.58822106e-003, -1.69177109e-003, -1.25193736e-003,
          -2.21015016e-005, -1.36984186e-003, -4.53828805e-004,
          -4.76123212e-004, -2.77186790e-003, -7.90486520e-005,
          -1.96699123e-003, -1.07811752e-003, -4.01363359e-004,
          2.71777710e-004, -2.63770839e-004, -5.97845647e-004,
          1.32811838e-003, -2.14713509e-003, -9.77684511e-004,
          -1.55420639e-004, -1.20852084e-003, -3.85687395e-004,
          -7.73657463e-004, -4.07365442e-004, 2.76943669e-004,
          -2.29544006e-003, 6.99724653e-004, -1.01430039e-003,
          4.50896361e-004, 1.83511048e-003, 2.21100473e-003,
          -2.68036779e-003, -1.17860641e-003, -4.54907276e-004,
          -1.69903890e-003, -1.41971523e-003, 2.09427435e-005,
          1.05370164e-004, -3.04157176e-004, -3.47833382e-004,
          -9.60947727e-005, -1.73476373e-003, -1.49308029e-003,
          1.58970041e-004, 6.09176815e-004, -9.87307983e-004,
          -2.22176648e-004, 5.33038168e-004, 1.06283685e-003,
          -2.77176360e-003, -2.85722606e-004, 3.55141383e-004,
          3.89530789e-004, -8.50096403e-004, 4.28220548e-004,
          5.81268512e-004, 2.64645176e-004, 5.58923814e-004,
          2.27858138e-004, 9.14796372e-004, -5.08779311e-004,
          -1.47715991e-003, -1.58829894e-003, -4.75101755e-004,
          2.87552015e-004, -1.25412713e-003, -1.47122762e-003,
          -5.36932086e-004, 7.03485159e-004, 2.01167585e-003,
          -3.69040412e-003, -3.66577646e-004, 2.35375576e-003,
          6.34105352e-004, -3.02504282e-004, 1.18528311e-004,
          -2.12885439e-003, -2.53954367e-003, -3.94809118e-004,
          -1.27836526e-003, -7.39990908e-004, -1.29908160e-003,
          -1.22483831e-003, -9.93206486e-005, 3.01349821e-004,
          -2.55468913e-004, 1.71102828e-003, -9.23250685e-004,
          1.30622834e-003, -3.85459280e-004, 1.58338447e-003,
          1.34281849e-003, 1.44161831e-003, -2.21929303e-003,
          -2.60213763e-003, 1.55263161e-003, -1.56347512e-003,
          -3.69033718e-004, 1.07085158e-003, -3.07297520e-003,
          -1.03940896e-003, -2.37233145e-003, -1.91373867e-003,
          2.43703276e-003, -1.21032540e-003, -7.66985642e-004,
          -9.56895703e-004, 1.53926644e-003, -9.50986054e-004,
          -2.53994367e-003, -1.74955931e-003, -1.18664175e-003,
          -1.17895682e-003, -2.64562434e-004, -2.33661709e-003,
          3.64281557e-004, 7.10057211e-004, 1.62418128e-003,
          1.89833198e-004, 2.47832574e-003, 1.46829232e-003,
          1.23512244e-003, 1.57460372e-003, 9.39908670e-004,
          -6.45417138e-004, -3.33193643e-003, -5.23723487e-004,
          -3.44758038e-003, -1.90807215e-003, -1.92720094e-003,
          -8.28242628e-005, -9.55866635e-005, -3.20654106e-003,
          -3.77561478e-003, -1.27479050e-003, -1.09446223e-003,
          -1.59881415e-003, -2.22680718e-003, 6.40059996e-004,
          2.73221143e-004, 6.65900763e-004, 1.02626807e-004,
          -1.83763879e-003, -8.91656324e-004, 7.19300879e-004,
          -1.42445555e-003, 5.44796290e-004, -2.73905735e-005,
          9.15809243e-004, 4.69807652e-004, 2.12242128e-003,
          1.18204637e-003, 1.78170914e-003, 2.33721221e-003,
          6.27019253e-005, -2.99553759e-003, -1.80708489e-003,
          -4.53955436e-004, -3.67332203e-003, -3.34115030e-004,
          -1.73309119e-003, -3.94877279e-004, -2.33526094e-004,
          -3.30928108e-003, 1.11729139e-003, -2.20169633e-004,
          -3.45055705e-005, -8.32148187e-004, -2.05819495e-003,
          -7.27781444e-004, -5.47070988e-004, -1.03156827e-003,
          5.10965416e-004, 1.04551378e-004, -1.09584443e-003,
          2.59866763e-004, -2.43150644e-004, 1.72140915e-003,
          2.29947153e-004, -5.92484503e-005, 1.50539665e-004,
          2.17012991e-003, 1.40818581e-003, 8.94734811e-004,
          1.91720936e-003, 5.32131991e-004, -3.98642325e-004,
          -2.38248263e-003, -7.18990923e-004, -1.59225601e-003,
          3.37358215e-004, 4.52920678e-004, -3.47633497e-004,
          -1.23941968e-003, -2.30073347e-003, 6.11701340e-004,
          6.24405686e-004, -3.31510929e-003, -6.97924348e-004,
          6.30336697e-004, 4.55582358e-006, 7.34629721e-005,
          -9.31517643e-005, -1.12583606e-004, 1.38521442e-004,
          -7.94080261e-004, -2.58379761e-004, 2.11097242e-004,
          6.51385752e-004, 1.72425038e-003, -6.54128147e-004,
          8.89059098e-004, 2.62331381e-003, 6.01618143e-004,
          6.90783025e-004, 8.49363918e-004, 7.61074596e-004,
          8.52827739e-004, -2.03427416e-003, 5.33685903e-004,
          -2.21583340e-003, -9.75270581e-004, -7.29987805e-004,
          -1.12156873e-003, 8.66167538e-005, -6.05193840e-004,
          -1.15022351e-006, 3.92594084e-005, -3.57038545e-004,
          -2.74897530e-003, -1.08400721e-003, -4.91205312e-004,
          -1.27398188e-003, -1.13714114e-003, 1.70666678e-003,
          -6.15420402e-004, 6.04606641e-004, -1.20977452e-003,
          2.01965067e-005, 3.94039380e-004, 7.45601079e-004,
          2.89476570e-003, -1.67568840e-004, 5.83746179e-004,
          -3.66858294e-004, 1.07751286e-003, -3.35432647e-004,
          -2.32691295e-004, -1.84765272e-003, -2.13435129e-003,
          -1.37203292e-003, 6.90300949e-004, 1.56819733e-004,
          1.14685332e-003, -1.80379918e-003, -1.94977887e-003,
          -8.12251528e-004, -1.34314480e-003, 2.74131511e-004,
          -1.77079841e-004, 9.74451134e-004, -5.18611982e-004,
          4.65075340e-004, -1.87328155e-003, -2.47117248e-003,
          5.36461594e-004, -3.49205267e-003, -9.61699407e-004,
          -1.62318873e-003, -1.08114758e-003, -2.22054965e-004,
          -5.74155129e-004, 1.73515792e-003, 3.15183401e-003,
          1.87172752e-003, 2.72321259e-003, 5.08500263e-004,
          9.08346439e-004, 1.42321480e-003, -1.43985334e-003,
          -1.44806574e-003, -1.69576507e-003, -2.27679592e-003,
          -8.11061182e-004, -4.98904497e-004, 8.38907028e-004,
          -1.28654798e-003, -2.62493081e-003, -2.85433023e-004,
          -6.14098564e-004, -1.89568964e-003, -4.17424220e-004,
          -1.12829148e-003, 1.15861988e-003, -7.26246508e-004,
          4.83968353e-004, -5.34949009e-004, -2.31097708e-003,
          -2.05217558e-003, -1.32686272e-003, -8.00588750e-004,
          -1.02143711e-003, 2.07557881e-004, 1.40678964e-003,
          1.52330101e-003, 8.85363319e-004, 2.51163030e-004,
          9.91710112e-004, -1.02699944e-003, 5.76217601e-004,
          -9.90597764e-004, -2.63457675e-003, -9.29544040e-004,
          -2.43741018e-003, -9.66425403e-004, 2.00589900e-004,
          -7.25055637e-004, -2.15200183e-004, -1.74689584e-003,
          7.30588741e-004, 3.26226473e-005, -1.19667768e-003,
          2.64463888e-004, 1.01500971e-003, -2.23877996e-005,
          -1.47432764e-003, -2.22685677e-003, -1.90112821e-003,
          -1.68679352e-003, -4.82221658e-004, -7.89978658e-004,
          -5.41114248e-004, -1.70677772e-003, 2.27201637e-003,
          1.46328984e-003, 1.80481220e-005, 4.23158752e-003,
          1.04251341e-003, -4.07576445e-004, 1.92470709e-003,
          8.46957671e-004, -5.81189059e-004, -2.34591938e-003,
          -7.89304031e-004, -1.81395106e-003, -1.41242857e-003,
          3.98511707e-004, -1.02981215e-003, 3.36857192e-004,
          -3.03612585e-004, -6.02463202e-004, 1.02737511e-003,
          -1.43728685e-004, 4.98507361e-005, -1.25131977e-003,
          -7.26792903e-004, 6.95611880e-006, 3.74508003e-004,
          -1.36008288e-003, -1.30631414e-003, -1.19684334e-003,
          -1.87251088e-003, 1.13523693e-003, 8.06065684e-004,
          -2.62572750e-004, 1.05085678e-003, -4.75734734e-004,
          2.25280281e-004, 1.29410566e-003, 1.18727691e-003,
          4.83775861e-004, -4.65845602e-004, -3.32526048e-004,
          -2.65850598e-004, -7.39010400e-004, -2.37564975e-003,
          -7.28007173e-004, 7.98703753e-004, -1.10695735e-004,
          -2.08948902e-003, -1.33527128e-003, -1.25018938e-003,
          -7.12127076e-004, 2.25644282e-004, 7.96681677e-004,
          -3.18151200e-004, -1.65423518e-003, -1.91996479e-003,
          -1.52023067e-003, -9.74415394e-004, -1.22946838e-003,
          1.64348644e-003, -1.62436941e-003, 5.02275594e-004,
          1.09434419e-003, 2.34201489e-005, 9.45335545e-004,
          2.57320539e-003, 2.41973181e-003, 1.35626527e-003,
          7.35883543e-004, -4.35005204e-004, 5.77190076e-004,
          -3.95283662e-003, 1.65378093e-003, -1.71910680e-003,
          -1.40285608e-003, 7.17440853e-005, 5.13495761e-004,
          -1.51539871e-005, -2.04419577e-003, -1.34068925e-003,
          -1.04927819e-003, -4.74521163e-004, 3.85921856e-004,
          1.03213568e-003, -1.21817039e-003, -1.47951290e-003,
          -1.30763336e-003, -4.42156708e-003, -2.83322600e-003,
          -2.77690310e-003, -1.34521327e-003, -2.01835204e-003,
          -9.54416057e-004, 1.24419213e-003, -6.20642677e-004,
          1.65564730e-003, 2.70743389e-003, 1.36058906e-003,
          1.51803473e-003, 1.03102357e-003, 2.84511596e-004,
          -5.98623767e-004, -3.76444613e-003, -1.11992774e-003,
          -4.22635907e-003, -9.18552454e-004, 5.23814408e-004,
          -1.03202451e-003, 8.65033362e-004, -2.26819189e-003,
          -1.25676347e-003, -7.30981992e-004, -1.35796505e-003,
          -1.08162593e-003, -1.50374093e-004, -1.23172929e-003,
          -1.77828118e-003, -1.35642884e-004, -3.51793878e-003,
          -4.06951830e-003, -5.53389196e-004, -4.17787145e-004,
          -3.81844264e-004, 2.90960539e-004, 1.20413955e-003,
          1.00651779e-003, 1.11721526e-003, 2.99541140e-003,
          4.35939478e-003, 2.07618065e-003, 1.14906335e-003,
          -3.83878942e-004, -2.90896278e-004, -2.97456421e-003,
          -1.49124349e-003, -2.10039527e-003, -2.05299351e-003,
          -2.69575423e-004, -5.24748699e-004, -8.47679039e-004,
          -2.81491247e-003, -1.78309157e-003, -1.09260099e-003,
          -2.96665385e-004, -1.11625367e-003, 1.81990687e-003,
          -1.36685767e-003, -9.67368018e-004, 1.17856066e-003,
          -3.18590924e-003, -1.20287109e-003, -1.76357629e-003,
          -1.97207672e-003, 1.14713512e-004, 4.55601803e-005,
          3.38624988e-004, 2.60968576e-003, 2.72283866e-003,
          2.50795414e-003, 1.98393967e-003, 8.55633174e-004,
          6.56962220e-004, -4.68458602e-004, 3.58643476e-004,
          -2.30621779e-003, -1.15230458e-003, -3.12519749e-003,
          -9.80104785e-004, -1.00049772e-003, -1.36981800e-003,
          -1.29635015e-003, -1.52621523e-003, -1.25407125e-003,
          -1.12342485e-003, -7.09459011e-004, -4.25798265e-004,
          1.78187489e-004, -2.02426547e-003, -9.46465821e-004,
          2.93674879e-004, -1.01416768e-003, -1.02966046e-003,
          -5.87229515e-005, -1.62746350e-003, 7.23606732e-004,
          5.43671602e-004, 2.41263537e-003, 2.48433719e-003,
          6.86054525e-004, 1.36393029e-003, 5.14377374e-004,
          7.77152076e-004, 1.72358600e-003, 5.18770357e-005,
          4.44019854e-004, -2.55343574e-003, -1.53123552e-003,
          -1.39059499e-003, -9.67469532e-004, 4.73867432e-004,
          -1.12738251e-003, -1.69945683e-003, 4.52510227e-004,
          -1.89667440e-003, -5.49960649e-004, 1.12385474e-004,
          -2.52149603e-005, 6.91184541e-004, -6.81832258e-004,
          -1.66917103e-003, -1.97838090e-004, -7.24257494e-004,
          1.03747624e-003, -3.07149184e-003, -2.47194257e-004,
          -5.24359581e-004, 1.87946123e-003, 3.71858128e-004,
          1.02752435e-003, 6.54782809e-004, 3.98748438e-004,
          8.38072447e-004, 1.02137297e-003, -2.33502156e-004,
          -5.95978927e-004, -2.17085076e-003, -1.75139436e-003,
          -4.66711557e-004, 4.10176464e-004, -1.85388350e-003,
          1.38647156e-003, 6.98771677e-004, -8.03497212e-004,
          -3.68792942e-004, -1.95743400e-003, -8.90637690e-004,
          5.87938819e-004, 5.51791629e-004, 2.13811779e-003,
          7.11272951e-005, -1.72411185e-003, -1.98484655e-003,
          -1.27478829e-003, -8.04320036e-004, -1.04936049e-003,
          -1.27766700e-003, -1.50512066e-003, 1.00019458e-003,
          7.31876236e-004, 2.67274259e-003, 8.36869818e-004,
          3.84149957e-004, 1.86354027e-003, 1.68821702e-004,
          -7.41958618e-004, -4.95543238e-004, -1.40199065e-003,
          -6.52497110e-004, -9.98246484e-004, -3.58142104e-004,
          -1.38809986e-003, -4.80046816e-004, -1.60894089e-003,
          -2.90906435e-004, -2.25034237e-004, -1.14978827e-003,
          -1.05464365e-003, 9.72629641e-004, -4.88881662e-004,
          2.07284512e-003, -1.70820719e-003, -1.89230707e-003,
          -1.25230057e-003, -2.41048029e-003, -2.77569029e-003,
          -7.85399519e-004, 3.00472369e-004, 1.53752207e-003,
          6.70133624e-004, 1.83023454e-003, 4.38868767e-003,
          8.62089975e-004, 2.73431861e-003, 7.08240696e-005,
          4.50905471e-004, -1.72302325e-003, -2.88691535e-003,
          -4.61318530e-004, 7.94146792e-004, -2.97830557e-004,
          -3.99882160e-003, -1.47973280e-003, -3.26361478e-004,
          -5.95644175e-004, -1.61096861e-003, -1.35767332e-003,
          -6.75352290e-004, -1.30216859e-003, 7.33635505e-004,
          1.25837594e-003, 1.83942402e-003, 6.24725071e-004,
          -4.92102001e-004, -2.00059242e-003, -5.15180698e-004,
          -1.58766261e-003, -1.65121711e-003, 6.47704524e-004,
          3.51117451e-005, 1.47533440e-003, -2.03445321e-003,
          7.01339450e-004, 2.72904569e-003, 4.55269183e-004,
          1.30362599e-003, -1.22952624e-003, -2.26830691e-003,
          6.99437223e-004, -1.40980538e-003, 6.81019796e-004,
          -1.39275170e-003, -3.42418149e-004, -1.53883744e-003,
          -1.13607734e-003, 2.69677810e-004, -8.00697890e-004,
          -1.15845597e-003, 3.15474143e-004, 9.68191162e-005,
          2.32140906e-003, 2.10338482e-003, 2.63242610e-003,
          8.24502902e-004, -1.32357213e-003, -6.79384277e-004,
          -9.58395947e-004, 1.79975503e-003, 4.97594447e-005,
          1.01603253e-003, 8.41351284e-004, 5.74366364e-004,
          -1.26832107e-004, 1.31143385e-003, 2.37478199e-003,
          1.38818123e-003, -4.53208137e-004, -2.02594674e-003,
          -2.69959331e-003, -4.26957013e-005, -1.88411726e-003,
          4.74675791e-003, 7.60778086e-004, -1.42309256e-003,
          -8.84402427e-004 ]
   decision_functions:
      -
         sv_count: 1
         rho: -4.8445902764786553e-003
         alpha: [ 1. ]
