%YAML:1.0
opencv_ml_svm:
   format: 3
   svmType: EPS_SVR
   kernel:
      type: LINEAR
   C: 1.0000000000000000e-002
   p: 1.0000000000000001e-001
   term_criteria: { epsilon:1.0000000000000000e-003, iterations:1000 }
   var_count: 868
   sv_total: 1
   support_vectors:
      - [ -2.65360321e-003, 9.20847640e-004, -4.47471917e-004,
          1.08996057e-003, -1.72556072e-004, 1.84066163e-003,
          9.13193973e-004, 2.42787320e-003, 2.42552161e-003,
          -3.68287088e-003, -7.33125897e-004, 2.96742292e-005,
          1.31546822e-003, 2.86983396e-003, -9.74984068e-005,
          3.59913893e-003, 9.82864367e-005, 1.99851042e-004,
          -1.30256964e-003, 4.71287378e-004, 8.15263833e-004,
          3.80407204e-004, -4.22711810e-003, -1.59862917e-003,
          -1.87219155e-003, -2.21536891e-003, -1.28816813e-003,
          -7.02224090e-004, 1.95332826e-003, -8.61501787e-004,
          4.29761782e-003, -5.38637862e-004, 1.05595961e-003,
          -1.79311377e-003, -2.99152755e-003, 6.84506667e-004,
          8.86152324e-004, -2.01641975e-004, 2.37222877e-003,
          7.57533591e-004, -6.76465395e-004, 7.51402258e-005,
          -8.17195687e-005, -6.10108778e-004, -1.06345797e-004,
          1.49364804e-003, -1.46570697e-003, -1.54251629e-003,
          7.13527086e-004, -1.66074850e-003, 5.42885973e-004,
          -3.96372081e-004, -9.32322175e-004, -2.99807475e-003,
          -1.76454533e-003, -1.48802093e-004, 4.10823239e-004,
          -2.25882302e-003, -2.78099469e-004, 1.83154581e-004,
          -1.80594379e-003, 9.72659327e-004, -1.49699324e-003,
          -8.30415287e-004, -8.72731500e-004, 1.13997317e-003,
          8.72436096e-004, 1.68973429e-003, -7.80286966e-004,
          2.36765784e-003, 6.15719357e-004, -3.87819437e-003,
          -3.74025432e-004, 8.46208539e-004, 8.23495386e-004,
          -7.71607680e-004, 5.01640257e-004, -5.68595075e-004,
          -2.15490302e-003, -1.15179771e-003, 5.38629305e-004,
          2.86491564e-003, 1.53573416e-003, -1.03880907e-003,
          -6.03958557e-004, -8.71863915e-004, 7.63854187e-004,
          1.97171676e-003, -1.14562828e-003, -2.79556960e-003,
          -2.62414734e-003, 1.53702055e-003, 1.98639999e-003,
          6.32818206e-004, 1.47473137e-003, 1.14525796e-003,
          1.38571882e-003, -1.44187268e-003, 7.79272406e-004,
          -9.65541694e-004, -1.11753540e-003, -5.61955094e-004,
          -2.38190987e-003, -1.77551759e-003, 8.19589361e-004,
          2.58947286e-004, 1.10730052e-003, -2.02751995e-004,
          1.33313658e-003, -1.88400492e-003, -6.51664595e-005,
          1.56353565e-003, -1.59424832e-004, 7.36342336e-004,
          5.93815867e-006, -4.74402274e-004, -1.33779692e-003,
          -1.62332784e-003, 1.19507348e-003, -1.67539882e-004,
          -3.34134034e-004, 1.28027459e-004, -8.88617797e-005,
          -3.93034221e-004, -2.32765242e-003, 1.81558880e-003,
          1.67882314e-003, 4.77552443e-004, -3.02835047e-004,
          -1.40989665e-003, 9.53247014e-004, 2.71556131e-003,
          1.33453065e-003, -2.01462978e-003, -1.97302876e-003,
          6.77586126e-004, 1.06409413e-003, 1.27314765e-003,
          1.76976901e-005, 2.22147140e-003, -1.52626715e-003,
          1.16240396e-003, 2.98176077e-004, 2.01132731e-003,
          -3.64073494e-004, 3.08997318e-004, -7.14703347e-004,
          -1.30781438e-003, -1.75571686e-003, -3.31281655e-004,
          -4.55461821e-004, 5.15863707e-004, 5.80219144e-004,
          1.80183619e-003, -1.46171966e-004, -1.10109395e-004,
          -1.61864900e-003, -1.87128456e-003, -2.05278187e-003,
          7.00726931e-004, 1.84428529e-003, -6.83103746e-004,
          1.63054478e-003, 1.66272931e-003, -1.42483413e-003,
          -1.64473639e-003, -1.44258211e-003, -1.30753743e-003,
          2.00591935e-003, -1.82710544e-004, -1.87906669e-003,
          -1.84836215e-004, 2.16265515e-004, 1.10074633e-003,
          1.35076139e-003, 2.01119157e-003, 3.41729051e-003,
          -3.16772843e-004, -1.67234137e-003, -2.82954803e-004,
          2.29404634e-003, -3.29398288e-004, -1.11051765e-003,
          -9.39427118e-005, -9.55865078e-004, -8.29179946e-004,
          -1.69031916e-003, -2.50928616e-003, -2.90884543e-003,
          -7.82014627e-004, -2.43385392e-003, -1.41779648e-003,
          8.72780569e-004, -8.52951431e-004, 2.88640964e-004,
          -1.80132408e-003, -1.83593613e-004, -1.42576417e-003,
          6.22911204e-004, -1.09744922e-003, -2.04038434e-003,
          -2.29916419e-003, -3.67341912e-004, -6.39277510e-004,
          1.60372013e-003, 3.45326238e-003, 1.95092452e-003,
          2.09537521e-003, 8.64266258e-005, -1.86335843e-003,
          2.32244306e-003, -3.19963583e-004, 2.73741374e-004,
          -2.98854592e-003, -4.00672946e-003, -1.86946697e-003,
          -8.76755570e-004, -2.32917024e-004, 7.78273039e-004,
          -3.13662429e-004, 6.97875570e-004, -2.92906677e-003,
          -1.17970922e-003, 1.66743330e-003, 1.09166687e-003,
          2.18250920e-004, -1.74250617e-003, -2.23161746e-003,
          3.67380766e-004, -5.46977855e-004, 7.68653874e-004,
          -3.67338513e-003, 1.37047871e-004, -2.61128996e-003,
          1.90442326e-004, 4.36245056e-004, 4.60159878e-004,
          -3.76002718e-004, 1.34298962e-003, -5.66924631e-004,
          6.47160050e-005, 2.71279801e-004, -9.84001144e-006,
          -1.67223538e-004, 7.42801523e-004, -3.82287917e-003,
          -9.34710144e-004, -4.84303309e-004, -3.91096721e-004,
          2.97609164e-004, 3.66690911e-005, -1.68684532e-003,
          7.88765145e-004, 5.17685490e-004, -1.02805288e-003,
          2.21243501e-003, 1.57831481e-003, -1.39441900e-003,
          -3.68005567e-005, -3.83113133e-004, -1.41725596e-003,
          2.06056470e-003, -4.64761324e-005, 1.04995794e-003,
          -1.81939721e-003, -8.30082063e-005, 3.01773637e-003,
          2.07041041e-003, 3.96484946e-004, 1.96365989e-003,
          -1.67576736e-003, -2.11846572e-003, -7.03958445e-004,
          -4.68195212e-004, -2.88612820e-004, -2.75212643e-003,
          -1.08215737e-003, 1.36375753e-003, 2.59098317e-003,
          2.83132005e-003, -4.35037189e-004, -1.83598406e-003,
          -2.87023280e-003, 1.45662378e-003, -2.69227981e-004,
          4.54243360e-004, 1.69518717e-005, -5.96822181e-004,
          -1.89662460e-005, -1.51642470e-003, 3.27777903e-004,
          -5.93624893e-004, -1.50586467e-003, -1.41217909e-003,
          -1.67972036e-003, -1.76196540e-004, 1.81225745e-003,
          -2.65517016e-003, 7.76683097e-004, 8.69034557e-004,
          1.65639550e-003, 1.57863498e-004, 7.43305427e-004,
          -8.82000895e-004, -4.91195882e-004, -6.22317253e-004,
          -1.38472556e-003, -1.14456937e-003, -1.60638258e-004,
          -1.43701051e-004, -7.39343697e-004, 7.73376378e-004,
          -2.48349644e-003, -6.13570097e-004, -1.03334582e-003,
          -5.38832799e-004, -1.81541414e-004, -5.81443193e-004,
          -8.02015478e-004, -1.57085666e-003, -3.86872329e-004,
          -9.23013198e-004, -1.05570420e-003, -3.66874970e-004,
          -1.54129055e-003, -2.32120347e-003, -1.07719086e-003,
          1.78823117e-004, -2.48697121e-004, 1.02599908e-003,
          6.01421925e-004, 2.36840313e-003, -1.05594736e-005,
          1.31611805e-003, 5.00559690e-004, 1.08684786e-003,
          4.99761838e-004, -1.71536661e-003, -3.53313633e-003,
          -1.47633255e-003, -4.70802217e-004, -8.28841818e-004,
          -1.26200460e-003, -7.25003920e-005, 7.11212051e-004,
          -1.26923108e-003, -1.47711090e-003, -9.63085797e-004,
          -1.61502510e-004, 1.93738495e-004, -1.15592103e-003,
          -3.93304246e-004, -1.34541153e-003, -2.10996135e-003,
          -1.83627199e-004, -3.09745036e-003, -1.04745803e-003,
          -2.49264739e-003, -1.29582267e-003, 1.25803822e-003,
          2.30856799e-003, 1.08946569e-003, 6.02470071e-004,
          -9.71764530e-005, 3.19964456e-004, 7.39152951e-004,
          2.45940126e-003, -2.05132598e-003, -4.30147717e-004,
          -4.88111330e-003, -1.30643905e-003, -1.98578811e-003,
          2.49364763e-004, 5.92351193e-004, -8.62526431e-005,
          -1.69935857e-003, 1.22784416e-003, -7.38934148e-004,
          1.49243185e-003, 1.24271028e-003, -9.17566183e-004,
          -3.00597795e-003, -9.86341154e-004, -5.48521406e-004,
          -1.29199307e-003, -6.05821493e-004, 1.36429095e-003,
          4.47740051e-004, -3.00826016e-003, -4.37063514e-004,
          1.06101867e-003, -1.49439627e-004, 1.44326326e-003,
          3.75189877e-004, -2.78318767e-003, -1.27959845e-003,
          1.62924593e-003, -9.87364678e-004, 3.21491971e-004,
          -3.35151493e-003, -1.98992179e-003, 4.22591314e-004,
          1.75605365e-003, 1.16110325e-003, -1.53078523e-004,
          -9.97215742e-004, -1.49860757e-003, 1.25646839e-004,
          -7.80597795e-004, 8.12729413e-004, -3.02684464e-004,
          -3.88449087e-004, -1.67119681e-004, -5.75471960e-004,
          3.02460103e-004, -2.46896379e-004, -1.57852180e-003,
          -1.55746922e-004, -6.01353764e-004, 7.54220964e-005,
          -3.69070593e-004, -1.60140439e-003, -1.09713920e-003,
          -2.47709104e-005, 1.03514513e-003, 4.72026062e-004,
          3.97409400e-004, 7.96460808e-005, -1.56391959e-003,
          -7.80063216e-004, -2.48084497e-003, -3.89348570e-004,
          3.04761110e-004, 4.93548796e-005, 6.97753916e-004,
          -1.74965058e-003, -1.99064612e-003, -3.78559707e-005,
          -4.99404152e-004, 5.22253045e-004, 1.09715457e-003,
          3.48324887e-004, -1.38634210e-003, -1.46730291e-003,
          -8.28594784e-004, -1.20471953e-003, -5.61785186e-004,
          -4.79042588e-004, -6.93652401e-005, -1.35965401e-003,
          -4.03927843e-004, -6.51085866e-004, -2.94460158e-004,
          1.50321436e-003, -1.58546227e-005, -2.68950593e-004,
          1.10470073e-003, 1.43971085e-003, -1.38222205e-003,
          1.22003688e-003, -1.30035996e-003, -1.98354223e-003,
          -1.81215676e-003, -2.47986801e-003, 1.55030715e-003,
          -1.91082223e-003, 1.96711277e-003, -9.20356077e-004,
          -1.92894263e-003, -1.37638953e-003, -2.02854956e-003,
          7.30417611e-004, 1.42531353e-003, -5.74141566e-004,
          -2.03135679e-003, -3.17985308e-004, -4.25462145e-004,
          4.98052803e-004, 8.60346132e-004, -1.03108014e-003,
          9.27350076e-004, -6.70628942e-005, 3.06362432e-004,
          -5.42013964e-004, 1.64387084e-003, 1.13904162e-003,
          1.42717094e-003, -6.97989773e-004, 2.25246162e-003,
          6.58809033e-004, -5.92376920e-004, -1.16794696e-003,
          -2.37053158e-004, -2.65237410e-004, -2.04617856e-003,
          -2.31469065e-004, -1.96401961e-003, 7.90647580e-004,
          7.18769501e-004, 6.77572098e-004, 1.52552326e-003,
          -9.35470278e-004, 2.51736987e-004, -9.09403898e-005,
          6.56315009e-004, -1.91244390e-003, -1.65634614e-003,
          3.05292546e-004, -1.91119756e-003, 1.17453048e-003,
          3.88250477e-003, -4.69977909e-004, -2.59110751e-003,
          -1.92804914e-003, -1.06532231e-003, -6.88063446e-004,
          4.89755039e-005, -8.91787931e-004, -1.46137283e-003,
          5.42442198e-004, -1.26879639e-003, -5.37881046e-004,
          -1.60355086e-003, -2.15692841e-003, -4.43497382e-004,
          -3.85699794e-004, 1.34722923e-003, -3.68614332e-004,
          3.45632929e-004, -2.05506966e-003, -3.54416552e-003,
          2.10449379e-003, 8.76585327e-005, 2.76955799e-003,
          1.45219453e-003, -8.01538175e-004, -1.52733433e-003,
          9.67056258e-004, -4.28918924e-004, -1.41051179e-003,
          -2.07959674e-003, -1.38514827e-003, -1.33272831e-003,
          -1.87143416e-003, 1.08757569e-003, 2.91633973e-004,
          -2.38364097e-003, 1.10425917e-003, -1.10711168e-004,
          2.31699366e-003, 2.09257402e-003, -6.64158666e-004,
          -7.12463108e-004, 2.28803576e-004, -8.52048106e-004,
          -2.95919040e-003, -4.97602567e-004, 5.41934045e-004,
          -4.75738489e-004, -3.62035091e-004, -5.99117950e-004,
          -1.48688478e-003, -4.74598637e-005, -2.24102894e-003,
          -9.52370028e-005, -1.78627466e-004, 4.77375201e-004,
          5.45453280e-004, -2.52415426e-004, -5.51422359e-004,
          -7.38854345e-004, -1.32211368e-004, -1.59849774e-003,
          -1.46892387e-003, 2.03732029e-003, -7.40610587e-004,
          -1.28905510e-003, 4.56210400e-004, 2.46345019e-003,
          5.58197964e-004, 1.55936554e-003, 2.87995324e-004,
          -8.27228767e-004, 1.00429589e-003, -4.28202802e-005,
          -8.81064159e-004, -1.15090702e-003, -2.85150309e-004,
          -1.41114055e-003, 1.10840017e-003, 1.65814441e-003,
          3.40299186e-004, -5.43911185e-004, 2.63614667e-004,
          -2.87875417e-003, -1.04386942e-003, 9.10067931e-004,
          7.44999968e-004, 6.15957892e-004, -3.98393749e-004,
          -6.82039885e-004, 1.16441760e-003, -1.20555307e-003,
          -2.23375671e-003, -9.77807911e-004, 8.60256550e-004,
          -9.95727023e-004, -1.11666595e-004, 1.69448124e-003,
          1.48751016e-003, 1.42395776e-003, -1.02631078e-004,
          1.68991464e-004, 6.29201986e-006, -1.10290348e-004,
          -1.32426776e-005, -1.57628395e-003, -1.51668384e-004,
          6.27514150e-004, -4.52189910e-004, 6.09991723e-004,
          1.59378222e-004, 1.78788381e-003, 7.05754865e-005,
          -1.18292379e-003, -2.05669319e-003, 9.05112654e-004,
          2.79232115e-003, 1.15582289e-003, -2.31876737e-003,
          -1.28449535e-003, 9.30211827e-005, 8.89150135e-004,
          -1.43495621e-003, -8.46040377e-004, 3.43290303e-004,
          -2.43609981e-003, -5.78164938e-004, 2.07487334e-004,
          1.30282820e-003, 8.06603523e-004, -7.45385827e-004,
          -1.79096626e-003, -1.81611555e-004, 3.88005836e-004,
          2.01102346e-003, -4.51418055e-005, -2.22148141e-003,
          1.45374413e-003, -2.63789459e-003, 1.83512026e-003,
          -1.06398005e-003, 3.39350489e-004, -7.47762213e-004,
          -1.18320319e-003, 1.06638786e-003, -2.84886919e-004,
          -1.56308408e-003, -9.12332674e-004, -3.46651155e-004,
          -1.81056617e-003, -6.90178655e-004, -1.57924253e-003,
          1.34979746e-005, -1.85504032e-003, 1.25491328e-003,
          2.50597671e-003, -9.74982104e-004, -6.28963637e-004,
          7.68912432e-005, -2.13471794e-004, 5.36706939e-004,
          1.15161249e-003, 2.19518741e-004, 1.88562740e-003,
          5.08885365e-004, -5.77282510e-004, -1.01464894e-003,
          -2.75946013e-003, 1.60244221e-004, -2.22228817e-003,
          8.33107857e-004, -2.75350554e-004, 1.50335871e-003,
          -1.71569549e-003, -6.31502713e-004, 1.08685950e-003,
          -2.84490362e-003, -1.16120116e-003, 1.01851358e-003,
          -8.62832298e-004, 1.95406051e-003, -2.83751939e-003,
          -2.59320182e-003, 6.12380507e-004, -1.76359620e-003,
          -3.01493710e-004, 2.55583233e-004, -1.16306508e-003,
          8.68942763e-004, 2.36972293e-004, -3.34961514e-004,
          -2.68946140e-004, 1.88423274e-003, 2.82472698e-003,
          1.57992099e-003, 1.45004422e-003, 9.98229138e-004,
          8.79677245e-004, -1.96217233e-003, 1.05207349e-004,
          -2.82063219e-003, 5.05397387e-004, 5.72845223e-004,
          3.04639107e-003, -6.36803801e-004, 5.68131451e-004,
          -2.51067290e-003, -6.13167766e-004, -1.36559387e-003,
          -7.98879715e-004, 6.69963425e-004, -2.62400601e-003,
          -1.64027396e-003, -1.23929500e-003, -1.33430085e-003,
          -3.25158308e-003, -7.93918036e-004, 1.01092283e-003,
          8.19135050e-004, -6.58419303e-005, 1.22892845e-003,
          -1.76952730e-004, 9.72582260e-004, -1.76017336e-003,
          6.88456697e-004, 2.10940442e-003, 2.30210042e-003,
          -3.32104566e-004, -1.62123900e-003, -2.12239195e-003,
          -2.55385617e-004, -2.07010820e-003, -3.54239164e-004,
          -8.83562781e-004, 9.36551078e-004, -7.24351848e-005,
          9.92304878e-004, 7.45521218e-004, 2.27934433e-005,
          1.31788652e-003, -2.02898239e-003, -8.21861089e-004,
          -2.84541253e-004, -6.29877672e-004, -9.12568532e-004,
          2.37166987e-005, -2.00534053e-003, -1.79572741e-003,
          -4.33191657e-004, 1.07732799e-003, 6.70208537e-004,
          -7.66911311e-004, 9.12331510e-004, -1.24686852e-003,
          1.64070295e-003, 7.16223847e-004, 1.61831360e-003,
          -3.39188002e-004, -5.35305997e-004, 8.46745970e-004,
          -2.17177859e-003, 6.57074561e-005, 2.11193040e-003,
          -1.93000911e-003, -1.41824898e-003, 1.20543329e-004,
          -2.10516970e-003, 1.08951121e-003, 8.55255697e-004,
          1.03922677e-003, 1.01661740e-003, 1.52453594e-003,
          1.23623642e-003, 6.21288607e-004, 7.75438639e-006,
          2.10028986e-004, -1.18953467e-003, -1.99772860e-003,
          4.59812261e-004, -1.17195048e-003, -1.00280892e-003,
          1.01055542e-003, 4.71879379e-004, -1.02423318e-003,
          1.76049047e-003, 7.53872620e-004, 7.84559088e-005,
          1.35828694e-003, -1.51718047e-003, 8.74020600e-007,
          -1.78689288e-003, 1.11427376e-004, -8.14709274e-005,
          -2.22799298e-003, 2.34224717e-003, 4.54301393e-004,
          -6.52994029e-004, -2.11210013e-003, 3.25645342e-005,
          6.47540262e-004, 4.35272348e-004, -1.50842755e-003,
          6.21925210e-005, 8.64039175e-004, 1.85585604e-003,
          2.44139330e-004, -4.84969496e-004, 5.83796391e-005,
          -1.83006551e-003, 5.19590336e-004, 7.01166049e-004,
          1.39894919e-003, -5.02113777e-004, -2.51449674e-004,
          -4.85669152e-004, -7.32376866e-005, 5.68212126e-004,
          1.80570921e-003, -2.52375542e-003, -1.11622806e-003,
          -1.16545451e-003, -3.56415985e-004, -9.56242322e-004,
          -1.92697204e-004, 9.58332093e-004, 2.77025538e-004,
          -1.56911163e-004, 1.00744030e-004, -1.78906671e-003,
          1.23443734e-003, 6.94577873e-004, 3.94719420e-004,
          -5.07810561e-004, 2.14777095e-003, 1.70658808e-003,
          3.72995681e-004, -4.29300242e-004, 4.39706870e-004,
          -4.12793655e-004, 1.74359127e-004, 2.03396776e-003,
          5.73201512e-004, 1.00331963e-003, -1.10397593e-003,
          -5.02517272e-004, 1.75119855e-003, 6.92930131e-004,
          -2.69248011e-003, -8.52867961e-004, -2.03650305e-003,
          -1.15005404e-003, -8.86580034e-004, 2.69791664e-004,
          5.61430445e-003, 5.63980830e-005, -1.54342875e-003,
          -1.07423647e-003 ]
   decision_functions:
      -
         sv_count: 1
         rho: -3.6470736563202766e-003
         alpha: [ 1. ]
