%YAML:1.0
opencv_ml_svm:
   format: 3
   svmType: EPS_SVR
   kernel:
      type: LINEAR
   C: 1.0000000000000000e-002
   p: 1.0000000000000001e-001
   term_criteria: { epsilon:1.0000000000000000e-003, iterations:1000 }
   var_count: 620
   sv_total: 1
   support_vectors:
      - [ -8.70126532e-004, -4.29500069e-004, 1.38900126e-003,
          5.62759291e-004, 7.03223865e-004, 9.53552255e-004,
          -1.78724586e-003, 8.04014970e-004, -3.23658431e-004,
          -3.70471185e-004, 1.14217040e-003, -1.86711515e-003,
          -1.02899503e-003, -2.21486064e-003, -2.93998863e-004,
          1.13826641e-003, 3.39498249e-004, -1.22605485e-003,
          1.47120852e-003, 6.31973555e-004, 5.29036333e-004,
          -1.35354267e-003, 3.09278927e-004, 8.17189692e-004,
          -1.24145136e-003, -4.76823945e-004, 3.63152649e-004,
          6.43237581e-005, -1.01320667e-003, 1.14514405e-004,
          -7.58744834e-004, -8.14973842e-004, -1.15860056e-003,
          8.39340064e-005, -2.89906003e-003, -9.72086797e-004,
          -1.28253596e-004, -4.04114544e-004, 6.70845911e-005,
          -1.28520012e-003, 1.37178041e-003, 1.32541452e-003,
          -1.99666200e-003, -1.29849568e-003, -1.99355738e-004,
          -2.14452171e-004, -1.49121537e-004, -1.12984050e-003,
          -1.29633222e-003, -1.56326772e-004, -1.14246586e-003,
          1.50844944e-003, 5.75861253e-004, -6.22856722e-004,
          1.34153478e-003, -4.47227831e-006, -1.01247348e-003,
          -5.06454322e-004, -1.31783145e-003, -2.21358100e-003,
          1.91095663e-004, -1.89143803e-003, -2.00732867e-003,
          -1.24947415e-004, 3.36283119e-004, -7.27749139e-004,
          -1.98795460e-003, 2.03208416e-004, -6.50539141e-006,
          -4.76829155e-005, 8.16522923e-004, -2.17585446e-004,
          1.17131788e-003, -4.01432597e-004, -3.41252005e-003,
          -1.92505744e-004, 1.94412482e-004, -2.81479559e-004,
          1.05830986e-004, -1.65534578e-003, 7.25648133e-004,
          6.83155318e-004, 1.75804843e-003, 1.61072961e-003,
          2.40686944e-007, 1.73005252e-003, 4.84292977e-004,
          1.33572714e-004, -2.70234159e-004, -2.81509147e-005,
          6.08073198e-004, -2.13819346e-003, -2.32392224e-003,
          -8.91155447e-004, 2.92074023e-004, -6.16605219e-004,
          -1.26080262e-003, -1.09935796e-003, 1.08969607e-003,
          -8.85528862e-004, -4.81717900e-004, -1.66930992e-003,
          5.63751790e-004, 1.71011488e-003, 1.66057271e-003,
          -5.45480638e-004, -1.18348398e-003, -1.70387886e-003,
          -1.77042547e-003, -2.88035488e-004, -9.24441731e-004,
          4.97801986e-004, -7.60925905e-005, -4.00988996e-004,
          -5.65615890e-004, 2.07873015e-003, 5.95552323e-004,
          1.45764113e-003, 3.68843321e-004, -6.85090083e-004,
          -1.62211759e-003, -1.28091825e-003, -9.28484369e-004,
          5.84262998e-005, -2.44425866e-003, -8.50715267e-004,
          -2.08184196e-004, 6.67854765e-005, 1.34571525e-003,
          1.74822391e-003, -1.05298765e-004, -4.43392637e-004,
          1.25818513e-003, -3.02035915e-004, 5.14455198e-004,
          1.87334779e-004, -2.56241113e-003, -6.85251900e-004,
          2.26008997e-004, 1.70147134e-004, -1.12426598e-004,
          2.55389787e-005, 1.89662969e-003, 5.83827845e-004,
          -1.53076660e-004, 6.11155061e-004, 1.29456480e-003,
          -8.53652367e-004, 1.40573655e-004, -2.26864801e-003,
          -1.42974884e-003, -1.25685954e-004, 1.15564535e-003,
          -5.28758756e-005, -2.00076844e-003, -2.14047555e-004,
          1.41181401e-003, -5.70038625e-004, 4.58832859e-004,
          -1.30923011e-003, -2.21526809e-003, -8.87195289e-004,
          1.87335419e-004, -1.29310624e-003, -1.37921117e-004,
          -1.10037904e-003, -1.53231225e-003, -1.43376645e-003,
          5.49642311e-004, 9.13838332e-004, -1.09021226e-003,
          -3.16674501e-004, -1.26888859e-003, 2.02156138e-003,
          1.32593652e-003, -4.51851578e-004, -2.48012599e-004,
          1.77460402e-004, -1.24675455e-003, -1.45687186e-003,
          -4.79303242e-004, 4.08898020e-004, 2.18418936e-004,
          -9.08139686e-004, -8.09434161e-004, -3.14299250e-003,
          -1.23490358e-003, 5.50837547e-004, -4.64775396e-004,
          -3.48661747e-003, -2.70851306e-003, -3.94278439e-004,
          -1.20553607e-003, -6.51630340e-004, -4.06861654e-004,
          6.39866921e-004, 1.50994980e-003, -6.76584139e-004,
          -1.05631736e-003, -8.42184454e-005, -2.72034574e-003,
          -1.45269756e-003, -3.71286646e-004, -3.10592761e-004,
          6.77088174e-005, 4.31356821e-005, 2.52882391e-003,
          1.39061746e-003, 9.85373859e-004, 1.86886359e-003,
          1.30057754e-003, 5.01217379e-004, -1.47811079e-004,
          -1.34269369e-003, -2.22375453e-003, -1.32787900e-004,
          -3.14761209e-003, -5.50205878e-004, 7.79985785e-005,
          5.64314309e-004, -9.14329838e-004, -3.62561061e-003,
          -2.33402563e-004, -1.75428938e-003, -3.07052833e-004,
          7.17681949e-004, -6.02261862e-004, 5.37707878e-004,
          1.25487579e-003, -1.41199876e-003, 6.84026803e-004,
          -7.94577645e-004, -2.25169747e-003, -6.19759434e-004,
          -2.14459794e-003, -1.81869924e-004, -1.28907780e-003,
          -7.31774606e-004, 8.80570617e-004, 2.21152953e-003,
          -2.30882200e-004, 1.36425288e-003, -7.56987163e-007,
          -6.91829482e-005, -2.16362160e-003, 4.42480494e-004,
          -1.49085314e-003, -2.14932277e-003, -1.22679048e-003,
          -1.33639516e-003, 9.05157431e-005, -1.29094033e-003,
          -9.14028205e-004, 1.31035631e-004, -1.91080477e-003,
          -5.68942924e-004, -8.25435913e-004, -1.72429587e-004,
          -5.39245200e-004, 2.16226862e-003, -1.84846242e-004,
          -1.57855859e-003, -1.00874121e-003, -1.87034637e-003,
          -7.72004249e-004, 1.32904461e-005, 8.45311442e-004,
          -1.03950081e-003, -1.18950394e-003, 1.15300633e-003,
          2.50639836e-003, -7.83312134e-004, -7.49086976e-005,
          1.27658248e-003, 3.28422786e-004, -1.42505474e-003,
          -6.49420195e-004, -3.28003173e-003, -2.09142978e-004,
          -1.32525747e-003, 8.82925175e-004, 6.42796454e-004,
          -1.22573972e-003, -9.82317724e-004, 2.88215233e-003,
          -2.10062461e-003, 1.80683986e-004, 2.96014972e-004,
          -1.97450793e-003, -1.26550021e-003, 1.47999160e-003,
          -4.13725211e-004, 4.98010195e-004, 1.36322516e-004,
          -9.41421255e-004, -7.77846901e-004, -6.66469918e-004,
          1.00913760e-003, 9.45964566e-005, -1.07883103e-003,
          2.60772393e-003, 9.33914213e-004, -6.35952863e-004,
          1.93686341e-003, 1.62266160e-003, -5.67371608e-005,
          -1.03299867e-003, 1.81247329e-003, -2.77172541e-003,
          -2.11317092e-004, 1.04840426e-003, -8.29050608e-004,
          -7.56131310e-004, -1.42940762e-003, -6.68249151e-004,
          -1.88080210e-003, -6.89920853e-005, -1.27383391e-003,
          -1.04351912e-003, 5.45891293e-004, -8.24876130e-004,
          5.78033912e-004, -2.73627206e-003, 2.13154592e-004,
          -1.24736573e-003, 9.82983853e-004, -9.44202417e-004,
          -1.55996560e-004, -2.50477402e-004, -1.91172247e-003,
          3.40904924e-004, -6.70209993e-004, 1.39205821e-003,
          3.15854349e-003, 9.56826669e-004, -2.41900871e-005,
          -1.17409736e-005, -2.94780219e-003, -9.39585516e-005,
          -1.13870751e-003, -7.64625263e-004, 1.65503658e-003,
          -1.23156980e-003, 2.15538684e-003, -2.20044982e-003,
          -2.84624664e-004, -1.41400751e-003, -1.39411364e-003,
          -8.81844608e-004, -5.14297571e-004, 9.37101845e-007,
          -3.38758749e-004, -2.38410942e-003, -3.12753866e-004,
          9.45704349e-004, -7.19877367e-004, -5.20887726e-004,
          -1.09614595e-003, -2.55120744e-004, -1.41733931e-003,
          8.08500161e-004, -1.20979959e-004, 1.22991798e-003,
          1.54218858e-003, 3.51970340e-003, 5.94636251e-004,
          1.39970914e-003, -6.05463458e-004, -1.71407277e-003,
          7.01676006e-004, -2.88013183e-003, -2.51782418e-004,
          5.88327472e-004, 1.93821976e-003, -1.59365154e-004,
          -5.57854481e-004, -2.03839410e-003, -5.98313753e-004,
          -1.47973059e-003, -1.61881238e-004, 4.54480149e-004,
          1.69630069e-003, -8.20224581e-004, 6.54746720e-004,
          -1.13654940e-003, -9.04170956e-005, -8.50676850e-004,
          -8.90756026e-004, -9.98471398e-004, -1.19935605e-003,
          -1.44965330e-003, 8.53670004e-004, 1.69674080e-004,
          -7.41776093e-005, 6.72719383e-004, 1.41689437e-003,
          2.78348546e-003, 1.61370903e-003, -1.87735466e-004,
          -2.79846368e-003, 2.03105644e-003, -1.37184234e-003,
          -5.24119998e-004, 1.07198139e-003, -1.23609861e-004,
          6.77373086e-004, 3.51962866e-004, -5.58095344e-004,
          -9.02975968e-004, -1.17701106e-003, -6.74806826e-004,
          9.67653934e-004, 1.58728752e-003, 7.97951943e-004,
          -1.35067024e-003, -9.88863641e-004, -1.20429753e-003,
          -9.81286401e-004, -2.13870360e-003, -2.02004192e-003,
          -1.99492369e-003, -2.56553036e-003, -5.66621253e-004,
          -3.14621837e-004, 1.31939887e-003, 2.35940982e-003,
          2.63522705e-003, -3.61526618e-005, 6.46284840e-004,
          -1.91111685e-005, -1.11488590e-003, 7.03992962e-004,
          -3.22457310e-003, -4.47363243e-004, -1.69678486e-003,
          1.66301179e-004, 1.16264343e-003, -6.23450032e-004,
          -9.47632827e-004, -1.08520698e-003, -8.00944283e-004,
          7.49296392e-004, -1.50368188e-003, 3.59457636e-006,
          -1.06259505e-003, 1.55245629e-003, -8.48650117e-004,
          -6.24054053e-004, 2.34129548e-004, -1.39726978e-003,
          -1.39528129e-003, 1.33239664e-003, 5.55339611e-005,
          -4.99738147e-004, -3.27476009e-004, 4.83242417e-004,
          6.05689536e-004, 9.29695787e-004, 2.67590047e-003,
          9.22531122e-004, -1.79152773e-003, -6.57694982e-005,
          -6.24341890e-004, -3.76662449e-003, 1.25841622e-003,
          1.61449681e-003, -4.16694966e-004, 2.60033703e-004,
          4.47549479e-004, -1.27178815e-003, -9.34606651e-004,
          1.09371112e-003, 1.04880484e-003, 1.31963418e-004,
          -1.06842909e-003, -4.65351826e-004, 1.22744846e-003,
          -1.75979757e-003, -2.33513024e-003, -1.26879290e-003,
          -6.61636528e-004, -1.63026270e-003, 9.38299403e-004,
          -2.03082967e-003, -1.54531572e-003, -1.37319288e-003,
          2.82221008e-004, 3.01105366e-003, 2.56671244e-003,
          1.18427118e-003, -1.53198396e-003, -8.43783317e-004,
          -1.07765966e-003, -4.00893012e-004, -1.44957972e-004,
          -7.57146219e-004, 8.27130920e-004, -2.06956198e-003,
          -6.65893138e-004, -5.64035552e-004, -1.10075122e-003,
          5.86467620e-004, -3.25947447e-004, 3.03060777e-004,
          2.46188766e-003, 1.70878472e-003, 3.56676785e-004,
          6.59577956e-004, -2.00329977e-003, -2.66877166e-003,
          -6.22876047e-004, -5.93616860e-004, -9.22984444e-004,
          6.11315016e-004, -3.19437007e-003, -6.50345115e-004,
          1.64585700e-003, 1.12740370e-003, 3.51019297e-003,
          1.90264196e-003, 8.35643092e-004, 9.84693645e-004,
          -1.09746738e-003, -1.49872981e-003, 8.29319353e-004,
          -1.15042273e-003, -7.65335717e-005, 1.95524585e-003,
          -9.37526493e-005, -1.50148990e-004, 1.08692155e-003,
          -1.39809924e-003, -1.33209932e-003, 9.69501212e-004,
          -3.50413284e-005, -1.69631952e-004, -1.23441743e-003,
          8.60634958e-004, 7.72341620e-004, -6.57428114e-004,
          -4.30832704e-004, 4.55613161e-004, -7.40064541e-004,
          -2.77824933e-003, -5.96953847e-004, -5.99069986e-004,
          7.45197700e-004, 3.10749572e-004, 1.26130960e-003,
          1.40938768e-003, -2.35185667e-004, 4.50938358e-004,
          9.19477199e-004, -1.26074674e-003, -2.49385345e-003,
          1.38595584e-003, -7.01067678e-004, 1.51303524e-004,
          1.07686035e-003, -5.55859180e-004, 5.30802972e-005,
          2.66410760e-004, -6.87427892e-005, -3.15582030e-003,
          -2.47162115e-003, -1.50649785e-003, -4.60188574e-004,
          -8.81054148e-004, -5.31290774e-004, -1.13565323e-003,
          -1.71792042e-003, -7.97790126e-004, -4.98153444e-004,
          -4.21873963e-004, 7.08060281e-004, -1.21561682e-003,
          -9.99305747e-004, -2.97070132e-004, 5.49067743e-004,
          1.65019697e-003, 3.19338450e-003, -4.50857915e-004,
          9.27319561e-005, 9.72767128e-004, -5.22161077e-004,
          -2.24171253e-003, -1.43406403e-004, -1.92973833e-003,
          -1.96120655e-003, 9.49231908e-004, 6.62807492e-004,
          -1.72161055e-003, -1.10397092e-003, -1.30582636e-003,
          4.67297614e-005, -8.49336968e-004, -1.89517310e-003,
          -7.10706881e-005, 1.21177791e-003, -1.00026513e-003,
          2.19970918e-003, 7.37223541e-004, -7.06604682e-004,
          -9.47855006e-005, 2.07057950e-004, 5.69200842e-004,
          2.66527320e-004, -1.22944103e-003, -1.26680557e-003,
          -1.07002503e-003, 2.28813454e-003, 2.74317246e-003,
          -7.57237140e-004, 3.59471887e-004, -5.23828145e-004,
          -1.94734742e-003, 1.14338100e-003, -9.86492261e-004,
          -1.38952117e-003, 3.37741134e-004 ]
   decision_functions:
      -
         sv_count: 1
         rho: -3.7313266098497611e-003
         alpha: [ 1. ]
