%YAML:1.0
opencv_ml_svm:
   format: 3
   svmType: EPS_SVR
   kernel:
      type: LINEAR
   C: 1.0000000000000000e-002
   p: 1.0000000000000001e-001
   term_criteria: { epsilon:1.0000000000000000e-003, iterations:1000 }
   var_count: 620
   sv_total: 1
   support_vectors:
      - [ -1.70205953e-003, -4.27902451e-005, -6.65679516e-004,
          1.20464351e-003, -1.28011312e-003, -3.34000099e-004,
          5.01742936e-004, 1.12298829e-003, 4.76479559e-004,
          -2.42599915e-003, -4.97935689e-004, -2.48500291e-005,
          -2.39122644e-004, -1.43031066e-003, -1.28459069e-003,
          3.25952744e-004, -2.74719670e-004, -8.78563209e-004,
          -1.29240841e-004, -1.27345801e-003, 1.02871913e-003,
          4.52136796e-004, 2.61522393e-004, 6.16451551e-004,
          5.27645345e-004, -3.32207594e-004, 3.85141611e-004,
          -2.30527041e-003, 1.00694029e-004, -6.42313506e-004,
          -6.64536550e-004, -3.54612799e-004, -1.20547391e-003,
          5.07944962e-004, -2.57419073e-004, -1.39108638e-003,
          -3.50543211e-004, 3.14623394e-005, 5.50379278e-004,
          -3.75117670e-004, -3.82544938e-004, 3.28474038e-004,
          -1.94579072e-004, -5.61472436e-004, 4.54051857e-004,
          -8.44657712e-004, -1.23098947e-003, -1.90628052e-003,
          -8.97103382e-005, 3.22708274e-006, 1.77960366e-003,
          1.37970422e-003, 1.68410037e-003, 1.32458808e-003,
          -3.89965397e-004, 9.85292252e-004, -5.82887224e-005,
          2.46904528e-004, -2.00888462e-004, 1.79650742e-004,
          -9.99072683e-004, -2.40779109e-003, 7.43871205e-004,
          1.19990052e-003, -2.90185842e-003, -2.59887660e-003,
          -4.55898989e-004, 1.96492067e-004, 1.40811829e-003,
          -1.55136187e-003, -2.07379740e-003, -1.58834795e-003,
          -2.09497026e-004, -2.58976128e-003, -1.22326321e-003,
          -1.59626026e-004, 6.01956912e-004, -8.40556284e-004,
          -3.22836364e-004, -4.20910976e-004, 1.48519548e-003,
          1.56021002e-003, 4.09424584e-003, 4.06688545e-003,
          1.92341034e-003, -5.90016774e-004, 3.91136826e-004,
          1.16199499e-003, 1.04921334e-003, -1.41757424e-003,
          2.54482933e-004, -3.21696559e-003, -1.64738286e-003,
          -1.26498833e-003, -1.10595685e-003, -3.06032627e-004,
          -2.19413731e-003, -3.24228429e-004, -6.65839878e-004,
          -2.22392089e-004, 1.90496026e-003, -1.25965488e-003,
          -6.86204410e-004, 1.03703653e-003, 1.08360033e-003,
          -2.67214607e-003, -1.06346805e-003, 4.58543684e-004,
          1.84922467e-003, 8.64738890e-004, -4.98661597e-004,
          4.36918694e-004, 1.26148097e-003, 1.24563219e-003,
          1.89881655e-003, 1.33835746e-003, 2.59356661e-004,
          -6.21748157e-004, -1.03621348e-003, 8.96331767e-005,
          -1.41679286e-003, -1.81080031e-005, -1.29782816e-003,
          3.44801811e-004, -9.42734187e-004, -1.37214444e-003,
          3.85027699e-004, -3.25785921e-004, -5.85700269e-004,
          2.05881326e-004, -9.49094901e-005, -8.96534882e-004,
          -1.68239334e-004, 4.63153759e-004, -2.76367296e-004,
          -3.76971788e-004, -3.07968142e-003, 1.48358976e-003,
          -9.82889673e-004, 8.27231328e-004, 5.66103030e-004,
          1.27869745e-004, -4.01925208e-005, -3.58911231e-004,
          5.29684767e-004, 2.47509195e-003, 5.85501140e-004,
          1.69429893e-003, 1.92631653e-003, -8.45286297e-004,
          1.57879782e-004, -2.16572476e-003, 2.20956211e-003,
          -1.18890603e-003, -1.23224757e-003, -7.06734078e-004,
          1.13957189e-003, 3.75801232e-004, 2.23844036e-004,
          -8.55951221e-004, -2.52232101e-004, -1.12078735e-003,
          -2.55750632e-003, -2.85083777e-004, -1.70503615e-003,
          -9.35941876e-004, -1.09982723e-003, 6.18625490e-004,
          -1.71257780e-004, -3.99734708e-004, -4.09984612e-004,
          2.08812926e-004, 1.05552986e-004, -1.50118198e-004,
          -7.79547438e-004, 7.17266637e-004, 1.38635677e-003,
          1.22689665e-003, -7.53121101e-004, 8.05604039e-004,
          -1.55625923e-004, -2.90957978e-004, -1.73132133e-003,
          -1.60119380e-003, 6.89892564e-004, -1.04743626e-003,
          4.52143468e-005, 1.10990550e-004, -1.60341838e-003,
          -1.04621041e-003, -1.31865696e-003, -9.83457430e-004,
          -1.94095570e-004, -6.41657563e-004, -1.79919170e-003,
          -6.90904388e-004, -1.18304510e-003, -9.61155922e-004,
          -1.66878599e-004, -1.34176912e-003, -2.45066312e-005,
          -1.45028497e-003, 1.14675378e-003, -8.80960666e-004,
          1.28466787e-003, 1.36708340e-003, 8.32754944e-004,
          1.89239439e-003, 2.16365163e-003, -4.28015977e-004,
          9.30189213e-004, 2.03827396e-003, -5.84006426e-004,
          -2.74114311e-003, -1.82704092e-003, 3.47137830e-004,
          -1.89924729e-003, 1.40488369e-003, -3.26279202e-004,
          -6.19274448e-004, -2.62542418e-003, -1.92982727e-003,
          -9.41502803e-004, 3.68149544e-004, 4.24517020e-005,
          -1.32994878e-003, -1.91080081e-003, 2.16188651e-004,
          -2.59418244e-004, -1.30347325e-003, 5.75286278e-004,
          -7.93722342e-004, -1.14159752e-003, -9.19843325e-004,
          -2.56261672e-004, 8.89967021e-004, 6.20520950e-005,
          1.24936458e-003, 5.14692743e-004, 2.29179300e-003,
          -1.04939705e-003, 8.56149563e-005, 9.18916601e-004,
          2.38830550e-003, -1.19032047e-003, -1.27839332e-003,
          -1.40926987e-003, -1.66115980e-003, 8.91493473e-005,
          -4.51461441e-004, -7.10247899e-004, -3.83675960e-003,
          -5.89199655e-004, -2.00625439e-003, -1.75546017e-003,
          -2.58655142e-004, -3.66651919e-004, -1.49049272e-004,
          -2.89453310e-004, 3.86417116e-004, -2.87861074e-003,
          -4.65771627e-005, 8.52217418e-005, -1.50032516e-003,
          1.81092415e-004, -7.72196683e-004, -2.42677255e-004,
          1.49133222e-004, 9.62632825e-004, 3.57983983e-003,
          2.21183361e-003, -2.72869947e-004, 2.90311204e-004,
          1.33024203e-003, 4.67375066e-004, -1.52771990e-003,
          -2.38308008e-003, -1.40648359e-003, -1.69197260e-003,
          -1.01273914e-003, -1.35642115e-003, -7.62317621e-004,
          -2.25252542e-003, -8.20029469e-004, -6.20240869e-004,
          3.76231401e-005, -3.56186560e-004, -2.76795676e-004,
          -1.49019051e-003, -3.64582171e-004, -3.46379005e-004,
          -1.17681455e-003, 4.50666208e-004, 2.15735025e-004,
          -1.75991328e-003, -1.13235926e-003, 1.86906560e-004,
          7.43721903e-004, -6.30331488e-005, 1.37388252e-003,
          1.75162440e-003, 5.04947326e-004, 1.90614688e-003,
          2.29602517e-003, 2.28447461e-004, 1.20798859e-003,
          -1.41077803e-003, -1.52855972e-003, -5.14202751e-004,
          -2.59761699e-003, -2.81624933e-004, -6.27668400e-004,
          1.79112743e-004, -6.00235420e-004, -3.44214932e-004,
          -1.47867878e-003, -4.44887584e-004, 1.27212168e-003,
          7.12186666e-005, -1.76889345e-003, -7.58508686e-004,
          -1.99756934e-003, -4.35587106e-004, -3.78805969e-004,
          -1.56311679e-003, -6.31483214e-004, -4.25590028e-004,
          -4.63683391e-004, -6.28409616e-004, -2.94741680e-004,
          1.22010417e-003, 1.26177503e-003, -9.25854838e-005,
          9.13550670e-004, 7.78654939e-004, 4.05880099e-004,
          2.22016382e-003, -2.45504663e-003, -2.33993912e-003,
          -1.22354380e-004, -1.16309289e-004, -1.33881811e-004,
          1.25399185e-003, -8.20108398e-004, -8.94402503e-004,
          -8.64813686e-004, 2.10038255e-004, -7.02509424e-005,
          2.90555356e-004, -5.75988553e-004, -1.60066906e-004,
          9.28807014e-004, -2.34982977e-003, -1.62996375e-003,
          6.13936689e-004, -2.03136285e-003, -9.38411977e-004,
          6.56673437e-005, -1.46143930e-003, -1.50125136e-003,
          2.03114789e-004, 3.76068521e-003, 5.69842872e-004,
          3.98930191e-004, 2.94163171e-003, 9.40411468e-004,
          -8.16565589e-005, -3.10225441e-004, -1.27345207e-003,
          3.70653375e-004, -2.04580929e-003, -1.09011889e-003,
          -3.94493036e-005, 1.22719444e-003, -2.31344346e-003,
          -2.84918142e-003, -5.37065032e-004, -2.06122617e-003,
          -7.09633518e-004, -5.62941132e-004, -1.24089990e-003,
          -4.79610579e-004, 3.42959567e-004, -1.83264504e-003,
          -2.88289215e-004, -4.35985567e-004, -4.02799400e-004,
          -1.37999584e-003, -2.37774593e-003, 6.18112448e-004,
          -6.01798005e-004, 5.29739889e-004, 2.38102907e-003,
          4.67926147e-004, -1.17818185e-003, 3.65279964e-003,
          1.23479497e-003, 7.34315952e-004, -1.04817143e-003,
          -1.72561582e-003, -1.26624934e-003, -1.92052708e-003,
          -2.31070211e-003, -2.05900101e-003, -9.53227398e-004,
          -1.97586269e-005, -9.75664647e-004, -1.21782708e-003,
          -2.71699019e-003, 5.94151556e-004, -5.16541942e-004,
          -5.37343731e-004, -6.47146444e-005, -1.17599813e-003,
          -9.90466331e-004, -6.35063741e-004, -1.81345292e-003,
          -1.33941218e-003, 4.78322436e-005, -1.26127806e-003,
          -7.81642575e-006, -3.00013198e-004, 1.61775039e-004,
          1.57371990e-003, 2.07190495e-003, 5.19233814e-004,
          2.02053390e-003, 9.46370827e-004, 3.69943795e-004,
          1.71012769e-003, -2.17309897e-003, -4.21813485e-004,
          -2.66162027e-003, -2.11737608e-003, 1.32660993e-004,
          -5.43161004e-004, -1.02175644e-003, 8.77422048e-004,
          -8.51970341e-004, -2.67407252e-003, -1.40568722e-004,
          -1.29614351e-003, -1.17150648e-003, -1.90410030e-003,
          -4.32738569e-004, -9.33019503e-004, 1.33664394e-003,
          -4.03724611e-004, -6.99075812e-004, -3.71112430e-004,
          -7.03908503e-004, -1.65377700e-004, 5.78338222e-004,
          1.28459546e-003, 8.63765075e-004, 1.19292107e-003,
          5.23116789e-004, 2.66787130e-003, 2.01731152e-003,
          1.63775473e-003, 4.04769729e-004, 4.08582709e-005,
          -9.39563673e-004, -2.59763026e-003, -1.67280284e-003,
          2.43573144e-004, -3.65739543e-004, -9.75999341e-004,
          -1.30539469e-003, -1.76399969e-003, -2.13654968e-003,
          -2.90402793e-004, -3.47366731e-004, 4.12524183e-004,
          -1.99532718e-003, 2.08810880e-003, 3.45165929e-004,
          1.59881049e-004, -1.37129950e-003, -1.75194570e-003,
          1.30077067e-003, -4.03059035e-004, 4.72460641e-004,
          -3.33400210e-004, -6.20815190e-005, 1.15367374e-003,
          -3.66844324e-004, 3.82959057e-004, 1.45514088e-003,
          2.21625363e-004, -2.58478074e-004, 1.48943253e-003,
          -2.60278303e-003, -9.73015267e-005, 1.00295281e-003,
          -1.92538882e-003, -2.66196894e-005, -2.02916228e-004,
          -1.38102996e-003, -1.75983750e-003, -1.41510426e-003,
          -4.58511669e-004, 3.42008891e-004, -1.79801558e-004,
          1.14803505e-003, -2.17415905e-003, 5.58537955e-004,
          -1.41546095e-003, -1.93328815e-004, 1.89523955e-004,
          -2.09863647e-003, 9.19391809e-004, -2.94210826e-004,
          6.70402078e-004, -1.13850320e-003, -4.31821070e-004,
          1.31067063e-003, 1.83369312e-003, -2.27800701e-004,
          7.45899335e-004, -5.50081488e-004, -1.01404835e-003,
          -6.21140589e-006, -1.24380633e-004, 3.57617653e-004,
          -1.40759721e-003, -2.48922734e-003, -1.23866907e-004,
          4.09403263e-004, -2.95293704e-003, -8.63090158e-004,
          -1.39179826e-003, -1.99384784e-004, 2.88065290e-004,
          -5.17031585e-004, 2.78080173e-004, -7.76623958e-004,
          8.61803128e-004, -4.17754462e-004, -1.07889797e-003,
          -4.38637566e-004, -1.52176991e-003, -8.40487264e-005,
          -7.10189634e-004, -5.91941061e-004, -7.31739972e-004,
          9.82100493e-004, 1.96562661e-003, -1.62736746e-004,
          -9.25809669e-004, 2.53435085e-003, 1.61408633e-003,
          2.37954780e-004, 1.69131512e-004, -1.64867949e-003,
          -2.31023696e-005, -1.57935591e-003, -1.38301635e-003,
          4.72745596e-004, -1.66553684e-004, -1.02431048e-003,
          -1.67102949e-003, -2.25230178e-004, -1.47282684e-004,
          2.29900630e-004, 5.42752678e-004, -7.30337342e-004,
          -1.54272409e-003, 6.38041005e-004, -1.41655165e-003,
          -2.21941643e-003, -1.73238770e-003, -1.04205043e-003,
          2.07312359e-003, 2.08290032e-004, -2.47113581e-004,
          -1.32428703e-003, 5.98431332e-004, 1.56519076e-004,
          -3.21635423e-004, 7.14311245e-005, 1.92965788e-003,
          -9.86651983e-004, -8.79555242e-004, 9.22989100e-004,
          -2.04475806e-003, 1.48576277e-003, -1.40591129e-003,
          -1.80635788e-003, 1.00374082e-003, 5.56075720e-005,
          -2.17379490e-003, -3.84958781e-004, 6.12583186e-004,
          1.34278846e-003, 2.10036480e-004, -7.56762456e-004,
          -1.39495311e-003, -1.07917795e-003, 2.66537536e-003,
          -2.31466838e-003, -1.98079902e-003, -8.80731153e-004,
          -1.40551105e-003, -2.23833471e-004, 9.03393375e-004,
          -6.78948360e-004, -1.44469598e-003, 1.72300992e-004,
          1.71194039e-003, 2.27634353e-003, 1.12409623e-004,
          -6.20979845e-005, -1.71603577e-003, 5.55736129e-004,
          4.35424823e-004, -1.67933130e-003, -1.79220020e-004,
          -1.30767748e-003, 1.11267815e-004 ]
   decision_functions:
      -
         sv_count: 1
         rho: -3.7200881540783159e-003
         alpha: [ 1. ]
