%YAML:1.0
opencv_ml_svm:
   format: 3
   svmType: EPS_SVR
   kernel:
      type: LINEAR
   C: 1.0000000000000000e-002
   p: 1.0000000000000001e-001
   term_criteria: { epsilon:1.0000000000000000e-003, iterations:1000 }
   var_count: 620
   sv_total: 1
   support_vectors:
      - [ -1.21940277e-003, 3.39453854e-003, -3.47519666e-003,
          -8.29085126e-004, -3.69312847e-003, -4.01116256e-003,
          2.06425413e-003, 2.11886992e-003, -1.77356880e-003,
          -2.84151477e-003, 1.81155070e-003, 3.52429762e-003,
          5.61511086e-004, 1.65008870e-003, -2.66147126e-003,
          1.74325134e-004, -1.49020564e-003, -1.20808557e-003,
          1.47845992e-003, 9.51335765e-004, 2.23561842e-003,
          7.73680338e-004, 3.20795551e-003, -1.27304473e-003,
          4.70608473e-003, 5.52839017e-004, 1.38050423e-003,
          -2.53755087e-003, -2.47368985e-003, -5.77500847e-004,
          1.86308438e-003, -1.65613519e-003, -1.84754573e-003,
          5.88736788e-004, -4.64538718e-003, -4.67765983e-003,
          -2.14706175e-003, 2.08374928e-003, 6.12153579e-003,
          -5.60211411e-005, -2.04282417e-003, 3.61481542e-003,
          -5.42377747e-005, -1.65060617e-003, -1.32391474e-003,
          -2.13730312e-003, -1.73108676e-003, -2.97359191e-003,
          -1.35668425e-003, 2.90590082e-003, 2.60476925e-004,
          3.40106525e-003, -2.38568377e-004, -1.44361446e-004,
          1.57628674e-004, 8.35642568e-004, 2.14563147e-003,
          1.83843239e-003, 7.40747724e-004, 1.70336384e-003,
          -4.70769592e-003, -5.22753922e-003, -1.73607375e-003,
          -1.32652302e-003, -3.41384904e-003, -5.14545524e-003,
          -8.34890828e-003, -1.26777205e-003, 2.42032867e-004,
          5.29448851e-004, 1.48031872e-003, 2.22378294e-003,
          2.61520804e-003, -2.26987503e-003, -9.48212983e-004,
          4.49736508e-005, -3.16071813e-003, 8.89455026e-004,
          -3.10418243e-003, -4.02400550e-003, 4.07055905e-003,
          2.07756157e-003, -3.79909325e-004, 2.88020773e-003,
          1.12522580e-003, 4.28817514e-003, 4.37195692e-003,
          8.66635091e-005, 1.18397956e-003, -2.79323431e-003,
          -2.76549254e-004, -4.83482797e-003, -4.69136285e-003,
          2.68415228e-004, -2.32545473e-003, -7.48886436e-004,
          -3.79686756e-003, -5.05474675e-003, -2.35470105e-003,
          -2.12212303e-003, 2.56230775e-003, -1.54545531e-003,
          -8.05960619e-004, -9.65821964e-004, -3.56489769e-003,
          2.64251162e-003, -4.74606059e-004, 8.54961167e-004,
          1.93071470e-003, -3.01277451e-003, -3.90035147e-003,
          5.65826893e-003, 2.34375824e-003, -1.01790042e-003,
          -1.17809512e-003, -2.66609015e-003, 3.21123796e-003,
          3.42395832e-003, 4.27001505e-004, 2.86571361e-004,
          -3.84116801e-003, 1.40065805e-003, -5.27552608e-003,
          -2.84979865e-003, 1.67283358e-003, -1.42401422e-003,
          -1.95942027e-003, -3.70427128e-003, -4.22079070e-003,
          -1.02325028e-003, 1.42603717e-003, -3.56837176e-004,
          -2.19281577e-003, 5.34958346e-003, 2.00184900e-003,
          7.38730232e-005, 2.16320320e-003, -4.79589828e-004,
          -3.46472743e-003, -3.92359914e-003, -4.17288952e-003,
          3.15271382e-006, 3.90600064e-003, -1.78757720e-004,
          1.50603300e-003, -9.55716940e-004, -2.46789004e-003,
          2.27477308e-003, 1.97276939e-003, -2.41762935e-003,
          5.61976740e-005, -6.04430260e-003, 9.42906458e-003,
          -8.21729004e-003, -1.87628553e-003, 1.34352449e-004,
          -2.02975119e-004, -1.47263240e-003, -4.53978358e-003,
          -2.37213704e-003, -2.59610428e-003, 5.23659342e-004,
          2.17124238e-003, -5.77093987e-003, -5.75840380e-003,
          8.39480665e-004, -1.04940310e-003, -8.14918894e-004,
          -9.09973460e-005, -3.22905113e-003, -1.42752496e-003,
          -7.24416459e-004, 1.07191410e-003, 3.42917792e-003,
          2.62199296e-003, -1.23333931e-003, 4.86028241e-003,
          1.72944611e-003, 1.35544909e-003, 1.29684980e-004,
          1.47822849e-003, 1.73940309e-004, -2.95334728e-003,
          -7.52887456e-003, 1.31502180e-004, -1.57977280e-003,
          -7.73459382e-004, -1.24063459e-003, 1.74286391e-003,
          -6.70666713e-003, -3.08240415e-003, -2.32336950e-003,
          1.82134437e-003, 1.72222441e-003, -4.68829647e-003,
          -1.09166699e-003, -1.51397951e-003, -3.08805145e-003,
          1.22526777e-003, 4.34103742e-004, -4.44004452e-003,
          -1.54682784e-003, -1.25560851e-003, 3.45001812e-004,
          1.97655382e-003, 1.84590044e-003, 2.00036028e-003,
          5.17173391e-003, 5.38775092e-003, 1.98431592e-003,
          1.20673911e-003, 1.85332913e-003, 1.66342384e-003,
          -2.05335164e-004, -1.50018430e-003, -1.11038086e-003,
          -8.71463958e-003, 3.22712865e-003, -1.86009204e-003,
          -1.42631901e-003, -4.74888831e-003, -5.46461623e-003,
          -1.07300584e-003, -1.81899441e-003, -9.86182480e-004,
          -3.31251533e-003, -5.21138718e-004, -1.66401267e-003,
          5.50625788e-004, 2.64322478e-003, 7.61217845e-004,
          -3.64736817e-003, 1.52908469e-004, -7.79773807e-004,
          2.08306810e-004, 5.36587962e-004, 2.94285757e-003,
          3.97406472e-003, 1.78390730e-003, 3.03189293e-003,
          1.10173621e-003, -6.33368967e-004, -7.96466309e-004,
          2.66590156e-003, -6.58474397e-004, -3.29506770e-003,
          -5.05465781e-004, -4.85561648e-003, 6.99088967e-004,
          -1.55033788e-003, -1.54166331e-003, -5.81987202e-003,
          -3.11367982e-003, -6.37030404e-004, 1.48750236e-003,
          -3.50282964e-004, -6.64737425e-004, -3.55907180e-003,
          -1.11199263e-003, -4.57826711e-004, 2.14287499e-003,
          3.34729964e-004, -1.58680149e-003, -1.78435259e-003,
          -2.61386973e-003, 5.90696036e-005, 3.26993805e-003,
          1.77325413e-003, 2.28050840e-003, 1.72847160e-003,
          5.13163861e-003, 2.60170992e-003, 1.24305452e-003,
          -2.07974699e-006, 3.49105522e-003, -6.33778342e-004,
          -2.86507723e-003, -7.59828021e-004, -5.20149199e-003,
          1.17843330e-003, -2.31846003e-003, -1.31816277e-003,
          -6.96537178e-003, -5.74130984e-003, -1.03903178e-003,
          3.63058480e-003, 2.13130479e-005, -3.23865749e-003,
          -2.21463363e-003, 1.30537059e-003, -1.57458999e-003,
          3.88602470e-003, -1.47686573e-003, -2.77199969e-003,
          -3.46763898e-003, -2.12311698e-003, -1.01663987e-003,
          4.95973462e-003, 2.49256147e-003, 4.15547565e-003,
          3.87862790e-003, 1.52203545e-003, 5.42001892e-003,
          2.91871163e-003, -1.19060045e-003, -6.26705587e-004,
          -1.59070548e-003, -1.55587331e-003, -3.26722348e-003,
          -5.48657216e-003, -3.06380051e-003, -2.45886832e-003,
          -1.83690665e-003, -1.68252573e-003, -1.40713551e-003,
          -2.38777418e-003, 2.00746022e-003, 1.10100547e-003,
          -9.09175258e-004, -1.14771014e-003, 3.43895075e-003,
          -1.98041834e-003, -2.77022040e-003, -1.31002010e-003,
          2.19772337e-003, -3.41713359e-003, -1.02768780e-003,
          -1.24799099e-003, 2.10375199e-003, -1.65121665e-003,
          1.83333806e-003, 1.10134797e-003, -3.41828587e-003,
          6.13076263e-004, 3.33871297e-003, 9.63388942e-004,
          -2.90687458e-004, -6.36593252e-003, -3.28964507e-003,
          7.11394008e-004, 5.05072705e-004, -2.44208659e-005,
          -1.76373380e-003, 4.68474063e-005, -2.03200453e-003,
          -6.69969537e-004, 2.62149051e-003, 2.13835505e-003,
          -3.64273137e-006, 9.82462196e-004, 1.07396510e-003,
          2.51814304e-003, -2.44181999e-003, -4.15779790e-003,
          -2.57856888e-003, -2.77527329e-003, -1.77675043e-003,
          -2.27477401e-003, -5.35028707e-003, 8.84155234e-005,
          -3.64512042e-003, 1.48195613e-005, -1.40871841e-003,
          -1.09761290e-003, -1.43655948e-003, 3.39728850e-003,
          1.82769075e-003, -1.64091238e-003, -2.46471516e-003,
          9.07121459e-004, -3.70001723e-003, -2.50530057e-003,
          -1.79902196e-003, -2.12146566e-004, -2.77468376e-003,
          -1.56576838e-003, -2.87617929e-003, 1.14243128e-003,
          3.01508047e-003, -3.00181535e-004, 3.70157446e-004,
          -2.53511174e-003, 6.19671773e-004, 4.65089601e-004,
          -3.74463270e-004, -7.20152166e-004, -2.37179105e-003,
          -3.69750685e-003, -2.56262836e-003, -2.17661471e-003,
          6.93885726e-004, 9.76144278e-004, 2.21007667e-003,
          -6.21185056e-004, -2.36820430e-003, -1.21393183e-003,
          1.96963828e-003, -8.35324536e-005, 2.79135909e-003,
          -3.55523196e-003, 2.49713368e-004, -4.12931759e-003,
          -1.21715246e-003, 7.60082039e-005, -5.00286289e-004,
          -2.13780487e-003, -1.46707869e-003, 8.83224944e-004,
          -5.37406560e-003, -2.38851047e-004, 4.57360933e-004,
          -8.47659947e-004, 9.49720328e-004, 1.74477359e-003,
          -2.78728548e-004, 9.52877919e-004, 7.52965512e-004,
          9.13717318e-004, -6.81499601e-004, -1.90845167e-003,
          -2.84559536e-003, -6.10441668e-004, -8.69472511e-004,
          1.27716875e-003, 3.23439832e-004, -3.05761024e-003,
          1.49465026e-003, 1.07713812e-003, 3.30085866e-004,
          1.41893618e-003, -3.07174865e-003, 1.93925470e-003,
          -3.25468509e-003, -1.14392555e-004, 2.76610348e-003,
          -1.31878746e-003, -1.97689049e-003, -2.27953377e-003,
          -1.19437603e-003, -3.05885193e-003, -5.21995127e-004,
          2.59139598e-003, 6.74918294e-004, -2.96948920e-003,
          -8.92795855e-004, -8.33694474e-004, 3.64774815e-003,
          2.53708102e-003, -1.70629087e-003, -9.67244487e-005,
          -5.25492011e-003, -2.93169566e-003, 5.80316584e-004,
          1.04769436e-003, 3.65032325e-003, -3.35502409e-004,
          1.67488935e-003, 3.77327530e-003, 9.08451912e-004,
          7.06986117e-004, 2.51288200e-003, -1.86069508e-003,
          -6.02630898e-005, -3.41354730e-003, -7.08273088e-004,
          -5.51127130e-004, 3.38882906e-004, -1.68830753e-004,
          1.47054961e-003, -2.80776061e-004, 5.06508688e-004,
          8.23504874e-004, -3.43879894e-003, 3.12014105e-004,
          -1.29949723e-004, 2.31540203e-003, -5.82263852e-003,
          -8.23770184e-003, -2.46574334e-003, -2.27339193e-003,
          -8.08990852e-004, 2.78374972e-003, -1.54567155e-004,
          -3.03026929e-004, -1.72482207e-004, -4.43600351e-003,
          -1.22502318e-003, 7.28831568e-004, 1.46970304e-003,
          1.35925552e-003, 9.36819357e-004, 2.18529161e-003,
          -6.36765687e-003, -1.79294206e-003, 3.77508113e-004,
          3.43503634e-004, -1.98250473e-003, 3.30893556e-004,
          -4.28699702e-003, 7.67409219e-004, 3.42260930e-004,
          3.85689503e-003, 1.64146186e-003, -1.78601462e-004,
          4.63180477e-004, -1.59660121e-003, 7.11617817e-004,
          1.02519861e-003, -3.84846539e-003, -3.01889214e-003,
          -2.34913919e-003, -2.93996860e-003, -1.35777122e-003,
          -1.97374797e-003, -4.44878079e-003, -1.08461396e-003,
          -1.84621022e-003, -4.96915774e-004, 1.44184206e-003,
          -6.34255179e-004, -1.81081952e-004, 1.51520202e-004,
          -2.09517166e-004, -2.27023527e-004, 8.40922818e-004,
          -5.33742690e-003, -2.06169835e-003, 1.02653277e-004,
          4.22844489e-004, -5.80722420e-003, -1.22550118e-003,
          1.31917710e-003, -3.84472427e-003, 4.19835793e-004,
          -1.10367092e-003, -4.96743759e-003, -1.16152910e-003,
          1.85154099e-003, 5.83782280e-003, -3.79018893e-005,
          -1.91941787e-003, -4.99504432e-003, -1.83550408e-003,
          -2.60740693e-004, 3.30569269e-003, -2.63566896e-003,
          -1.63216924e-003, 6.63931132e-004, -1.09960209e-003,
          1.03887648e-003, 2.20982794e-004, 8.75100086e-004,
          7.10625434e-004, 2.39505443e-005, -1.98059133e-003,
          1.56865898e-003, -3.21077113e-003, -2.92933988e-003,
          2.17377255e-003, -2.79783217e-005, -3.66446795e-003,
          5.03562856e-004, -2.51910169e-005, -6.09831745e-003,
          -2.19299295e-003, -1.52985472e-003, -2.47648638e-003,
          -5.68244024e-004, -2.96138605e-004, 1.36508083e-003,
          -6.55863259e-004, -1.91065122e-003, -2.33582151e-003,
          2.70224595e-003, 1.10046437e-003, -5.16943459e-004,
          -3.59526486e-003, -1.40051392e-003, 5.27702796e-004,
          1.44882244e-003, 7.61174888e-004, 2.02851184e-003,
          1.23283861e-003, 1.33545615e-003, -2.31638609e-004,
          -4.37733019e-003, 2.70221196e-003, -2.49186484e-003,
          -2.64655030e-003, 1.89976650e-003, -3.06839938e-003,
          -5.92238083e-003, 5.14026789e-004, 3.12116859e-003,
          -2.49293190e-003, 2.45457544e-004, 1.20376272e-003,
          -1.78656587e-003, 1.81918649e-003, 4.19821963e-003,
          -1.08403713e-003, -1.37407437e-003, -2.74243602e-003,
          -5.23319235e-003, -2.55032233e-003, -5.16888453e-003,
          -1.56834698e-003, -2.43826048e-003, 6.69277622e-004,
          2.76775169e-003, 3.50470352e-003, 7.99659174e-004,
          -3.51082790e-003, -1.12229213e-003, -1.34799106e-003,
          8.79915242e-005, -4.63527656e-004, -2.64273035e-006,
          -7.52256671e-003, -1.43453979e-003 ]
   decision_functions:
      -
         sv_count: 1
         rho: -6.3049200177182629e-003
         alpha: [ 1. ]
