%YAML:1.0
opencv_ml_svm:
   format: 3
   svmType: EPS_SVR
   kernel:
      type: LINEAR
   C: 1.0000000000000000e-002
   p: 1.0000000000000001e-001
   term_criteria: { epsilon:1.0000000000000000e-003, iterations:1000 }
   var_count: 744
   sv_total: 1
   support_vectors:
      - [ -2.36740913e-002, -4.29409109e-002, -3.37279923e-002,
          2.10790262e-002, -3.93268690e-002, -3.47980931e-002,
          3.08526400e-003, 5.02669662e-002, 2.51660068e-002,
          -5.76343946e-002, -8.49240720e-002, -9.43703055e-002,
          -2.18629707e-002, -1.61196329e-002, 2.52447147e-002,
          2.98649836e-002, 3.02082468e-002, -8.95641558e-003,
          -6.90431073e-002, -1.14374526e-001, -1.20558016e-001,
          -1.13411536e-002, -1.21012311e-002, 2.02929340e-002,
          3.13716121e-002, 7.00572953e-002, 1.85864363e-002,
          -2.19582561e-002, -2.90327203e-002, -1.87480152e-002,
          -5.91514520e-002, -3.79186310e-002, -5.20272255e-002,
          -3.92838567e-002, -2.99837254e-002, -6.50036857e-002,
          -6.28379583e-002, -8.55767727e-003, 5.79036139e-002,
          5.03586493e-002, -5.08326814e-002, -7.60995224e-002,
          -9.44343656e-002, -7.14543536e-002, -5.18229455e-002,
          6.17965125e-002, 6.85195774e-002, 8.89375508e-002,
          7.07758497e-003, -7.59229884e-002, -1.16238460e-001,
          -1.25493169e-001, -9.22698304e-002, -8.19955692e-002,
          1.96599737e-002, 5.93763813e-002, 1.26931936e-001,
          5.42685650e-002, -4.42069024e-002, -1.33597329e-002,
          -3.60024162e-002, -5.05205542e-002, -1.70701928e-002,
          -4.67560301e-003, 5.68491872e-003, -3.15650664e-002,
          -1.05850972e-001, -8.45997334e-002, -2.49978062e-002,
          3.89407463e-002, 3.98327969e-002, -5.51803969e-002,
          -6.34668842e-002, -5.40664457e-002, -3.08537576e-002,
          -1.00614950e-001, 2.08885856e-002, 5.27372994e-002,
          8.27601105e-002, 2.07541212e-002, -5.78327253e-002,
          -5.61789200e-002, -4.92022149e-002, -6.74688369e-002,
          -1.53684467e-001, -5.12188934e-002, 2.11846866e-002,
          1.06927656e-001, 5.57478629e-002, -5.65441065e-002,
          -9.74212866e-003, -5.46390116e-002, -2.58419551e-002,
          -2.51848660e-002, 5.04212501e-003, 1.30808624e-002,
          -2.13126689e-002, -9.86225605e-002, -5.43983914e-002,
          -1.93207674e-002, 1.62966847e-002, 1.43976156e-002,
          -5.68610132e-002, -6.49304539e-002, -2.72734240e-002,
          6.05597608e-002, -8.61711875e-002, -4.84874770e-002,
          6.99167699e-003, 5.01182228e-002, -2.64308346e-003,
          -6.79737777e-002, -4.70821410e-002, -1.82078872e-002,
          1.63973682e-002, -1.19731136e-001, -8.68619755e-002,
          -1.43556315e-002, 5.40859327e-002, 1.00707868e-002,
          -5.18151149e-002, -2.23036967e-002, -6.68029189e-002,
          -1.87503770e-002, -4.83599789e-002, 3.30004049e-003,
          4.17142212e-002, 9.08315927e-003, -5.43373302e-002,
          -1.85486618e-002, 2.05975659e-002, -1.20973410e-002,
          -4.17220071e-002, -7.09928125e-002, -7.33965412e-002,
          -3.39364670e-002, 1.62775010e-001, -8.16694010e-005,
          -3.71843018e-002, -7.94347096e-003, -1.54695311e-003,
          -2.49871556e-002, -1.04941189e-001, -5.74384145e-002,
          7.23068742e-003, 1.14651419e-001, 2.30230973e-003,
          -3.72610390e-002, 1.00784050e-002, -1.52807012e-002,
          -6.19041659e-002, -2.64945328e-002, -3.13796848e-002,
          -3.10391989e-002, 4.48280305e-004, -1.89950634e-002,
          4.88703884e-003, 6.29969090e-002, 6.44611493e-002,
          -6.72715902e-003, -1.57873109e-002, 1.53819099e-002,
          -4.52176668e-002, -7.99487904e-002, -9.20619965e-002,
          -7.30010495e-002, -3.99181172e-002, 1.10917412e-001,
          8.85479059e-003, -6.02850430e-002, -3.13316658e-003,
          2.17601005e-002, -2.16293684e-003, -1.00699909e-001,
          -5.61707206e-002, 1.96605287e-002, 1.09111108e-001,
          4.13147993e-002, -2.50929017e-002, 1.62052177e-002,
          -2.05370374e-002, -7.30496794e-002, -1.64367706e-002,
          -2.10523866e-002, -1.56055763e-002, -1.66625641e-002,
          -2.73404233e-002, -3.36260833e-002, -2.15792973e-002,
          1.02236373e-002, -3.80813368e-002, -3.64731178e-002,
          4.03932342e-003, 5.25435321e-002, 3.88462134e-002,
          -3.60588655e-002, -3.99013385e-002, -1.56745818e-002,
          1.60392057e-002, -3.33747920e-003, -1.67328808e-002,
          -7.06427032e-003, -1.22483782e-002, -2.84456797e-002,
          -5.16829640e-002, -6.93385005e-002, -4.92858738e-002,
          8.61664303e-003, -2.89203618e-002, -3.41162644e-002,
          -2.33884412e-003, 3.49522345e-002, 1.59290358e-002,
          -2.01858841e-002, -2.59458665e-002, -2.39676237e-002,
          -2.17632037e-002, -3.87278758e-002, -5.13430163e-002,
          -1.12652751e-002, -3.50492112e-002, -6.94888309e-002,
          -5.03876768e-002, 9.58112907e-003, 7.41785318e-002,
          5.27992882e-002, -5.69775105e-002, -3.59244011e-002,
          -1.60161555e-002, -3.80536020e-002, -2.39997264e-002,
          7.10736401e-003, 2.09072120e-002, 4.00081575e-002,
          3.60142882e-003, -7.98741132e-002, -8.30692276e-002,
          -4.86571863e-002, -5.92599958e-002, -7.55690411e-002,
          -2.94492543e-002, 2.89767478e-002, 9.63197351e-002,
          5.07553406e-002, -2.91539989e-002, -3.50656658e-002,
          -1.62194408e-002, -2.28211507e-002, -1.96424387e-002,
          -5.43031134e-002, -1.27911028e-002, -4.21686992e-002,
          -1.03022508e-001, -7.33766779e-002, -5.86559251e-003,
          5.67896776e-002, 3.22218388e-002, -7.02662170e-002,
          -4.30264808e-002, 1.62243680e-003, -5.92852943e-003,
          -3.71990278e-002, 4.97583183e-004, 4.24872041e-002,
          9.63215381e-002, 6.17248118e-002, -7.54060969e-002,
          -9.12786722e-002, -4.34645526e-002, -5.89713827e-002,
          -1.03355482e-001, -5.48444726e-002, 3.42900790e-002,
          1.31922022e-001, 8.68552998e-002, -2.72122789e-002,
          -2.75899097e-002, -1.06572341e-002, -1.74717642e-002,
          -4.30578031e-002, -5.49959764e-002, -4.12609521e-003,
          -1.56315006e-002, -8.79321396e-002, -5.19511849e-002,
          -2.11894736e-002, 3.54855396e-002, 1.09883714e-002,
          -4.98355553e-002, -4.58217412e-002, -1.00630708e-002,
          7.38375410e-002, -1.96649022e-002, -2.59205140e-002,
          4.45434190e-002, 1.08611353e-001, 4.91624139e-002,
          -7.88169727e-002, -8.53245184e-002, -4.12554592e-002,
          -1.08600119e-002, -7.75105357e-002, -5.91943488e-002,
          2.47919988e-002, 1.19947419e-001, 6.48710057e-002,
          -8.66159797e-003, -9.94709879e-003, -1.72798485e-002,
          -1.48158642e-002, -5.18037640e-002, -2.62421016e-002,
          2.09484193e-002, 5.75587107e-003, -4.51086685e-002,
          -1.46447436e-003, 3.48440632e-002, 3.88461165e-003,
          -3.89797390e-002, -5.93092032e-002, -6.67238310e-002,
          -3.72768827e-002, 1.07622668e-001, 1.38385184e-002,
          -3.87461819e-002, 2.15956289e-002, 7.54807293e-002,
          3.34099308e-002, -9.89395007e-002, -7.96333700e-002,
          -1.43348118e-002, 4.51102257e-002, -2.06054952e-002,
          -2.02655476e-002, 5.52633889e-002, 6.77765012e-002,
          -5.81228919e-003, 2.44879932e-003, -1.02891512e-002,
          -7.32932379e-003, -7.58688245e-003, -2.45240927e-002,
          -1.01734567e-002, 4.98320498e-002, 3.96442488e-002,
          -1.09672369e-002, -1.24771958e-002, 3.88690047e-002,
          -2.84054577e-002, -6.43109679e-002, -5.25329746e-002,
          -3.77756059e-002, -3.03532463e-002, 4.86689545e-002,
          -1.20607177e-002, -3.24646942e-002, 1.54718282e-002,
          6.13591671e-002, 4.01337259e-002, -6.54901043e-002,
          -3.77640016e-002, 2.15622485e-002, 3.83171067e-002,
          -1.17680738e-002, -2.52416637e-002, 4.73664142e-002,
          2.92148441e-002, -1.54778780e-002, 2.49419850e-003,
          -1.16492687e-002, 8.09364486e-003, -9.34080407e-003,
          -4.55559082e-002, -3.73712927e-002, 4.66531403e-002,
          5.78641109e-002, -3.62860709e-002, -4.08450663e-002,
          -1.59013912e-003, 4.72359024e-002, 2.63791401e-002,
          -6.06432520e-002, -4.97720502e-002, 3.75566408e-002,
          3.01617980e-002, -1.33621478e-002, -6.22058287e-003,
          9.57765430e-003, -1.05424123e-002, -2.89892294e-002,
          -8.67722631e-002, -7.44511709e-002, 1.03855822e-002,
          3.19533870e-002, -1.66615359e-002, -3.10932267e-002,
          1.27587812e-002, 3.72989923e-002, 2.31889426e-003,
          -1.06821740e-002, -6.77242642e-003, -5.85371722e-003,
          -1.24001279e-002, -4.94583808e-002, -5.34303114e-002,
          5.70203476e-002, -4.12764540e-003, -8.50202218e-002,
          -5.67615516e-002, 2.23000646e-002, 1.23362973e-001,
          8.25784206e-002, -7.01802745e-002, -5.61736375e-002,
          3.41353826e-002, -4.29109856e-002, -6.34361356e-002,
          -2.25184038e-002, -2.62476364e-003, -1.06684128e-002,
          -2.07403656e-002, -9.99466404e-002, -9.27275196e-002,
          1.14877168e-002, -3.91853489e-002, -9.89788696e-002,
          -6.13334142e-002, 2.94368789e-002, 1.11770235e-001,
          6.55246228e-002, -3.76892500e-002, -3.19003649e-002,
          -1.74782500e-002, -1.60055887e-002, -4.79192585e-002,
          -6.07389025e-002, 5.70867769e-002, -1.86116789e-002,
          -1.22024335e-001, -7.25998357e-002, 2.43423115e-002,
          1.26466483e-001, 6.28215596e-002, -6.70049861e-002,
          -2.21351441e-002, 4.01611961e-002, -5.26325069e-002,
          -8.92731100e-002, -4.43087555e-002, -1.09331114e-002,
          3.65029499e-002, 3.25816758e-002, -9.15451646e-002,
          -7.15554506e-002, -1.38854829e-003, -6.95957169e-002,
          -1.61935896e-001, -1.00537881e-001, 1.38299642e-002,
          1.37362376e-001, 8.75302702e-002, -3.60961258e-002,
          -3.61981913e-002, -1.89514644e-002, -1.63365044e-002,
          -5.11435978e-002, -5.49762063e-002, 3.67925540e-002,
          8.21504369e-003, -8.03865343e-002, -4.04767506e-002,
          3.30580324e-002, 9.52374861e-002, 7.87640084e-003,
          -6.83390051e-002, -3.48813310e-002, -1.49984024e-002,
          -4.89071198e-002, -9.74451751e-002, -4.66435105e-002,
          3.22997682e-002, 8.62742215e-002, 4.20289263e-002,
          -9.81469378e-002, -7.38292038e-002, -1.80517696e-002,
          -5.68159707e-002, -1.29090339e-001, -6.91567063e-002,
          5.76896146e-002, 1.50526583e-001, 6.04243502e-002,
          -2.59439256e-002, -2.05188002e-002, -2.40664836e-002,
          -2.20609196e-002, -7.42675513e-002, -4.13781777e-002,
          -5.75620681e-004, 3.54905147e-003, -2.09346768e-002,
          -6.95473095e-003, 4.51376587e-002, 4.67661917e-002,
          -2.69132275e-002, -6.61569089e-002, -5.73687963e-002,
          -5.67211583e-002, -3.87504958e-002, -6.41672611e-002,
          4.77045961e-003, 5.98125868e-002, 7.76608139e-002,
          1.69566199e-002, -1.21740296e-001, -9.05253515e-002,
          -5.60589395e-002, -4.04264741e-002, -5.11545949e-002,
          6.36985432e-003, 1.00738518e-001, 8.96001235e-002,
          -1.17859244e-002, -1.86688118e-002, -2.03966778e-002,
          -3.09206024e-002, -2.40748134e-002, -5.68318479e-002,
          -2.97037214e-002, 1.82711817e-002, 5.32514192e-002,
          1.89847089e-002, -2.66705756e-003, 1.40333688e-002,
          -1.29570728e-002, -5.14813215e-002, -2.71740239e-002,
          -1.72122605e-002, -4.25483957e-002, -4.30119485e-002,
          -5.91733977e-002, 1.96745023e-002, 5.30196764e-002,
          6.26319721e-002, 1.10945257e-003, -7.40333200e-002,
          -3.94091047e-002, -2.58488618e-002, -6.61905389e-003,
          -1.92190539e-002, 1.86562091e-002, 6.06379844e-002,
          3.78422402e-002, -4.13063467e-002, 1.10415863e-002,
          -3.10467724e-002, -1.64762121e-002, -1.14999386e-002,
          -5.97270466e-002, -3.66360955e-002, 1.04383796e-001,
          1.44666597e-001, 9.08114295e-003, -1.98437534e-002,
          7.88872968e-003, 2.03530155e-002, -2.88861413e-002,
          -6.58686534e-002, -4.74336669e-002, 3.70861143e-002,
          4.51800600e-002, -1.92928016e-002, 1.29159074e-002,
          2.64900103e-002, -1.87774897e-002, -4.52025831e-002,
          -1.08082943e-001, -7.36819804e-002, 6.09193631e-002,
          1.07117176e-001, 2.90738884e-002, -5.82062593e-003,
          2.89733056e-002, 6.31437264e-003, -5.87696247e-002,
          1.28913196e-002, -8.29326455e-004, 1.49061335e-002,
          4.32206364e-003, -6.87668324e-002, -7.62913898e-002,
          8.15081969e-002, 7.59302676e-002, -3.68055254e-002,
          -3.39266248e-002, 3.45806070e-002, 8.91229287e-002,
          2.46932991e-002, -6.21140748e-002, -3.83928679e-002,
          6.18734248e-002, -2.05901582e-002, -8.97166654e-002,
          -4.66028079e-002, -2.41865069e-002, -3.35342027e-002,
          -4.26509380e-002, -1.12808228e-001, -8.25398490e-002,
          6.49962872e-002, 4.02491540e-002, -6.10054843e-002,
          -6.47178814e-002, 1.55914295e-002, 5.46847694e-002,
          -1.11902570e-002, -1.22206919e-002, -4.82211486e-002,
          -1.33093605e-002, -2.32958607e-002, -8.48247558e-002,
          -8.60865489e-002, 7.14165345e-002, -4.18600999e-003,
          -9.17243659e-002, -1.20294495e-002, 8.92280564e-002,
          1.32532299e-001, 3.86736244e-002, -4.72758561e-002,
          -7.23965699e-003, 3.96247245e-002, -8.44352469e-002,
          -1.20566592e-001, -7.21755996e-002, -4.56374995e-002,
          9.51107871e-003, -9.39631648e-003, -1.12160832e-001,
          -8.15129280e-002, 6.77981088e-003, -6.08909465e-002,
          -1.48281664e-001, -7.31516033e-002, 3.38944681e-002,
          1.13496661e-001, 2.17613447e-002, -1.93639100e-002,
          -6.37326762e-002, -1.10052489e-002, -4.00546268e-002,
          -7.74484798e-002, -8.49571750e-002, 1.16878264e-002,
          -1.70638766e-002, -4.67349216e-002, 2.95507442e-002,
          7.36188591e-002, 8.75554979e-002, -8.46807938e-003,
          -7.34222978e-002, -4.06030901e-002, -3.30626480e-002,
          -1.00955568e-001, -1.08563609e-001, -7.21674860e-002,
          2.07913127e-002, 6.84600845e-002, 1.82997379e-002,
          -1.32916361e-001, -1.15953982e-001, -5.88204451e-002,
          -9.19679627e-002, -1.13201663e-001, -4.51943427e-002,
          7.99076334e-002, 1.27625614e-001, 1.43303564e-002,
          -3.44322845e-002, -6.18735328e-002, -1.62509363e-002,
          -5.40752150e-002, -5.96502237e-002, -6.78221658e-002,
          -4.09479253e-002, 2.02242825e-002, 1.66667402e-002,
          4.23879772e-002, 6.10183924e-002, 5.68640605e-002,
          -3.72308269e-002, -7.46828094e-002, -7.30744153e-002,
          -6.13627434e-002, -7.62063041e-002, -8.30722675e-002,
          -3.22581269e-002, 3.58898342e-002, 3.57607827e-002,
          -1.44986194e-002, -1.17801890e-001, -1.28379747e-001,
          -9.81564149e-002, -4.42768000e-002, -4.89020981e-002,
          6.61793351e-003, 8.61245990e-002, 6.24713376e-002,
          -5.15646860e-002, -1.79601461e-002, -5.12234308e-002,
          -3.80288102e-002, -5.87177575e-002, -3.71464305e-002,
          -3.33828591e-002, -1.04679409e-002, 5.95695376e-002,
          3.88003550e-002, 2.40407027e-002, -5.82693936e-003,
          -1.17534772e-002, -3.23230214e-002, -1.63919181e-002,
          -3.12910043e-002, -5.55773862e-002, -7.78705403e-002,
          -9.90810767e-002, -3.77661474e-002, 3.50336395e-002,
          2.88365111e-002, -1.13780871e-002, -4.46987003e-002,
          -5.69687039e-002, -5.93024231e-002, -1.61181632e-002,
          -2.39707734e-002, -1.99106112e-002, 1.90373566e-002,
          5.82664786e-003, -3.75442393e-002, 2.22534593e-002,
          -4.81604189e-002, -3.82630192e-002, -6.49823472e-002 ]
   decision_functions:
      -
         sv_count: 1
         rho: -1.8232422143220867e-001
         alpha: [ 1. ]
