%YAML:1.0
opencv_ml_svm:
   format: 3
   svmType: EPS_SVR
   kernel:
      type: LINEAR
   C: 1.0000000000000000e-002
   p: 1.0000000000000001e-001
   term_criteria: { epsilon:1.0000000000000000e-003, iterations:1000 }
   var_count: 1085
   sv_total: 1
   support_vectors:
      - [ -6.69371150e-003, -8.94471630e-003, -6.61296677e-003,
          -3.00237886e-003, 3.77977174e-003, -5.09256590e-003,
          9.02376324e-003, 2.63536419e-003, -1.77975919e-004,
          -3.79670295e-003, 5.13306120e-003, 3.76053713e-002,
          3.03212442e-002, 6.52963249e-003, 8.37280415e-003,
          7.58546265e-003, -1.12944394e-002, -3.32094450e-003,
          -1.08516896e-002, -6.27203425e-003, 2.44106315e-002,
          1.82506330e-002, 1.17215319e-002, 2.35007959e-003,
          1.00238873e-002, -1.01309102e-002, -7.71745294e-003,
          -1.48550346e-002, 9.63515544e-004, 7.57754967e-003,
          3.55643742e-002, -1.51005425e-002, -1.80435851e-002,
          -9.17651039e-003, -1.86438567e-003, -1.50011089e-002,
          -7.42179342e-003, 8.01053829e-003, 1.77196425e-003,
          -4.36986238e-003, -1.77445877e-002, -8.16067029e-003,
          3.88093069e-002, 2.87775714e-002, 8.08783621e-003,
          -1.29515752e-002, -1.20742889e-002, -1.48330182e-002,
          -1.04430951e-002, -3.11808847e-002, -1.82609037e-002,
          2.32049320e-002, 1.15291635e-002, 4.43170266e-003,
          -9.47099365e-003, -7.14976527e-003, -1.56728327e-002,
          -1.73824597e-002, -1.47857042e-002, -3.12597584e-003,
          -1.39710354e-002, 2.78422679e-003, -5.52045228e-003,
          -2.24892539e-003, 3.96194821e-003, -3.87904677e-003,
          -2.87091359e-002, 2.26298743e-003, 1.59100886e-003,
          3.55728948e-003, 5.30092232e-003, -6.02758909e-003,
          -9.16125532e-003, 2.95769367e-002, 2.63585951e-002,
          -8.98454711e-003, -2.26588212e-002, -9.81044490e-003,
          -7.67630013e-003, -6.55131415e-003, -9.32684727e-003,
          -6.91552600e-003, 2.43713912e-002, 7.74339726e-003,
          -2.41059829e-002, -1.03730056e-002, -1.03116194e-002,
          -7.88911618e-003, -3.05682304e-003, -2.03861948e-002,
          -1.01827391e-004, -6.94661727e-003, 9.23004374e-003,
          -4.51389793e-003, -2.09885277e-003, -7.97570404e-003,
          -1.41118700e-002, -3.21217962e-002, -2.17020744e-004,
          5.01541886e-003, 4.59418725e-003, 4.11865301e-003,
          -1.29588069e-002, 1.26551092e-003, 4.00467552e-002,
          3.71952839e-002, -1.87971368e-002, -6.85783383e-003,
          -2.36430392e-003, -6.27023820e-003, -1.58199612e-002,
          -1.31835537e-002, 2.50558043e-003, 2.09929124e-002,
          1.37620652e-002, -1.97026208e-002, -3.17879231e-003,
          -6.54699339e-004, -4.63094190e-003, -1.31804338e-002,
          -1.88817214e-002, 5.82460954e-004, -1.00906668e-002,
          1.33656478e-002, -3.38757783e-003, 3.04965954e-003,
          2.24452093e-002, -2.86488747e-003, -4.66694310e-002,
          -1.52529590e-002, 2.75827525e-003, 1.25273624e-002,
          1.27450591e-002, -1.59326009e-003, 5.83780755e-004,
          4.84606661e-002, 5.57936728e-002, -9.65120178e-003,
          4.24066978e-003, 7.16525654e-004, -9.54560284e-003,
          -2.37267055e-002, -1.96037255e-003, 8.73478875e-003,
          4.28267457e-002, 2.02490296e-002, -2.54711825e-002,
          -1.29892593e-002, -7.07030122e-005, 2.87079532e-003,
          -1.07721826e-002, -1.41228747e-003, 1.39240967e-002,
          -5.04732132e-003, 1.64021440e-002, -9.18800011e-003,
          4.18177294e-003, 4.45792042e-002, 2.67045107e-002,
          -3.92384529e-002, -3.76603305e-002, -1.71682369e-002,
          6.29040739e-003, 1.03079984e-002, -2.56362418e-003,
          3.60398693e-003, 3.05241663e-002, 4.65969481e-002,
          -1.48367491e-002, 1.31529216e-002, 1.77474469e-002,
          -2.70534842e-003, -3.75731811e-002, -7.81106437e-003,
          9.98094026e-003, 4.72794399e-002, 4.28695381e-002,
          -3.08891367e-002, -1.98956970e-002, -3.99940787e-003,
          -1.38462323e-003, -2.50071362e-002, 2.77945981e-003,
          7.89994281e-003, -1.69534085e-003, 1.11708501e-002,
          -8.18578620e-003, -9.77727398e-003, 4.05735597e-002,
          3.22687440e-002, -3.88333872e-002, -3.56474109e-002,
          -1.60769038e-002, -4.54711029e-003, -2.56085978e-003,
          -9.24711395e-003, 4.37186053e-003, 3.73393632e-002,
          2.72728130e-002, -2.89505105e-002, 3.32548749e-003,
          1.58707928e-002, 6.70549693e-004, -3.28514315e-002,
          -1.26485499e-002, -2.12111860e-004, 5.10441996e-002,
          3.17820720e-002, -3.72247882e-002, -2.62592863e-002,
          -2.39649345e-003, -5.04186004e-003, -2.96045579e-002,
          1.33693544e-003, 4.76691686e-003, -1.10176122e-002,
          -6.86399359e-003, 2.83719809e-003, -9.54363681e-003,
          -9.07103997e-003, 1.86952588e-003, -5.42673003e-003,
          -8.07493343e-004, 3.73463775e-003, -1.01190526e-002,
          -2.09115352e-002, -1.04267076e-002, -3.36948340e-003,
          1.56057067e-002, 1.46044726e-002, 7.23967096e-003,
          -1.11183571e-003, -2.28900067e-003, -3.18530039e-003,
          2.63892883e-003, -8.04167520e-003, -1.52668264e-002,
          9.71851312e-003, 5.82596241e-003, 2.02983571e-003,
          -7.66207185e-003, -2.84426450e-003, -1.20288609e-002,
          -1.64567847e-002, -1.36699481e-002, -1.03136878e-002,
          -7.15634087e-004, 1.16265556e-002, -1.17428739e-004,
          -1.44280437e-002, -5.88041404e-003, 3.43801384e-003,
          -2.32165009e-002, -5.39341802e-003, 6.76043658e-003,
          -3.77371063e-004, -1.35329133e-002, -2.72101425e-002,
          -1.41250417e-002, 2.71384064e-002, 2.06529181e-002,
          8.78706854e-003, -2.29090862e-002, -2.05288585e-002,
          -9.73116141e-003, -1.17177125e-002, -2.46460885e-002,
          -2.29166020e-002, 1.71537306e-002, 6.86890027e-003,
          -1.22022058e-003, -1.81674305e-002, -1.51253175e-002,
          -1.20816985e-002, -1.93027202e-002, -1.17615508e-002,
          -1.18458848e-002, -1.61206946e-002, -8.53910577e-003,
          6.19870098e-003, -5.54149272e-003, -5.05627040e-003,
          -9.64928325e-003, -2.70708390e-002, 1.81374408e-003,
          -4.48218873e-003, 2.29011319e-004, -7.61104573e-004,
          -2.53292769e-002, -2.64474396e-002, 2.67525055e-002,
          2.85734851e-002, 8.18851963e-003, -2.08697561e-002,
          -3.13930772e-003, 5.89240482e-003, -6.42844383e-003,
          -1.51830623e-002, -2.54791286e-002, 1.34597635e-002,
          1.55873932e-002, -2.24073045e-003, -7.83739891e-003,
          -3.82853020e-003, 1.06710347e-003, -3.06527852e-003,
          -2.57323263e-003, -1.43900774e-002, -8.14592838e-003,
          -1.82044401e-003, -5.24206413e-003, -1.81378142e-004,
          -1.96399749e-003, -2.05493663e-002, -4.42337021e-002,
          -3.70159745e-004, 4.62305173e-003, 1.02292059e-003,
          1.10877492e-003, -2.55814493e-002, -2.07945071e-002,
          3.73495594e-002, 4.50644568e-002, 7.85413105e-003,
          -1.33454958e-002, -4.52806335e-003, 2.53163697e-003,
          -1.28306122e-002, -2.25215666e-002, -1.15522733e-002,
          1.97794009e-002, 1.39483362e-002, -1.00111021e-002,
          -5.94468648e-003, 8.45413364e-004, 3.25900898e-003,
          -8.30440223e-003, -2.23031559e-004, -1.50276544e-002,
          -1.18615222e-003, -7.16439774e-003, -5.41492598e-003,
          -1.70857622e-003, 1.89539604e-002, 1.67918019e-003,
          -5.07257842e-002, -1.70199275e-002, 1.47805118e-003,
          1.07574752e-002, 1.94580443e-002, -1.27507849e-002,
          -2.23673917e-002, 2.26861965e-002, 5.44834323e-002,
          1.82099193e-002, -4.22855746e-003, 1.59077614e-003,
          -2.33498029e-003, -1.03336303e-002, -1.18282586e-002,
          -1.15458807e-002, 2.90627293e-002, 1.86186284e-002,
          -9.14634112e-003, -2.02031080e-002, 2.65911716e-004,
          8.08688067e-003, 1.12730078e-002, 1.31208627e-002,
          -1.85493936e-005, 3.21938517e-003, -5.75645920e-003,
          -1.01903202e-002, -1.18203843e-002, 1.76309850e-002,
          2.48794984e-002, -4.74947691e-002, -4.09247130e-002,
          -1.15242470e-002, -1.09880441e-003, 1.60784647e-002,
          3.72468174e-004, -8.44079629e-003, 8.40119086e-003,
          3.55123766e-002, 1.05199907e-002, 2.14924440e-002,
          1.77348014e-002, -3.52623849e-003, -1.94784421e-002,
          -7.22348108e-004, -4.25428897e-003, 1.73602235e-002,
          2.26187445e-002, -1.66413058e-002, -1.72186811e-002,
          1.59369141e-003, -4.83629992e-003, 1.28020637e-003,
          1.35672661e-002, -5.56161674e-003, 1.88093400e-003,
          -1.07711619e-002, -4.44637472e-003, -1.71971880e-002,
          4.48226146e-002, 3.93460393e-002, -4.47853878e-002,
          -4.24671620e-002, -1.29364859e-002, -1.06208539e-002,
          -1.64099981e-003, -6.38761371e-003, -7.15605263e-003,
          2.24372093e-002, 2.28867475e-002, -1.25881573e-002,
          1.97811704e-002, 1.71716791e-002, 5.28241554e-003,
          -3.31335678e-003, 1.66515633e-003, -5.25330380e-003,
          4.09890749e-002, 2.50997897e-002, -2.93410346e-002,
          -1.74537655e-002, 3.64942476e-003, -4.41961503e-003,
          1.41636201e-003, 1.17077492e-002, -2.12982506e-003,
          7.10771699e-003, -1.28257032e-002, -7.22805178e-003,
          -9.47493128e-003, -1.46008385e-002, 3.44842859e-003,
          -1.76033191e-003, -9.10913106e-003, -1.51180709e-002,
          -1.06374882e-002, -9.57819447e-003, -5.24563342e-003,
          -6.09086186e-004, 7.18540046e-003, 6.22306345e-003,
          -9.38898697e-003, -4.75271186e-003, 4.36642300e-003,
          1.09715052e-002, 6.79944584e-004, -9.80164390e-003,
          -1.63119491e-002, -9.18405037e-003, 8.33949016e-004,
          -5.68610569e-003, -9.90046747e-003, -6.99621113e-003,
          -2.61588697e-003, -5.86758507e-003, -2.06936393e-002,
          -1.57038718e-002, 3.96499922e-003, 1.96654792e-003,
          -1.31442547e-002, -1.22160427e-002, -6.62374869e-003,
          3.69104254e-003, -1.90309919e-002, -7.74980476e-003,
          -4.92827687e-003, 2.49631121e-003, 2.15327856e-003,
          -9.08220559e-003, -8.41026381e-003, 2.21974738e-002,
          1.23532433e-002, -3.80912446e-003, -1.42739126e-002,
          -2.83387117e-003, 1.26334524e-003, -6.32923562e-003,
          -1.95485335e-002, -1.69125292e-002, 1.15723368e-002,
          -7.79340684e-004, -7.54268980e-003, -8.65737721e-003,
          -6.08667312e-003, 2.52772495e-003, -1.37180765e-003,
          -2.43592984e-003, -7.66206300e-003, -1.39306206e-002,
          -6.27158070e-003, -9.27625317e-003, -1.23055764e-002,
          -4.85052308e-003, 4.38398356e-003, -1.81216169e-002,
          1.46135711e-003, -2.87367962e-003, -2.53369450e-003,
          3.80061683e-003, -1.30941691e-002, -2.63304971e-002,
          2.80361790e-002, 3.39283273e-002, -4.26374283e-003,
          -2.08910927e-002, 7.95087777e-003, 1.57483835e-002,
          4.49855905e-003, -1.76118761e-002, -3.11790034e-002,
          1.50119392e-002, 1.98900104e-002, -9.01133812e-004,
          -7.31898053e-003, 6.80233119e-003, 1.19961295e-002,
          1.15204826e-002, 8.16710573e-003, -5.23811672e-003,
          -2.80624907e-003, -7.06766779e-003, -7.58134993e-003,
          -7.44924864e-006, 5.89732965e-003, -7.75995525e-003,
          -2.90484037e-002, 5.90793975e-003, 3.33965477e-003,
          4.65661113e-004, 8.40168726e-003, -1.98198613e-002,
          -2.61438023e-002, 3.31928059e-002, 3.19646783e-002,
          -1.59520132e-003, -1.86823886e-002, 2.53357668e-003,
          9.51872673e-003, -4.73866751e-003, -2.22045574e-002,
          -1.78960226e-002, 2.09854133e-002, 9.49674472e-003,
          -6.19797222e-003, -5.20289456e-003, 6.58574700e-003,
          9.82404966e-003, 3.41595011e-003, 3.22534330e-003,
          -6.78303838e-003, 3.46728088e-003, -6.58226293e-003,
          -1.16172498e-002, 4.99674678e-003, 2.47923974e-002,
          6.10247161e-003, -3.55731510e-002, -4.24129888e-003,
          5.69378072e-003, -4.84019314e-004, 2.29457133e-002,
          -2.04504523e-002, -2.94125620e-002, 2.53765415e-002,
          4.66776006e-002, -1.00534614e-002, -1.71178952e-002,
          -1.98233640e-003, 5.63184003e-005, -1.63101200e-002,
          -2.20186803e-002, -1.33389318e-002, 2.06379388e-002,
          8.94038565e-003, -1.60198063e-002, -1.80745758e-002,
          3.26074776e-003, -9.31387243e-004, 1.08423615e-002,
          7.00380560e-003, 1.69520976e-003, -3.32561228e-003,
          -1.03707034e-002, -2.12804619e-002, -1.76311266e-002,
          1.29779018e-002, 2.64489036e-002, -2.58539207e-002,
          -1.43841915e-002, -2.75055738e-003, -7.15566939e-003,
          1.68068577e-002, -1.89482830e-002, -1.61197577e-002,
          2.55182385e-002, 3.13943326e-002, -2.91168038e-002,
          -2.24272739e-002, -7.80280493e-003, -7.25868251e-003,
          -1.42117338e-002, -2.59454325e-002, -1.72624588e-002,
          1.75243281e-002, 1.93323679e-002, -2.73455344e-002,
          -3.21467407e-002, -9.36964154e-003, -1.00171175e-002,
          2.84815091e-003, -7.19752302e-003, -4.76977741e-003,
          -1.17103532e-002, -1.95945241e-002, -2.43939478e-002,
          -3.13270763e-002, 3.52174677e-002, 3.70139256e-002,
          -2.46790238e-002, -1.98815502e-002, -1.81345008e-002,
          -1.56267788e-002, -7.67223351e-003, -2.59762872e-002,
          -1.52137214e-002, 2.45794971e-002, 3.86598073e-002,
          -2.66318899e-002, -1.81283429e-002, -1.07864942e-002,
          -2.99772178e-003, 2.36159400e-003, -3.07940785e-002,
          -3.02071720e-002, 3.19895148e-002, 3.92489433e-002,
          -2.65046749e-002, -3.34397852e-002, -2.53847688e-002,
          -1.51948454e-002, -3.73525545e-003, -8.88845604e-003,
          -1.08881053e-002, -1.42263547e-002, -1.48422690e-002,
          -1.18511450e-002, -1.36316689e-002, -1.14561049e-002,
          1.27007468e-002, 2.54629459e-003, 5.27810352e-003,
          4.30878345e-003, 8.99765175e-003, 2.23355877e-004,
          -1.02999052e-002, -6.04206976e-003, -3.56970890e-003,
          -1.43404454e-002, -2.54291017e-002, 1.16070779e-003,
          -1.77130906e-003, -6.52057212e-003, -5.74525259e-003,
          -2.11678818e-002, -2.72080526e-002, -1.36038503e-002,
          -7.83994608e-003, -1.71621572e-002, 4.69568651e-003,
          3.88011755e-003, 3.49862827e-003, -6.19317312e-003,
          -2.84010153e-002, -1.91192720e-002, 5.77187445e-003,
          6.18522242e-003, -1.72904544e-002, -2.23425776e-002,
          -1.39382351e-002, 8.75622407e-003, -6.69707591e-003,
          4.00674809e-003, 1.35775274e-002, 4.39404370e-003,
          -2.03550910e-003, -1.75471865e-002, -8.64167418e-003,
          2.24485062e-002, 7.47219939e-003, -1.41769229e-002,
          -7.50917057e-003, -1.25231510e-002, -5.95856644e-003,
          -1.28165260e-002, -3.24645825e-002, -3.26908752e-002,
          7.28169736e-003, -2.19997438e-003, -1.25549315e-002,
          -7.15707778e-004, 1.13989145e-003, -4.41960176e-004,
          -1.13681341e-002, -1.30538745e-002, 2.02589808e-003,
          -1.84041839e-002, -8.66723806e-003, -1.55165214e-002,
          -1.67931113e-002, -1.06526157e-002, 2.39658114e-002,
          -3.61598283e-003, 1.15800183e-004, 6.48524426e-003,
          3.88092338e-003, 8.91022477e-003, -2.35162098e-002,
          -3.25593241e-002, 1.28338998e-002, 1.55070226e-003,
          -2.00370532e-002, -5.84989693e-003, 8.71055480e-003,
          1.02118943e-002, -4.73080622e-003, -3.28042060e-002,
          -4.36507054e-002, -1.51540071e-003, 1.29325362e-002,
          -7.45759159e-003, 4.03314503e-003, 1.61462538e-002,
          1.17138615e-002, 4.19841660e-003, -1.09068155e-002,
          5.38781891e-003, -1.84600800e-002, -2.70521222e-003,
          -9.90875717e-003, -1.10765817e-002, 9.62304603e-003,
          9.04776063e-003, -1.88356619e-002, -5.51149063e-003,
          1.23642618e-002, 3.12248617e-003, 1.24512427e-002,
          -1.35643147e-002, -2.47388091e-002, 6.86729699e-003,
          1.01344376e-004, -4.35924111e-003, 5.71055291e-003,
          2.93050474e-003, 4.87488788e-003, 3.02097411e-004,
          -1.97518431e-002, -2.87424065e-002, 1.90159539e-003,
          1.83952041e-003, -8.66165571e-003, 7.55119463e-003,
          1.65869500e-002, 7.79020321e-003, 9.29243211e-003,
          -4.70808428e-003, 5.74844249e-004, -1.01623209e-002,
          4.58501512e-003, -8.16611852e-003, -6.32353732e-003,
          2.16666106e-002, 1.53240031e-002, -3.42967808e-002,
          -1.84885915e-002, 8.28538369e-003, 1.94472764e-002,
          1.82007067e-002, -2.78922115e-002, -4.21236455e-002,
          2.94126850e-003, 1.74726211e-002, -9.26836394e-003,
          -2.55426974e-003, 5.07417461e-003, 9.31278977e-004,
          -7.63005484e-003, -2.65869312e-002, -3.69086303e-002,
          2.78822822e-003, 3.61819193e-003, -2.24146210e-002,
          -1.31505402e-002, 8.43998510e-003, 1.77467037e-002,
          1.19107179e-002, -7.93975033e-003, 4.37628431e-003,
          -1.28836129e-002, -5.89739811e-003, -1.97555646e-002,
          -1.56504959e-002, 2.27726623e-002, 2.80630514e-002,
          -2.03814842e-002, -2.58928090e-002, -5.01239393e-003,
          1.30984047e-002, 2.67137159e-002, -2.04624552e-002,
          -2.95363776e-002, 1.01796072e-002, 2.62424648e-002,
          -1.76162068e-002, -1.01051452e-002, -3.79639538e-003,
          -2.36779032e-003, -2.00490421e-003, -2.87585296e-002,
          -2.96693109e-002, 9.11368709e-003, 1.69806052e-002,
          -1.56914331e-002, -2.23196819e-002, -4.09911014e-003,
          9.38702654e-003, 2.18122043e-002, -4.46890481e-003,
          1.82466081e-003, -1.50766782e-002, -3.73348966e-003,
          -2.06076484e-002, -1.38275502e-002, 3.92618440e-002,
          2.20884867e-002, -2.25881878e-002, -2.07793117e-002,
          -1.39413439e-002, -6.55864226e-003, 1.13509027e-002,
          -2.51583867e-002, -1.45958643e-002, 7.95327686e-003,
          1.16738072e-002, -1.39015047e-002, -2.40421202e-003,
          -6.98947301e-003, -2.14352412e-003, 1.08649256e-002,
          -3.50662880e-002, -2.54727434e-002, 1.11428611e-002,
          6.76070806e-003, -2.08151117e-002, -1.82831157e-002,
          -1.54503752e-002, -7.74808368e-003, 1.73282884e-002,
          3.95047059e-003, -4.08548489e-003, -1.64663624e-002,
          -1.18251787e-002, -1.25203580e-002, -1.70183536e-002,
          -2.27265414e-002, 1.96365658e-002, 1.00773396e-002,
          1.34928320e-002, 5.91950817e-003, 3.45994160e-003,
          -4.24204068e-003, 1.28886672e-002, 1.62692219e-002,
          -4.79363976e-003, -3.49265859e-002, -3.10631879e-002,
          5.33086108e-003, -3.24855512e-003, -1.05058518e-003,
          1.20913144e-003, -1.14017387e-003, -5.88133279e-003,
          -2.84773409e-002, -1.37345931e-002, -1.67534668e-002,
          1.15922876e-002, 1.91564832e-004, -2.74961628e-003,
          -5.23567665e-003, -2.12466288e-002, -2.68649943e-002,
          2.43776124e-002, 3.31966393e-003, -5.07017598e-004,
          -1.91789661e-002, -2.49079838e-002, 6.59158174e-003,
          3.48707964e-003, 1.90285034e-002, 1.99816674e-002,
          1.43332137e-002, 6.19073457e-004, -5.98582998e-003,
          8.11896287e-003, 1.38346581e-002, -1.63035877e-002,
          -2.57980283e-002, -1.28819793e-002, -1.36896232e-002,
          -6.68498687e-003, 1.29541091e-003, -1.09884283e-002,
          -2.23385319e-002, -1.60232950e-002, -1.52980471e-002,
          -1.06709125e-002, 6.33431366e-004, 4.76556271e-003,
          9.57726792e-004, -1.14634912e-003, -4.32469416e-003,
          -4.56324685e-003, -2.08271886e-004, -9.12238564e-003,
          3.13998736e-003, -1.72383357e-002, -1.75650064e-002,
          1.37431482e-002, 1.37407528e-002, 1.38470326e-002,
          1.75542794e-002, 2.19174530e-002, 1.83368605e-002,
          -2.53617056e-002, -2.26782430e-002, -4.45857039e-003,
          -2.13418845e-002, -2.65072770e-002, -1.53731965e-002,
          -8.65518209e-003, 2.11623334e-003, 1.05620865e-002,
          -1.15684792e-002, -3.42172571e-002, -2.34031342e-002,
          -1.43283438e-002, -4.81589843e-004, 4.26734053e-003,
          1.18839610e-002, 1.80741493e-002, 2.33201738e-002,
          -1.19527932e-002, 2.76250532e-003, -6.24184031e-003,
          -5.41391456e-003, -1.37345232e-002, -2.14695036e-002,
          -9.88616329e-003, 1.27479685e-002, 4.42934455e-003,
          1.20962188e-002, 1.99366733e-002, 3.37027460e-002,
          2.83945668e-002, -1.64384507e-002, -2.12459080e-002,
          -8.93493649e-003, -1.69528015e-002, -1.37048867e-002,
          -1.28423395e-002, -1.10789575e-002, -4.48803976e-003,
          5.01269009e-003, -2.21462324e-002, -3.63137759e-002,
          -2.18011029e-002, -1.51921425e-003, -9.20541398e-003,
          3.60015966e-003, 1.19991610e-002, 2.28266139e-002,
          2.96490900e-002, -1.26354648e-002, 6.65066205e-003,
          -1.31215416e-002, 2.86363903e-003, -9.94902011e-003,
          -1.86122246e-002, -2.05842406e-003, 1.51450429e-002,
          -6.48904545e-003, -4.78368392e-003, 4.90174489e-003,
          3.01935170e-002, 3.38568948e-002, -2.48214938e-002,
          -3.38255726e-002, -5.84793370e-003, -2.49268604e-003,
          -2.14137379e-002, -1.58856492e-002, -7.78495194e-003,
          -7.85473827e-003, 1.62625359e-003, -1.99769717e-002,
          -4.26060557e-002, -1.26251383e-002, 5.63139888e-003,
          -2.34610718e-002, -1.05772642e-002, 1.89485971e-003,
          1.81363020e-002, 3.02018039e-002, -1.62729099e-002,
          4.51959297e-003, -2.18176097e-002, -2.30059121e-003,
          -1.11263087e-002, -2.05051582e-002, 8.94868746e-003,
          1.36346705e-002, -9.59597342e-003, -3.49055568e-004,
          1.10884872e-003, 2.03943960e-002, 3.31961699e-002,
          -1.13581233e-002, -1.58815905e-002, -7.16265757e-003,
          -5.36424108e-003, -1.82330590e-002, -8.24269839e-003,
          -1.23953233e-002, -1.46368975e-002, 1.82397943e-003,
          -7.44744809e-003, -2.96969842e-002, 4.44797974e-004,
          1.93353854e-002, -1.73816923e-002, -5.82980108e-004,
          -3.10556544e-003, 4.88234730e-003, 3.48069258e-002,
          -7.09243538e-003, 9.17771272e-003, -2.44936068e-002,
          -3.86955147e-003, -3.99922067e-003, -5.19239716e-003,
          1.08249029e-002, -1.08537800e-003, -7.94505235e-003,
          5.42499591e-003, 7.91530311e-003, 2.71754037e-003,
          7.08972989e-003, -1.47217764e-002, -5.39201312e-004,
          -5.50217740e-003, -8.74867570e-003, -1.51555240e-002,
          -9.29328334e-003, -1.38879325e-002, -7.46181817e-004,
          1.09286625e-002, -1.06140841e-002, -1.42599884e-002,
          -2.28958583e-004, 1.22405495e-003, -1.69618223e-002,
          7.81864568e-004, -3.35100526e-003, 3.78476433e-003,
          2.01022942e-002, 6.63778512e-003, 1.36794513e-002,
          -3.04339286e-002, -9.64235328e-003 ]
   decision_functions:
      -
         sv_count: 1
         rho: -4.2318167090417302e-002
         alpha: [ 1. ]
