%YAML:1.0
opencv_ml_svm:
   format: 3
   svmType: EPS_SVR
   kernel:
      type: LINEAR
   C: 1.0000000000000000e-002
   p: 1.0000000000000001e-001
   term_criteria: { epsilon:1.0000000000000000e-003, iterations:1000 }
   var_count: 1302
   sv_total: 1
   support_vectors:
      - [ 3.06699201e-002, 3.55482250e-002, 2.48447154e-002,
          1.62083730e-002, 2.02160366e-002, -1.15452465e-002,
          1.58063527e-002, 4.69091572e-002, 6.31455109e-002,
          8.61051008e-002, 6.30207211e-002, -1.36536697e-003,
          -5.16076237e-002, -2.74772886e-002, -3.05141397e-002,
          -2.08239909e-002, 5.08123497e-003, 1.36951646e-002,
          9.40213278e-002, 8.01913068e-002, 1.69878248e-002,
          -3.45623903e-002, -1.00174034e-002, -3.52491327e-002,
          -1.61505619e-003, 4.86402288e-002, 6.42378852e-002,
          -1.26022315e-002, 3.86644527e-003, 6.70412406e-002,
          7.27045536e-002, 2.75916122e-002, 6.48527220e-003,
          -3.07668024e-003, 6.15031878e-003, 2.31763292e-002,
          6.27257256e-003, 1.05392300e-002, 4.31206226e-002,
          6.49365857e-002, 7.87902325e-002, 6.11319877e-002,
          -3.00614089e-002, -9.38760191e-002, -7.31612369e-002,
          -3.47643048e-002, -1.51275033e-002, -1.36468722e-003,
          2.08520424e-002, 8.86204317e-002, 5.98417483e-002,
          -3.18578593e-002, -8.86765495e-002, -5.82805499e-002,
          -2.83158198e-002, -2.63586105e-003, 3.76065597e-002,
          7.10724592e-002, -4.30889428e-002, -1.92337041e-003,
          2.72237062e-002, 6.38042986e-002, 6.10432699e-002,
          -2.71369591e-002, -1.70827806e-002, -5.53794671e-003,
          9.30265896e-003, 9.33351088e-003, 7.56798685e-003,
          4.53878827e-002, 7.63714612e-002, 9.54724774e-002,
          7.76339993e-002, -1.84780955e-002, -1.00839153e-001,
          -1.19208127e-001, -6.51692227e-002, -4.07064557e-002,
          -8.30553751e-003, 7.14665502e-002, 1.35848969e-001,
          4.51133661e-002, -2.93325819e-002, -1.04060039e-001,
          -1.10078260e-001, -5.70032485e-002, -2.94880681e-002,
          3.24501880e-002, 1.29553944e-001, -3.00480481e-002,
          1.70140788e-002, -8.50716513e-003, 4.56369892e-002,
          1.24773495e-001, -1.72237549e-002, -2.30009463e-002,
          -1.50294499e-002, -1.20171914e-002, -1.22556994e-002,
          -2.22562798e-004, 4.63722758e-002, 7.48827979e-002,
          7.79803693e-002, 4.95686568e-002, -2.74721580e-003,
          -7.59583786e-002, -8.75441805e-002, -7.64646456e-002,
          -7.27055892e-002, -4.18672375e-002, 9.54051241e-002,
          1.66225091e-001, 3.33206318e-002, -2.26652771e-002,
          -7.54665732e-002, -8.90747160e-002, -9.00470242e-002,
          -6.77781031e-002, 3.58448620e-003, 1.33578375e-001,
          1.09615074e-002, 4.76105101e-002, -4.50159498e-002,
          1.50321668e-003, 1.36264503e-001, 1.22322021e-002,
          -4.64378064e-003, -3.12885968e-003, 1.16152177e-003,
          -2.59301960e-002, -1.92286335e-002, 3.17916796e-002,
          5.24646044e-002, 5.66594712e-002, 3.12008690e-002,
          -2.22344045e-002, -6.74528703e-002, -6.10142052e-002,
          -7.61703178e-002, -6.13819659e-002, -3.84433866e-002,
          9.78033915e-002, 1.55120417e-001, 3.58253419e-002,
          -2.46976893e-002, -6.16655983e-002, -4.99442518e-002,
          -9.58961770e-002, -7.73086771e-002, -4.78419336e-003,
          1.16074577e-001, 3.61874551e-002, 3.73509191e-002,
          -3.99508066e-002, -1.47553151e-002, 9.28394943e-002,
          4.78854403e-002, 2.08022259e-002, 1.30759552e-002,
          2.50013415e-002, -1.30882086e-002, -8.07877351e-003,
          2.67734956e-002, 4.80727702e-002, 5.70731722e-002,
          5.94320372e-002, 2.55244821e-002, -2.44808141e-002,
          -2.57607047e-002, -6.03142343e-002, -3.93052474e-002,
          -1.89994890e-002, 6.72233254e-002, 1.11301705e-001,
          8.71203244e-002, 4.44994271e-002, -1.09350858e-002,
          4.83120466e-003, -6.45576641e-002, -3.90577540e-002,
          1.00562200e-002, 8.06661993e-002, 6.96451813e-002,
          5.87023757e-002, 6.38083741e-003, 3.71059938e-003,
          4.10088263e-002, 4.79984097e-002, 2.04381142e-002,
          -1.55613096e-002, -2.51189508e-002, -4.71318439e-002,
          -4.33689877e-002, -3.76489502e-003, 1.89567991e-002,
          7.05200657e-002, 6.26540035e-002, -1.35450941e-002,
          -3.54864560e-002, 1.38495658e-002, -2.29860237e-003,
          2.51216348e-003, 6.40404643e-003, 1.70756634e-002,
          7.31607601e-002, 7.89109692e-002, 4.25147219e-003,
          -3.87529023e-002, -5.07153058e-003, -4.53062020e-002,
          -3.82648036e-002, 3.06186266e-003, 2.86482405e-002,
          -4.21639495e-002, -1.59107205e-002, 4.59908471e-002,
          6.63615391e-002, 1.77111365e-002, 3.28083755e-003,
          -1.25685437e-002, -2.00094525e-002, -3.16059180e-002,
          -4.65617031e-002, -5.49204312e-002, -2.48174388e-002,
          -4.76096058e-003, 7.23916739e-002, 1.03334285e-001,
          -2.39608306e-002, -3.54522653e-002, 3.92178725e-003,
          -3.72263417e-003, -4.01662709e-003, 1.06557750e-003,
          2.70845667e-002, 6.46207780e-002, 6.49933293e-002,
          -2.79516876e-002, -5.15516922e-002, -2.30583027e-002,
          -4.95890342e-002, -5.64524010e-002, -2.21437961e-002,
          1.53152226e-002, -5.26970662e-002, -2.34312937e-002,
          1.07196597e-002, 4.95663881e-002, 3.37943733e-002,
          -6.71528205e-002, -5.73006719e-002, -2.71132179e-002,
          -2.54698228e-002, -3.58805098e-002, -5.83337247e-002,
          -5.11109829e-002, -3.07834018e-002, 6.03469089e-002,
          1.11381993e-001, -1.37134641e-002, -3.10902148e-002,
          -1.41652096e-002, -4.89789667e-003, -4.58615320e-003,
          8.68166704e-003, 9.45780948e-002, 8.51749852e-002,
          1.37063460e-002, -5.12978435e-002, -4.79130447e-002,
          -3.91256437e-002, -3.94774191e-002, -5.99508844e-002,
          -3.87864970e-002, 5.62160499e-002, -4.02337499e-002,
          -7.76476972e-003, -1.89606454e-002, 1.37781417e-002,
          8.56828615e-002, -7.73081258e-002, -7.73585588e-002,
          -3.88233475e-002, -2.83763371e-002, -1.96907800e-002,
          -2.81660054e-002, -6.64943270e-003, 1.81195457e-002,
          4.19984125e-002, 2.55129579e-002, -1.92621611e-002,
          -2.86241714e-002, -2.75210128e-003, -6.41674874e-003,
          -1.27065163e-002, -1.66444518e-002, 1.11654870e-001,
          1.01485863e-001, -5.23998663e-002, -8.59824196e-002,
          -5.38517423e-002, -2.79990025e-002, -2.78781038e-002,
          -3.89312282e-002, -2.09540278e-002, 1.09078676e-001,
          5.40227350e-003, 3.22607830e-002, -5.12303971e-002,
          -2.40551345e-002, 9.26906690e-002, -6.83943257e-002,
          -5.86372875e-002, -3.34027261e-002, -2.38654129e-002,
          -2.88754720e-002, -3.71804163e-002, -1.29557224e-002,
          1.84323657e-002, 3.33279669e-002, 2.32083839e-003,
          -3.97907458e-002, -5.39574400e-002, -5.17370133e-003,
          -4.86493716e-003, 1.13157472e-002, 5.47514437e-003,
          1.23209082e-001, 9.77720842e-002, -6.21694028e-002,
          -8.63894820e-002, -7.45211691e-002, -1.81647893e-002,
          -3.41226421e-002, -2.45862231e-002, -6.91676792e-003,
          1.04449153e-001, 2.46343780e-002, 3.90229598e-002,
          -6.14613518e-002, -4.00618427e-002, 6.21444508e-002,
          -1.08896662e-002, -8.56736675e-003, -6.41374802e-003,
          -1.09592977e-003, -2.24918202e-002, -1.49675757e-002,
          4.42746468e-003, 1.27893137e-002, 3.45814861e-002,
          4.57283258e-002, 2.73922067e-002, -1.73893292e-002,
          7.26747839e-003, -4.76739695e-003, 1.53508177e-002,
          2.88598202e-002, 8.31532702e-002, 7.47941211e-002,
          2.55352650e-002, 2.30855085e-002, -2.09556744e-002,
          1.21896910e-002, -2.98182182e-002, 2.10765214e-003,
          2.91510560e-002, 7.25820884e-002, 5.13206460e-002,
          6.69882298e-002, -9.06371325e-003, 1.58654142e-003,
          4.60715182e-002, 6.36238232e-002, 1.62739102e-002,
          -1.95203684e-002, -3.39207016e-002, -4.87345457e-002,
          -4.63817902e-002, -1.38474489e-002, 9.73772909e-003,
          5.85368648e-002, 8.16504657e-002, -7.49758165e-003,
          -2.15677880e-002, -9.71853588e-005, -2.74619367e-003,
          2.52952613e-003, 8.47962406e-003, 2.74693426e-002,
          5.92132583e-002, 9.06802937e-002, 1.02339769e-002,
          -3.48356850e-002, -3.02074403e-002, -4.73686904e-002,
          -3.99822332e-002, -3.01031140e-003, 2.46941429e-002,
          -4.50188480e-002, -1.67751648e-002, 3.84760983e-002,
          7.99138248e-002, 1.61593640e-003, 2.15735976e-002,
          -9.91086662e-003, -2.64385492e-002, -2.79987212e-002,
          -2.61738114e-002, -2.54594274e-002, -1.87708642e-002,
          1.60635598e-002, 4.67141196e-002, 1.21178925e-001,
          -2.18187813e-002, -3.26131508e-002, -2.65999343e-002,
          -2.23378353e-002, -1.93463489e-002, -8.99529085e-003,
          3.70360427e-002, 3.41148227e-002, 7.08623976e-002,
          -2.62792204e-002, -5.10878712e-002, -4.77908291e-002,
          -4.58456464e-002, -4.23501730e-002, -2.59897560e-002,
          3.74329276e-002, -3.44308689e-002, -2.76566800e-002,
          7.49947596e-003, 4.40846235e-002, 1.09105045e-002,
          -4.52370681e-002, -5.54585047e-002, -3.77334096e-002,
          -2.56361663e-002, -1.28886942e-002, -2.21576411e-002,
          -3.15129533e-002, -1.19904671e-002, -1.23744337e-002,
          1.08282574e-001, -2.24601459e-002, -3.65136862e-002,
          -4.15403545e-002, -3.44613157e-002, -2.83552278e-002,
          -1.21768834e-002, 1.06684282e-001, -1.32304756e-003,
          -4.11709677e-003, -6.83562830e-002, -6.67222291e-002,
          -6.07476979e-002, -4.40120585e-002, -4.88557108e-002,
          -4.17916067e-002, 6.93100914e-002, -3.43189649e-002,
          -3.21710259e-002, -1.99263655e-002, -1.00413179e-002,
          3.88632342e-002, -9.15719569e-002, -7.61156231e-002,
          -4.09065261e-002, -3.09797414e-002, -1.86415520e-002,
          -2.56405249e-002, -1.46990037e-002, 3.98631655e-002,
          -7.12473085e-003, 2.19823718e-002, -1.56928953e-002,
          -2.55533233e-002, -3.07556521e-002, -2.72180401e-002,
          -2.23609693e-002, -4.61842492e-003, 1.39426440e-001,
          3.06490175e-002, -8.07620734e-002, -8.76725093e-002,
          -5.99792711e-002, -5.45103624e-002, -4.42217849e-002,
          -4.62358482e-002, -1.48870358e-002, 1.44967809e-001,
          -9.43061989e-003, 8.40616226e-003, -4.66963425e-002,
          -4.26672027e-002, 5.64372465e-002, -9.09586847e-002,
          -6.15166500e-002, -3.33512239e-002, -2.00249646e-002,
          -2.38608886e-002, -2.68860087e-002, -2.24558804e-002,
          2.18053404e-002, -7.92403531e-004, -8.20716470e-003,
          -1.34155378e-002, -2.40336675e-002, -1.67661123e-002,
          -1.88970305e-002, -5.12888003e-003, 3.18130590e-002,
          1.51338488e-001, 4.09150310e-002, -9.28480178e-002,
          -6.44193590e-002, -4.96899374e-002, -2.76568141e-002,
          -3.88591588e-002, -3.14717703e-002, 1.04184262e-002,
          1.21962592e-001, 1.51414610e-002, 4.09910753e-002,
          -6.04039058e-002, -4.51789461e-002, 5.90196028e-002,
          -2.48134490e-002, -6.58457354e-003, -1.45800933e-002,
          -6.75458089e-003, -2.69207545e-002, -6.55548740e-003,
          1.06531642e-002, 4.23302688e-003, 2.59534665e-003,
          2.64134351e-002, 2.62312051e-002, -1.13059599e-002,
          1.20320113e-003, -1.18092969e-002, 1.15092751e-002,
          6.25492930e-002, 1.27283320e-001, 6.09979331e-002,
          -2.07616645e-003, 2.92658787e-002, -1.88406110e-002,
          6.99986052e-003, -3.33045088e-002, 7.00468151e-003,
          6.50626644e-002, 1.04897842e-001, 3.15705426e-002,
          7.78344497e-002, -1.37011753e-002, 9.11983009e-003,
          2.53223628e-002, 8.44663233e-002, 2.84706727e-002,
          -1.96723510e-002, -3.55551988e-002, -2.56143827e-002,
          -1.48571711e-002, -7.57423695e-003, 5.31921163e-003,
          9.91582684e-003, 8.57052132e-002, -2.08972227e-002,
          -4.72218208e-002, -1.18015045e-002, -6.92937151e-003,
          -1.29058445e-003, 1.34629216e-002, 1.76209863e-002,
          2.41688620e-002, 8.61476734e-002, 1.53011112e-002,
          -4.92918715e-002, -3.86085324e-002, -2.99414769e-002,
          -1.42377606e-002, 6.08999282e-003, 1.51674245e-002,
          -3.20048667e-002, -2.97690984e-002, 3.39857638e-002,
          6.49673715e-002, -2.86568590e-002, 6.84943870e-002,
          1.86513346e-002, -3.17831077e-002, -5.13983108e-002,
          -3.38679068e-002, -2.38930602e-002, -1.65583268e-002,
          5.65114096e-002, 3.34925181e-003, 9.71620083e-002,
          -6.26355484e-002, -8.14229026e-002, -3.55790518e-002,
          -1.93070192e-002, -1.62747782e-002, -9.18000098e-003,
          1.24237556e-002, -1.42803509e-003, 7.84904212e-002,
          -3.24006937e-002, -9.47546661e-002, -7.32520372e-002,
          -5.03340848e-002, -3.84799466e-002, -2.46837437e-002,
          5.72198406e-002, -3.74950804e-002, -3.91505286e-002,
          -1.37175573e-003, 5.43839019e-003, -1.40217124e-002,
          1.01494342e-002, -2.78357230e-002, -4.47869748e-002,
          -5.32064587e-002, -3.47992890e-002, -3.41445580e-002,
          -2.78919712e-002, 5.85969985e-002, -2.74230633e-002,
          7.12580979e-002, -6.77369609e-002, -8.27924460e-002,
          -4.75640148e-002, -3.27996500e-002, -2.72061136e-002,
          -1.78494398e-002, 7.84479827e-002, -2.97281109e-002,
          5.06511860e-005, -8.15127417e-002, -1.07702613e-001,
          -8.91836211e-002, -6.20568618e-002, -5.92001490e-002,
          -4.07011881e-002, 9.40270051e-002, -3.95859778e-002,
          -4.25230004e-002, -3.57971527e-002, -3.36988755e-002,
          -2.63563055e-003, -6.73418567e-002, -5.34410998e-002,
          -3.90988775e-002, -4.49909493e-002, -2.48769037e-002,
          -3.25315110e-002, -2.54100803e-002, 8.61183703e-002,
          -2.16235034e-002, 6.65454799e-003, -3.93087156e-002,
          -3.67619917e-002, -4.83703576e-002, -3.80727462e-002,
          -2.83088926e-002, -1.05513656e-003, 1.40698895e-001,
          -3.67116765e-003, -7.09142238e-002, -8.87583718e-002,
          -7.06585720e-002, -7.95392767e-002, -5.74198700e-002,
          -5.81716485e-002, -2.31987275e-002, 1.75006256e-001,
          -2.54941490e-002, -1.03493091e-002, -4.58289348e-002,
          -4.57736365e-002, -9.47635213e-004, -9.37010869e-002,
          -5.92143573e-002, -4.01036106e-002, -2.54411232e-002,
          -1.17315305e-002, -1.23984776e-002, -7.50054792e-003,
          6.43646568e-002, -1.92155037e-002, -2.65886709e-002,
          -1.49675142e-002, -2.22855974e-002, -4.09470461e-002,
          -4.37606052e-002, -5.28701302e-003, 5.41090369e-002,
          1.62720069e-001, -1.20330490e-002, -1.05997838e-001,
          -6.13465458e-002, -5.47255911e-002, -5.01094945e-002,
          -4.78672571e-002, -1.79057717e-002, 4.40705009e-002,
          1.62809491e-001, -1.00663751e-002, 3.81985046e-002,
          -5.49043156e-002, -4.05892543e-002, 2.40650214e-002,
          -3.41139883e-002, -7.77984457e-003, -2.15385910e-002,
          -9.28572472e-003, -1.09911049e-002, -1.04074436e-003,
          1.80534106e-002, 1.86224114e-002, -1.54228732e-002,
          1.11871138e-002, 1.01998970e-002, -1.85437482e-002,
          -2.49126162e-002, -3.78600843e-002, 7.50056468e-003,
          9.01143476e-002, 1.57279402e-001, 2.70083323e-002,
          -2.56399047e-002, 5.63303055e-003, -3.28546949e-002,
          -2.17315294e-002, -4.25648838e-002, 4.44875797e-003,
          9.69148874e-002, 1.40468955e-001, -1.59949833e-003,
          7.66691938e-002, -2.27296930e-002, 2.09781863e-002,
          2.59866677e-002, 9.37562808e-002, 2.32546050e-002,
          -2.14394033e-002, -4.17810343e-002, -1.64455958e-002,
          -8.88504740e-003, -7.43880461e-004, -1.13682849e-002,
          -4.09946255e-002, 8.54116678e-002, 3.59027484e-003,
          -3.84338573e-002, -2.48803105e-002, -9.73192602e-003,
          2.75215111e-003, 6.60196878e-003, 1.88441649e-002,
          5.85417620e-005, 8.07152316e-002, 3.68281156e-002,
          -4.40609157e-002, -5.14793545e-002, -2.09396686e-002,
          -4.88827191e-003, 6.71600550e-003, 1.72275899e-003,
          -3.35221104e-002, -2.44456455e-002, 2.75412388e-002,
          5.18723056e-002, -2.00058036e-002, 7.13018551e-002,
          -1.27556128e-002, -4.30691540e-002, -4.56067733e-002,
          -1.81107651e-002, -1.66191719e-002, -6.75013429e-003,
          4.73906882e-002, -4.87952754e-002, 9.47335660e-002,
          -3.50008383e-002, -7.50524998e-002, -4.89347987e-002,
          -2.21983716e-002, 2.51204427e-003, -4.32970934e-003,
          5.75462915e-003, -2.99362056e-002, 6.36697561e-002,
          -9.30999219e-003, -8.99412408e-002, -8.30478519e-002,
          -3.64465751e-002, -1.26587003e-002, -8.41565896e-003,
          4.44199257e-002, -3.29444110e-002, -3.85336690e-002,
          -1.31909614e-002, 1.92131149e-003, -7.06114061e-003,
          3.80640514e-002, -4.50773612e-002, -7.76290148e-002,
          -7.00927675e-002, -2.02669371e-002, -2.44506374e-002,
          -2.94657028e-003, 9.19852704e-002, -6.35441542e-002,
          5.36181964e-002, -3.79446186e-002, -7.22950846e-002,
          -5.89130223e-002, -3.51814143e-002, -1.01172738e-002,
          -7.59581383e-003, 5.22853434e-002, -5.16668744e-002,
          1.03489757e-002, -6.53543100e-002, -1.14074163e-001,
          -1.08761564e-001, -5.26104383e-002, -3.29452828e-002,
          -9.96154826e-003, 9.58743766e-002, -3.34875956e-002,
          -3.97521146e-002, -3.22758965e-002, -3.45670097e-002,
          -3.62141915e-002, -5.04749194e-002, -4.98148277e-002,
          -5.13360016e-002, -4.79756072e-002, -1.39604518e-002,
          -2.43333559e-002, 4.77614021e-003, 1.05932698e-001,
          -6.36592135e-002, -1.24812368e-002, -2.95168776e-002,
          -3.63183320e-002, -4.02264521e-002, -3.49930599e-002,
          -5.43526327e-003, 2.40481049e-002, 1.10584415e-001,
          -6.45727143e-002, -7.41578043e-002, -7.57532269e-002,
          -7.63666034e-002, -6.90504909e-002, -4.65282835e-002,
          -2.67557167e-002, 2.50399411e-002, 1.58589378e-001,
          -3.74467559e-002, -1.73184574e-002, -2.96281781e-002,
          -3.41158323e-002, -6.34537861e-002, -8.62012729e-002,
          -4.78118844e-002, -3.26745026e-002, -4.78634099e-003,
          4.58219554e-003, -3.57041955e-002, -3.22164060e-003,
          8.18829611e-002, -5.39987311e-002, -4.56580743e-002,
          -1.24837775e-002, -1.87570713e-002, -3.99308614e-002,
          -3.56369987e-002, 2.46748552e-002, 7.82046914e-002,
          1.18138120e-001, -8.27528685e-002, -1.20076530e-001,
          -5.55481315e-002, -4.61174063e-002, -3.31945606e-002,
          -1.80666205e-002, -7.55722215e-003, 6.84716329e-002,
          1.38557389e-001, -3.08976378e-002, 2.15918608e-002,
          -4.55501825e-002, -2.66190805e-002, -4.21067476e-002,
          -5.36717996e-002, -4.89351666e-003, -1.85878910e-002,
          1.26004936e-002, 2.00799871e-002, -1.66538563e-002,
          3.10876523e-004, 4.56495024e-003, -3.53354551e-002,
          -1.55942142e-002, -3.32912849e-003, -1.94167718e-002,
          -3.46158557e-002, -5.98134426e-003, 4.63221595e-002,
          1.10687003e-001, 1.14810780e-001, -4.43219543e-002,
          -6.00299351e-002, -6.56797830e-003, -3.41514200e-002,
          -6.13867911e-003, 2.22020224e-003, 3.20820734e-002,
          9.78872031e-002, 9.33509693e-002, -7.11635174e-003,
          5.17800003e-002, -3.34548280e-002, 1.66931842e-002,
          3.68874986e-003, 8.65432471e-002, 4.92146760e-002,
          1.67856291e-002, 3.66740208e-003, 5.03550358e-002,
          2.51383930e-002, -8.47667549e-003, -1.47722391e-002,
          -6.62651807e-002, 5.12866788e-002, 1.69604644e-002,
          -3.79162580e-002, -4.45371754e-002, -1.86177697e-002,
          1.31213311e-002, 2.89470190e-003, 1.12002133e-003,
          -4.00527976e-002, 5.19228093e-002, 6.56168610e-002,
          -8.41790345e-003, -2.63441931e-002, 3.22271287e-002,
          3.66428234e-002, -3.48116457e-003, -1.49367005e-002,
          -1.60147659e-002, -2.05341317e-002, 3.96268256e-002,
          5.82941212e-002, -4.44326475e-002, 5.62374890e-002,
          1.45618024e-003, -1.05783902e-002, -1.41330715e-002,
          3.14246081e-002, 1.96408015e-003, -8.85582063e-003,
          4.44286242e-002, -7.30186701e-002, 5.79418130e-002,
          -8.61417968e-003, -4.68382575e-002, -5.21049686e-002,
          -2.82192901e-002, 1.50584057e-002, -5.85821318e-003,
          -2.87404377e-002, -8.05151835e-002, 3.40747796e-002,
          2.04576869e-002, -3.23894173e-002, -5.03590442e-002,
          7.22289225e-003, 1.83975007e-002, -1.31640034e-002,
          1.07909795e-002, -3.27974348e-003, -3.73423249e-002,
          -7.71020586e-003, -4.88065230e-003, -1.32012162e-002,
          5.09515628e-002, -1.30189732e-002, -4.12867405e-002,
          -4.39237654e-002, 8.76717363e-003, -2.75360281e-003,
          3.13757993e-002, 1.25058636e-001, -6.79856539e-002,
          -1.22113116e-002, -5.43357320e-002, -7.86145106e-002,
          -5.87090738e-002, -3.45142074e-002, 8.79559480e-003,
          -5.77881839e-003, 1.81828719e-002, -6.35221973e-002,
          -2.19995845e-002, -5.26891090e-002, -9.36196148e-002,
          -8.72696266e-002, -2.63994560e-002, 5.19239018e-003,
          2.36766674e-002, 9.71815288e-002, -6.69771573e-003,
          -4.00230102e-002, -5.84319560e-003, -3.37974839e-002,
          -4.37927134e-002, -2.08309367e-002, -2.70471014e-002,
          -3.95913422e-002, -3.25557217e-002, 7.71700311e-003,
          1.51198148e-003, 4.21685055e-002, 1.38161913e-001,
          -8.22634175e-002, -8.49374607e-002, -7.81199634e-002,
          -6.49327487e-002, -4.54718173e-002, -3.04106232e-002,
          1.18931653e-002, 2.53973696e-002, 5.25789820e-002,
          -1.00253135e-001, -1.13289408e-001, -9.74055901e-002,
          -9.42689329e-002, -7.23870918e-002, -2.50657257e-002,
          8.39654077e-003, 6.17479235e-002, 1.37864828e-001,
          -2.93105226e-002, -4.34009805e-002, -1.19989039e-002,
          -4.28150520e-002, -7.19172955e-002, -4.36530747e-002,
          -1.56539120e-002, -1.67826936e-002, 1.27959456e-002,
          2.66335364e-002, 2.82554631e-003, 2.16493811e-002,
          7.92421624e-002, -8.16002488e-002, -8.63177255e-002,
          -3.96324173e-002, -3.40132266e-002, -3.60567234e-002,
          -8.65568221e-003, 3.79384086e-002, 3.96924987e-002,
          3.95561680e-002, -1.28950417e-001, -1.22558691e-001,
          -5.45865446e-002, -4.64921482e-002, -1.88263487e-002,
          1.23991370e-002, 3.01075019e-002, 5.29466905e-002,
          6.74540475e-002, -4.44410462e-003, -1.55684594e-002,
          -2.43877135e-002, -3.75994444e-002, -5.62961809e-002,
          -2.72201598e-002, 2.52332445e-002, 2.43648328e-002,
          4.36969474e-002, 4.02922779e-002, 1.06247980e-002,
          2.14019581e-003, -1.25763749e-004, -5.47563806e-002,
          -4.37233970e-002, -1.75724253e-002, -2.47050934e-002,
          -2.00334974e-002, 2.77074613e-002, 6.47672340e-002,
          4.27500568e-002, 3.85646336e-002, -8.39370489e-002,
          -6.00843392e-002, 4.84475214e-003, -2.53415294e-003,
          2.86780614e-002, 5.66066206e-002, 6.35314807e-002,
          3.65441702e-002, 1.81418061e-002, 4.50298823e-002,
          1.59827862e-002, -8.68850295e-003, -1.66350491e-002,
          1.69920791e-002, 7.17987493e-002, 6.03364632e-002,
          1.81299751e-003, 1.60273686e-002, 8.21658745e-002,
          2.29436364e-002, -3.76259387e-002, -4.58560474e-002,
          -8.02007988e-002, 9.88575723e-003, 5.08039109e-002,
          4.18513687e-003, -5.25722206e-002, -3.08466405e-002,
          6.62353123e-003, -6.04844000e-003, -1.09575118e-003,
          -5.24248928e-002, 3.95559072e-002, 8.30188394e-002,
          1.78709142e-002, -1.46839535e-002, 4.76569347e-002,
          2.48797387e-002, -4.02308851e-002, -4.74380404e-002,
          1.74974371e-002, -4.44045141e-002, 5.04337996e-002,
          1.85832791e-002, -1.83592997e-002, 5.34806810e-002,
          3.48776430e-002, -1.57040209e-002, -3.73285357e-003,
          6.57327250e-002, 8.92593991e-003, -1.94694344e-002,
          1.87652819e-002, -5.52701205e-002, 2.84540616e-002,
          2.90547889e-002, -3.51187475e-002, -8.66210014e-002,
          -6.59102276e-002, -6.13370212e-003, -2.28029154e-002,
          -3.06958277e-002, -5.70157245e-002, 4.05414924e-002,
          6.46377131e-002, -1.68553721e-002, -6.19665794e-002,
          -2.21992959e-003, 9.02321015e-004, -3.99832316e-002,
          -1.27568310e-002, 3.34741175e-002, -5.33132181e-002,
          8.23076256e-003, -4.52081002e-002, 1.37872584e-002,
          5.41623756e-002, -7.83786178e-004, -6.26842901e-002,
          -3.75259630e-002, 3.14200670e-002, 1.78158469e-002,
          4.60109003e-002, 1.11993335e-001, -9.97208897e-003,
          -2.67592631e-003, -4.26826589e-002, -8.18417668e-002,
          -8.74179900e-002, -6.20609187e-002, -2.45944667e-003,
          -2.33194395e-003, 2.06443127e-002, 1.24465134e-002,
          2.32193638e-002, -1.66759510e-002, -7.10868686e-002,
          -9.36083868e-002, -3.15695554e-002, 1.12272603e-002,
          3.91755290e-002, 9.85408425e-002, 3.10492534e-002,
          -5.76154813e-002, 3.20210643e-002, -5.09933457e-002,
          -1.21055571e-002, 8.29609390e-003, -1.65047590e-002,
          -6.18579313e-002, -4.22992334e-002, 1.10772057e-002,
          1.12601733e-002, 2.42682863e-002, 8.57382491e-002,
          -9.84865334e-003, -3.58973779e-002, -6.10089079e-002,
          -6.45132586e-002, -7.13288262e-002, -7.61172473e-002,
          -5.22004347e-003, 2.99925059e-002, 5.61409518e-002,
          -1.20076509e-002, -2.51757149e-002, -6.48811162e-002,
          -8.84634331e-002, -9.24511775e-002, -6.55699372e-002,
          -4.77690157e-003, 4.30422127e-002, 1.00604087e-001,
          4.81249020e-003, -7.41896853e-002, 2.32043713e-002,
          -6.22153915e-002, -1.15995919e-002, -1.19774248e-002,
          8.97891761e-004, -3.63155082e-003, 1.07640093e-002,
          3.69424634e-002, 2.96391472e-002, 3.11886817e-002,
          4.32852954e-002, -5.35794161e-002, -7.67406151e-002,
          -6.07838184e-002, -5.20664193e-002, -7.67632648e-002,
          -6.71373978e-002, 8.35919473e-003, 3.99839133e-002,
          5.43482602e-002, -5.72590940e-002, -7.84252286e-002,
          -5.57921343e-002, -4.59065288e-002, -5.20857349e-002,
          -3.15144025e-002, 2.39140019e-002, 5.90559691e-002,
          6.67745993e-002, 9.68212169e-003, -3.41969877e-002,
          1.24511756e-002, -6.28279299e-002, -1.63186025e-002,
          -2.32720004e-006, 1.80263501e-002, -8.40008201e-004,
          1.54943159e-002, 5.09335622e-002, 5.52286766e-002,
          4.61876430e-002, 2.07917113e-002, -3.63602787e-002,
          -4.58777547e-002, -2.90721562e-002, -2.80667115e-002,
          -8.20926577e-002, -7.20391273e-002, -5.32012340e-003,
          2.17313282e-002, 3.54206711e-002, -3.98473851e-002,
          -3.46790589e-002, -1.44671067e-003, -2.68989019e-002,
          -4.02056798e-002, -2.27168836e-002, 3.37130465e-002,
          5.31353764e-002, 3.73119488e-002, 2.73822956e-002,
          9.60765034e-003, -1.08407056e-002, -5.07447645e-002 ]
   decision_functions:
      -
         sv_count: 1
         rho: 7.4551572795990961e-001
         alpha: [ 1. ]
