%YAML:1.0
opencv_ml_svm:
   format: 3
   svmType: EPS_SVR
   kernel:
      type: LINEAR
   C: 1.0000000000000000e-002
   p: 1.0000000000000001e-001
   term_criteria: { epsilon:1.0000000000000000e-003, iterations:1000 }
   var_count: 1085
   sv_total: 1
   support_vectors:
      - [ -2.70950701e-003, 4.51341388e-004, 1.22520770e-003,
          4.83886898e-003, 3.03067863e-002, 2.10297052e-002,
          1.84746888e-002, 9.78721306e-003, 4.18679463e-003,
          1.15885190e-003, -1.83712633e-003, -1.19657824e-002,
          -1.11611122e-002, -3.27310408e-003, -1.70956715e-003,
          -2.53255060e-003, -5.18346811e-003, -9.22918227e-003,
          -5.59676031e-004, -2.45228206e-004, -9.42684896e-003,
          -5.32515533e-003, 5.62416250e-003, 1.38996039e-002,
          1.53102363e-002, 5.71032055e-003, -3.33964685e-003,
          4.87397192e-003, -1.09228004e-005, 1.19372727e-002,
          2.93156784e-003, -1.16230454e-002, -1.55956030e-003,
          7.79666952e-005, 6.81985519e-004, 1.95674505e-002,
          1.46842347e-002, 1.41033391e-002, 6.32389495e-003,
          5.63721312e-003, 2.07123091e-003, 7.24075770e-004,
          -5.41540468e-003, -1.02353683e-002, -1.64141972e-002,
          -9.30569880e-003, -7.75866257e-003, -2.65895459e-003,
          -1.56797413e-002, -9.02702659e-003, -7.92382052e-005,
          -4.07811720e-003, -7.66217848e-003, -5.79335447e-003,
          2.29614996e-003, 7.05825072e-003, 3.98985157e-003,
          -9.05194972e-003, -6.43061055e-003, -6.55350555e-003,
          5.11566689e-003, -4.12850713e-005, -1.67907178e-002,
          -9.44862422e-003, -5.96070150e-003, -2.15179473e-003,
          7.69438408e-003, 3.94730875e-003, 4.80355462e-003,
          2.00574938e-003, 3.67643265e-003, 3.19841056e-004,
          1.67044834e-003, -1.15560438e-003, -4.99550160e-003,
          -1.67032685e-002, -1.50033087e-002, -1.22425221e-002,
          2.11524707e-003, -1.44121852e-002, -1.50820548e-002,
          -5.11869881e-003, -4.11384320e-003, -5.79848140e-003,
          -1.40177449e-002, -1.08019141e-002, -6.43482432e-003,
          4.40618349e-003, -1.01119364e-002, -1.22715347e-002,
          -1.17280064e-002, -4.99702105e-003, -5.24181454e-003,
          -3.44617129e-003, -1.68971135e-003, -1.48264179e-003,
          1.82430469e-003, 4.84524295e-003, -5.11554535e-003,
          -7.35423900e-003, -4.77215461e-003, -8.77903483e-004,
          -3.82542890e-003, -1.47990789e-003, -4.01212089e-003,
          -1.01828221e-002, -1.82224512e-002, -1.19625796e-002,
          -2.96927430e-003, 1.83421541e-002, 2.40077963e-003,
          -5.22163697e-003, -1.70423347e-003, -4.85995645e-003,
          -7.57487630e-003, -1.43136783e-002, -1.56762451e-002,
          -9.63508897e-003, 1.30293099e-002, 1.18824188e-003,
          -3.99586000e-003, 1.94569200e-003, -1.11547830e-002,
          -1.03558423e-002, 3.35065136e-003, 7.91367609e-003,
          6.64543780e-003, 1.13033354e-002, 2.13030092e-002,
          1.28516427e-003, -6.96917856e-003, -9.27400496e-003,
          -1.00313248e-002, -9.99716669e-003, -1.06219435e-002,
          -1.06246741e-002, -1.59938280e-002, -1.07752066e-002,
          -2.37809159e-002, -1.33426627e-002, 1.38417510e-002,
          6.13184646e-003, -4.49674763e-003, -1.78070902e-003,
          -3.36897606e-003, -5.21345437e-003, -4.44975123e-003,
          -2.17972044e-002, -1.75431650e-002, 5.59228659e-003,
          -3.27104819e-003, 2.71533895e-003, 4.98481141e-003,
          -1.67103391e-002, -1.43882362e-002, -1.17849174e-003,
          3.87325388e-004, 4.99894493e-004, 4.03738627e-003,
          1.64586734e-002, 1.19824056e-003, 4.20965906e-003,
          1.49695447e-003, 3.63802281e-003, 7.34465336e-003,
          -5.48381242e-004, -8.37774761e-003, -1.05737115e-003,
          5.25070122e-003, 1.60374143e-003, 6.89182524e-003,
          4.98640770e-003, -3.59300920e-003, 4.49911971e-003,
          -9.70977417e-004, -6.86644390e-003, 2.63084192e-003,
          8.52643605e-003, 5.21922065e-003, 9.23449174e-003,
          6.39763800e-003, 8.74657009e-004, -1.25703533e-004,
          2.33080515e-004, 1.40916249e-002, 6.18833443e-003,
          -1.12206079e-002, -1.12726418e-002, -9.15721059e-003,
          -3.14785074e-003, 6.07455289e-003, 2.72541214e-003,
          6.13432517e-003, 2.50238855e-003, 1.45051973e-002,
          1.39085259e-002, 8.26530904e-003, -4.52337926e-003,
          -3.62224411e-003, -3.54756624e-003, -2.05048267e-003,
          1.20454072e-003, 5.68884565e-003, -1.10643646e-002,
          -1.96486572e-003, -2.58294120e-003, -7.16850813e-003,
          -4.77157673e-003, 9.83217706e-006, 1.20460731e-003,
          6.94515603e-003, 7.76784960e-003, 3.65584181e-003,
          -8.72459635e-003, -5.03642298e-003, 7.12185865e-003,
          7.30041694e-003, -1.54079460e-002, -2.04124730e-002,
          -2.28336640e-002, -9.51810367e-003, -3.51684750e-003,
          -1.39229046e-003, -1.06768624e-003, -3.17581673e-003,
          1.07200574e-002, 8.95267539e-003, 7.68981595e-003,
          2.71679484e-003, 1.89785042e-003, -1.04437852e-002,
          -8.34832806e-003, -4.72746557e-003, 9.98733565e-003,
          -7.27224164e-003, -8.62767547e-003, -5.91397658e-003,
          -1.20784249e-002, -5.00300759e-003, -1.25253480e-002,
          -9.58015211e-003, -5.28912013e-003, 7.79556297e-003,
          2.14986550e-003, -1.33788055e-002, -9.99030378e-003,
          -6.03151834e-003, -1.78348075e-003, 9.61683504e-003,
          5.30497404e-004, -1.65906735e-002, -9.31435265e-003,
          -9.69612878e-003, -1.01749301e-002, -1.20742703e-002,
          -1.40648400e-002, 1.40184327e-003, 1.96986457e-005,
          -8.01115530e-004, -6.97473809e-003, -7.54513871e-003,
          -5.99304680e-003, -3.75470985e-003, -6.15871628e-004,
          2.33611017e-002, 1.10408412e-002, 4.62889019e-003,
          -8.33208731e-004, -1.88080352e-002, -1.16951037e-002,
          -1.36800539e-002, -1.33356508e-002, -1.23871863e-002,
          8.59386753e-003, 1.06721763e-002, -4.76669939e-003,
          2.01073184e-004, -1.14464127e-002, -8.32587201e-003,
          8.21790844e-003, 1.11272009e-002, -1.61682954e-004,
          4.12851688e-004, 1.27381354e-003, -1.05479257e-002,
          -1.63317248e-002, -2.28586141e-002, -1.14995502e-002,
          -9.89602040e-003, -8.84251669e-003, -1.32734431e-002,
          -5.89986611e-003, 4.74714115e-003, -5.91141696e-004,
          4.87432210e-003, 2.58497242e-002, 1.14266090e-002,
          -2.77446304e-003, 1.67411123e-003, -9.24545154e-003,
          -5.30936336e-003, -1.00035628e-003, -1.00333355e-002,
          -1.06541738e-002, 3.73501144e-003, -8.37217667e-004,
          4.44849022e-003, 9.91158746e-003, -1.58535447e-002,
          -1.35785658e-002, 2.15843273e-003, -1.57788090e-004,
          -5.28103148e-004, 2.98699224e-003, 9.32438206e-003,
          -4.92937118e-003, -2.33353325e-003, -4.13880404e-003,
          -2.57970020e-003, 2.16499378e-004, 6.78923307e-003,
          -1.94963801e-003, 4.43157367e-003, 1.11920880e-002,
          7.76848942e-003, 1.06253857e-002, 9.38397273e-003,
          4.10825200e-003, 3.98202770e-004, 2.10228423e-003,
          -9.23295156e-004, 8.66487063e-003, 1.05866548e-002,
          2.46696756e-003, 7.09577417e-003, 4.54405928e-003,
          1.64122623e-003, -1.40907604e-003, -1.88621948e-003,
          1.57957338e-002, 1.21860085e-002, -9.82731115e-003,
          -1.59605518e-002, -1.50343897e-002, -3.07820993e-003,
          1.31634832e-003, -2.17527268e-003, 2.01311428e-003,
          1.62742031e-003, 1.16835097e-002, 1.17852166e-002,
          2.08049323e-002, 4.84344643e-003, 3.25690093e-003,
          -5.28810546e-004, -2.01558694e-004, 3.76682822e-003,
          4.37667826e-003, -2.71990104e-003, 8.50954675e-004,
          -2.44902476e-004, -4.34101792e-003, 1.81686587e-003,
          2.68888369e-004, -2.18453701e-003, 4.88796551e-003,
          5.57733420e-003, 8.39060079e-003, -7.39659648e-003,
          -5.67834917e-003, 1.03084287e-002, 1.02845868e-002,
          -8.29071086e-003, -1.73631031e-002, -1.98296718e-002,
          -7.34353857e-003, -3.14389728e-003, -2.52820202e-003,
          -2.21544830e-003, -3.43591254e-003, 1.44743249e-002,
          1.64296199e-002, 2.76045222e-002, 1.33971423e-002,
          7.95225892e-003, -4.28653928e-003, -2.46115588e-003,
          3.13233613e-004, 6.02231640e-003, -3.29195126e-003,
          7.17321760e-004, 1.50305440e-003, -3.74690699e-003,
          9.50965506e-004, -7.00992765e-003, -4.84224362e-003,
          -2.02992721e-003, 2.59208633e-003, 8.39737523e-003,
          -1.70654268e-003, -1.43069937e-003, 2.97605828e-003,
          5.81953395e-003, 2.46031024e-002, 1.29884807e-002,
          -1.11963339e-002, -6.59780065e-003, -5.08114789e-003,
          -5.01211453e-003, -9.75481700e-003, -9.69153270e-003,
          4.30229353e-003, -1.99459470e-003, 7.47736124e-003,
          -2.79808464e-003, 1.96597166e-003, -5.25757996e-003,
          4.07581404e-003, 8.92566703e-003, 2.09266730e-002,
          1.45720905e-002, 1.46385822e-002, 8.56599305e-003,
          -1.11501422e-002, -4.07734560e-003, -9.05037392e-003,
          -7.91211321e-004, -8.60987348e-004, 1.05688451e-002,
          1.57668572e-002, 6.99945493e-003, 9.38924681e-003,
          1.45229592e-003, 2.17155670e-003, 1.36666913e-002,
          9.33451485e-003, -8.60956404e-003, -8.35330319e-003,
          -4.54249652e-003, -8.21318943e-003, -8.80749803e-003,
          -1.11803040e-002, -1.45714218e-003, -1.48487901e-002,
          -6.25363179e-003, -1.36481542e-002, -6.65248372e-003,
          1.46726437e-003, 1.02217905e-002, 2.16828175e-002,
          3.38422209e-002, 1.74145829e-002, 3.09612812e-003,
          1.52608473e-003, -6.61549857e-003, -1.26096224e-002,
          -3.36458534e-003, 3.79176671e-003, 1.22918207e-002,
          2.12588366e-002, 1.47928363e-002, 5.51250484e-003,
          1.63116790e-002, -8.27704743e-003, -6.44628517e-003,
          -4.93397005e-003, -7.11892080e-003, -3.21067474e-003,
          2.09564297e-003, 9.06483177e-003, 2.80097825e-003,
          5.23011759e-003, 5.03030978e-003, 1.13169407e-003,
          -2.33352627e-003, -1.85079256e-003, -2.01336574e-003,
          2.54427665e-003, 9.40791331e-003, 7.22201262e-003,
          1.17127914e-002, 1.00133428e-002, 1.05262036e-002,
          -3.75598250e-003, -7.73478579e-003, -3.29427683e-004,
          6.77930331e-003, 1.47993322e-002, 1.06363036e-002,
          1.55445496e-002, 1.42966202e-002, 9.39643849e-003,
          -3.33766150e-003, -1.97749725e-003, 1.54626667e-002,
          1.59298051e-002, -1.01861954e-002, -1.24045517e-002,
          -6.96788868e-003, 2.43674754e-003, 6.48883870e-004,
          -1.79788913e-003, -2.42697611e-003, 3.95824492e-004,
          1.20868655e-002, 1.46795958e-002, 2.58705523e-002,
          8.56760517e-003, 6.50062552e-003, 4.29290859e-003,
          4.35981638e-004, 3.08402651e-003, 1.03627285e-003,
          -4.99921080e-005, 3.21847806e-003, 7.72840530e-003,
          3.14962282e-003, 7.13522453e-003, 3.97143885e-003,
          -1.07830402e-003, 3.24126449e-004, 1.29305467e-003,
          1.06208343e-002, -3.54565959e-003, -2.14348501e-003,
          1.28212953e-002, 1.46476598e-002, -4.18780517e-004,
          6.04318222e-004, -4.38603712e-003, 4.01106896e-003,
          -2.77781137e-003, 4.15807683e-003, 4.42715827e-003,
          2.96195736e-004, 1.32895755e-002, 2.01537013e-002,
          3.10897697e-002, 7.75166368e-003, 4.50070249e-003,
          -2.98835710e-003, -5.05679613e-003, -3.48317134e-003,
          -4.25595278e-003, -5.77114150e-003, 1.00090923e-002,
          1.80027131e-002, 4.18004300e-003, 6.56362902e-003,
          -2.89433985e-003, 6.65690633e-004, 4.84413526e-004,
          -1.10906351e-003, 8.01090710e-003, 6.85399398e-003,
          6.25021011e-003, 6.84474455e-003, 8.87442008e-003,
          2.09268555e-002, 1.34145711e-002, -5.78105869e-003,
          3.77924601e-003, -4.35246667e-003, 1.07069383e-003,
          5.91178518e-003, 3.72780161e-003, 9.26286541e-003,
          -5.30897779e-003, 2.54361518e-003, -6.64724642e-003,
          -3.21862823e-003, -8.20489600e-003, 4.63508023e-003,
          1.21471370e-002, 1.38374455e-002, 4.91529889e-003,
          1.13829849e-002, 9.01158527e-003, -4.51489212e-003,
          -6.67027256e-004, -5.12132701e-003, 8.67259223e-003,
          1.50594618e-002, 1.58683341e-002, 1.29348030e-002,
          6.23324886e-003, 1.17029101e-002, 6.05253875e-003,
          5.54881198e-003, 6.06726250e-003, 1.35958381e-003,
          -1.01850573e-002, -3.69643490e-003, -4.71152179e-003,
          2.96713493e-004, 4.90512978e-003, 3.63775319e-003,
          4.71139653e-003, -1.77899860e-002, -6.92639546e-003,
          -7.50573864e-003, -5.03441738e-003, -4.07347269e-003,
          1.30779091e-002, 3.09281796e-002, 3.06978673e-002,
          1.20339151e-002, -3.16019962e-003, -5.77726029e-003,
          -8.35857540e-003, -7.10665667e-003, -3.78879672e-003,
          1.55182807e-002, 3.20727527e-002, 3.17547210e-002,
          1.47704408e-002, 3.13218124e-003, 1.81404874e-002,
          -1.62367721e-003, 2.88047991e-003, -1.71940997e-002,
          -9.01508518e-003, 1.38624501e-003, 6.33447431e-003,
          7.23237917e-003, 5.73265541e-004, 2.65216897e-003,
          3.70190106e-003, 1.00633001e-003, -3.31854750e-003,
          -3.80003895e-003, 5.44411782e-003, 8.71562678e-003,
          7.76772574e-003, 4.95627942e-003, 7.29211792e-003,
          5.62873762e-003, 4.81671514e-003, -1.21244360e-002,
          -5.75691741e-003, 7.52408057e-003, 1.41001493e-002,
          1.22223655e-002, 5.18211816e-003, 8.72555189e-003,
          8.83282069e-003, 3.21704103e-003, -6.40918780e-003,
          -3.55848647e-003, 1.05753979e-002, 1.55048762e-002,
          -1.48627227e-002, -9.78832971e-003, -3.62333911e-003,
          8.66030343e-003, 3.64681776e-003, -3.68757959e-004,
          -2.14843755e-003, -3.13066202e-003, -1.84368400e-003,
          1.14225531e-002, 1.87153351e-002, 9.94360261e-003,
          9.18289553e-003, 5.67910029e-003, 2.98925821e-004,
          1.02241978e-003, -1.35897170e-003, -1.60658511e-003,
          -1.19012082e-003, 4.90704458e-003, 6.06504921e-003,
          1.48557313e-002, 7.87771679e-003, 1.38281350e-004,
          -1.17724645e-003, -3.80787579e-003, -3.13674659e-003,
          -3.51016806e-003, -3.61352274e-003, 8.79932940e-003,
          1.23911556e-002, -4.27135266e-003, -4.24246630e-003,
          -2.19277246e-003, 6.30415138e-003, -6.89071487e-004,
          4.68163379e-003, 9.57419258e-003, 1.29591417e-003,
          -4.42618039e-003, 9.08466987e-003, 1.95791218e-002,
          3.67781380e-003, 2.33625458e-003, 1.22250104e-003,
          1.31100335e-003, 4.28119005e-004, -1.86652163e-004,
          1.56516687e-003, -2.47652084e-003, 6.53703464e-003,
          2.20036949e-003, 7.15886010e-003, 8.52138735e-004,
          7.56639149e-003, 8.78459681e-003, 1.31960295e-003,
          -3.25272529e-004, 4.60326532e-003, 6.10928098e-003,
          5.29573951e-003, 5.22924913e-003, 3.01857037e-003,
          4.13665920e-003, -2.08518910e-003, 4.94972151e-003,
          -2.85547413e-003, 3.95280635e-003, 1.33091370e-002,
          1.34274811e-002, 8.18252843e-003, -8.19325447e-003,
          1.30521518e-003, -1.18248235e-003, -9.99809476e-004,
          -6.06821384e-004, 1.17604202e-002, 1.42570902e-002,
          1.15962885e-002, 8.42076843e-004, -4.98761982e-003,
          -1.30586629e-003, -2.42450187e-004, 2.86849402e-003,
          -1.27819926e-003, 1.60911120e-002, 2.42331363e-002,
          2.23623030e-002, 9.56871919e-003, 4.41438193e-003,
          1.14993220e-002, 9.11508594e-003, 1.02389827e-002,
          -7.27816997e-003, 2.02828305e-005, -3.70709633e-004,
          -1.56236661e-003, -6.69211196e-003, 7.50457577e-004,
          8.95333011e-003, 1.13681490e-002, 8.62923171e-003,
          -1.46170789e-002, -7.86859635e-003, -3.86782852e-003,
          -4.95721120e-003, -2.32070242e-003, 1.47005785e-002,
          2.74345037e-002, 2.50146147e-002, -1.18205708e-003,
          -1.11502428e-002, -7.75491167e-003, -2.39756331e-003,
          -5.39566111e-003, -6.78377924e-003, 1.56819616e-002,
          3.30137871e-002, 3.30634825e-002, 7.68387131e-003,
          2.74928228e-004, 1.21051911e-002, 1.70037395e-003,
          7.67665124e-003, -1.38213746e-002, -8.36231746e-004,
          4.18778276e-003, 3.69389192e-003, 3.84836877e-003,
          1.90047419e-003, 4.65076882e-004, 1.65306043e-003,
          -2.98903813e-003, -6.53983233e-003, -2.53358483e-003,
          1.45780202e-002, 1.84470881e-002, 1.03452085e-002,
          1.23877428e-003, -6.95710827e-004, -1.39466510e-003,
          -4.42411564e-003, -1.15703512e-002, -2.53052451e-004,
          1.68696698e-002, 2.13791877e-002, 1.38414418e-002,
          3.22226365e-003, 2.00634342e-004, 7.49457045e-004,
          -5.80760743e-003, -8.31473432e-003, -2.71806703e-003,
          7.59293605e-003, 1.62257385e-002, -1.69808269e-002,
          -1.44189987e-002, -1.99426082e-003, 7.71761453e-003,
          5.33755822e-003, 5.54746250e-003, 2.08235346e-003,
          2.70467089e-003, -2.25158437e-004, 7.63265137e-003,
          5.79048600e-003, 6.27123890e-003, 1.21063059e-002,
          4.74659726e-003, 2.76798522e-003, -1.08783774e-003,
          -6.67179655e-003, -4.39197337e-003, -3.64640285e-003,
          -4.24490805e-004, 4.38640546e-003, 1.80350319e-002,
          9.06110089e-003, 7.39810430e-003, 9.46202723e-004,
          -3.90722649e-003, -5.17869787e-003, -3.99734592e-003,
          -3.06265964e-003, 4.12257155e-003, 1.09201558e-002,
          -1.09851351e-002, -1.72956754e-002, -6.23965450e-003,
          5.33567416e-003, 3.66827007e-003, 1.01379137e-002,
          9.92532540e-003, 6.71231048e-003, -7.99146853e-003,
          3.92887136e-003, 2.69357767e-003, -8.03031586e-003,
          -3.03176558e-003, 2.57703359e-004, 1.35866450e-002,
          7.47507159e-003, -1.00079247e-004, 4.17736219e-003,
          -7.37095624e-003, -8.82129837e-003, -1.13071715e-002,
          3.21861217e-003, 4.94820205e-003, 2.03911662e-002,
          1.58179458e-002, 6.48886012e-003, -1.66955544e-003,
          -2.11604219e-003, 2.75596720e-003, 2.54767016e-003,
          3.51789570e-003, -4.88031562e-003, -3.91440815e-004,
          4.96612303e-003, 1.08077470e-002, 3.47539346e-004,
          7.57382950e-003, 1.03786523e-002, 1.06828697e-002,
          2.72904430e-003, -5.98161574e-003, -3.08099762e-003,
          -7.08205346e-003, -6.35619089e-003, -9.43342689e-004,
          2.18366962e-002, 1.55999735e-002, 4.99656284e-003,
          -5.08526666e-003, -9.14328452e-003, -3.51468707e-003,
          -2.28456967e-003, 3.60376318e-003, 1.77201442e-003,
          2.58664265e-002, 2.29735803e-002, 1.45535124e-002,
          7.05510844e-004, 5.69299911e-004, 7.51210377e-003,
          6.70042913e-003, 1.16721056e-002, -1.39720561e-002,
          3.06501426e-003, 1.16635663e-002, 8.10132176e-003,
          -2.89976015e-003, 3.65030696e-003, 1.11032138e-002,
          1.08755967e-002, 5.38875908e-003, -1.07374182e-002,
          -6.86591258e-003, -6.97125960e-003, -7.75160687e-003,
          -6.04085531e-003, 1.16163604e-002, 1.53560052e-002,
          7.90573284e-003, -1.26074329e-002, -1.44068673e-002,
          -2.56031007e-003, 4.55942610e-003, 1.22359674e-003,
          -7.21664540e-003, 1.35488641e-002, 2.27597803e-002,
          1.60808135e-002, -5.87109290e-003, 2.61995615e-003,
          3.33859981e-003, -1.22070452e-003, 5.10478020e-003,
          -2.48280098e-003, -5.17366966e-003, -4.57616197e-003,
          -8.52056779e-003, 7.08249351e-003, 1.50270723e-002,
          -3.39540304e-003, -8.07849225e-003, -1.28638120e-002,
          -9.75624099e-003, -5.81909576e-003, 1.72136724e-002,
          2.89788153e-002, 1.23814587e-002, -2.78146751e-003,
          -5.22783399e-003, -7.42660463e-003, -3.49439541e-003,
          -1.21399062e-002, -4.15822025e-003, 1.08751180e-002,
          1.96097735e-002, 1.77298784e-002, 1.11307474e-002,
          -7.08032912e-003, -1.19055761e-002, -1.15665011e-002,
          -1.22678606e-002, -5.77263394e-003, 4.32187971e-003,
          1.42310122e-002, -1.36222476e-002, -1.96527578e-002,
          -1.66453607e-002, -1.67425219e-002, 7.16318609e-003,
          2.23884545e-002, -9.74563081e-005, -7.20116543e-004,
          -7.04215025e-004, 3.02867452e-003, -4.07556724e-003,
          5.17545780e-003, 1.03348959e-002, -4.97587956e-003,
          -1.35047908e-003, -5.44687640e-003, -9.38909408e-003,
          -2.06998433e-003, -8.34818371e-003, -1.14207622e-002,
          -9.19037405e-003, 1.96982128e-005, 4.40426776e-003,
          1.48546491e-002, -5.38622309e-003, -1.00053158e-002,
          -3.41854291e-003, -1.21627366e-002, -7.81623181e-003,
          -5.01345377e-003, 2.64717243e-003, -1.06540443e-002,
          -1.75345857e-002, -1.60369612e-002, -1.30010294e-002,
          5.73304761e-003, 2.10230462e-002, 1.92757670e-005,
          -3.58391926e-003, -1.32235112e-002, 5.43098385e-003,
          1.68162776e-004, -8.32402706e-003, -6.98813377e-003,
          -8.03165324e-003, 1.46545386e-002, 3.91746173e-003,
          -5.89131890e-003, 2.60908128e-004, -6.90675899e-003,
          -1.19000692e-002, -1.96691882e-002, -1.00210961e-002,
          1.56232587e-003, 2.47781575e-002, 3.82305728e-003,
          -9.11537185e-003, -1.10392123e-002, -1.36492923e-002,
          -5.79557288e-003, -4.57605533e-003, -5.20993781e-004,
          5.42074500e-004, 3.14373034e-003, 1.09407064e-002,
          1.01776086e-002, -2.51962512e-004, 8.85815639e-003,
          -2.76374072e-003, -4.34342865e-003, -1.21871335e-002,
          -3.99634615e-003, -1.88151048e-003, -1.07538719e-002,
          -1.26998601e-002, -1.11138280e-002, 1.81804374e-002,
          3.72327329e-003, -1.06040910e-002, -9.72602144e-003,
          -5.86652616e-003, 6.97113050e-004, -9.04778775e-004,
          -8.99639690e-006, -6.52416144e-003, 1.68979019e-002,
          1.39095145e-003, -1.41610447e-002, -1.46889379e-002,
          -7.18928501e-003, -3.47490120e-003, -3.65939131e-003,
          2.65368982e-003, -7.85082858e-003, 6.51318626e-003,
          1.37248393e-002, 7.70117342e-003, -2.98637711e-003,
          5.83762815e-003, 1.59776607e-003, 3.72432009e-003,
          5.61128545e-004, -4.56714956e-003, -4.38781083e-003,
          -1.25038233e-002, -1.55785074e-002, -1.83197316e-002,
          -2.18198379e-003, -9.07598250e-003, -1.61874387e-002,
          -1.83349214e-002, -7.90366903e-003, 8.86104594e-004,
          2.08029780e-003, -4.31348057e-003, -1.61307026e-002,
          -2.13290658e-003, -6.77278172e-003, -1.22760823e-002,
          -1.38782263e-002, -2.80997506e-003, -8.33759643e-003,
          -1.34472735e-002, -9.49421804e-003 ]
   decision_functions:
      -
         sv_count: 1
         rho: 8.6623233687655188e-001
         alpha: [ 1. ]
