%YAML:1.0
opencv_ml_svm:
   format: 3
   svmType: EPS_SVR
   kernel:
      type: LINEAR
   C: 1.0000000000000000e-002
   p: 1.0000000000000001e-001
   term_criteria: { epsilon:1.0000000000000000e-003, iterations:1000 }
   var_count: 930
   sv_total: 1
   support_vectors:
      - [ -3.32451146e-003, 6.91216812e-002, 6.58819526e-002,
          3.31158452e-002, 3.83753330e-003, -1.88341085e-002,
          -7.35469582e-003, -1.43912891e-002, -1.62997264e-002,
          -4.33139093e-002, 2.77527445e-003, 9.69628766e-002,
          5.78342602e-002, -6.66382676e-003, -1.43951541e-002,
          -5.69567084e-004, -8.32922105e-003, -2.99274102e-002,
          -3.85771617e-002, 5.57554998e-002, 1.10613316e-001,
          4.78569530e-002, -2.18916088e-002, -3.47994789e-002,
          -1.37590775e-002, -2.29086690e-002, -4.57717180e-002,
          -8.41761660e-003, 1.72084831e-002, 2.65150815e-002,
          4.30058502e-002, -5.90325892e-003, 6.28273562e-002,
          8.41002986e-002, 6.95610121e-002, 3.86698022e-002,
          4.78769094e-003, 5.27604250e-003, 1.52662827e-003,
          -1.43783363e-002, -4.08384614e-002, -2.08509080e-002,
          6.96018524e-003, -1.62947215e-002, -7.91741014e-002,
          -3.00607756e-002, -1.83425434e-002, -2.57178694e-002,
          -3.00355852e-002, -3.97252589e-002, 3.16687226e-002,
          5.04500940e-002, -1.74017157e-003, -4.48263660e-002,
          -2.20043212e-002, -1.47817060e-002, -2.41998974e-002,
          -4.34857830e-002, -1.93273760e-002, -4.20120172e-003,
          -8.69292486e-003, 2.85033118e-002, -1.94990430e-002,
          1.87853016e-002, 2.86989305e-002, 6.50114492e-002,
          4.52820435e-002, 3.07830535e-002, 2.32469477e-003,
          6.65624999e-003, -1.95169691e-002, -3.61401550e-002,
          -2.24379431e-002, 9.36882664e-003, -2.70237718e-002,
          -1.34179279e-001, -4.14034761e-002, -2.08455008e-002,
          -3.09477337e-002, -3.80122438e-002, -5.03592864e-002,
          -8.08987394e-003, 2.33561918e-002, 5.41358441e-003,
          -5.91952987e-002, -2.13671066e-002, -1.91967469e-002,
          -2.33523697e-002, -5.49117960e-002, -2.09303405e-002,
          -4.04152870e-002, -2.43180972e-002, -6.47524255e-004,
          -2.06057075e-002, 9.32771061e-003, 2.63511129e-002,
          7.84098357e-002, 6.89659640e-002, 5.48643395e-002,
          -1.23925451e-002, 7.91256130e-003, -2.56259050e-002,
          -4.06414345e-002, -3.86346467e-002, 2.28028409e-002,
          -1.77387260e-002, -1.34593397e-001, -4.77108769e-002,
          -1.44961979e-002, -3.38109322e-002, -3.11746001e-002,
          -5.40225804e-002, -2.67147589e-002, 2.32873484e-002,
          3.35290134e-002, -2.80481279e-002, -1.92776620e-002,
          -3.20214182e-002, -2.56735869e-002, -5.35201803e-002,
          -3.18689155e-003, -3.09793632e-002, -1.25949113e-002,
          -2.33787261e-002, -4.09802189e-003, 1.36972992e-002,
          4.84686419e-002, 9.41559449e-002, 9.26597863e-002,
          9.62183923e-002, 4.20463271e-002, 3.85387018e-002,
          -1.39191011e-002, -3.55157070e-002, -3.62045392e-002,
          -2.24115867e-002, 8.40070564e-003, -8.35055858e-002,
          -6.37054071e-002, -3.60730961e-002, -6.09293170e-002,
          -3.25489864e-002, -3.79024744e-002, -1.94069017e-002,
          2.33170874e-002, 7.87153319e-002, 1.60441957e-002,
          8.62315483e-003, -4.66722948e-003, -2.31368560e-002,
          -4.56153378e-002, 4.71331365e-002, 1.77993886e-002,
          -9.25583113e-003, -3.43343206e-002, 5.67156374e-002,
          1.17384978e-001, 6.07801341e-002, 1.58661939e-002,
          -3.03936005e-002, -3.81547362e-002, -2.97266711e-002,
          -3.34540196e-002, -4.93093356e-002, -6.15851805e-002,
          -3.71323302e-002, 4.24690917e-002, 1.16539076e-002,
          -3.19133066e-002, -9.94817354e-003, 8.16843007e-003,
          -8.17749242e-004, -5.56051273e-005, 5.42476075e-004,
          5.74379675e-002, 5.61855249e-002, 4.50700428e-003,
          -5.21224551e-002, -4.95413020e-002, -2.54950151e-002,
          -3.33896205e-002, -4.78116870e-002, -3.52769680e-002,
          -1.10842492e-002, 7.14106066e-003, 3.47643234e-002,
          1.11229643e-002, 2.09252592e-002, 2.22006068e-002,
          1.75142176e-002, -1.33135421e-002, -1.62907373e-002,
          -9.10729170e-003, -1.48062678e-002, -3.89847904e-002,
          -4.90309931e-002, -2.95477919e-002, 4.64818534e-003,
          -4.49499302e-002, -5.70346229e-002, -1.13387182e-002,
          -6.77833147e-003, -1.55325634e-002, -1.43815633e-002,
          -2.68553607e-002, 4.37330251e-004, 2.14097276e-002,
          -3.69270779e-002, -5.30699492e-002, -2.68087704e-002,
          -1.49215413e-002, -2.87605096e-002, -4.85420041e-002,
          -1.55610321e-002, -3.89889851e-002, -4.47736457e-002,
          -1.60212759e-002, -9.09627136e-003, -2.69888267e-002,
          -3.58491987e-002, -8.84290598e-003, -3.12124062e-002,
          -1.25305094e-002, -1.01766074e-002, -8.76507256e-003,
          -3.29364240e-002, -5.03102429e-002, -1.31510478e-002,
          5.50471395e-002, 4.92198439e-003, -5.27054407e-002,
          -1.49937766e-002, 3.70445987e-003, -1.01604508e-002,
          -1.10535771e-002, -5.09693660e-002, -3.96347754e-002,
          4.17535100e-003, 3.25242290e-003, -4.51644287e-002,
          -2.41968110e-002, -6.66831620e-003, -1.81048773e-002,
          -4.00205515e-002, 1.82234328e-002, -5.75440228e-002,
          -3.68189737e-002, -4.88281846e-002, 4.15620813e-003,
          1.99627262e-002, 1.65265594e-002, 4.88052219e-002,
          1.70318782e-002, -1.57499909e-002, -5.67553490e-002,
          -5.43478318e-002, -6.43543601e-002, -6.09100759e-002,
          -3.90027426e-002, 2.20975019e-002, 3.61000039e-002,
          -1.88514758e-002, 8.12326930e-003, 2.53721308e-002,
          8.84928741e-003, 5.18157613e-003, -4.95015197e-002,
          -1.69648062e-002, 1.68622844e-002, 6.01644330e-002,
          1.67360641e-002, -1.18920179e-002, -2.94609591e-002,
          -4.34597172e-002, -5.62234372e-002, 4.43158709e-002,
          -4.85542752e-002, 1.21743334e-002, -5.40225692e-002,
          1.64261647e-002, 1.37097239e-002, 1.87299550e-002,
          3.78500558e-002, 1.73361413e-002, 1.23592867e-002,
          -1.99801493e-002, -1.90000832e-002, -2.68925000e-002,
          -1.66986417e-002, -2.49785036e-002, -1.50850266e-002,
          2.27045752e-002, 8.46265815e-003, 1.11202186e-003,
          2.85865571e-002, 4.15723398e-003, 4.25463356e-003,
          -5.04960539e-003, -8.27735383e-003, 1.34544112e-002,
          4.56695855e-002, 2.38374975e-002, 1.18350191e-002,
          5.86971547e-003, -1.16680907e-002, -2.24416703e-002,
          8.16806853e-002, -1.39711238e-002, 2.67997161e-002,
          -6.47855699e-002, 1.01890184e-001, 9.68249068e-002,
          2.97729671e-002, -5.84616326e-003, -3.94900851e-002,
          -3.01102567e-002, -3.00492141e-002, -4.34713215e-002,
          -6.20660633e-002, -7.70131573e-002, -7.08725601e-002,
          1.49324145e-002, 1.36444969e-002, -3.83518860e-002,
          -2.02329662e-002, -2.64396379e-003, 5.74770500e-004,
          4.08774279e-002, 2.56701391e-002, 2.55250204e-002,
          1.35755846e-002, 3.70944850e-003, -6.02957644e-002,
          -4.73176837e-002, -3.25017311e-002, -4.21052761e-002,
          -1.67622510e-002, -4.29982767e-002, -3.13118510e-002,
          -4.84033534e-003, 2.18138564e-002, 3.66336689e-003,
          -2.54548825e-002, -8.54538288e-003, -6.70329854e-003,
          -4.58281077e-002, -3.18202712e-002, -1.66088976e-002,
          -2.12663300e-002, -3.88433598e-002, -3.59045975e-002,
          -1.41532244e-002, 4.74633761e-002, 1.15395281e-002,
          -5.10582849e-002, -2.55523920e-002, -9.60299186e-003,
          -1.09177735e-003, 3.33379880e-002, -2.79165804e-002,
          -1.24826189e-002, 1.57825630e-002, -5.26122516e-003,
          -6.59862012e-002, -4.98054847e-002, -2.44852938e-002,
          -2.26157885e-002, -7.07318587e-003, 2.40847608e-003,
          -1.66888759e-002, -5.52102067e-002, -4.19622809e-002,
          6.73194602e-003, -1.45483147e-002, -2.28712382e-003,
          1.66266002e-002, -2.13978235e-002, -1.25102596e-002,
          9.49937478e-003, 5.90845430e-003, -1.75126363e-002,
          -2.77752783e-002, 4.79528680e-003, 7.41920546e-002,
          1.69527717e-002, -5.25632203e-002, -1.96524896e-002,
          8.74398462e-003, 1.08211990e-002, 3.89001928e-002,
          -1.23658571e-002, -6.62391540e-003, 3.88555899e-002,
          3.05743981e-002, -2.73427255e-002, -2.45928336e-002,
          1.76215339e-002, 1.83655974e-002, 2.25159675e-002,
          4.62156795e-002, 1.83560662e-002, -1.96394324e-002,
          -3.31828035e-002, 2.81031039e-002, 4.59612794e-002,
          3.81804705e-002, 5.62975518e-002, 3.62679508e-004,
          -2.62533948e-002, -1.08137429e-002, -1.09265894e-002,
          -3.04981023e-002, -2.97095831e-002, -2.47608423e-002,
          2.32608840e-002, 2.15117596e-002, -9.65695921e-003,
          -8.17236770e-003, 1.39962463e-002, 1.52634233e-002,
          3.02896108e-002, 1.62155484e-003, 2.47967634e-002,
          4.67992537e-002, 6.25514388e-002, 1.19292457e-002,
          -2.68073715e-002, 6.59967400e-003, 7.23949680e-003,
          2.57308944e-003, 4.41948175e-002, 1.96550563e-002,
          6.36448432e-003, -1.24982959e-002, 2.97910217e-002,
          2.33935993e-002, 1.76453423e-002, 1.28325354e-002,
          -2.17972044e-003, -3.05201635e-002, -6.54910505e-003,
          6.72071055e-003, -1.68909610e-003, -6.76061632e-003,
          -5.69705758e-003, 3.23135755e-003, 2.20013149e-002,
          2.93472726e-002, 1.52039332e-002, 4.41617258e-002,
          3.43984999e-002, 4.00782488e-002, 2.68534012e-002,
          2.91436221e-002, 3.58130820e-002, 3.27139162e-002,
          2.49574110e-002, -8.66902620e-003, 3.61444764e-002,
          4.02554236e-002, 3.91787142e-002, 5.71804456e-002,
          4.11191210e-002, 1.72776785e-002, -9.31906700e-003,
          7.11915940e-002, 2.72878669e-002, -6.45828480e-003,
          -3.51219997e-002, -5.67175150e-002, -3.66361439e-002,
          -3.42615321e-002, -3.07618137e-002, 2.01432826e-003,
          -8.01969543e-002, -8.85121375e-002, 2.53452510e-002,
          -1.31473606e-002, -4.66514304e-002, -2.75804326e-002,
          -3.00886389e-003, 2.46939491e-002, 9.19988677e-002,
          2.18590554e-002, -4.19852436e-002, 1.14918668e-002,
          -3.62717882e-002, -8.08857009e-002, -5.80102913e-002,
          -3.38986851e-002, -5.13616018e-003, 8.03171024e-002,
          -4.80780713e-002, -4.64947224e-002, -4.61793086e-003,
          -2.87803588e-003, -2.77820472e-002, -5.66012524e-002,
          -1.70949195e-002, -2.73656659e-002, -5.21032140e-002,
          -3.95880118e-002, -3.12938988e-002, -2.07300074e-002,
          -9.22520831e-003, -1.23355724e-002, -8.59512656e-004,
          5.05930632e-002, -1.17644621e-002, -3.57372351e-002,
          -1.37391901e-002, 3.97810806e-003, 3.01436707e-002,
          5.66571876e-002, -2.52631772e-002, -5.27940392e-002,
          1.81450415e-002, -3.15927155e-002, -6.54153675e-002,
          -4.60755564e-002, -2.20024232e-002, 9.98668745e-003,
          3.88905257e-002, 1.77326860e-004, 2.19203997e-003,
          -5.32222800e-002, -5.04265167e-002, 4.88418387e-003,
          -2.05774326e-002, -1.21355588e-002, -5.82492119e-003,
          -1.80565044e-002, -2.13822313e-002, -1.80033315e-002,
          -1.74362380e-002, -2.30985377e-002, -2.51855105e-002,
          -6.80993451e-003, 3.89114283e-002, -3.02056689e-003,
          2.65778654e-004, 3.73833394e-003, 2.20920295e-002,
          3.59392166e-002, 5.18581085e-002, -7.73577113e-003,
          -2.42524520e-002, 1.51643753e-002, -5.99677488e-003,
          -8.69576074e-003, -1.35991313e-002, 7.42118061e-003,
          2.14350186e-002, 2.78556198e-002, 5.95229771e-003,
          3.69107760e-002, -2.50520539e-002, -2.43359916e-002,
          1.10676251e-002, 7.34831532e-003, 6.90172939e-003,
          1.47006754e-002, -5.41403843e-003, -1.86623950e-002,
          -1.59802195e-002, -1.09835351e-002, -1.88011657e-002,
          -3.18113863e-002, -2.16759164e-002, 1.23511385e-002,
          1.80468913e-002, 3.10273208e-002, 8.43273103e-003,
          1.31524149e-002, 2.64028162e-002, 3.01981661e-002,
          -1.16363745e-002, -6.44570542e-003, 1.51208136e-002,
          2.48609800e-002, 1.84104983e-002, -2.65120412e-003,
          3.90122621e-003, 1.66241173e-002, 1.31357713e-002,
          -4.36741253e-003, 4.36206833e-002, -2.01110225e-002,
          7.39812339e-003, -1.82155659e-003, 8.02908186e-003,
          1.84316318e-002, 2.45321635e-002, 2.69297827e-002,
          2.82811723e-003, 7.54704524e-004, 3.04899132e-003,
          -1.03794727e-002, -3.19894254e-002, -7.72705348e-003,
          2.42830664e-002, 2.75018606e-002, 5.35161383e-002,
          5.00511266e-002, 3.41300033e-002, 2.72756610e-002,
          2.02406105e-002, -2.42686514e-002, 5.20871207e-003,
          3.88069600e-002, 4.40734550e-002, 5.58234937e-002,
          4.37377170e-002, 3.57206613e-002, 2.98487842e-002,
          1.11759026e-002, 3.17831747e-002, 7.27428496e-002,
          -1.30014252e-002, 3.55815478e-002, 3.96047235e-002,
          -1.03591103e-002, -2.63414644e-002, -4.40153070e-002,
          -5.25220148e-002, -2.70372350e-002, 2.48706318e-003,
          5.33762462e-002, 2.56999508e-002, -8.91307667e-002,
          -7.57215619e-002, -1.70857348e-002, -4.53081243e-002,
          -5.51720299e-002, -2.76283883e-002, 3.94987734e-003,
          4.27809730e-002, 8.67921412e-002, -8.04674067e-003,
          -7.33603835e-002, -4.07560617e-002, -7.77520686e-002,
          -8.22287798e-002, -4.88831401e-002, 5.77945588e-003,
          8.86696056e-002, 8.89361873e-002, -5.20976372e-002,
          -4.69686911e-002, 5.48949093e-003, -8.07149801e-003,
          -5.98604120e-002, -4.70048785e-002, -3.37223932e-002,
          -3.98426726e-002, -4.47370596e-002, -2.36582849e-002,
          -7.37373903e-003, 3.23862880e-002, 2.76508816e-002,
          -1.26051391e-002, -2.32555550e-002, -1.41042136e-002,
          -3.98049466e-002, -3.67257856e-002, 6.21936098e-003,
          2.21861526e-002, 1.55066447e-002, 4.31561843e-003,
          -5.39663173e-002, -5.67830093e-002, -4.55550961e-002,
          -6.77084252e-002, -5.86238913e-002, -1.51457181e-002,
          1.53936651e-002, 4.14579958e-002, 2.68754140e-002,
          -3.58744673e-002, 4.87288134e-003, -5.06100953e-002,
          -4.77546863e-002, -3.23068053e-002, -3.99516113e-002,
          -2.92969700e-002, -1.05418637e-002, -9.80106834e-003,
          -1.04988012e-002, -9.46400315e-003, -1.31980097e-003,
          -2.31601764e-002, -3.69999595e-002, -3.13225724e-002,
          -1.39559461e-002, -2.74483189e-002, 1.33450357e-002,
          4.15716693e-002, 2.53138151e-002, 8.42839759e-003,
          1.02265961e-002, -5.59430979e-002, -6.37446418e-002,
          -4.14259396e-002, -3.19641717e-002, 1.70727109e-003,
          2.52329484e-002, 1.79047547e-002, 5.74381463e-003,
          -1.21148583e-002, -2.22002659e-002, 1.03042014e-002,
          -5.29813953e-002, -1.86463129e-002, -1.38135608e-002,
          -1.76868625e-002, 3.90719069e-004, 2.14184839e-002,
          1.44344047e-002, -1.65870860e-002, -2.98054181e-002,
          -2.41234284e-002, -3.09347324e-002, -4.13269214e-002,
          -4.59358916e-002, -2.15213709e-002, -1.44529007e-002,
          3.92400511e-002, 6.02416955e-002, 3.97304483e-002,
          3.34196724e-002, 1.88837592e-002, -4.52971645e-002,
          -5.85415550e-002, -2.34063473e-002, -1.68670958e-003,
          3.56875621e-002, 4.20205817e-002, 1.25606200e-002,
          1.01361154e-002, -7.16752000e-003, -7.10584689e-003,
          1.63612552e-002, -2.75544096e-002, 4.89759399e-003,
          -1.38137089e-002, 9.83228441e-004, 2.06959695e-002,
          4.77828570e-002, 4.17744108e-002, -9.84968431e-003,
          -2.26110518e-002, -1.34017114e-002, -1.85883678e-002,
          -3.70614603e-002, -3.42619531e-002, -2.09705811e-002,
          -1.89326983e-002, 4.97422963e-002, 7.73330852e-002,
          3.60529646e-002, 2.06585880e-002, 5.38129732e-003,
          -4.42837812e-002, -2.85468940e-002, 6.27365138e-004,
          1.08945221e-002, 5.78590706e-002, 5.90810739e-002,
          1.42006353e-002, 9.28379316e-003, -1.17691904e-002,
          2.33783312e-002, 4.84712981e-002, -2.25242339e-002,
          2.95922253e-003, 1.06297545e-002, -4.32603434e-002,
          -3.30233276e-002, -4.84547280e-002, -1.58810876e-002,
          3.46642658e-002, 4.37931530e-002, 3.10305376e-002,
          -1.75953172e-002, -8.21555257e-002, -5.66315912e-002,
          -5.20372763e-002, -6.57738224e-002, -6.15195520e-002,
          -3.20560038e-002, 3.73741859e-005, 4.59898338e-002,
          6.55485615e-002, -5.74854612e-002, -8.44324157e-002,
          -7.76929483e-002, -9.70441923e-002, -5.15051708e-002,
          1.81979255e-003, 3.49656157e-002, 5.91825359e-002,
          4.06091250e-002, -6.09918386e-002, -7.04593211e-002,
          1.95423514e-002, -1.85252596e-002, -3.41917947e-002,
          -7.73768649e-002, -5.92489727e-002, -5.91597967e-002,
          8.88075773e-003, 6.35690913e-002, 3.40542644e-002,
          4.73716930e-002, 2.76584737e-002, -1.47229116e-002,
          -4.75744158e-002, -5.44636473e-002, -6.12826124e-002,
          -4.67038341e-002, 2.41436949e-003, -1.75999105e-002,
          -1.79041084e-002, -1.26295881e-002, -4.29593213e-002,
          -1.11023813e-001, -1.03108905e-001, -1.01344727e-001,
          -2.03297492e-002, 4.01228182e-002, 8.28765519e-003,
          1.61541793e-002, 6.10657409e-003, -5.04898690e-002,
          -2.61149779e-002, -3.06623187e-002, -4.30669226e-002,
          -3.52400094e-002, -5.55639155e-002, -4.61622030e-002,
          -2.74969153e-002, 4.53883074e-002, 6.61044195e-002,
          2.04331912e-002, 6.84675807e-003, -2.83697173e-002,
          -3.57989669e-002, -4.48888503e-002, -4.26497012e-002,
          -4.96623181e-002, -2.32445356e-002, -1.99762974e-002,
          -5.92069700e-002, -2.98866220e-002, -4.97580366e-003,
          -6.63729310e-002, -9.42246318e-002, -8.09984580e-002,
          -5.96917830e-002, 4.52816719e-003, 1.06609669e-002,
          -3.94856855e-002, -2.69091651e-002, -3.79317142e-002,
          -5.68362474e-002, -8.90191924e-003, -6.24476448e-002,
          -4.35688458e-002, -2.39014570e-002, -2.78783999e-002,
          -9.73015465e-003, -1.38132973e-003, 6.57454506e-002,
          2.95093264e-002, -2.54028887e-002, -2.98257135e-002,
          -4.38069962e-002, -4.83136550e-002, -4.65127155e-002,
          -2.84831189e-002, -4.97685522e-002, -4.11664248e-002,
          9.58423875e-003, -2.51924084e-003, 1.39066754e-002,
          9.73074511e-003, -6.72954395e-002, -7.04043061e-002,
          -3.80287021e-002, -3.47664319e-002, 7.66125321e-003,
          1.62633583e-002, -2.14118976e-002, -1.08758407e-002,
          -2.57895496e-002, -4.00525667e-002, 3.19368998e-003,
          -6.39531165e-002, -1.71389878e-002, -8.09493661e-003,
          -1.02778170e-002, -2.18433421e-002, -2.76160240e-003,
          6.78058937e-002, 5.52095287e-003, -1.91019364e-002,
          -1.43557508e-002, -2.56873518e-002, -4.35321555e-002,
          -2.90673058e-002, -2.13506781e-002, -4.23137285e-002,
          4.79200110e-003, 6.75656274e-002, 1.20601635e-002,
          -7.64207391e-004, -1.84844554e-004, -4.45673876e-002,
          -3.69164571e-002, -3.07035018e-002, -1.19729452e-002,
          4.17254418e-002, 6.34215772e-002, -3.28385667e-003,
          -1.43207004e-002, -2.62195449e-002, -1.90713827e-003,
          3.11318282e-002, -5.76493628e-002, -1.00373346e-002 ]
   decision_functions:
      -
         sv_count: 1
         rho: 7.1348170280308498e-001
         alpha: [ 1. ]
