%YAML:1.0
opencv_ml_svm:
   format: 3
   svmType: EPS_SVR
   kernel:
      type: LINEAR
   C: 1.0000000000000000e-002
   p: 1.0000000000000001e-001
   term_criteria: { epsilon:1.0000000000000000e-003, iterations:1000 }
   var_count: 744
   sv_total: 1
   support_vectors:
      - [ -9.79227480e-003, 8.49137316e-004, 3.50966468e-003,
          9.45977960e-003, 1.59140658e-002, 1.15828700e-002,
          1.50423301e-002, 1.00116413e-002, 1.56690255e-002,
          2.37096660e-002, 3.05804133e-004, -2.06726212e-002,
          -1.19017186e-002, -1.13384034e-002, -4.84965136e-003,
          -2.69960990e-004, -3.58028873e-003, -1.39752245e-002,
          1.26847206e-002, 1.45417242e-003, -1.58324074e-002,
          -4.51881997e-003, 7.16262031e-004, 5.53054735e-003,
          1.06296455e-002, 5.59949921e-003, 2.57605477e-003,
          -5.67321246e-003, -2.91423989e-003, 1.18606286e-002,
          1.07150739e-002, -1.56742055e-002, -7.64058158e-003,
          1.59915176e-003, 2.07887683e-003, 8.75015557e-003,
          8.47829040e-003, 1.17678568e-002, 1.13125304e-002,
          1.05327135e-002, 1.65964104e-002, -4.40886477e-003,
          -2.20366549e-002, -1.89042818e-002, -1.88156702e-002,
          -8.38346779e-003, 4.78438614e-003, -1.06550600e-004,
          -2.02166140e-002, 2.31783779e-004, -8.79923068e-003,
          -1.60745028e-002, -1.55872833e-002, -1.10062566e-002,
          -4.76133573e-004, 1.44101214e-002, 8.55134055e-003,
          -8.01645406e-003, -9.49701201e-003, -7.69827887e-003,
          -2.45134020e-003, 6.55564538e-004, -1.26343453e-002,
          -1.02417031e-002, 1.35463558e-003, -3.74848396e-003,
          -4.42861812e-003, -4.57652437e-004, 2.50189705e-003,
          4.54769563e-003, 1.71287975e-003, 5.15828608e-003,
          -5.92748588e-003, -2.52027009e-002, -2.48298328e-002,
          -1.66879240e-002, -6.66719489e-003, 1.83557402e-002,
          1.38244433e-002, -5.89639589e-004, -6.20770361e-003,
          -1.21619813e-002, -1.99552327e-002, -2.25319341e-002,
          -1.59384813e-002, -6.79755956e-003, 1.85755454e-002,
          1.63498186e-002, 2.22515524e-003, -7.03003025e-003,
          -1.30031223e-003, -1.16886348e-002, -1.01317689e-002,
          -5.68865857e-004, 6.34525204e-003, 1.25459982e-002,
          7.10991584e-003, 2.46421481e-003, 2.93445657e-004,
          -4.80134692e-003, -8.63914192e-003, -9.99783352e-003,
          -1.12995682e-002, -9.35636088e-003, -2.46876925e-002,
          -2.78242063e-002, -1.66725777e-002, -1.28282737e-002,
          1.35527309e-002, 1.76315866e-002, 1.42622869e-002,
          -9.31995362e-003, -1.56893837e-003, -1.18626915e-002,
          -1.78528484e-002, -1.38287917e-002, -1.02254683e-002,
          1.05855232e-002, 9.17554181e-003, 5.16964728e-003,
          -1.45513657e-003, 4.21215128e-003, -1.53441513e-002,
          -1.21474257e-002, -3.86644807e-003, -5.67364646e-003,
          2.70375935e-003, 6.59951987e-003, 9.40780342e-003,
          -9.47333523e-004, -1.19718199e-003, -1.61906786e-003,
          4.74250090e-004, 1.64376665e-002, 1.49811688e-003,
          -1.95855163e-002, 4.25996631e-003, 7.09152920e-003,
          1.67351763e-003, 4.46932903e-003, 2.42641568e-003,
          -6.44333987e-003, 1.01260934e-002, -3.78586748e-003,
          -1.31035987e-002, 9.19543207e-003, 1.34400725e-002,
          1.31132919e-003, 2.01200950e-003, 4.03317856e-004,
          -4.71913302e-003, -6.42422587e-003, -6.92805368e-003,
          1.13032470e-002, 1.03972154e-002, -2.05572043e-002,
          -3.50547135e-002, -1.65567752e-002, -4.61831409e-003,
          4.87433420e-003, 2.23099533e-003, 8.63060006e-004,
          8.50004796e-003, 1.08481827e-003, 1.41536510e-002,
          1.88452075e-003, -1.77374575e-002, -2.58914498e-003,
          -1.12195942e-003, -2.51981826e-003, 9.80963930e-003,
          8.47474765e-003, -7.26345973e-003, -5.64075401e-003,
          -2.47195642e-002, -2.08252203e-002, -6.18686900e-003,
          2.29304424e-003, -1.88772428e-005, 1.01093641e-002,
          1.47265075e-002, -6.10195147e-003, -9.29072965e-003,
          -1.06007801e-002, -3.00539704e-003, -3.56891914e-003,
          -9.04054474e-003, -3.03391311e-002, -1.58986431e-002,
          -1.11379754e-002, -5.24609163e-003, -1.33470818e-003,
          -5.22796717e-003, 1.11238740e-003, -4.61409288e-003,
          -4.78579476e-003, -6.18353626e-003, -1.89350806e-002,
          -1.09454365e-002, -1.91947806e-003, -8.26266070e-004,
          2.01224778e-002, 2.09208690e-002, 1.18534574e-002,
          -1.38667310e-002, -3.16506065e-002, -2.84658074e-002,
          -1.79536585e-002, -6.21752115e-003, -1.86082302e-003,
          1.38792852e-002, 1.89101472e-002, 5.45725180e-003,
          -6.91740680e-003, -6.81724772e-003, -9.62774456e-003,
          -1.07790092e-002, -3.63276107e-003, -7.07780244e-003,
          -4.40027425e-003, -3.96116730e-003, -6.50649425e-003,
          -7.20094843e-003, -1.22209331e-002, -1.04478318e-002,
          -1.62368752e-002, -1.92382839e-002, -1.46026593e-002,
          -2.47751139e-002, -1.43192820e-002, -1.08600718e-004,
          3.82036297e-003, 2.79747434e-002, 3.81931104e-002,
          2.23413333e-002, -1.75582077e-002, -1.90312248e-002,
          -2.26215031e-002, -1.59780383e-002, -5.68154221e-003,
          -2.07193010e-003, 1.55014331e-002, 2.60770060e-002,
          8.41697026e-003, -2.86480878e-003, 2.18643132e-003,
          -1.18504474e-002, -1.21722911e-002, -7.25447026e-004,
          -7.69903837e-003, 2.45443336e-003, 4.16314043e-003,
          9.83896200e-003, 5.47915045e-003, 4.06554842e-004,
          -1.70991488e-003, -5.36232116e-003, -9.14431876e-004,
          6.18927367e-003, -9.43089090e-003, 4.26225923e-003,
          4.63255448e-003, 2.25363811e-003, 3.11023579e-003,
          1.26712606e-003, 7.20103597e-003, 6.40032860e-003,
          1.43160427e-003, -6.32794574e-004, 7.74544710e-003,
          1.19636329e-002, 7.13184010e-003, 2.91993772e-003,
          -5.62784320e-004, 1.71213702e-003, -5.40109677e-003,
          -6.18202193e-003, 1.15648927e-002, 1.19994804e-002,
          -1.46520529e-002, -2.97034942e-002, -8.80282931e-003,
          7.32145563e-004, 3.75310984e-003, 3.25442618e-003,
          2.59077991e-004, 1.10451346e-002, 8.19291081e-003,
          8.82997084e-003, 1.86264478e-002, -5.32369595e-003,
          2.87856848e-004, -2.53552757e-003, -3.57677392e-003,
          2.77655129e-003, -5.52059151e-004, -1.08746963e-003,
          4.33958543e-004, -1.11718755e-002, -1.09160515e-002,
          4.61437303e-004, 9.06251080e-004, -5.92954129e-005,
          2.90646590e-003, 9.36332252e-003, 5.42212743e-003,
          -3.80161987e-003, -3.89426923e-003, 2.02080654e-003,
          1.67936867e-003, 2.34321342e-003, -1.48212733e-002,
          -4.75218520e-003, -5.14095358e-004, -3.36926267e-003,
          3.57610406e-003, -5.44301176e-004, 1.18353013e-002,
          1.05462922e-002, -5.84117277e-003, -8.02534341e-004,
          -1.09983897e-002, -2.12382502e-003, -6.00106735e-003,
          -5.21265762e-003, 7.60390144e-003, 1.00353155e-002,
          1.17888022e-002, -2.58730771e-003, -1.85897406e-002,
          -1.31418966e-002, -2.75058788e-003, -5.14953071e-003,
          -7.73379230e-004, 6.72267517e-003, 1.86405480e-002,
          1.82179548e-002, 3.72079958e-004, 1.74825336e-003,
          -5.01249568e-004, -3.23599001e-004, 4.81648277e-003,
          -1.17235556e-002, -1.44086638e-002, -8.10238905e-003,
          -8.58454127e-003, -2.18532979e-003, -1.84205337e-003,
          1.18403872e-002, 1.29433844e-004, -2.62921304e-002,
          -2.01335903e-002, -2.09355727e-002, -8.46635643e-003,
          -4.91527328e-003, -2.67854286e-003, 1.71182044e-002,
          3.47151421e-002, 3.74925248e-002, -4.07629088e-003,
          -2.37614233e-002, -1.78075973e-002, -1.40910242e-002,
          -7.98103772e-003, -1.79218093e-003, 1.50283761e-002,
          4.07495052e-002, 3.19092683e-002, -5.88589814e-003,
          4.80456138e-003, -5.89275872e-003, -4.41295886e-003,
          -9.33991838e-003, -1.26417847e-002, 2.89855828e-003,
          1.77717069e-003, 3.44166136e-003, 4.38954169e-003,
          2.10012915e-003, 9.21685190e-004, -1.12295104e-003,
          -9.50100739e-003, 3.28973780e-004, -2.71371822e-003,
          7.62827182e-003, 6.98005594e-003, 3.82069545e-003,
          2.51159631e-003, 1.47806958e-003, 9.66930948e-003,
          -1.84748205e-003, -1.99911278e-003, 4.15632781e-003,
          7.98815116e-003, 8.85079522e-003, 8.13505985e-003,
          5.00724185e-003, 2.55119056e-003, 9.50354896e-003,
          -7.21464818e-003, -5.00759389e-003, 7.04056304e-003,
          1.11337351e-002, -4.68241330e-003, -1.54425437e-002,
          1.46545749e-003, -1.18897157e-003, -4.48219152e-003,
          -2.11004238e-003, -2.36494280e-003, 3.91431898e-003,
          2.57476396e-003, 1.08863581e-002, 2.10785549e-002,
          -4.78768256e-004, 1.72530406e-003, -7.26423168e-004,
          -2.85245408e-003, -2.95521645e-003, -4.01703548e-003,
          9.87555366e-003, 1.13779716e-002, 6.68023434e-003,
          2.02876725e-003, 7.04296574e-004, -4.53790417e-003,
          -3.25994240e-003, -4.49360814e-003, 7.09661341e-004,
          1.22204693e-002, -1.00905658e-003, -1.56754599e-004,
          2.03356054e-003, 3.94963240e-003, 7.13073043e-003,
          -8.54735915e-003, 4.75359615e-003, -1.56963826e-003,
          -8.22425168e-003, -1.56671810e-003, 5.46343438e-003,
          1.52696315e-002, 1.41945519e-002, -6.34082899e-005,
          3.23563279e-003, -8.69249832e-003, -4.57101269e-003,
          -8.35121050e-003, -8.63833074e-003, -5.54969814e-003,
          2.60369899e-003, 1.92092303e-002, 9.11064725e-003,
          -7.12592481e-003, -8.74761317e-004, -5.63805364e-003,
          -1.25030903e-002, -6.60893461e-003, 1.58442956e-004,
          1.56263560e-002, 3.12485192e-002, -2.07626331e-003,
          4.24409332e-003, 2.26141745e-003, 3.15387268e-003,
          1.89414993e-003, -4.83892532e-003, -5.83457062e-004,
          -4.10141144e-003, -1.00645367e-002, -3.20960698e-003,
          4.31944150e-003, 1.92402881e-002, 2.24138852e-002,
          -1.60023700e-002, -1.17255570e-002, -1.01378011e-002,
          -7.71949533e-003, -7.62927206e-003, -4.23074374e-003,
          -8.40941444e-004, 1.57114584e-002, 2.48823483e-002,
          4.27761441e-003, -1.00583788e-002, -5.44795534e-003,
          -8.49227235e-003, -1.26615670e-002, -5.30706439e-003,
          3.50170443e-003, 3.15532908e-002, 4.01519127e-002,
          -5.92111517e-003, 5.43420296e-003, -6.99045660e-004,
          4.66368953e-003, -1.34027572e-002, -9.38742142e-003,
          2.37496733e-003, 4.00331430e-003, 7.91585352e-003,
          1.35880550e-002, 3.39613389e-003, -3.84725165e-004,
          -3.77459824e-003, -9.00665578e-003, 9.95377894e-004,
          1.20099308e-002, 1.62032880e-002, 9.27685387e-003,
          9.72510595e-003, 2.29083491e-003, -4.69878549e-003,
          -4.08991706e-003, -2.79304688e-003, -2.44515832e-003,
          1.34634664e-002, 1.81321520e-002, 1.53137427e-002,
          2.08167452e-002, 6.04020245e-003, -4.38801991e-003,
          -3.37476120e-003, -3.98209365e-003, -2.20193923e-003,
          9.82218422e-003, 1.38200792e-002, -5.82757965e-003,
          -1.92221198e-002, -2.07996767e-004, 8.29355442e-004,
          -5.46256837e-004, 3.51641653e-003, 1.18413963e-003,
          2.87801307e-003, 1.37958885e-003, 5.58275636e-003,
          8.09190329e-003, -1.46276748e-003, 5.80976438e-003,
          -2.04433990e-003, 1.00887809e-002, 8.36436055e-004,
          -2.17858306e-003, 7.99236633e-003, 4.74630855e-003,
          -3.83345503e-003, -1.30098558e-003, 5.79515286e-003,
          -5.01905975e-004, 1.26459748e-002, 2.45478493e-003,
          7.66928890e-004, 8.44856445e-003, -3.46041896e-004,
          1.21503870e-003, 2.67477753e-003, 4.32854798e-003,
          1.95599603e-003, -6.41837344e-003, 1.13282539e-002,
          3.85666220e-003, 2.03094818e-003, -2.86410539e-003,
          -3.53442645e-003, 1.42017682e-003, 4.47024591e-003,
          -4.63956175e-003, -3.15438519e-004, -9.55983531e-003,
          -3.84781417e-003, -3.10570770e-003, 1.24863796e-002,
          4.72610025e-003, 1.77181826e-003, 8.91202223e-003,
          2.68405769e-003, -7.74080213e-003, 8.98996892e-004,
          -1.54500350e-003, 1.75443874e-003, 9.00779571e-003,
          1.26853737e-003, 4.10368014e-003, 1.55772138e-002,
          -3.75513313e-003, 2.45509134e-003, 4.20329347e-003,
          5.89936087e-003, -1.07164457e-002, 9.80453473e-003,
          2.20025163e-002, 8.02542921e-003, 6.47172157e-004,
          -7.98636489e-003, -5.30243525e-003, 2.11489643e-003,
          1.36227980e-002, -1.06634311e-002, -6.04058756e-003,
          -3.91017878e-003, -2.78801261e-003, -3.17569054e-003,
          9.93657671e-003, 4.41391690e-004, -1.36669923e-003,
          -1.03767496e-003, -4.37165424e-003, 4.58168797e-003,
          1.54573573e-002, 4.25703125e-003, -7.47538696e-004,
          1.59654347e-003, -4.65341285e-003, 9.69489280e-004,
          9.28731542e-003, 4.20175958e-004, 1.20179169e-003,
          -4.51792468e-004, 5.24453772e-003, -7.83573650e-003,
          -2.01837569e-002, -9.59310122e-003, -7.06557417e-003,
          8.70802533e-003, 2.59400606e-002, 5.88013139e-003,
          -8.67267698e-003, -1.31764533e-002, -9.70480964e-003,
          -6.51224284e-003, 1.47476587e-002, 1.29994722e-002,
          9.18042555e-004, 3.12013505e-003, -3.54285724e-003,
          -8.26068595e-003, -7.47223559e-004, -4.20236960e-003,
          -9.70853213e-003, 4.52271570e-003, 6.90736435e-003,
          1.18367095e-002, 2.45329700e-002, 3.97500442e-003,
          -1.38145713e-002, -7.23837549e-003, -1.15072364e-002,
          -7.92861730e-003, 1.28490024e-003, 7.31743081e-003,
          -1.12015158e-002, -2.96616778e-002, -1.41555732e-002,
          -8.77593551e-003, 8.75652116e-003, 2.29933206e-002,
          5.74390404e-003, -2.54241517e-003, -3.55200772e-003,
          4.80095670e-003, -5.67188894e-004, -1.94048323e-003,
          -3.07491911e-003, -1.39058558e-002, 4.97337198e-003,
          -3.98476701e-003, -4.59354743e-003, 3.57013498e-003,
          2.01824776e-004, -1.36015192e-002, -9.75689758e-003,
          -2.79684924e-003, 1.37659849e-003, 2.39264071e-002,
          2.00533844e-003, -6.95178425e-003, 7.06725637e-004,
          -8.29794537e-003, -5.87123120e-003, -5.72854560e-003,
          -2.31355149e-003, -1.95292092e-003, -7.36521930e-003,
          1.09920157e-002, 9.17525403e-003, 1.59953423e-002,
          5.74541278e-003, -7.43337255e-003, -1.55072566e-002,
          -2.06546187e-002, -2.83009745e-003, 2.95356335e-003,
          -1.11605683e-002, -1.00407535e-002, -8.72514211e-003,
          1.49421599e-002, 2.36290670e-003, -2.48084939e-003,
          -3.00697022e-004, -4.38378844e-003, -2.07562884e-003,
          5.44931332e-004, 2.46367883e-003, 1.04835229e-002,
          1.65346637e-002, -4.62957239e-003, -1.66238844e-002,
          -1.17427735e-002, -8.01261328e-003, -5.38492762e-003,
          -8.36582913e-004, 1.84344989e-003, -1.29251294e-002,
          1.64136402e-002, 2.94515640e-002, 1.93613023e-002,
          1.02943582e-002, -2.44565075e-003, -7.59377889e-003,
          -1.00085717e-002, -9.34236031e-003, -9.77674965e-003,
          -6.10267743e-003, -8.88379198e-003, -9.08812508e-003,
          -9.83131491e-003, 2.54641473e-003, -1.10210264e-002,
          -1.68497544e-002, -1.93386469e-002, -1.20448098e-002,
          8.40724632e-003, 1.81324538e-002, 8.40645749e-003,
          2.17075087e-003, -1.08534610e-003, -1.71494298e-002,
          -2.47832239e-002, -2.32164692e-002, -1.05602456e-004,
          -8.97367299e-003, -1.02306698e-002, -6.68319222e-003 ]
   decision_functions:
      -
         sv_count: 1
         rho: 8.4061000420856447e-001
         alpha: [ 1. ]
