%YAML:1.0
opencv_ml_svm:
   format: 3
   svmType: EPS_SVR
   kernel:
      type: LINEAR
   C: 1.0000000000000000e-002
   p: 1.0000000000000001e-001
   term_criteria: { epsilon:1.0000000000000000e-003, iterations:1000 }
   var_count: 1085
   sv_total: 1
   support_vectors:
      - [ 9.84201557e-004, 2.20809113e-002, 2.75795422e-002,
          1.30432779e-002, 2.41732895e-002, -1.47044389e-002,
          1.00657970e-004, 1.11072641e-002, 4.10558470e-003,
          -2.83277147e-002, -5.19958558e-003, 3.46309878e-002,
          1.25363003e-002, 6.49028784e-003, -4.34613042e-003,
          -1.43919466e-002, -1.15056615e-002, -5.52928820e-003,
          -2.19483078e-002, 1.45845385e-002, 4.32961248e-002,
          1.29207838e-002, -9.31804907e-003, -2.06821375e-002,
          -1.48114301e-002, -2.85720685e-003, -5.94814727e-003,
          -8.50187708e-003, 3.04363295e-003, 2.18119361e-002,
          1.79772079e-002, -1.21638030e-002, 3.67363207e-002,
          4.20701094e-002, 9.39192809e-003, 1.40844323e-002,
          -1.41973943e-002, 9.87595064e-004, 6.52808882e-003,
          1.19586410e-002, -1.43649448e-002, -2.72443127e-002,
          -2.53831805e-003, -1.00141056e-002, -7.51124509e-003,
          -1.18668226e-003, -2.15251576e-002, -2.73574758e-002,
          -2.20360160e-002, -2.30441857e-002, 7.46901659e-003,
          2.16926672e-002, -1.17780836e-002, -2.31305882e-002,
          -1.77503489e-002, -2.04333123e-002, -1.96995735e-002,
          -1.34911817e-002, -3.38047519e-002, -8.57411418e-003,
          4.75080858e-004, 2.38103494e-002, -2.68554073e-002,
          1.51122371e-002, 3.16676237e-002, 3.07565462e-002,
          2.52732225e-002, -1.51933162e-002, 1.94693555e-003,
          -1.14232430e-003, 3.10421200e-003, -9.95666999e-003,
          -1.32808415e-002, -2.61778347e-002, -5.37010317e-004,
          -2.62872893e-002, 2.72114924e-003, -3.07864919e-002,
          -3.43349501e-002, -2.47622151e-002, -3.36942226e-002,
          2.47566844e-003, 1.43026942e-002, -4.30314569e-003,
          -2.69239862e-002, -1.98822860e-002, -2.82122809e-002,
          -3.41242142e-002, -2.46299710e-002, -4.21354212e-002,
          -1.92142166e-002, -9.23738815e-003, 2.40445603e-002,
          -2.57315673e-002, 2.89191492e-003, 1.13415690e-002,
          2.33153626e-002, 2.55281478e-002, -1.48214083e-002,
          -2.15523876e-003, 1.56486984e-002, -1.73147768e-003,
          -3.35117355e-002, -2.64453087e-002, -8.15282017e-003,
          -7.30843563e-003, -3.70039195e-002, 2.60816910e-003,
          -5.92856761e-003, -4.21257913e-002, -4.38494384e-002,
          -5.16033322e-002, -1.70169119e-002, 9.13895760e-003,
          4.37740004e-003, -3.36040929e-002, -4.06844653e-002,
          -2.60905158e-002, -2.93753967e-002, -4.32251394e-002,
          -3.08375973e-002, -1.51652899e-002, -3.21568362e-002,
          -7.67652469e-004, -8.63855705e-003, 2.08214745e-002,
          2.64807679e-002, 2.20333170e-002, 2.92179361e-002,
          -1.45686222e-002, 2.20438000e-003, 2.25013290e-002,
          -2.50045350e-003, -2.61854623e-002, -1.46703497e-002,
          -6.29290938e-003, 2.52285972e-002, -2.53137723e-002,
          -5.61749488e-002, -1.43724233e-002, -4.47751395e-002,
          -3.92419957e-002, -3.87550369e-002, 9.80178593e-004,
          1.86831653e-002, 2.04428360e-002, -2.76926253e-002,
          -8.35615247e-002, -3.84507030e-002, -3.64532173e-002,
          -4.83926982e-002, -3.18903523e-003, 1.63807850e-002,
          -4.34671044e-002, -1.88666005e-002, 1.83800403e-002,
          3.53051908e-002, 1.75690465e-002, -3.07446928e-003,
          -5.95013335e-005, -2.75063980e-002, -6.58227038e-003,
          5.06019965e-003, -6.62152376e-003, -1.66051537e-002,
          -1.06846206e-002, 7.50314444e-003, -5.01523400e-003,
          1.45828594e-002, 3.50994058e-003, -1.26130125e-002,
          -1.16442898e-002, 4.53959598e-004, 4.03329358e-003,
          3.01262122e-002, 1.46972202e-002, -6.23965310e-003,
          -1.01568820e-002, -2.47344393e-002, -1.97463352e-002,
          -7.80381309e-003, -7.17227347e-003, -1.48908170e-002,
          -2.22983602e-002, 2.51883063e-002, 1.29238255e-002,
          9.93243535e-004, 3.73117141e-002, 2.90891398e-002,
          -2.76469463e-003, -1.67634152e-002, -2.30439771e-002,
          -1.64481103e-002, 2.24573305e-004, 8.39624612e-004,
          -1.31135238e-002, -2.50548813e-002, -1.88840684e-002,
          7.31666805e-005, 1.78082082e-002, 2.53474731e-002,
          -1.02055622e-002, -1.82601716e-002, -7.81929865e-003,
          -6.50219433e-003, 1.04676699e-002, -4.51027416e-003,
          -6.98749861e-003, -3.08850140e-004, -2.79539474e-003,
          -2.40083821e-002, -1.79426316e-002, -8.98759440e-003,
          -3.27550024e-002, -2.39016749e-002, 1.91774648e-002,
          1.83071084e-002, -2.46043112e-002, 6.37473655e-004,
          3.86851281e-003, -1.37302268e-003, -1.91764608e-002,
          -2.28009671e-002, -1.94134507e-002, -5.89397037e-003,
          -1.86769594e-003, -1.05606513e-002, -4.35324339e-003,
          -3.20719816e-002, 2.23619454e-002, 2.63608042e-002,
          2.39495616e-002, -1.79214738e-002, -2.81296745e-002,
          -1.22741740e-002, -3.53450924e-002, 8.22200906e-004,
          -1.31190168e-002, 1.14498306e-002, 3.03967809e-003,
          -1.10190557e-002, -3.49161662e-002, -3.40173282e-002,
          -1.40872039e-002, -3.35339792e-002, -2.93784551e-002,
          -3.96971591e-003, 8.77607614e-003, -2.29591168e-002,
          -1.17199337e-002, -1.46526215e-003, 8.83119740e-003,
          -9.64466017e-003, -1.93293951e-002, -2.65644565e-002,
          -6.99935202e-003, -7.52214063e-003, -2.27477178e-002,
          -1.62007157e-002, -2.10585408e-002, 2.82069333e-002,
          2.26756390e-002, 2.61122007e-002, -5.51918847e-003,
          -2.99191400e-002, -2.60268375e-002, -3.79614718e-002,
          -2.28058137e-002, -1.69249456e-002, 1.79689117e-002,
          2.35574436e-003, -1.04841869e-002, -4.42433730e-002,
          -4.07801941e-002, -2.99176127e-002, -6.76477212e-004,
          -2.21251585e-002, -2.59422679e-002, -1.81244165e-002,
          7.20118871e-003, 1.12764155e-002, 1.44301848e-002,
          5.48655400e-004, -1.33465705e-002, -3.46569642e-002,
          -2.73722801e-002, -2.88886670e-003, -1.93835869e-002,
          -2.62000356e-002, -9.17443819e-003, -5.95237361e-003,
          4.27354649e-002, 3.57833430e-002, 2.13493798e-002,
          2.12518778e-002, -9.52392910e-003, -7.52956187e-003,
          -2.74700355e-002, -5.03904326e-003, 9.44224093e-003,
          2.34847385e-002, 1.59512814e-002, -1.55221801e-002,
          -3.15846130e-002, -3.05801369e-002, -3.69044878e-002,
          4.91768718e-002, 4.05319827e-003, -1.71832908e-002,
          -3.67312953e-002, 2.35151332e-002, 3.69665474e-002,
          1.38283856e-002, -1.18010687e-002, -1.96990720e-003,
          -2.28010099e-002, -6.73917471e-004, 5.80490893e-003,
          -5.06251305e-003, -1.68732852e-002, -2.06258032e-003,
          -2.93790177e-003, 1.31957019e-002, 2.01987214e-002,
          9.22911614e-003, -1.40211768e-002, -3.53755150e-003,
          5.73555240e-003, 1.83285344e-002, 3.51782851e-002,
          1.19142346e-002, 1.07582752e-002, -4.12873738e-003,
          -1.99944526e-002, -1.57395191e-002, -2.84235022e-004,
          2.60207395e-004, -1.49284406e-002, -1.99560970e-002,
          2.71907970e-002, 2.97237504e-002, -6.38921931e-003,
          2.07681339e-002, 2.71840505e-002, -4.59853513e-003,
          -1.47780674e-002, -1.75908674e-002, -2.69994158e-002,
          -6.58241473e-003, -6.31395669e-004, -6.80033956e-003,
          -9.70033184e-003, -2.15500351e-002, 1.79821323e-003,
          6.80397544e-003, 2.99294479e-002, -7.01231742e-003,
          -1.32685872e-002, -8.98255501e-003, 5.21551818e-004,
          2.03249361e-002, 9.26039740e-003, 1.70979591e-003,
          -2.04077968e-003, -1.34306820e-003, -3.04287057e-002,
          -1.95334945e-002, -1.23714656e-002, -3.14683802e-002,
          -3.32732387e-002, 1.87911112e-002, 1.84206199e-002,
          -2.57794857e-002, -8.17535818e-003, 1.17186047e-002,
          -1.38237868e-002, -1.97016895e-002, -1.02734901e-002,
          -3.45686898e-002, -1.46294180e-002, -1.85501836e-002,
          -1.15790172e-002, 4.15433105e-003, -2.05537528e-002,
          5.00384578e-003, -5.69815515e-003, 3.72329243e-002,
          -5.74702723e-003, -1.16994269e-002, -6.26789220e-003,
          -3.83693799e-002, -2.94687599e-003, -7.53853796e-003,
          -4.14372626e-004, -1.10592870e-002, -1.25214057e-002,
          -3.65287438e-002, -2.80070398e-002, -2.80927755e-002,
          -2.29126271e-002, -3.51433530e-002, -6.18545478e-003,
          -5.96777676e-003, -2.70313714e-002, -1.35546355e-002,
          3.95651488e-003, -5.71386376e-003, -8.33415985e-003,
          1.58385583e-003, -3.42368782e-002, -1.60609763e-002,
          -1.15410835e-002, -9.88395140e-003, -4.15675668e-003,
          -2.28004642e-002, -9.54582938e-004, 4.85742325e-003,
          3.28240320e-002, -1.08819706e-002, -1.98994633e-002,
          -1.62593406e-002, -2.92843990e-002, -1.04747014e-002,
          -1.29569583e-002, -4.56260471e-003, -5.00740425e-004,
          -5.98345604e-003, -4.05713059e-002, -3.35983522e-002,
          -2.83203814e-002, 5.94678940e-003, -1.42141758e-002,
          -2.84567736e-002, -3.77983712e-002, 8.79590400e-003,
          1.10823633e-002, 1.30682373e-002, -7.25842081e-003,
          -1.52961686e-002, -2.11958364e-002, -2.59973984e-002,
          1.95676787e-003, 1.28632213e-003, -1.33678000e-002,
          -4.66332631e-003, -5.48354723e-003, 6.46237284e-003,
          3.78118753e-002, 3.52255814e-002, -2.02587061e-003,
          -6.96848240e-003, 5.42994170e-003, -6.81517273e-003,
          4.51750122e-003, 8.18926003e-003, -3.00853304e-003,
          1.48239303e-002, -2.58147158e-003, -2.59726662e-002,
          -5.06530609e-003, -1.92687637e-003, 3.81910168e-002,
          2.17014663e-002, -1.75515264e-002, -3.34491692e-002,
          2.72454843e-002, 1.15853650e-002, 7.09705846e-003,
          -1.89729768e-003, 1.56458113e-002, -2.96429917e-003,
          9.82210878e-003, -4.44736937e-003, -6.87203091e-003,
          1.28991995e-003, 2.76982877e-003, -1.45619949e-002,
          4.08925628e-003, 9.87644587e-003, 1.09449141e-002,
          -6.56589167e-003, 4.65833209e-003, 2.13808175e-002,
          3.31956483e-002, 2.56260261e-002, -1.94392749e-003,
          6.82574417e-003, 3.25922039e-003, 1.21488760e-003,
          1.85254158e-003, -1.54883391e-003, 1.56015651e-002,
          -8.40082020e-003, -7.89945852e-003, 2.08765827e-002,
          3.74237671e-002, -5.67711191e-003, -5.54328377e-004,
          1.85322724e-002, -5.07924100e-003, -2.07179808e-003,
          9.24421242e-004, -5.60966833e-003, 3.91079485e-003,
          1.15499157e-003, -4.76947241e-003, -1.33934570e-002,
          -2.15998292e-002, -6.01527328e-003, 2.72775861e-003,
          3.75585072e-002, 6.41954714e-004, -5.26605314e-003,
          4.90245223e-003, 2.79135304e-003, 6.62549632e-003,
          1.66694622e-003, -3.13163293e-003, 7.90308975e-003,
          2.61024721e-002, -3.28985346e-003, -1.18499238e-003,
          5.11043053e-003, -1.71164460e-002, -2.56504118e-002,
          1.97349265e-002, 2.31813267e-002, -1.70773882e-002,
          -1.80808417e-002, 1.65932477e-002, -1.26135461e-002,
          -1.57052949e-002, 1.79928690e-002, -9.69833322e-003,
          -3.00063938e-003, -8.10471643e-003, 1.29223112e-002,
          1.05673866e-002, -2.21298710e-002, -1.34141883e-002,
          -7.95765780e-003, 4.53969352e-002, 5.44842856e-004,
          -6.47383567e-004, 1.12489406e-002, -5.88688999e-003,
          -4.53690067e-003, -8.86498659e-004, -1.81657095e-002,
          -1.08543532e-002, 1.96893439e-002, -3.53240687e-003,
          -3.65620013e-003, 8.65234586e-004, 8.01008660e-003,
          -1.34948054e-002, 3.65931005e-003, -4.37978702e-003,
          -2.22143829e-002, -1.10754492e-002, 1.14470078e-002,
          -9.89555195e-003, -4.37932741e-003, 1.53308501e-002,
          -1.99184902e-002, -1.68565363e-002, -1.12019898e-002,
          8.05965997e-003, 1.04206242e-002, -3.07919402e-002,
          -3.00074723e-002, 7.78889097e-003, 6.07048199e-002,
          1.16403410e-002, -9.22300969e-004, -3.43766971e-003,
          -2.28362717e-003, 4.41912748e-003, -1.27011565e-002,
          -2.78535616e-002, -2.25374545e-003, 2.63577979e-002,
          -6.87879464e-003, -1.53543064e-002, -1.25206839e-002,
          1.56470835e-002, 1.00194709e-002, -1.08148344e-002,
          -3.14963423e-002, 1.75329708e-002, 5.09709213e-003,
          1.73266698e-002, -1.72904343e-003, 7.02081528e-003,
          1.29517522e-002, -1.53743634e-002, -7.55941728e-003,
          -3.37689836e-003, -4.77819936e-003, -3.14902607e-003,
          -1.65793672e-002, -2.51138024e-002, 3.77205648e-002,
          5.82273528e-002, 5.49272541e-003, 1.65332435e-003,
          1.94872245e-002, 1.07776253e-002, 4.79708100e-003,
          7.97752291e-003, -1.49645191e-002, 2.95833573e-002,
          4.09623124e-002, -9.20920260e-003, -3.75233917e-003,
          1.41799962e-002, 3.28393728e-002, 3.98364812e-002,
          -9.63825732e-003, -1.36111286e-002, 2.40810644e-002,
          -3.69090727e-003, 3.61539144e-003, 1.00645958e-003,
          1.11490758e-002, -1.61044244e-002, -7.20302248e-003,
          -1.33901983e-002, -1.52719757e-002, -2.49270676e-003,
          -1.75212901e-002, -1.24671785e-002, -1.97831020e-002,
          1.51318836e-003, 9.27734748e-003, 2.61107157e-003,
          1.15031563e-002, 3.99192162e-002, 3.00383344e-002,
          -6.00322336e-003, -4.10618773e-003, -1.75303537e-002,
          -2.15342687e-003, -6.01648120e-003, -5.14629856e-003,
          -2.57524033e-003, 2.12937742e-002, -1.87862497e-002,
          -4.31759888e-003, -4.79123009e-005, 2.16202606e-002,
          -1.15439910e-002, -2.04847492e-002, 1.31683387e-002,
          1.90567435e-003, -5.88934403e-003, -1.70021951e-002,
          -1.19319381e-002, -4.45465418e-003, -1.21332500e-002,
          -1.10077104e-002, -3.39905499e-003, -1.00181289e-002,
          -2.85662245e-002, -1.77920293e-002, 3.68837044e-002,
          1.38225118e-002, 5.07133268e-003, 1.51744336e-002,
          3.07891169e-003, -1.13245938e-002, 5.46214636e-003,
          -1.48551241e-002, -4.39701742e-003, 1.85224246e-002,
          4.87522129e-003, 2.80702091e-003, 3.75764887e-003,
          -3.02130897e-002, -2.08433662e-002, 1.24501728e-003,
          1.76632460e-002, -2.00035814e-002, -2.24885978e-002,
          2.44352445e-002, 1.02852667e-002, -1.56986993e-002,
          -1.18061602e-002, -2.13189721e-002, -2.36370396e-002,
          -2.27680169e-002, 2.38161441e-002, 1.81151833e-002,
          -2.10056715e-002, -3.95162068e-002, -2.46344339e-002,
          4.92152385e-002, 1.99603848e-002, 1.54088708e-002,
          1.29285147e-002, 7.53379660e-003, 3.34549183e-003,
          7.53607741e-003, -1.69021245e-002, -1.43315960e-002,
          2.88159810e-002, 2.99204024e-003, -7.29387254e-003,
          -9.71219596e-003, 1.86178042e-003, 2.24950002e-003,
          -1.77751500e-002, -9.29921772e-003, -2.18851026e-002,
          -1.51091805e-002, 2.07113884e-002, 1.61443241e-002,
          6.79813232e-003, -7.77946832e-003, -2.91076619e-002,
          -3.17699052e-002, -2.56419349e-002, 1.33719258e-002,
          1.55282840e-002, -2.39986014e-002, -4.91399020e-002,
          -1.72667094e-002, 4.38526608e-002, 2.08241735e-002,
          1.39138261e-002, 1.85437687e-002, -8.01571005e-004,
          1.58371811e-003, -5.99702122e-004, -1.94304176e-002,
          -7.02153007e-003, 2.42970977e-002, -5.80853270e-003,
          -1.37765957e-002, -3.63900675e-003, 1.29739316e-002,
          8.57106410e-003, -2.17160676e-002, -2.43464373e-002,
          1.25109367e-002, 2.53873877e-003, 2.73420475e-002,
          1.57869216e-002, 3.19601893e-002, 1.61681920e-002,
          -9.31388326e-003, -1.14080366e-002, -1.85069982e-002,
          -8.31943937e-003, -9.41690430e-003, -1.09409867e-002,
          -4.32329848e-002, -2.81965680e-004, 3.89913656e-002,
          1.05961049e-002, 8.23461358e-003, 3.16047147e-002,
          3.17122950e-003, -4.61981865e-003, 1.75164528e-002,
          -1.48035437e-002, 2.11069528e-002, 4.26907428e-002,
          4.72416775e-003, -5.76869352e-004, 1.09481914e-002,
          2.18268819e-002, 3.15034576e-002, -2.83223740e-003,
          -1.07531287e-002, 1.42008979e-002, -1.00472290e-002,
          2.25562160e-003, -1.41074453e-002, -6.02961844e-003,
          -1.22503955e-002, -1.58465151e-002, -1.16920117e-002,
          -1.76117774e-002, -7.55391689e-003, -1.50907319e-002,
          1.27854350e-003, -1.05362795e-002, -9.21367761e-003,
          -3.20644048e-003, -4.81476961e-003, 1.48534970e-002,
          2.45761145e-002, 1.47097744e-002, -5.94912283e-003,
          8.25017132e-003, -1.66089293e-002, -1.52405575e-002,
          -7.97695294e-003, -1.65924542e-002, 2.57974537e-003,
          1.14276269e-002, -4.05233949e-002, -5.66956680e-003,
          -7.28029851e-003, 1.53671056e-002, -1.85272880e-002,
          -2.88948212e-002, 1.44221429e-002, -1.11799175e-002,
          -1.60457529e-002, -1.49041032e-002, -2.34241635e-002,
          -1.88516919e-002, -1.98761467e-002, -1.04332175e-002,
          5.89161227e-003, 7.43412878e-003, -8.15271214e-003,
          -2.56230719e-002, 1.71024241e-002, 8.63855332e-003,
          4.42771998e-004, 1.04664853e-002, -1.63732488e-002,
          -1.25426436e-002, 2.52775885e-002, -3.86969908e-003,
          -1.98888276e-002, 9.61837452e-003, -9.67712887e-003,
          -1.73873268e-002, -9.10527259e-003, -4.60843109e-002,
          -1.71433836e-002, -1.78887099e-002, 1.91203449e-002,
          -1.42482556e-002, -2.62499228e-002, 2.19171960e-002,
          3.41010187e-003, -1.39907077e-002, -1.71616860e-002,
          -3.13710608e-002, -2.93998085e-002, -2.88586952e-002,
          1.27717573e-002, 1.58456285e-002, -9.33790114e-003,
          -2.71922033e-002, -2.66195778e-002, 3.56823020e-002,
          2.10884251e-002, 5.65318717e-003, 1.63548030e-002,
          2.77628680e-003, 2.52347020e-003, 1.83755904e-002,
          -3.47657502e-003, -1.96360070e-002, 2.07636598e-002,
          -6.76785270e-003, -2.06816178e-002, -1.25155412e-002,
          -3.04373144e-003, 7.70098483e-003, -3.81992422e-002,
          -9.68841836e-003, -1.60425659e-002, -2.06346214e-002,
          1.30209746e-002, 9.92181897e-003, -9.31905524e-004,
          -1.26584135e-002, -2.90650763e-002, -2.74684392e-002,
          -2.76578851e-002, -1.55752664e-003, 4.45266068e-003,
          -1.60238128e-002, -3.86795960e-002, -2.56095696e-002,
          1.96208023e-002, 2.59006750e-002, 2.07939725e-002,
          1.67510044e-002, -1.34433750e-002, -4.85896692e-003,
          4.81795287e-003, -1.52417179e-002, -6.30339095e-003,
          1.15192281e-002, -2.08558375e-003, -4.03246190e-003,
          -9.95017402e-003, 6.47915993e-003, 2.27467902e-003,
          -3.30420546e-002, -2.56177261e-002, 6.17982401e-003,
          -1.80973893e-003, 2.38380972e-002, 2.18742620e-002,
          2.15951577e-002, -7.96812214e-003, -1.57385226e-002,
          -1.71631835e-002, -2.57886462e-002, -2.24530231e-002,
          -1.43892569e-002, -6.52100658e-004, -4.65860181e-002,
          -2.83259656e-002, 2.40686089e-002, 2.78397985e-002,
          2.04451699e-002, 1.45027740e-002, -1.05506927e-002,
          -9.64252744e-003, 3.22038233e-002, -7.45881163e-003,
          5.67387603e-003, 2.03846563e-002, 1.51969064e-002,
          6.19492959e-003, -1.20266881e-002, 1.17753325e-002,
          4.28389898e-003, -9.94480308e-003, -1.57926865e-002,
          2.17205044e-002, -2.41231378e-002, -1.78076345e-002,
          -3.61403450e-002, 3.36873694e-003, 4.03000526e-002,
          -4.36998205e-003, -3.22801881e-002, -3.42505872e-002,
          -2.39530820e-002, -1.17298178e-002, 9.58205387e-003,
          -2.64481013e-003, -1.66485328e-002, -1.62572619e-002,
          -7.25466432e-003, 4.34261467e-003, 3.08851600e-002,
          -3.05678765e-003, -1.75335910e-002, -2.55949609e-003,
          -2.56908890e-002, -2.27021333e-003, 2.41518598e-002,
          -1.77012887e-002, -2.70178318e-002, -2.99947365e-004,
          -5.13909161e-002, -1.76520031e-002, -3.54456221e-004,
          1.41205816e-002, 1.54445623e-003, -4.50072102e-002,
          -1.69747863e-002, -3.51338312e-002, 1.32080670e-002,
          5.93323633e-002, -3.09959520e-003, -2.19701640e-002,
          -2.80348510e-002, -8.64411052e-003, 2.97896867e-003,
          7.26189511e-003, 1.47504383e-004, -3.59047018e-002,
          -1.77153815e-002, -1.52175790e-002, -1.96311455e-002,
          2.83141304e-002, -7.38172373e-003, -3.39298546e-002,
          -2.90036551e-003, -2.24349201e-002, -4.38958174e-003,
          3.15311253e-002, -2.44297758e-002, -4.57138941e-002,
          -8.41043051e-003, -5.03178909e-002, -1.95897371e-002,
          -1.28099956e-002, 1.92926507e-002, -7.90975615e-003,
          -3.18040401e-002, -1.00513855e-002, -9.07496270e-003,
          1.86288711e-002, 4.16916683e-002, -2.74346694e-002,
          -3.82956043e-002, -4.16030027e-002, -3.49499937e-003,
          9.24289692e-003, -5.45007270e-003, -1.81044824e-002,
          -4.63921838e-002, -8.05812422e-003, 1.85450760e-003,
          -5.04225958e-003, 2.11246870e-002, -6.44732779e-003,
          -1.23531502e-002, -4.82958090e-003, -1.26096439e-002,
          -1.37703223e-002, 1.96586847e-002, -2.62785126e-002,
          -4.15447094e-002, -2.12201662e-002, -3.04196961e-002,
          1.55231524e-002, -4.65078801e-002, -1.41010908e-002,
          -2.05134755e-004, -1.88175365e-002, -8.05730652e-003,
          -4.85605327e-003, 3.93242911e-002, 2.44234651e-002,
          -3.25473621e-002, -3.89179476e-002, -4.52584289e-002,
          -1.23274708e-002, -9.17474739e-003, -1.75276361e-002,
          -3.06088571e-002, -4.73543033e-002, -2.77901273e-002,
          2.10868940e-003, -1.33939099e-003, 9.30456165e-003,
          -1.90411471e-002, -2.04330981e-002, -1.53764999e-002,
          -3.30136232e-002, -5.54340519e-003, -6.80902973e-004,
          -2.97206026e-002, -3.91949490e-002, -3.23599502e-002,
          -2.50847433e-002, 1.26209296e-002, -6.70893043e-002,
          -2.39763670e-002, 3.11461650e-002, 9.99554433e-003,
          -3.50027368e-003, -1.48770604e-002, 4.18175794e-002,
          3.28670032e-002, -5.21592936e-003, -2.09712088e-002,
          -2.72206999e-002, -2.69611795e-002, -3.82568757e-003,
          2.02287547e-002, -2.29008961e-002, -5.89204989e-002,
          -2.30942257e-002, 3.71272117e-003, 6.09936425e-003,
          1.44323194e-002, 3.34266806e-003, 2.78010243e-003,
          2.40148529e-002, -2.53913440e-002, -9.37625393e-003,
          2.21443665e-003, -1.47697877e-003, -1.18963420e-002,
          -1.10510029e-002, 7.33088981e-003, 1.48932738e-002,
          -4.05372456e-002, -3.93143622e-003 ]
   decision_functions:
      -
         sv_count: 1
         rho: -8.0697630941868159e-002
         alpha: [ 1. ]
