%YAML:1.0
opencv_ml_svm:
   format: 3
   svmType: EPS_SVR
   kernel:
      type: LINEAR
   C: 1.0000000000000000e-002
   p: 1.0000000000000001e-001
   term_criteria: { epsilon:1.0000000000000000e-003, iterations:1000 }
   var_count: 2387
   sv_total: 1
   support_vectors:
      - [ 4.67696646e-003, 4.21610055e-003, -1.83887524e-003,
          1.24820843e-002, 1.32862816e-003, 2.30820430e-003,
          -8.02569964e-004, -2.21998943e-003, -2.11879145e-004,
          5.21047506e-003, 5.10072801e-003, -1.44414566e-002,
          -1.75762195e-002, -1.28281293e-002, -9.11263842e-003,
          -8.76248162e-003, -7.07335444e-003, -6.46806927e-003,
          7.46842381e-003, 6.03421777e-003, -1.50788613e-002,
          -4.14945977e-003, -7.47474376e-003, -6.05224306e-003,
          -9.28315707e-003, -8.67300946e-003, -5.48678963e-003,
          1.65524252e-003, -1.10705150e-002, 3.94024001e-003,
          -1.62152499e-002, 8.87052342e-003, 8.66016094e-003,
          3.17112776e-003, 1.33744283e-002, 5.13028959e-003,
          1.39431609e-003, -1.36604431e-004, -4.17972310e-003,
          -4.47661383e-003, -2.33196362e-004, 2.75380939e-004,
          -1.25522250e-002, -1.50025217e-002, -1.10695334e-002,
          -6.63391920e-003, -5.84022142e-003, -6.45846641e-003,
          -6.57958398e-003, 5.14808390e-003, 4.58287355e-003,
          -8.85095354e-003, -7.98126217e-004, -5.91782993e-003,
          -4.87571070e-003, -6.23484468e-003, -9.94234625e-003,
          -9.70595609e-003, 3.96632589e-003, -2.73066154e-003,
          -5.89591742e-004, -1.58658735e-002, -1.96933467e-003,
          1.87896728e-003, 2.30564084e-003, 8.01587850e-003,
          5.86405722e-003, 1.68696837e-003, 3.66427610e-003,
          -2.00457012e-004, -4.37292783e-003, -6.73306920e-003,
          -6.07511261e-003, -1.01763839e-002, -1.04866559e-002,
          -3.78326722e-003, -4.01209295e-003, -1.73065555e-003,
          -3.24792019e-003, -1.03858067e-002, -7.03896815e-003,
          -3.45820561e-003, -7.22178351e-003, -2.23895651e-003,
          -1.14271197e-005, -2.17711274e-003, 5.20956062e-004,
          -3.57463397e-003, -1.34138716e-002, 7.91597588e-004,
          -9.40549420e-004, -4.99000400e-003, -1.36029162e-002,
          -9.07074008e-003, -5.32244239e-003, -4.31148830e-004,
          6.02706242e-003, 9.89770796e-003, 5.47091849e-003,
          1.07052708e-002, 4.49016644e-003, -2.99735437e-003,
          -5.42988256e-003, -3.45782842e-003, -9.11957957e-003,
          -8.99283495e-003, -1.03207922e-003, 4.89058904e-003,
          3.68393958e-003, 2.08019419e-003, -9.20835603e-003,
          -1.18943844e-002, -7.13334046e-003, -7.82657694e-003,
          -2.73229834e-003, 5.13900211e-003, 1.00944256e-002,
          1.14388987e-002, 6.23130426e-003, -1.07693169e-002,
          2.49771692e-004, -7.49406754e-004, -4.12671099e-004,
          -2.77234358e-003, -7.53154280e-003, -5.33924298e-003,
          -1.37322408e-003, 7.93084130e-003, 7.13197421e-003,
          3.63063859e-003, 9.68975015e-003, 5.96841890e-003,
          2.67820409e-003, 2.29610087e-004, 1.46050937e-003,
          9.48670029e-004, -7.79296644e-003, -1.02485958e-002,
          2.24979455e-003, 2.88373977e-003, 5.64489141e-003,
          -6.02131942e-003, -4.56476538e-003, -2.00307858e-003,
          1.26728528e-005, -2.99846544e-003, -2.12559220e-003,
          5.99932764e-003, 9.52798035e-003, 1.00992741e-002,
          -2.79586972e-003, -8.60368833e-004, -2.12321128e-003,
          4.00828570e-003, 4.69816243e-003, -8.02611280e-003,
          -4.87032253e-003, 3.45281884e-003, 9.82175954e-003,
          6.56302460e-003, 1.62728829e-003, 5.03257895e-003,
          3.66967800e-003, 7.96944834e-003, 9.51468013e-003,
          9.88454465e-003, 7.79533107e-003, 4.08212608e-003,
          -1.10444268e-002, -1.11363651e-002, -6.46925997e-003,
          -2.02209223e-003, -8.12198315e-003, 3.52664571e-003,
          5.63088246e-003, 9.66375880e-003, 8.14419892e-003,
          -3.11884354e-003, -7.29881786e-003, -2.12722318e-003,
          7.79975555e-004, 1.26492887e-004, 2.04352033e-003,
          -3.26171145e-003, 5.10403607e-003, 4.46864357e-003,
          6.15400379e-004, 2.18859431e-003, 1.30618773e-002,
          1.59200914e-002, 2.32693087e-003, 1.08098413e-003,
          2.19020250e-004, 1.28519125e-004, 7.72433821e-003,
          1.05309896e-002, 8.68212525e-003, 1.21375185e-003,
          4.81803436e-003, -5.22950571e-003, -1.58794206e-002,
          -1.73430257e-002, -9.07405652e-003, -2.55213561e-003,
          1.21403299e-002, 1.17030945e-002, 1.31039759e-002,
          1.47532588e-002, -1.85182341e-003, -1.35577088e-002,
          -1.59498528e-002, -9.64062102e-003, 4.58449824e-003,
          3.41834524e-003, -4.43373248e-003, 6.46221684e-003,
          3.24225705e-003, 3.39278881e-003, 4.11897246e-003,
          4.09311661e-003, 1.24912104e-002, 5.60441520e-003,
          2.45382800e-003, -4.75211389e-004, -1.55459542e-003,
          9.88638029e-004, 5.19515062e-003, 8.41512519e-004,
          -1.57961585e-002, -1.72871780e-002, -5.30382618e-003,
          -5.61350817e-003, -3.47341713e-003, -1.89487590e-003,
          -3.59760155e-003, 7.37295439e-003, 2.33859685e-003,
          -1.22333411e-002, -4.32539219e-003, 1.10877107e-003,
          -2.77115335e-003, -4.20622155e-003, -3.81091773e-003,
          -1.99952349e-003, -1.57848699e-003, -7.06510246e-003,
          7.88508356e-003, -6.69750432e-003, 1.38176954e-003,
          8.77424702e-003, 8.91232025e-003, 1.05675412e-002,
          5.60550345e-003, 3.84055264e-003, 4.50359983e-003,
          -1.16827013e-003, -1.01599004e-003, 3.58658726e-003,
          1.93329097e-003, -1.22842863e-002, -1.24549298e-002,
          -1.30659129e-004, -1.71636301e-003, -1.47695048e-003,
          -4.98454878e-003, -7.84257986e-003, 3.22657288e-003,
          7.39822397e-003, -4.93956450e-003, -1.63564435e-003,
          4.02441435e-003, 2.18799594e-003, 1.68678653e-003,
          -5.95406257e-003, -7.91447703e-003, 1.24778040e-003,
          1.94364332e-003, 3.06500262e-003, -3.41349118e-003,
          -1.08652068e-002, 1.67551870e-003, 5.96722215e-003,
          5.46638202e-003, 6.39810041e-003, 8.49155523e-003,
          1.02531072e-002, 2.89849588e-003, -1.88992126e-003,
          -2.36643106e-003, -6.23281859e-003, -1.47065567e-002,
          -1.30128153e-002, 1.09480752e-003, 2.71666935e-003,
          4.59626177e-003, -1.65402261e-003, -1.66075807e-002,
          -1.30266855e-002, -6.36391807e-003, -9.55699570e-003,
          -6.39552157e-003, 4.92554251e-003, 8.43262579e-003,
          1.03790490e-002, -2.98909057e-004, -1.75435971e-002,
          -1.93720381e-003, 2.00113747e-003, -4.56472486e-003,
          -3.87939578e-003, -1.62941497e-002, -7.87317194e-003,
          -6.30891765e-004, 4.04572440e-003, 8.13850015e-003,
          8.00591614e-003, 1.11464411e-002, 3.74396495e-003,
          -4.05818410e-003, -5.00126369e-003, -5.98773034e-003,
          -1.54357366e-002, -1.19613912e-002, 3.40662827e-003,
          1.28117334e-002, 9.81590059e-003, 1.31597847e-003,
          -1.59531534e-002, -1.96819957e-002, -1.26954447e-002,
          -1.47722196e-002, -5.02473535e-003, 8.03563371e-003,
          1.71608347e-002, 1.63722727e-002, 4.01843106e-003,
          -1.85299832e-002, -3.59393517e-003, -1.86654761e-005,
          -5.06835012e-003, -1.10761507e-003, -1.05047924e-002,
          -9.18337889e-003, -1.17574050e-003, 1.31050888e-002,
          7.31146056e-003, -1.51335110e-003, 1.15228264e-004,
          -2.92812503e-004, -1.80336914e-003, -9.57023702e-004,
          -4.32387635e-004, -4.54734033e-003, -7.68571021e-003,
          -3.44594684e-003, 1.47411320e-002, 1.04418453e-002,
          3.31484084e-003, -1.04460232e-002, -9.64136329e-003,
          -8.56189802e-003, -5.48794167e-003, -2.04925789e-004,
          2.77449656e-003, 9.43847466e-003, 6.54124003e-003,
          2.14044913e-003, -1.14683732e-002, -1.73487386e-003,
          -1.09570101e-003, -1.61388062e-003, 3.04992194e-003,
          -5.47272479e-003, -3.15969368e-003, 7.44226901e-003,
          2.54010502e-002, 1.49910320e-002, -3.74136283e-003,
          -8.60198215e-003, -1.20202610e-002, -1.80864031e-003,
          4.41474468e-003, 6.43702736e-003, -9.91511974e-004,
          -6.15711650e-003, -1.03831198e-002, 1.38538692e-003,
          -4.16988711e-004, -2.11185100e-003, -7.04136584e-003,
          9.27069414e-005, 3.16357356e-003, 5.29933255e-003,
          8.78694188e-003, 2.06484506e-003, -3.22327344e-003,
          -8.81105755e-003, -1.33897448e-002, -8.34863726e-003,
          1.95986894e-003, -1.86541060e-003, -1.64663652e-003,
          6.87107560e-004, -2.55537126e-003, 4.12070286e-003,
          1.84479058e-002, 2.90341657e-002, 1.12743154e-002,
          2.14114948e-003, -2.57883267e-003, -7.16597447e-003,
          -6.64134393e-004, 8.25741049e-003, 8.16779397e-003,
          1.43657788e-003, -7.72495754e-004, -9.33873188e-003,
          -1.11474404e-002, -1.88480224e-002, -1.83594376e-002,
          -9.02655814e-003, 5.86276222e-003, 1.22883422e-002,
          1.81572530e-002, 1.68758538e-002, 5.57514490e-004,
          -8.65793694e-003, -2.00210642e-002, -2.30668038e-002,
          -8.60380474e-003, 5.94992377e-003, -4.76089679e-003,
          5.90802869e-004, -6.37616322e-004, 5.07963682e-003,
          5.92111843e-003, 3.05312756e-003, 3.97712924e-003,
          7.98632449e-004, -1.32246257e-003, -3.18222027e-003,
          -6.95218006e-003, 2.41344655e-003, 7.03289779e-003,
          -1.07637126e-004, -5.95412124e-003, -4.75067599e-003,
          5.36584354e-004, 7.34875211e-005, 6.24141074e-004,
          3.32179409e-003, 6.47886540e-004, 7.18457950e-003,
          2.15904554e-003, -3.96823417e-003, -1.01248920e-003,
          1.47608481e-003, -1.12152135e-003, -3.14413593e-003,
          -4.30712104e-003, 2.07961118e-003, -2.60596583e-003,
          -5.13637066e-003, 1.01051312e-002, 2.92187557e-003,
          4.52498440e-003, 1.24246087e-002, 7.28229620e-003,
          2.97738938e-003, 4.15774441e-004, 2.68926611e-003,
          3.48080415e-003, -2.78943148e-003, 1.26900012e-003,
          5.52255753e-003, -4.27896797e-004, -5.43876505e-003,
          1.33859250e-003, 4.97849472e-003, 2.10133917e-003,
          7.08855630e-004, -1.49057922e-003, -4.76467516e-003,
          5.63743198e-003, 7.58373505e-003, 2.82439287e-004,
          3.84621462e-003, 4.92781354e-003, 5.03416592e-003,
          2.77783885e-003, -4.41231346e-003, -3.70288244e-003,
          3.00187338e-003, 2.46875780e-003, 7.04899477e-003,
          3.88632715e-003, -8.06108397e-003, -1.46640802e-003,
          -1.58904237e-003, 2.36555864e-003, 4.05526021e-003,
          1.14657553e-002, 1.00566521e-002, 2.24233628e-003,
          1.78632233e-003, 1.49715215e-003, -4.38024243e-003,
          -7.87474588e-003, 1.58979077e-004, 5.31392824e-003,
          5.86449681e-003, 6.64160540e-003, 3.66824027e-003,
          -1.14632603e-002, -9.76666715e-003, -7.32128415e-003,
          -8.62577558e-003, 2.51277746e-003, 8.59420095e-003,
          1.44320847e-002, 1.23495497e-002, 4.29626554e-003,
          -9.39451065e-003, 4.80568316e-003, 3.28272698e-003,
          9.50188434e-004, 5.22102870e-004, -1.80050526e-002,
          -1.36241429e-002, -6.22149883e-003, 7.27086607e-003,
          1.20100854e-002, 1.23576540e-002, 1.00254761e-002,
          9.12767544e-004, -6.63954299e-003, -6.75343396e-003,
          -6.90322788e-003, -1.14549343e-002, -1.03026070e-003,
          7.47710234e-003, 1.47168674e-002, 1.13674644e-002,
          5.19358274e-003, -1.24264583e-002, -2.29720622e-002,
          -1.88145172e-002, -1.60469599e-002, 5.49941929e-003,
          1.42053161e-002, 2.27690972e-002, 1.68641899e-002,
          4.71428456e-003, -1.82511210e-002, 2.93188542e-003,
          -8.45187635e-004, -8.65115318e-004, -2.03554286e-003,
          -1.17082121e-002, -1.09455530e-002, -5.91064198e-003,
          1.49900941e-002, 1.52312629e-002, 7.72852683e-003,
          2.62381928e-003, -1.43062859e-003, -6.86969934e-003,
          -7.03019882e-003, -6.43362757e-003, -7.98641611e-003,
          -1.14531629e-003, 6.88050222e-003, 1.63156893e-002,
          1.13747856e-002, 6.06915262e-003, -7.44857127e-003,
          -1.68544091e-002, -1.58165358e-002, -1.25619881e-002,
          7.08883815e-003, 1.56781580e-002, 2.02220436e-002,
          9.91736539e-003, 3.04906955e-003, -1.38203613e-002,
          5.90697443e-003, -1.02284877e-003, 2.20804149e-003,
          -3.48805916e-004, -2.23912741e-003, -2.54096068e-003,
          3.84198828e-003, 2.68298276e-002, 1.93929095e-002,
          -4.39961586e-005, -9.77119058e-003, -1.52797326e-002,
          -1.39104370e-002, -4.51677851e-003, -2.03537452e-003,
          -5.87179838e-003, -1.46507286e-003, 3.21742706e-003,
          1.08370250e-002, 5.42851537e-003, 1.30609737e-003,
          -2.41637626e-003, -6.18466176e-003, -4.11828002e-003,
          -1.80411467e-003, 1.54558877e-002, 1.60838813e-002,
          8.48990120e-003, -4.31114295e-003, -1.32447574e-002,
          -1.59409475e-002, 8.16929713e-003, -1.16963102e-003,
          1.61271018e-003, -3.53872404e-003, -5.51893376e-003,
          -2.30589090e-003, 8.85654520e-003, 2.41453722e-002,
          1.21085737e-002, 2.23113282e-004, -3.13003920e-003,
          -1.19175585e-002, -1.23815648e-002, -4.26849723e-003,
          1.34138414e-003, 1.76569587e-003, 6.06166059e-003,
          3.31262103e-003, -2.00058814e-004, -4.19607852e-003,
          -6.01526862e-003, -4.83771972e-003, -8.65113642e-003,
          -1.19229117e-004, 1.03582805e-002, 1.85936037e-002,
          1.07304528e-002, 4.68599785e-004, -6.95450697e-003,
          -1.64928585e-002, -1.56887174e-002, 7.70243537e-003,
          -2.04922026e-003, 1.16035424e-003, -5.37893083e-003,
          1.32171419e-002, 8.89262371e-003, 2.36679707e-003,
          -1.79164112e-003, -5.07185981e-003, -8.54042172e-003,
          -1.23309083e-002, -1.40719879e-002, -3.14426166e-003,
          9.57350153e-003, 4.17223480e-003, 3.61977867e-003,
          2.66418396e-003, 4.87411162e-004, 2.17191596e-003,
          2.39958474e-003, 3.92091181e-003, 4.59930580e-003,
          1.24011626e-002, 8.62319954e-003, 4.85719927e-003,
          1.67490891e-003, -3.14457552e-003, -6.11121627e-003,
          -1.01215476e-002, -1.00824740e-002, 4.10202134e-004,
          -3.47220083e-003, -4.74579213e-003, 7.13505642e-003,
          7.27445120e-003, 1.56454500e-002, 1.18848961e-002,
          3.68753844e-003, -8.22697184e-004, -1.83660176e-003,
          -2.59446888e-003, -2.18760525e-003, -7.54032191e-003,
          -4.68592829e-004, 7.16391671e-003, -1.37288007e-003,
          -7.51341344e-004, 1.28814194e-003, -9.01865889e-004,
          1.49983086e-003, 1.51665008e-003, 7.63429853e-004,
          1.60233828e-003, 1.39306402e-002, 7.14023225e-003,
          1.91701693e-003, 8.65455775e-004, -2.93930480e-003,
          -1.00589497e-003, -1.57910050e-003, -6.82630623e-003,
          5.53166145e-004, 1.94170477e-003, 3.43508320e-004,
          5.45329507e-003, 4.78933146e-003, -2.99792178e-003,
          -8.96630064e-003, -4.73393593e-003, 1.39581459e-003,
          3.15396185e-003, 8.59290082e-003, 7.72286067e-003,
          1.82033877e-003, 2.19886401e-003, 7.81962369e-003,
          -3.69362417e-004, -1.88280281e-003, 2.12930422e-003,
          4.70932107e-004, 3.51439440e-003, 4.17600526e-003,
          2.18867860e-003, -3.55471577e-003, -2.17518420e-003,
          -8.83117877e-003, -4.33505373e-003, 3.85172898e-003,
          3.11042089e-003, 9.36132390e-003, 8.84178746e-003,
          2.67932680e-003, -1.26297493e-003, 6.80693984e-003,
          3.20581184e-003, 8.03597446e-004, -1.25639010e-004,
          -1.24554019e-002, -1.80236548e-002, -8.29344988e-003,
          9.40546207e-003, 1.30390525e-002, 1.12018269e-002,
          7.77288713e-003, 9.41903680e-004, -5.28156478e-003,
          -6.75954623e-003, -6.10846048e-003, -2.06428347e-003,
          1.99744431e-003, 6.48630038e-003, 1.02286339e-002,
          7.32580665e-003, 3.92483175e-003, -1.78528531e-003,
          -1.66343004e-002, -1.97175760e-002, -9.64582246e-003,
          9.80403740e-003, 1.44319078e-002, 1.74948815e-002,
          1.19339423e-002, 3.79227777e-003, -6.77736429e-003,
          6.20211335e-003, 2.83799978e-004, 1.25322130e-003,
          -2.29328498e-003, -5.53996768e-003, -1.03196260e-002,
          -6.62113680e-003, 1.27584031e-002, 1.73556376e-002,
          8.08204245e-003, 1.76211249e-003, -6.77807489e-004,
          -5.69435488e-003, -8.38356838e-003, -7.43295718e-003,
          -2.33244244e-003, 3.17733851e-003, 9.06024873e-003,
          1.38804540e-002, 1.00173298e-002, 5.93515113e-003,
          1.27667247e-003, -1.26556503e-002, -1.56163657e-002,
          -8.07787571e-003, 1.03716813e-002, 1.86741482e-002,
          1.79705266e-002, 9.04096197e-003, 3.94860143e-003,
          -4.77015087e-003, 1.15521178e-002, 1.89147377e-003,
          4.49331710e-003, -8.23424140e-004, -7.32636894e-004,
          -1.57984754e-003, -1.06403837e-003, 1.78187303e-002,
          1.88837536e-002, 2.53913604e-004, -8.16501863e-003,
          -1.06662661e-002, -1.25408834e-002, -1.23845330e-002,
          -8.61875713e-003, -6.07864931e-003, 4.29369556e-003,
          1.06061297e-002, 1.41274640e-002, 1.19010825e-002,
          5.36921434e-003, 3.86790233e-003, -1.18062561e-002,
          -9.42328945e-003, -4.59491974e-003, 1.57104321e-002,
          2.16651354e-002, 1.20125115e-002, 3.15112388e-003,
          -5.01343841e-003, -8.34659208e-003, 9.13819671e-003,
          1.72162219e-003, 4.26623924e-003, -3.20375967e-003,
          -5.77088119e-003, -6.36116974e-003, -2.87699420e-003,
          9.05300677e-003, 8.09345581e-003, 1.50258158e-004,
          -2.02829321e-003, -3.93658457e-003, -9.59774293e-003,
          -9.04824119e-003, -7.14421971e-003, -3.55004129e-004,
          1.19521450e-002, 1.37340184e-002, 1.00881234e-002,
          9.60616209e-003, 5.01230964e-003, 2.75607617e-003,
          -1.22358724e-002, -9.83674545e-003, 2.96693691e-003,
          1.41405631e-002, 1.73930265e-002, 9.87009890e-003,
          7.16575375e-003, 1.14223605e-003, -5.89014310e-003,
          5.49801858e-003, 3.65977921e-003, 2.77522160e-003,
          -9.36943921e-004, 1.55305350e-002, 5.05915936e-003,
          -5.73868805e-004, -1.13752706e-003, -2.19482812e-003,
          -4.46039112e-003, -4.09412524e-003, -5.45903621e-003,
          1.76098678e-004, 4.81881713e-003, 1.94634835e-003,
          6.53087255e-003, 6.23100903e-003, -2.69327225e-004,
          4.41870606e-003, 3.17952898e-003, 2.09719781e-003,
          5.81577932e-003, 1.00023802e-002, 4.57962370e-003,
          6.23664679e-003, 5.71641605e-003, -1.23856333e-003,
          -4.36704926e-004, -1.23046967e-003, -3.00117489e-003,
          4.80205892e-003, -1.93759202e-004, -1.27801159e-003,
          8.22312664e-003, 1.09803313e-002, 1.60161909e-002,
          2.84760352e-003, -2.93398835e-003, 3.06695048e-003,
          -9.08342132e-004, -2.57829297e-003, -1.20259018e-003,
          -2.40285834e-003, -1.43534550e-003, -3.16047552e-003,
          -2.72359024e-003, 1.55791640e-003, 1.77537347e-003,
          1.71510095e-003, 9.13902558e-003, 4.25221957e-003,
          2.09303456e-003, 4.52448986e-003, 7.00028427e-003,
          -1.57257033e-004, 9.00235435e-004, 5.50713297e-003,
          3.80114245e-004, 6.27917284e-003, 2.94689089e-003,
          -4.20035154e-004, 2.74371891e-003, 2.01307400e-003,
          1.12785317e-003, 5.29357092e-003, 5.53893950e-003,
          -6.56288539e-005, -1.33994874e-002, -5.27378963e-003,
          7.85896368e-003, 4.30772640e-003, 4.31951741e-003,
          1.61137187e-003, 5.48501848e-004, 4.05158009e-003,
          3.31281102e-003, -1.72237458e-003, 3.50452814e-004,
          1.34627055e-003, 6.53020525e-003, 1.14783300e-002,
          3.73439305e-003, -2.24714182e-004, -3.06070806e-003,
          -3.14297900e-003, -1.29290828e-002, -2.08517024e-003,
          9.18600988e-003, 8.64672475e-003, 1.47274751e-002,
          5.31940395e-003, 3.48909583e-004, 1.28813297e-003,
          8.13406613e-003, 5.53883426e-003, -6.35706820e-004,
          -9.20601131e-004, -3.48506984e-003, -9.71916597e-003,
          -2.44250731e-003, 1.27081247e-002, 1.00435289e-002,
          6.48075854e-003, 3.10946326e-003, 1.98597764e-003,
          -2.94075522e-004, -5.27216867e-003, -4.10377607e-003,
          -8.99614417e-004, 9.88977961e-004, 9.28810053e-003,
          8.73388257e-003, 2.41700816e-003, -2.05778028e-003,
          -7.84600503e-004, -7.55843800e-003, -1.14336777e-002,
          -2.96299206e-003, 1.28376121e-002, 1.48182269e-002,
          1.41873593e-002, 5.66399703e-003, 6.90314264e-005,
          -8.50205601e-004, 1.01970751e-002, 3.70980054e-003,
          6.05328474e-004, -1.92720781e-003, 3.09484662e-004,
          -1.02637021e-003, 2.09902367e-003, 1.07579213e-002,
          1.20009817e-002, 5.52317826e-003, 1.40932319e-003,
          1.92015164e-003, 1.08486402e-003, -5.32937935e-003,
          -3.32228257e-003, -2.00909283e-003, 1.72307977e-004,
          6.11585332e-003, 7.80748622e-003, 6.95951143e-003,
          1.11712283e-003, 3.80954356e-003, -4.27520974e-003,
          -2.84145563e-003, 5.89217292e-004, 1.02547063e-002,
          1.40757132e-002, 1.26486532e-002, 8.22784286e-003,
          3.19739827e-003, 4.55087284e-003, 1.19749131e-002,
          6.44918112e-003, 5.05061261e-003, -1.87721933e-004,
          7.37914350e-004, -2.19107489e-003, -2.29394995e-003,
          6.81109400e-003, 1.12323342e-002, 2.37133144e-003,
          -1.57924858e-003, 1.54328067e-003, 1.89741593e-004,
          -1.04465038e-002, -5.55168092e-003, -1.95793575e-003,
          4.79715085e-003, 7.18095805e-003, 6.19430002e-003,
          1.03416881e-002, 4.16712603e-003, 5.15714334e-003,
          -6.88111363e-003, -4.72749677e-003, 1.42827223e-003,
          1.11768320e-002, 1.51763754e-002, 8.15141015e-003,
          8.47574230e-003, 5.66813489e-003, 4.80277371e-003,
          4.75774286e-003, 4.90784226e-003, 5.82112791e-003,
          1.81539729e-003, -5.93894627e-003, -8.38309620e-003,
          -7.82572106e-003, -3.42248869e-003, 4.07388574e-003,
          1.50622439e-003, 3.24713322e-003, 5.79667371e-003,
          3.81022139e-004, -1.05698528e-002, -1.07751100e-003,
          7.13197235e-003, 1.61365923e-002, 1.30325649e-002,
          6.74814358e-003, 1.07089356e-002, 6.04402507e-003,
          3.43036093e-003, -1.03646452e-002, -5.62465051e-003,
          5.24765532e-003, 1.19357146e-002, 1.59028135e-002,
          8.78239144e-003, 1.36307348e-002, 1.16387811e-002,
          3.29707237e-003, -1.54873787e-003, 8.41531530e-003,
          4.60172212e-003, 7.86849111e-003, 1.12329787e-002,
          4.02163295e-003, -1.56597828e-003, 2.81732040e-003,
          1.34310778e-003, -2.16639513e-004, 5.55148348e-003,
          2.43178545e-003, 5.23676025e-003, -2.56201427e-004,
          -7.87902344e-003, 5.36336936e-003, 8.21966585e-003,
          3.59571277e-004, 4.86121280e-003, 3.38770379e-003,
          2.48296186e-003, 5.50841494e-003, 3.93717922e-003,
          -3.04093235e-003, 4.87951376e-003, 1.15521718e-002,
          2.32222234e-003, 4.59984923e-003, 8.73390771e-003,
          4.99871280e-003, 8.87553394e-003, 1.80460943e-003,
          1.61361066e-003, 9.44841467e-003, 1.20704854e-002,
          7.30541069e-003, -1.54436927e-003, -4.60390263e-004,
          9.75180883e-003, 2.15304899e-003, -2.45994353e-003,
          2.47979234e-003, 1.24310015e-003, 3.14383651e-003,
          -6.93883747e-003, -7.91370403e-003, 5.76988468e-003,
          6.44125231e-003, 6.00281125e-003, 1.26015600e-002,
          4.84736962e-003, 2.05654977e-003, 3.99667118e-003,
          -1.60444659e-004, -6.81039598e-003, 7.50718825e-003,
          1.62652973e-002, 6.79706037e-003, 9.95910354e-003,
          7.27075059e-003, 3.22326622e-003, 6.89483993e-003,
          5.05061634e-003, 3.83254327e-003, 6.69228379e-003,
          7.27607310e-003, 7.58419192e-005, -6.09153043e-003,
          2.98818201e-003, 1.56548619e-002, 3.50490911e-003,
          -3.21764592e-003, -2.51932605e-003, -2.12577218e-003,
          3.46683059e-003, 7.75906141e-004, -1.78938219e-003,
          3.08098784e-003, 2.06814683e-003, 1.01984870e-002,
          1.54573331e-002, 3.45540512e-003, -4.92274179e-004,
          2.30987192e-004, -2.41286750e-003, -7.02232542e-003,
          6.09693583e-003, 1.71590373e-002, 1.03159957e-002,
          1.16700828e-002, 1.21284160e-003, -2.46104482e-003,
          3.59750469e-003, 1.10999048e-002, 9.11315158e-003,
          9.44370287e-004, -7.55021101e-005, 2.04294198e-003,
          2.25072703e-003, 8.23169574e-003, 1.65462438e-002,
          3.70938680e-003, -1.56728656e-003, 1.76909415e-003,
          2.90033902e-004, 1.41620601e-003, -5.27153024e-003,
          -3.67755303e-003, 2.91217380e-004, 6.11463678e-004,
          9.07437224e-003, 9.17165354e-003, 9.15492943e-004,
          -2.06844369e-003, 1.71188684e-003, -1.38464198e-003,
          -5.86858834e-004, 8.31104442e-003, 1.66013613e-002,
          1.39847156e-002, 9.37442109e-003, 3.12845223e-003,
          -9.11799609e-004, 3.99863999e-003, 1.14894146e-002,
          9.25365090e-003, 1.43078226e-003, -7.49847968e-004,
          1.11947674e-003, 3.13002733e-003, 6.27940288e-003,
          8.24376941e-003, -4.17257688e-005, -1.83683878e-003,
          5.64189116e-003, 6.59862580e-003, 9.21254605e-003,
          -4.15023649e-003, -4.44125198e-003, -1.73362336e-004,
          1.08384600e-004, 1.18425617e-003, 5.51557681e-003,
          5.82711818e-003, 5.08244149e-004, 2.15416518e-003,
          -5.09239966e-004, 8.12307699e-004, 7.76463049e-003,
          8.29645153e-003, 6.81678997e-003, 5.62860118e-003,
          1.14372438e-002, 7.11484300e-003, 1.05955470e-002,
          6.35591568e-003, 8.59590899e-003, 4.04193951e-003,
          2.16270052e-003, -1.31288706e-003, -2.15506298e-003,
          -5.40973665e-003, -2.90584145e-003, -3.32742208e-003,
          -1.60212524e-003, 7.17424648e-003, 1.16951549e-002,
          1.26376459e-002, -3.43959616e-003, -3.55654606e-003,
          5.64680574e-003, 7.33865937e-003, 1.20485644e-003,
          4.00541537e-003, 7.99640082e-003, 2.62825401e-003,
          2.37027602e-003, -2.08767666e-003, -2.55332771e-003,
          5.08214487e-003, 6.72613317e-003, 3.95455258e-003,
          3.91427567e-003, 1.46985585e-002, 1.42479604e-002,
          1.40561359e-002, -1.88037578e-003, 5.74642560e-003,
          5.58685744e-003, 8.92627053e-003, -6.30135927e-003,
          -4.98608127e-003, -8.32403451e-003, -7.26439990e-003,
          -6.49065292e-003, -2.31325813e-003, 6.11193525e-003,
          1.03949308e-002, 1.17394673e-002, -3.08410055e-003,
          -4.37457093e-005, 1.22529333e-002, 1.82882510e-002,
          9.03004222e-003, 5.87784778e-003, 7.35938549e-003,
          1.84636959e-003, -1.57705229e-003, -4.83475113e-003,
          -1.40145596e-003, 6.53995248e-003, 1.08572198e-002,
          6.30157953e-003, 4.57325298e-003, 1.27924634e-002,
          1.19800651e-002, 9.47537459e-003, -7.46759912e-003,
          6.77107414e-003, 5.71392197e-003, 1.50248716e-002,
          4.09060484e-003, 6.81873830e-003, -9.25713102e-005,
          4.32733074e-003, 3.11033358e-003, 5.48727694e-004,
          5.16911549e-003, 4.28207451e-003, 7.92613626e-003,
          -4.10136953e-003, -6.16253633e-003, 2.53842422e-003,
          4.59105708e-003, 5.25063835e-004, 3.60807613e-003,
          2.52479385e-003, 1.74847292e-003, 2.10133125e-003,
          -1.26895902e-003, 1.22236699e-004, 3.29523161e-003,
          8.94670282e-003, 3.99992801e-003, 4.14663088e-003,
          7.48748425e-003, 6.05025329e-003, 8.60092603e-003,
          1.42007775e-003, 1.24526897e-003, 8.75398144e-003,
          9.11193527e-003, -8.96477839e-004, 1.55048375e-003,
          2.33922881e-004, 1.05930846e-002, 3.55934701e-003,
          -2.40406743e-003, 1.95523538e-003, 1.31162337e-003,
          3.11452290e-003, -7.76780583e-003, -3.75545886e-003,
          4.37791971e-003, 3.91316274e-003, 5.96809387e-003,
          1.19341966e-002, 4.30564070e-003, 1.72456261e-003,
          1.65650679e-003, -5.75026870e-003, -2.66044214e-003,
          5.41636813e-003, 1.41687579e-002, 7.86058512e-003,
          9.31371655e-003, 6.25480479e-003, 3.24498978e-003,
          5.39363921e-003, 6.96082134e-003, 3.32482136e-003,
          4.58628638e-003, 4.63200733e-003, -3.70151317e-003,
          4.43974801e-004, 2.87218252e-003, 1.74368657e-002,
          5.28189726e-003, -2.48003169e-003, -2.08812812e-003,
          -3.92273208e-003, -1.31767883e-003, -1.68399722e-003,
          -7.74025175e-005, 2.43375194e-003, 1.56212319e-003,
          1.25252362e-002, 1.66490339e-002, 6.46778522e-003,
          2.78900820e-003, 2.08772696e-003, -6.52971165e-003,
          -3.13930493e-003, 5.01010101e-003, 1.85300522e-002,
          1.42911607e-002, 1.38373747e-002, 4.60050488e-003,
          -8.56897619e-004, 1.45974942e-003, 1.39502436e-002,
          9.24097933e-003, 2.94794794e-003, -8.10733254e-005,
          -1.77464995e-003, 5.09550935e-003, 8.94552097e-003,
          1.61411278e-002, 5.49294753e-003, -5.28970791e-004,
          1.93655293e-003, -3.09105054e-003, -3.60104046e-003,
          -8.14849790e-003, -4.79070237e-003, 1.19083619e-004,
          4.00464749e-004, 1.46608278e-002, 1.51769221e-002,
          8.90252460e-003, 4.37750854e-003, 4.22101188e-003,
          -6.29327679e-003, 1.47201470e-003, 8.88173841e-003,
          1.64389033e-002, 1.69882067e-002, 1.50695993e-002,
          1.02690468e-002, 1.42668968e-003, 2.42668786e-003,
          1.24641834e-002, 1.05186403e-002, 5.77318016e-003,
          1.19443599e-003, -1.87658775e-003, 1.70742132e-004,
          4.40810388e-003, 6.68243924e-003, -6.22869993e-004,
          -9.91608831e-004, 6.03415258e-003, 6.04653638e-003,
          8.80738441e-003, -2.84404168e-003, -3.47419712e-003,
          2.26584234e-004, 9.25738539e-004, 8.12955387e-003,
          8.18338525e-003, 8.22674949e-003, 4.59937146e-003,
          4.70873620e-003, -2.30060075e-003, -7.72140746e-004,
          6.54308219e-003, 7.93482084e-003, 8.01190175e-003,
          7.53335655e-003, 1.37200113e-002, 1.04106031e-002,
          1.15332995e-002, 3.84274661e-003, 8.00793990e-003,
          8.52783304e-003, 6.65163761e-003, -4.20186063e-003,
          -2.30717659e-003, -5.95326954e-003, -4.53115860e-003,
          -7.13581638e-003, -2.88446038e-003, 5.72845805e-003,
          1.02813831e-002, 1.59562025e-002, 3.51730315e-003,
          2.41239928e-003, 9.23386309e-003, 8.19743518e-003,
          5.34870150e-003, 3.93065764e-003, 5.07755857e-003,
          2.74376315e-003, 9.79473814e-004, -1.49702746e-003,
          1.05985766e-003, 4.03080508e-003, 4.88561345e-003,
          1.78026865e-004, 1.65984291e-003, 1.05602928e-002,
          1.30851371e-002, 1.47249885e-002, -4.13914211e-003,
          4.37964825e-003, 8.46141949e-003, 1.31679503e-002,
          -3.21282516e-003, 2.13111029e-003, -5.61817409e-003,
          -7.94098526e-003, -1.03416946e-002, -4.91037080e-003,
          3.18324682e-003, 7.79755739e-003, 1.26266070e-002,
          7.05207093e-003, 2.85653770e-003, 9.20323189e-003,
          1.30172009e-002, 4.55748243e-003, 2.64984509e-003,
          5.23798750e-004, -9.47162102e-004, -3.70110595e-003,
          2.11598002e-003, 6.14755508e-003, 4.16447641e-003,
          5.21127926e-003, -3.07454774e-003, -1.61656551e-003,
          3.70275695e-003, 6.70411438e-003, 7.20698666e-003,
          -8.30050465e-003, 1.50649808e-003, 5.73017774e-003,
          1.46997198e-002, 3.46779567e-003, 1.31548168e-002,
          9.13933560e-004, 3.49027175e-003, 1.33561285e-003,
          4.68381273e-004, 1.41351437e-003, 1.18013646e-003,
          5.52479364e-003, -6.37855893e-003, -2.70719430e-003,
          -1.63173606e-003, -1.11687696e-003, 4.78211528e-004,
          1.62076659e-003, 2.15170765e-003, 1.38406525e-003,
          -3.23504617e-004, -2.53057270e-003, 5.98948682e-003,
          -3.52576870e-004, 2.33736541e-003, 2.35152943e-003,
          2.25504511e-003, 3.58562986e-003, 2.48915795e-003,
          3.86744691e-003, -5.06761775e-004, 2.84087495e-004,
          5.48550207e-003, 6.25165319e-003, -6.49709161e-003,
          6.55566342e-003, 3.26819229e-003, 1.04962857e-002,
          6.06286479e-003, 3.87379958e-004, 5.83287270e-004,
          -1.60297481e-004, 1.96676329e-003, -6.15935447e-003,
          -6.89958164e-004, -1.50929089e-003, -1.58441358e-003,
          1.91724871e-003, 4.88173775e-003, 1.76135427e-003,
          6.61982922e-005, -2.85637332e-003, -7.42401043e-003,
          2.70611374e-003, 1.71080488e-003, 8.64842720e-003,
          7.21084746e-003, 5.11944527e-003, 2.40249094e-003,
          1.49588712e-004, -1.11245806e-003, 5.93169685e-003,
          3.36026400e-003, -7.12884299e-004, 1.37202005e-004,
          -6.50980603e-003, 4.60995315e-003, 5.20476839e-003,
          1.56992823e-002, 1.22488057e-002, 3.93909402e-003,
          3.06266407e-003, -6.93766575e-004, -2.39720615e-003,
          -2.31471751e-003, -1.02053781e-003, -1.03982119e-003,
          -4.46920865e-004, 5.48702339e-003, 7.37385731e-003,
          5.39282896e-003, 5.08018397e-003, 2.05455255e-003,
          -1.04048438e-002, -2.33107785e-005, 4.28129500e-003,
          1.48984781e-002, 1.57905687e-002, 1.11180097e-002,
          8.64846166e-003, 4.32323245e-003, -2.36140811e-004,
          1.41845047e-002, 9.24515352e-003, 2.47255899e-003,
          3.69016809e-004, -5.27984882e-003, 2.50249216e-003,
          7.31779169e-003, 1.48206260e-002, 1.56464297e-002,
          5.96325193e-003, 4.53657378e-003, -3.70564318e-004,
          -6.93761278e-003, -1.32182529e-002, -6.70956913e-003,
          1.91577637e-004, -6.27786329e-004, 7.02574290e-003,
          7.88987521e-003, 1.10413004e-002, 8.87197722e-003,
          5.36154583e-003, -1.34708500e-002, -1.86006422e-003,
          7.60385254e-003, 1.42937163e-002, 1.95187945e-002,
          1.37619423e-002, 1.47397090e-002, 8.23273044e-003,
          -7.81070965e-004, 8.75512976e-003, 7.83635583e-003,
          7.67278438e-003, 3.08897509e-003, -5.26643917e-003,
          -2.91423080e-003, 1.20190484e-003, 4.59718145e-003,
          7.35778222e-003, 5.23367757e-003, 5.59030520e-003,
          3.32840416e-003, 3.07240547e-003, -5.69432508e-003,
          -3.86310887e-004, 1.54679420e-003, 1.11042973e-004,
          4.99837892e-003, 4.34023608e-003, 9.48372204e-003,
          7.92715698e-003, 4.99966322e-003, -8.15062970e-003,
          -2.03935406e-003, 3.05108749e-003, 5.38854953e-003,
          1.10793915e-002, 9.38274059e-003, 1.42931109e-002,
          1.08177848e-002, 6.52660662e-003, 1.60152907e-004,
          3.92708834e-003, 1.00532603e-002, 9.20669176e-003,
          -6.79210294e-003, -3.15240189e-003, -3.83256353e-003,
          -2.30390206e-003, -1.69676426e-003, -9.23226005e-004,
          3.30018671e-003, 5.79969864e-003, 8.92584678e-003,
          5.64214541e-003, 5.20497281e-003, 2.34283949e-003,
          1.66011695e-003, 1.29785086e-003, 2.00868607e-003,
          5.69195580e-003, 3.06250458e-003, -8.27471958e-004,
          -3.40757007e-003, 1.77632377e-003, -1.04481017e-003,
          -1.49611864e-004, 1.59090676e-004, 1.36719737e-003,
          8.39289185e-003, 8.54505040e-003, 6.33199047e-003,
          -6.03597285e-003, -2.07440462e-004, 7.01862155e-003,
          1.12022981e-002, 2.42586058e-004, 1.35388249e-003,
          -2.27979710e-003, -3.94024886e-003, -1.02052474e-002,
          -4.81204828e-003, -4.66919082e-005, 3.43069481e-003,
          8.12717807e-003, 1.37904063e-002, 8.02616216e-003,
          7.07318890e-004, 1.22072652e-003, -2.84962868e-003,
          2.90112104e-003, 6.58087200e-004, -4.46291029e-004,
          -2.46385485e-003, 9.23006982e-003, 8.68113060e-003,
          -7.57958798e-004, -2.10434152e-003, -9.68356151e-003,
          -9.29995673e-004, 9.63983533e-004, 2.79051624e-003,
          4.85469168e-003, -5.91728603e-003, -2.20688595e-003,
          4.41913912e-003, 1.00285597e-002, 1.12407459e-002,
          1.08850775e-002, -1.19758851e-003, -1.42534333e-003,
          8.97205959e-004, 3.86124128e-004, -9.70900001e-004,
          -2.33895914e-003, -5.08464547e-003, -6.41034218e-003,
          -3.46073619e-004, -2.29384773e-003, -2.76037236e-003,
          -1.53226650e-003, -6.98392163e-004, 1.08574890e-003,
          1.99970021e-003, -8.90142910e-005, 9.60467267e-004,
          4.96514980e-003, -2.87720421e-003, -3.58441100e-003,
          -3.81144841e-004, -2.76896812e-004, 4.01837198e-004,
          -3.45333712e-004, -4.07280494e-003, -2.81414809e-003,
          -2.08454905e-003, 2.44168611e-003, 3.09191947e-003,
          -1.14955346e-003, 2.32062209e-003, 5.09921229e-004,
          3.94463353e-003, 2.71205814e-003, 4.55956790e-004,
          -1.98496971e-003, -2.30302825e-003, -3.35547444e-003,
          -4.24289983e-003, -5.01596427e-004, -2.42746924e-003,
          -2.19383533e-003, -5.04074385e-004, -6.60230522e-004,
          1.86717254e-004, -8.81147687e-004, -3.69622721e-003,
          -3.79056740e-003, 7.56280555e-004, -1.94267405e-003,
          1.67446397e-003, 2.38415552e-003, -2.30950769e-004,
          -1.67663814e-003, -3.05277039e-003, -6.57931855e-003,
          1.37321453e-003, 2.28070328e-003, -5.31498389e-003,
          -4.83039347e-003, -2.94612464e-003, -1.86450547e-003,
          5.64958842e-004, 6.31425530e-003, 8.62747245e-003,
          4.54264274e-003, 2.61137378e-003, 1.14180741e-003,
          -1.49410986e-003, -7.27299193e-004, -1.39417546e-003,
          -2.65056803e-003, -1.72559579e-003, 1.20986474e-003,
          2.01599672e-003, 4.87703411e-003, 7.00268755e-003,
          3.98235023e-003, -7.36309495e-003, -6.07676851e-003,
          -1.72047282e-003, 4.85879928e-003, 9.01563000e-003,
          6.62985817e-003, 7.21159577e-003, 7.80860567e-003,
          1.99346640e-003, 7.58206705e-003, 9.66070872e-003,
          -1.90262136e-003, -1.15664012e-003, -3.50989378e-003,
          -4.58705658e-003, -5.23144321e-004, 5.33798430e-003,
          1.13897016e-002, 7.17238430e-003, 3.00923409e-003,
          -3.29787057e-004, -3.40588740e-003, -1.04666427e-002,
          -7.42254360e-003, -3.11991177e-003, -2.55561317e-003,
          2.95256986e-003, 3.86777776e-003, 1.09501714e-002,
          1.06386170e-002, 7.02210609e-003, -8.71586800e-003,
          -9.09252930e-003, -2.30444083e-003, 3.73651367e-003,
          1.33538144e-002, 1.11696273e-002, 1.32062938e-002,
          1.02349641e-002, 3.56173818e-003, 5.55630366e-004,
          4.79824375e-003, 2.92257289e-003, 4.17797267e-003,
          -5.26365824e-003, -3.89170018e-003, -4.78112791e-003,
          -1.03756483e-003, 4.96052066e-003, 4.76877624e-003,
          4.88469261e-004, -8.95595644e-004, -4.92949795e-004,
          -2.77586584e-003, 3.21258878e-004, -2.87832855e-003,
          -5.34682628e-003, 1.39170428e-004, 3.13804438e-003,
          9.12097748e-003, 9.49630141e-003, 4.09168052e-003,
          -5.66396583e-003, -2.12942529e-003, -6.43803505e-003,
          -4.48502135e-003, 5.53431641e-003, 7.72684859e-003,
          9.78802796e-003, 9.45874956e-003, 2.80403905e-003,
          -6.20631641e-003, -5.88372583e-004, 3.93021852e-003,
          7.18324026e-003, -4.50923294e-003, -5.40795643e-003,
          -6.27705548e-003, -4.52791061e-003, -1.12775667e-003,
          8.37131112e-004, -1.54868339e-003, -1.79666397e-003,
          1.41609635e-003, 7.75396731e-003, 8.05736613e-003,
          -4.66713356e-003, -6.18174393e-003, -2.49681203e-003,
          9.98954987e-004, 4.00649244e-003, 1.35376153e-003,
          -3.34226945e-003, -4.25560691e-004, 2.16207607e-003,
          -1.00190388e-002, -9.57061909e-003, -3.23573546e-003,
          2.46993103e-003, 2.49452353e-003, 1.35752998e-004,
          -2.98730237e-003, -8.79247207e-003, -5.91957429e-003,
          7.68435537e-004, 5.71322674e-003, 1.17083371e-003,
          -1.87119772e-003, -1.00186130e-003, -3.06588993e-003,
          -9.70868487e-003, -4.34780307e-003, -4.84801177e-003,
          -2.87469407e-003, -1.77636079e-003, 1.22218514e-002,
          1.02960533e-002, -6.49576541e-003, -6.29887311e-003,
          -6.35772711e-003, 2.67628324e-003, -7.85863231e-005,
          -1.97038613e-003, -4.42824978e-003, 6.75504887e-003,
          8.19100067e-003, -6.38786424e-003, -7.45155476e-003,
          -1.24668777e-002, -1.04265357e-003, -4.41902643e-003,
          -4.30528680e-003, -5.78628713e-003, -6.55391254e-003,
          -7.39589846e-003, -1.13969797e-003, 1.53248315e-003,
          1.29915029e-002, 2.43437150e-003, -1.93189015e-003,
          -2.49871658e-003, 1.42689107e-003, 2.02551694e-003,
          -3.17066023e-003, -5.24980901e-003, -1.40570868e-002,
          -7.49552902e-003, -8.52948579e-004, 1.57900096e-003,
          2.94197118e-003, -2.81000510e-003, -1.29168923e-003,
          4.45601810e-003, 4.71904827e-003, 5.55217918e-003,
          -6.61545419e-005, 1.23678823e-003, -5.89316303e-004,
          9.66622320e-004, -8.02582421e-004, 5.82219742e-004,
          1.31009798e-003, -3.13914992e-004, -5.05634909e-003,
          -3.38200736e-003, -2.09737988e-003, 1.60106923e-003,
          3.29763140e-003, 5.21361770e-004, -9.21714306e-003,
          -1.86710327e-003, 1.18054093e-004, 2.94417329e-003,
          2.71284860e-003, -2.21782411e-003, -2.63246614e-003,
          -6.17387006e-003, -2.48710089e-003, 6.49418333e-004,
          -1.26983330e-003, -1.04513310e-003, -2.40407349e-003,
          2.36553838e-003, 5.38291549e-003, 1.27583486e-003,
          1.38182251e-003, -2.16528657e-003, -4.94699087e-003,
          -3.04265460e-003, -5.81310247e-004, 1.40453910e-003,
          4.09380114e-003, 2.84599722e-003, -1.25459267e-003,
          -4.11353447e-003, -1.28396600e-003, 3.96236451e-003,
          -4.67911642e-003, -3.63844214e-003, -1.97286741e-003,
          -1.19959526e-002, -3.94105772e-003, 3.07457731e-003,
          7.12242723e-003, 5.51356981e-003, 1.39649829e-003,
          6.10175019e-004, -1.87477598e-003, 4.25313134e-004,
          -2.11435114e-003, -5.96344285e-003, -6.30940543e-003,
          -3.11645039e-004, 5.88505808e-003, 8.88156891e-003,
          6.63548568e-003, 5.59502188e-003, -5.34675969e-003,
          -1.30417049e-002, -7.14029232e-003, -1.17389217e-003,
          6.26246165e-003, 1.02090454e-002, 9.91293602e-003,
          7.01169344e-003, 3.86425946e-003, -2.80267210e-004,
          1.07555054e-002, -5.07532433e-003, -3.76582204e-004,
          -9.17410071e-004, -8.32560100e-003, -6.19942788e-003,
          1.57617312e-003, 6.27659634e-003, 4.21051215e-003,
          -3.23177257e-004, -1.91264204e-003, -4.94644837e-003,
          -7.50717008e-003, -2.67184665e-003, -3.69958091e-003,
          -6.39236486e-003, -1.32699951e-003, 8.28388333e-003,
          1.16304159e-002, 9.37747117e-003, 5.70014073e-003,
          -4.98602679e-003, -7.91989919e-003, -6.59051491e-003,
          -2.58778688e-003, 5.22741396e-003, 1.13432817e-002,
          1.08042229e-002, 7.36840162e-003, 6.05171022e-004,
          -7.66442809e-003, 6.22666534e-003, -3.64365475e-003,
          6.41666958e-003, -1.73960580e-003, -3.67499772e-003,
          -5.13792131e-003, -9.30188049e-004, -1.30271248e-003,
          -6.46365865e-004, -4.84625483e-003, -6.34545926e-003,
          -6.69548241e-003, 7.45818019e-004, 7.77948275e-003,
          -1.32285012e-003, -4.40645404e-003, -2.44597835e-003,
          6.42921589e-003, 6.17902540e-003, 4.29143384e-003,
          -7.61362608e-004, 9.00362720e-005, 4.28395811e-003,
          -5.78475371e-003, -2.83080037e-003, -1.99510017e-003,
          5.61798410e-003, 1.63040136e-003, -1.36117626e-003,
          -6.26358716e-003, -1.09245731e-002, -6.22928128e-005,
          -4.20936430e-003, 8.20505992e-003, -2.02226266e-003,
          -6.46229461e-003, -6.49134349e-003, -4.84684249e-003,
          -7.21884752e-003, -2.77984026e-003, -5.64278243e-003,
          -7.74784526e-003, -7.79721839e-003, 9.06398706e-003,
          1.42493201e-002, -3.21042677e-003, -2.00684322e-003,
          -3.50459805e-003, -7.55973859e-004, -9.27591347e-004,
          -2.82810116e-003, -6.04599388e-003, 3.02444748e-003,
          7.99783133e-003, -9.01083648e-003, -6.20676437e-003,
          -9.14513879e-003, -2.94038677e-003, -6.25948282e-003,
          -9.99293942e-003, -1.24730719e-002, -1.19755203e-002,
          -6.27556210e-003, -6.80674985e-003, 2.91358237e-003,
          1.87591417e-003, -5.54853817e-003, -2.20244168e-003,
          -6.18938217e-003, -1.17952963e-002, -5.29988110e-003,
          -6.78798137e-003, -6.58984343e-003, -7.52537139e-003,
          1.21899666e-002, 1.35371741e-002, -4.75360407e-003,
          -2.07323954e-003, -6.42812764e-003, 5.20205824e-004,
          -2.37698923e-003, -6.51863124e-003, -6.59487909e-003,
          8.73699691e-003, 8.13420769e-003, -5.39120194e-003,
          -6.16724836e-003, -1.44606112e-002, -3.79657559e-003,
          -8.42242502e-003, -1.25724524e-002, -1.29441991e-002,
          -9.09973867e-003, -7.31541822e-003, -6.58900058e-003,
          -1.77307357e-003, 7.11327279e-003, -5.53576229e-003,
          -6.23843353e-003, -7.66194891e-003, 1.06894020e-002,
          1.29218334e-002, -6.70925435e-003, -1.11842025e-002,
          -1.59287639e-002, -1.10504963e-002, -4.86926874e-003,
          6.82339724e-003, 1.12649491e-002, -1.87606656e-003,
          -1.68189417e-005, 5.62686985e-003, 4.97306976e-003,
          6.40577171e-003, -6.77263690e-003, -7.24945217e-003,
          3.19308630e-004, 3.82283214e-003, 9.39079374e-003,
          1.15994159e-002, -6.05662877e-004, -5.42063825e-003,
          -8.06237943e-003, -3.88441724e-003, -2.55039707e-003,
          7.78517860e-004, 3.18029197e-003, -1.93946087e-003,
          -1.91732906e-002, -1.39849093e-002, -8.60402454e-003,
          8.50516651e-003, 1.05235381e-002, -7.03521958e-003,
          -7.77256209e-003, -1.03733400e-002, -5.33615099e-003,
          -1.92476471e-003, 1.25074666e-003, 3.68538033e-003,
          -2.29451252e-004, 8.71749595e-003, 1.17078349e-002,
          5.50634507e-003, 6.10155845e-003, -8.52270331e-003,
          -1.46957347e-002, -1.24891689e-002, -3.79858515e-003,
          8.31940491e-003, 1.46609917e-002, 4.45317058e-003,
          -2.10669497e-003, -3.88314715e-003, -3.64092691e-003,
          1.74198975e-003, -4.75677522e-003, -2.94911279e-003,
          -5.66067919e-003, -2.03127619e-002, -1.64200943e-002,
          -3.99635918e-003, 9.60315205e-003, 1.01328995e-002,
          -1.75521418e-003, -1.78394781e-003, -5.33092208e-003,
          -2.12880759e-003, -1.48410653e-003, -3.43757705e-003,
          -4.25951881e-003, 2.29843496e-003, 1.68020539e-002,
          1.45305917e-002, 8.13483354e-003, 6.28523156e-003,
          -9.73530486e-003, -1.88953280e-002, -1.79484989e-002,
          -4.87293163e-003, 1.07287718e-002, 2.17190348e-002,
          1.24821262e-002, 6.15068944e-003, 8.73763405e-004,
          -3.65387555e-003, 7.41121126e-003, -3.87915736e-003,
          6.95613562e-004, -3.58726922e-003, -1.14033725e-002,
          -1.31271407e-002, 3.01307969e-004, 2.88047199e-003,
          6.09917613e-003, -1.64951617e-003, -4.93840594e-003,
          -7.43677840e-003, -4.40662308e-003, 2.79760058e-003,
          1.37071090e-003, -2.85694492e-004, 1.53690157e-003,
          1.65046323e-002, 1.09801870e-002, 5.32316510e-003,
          1.80809258e-003, -5.65865776e-003, -5.83185581e-003,
          -9.99077316e-003, 2.58911843e-003, 5.76657522e-003,
          1.79419648e-002, 9.09707695e-003, 9.00625193e-004,
          -5.63432463e-003, -8.50423798e-003, 4.72146180e-003,
          -2.47096759e-003, 7.55831786e-003, -3.27948667e-003,
          -5.65715320e-003, -6.61004055e-003, -1.85310273e-004,
          -5.39471256e-003, 6.44633372e-004, -5.87924290e-003,
          -1.02292383e-002, -1.29747521e-002, -2.19908752e-003,
          9.40167345e-003, 5.29706012e-003, 6.10064482e-003,
          -3.81380785e-004, 7.96515215e-003, 1.33669353e-003,
          -2.11753836e-003, -2.58137169e-003, -3.13121919e-003,
          4.47363686e-003, -8.87796632e-004, 7.60389399e-003,
          -1.23137818e-003, 8.54481943e-003, -3.67928692e-003,
          -1.14797223e-002, -1.44512691e-002, -1.01827402e-002,
          -1.24640495e-003, -6.60809735e-003, 5.43037709e-003,
          -9.49420559e-004, -8.44816770e-003, -9.76832304e-003,
          -9.74453799e-003, -6.67660963e-003, 4.37503168e-003,
          -5.60849672e-003, -1.28682982e-002, -1.63439866e-002,
          2.49634916e-003, 1.49966870e-002, 3.90549866e-003,
          8.57983809e-003, -4.82780486e-003, -2.47282023e-003,
          -5.05270390e-003, -5.99769596e-003, -5.56826079e-003,
          -5.32907143e-004, 7.66966073e-003, -4.90574213e-003,
          3.91551410e-004, -8.60292092e-003, 2.05459702e-003,
          -1.01169460e-002, -1.77106839e-002, -1.98179632e-002,
          -1.23079820e-002, -6.41989568e-003, -8.81096162e-003,
          -7.32772169e-004, 2.11821473e-003, -6.66569266e-003,
          -9.83773638e-003, -1.29484693e-002, -7.46135367e-003,
          6.51692180e-003, -6.67028734e-003, -8.83121043e-003,
          -1.09301163e-002, 7.20320782e-003, 9.07631312e-003,
          -7.93271756e-005, 4.40131081e-003, -9.10862256e-003,
          -2.79239286e-003, -4.98255203e-003, -9.75458976e-003,
          -7.29689002e-003, 4.53056814e-003, 2.94292439e-003,
          -7.84662645e-003, -5.45230415e-003, -1.15586948e-002,
          1.17280940e-003, -1.09634604e-002, -1.72405690e-002,
          -1.62870325e-002, -1.20497178e-002, -7.24874530e-003,
          -9.14382841e-003, -3.63330590e-003 ]
   decision_functions:
      -
         sv_count: 1
         rho: 8.7552042598181223e-001
         alpha: [ 1. ]
