%YAML:1.0
opencv_ml_svm:
   format: 3
   svmType: EPS_SVR
   kernel:
      type: LINEAR
   C: 1.0000000000000000e-002
   p: 1.0000000000000001e-001
   term_criteria: { epsilon:1.0000000000000000e-003, iterations:1000 }
   var_count: 1674
   sv_total: 1
   support_vectors:
      - [ 4.12941241e-004, 1.26401028e-002, 1.72886588e-002,
          1.91904407e-003, -9.14578151e-004, -2.07686471e-003,
          -6.66519348e-003, -1.73641264e-003, -1.92328368e-003,
          -3.02946940e-003, -6.13497011e-003, 1.11287776e-002,
          -2.05799428e-004, -1.25023257e-002, -1.67332571e-002,
          -1.16915274e-002, -7.69750588e-003, -8.45534448e-003,
          8.56742379e-004, 5.54195512e-003, 1.38259195e-002,
          -5.81677631e-003, -1.57775264e-002, -1.61593873e-002,
          -1.77164730e-002, -1.01850815e-002, -1.05618443e-002,
          -6.20945590e-003, -1.08925477e-002, -5.80007583e-003,
          5.75395860e-003, 1.18991884e-003, 1.91060863e-002,
          2.99233068e-002, 1.48652587e-002, 1.54924141e-002,
          1.30746262e-002, 1.66813016e-003, -2.17939471e-003,
          -3.43108014e-003, -8.60792957e-003, -6.96962606e-003,
          4.64104954e-003, 1.45218940e-003, -2.49693338e-002,
          -1.82269216e-002, -1.66417528e-002, -1.56456921e-002,
          -1.27136214e-002, -4.72122058e-003, 9.19684861e-003,
          2.08410081e-002, 5.02227747e-004, -1.69717968e-002,
          -6.62995689e-003, -1.45119252e-002, -1.77441929e-002,
          -1.66136511e-002, 9.43322852e-003, -8.96887947e-003,
          -1.40230078e-003, -2.82022450e-003, -1.64334327e-002,
          7.21000554e-003, 2.56564505e-002, 2.15592179e-002,
          4.03853580e-002, 3.34301256e-002, 2.06949171e-002,
          4.76424536e-003, -3.94286588e-003, -9.73681733e-003,
          -1.33020869e-002, -1.22198742e-002, -6.63047656e-003,
          -2.48633437e-002, -1.25552779e-002, -2.46899612e-002,
          -2.87177842e-002, -2.83122491e-002, -2.39275023e-002,
          -6.53101923e-003, 4.99415444e-003, 1.08570571e-003,
          -4.67542140e-003, 1.08813029e-002, -4.04599402e-003,
          -2.37319190e-002, -3.17042358e-002, 1.14178043e-002,
          -1.60972122e-002, 2.95299897e-003, -1.13331871e-002,
          -1.20506855e-002, -5.10089286e-003, 1.36909708e-002,
          2.02299319e-002, 4.92362641e-002, 4.34672162e-002,
          3.00700702e-002, 6.10183505e-003, -1.98255712e-003,
          -7.42142694e-003, -1.05954902e-002, -1.23573253e-002,
          -4.22379449e-002, -3.25853638e-002, 3.05517996e-003,
          -1.52154230e-002, -1.46685857e-002, -1.93670969e-002,
          -1.72247700e-002, -1.32979080e-002, -2.28217524e-003,
          -2.24268306e-002, -3.60115105e-003, 2.86359899e-002,
          1.39841987e-002, -7.90049601e-003, -1.99028533e-002,
          1.39525076e-002, -1.58043150e-002, 1.16848592e-002,
          -1.34775955e-002, -7.82460347e-003, 1.10433775e-003,
          1.33383293e-002, 2.35171970e-002, 4.16811556e-002,
          4.10113856e-002, 3.32855284e-002, 1.03761470e-002,
          -1.24791788e-003, -7.90470559e-003, -9.33166035e-003,
          -8.97535868e-003, -3.26154754e-002, -4.28862385e-002,
          -1.31284520e-002, -1.23494994e-002, -6.37256913e-003,
          -1.20368171e-002, -1.30341956e-002, -6.76159794e-003,
          4.09510871e-003, -9.54408012e-003, -1.35203097e-002,
          9.57230199e-003, 1.61219314e-002, 4.29930724e-003,
          -1.20944632e-002, 1.37287453e-002, -7.46163400e-003,
          1.33360345e-002, -1.50584802e-002, 9.69559141e-003,
          1.94110591e-002, 1.45222330e-002, 1.69454627e-002,
          2.58763004e-002, 3.57588269e-002, 4.21521813e-002,
          2.09295005e-002, 2.46609957e-003, -9.24110599e-003,
          -1.01718334e-002, -1.54769979e-002, -2.03855988e-002,
          -3.19218934e-002, -3.02371886e-002, -4.74334508e-002,
          -2.77784429e-002, -8.85613821e-003, 2.18167761e-003,
          8.21227115e-003, -1.05912203e-003, -2.49218661e-003,
          -9.95057635e-003, -9.14737582e-003, -7.77405128e-003,
          -6.24927273e-003, -6.52365014e-003, 1.04304440e-002,
          -6.89687068e-003, 6.81365281e-003, -1.68268047e-002,
          1.93925723e-002, 2.81520505e-002, 2.28026323e-002,
          -4.47201252e-004, -9.43147764e-003, -1.64999012e-002,
          -2.59088166e-002, -2.49459036e-002, -1.76988747e-002,
          -6.03751792e-003, -4.04392369e-003, 9.69676301e-003,
          -1.08228764e-002, -1.82273369e-002, -1.67795680e-002,
          -6.46794401e-003, -2.22903735e-004, 7.40336766e-003,
          1.26960091e-002, 2.02997606e-002, 1.82026122e-002,
          -1.46028018e-002, -2.45744400e-002, -3.05278972e-002,
          -3.13711166e-002, -2.56278683e-002, -1.11092851e-002,
          -2.50428217e-003, -9.00526438e-003, -1.36804171e-002,
          -7.84898270e-003, 2.37802193e-002, 3.32044363e-002,
          3.73674333e-002, 1.48091270e-002, 1.42541761e-002,
          5.31466305e-003, -4.71921964e-003, -8.45510326e-003,
          -8.67467001e-003, -1.08431028e-002, -1.27395783e-002,
          -1.02818664e-002, -1.39705865e-002, -1.79384109e-002,
          -6.04475616e-003, -6.02864602e-004, -4.11055546e-004,
          8.64270609e-003, 1.15984315e-002, 1.57324411e-002,
          1.38890687e-002, -7.45469984e-003, -7.06884032e-003,
          -6.85623556e-004, -5.43576060e-003, -9.22097266e-003,
          2.84321606e-004, 2.17512958e-002, 3.10024014e-003,
          -6.18393125e-004, -4.10834793e-003, -1.67767599e-003,
          5.08042891e-003, 1.52066266e-002, 5.56911621e-003,
          2.80186385e-002, 2.29204819e-002, 1.65196825e-002,
          4.11014445e-003, -2.40103528e-003, -6.19430747e-003,
          -1.61356684e-002, -2.32450049e-002, -2.92050838e-002,
          -2.83693317e-002, -5.65139670e-003, -3.82332550e-003,
          -5.89791639e-003, -5.34564070e-003, -7.26559339e-003,
          -7.40172295e-003, -1.10672591e-002, -2.39947326e-002,
          -5.69342636e-003, 1.46664865e-002, 1.18616959e-002,
          -1.38031703e-003, -7.38343783e-003, 1.51400156e-002,
          -1.03770830e-002, -1.55466015e-003, -1.75959989e-002,
          -9.35119390e-003, -1.01037566e-002, 9.37211234e-003,
          5.93598513e-003, 2.37957370e-002, 2.15319972e-002,
          1.75100267e-002, 3.67897120e-003, -1.98836764e-003,
          -3.07255727e-003, -3.86397867e-003, -8.99167918e-003,
          -3.93436179e-002, -3.07202581e-002, -1.24554802e-003,
          -3.27378325e-003, -4.67443606e-003, -9.86153260e-003,
          -9.61923599e-003, -9.90674924e-003, -4.89222165e-003,
          -2.09869817e-002, -4.86676255e-003, 1.46861076e-002,
          1.27320345e-002, -3.40696948e-004, -1.05476081e-002,
          1.02205062e-002, -1.77884456e-002, 5.52149909e-003,
          -1.90090556e-002, -9.30712838e-003, 2.58297054e-003,
          2.35163923e-002, 2.98333485e-002, 3.12847868e-002,
          2.06991360e-002, 8.31227656e-003, -9.86615755e-003,
          -1.20664109e-002, -4.21165954e-003, -1.96709787e-003,
          -2.27017235e-003, -1.63564328e-002, -2.30329297e-002,
          -4.64543607e-003, -5.20078938e-005, 6.57162222e-004,
          -8.74901470e-003, -1.08089317e-002, 1.01593579e-003,
          1.92080736e-002, 1.20349759e-002, 5.67840040e-003,
          9.84470267e-003, 5.45367692e-003, -9.60990507e-003,
          -1.96373016e-002, 1.40891504e-002, -9.01066978e-003,
          1.72750335e-002, -1.08694434e-002, 1.26830768e-003,
          1.48571152e-002, 2.11450271e-002, 2.94467993e-002,
          2.73552779e-002, 3.41256857e-002, 3.41816135e-002,
          3.08225281e-003, -1.27661387e-002, -6.79991581e-003,
          -6.04516687e-003, -5.46672428e-003, -4.22601029e-003,
          -7.65968673e-003, -9.21449903e-003, -2.41508931e-002,
          -2.54677963e-002, -1.95638016e-002, -7.53980549e-003,
          9.21658520e-003, 1.47457691e-002, 2.25192979e-002,
          1.77939571e-002, 1.70866251e-002, 6.87024370e-003,
          -1.63642596e-002, -3.07671279e-002, 1.69201866e-002,
          -3.56719433e-003, 1.63923223e-002, -8.95589031e-003,
          4.04721573e-002, 3.25969569e-002, 2.02098340e-002,
          -7.76371965e-003, -2.32132655e-002, -3.25727724e-002,
          -3.50376628e-002, -3.00098695e-002, -1.98797397e-002,
          -8.05661269e-003, -4.47986787e-003, 2.38037246e-004,
          -1.71859972e-002, -1.66539513e-002, -7.99044780e-003,
          -1.00789149e-003, 1.13081168e-002, 3.54492143e-002,
          2.86372043e-002, 2.54203882e-002, 1.16673522e-002,
          -2.28035953e-002, -3.39465514e-002, -3.73541266e-002,
          -3.53223830e-002, -1.85850617e-002, 1.20682418e-002,
          -6.57907221e-005, -4.51096566e-003, -1.11611197e-002,
          -1.42325480e-002, 3.85820493e-002, 2.09347252e-002,
          2.05076616e-002, 1.22778898e-003, -4.05654823e-003,
          -1.70457903e-002, -1.63590815e-002, -1.28522208e-002,
          -1.58726275e-002, -2.19989549e-002, -2.21884139e-002,
          -1.56069556e-002, -2.02325117e-002, -6.80829771e-003,
          4.75532748e-003, 8.20293464e-003, 1.71075892e-002,
          4.15063947e-002, 1.97986159e-002, 2.15819993e-004,
          1.86937395e-003, -1.72581691e-002, -9.52399895e-003,
          -1.20639894e-002, -8.16056598e-003, 3.94674903e-003,
          2.34820135e-002, 1.50855146e-002, 7.28319632e-003,
          -9.09068342e-003, -1.33708613e-002, 2.42801290e-003,
          -1.89168565e-002, -8.77040997e-003, -7.72587676e-003,
          1.09600201e-002, -1.82885490e-003, -4.76917718e-003,
          -4.86722169e-003, -7.50973960e-003, -8.41417164e-003,
          -1.08432882e-002, -2.54456117e-003, 8.47829797e-004,
          7.90996943e-003, 1.36328228e-002, 9.80165880e-003,
          1.46786915e-002, 2.82326266e-002, -4.68672253e-003,
          -1.88581906e-002, -7.87025411e-003, -4.06159600e-003,
          1.48137873e-002, 1.14092566e-002, 4.67907125e-003,
          9.89005994e-003, 1.92229915e-002, 1.25866095e-002,
          5.96129382e-003, -3.18846130e-003, -9.56052355e-003,
          -8.84664059e-003, -1.55722918e-002, 4.64859093e-003,
          4.53154836e-003, 2.19507739e-002, 6.62568584e-003,
          -4.52957302e-003, -9.17405728e-003, -1.33557785e-002,
          -1.30968895e-002, -2.81496556e-003, 1.57571137e-002,
          1.64982192e-002, 1.74581483e-002, 1.50464959e-002,
          1.06770666e-002, 1.39944581e-002, 9.51996166e-003,
          -1.73597354e-002, -1.17605962e-002, 1.39999921e-002,
          1.95001103e-002, 3.23910192e-002, 2.09325179e-002,
          5.94541105e-003, 5.13183698e-003, -3.29073193e-003,
          1.16311461e-002, 7.84471631e-003, 9.60098766e-003,
          3.59959295e-003, -3.26390867e-003, 6.56983396e-003,
          2.33343951e-002, 2.67517753e-002, 3.40311192e-002,
          1.40969492e-002, 5.55004692e-003, -1.85676124e-002,
          -3.06456238e-002, -1.41731175e-002, -4.07121750e-003,
          1.32545074e-002, 2.39720885e-002, 2.70298533e-002,
          1.62943527e-002, 1.42318662e-002, 1.41006941e-002,
          3.46297910e-003, -1.47804171e-002, 3.12513323e-003,
          3.22272107e-002, 4.73930426e-002, 5.16939536e-002,
          2.99071930e-002, 1.87373664e-002, -4.51258058e-003,
          -2.47841589e-002, 2.19463464e-002, 1.36631858e-002,
          2.06772164e-002, 1.53467171e-002, -2.16254313e-003,
          3.68713401e-003, 9.22915991e-003, 2.09440142e-002,
          2.12440658e-002, 1.52069377e-002, 1.87825523e-002,
          -8.98112718e-004, -2.16750111e-002, -2.15124730e-002,
          -9.75652132e-003, 7.09940540e-003, 2.82565635e-002,
          2.98326742e-002, 1.41153000e-002, 8.88880249e-003,
          3.77357984e-003, -5.58060268e-003, -2.31579915e-002,
          -1.52809347e-003, 2.30330955e-002, 4.22475897e-002,
          4.47280705e-002, 2.95407549e-002, 2.67545860e-002,
          3.60772386e-003, -2.50247587e-002, 1.65978633e-002,
          1.13358051e-002, 1.96251255e-002, 8.76168720e-003,
          3.93963940e-002, 2.37954725e-002, 8.94878991e-003,
          -9.05220304e-003, -2.05970742e-002, -2.08088960e-002,
          -1.37288319e-002, -2.03529978e-003, 3.51477042e-003,
          -1.09262196e-002, -2.46360600e-002, -2.42384560e-002,
          -2.18316317e-002, -1.25108520e-002, -2.86402530e-003,
          1.60561956e-003, 1.93765480e-002, 4.43829186e-002,
          2.62025129e-002, -5.16930944e-004, -1.41992802e-002,
          -2.80082691e-002, -2.70418171e-002, -2.15150174e-002,
          -1.17103923e-002, 1.65872201e-002, 4.17933948e-002,
          -1.19111594e-003, 2.10240972e-003, -5.47770411e-003,
          -5.90292970e-003, 1.65916607e-002, 3.26090703e-005,
          8.23814142e-003, -3.69956761e-005, -4.49184701e-003,
          -1.40295327e-002, -8.17597937e-003, 1.33695884e-003,
          -4.48172400e-003, -2.74260659e-002, -2.23439299e-002,
          -1.70917194e-002, -1.18998550e-002, -1.15298375e-003,
          1.20686088e-002, 1.29485428e-002, 2.98085734e-002,
          4.88367267e-002, 3.10707116e-003, -1.33798923e-002,
          -3.79252946e-003, -1.03312675e-002, -4.61297249e-003,
          -1.44743244e-003, 5.28580789e-003, 3.01313698e-002,
          3.93311232e-002, 9.46849957e-003, 1.75273921e-002,
          -1.09353997e-002, -7.23060872e-003, -1.01114009e-002,
          -2.65721343e-002, 7.03358965e-004, 1.37504870e-002,
          1.79778486e-002, -1.68572599e-003, -6.62965188e-003,
          -6.78126793e-003, -9.42542031e-003, -1.74589138e-002,
          -1.16693312e-002, 6.65080454e-003, 1.35714384e-002,
          1.72016174e-002, 2.17598025e-002, 1.20804748e-002,
          2.31040847e-002, 2.31902283e-002, -2.55147126e-002,
          -3.14691439e-002, 8.40400904e-003, 2.39105020e-002,
          2.83629037e-002, 1.91641133e-002, 5.50111569e-003,
          1.58701465e-002, 1.15957037e-002, 5.79384295e-003,
          2.10030731e-002, -3.11434898e-003, 4.43941168e-003,
          -5.06591378e-003, -5.62338531e-003, 7.75142759e-003,
          2.05038022e-002, 3.24857049e-002, 6.78098481e-003,
          -5.41891158e-003, -8.07627663e-003, -1.82343461e-002,
          -2.12371778e-002, -8.22246168e-003, 1.90870333e-002,
          2.70638037e-002, 1.96203776e-002, 1.97393075e-002,
          1.11673884e-002, 1.36478366e-002, 6.03643898e-003,
          -2.28644907e-002, -1.26554454e-002, 2.38368250e-002,
          4.01544832e-002, 4.26654145e-002, 2.56707203e-002,
          6.21267967e-003, 5.78573067e-003, -1.10339085e-002,
          9.77180246e-003, 2.09155064e-002, 3.95660475e-003,
          1.81555413e-002, -6.05367497e-003, 3.12442426e-003,
          8.90979916e-003, 2.59611607e-002, 3.36845443e-002,
          1.10248234e-002, 2.06279475e-003, -9.17552505e-003,
          -2.24122368e-002, -2.46402584e-002, -1.54861100e-002,
          1.53093468e-002, 3.38890366e-002, 2.62928512e-002,
          2.03656331e-002, 1.57422666e-002, 1.24424379e-002,
          4.19866107e-003, -2.63999104e-002, -9.82428528e-003,
          2.56381575e-002, 5.05678616e-002, 5.00141084e-002,
          3.08865700e-002, 1.76528934e-002, 3.57363932e-003,
          -1.66757423e-002, 7.68951606e-003, 2.33333651e-002,
          1.12112407e-002, 2.15180032e-002, -6.07555732e-003,
          -1.49253914e-002, -9.81205422e-003, 1.19195869e-002,
          2.25643497e-002, 1.14285201e-002, 7.69092888e-003,
          1.09397213e-003, -2.31412686e-002, -2.87286900e-002,
          -1.73354559e-002, 2.36128699e-002, 4.72563207e-002,
          3.35018113e-002, 1.67085566e-002, 1.07013360e-002,
          8.06301832e-003, 1.29615259e-003, -2.87507121e-002,
          -2.29805820e-002, 2.35475823e-002, 4.82025519e-002,
          4.91834506e-002, 2.93556601e-002, 1.88546628e-002,
          9.44962818e-003, -1.82446726e-002, -8.28643271e-004,
          1.91918761e-002, 5.83754946e-003, 2.09682975e-002,
          1.47838900e-002, -1.66464224e-003, -3.04114516e-003,
          -3.76352412e-003, -2.88749347e-003, 8.31839163e-003,
          1.73843037e-002, 2.42302567e-002, 1.74215045e-002,
          -3.05313822e-002, -5.32050170e-002, -2.66284831e-002,
          -1.28021315e-002, -5.57332532e-003, 5.78818610e-003,
          7.22789951e-003, 2.03621723e-002, 3.90111618e-002,
          -1.05407378e-002, -4.53926586e-002, -2.50592008e-002,
          -1.44492341e-002, -7.28820451e-003, 1.04092509e-002,
          2.07854398e-002, 4.20043096e-002, 5.01850024e-002,
          4.46492690e-004, 2.70649255e-003, 3.61796934e-003,
          3.16396145e-005, -5.89999696e-003, -1.74070019e-002,
          -1.51420990e-003, 5.50708792e-004, 1.04961284e-002,
          9.80086718e-003, 1.20241083e-002, 1.26981204e-002,
          -1.15330960e-003, -3.92436422e-002, -3.27200145e-002,
          -1.12077873e-002, -9.92641435e-004, 9.08975862e-003,
          2.67295204e-002, 2.17838194e-002, 2.72300597e-002,
          3.94419245e-002, -2.95233782e-002, -4.32271920e-002,
          -8.94974452e-003, 4.03535581e-004, 1.38145881e-002,
          2.94125061e-002, 2.99965460e-002, 3.79517190e-002,
          3.37430984e-002, 6.79968670e-003, 2.09173765e-002,
          -7.10598077e-004, 1.13913661e-003, -1.72605198e-002,
          -2.08476596e-002, 7.71858497e-004, 1.42029226e-002,
          2.38260534e-002, 1.22273955e-002, 4.86495998e-003,
          -4.15652385e-003, -9.97159909e-003, -2.61577684e-002,
          -2.27548704e-002, 1.73226092e-003, 1.19118383e-002,
          2.27266531e-002, 1.95755493e-002, 8.39053839e-003,
          1.37934182e-002, 1.54766580e-002, -3.96533236e-002,
          -3.95932943e-002, 1.42520014e-003, 2.24894062e-002,
          3.21650840e-002, 2.61129905e-002, 1.17850341e-002,
          1.00990282e-002, 4.88532893e-003, -3.65821086e-003,
          2.02337541e-002, -3.42017552e-003, 9.63737257e-003,
          -1.16864629e-002, -1.05882902e-002, 2.76079145e-003,
          2.44636629e-002, 3.00969686e-002, 9.57028847e-003,
          3.03064124e-003, -4.52395296e-003, -1.44874053e-002,
          -2.41033547e-002, -1.93477124e-002, 6.61538029e-003,
          2.34257653e-002, 1.76039264e-002, 9.37708467e-003,
          3.55828227e-003, 3.51174898e-003, 1.01343328e-004,
          -3.14190947e-002, -2.79685706e-002, 8.42905231e-003,
          3.73188294e-002, 3.76907773e-002, 1.84121374e-002,
          6.57626195e-003, 6.35781107e-005, -1.14515638e-002,
          -5.87219419e-003, 2.07031332e-002, -6.73305616e-003,
          1.51792411e-002, -1.57441925e-002, -1.98322050e-002,
          -8.67854152e-003, 2.43207924e-002, 2.42366437e-002,
          3.23905493e-003, -6.16294972e-004, -2.62127328e-003,
          -1.40663460e-002, -2.04064809e-002, -1.68355871e-002,
          1.27690407e-002, 3.24151739e-002, 2.32986230e-002,
          1.01766791e-002, 5.67240827e-003, 3.42478766e-003,
          4.07094311e-004, -3.23786847e-002, -2.91546863e-002,
          1.10095432e-002, 4.24581245e-002, 3.88069488e-002,
          1.67107750e-002, 5.27635776e-003, 1.00701372e-003,
          -1.23713696e-002, -1.15463389e-002, 1.73680279e-002,
          -5.47855301e-003, 1.90593936e-002, -6.46375585e-003,
          -2.84159519e-002, -2.39955317e-002, 1.08815562e-002,
          9.83507000e-003, -1.94153795e-003, -1.66785042e-003,
          -2.84170290e-003, -1.32397097e-002, -2.00251322e-002,
          -1.36111062e-002, 3.37690637e-002, 5.35178930e-002,
          3.29857245e-002, 1.17391534e-002, 4.63768933e-003,
          2.85396562e-003, 3.13952076e-003, -2.40278207e-002,
          -3.38798836e-002, 1.41060324e-002, 4.52792570e-002,
          3.45542915e-002, 1.44563587e-002, 3.38742044e-003,
          4.82913660e-004, -8.93616304e-003, -1.24537777e-002,
          1.84906647e-002, -5.36135258e-003, 2.34400462e-002,
          -1.35966130e-002, -1.00479135e-002, -2.99773435e-003,
          3.46951606e-003, 1.46502424e-002, 3.29676084e-002,
          4.31965142e-002, 3.94552834e-002, 9.32082254e-003,
          -5.16402684e-002, -5.95900454e-002, -1.92343872e-002,
          -7.91395362e-003, 3.27647408e-003, 1.33756595e-002,
          1.43312179e-002, 1.52406637e-002, 1.76694915e-002,
          -4.96953093e-002, -5.82147762e-002, -1.93678699e-002,
          -2.98516825e-003, 1.56774260e-002, 3.83040756e-002,
          4.88503985e-002, 5.11498041e-002, 2.38756482e-002,
          8.94515030e-003, -4.86239512e-003, 1.79516282e-002,
          -2.26736325e-003, -3.26792039e-002, -3.40198241e-002,
          -1.01339966e-002, 4.56625083e-003, 3.69057953e-002,
          4.19178084e-002, 3.30476463e-002, 1.97308064e-002,
          -5.15845278e-003, -4.57402468e-002, -4.09423783e-002,
          -1.09235682e-002, -1.10108138e-003, 1.44363539e-002,
          3.46486419e-002, 2.70124096e-002, 1.94103085e-002,
          1.30815478e-002, -6.36849329e-002, -6.61004186e-002,
          -2.01617163e-002, 3.94644216e-003, 3.90972048e-002,
          5.97594231e-002, 5.19349910e-002, 3.70083191e-002,
          6.36130664e-003, 9.49392840e-003, 9.39224474e-003,
          1.34960795e-002, -2.18492793e-003, -2.95450687e-002,
          -3.79559398e-002, -1.47711439e-002, 9.05801822e-003,
          3.83289643e-002, 3.17290165e-002, 1.54704722e-002,
          -4.78777522e-003, -1.82450674e-002, -3.61643247e-002,
          -3.10375392e-002, -8.01994558e-003, 9.00742225e-003,
          3.36301737e-002, 3.77920270e-002, 2.06116159e-002,
          1.47689795e-002, 6.41391845e-003, -5.88582270e-002,
          -6.34234324e-002, -2.20215246e-002, 1.46095902e-002,
          4.63214666e-002, 5.68548292e-002, 3.11055519e-002,
          1.02618700e-002, -9.93831549e-003, -4.79486119e-003,
          6.99867960e-003, 8.19096435e-003, 6.70940150e-003,
          -3.10942065e-002, -2.96886358e-002, -9.76420008e-003,
          1.68429445e-002, 3.46413329e-002, 1.59822274e-002,
          4.15132800e-003, -6.01867586e-003, -1.81855708e-002,
          -2.64596473e-002, -2.13178881e-002, 3.55616212e-005,
          2.13576052e-002, 4.11419347e-002, 2.48106457e-002,
          8.79049674e-003, 6.26499252e-003, -2.96563911e-003,
          -5.06138094e-002, -4.68489453e-002, -8.88341293e-003,
          2.67237145e-002, 4.45175059e-002, 3.65913324e-002,
          1.24348709e-002, 1.04265317e-004, -1.87291969e-002,
          -7.46383471e-003, 1.10347131e-002, 6.77604286e-004,
          9.19801649e-003, -3.30688618e-002, -3.07735614e-002,
          -1.13302106e-002, 2.60723401e-002, 2.34442633e-002,
          3.15288291e-003, -5.21623250e-003, -3.27563053e-003,
          -7.15383561e-003, -1.05296364e-002, -6.71239197e-003,
          1.62628479e-002, 3.56428735e-002, 3.81080136e-002,
          1.34903118e-002, 1.40922307e-003, -2.25034729e-003,
          -6.19826606e-003, -4.07662131e-002, -3.37465033e-002,
          3.91174434e-003, 4.21434939e-002, 3.72200049e-002,
          1.62782613e-002, -3.30348779e-003, -5.46876108e-003,
          -1.23574417e-002, -7.75002688e-003, 1.06415953e-002,
          2.83594218e-005, 1.64422560e-002, -8.17031227e-003,
          -2.32027955e-002, -1.25350449e-002, 2.01178622e-002,
          6.17586728e-003, -7.21785752e-003, -9.85398889e-003,
          -7.50314631e-003, -5.82025852e-003, 4.08176612e-003,
          -2.75748811e-004, 2.65480615e-002, 3.69221717e-002,
          2.26918980e-002, 6.25225110e-003, -3.92402476e-003,
          -7.40624079e-003, -1.32443663e-003, -1.22616757e-002,
          -1.89766437e-002, 1.08584864e-002, 3.58870476e-002,
          1.67100038e-002, 1.22769779e-004, -1.29131982e-002,
          -1.38205793e-002, -5.86831244e-003, -9.63299163e-003,
          1.00013688e-002, -3.53302108e-004, 1.67460348e-002,
          -1.73382591e-002, 4.37791739e-003, 9.09899268e-003,
          1.84948873e-002, 3.68675441e-002, 4.98833172e-002,
          5.57849184e-002, 3.29366773e-002, -1.29453285e-004,
          -6.04920350e-002, -4.76182587e-002, -1.10734580e-002,
          -6.36325404e-003, 1.34310937e-002, 1.97307486e-002,
          2.44885366e-002, 1.29455645e-002, -3.59736872e-003,
          -5.79641089e-002, -4.05674353e-002, -9.85683990e-004,
          1.34196188e-002, 4.40843888e-002, 5.96602336e-002,
          6.76216111e-002, 4.29083668e-002, -8.47104937e-004,
          2.57217903e-002, -4.23202850e-003, 3.76253724e-002,
          2.84007681e-003, -5.40302768e-002, -3.18871737e-002,
          -4.70028695e-004, 2.00639032e-002, 5.60672246e-002,
          5.89906126e-002, 4.60880026e-002, 2.33278442e-002,
          1.80584926e-003, -4.46098968e-002, -3.58640440e-002,
          -8.92774854e-003, -4.27567866e-003, 1.91350263e-002,
          3.11659165e-002, 2.32893173e-002, 5.51849790e-003,
          -1.76866576e-002, -7.60971382e-002, -5.47879711e-002,
          -9.02516115e-003, 1.65603347e-002, 6.08436093e-002,
          7.19279498e-002, 5.96828274e-002, 2.72064861e-002,
          -1.52359707e-002, 1.87854506e-002, -4.04266920e-003,
          2.88803633e-002, -2.28103902e-003, -5.03921993e-002,
          -4.46059145e-002, -1.18367309e-002, 1.93959922e-002,
          5.69411181e-002, 4.85312939e-002, 2.72315461e-002,
          8.81679356e-003, -9.62790381e-003, -3.72513197e-002,
          -3.39873731e-002, -1.49426488e-002, 2.23005051e-003,
          3.37939747e-002, 3.77677009e-002, 2.06977110e-002,
          4.71205031e-003, -1.42542310e-002, -7.87452683e-002,
          -7.20304251e-002, -2.57580373e-002, 1.84287466e-002,
          6.36177063e-002, 6.84485063e-002, 4.16807905e-002,
          1.30562782e-002, -2.25261692e-002, 2.68660253e-003,
          -9.64681152e-003, 2.42783818e-002, 3.05569102e-003,
          -4.17929739e-002, -2.78305598e-002, -1.06894504e-002,
          2.13987976e-002, 4.73074168e-002, 2.51971558e-002,
          3.97523073e-003, -3.27760261e-003, -1.75612420e-002,
          -2.10490245e-002, -1.77044999e-002, -7.99390767e-003,
          9.02480353e-003, 3.64081934e-002, 3.00466642e-002,
          1.23288967e-002, 9.81094665e-004, -1.34440036e-002,
          -5.46268709e-002, -4.41253185e-002, -1.74531396e-002,
          2.14035287e-002, 4.99302298e-002, 4.59832586e-002,
          1.52298948e-002, -1.89173571e-003, -2.73346417e-002,
          -5.81094297e-003, -2.80905748e-003, 1.70511920e-002,
          3.50700528e-003, -3.56960669e-002, -2.11769585e-002,
          -5.95931709e-003, 2.85823531e-002, 2.98146829e-002,
          7.51475384e-003, -6.43022405e-003, -6.63505821e-003,
          -7.88923632e-003, -8.13930703e-004, -4.61219018e-003,
          -2.85950396e-003, 1.28396070e-002, 2.59497371e-002,
          1.41810402e-002, -1.22016540e-003, -8.09470750e-003,
          -1.91809088e-002, -3.78553048e-002, -2.63528898e-002,
          -9.65415593e-003, 2.62700003e-002, 2.97786184e-002,
          2.02796645e-002, -7.30162859e-003, -1.44097824e-002,
          -2.57317591e-002, -7.33356737e-003, -1.52518589e-003,
          3.42427334e-003, 4.63965535e-003, -6.05742959e-003,
          -1.27340229e-002, -9.93756019e-003, 1.95232797e-002,
          8.45558941e-003, -8.06193613e-003, -1.39254890e-002,
          -1.31098861e-002, -5.79228997e-003, 2.00805329e-002,
          2.67875590e-003, 3.89895082e-004, 6.16217684e-003,
          -3.76676995e-004, -3.62384692e-003, -1.01724323e-002,
          -1.24625759e-002, -7.16821523e-003, -6.31457195e-003,
          -9.09090601e-003, -1.12951575e-002, 1.24478312e-002,
          7.26756640e-004, -1.05506927e-002, -2.19864547e-002,
          -2.44739633e-002, -1.09368954e-002, -9.16459691e-003,
          -8.52558669e-003, -4.84580360e-003, 7.89300248e-004,
          5.20521833e-004, 1.90212801e-002, 1.99906491e-002,
          3.15244943e-002, 4.65870276e-002, 4.24926095e-002,
          3.90287042e-002, 1.28208138e-002, -7.79495994e-003,
          -4.63221446e-002, -2.83506885e-002, 3.89251066e-003,
          7.02256686e-004, 2.06171144e-002, 1.43452967e-002,
          2.38710642e-002, 1.34484163e-002, -1.24783313e-003,
          -3.26830074e-002, -7.89708551e-003, 2.35720798e-002,
          3.26013975e-002, 5.62870465e-002, 5.21913767e-002,
          5.43072596e-002, 2.62748301e-002, -1.53784466e-003,
          3.17838714e-002, 4.11425950e-003, 4.49164659e-002,
          1.58917643e-002, -4.19544019e-002, -2.26532761e-002,
          1.07070245e-002, 2.30069421e-002, 4.77845781e-002,
          4.91186120e-002, 3.84283848e-002, 2.08303612e-002,
          1.04809972e-002, -2.54240613e-002, -1.40729006e-002,
          4.63811448e-003, 9.50736832e-003, 2.62391046e-002,
          1.56136425e-002, 6.44680345e-003, -7.92740192e-003,
          -1.89935174e-002, -4.89272624e-002, -2.65034586e-002,
          1.48787387e-002, 3.15718539e-002, 6.13697357e-002,
          5.57484739e-002, 3.87479439e-002, 1.28030330e-002,
          -7.46818259e-003, 1.95255429e-002, -1.83591258e-003,
          3.57471332e-002, 8.68261978e-003, -4.23920229e-002,
          -3.46730836e-002, -5.35393134e-003, 1.35253649e-002,
          4.33578379e-002, 4.25146297e-002, 2.89807152e-002,
          1.54094389e-002, 1.45250652e-003, -1.80318523e-002,
          -1.73609611e-002, -6.33750204e-003, 7.07208132e-003,
          2.49418709e-002, 1.65777057e-002, 1.22176027e-002,
          -1.93964097e-005, -1.42217763e-002, -5.17884530e-002,
          -4.63361479e-002, -6.72585797e-003, 2.23729219e-002,
          5.24649620e-002, 5.12553714e-002, 3.39304581e-002,
          1.51368920e-002, -1.20234564e-002, -2.05932814e-003,
          -1.01246219e-002, 3.15939970e-002, 1.24845169e-002,
          -3.46732400e-002, -1.74233932e-002, -3.20718111e-003,
          5.83128864e-003, 2.42439806e-002, 2.16802340e-002,
          5.81170479e-003, -1.06677110e-003, -1.17404731e-002,
          -5.46750473e-003, -2.02735234e-003, -1.93181113e-004,
          3.38940229e-003, 1.25461183e-002, 1.38195548e-002,
          1.52730029e-002, -3.38922924e-004, -1.81805417e-002,
          -3.71068791e-002, -1.96858961e-002, -3.18606687e-003,
          1.00815063e-002, 2.65919510e-002, 3.03185415e-002,
          1.57855675e-002, -7.82695715e-004, -2.53702253e-002,
          -1.39119411e-002, -1.38275493e-002, 1.98762380e-002,
          1.17648989e-002, -2.81800702e-002, -1.09334923e-002,
          -2.75431341e-003, -1.09061680e-003, 1.40868104e-003,
          1.70167431e-003, -7.76114175e-003, -7.66284578e-003,
          -8.75736494e-003, 1.18506504e-002, 3.73847503e-003,
          -3.01948842e-003, -5.28985774e-003, 2.90488504e-004,
          3.11318855e-003, 2.49482947e-003, -1.17384810e-002,
          -2.55888719e-002, -2.01394148e-002, -9.22351051e-003,
          -6.74870610e-003, -1.98621047e-003, -1.38914809e-004,
          4.64536250e-003, -6.41708262e-003, -1.80689767e-002,
          -3.08849365e-002, -1.62791964e-002, -1.69927813e-002,
          -4.48669679e-003, -3.80869629e-003, 4.39944258e-003,
          -4.79033217e-003, -1.06784198e-002, -9.76377539e-003,
          -1.33917807e-002, -1.01174517e-002, -1.54669825e-002,
          -1.45792803e-002, -9.83462576e-003, 2.91175582e-002,
          1.02638118e-002, -3.43501591e-003, -6.60199532e-003,
          -1.37985451e-002, -1.41820954e-002, -1.22570582e-002,
          -1.65759623e-002, -6.11434365e-003, 9.40014329e-003,
          3.51539813e-003, -1.25705702e-002, -1.41465832e-002,
          -2.12743375e-002, -2.23546531e-002, -2.58918349e-002,
          -2.91589983e-002, -1.30855273e-002, -1.01723149e-002,
          -2.08274405e-002, -1.23495553e-002, -1.21848397e-002,
          1.33858090e-002, 1.98463295e-002, 2.24146713e-002,
          3.21304314e-002, 3.28896903e-002, 1.43380212e-002,
          1.92903765e-002, -1.27278897e-003, -8.52558855e-003,
          -2.97595430e-002, -2.26368848e-002, 1.18136080e-002,
          1.56372674e-002, 3.83189209e-002, 1.65087879e-002,
          3.19322646e-002, 2.94696242e-002, 2.05407981e-002,
          -8.89151357e-003, 3.88363074e-003, 3.28938775e-002,
          4.27588485e-002, 5.52434511e-002, 2.98360344e-002,
          4.05977480e-002, 2.74349395e-002, 1.49271004e-002,
          3.34411971e-002, 1.47947976e-002, 4.53544706e-002,
          2.72396300e-002, -2.42122766e-002, -2.12839525e-002,
          3.18016019e-003, 1.07597718e-002, 1.86204296e-002,
          2.15620510e-002, 3.59770320e-002, 2.47514565e-002,
          1.56167643e-002, -8.56023654e-003, 2.02297396e-003,
          1.40508264e-002, 2.41478179e-002, 3.93266864e-002,
          1.81059111e-002, 1.54740317e-002, 1.31875910e-002,
          6.77947281e-003, -2.16417834e-002, -1.10098599e-002,
          1.71146560e-002, 3.30758132e-002, 4.73190174e-002,
          3.44955176e-002, 4.14405800e-002, 3.50635238e-002,
          2.14762241e-002, 2.19721384e-002, 8.15864746e-003,
          4.34472524e-002, 2.51833331e-002, -2.57212408e-002,
          -2.61291005e-002, -6.02156902e-003, -8.37250333e-003,
          1.19926017e-002, 2.42233574e-002, 3.48642878e-002,
          2.31000651e-002, 5.50680794e-003, 2.18508090e-003,
          8.45644344e-003, 1.42882280e-002, 2.24341918e-002,
          3.16017009e-002, 2.17226874e-002, 1.96733847e-002,
          9.42791253e-003, -2.03818572e-003, -1.85973980e-002,
          -1.27183879e-002, 1.08277369e-002, 1.88850835e-002,
          3.63180973e-002, 3.95371579e-002, 4.14331667e-002,
          3.02670226e-002, 5.36880828e-003, -8.85331305e-004,
          -3.37449322e-003, 4.73470464e-002, 3.28997038e-002,
          -1.69184692e-002, -8.90316255e-003, 3.88367334e-003,
          -1.44119635e-002, -9.26483795e-003, 9.68723930e-003,
          1.52688967e-002, 8.32501426e-003, -3.56310466e-003,
          1.26821203e-002, 2.03827526e-002, 2.16653235e-002,
          1.84799973e-002, 1.05343554e-002, 1.10458322e-002,
          1.76981091e-002, 3.09466245e-003, -9.41789243e-003,
          -3.54241184e-003, 9.93369333e-003, 2.11899653e-002,
          8.94182641e-003, 3.93076194e-003, 1.56889260e-002,
          2.10149419e-002, 1.02579938e-002, -7.62240356e-003,
          -1.09609477e-002, -1.03325425e-002, 3.35646309e-002,
          3.02814543e-002, -1.17826350e-002, -3.45183210e-003,
          -6.70003414e-004, -2.05875151e-002, -1.87400449e-002,
          -1.30731682e-003, 5.39092347e-003, -1.16078451e-003,
          -1.77387788e-003, 2.21567620e-002, 1.98129993e-002,
          1.50452908e-002, 8.31100065e-003, -2.61187553e-003,
          2.33877380e-003, 4.91840811e-003, -1.25014046e-002,
          -1.77017469e-002, 7.36278202e-003, 1.34448987e-002,
          1.23762228e-002, -5.48004033e-003, -1.81022864e-002,
          -2.01569730e-003, 1.60776754e-003, -1.36254486e-002,
          -1.60760339e-002, -1.27258608e-002, -1.07804220e-002,
          8.22908618e-003, 8.52916390e-003, 7.73526216e-003,
          -3.67501355e-003, -3.83259496e-003, -2.61480678e-002,
          -2.67441981e-002, -5.41644869e-003, -6.03605947e-003,
          -7.83317909e-003, -4.18643374e-003, 3.60947102e-002,
          2.12021098e-002, 2.46302283e-004, -5.80951246e-003,
          -1.13645038e-002, -1.26227783e-002, -8.94167554e-003,
          -1.55176511e-002, -7.02748680e-003, 2.49174107e-002,
          1.32242274e-002, -2.85074860e-003, -2.51360592e-002,
          -2.90355869e-002, -1.99524257e-002, -1.91769674e-002,
          -2.14758497e-002, -8.59069731e-003, -1.07784076e-002,
          -1.05334539e-002, -1.05612390e-002, -5.78102097e-003 ]
   decision_functions:
      -
         sv_count: 1
         rho: 8.0833882356336972e-001
         alpha: [ 1. ]
