%YAML:1.0
opencv_ml_svm:
   format: 3
   svmType: EPS_SVR
   kernel:
      type: LINEAR
   C: 1.0000000000000000e-002
   p: 1.0000000000000001e-001
   term_criteria: { epsilon:1.0000000000000000e-003, iterations:1000 }
   var_count: 1116
   sv_total: 1
   support_vectors:
      - [ 1.32702785e-002, 1.29180700e-002, -5.98813582e-004,
          7.53152277e-003, 2.38585249e-002, 4.24295751e-004,
          2.00581737e-003, 6.24778541e-003, 2.98777688e-002,
          3.43085639e-002, 2.23133732e-002, -2.04709042e-002,
          -2.83547044e-002, -1.76534150e-002, -1.10619022e-002,
          -2.35060768e-004, -1.35395618e-003, -3.99700017e-004,
          3.29966545e-002, 2.62743030e-002, -1.79657005e-002,
          -2.02257000e-002, -7.94490892e-003, -8.23600311e-003,
          2.74737366e-004, 4.75137355e-003, 2.59800591e-002,
          1.08218007e-003, 2.68639997e-003, 1.55406203e-002,
          1.49274245e-002, 3.36922742e-002, 2.84536909e-002,
          -8.97412363e-004, 8.77470709e-003, 1.53320925e-002,
          -3.88091104e-003, 3.02729104e-003, 7.63997529e-003,
          2.81271618e-002, 4.18786108e-002, 2.70738956e-002,
          -2.16129534e-002, -4.48087491e-002, -4.47657369e-002,
          -9.76610463e-003, -7.26969587e-003, -4.11406998e-003,
          1.00421989e-002, 5.10575995e-002, 4.31986935e-002,
          -1.90614648e-002, -3.66229080e-002, -3.31969857e-002,
          -1.30875511e-002, -4.28510038e-003, 3.73457000e-003,
          3.55648473e-002, -2.03107265e-004, 6.44294312e-003,
          1.03155924e-002, 1.49936127e-002, 1.71664897e-002,
          1.93096735e-002, -8.79366696e-003, -3.64956359e-004,
          5.44797909e-003, -3.18114297e-003, 3.90517851e-003,
          5.53317927e-003, 2.07241494e-002, 4.04198579e-002,
          2.33278554e-002, -9.63870436e-003, -3.56281959e-002,
          -5.81241511e-002, -1.78862959e-002, -1.54544516e-002,
          -1.32378004e-002, -1.40406680e-003, 3.77108119e-002,
          3.35382186e-002, -1.38283698e-002, -3.45205143e-002,
          -4.83295657e-002, -2.06326600e-002, -1.06579699e-002,
          -6.96917390e-003, 1.93254817e-002, -8.11596308e-003,
          1.24244823e-003, -6.73446711e-003, 4.65789984e-004,
          2.59176474e-002, 2.19200589e-002, -1.17736794e-002,
          -1.06217042e-002, -1.44605888e-002, -7.15080695e-003,
          5.32256300e-003, 8.22255388e-003, 1.65624768e-002,
          3.33915763e-002, 1.96381621e-002, 5.01464959e-003,
          -2.60926392e-002, -5.39445616e-002, -1.60141233e-002,
          -1.21249268e-002, -6.89862389e-003, 9.71315615e-003,
          4.50430736e-002, 3.56532894e-002, -4.98426333e-003,
          -2.86559835e-002, -5.08072488e-002, -2.15052273e-002,
          -5.47283422e-003, 2.15276331e-003, 2.61580478e-002,
          -8.41646735e-003, 3.78941954e-003, -5.04141860e-003,
          3.36169731e-003, 1.39717301e-002, 1.83910988e-002,
          -1.27010688e-004, 1.94379257e-003, -7.95759726e-003,
          -1.23242950e-002, -9.79296025e-003, 1.57447517e-004,
          1.50629329e-002, 2.95568034e-002, 2.27544550e-002,
          8.94685742e-003, -8.17640871e-003, -5.11764884e-002,
          -3.66419964e-002, -1.70510411e-002, -8.20766576e-003,
          4.07602813e-004, 3.37634236e-002, 3.38672996e-002,
          9.05188639e-003, -7.88620021e-003, -4.94707227e-002,
          -4.06383611e-002, -2.46426612e-002, -6.86743204e-003,
          1.53657282e-002, -1.36226369e-002, 1.39038463e-003,
          -1.00190993e-002, 3.27149476e-003, 6.67267106e-003,
          1.80166047e-002, 6.44598529e-003, 8.56010709e-003,
          5.95069723e-003, 5.57225430e-004, -6.04282133e-003,
          -6.09148806e-003, 6.55049039e-003, 2.11198293e-002,
          2.31806282e-002, 1.64871868e-002, 1.18896377e-003,
          -3.15092504e-002, -4.94678877e-002, -4.44500260e-002,
          -2.91281752e-002, -2.25486588e-002, 2.20129061e-002,
          3.50020379e-002, 2.24797931e-002, 5.80264023e-003,
          -2.58056559e-002, -4.37550955e-002, -4.11649272e-002,
          -3.02373245e-002, -1.37727670e-002, -1.79171413e-002,
          -1.21847782e-002, -9.39661264e-003, 4.37549874e-003,
          1.71996783e-002, 1.40862660e-002, -2.48751277e-003,
          -3.74193565e-004, -5.32080093e-003, -2.97280233e-002,
          -2.93618012e-002, -1.20659461e-002, 7.47601828e-003,
          1.43571114e-002, 1.69471093e-002, -1.14113996e-002,
          -6.08947407e-003, 1.67425778e-002, 6.07264461e-003,
          8.54264945e-003, 4.61205468e-003, 9.70771536e-003,
          1.62117071e-002, 2.14299913e-002, -1.13894558e-002,
          -3.76623194e-003, 8.38949718e-003, -1.87929235e-002,
          -1.92919392e-002, -6.88667083e-003, 1.54699078e-002,
          -1.00504542e-002, -5.94502722e-004, 5.63717820e-003,
          1.39194420e-002, 2.69910246e-002, 6.42379746e-003,
          -1.45481499e-002, 1.89533294e-003, 1.14788447e-004,
          -2.92668883e-002, -2.09945757e-002, -6.08943962e-003,
          8.71315598e-003, 2.38898899e-002, 2.29243394e-002,
          -1.93595774e-002, -2.04124842e-002, 4.51962836e-003,
          1.78812612e-002, 6.91680657e-003, 6.79867296e-003,
          2.06178073e-002, 3.01290490e-002, 1.98539663e-002,
          -2.86851022e-002, -1.58551484e-002, 5.21014864e-003,
          -1.12785678e-002, -1.31648248e-002, 7.53159809e-004,
          2.65920255e-002, -6.71843393e-003, 3.69818602e-003,
          4.28476464e-003, 1.61845386e-002, 7.78644113e-003,
          -1.83070768e-002, -3.93477529e-002, -1.40693244e-002,
          -4.08193191e-005, -2.82225925e-002, -2.05193516e-002,
          -1.06316321e-002, 4.50994167e-003, 2.83607375e-002,
          2.24015918e-002, -8.95298738e-003, -9.48876049e-003,
          1.03786367e-003, 2.62801927e-002, 6.38505770e-003,
          7.74369482e-003, 1.77054126e-002, 1.51667660e-002,
          2.62445933e-003, -3.54475155e-002, -1.60227157e-002,
          -1.43007201e-004, -2.17096647e-003, -1.36244902e-002,
          -2.56880675e-003, 2.14824881e-002, -1.33581245e-002,
          2.86695920e-003, -6.31910190e-003, 3.90835106e-003,
          1.42858792e-002, -6.71517476e-003, -3.30047309e-002,
          -1.36027299e-002, -3.24992626e-003, -1.70026608e-002,
          -1.65352635e-002, -1.16473706e-002, -6.23622583e-003,
          1.84525196e-002, 1.61642041e-002, 4.11064422e-004,
          -2.68556853e-003, 2.71358876e-003, 2.69589312e-002,
          5.76677034e-003, 5.49568282e-003, 1.56194465e-002,
          1.85101405e-002, 8.14022683e-003, -2.94052754e-002,
          -1.23576382e-002, -1.99963665e-003, 8.57919268e-003,
          -1.05178002e-002, -5.59741259e-003, 9.53984819e-003,
          -9.96659324e-003, 4.76188771e-003, -6.14915509e-003,
          9.08568874e-003, 1.57309622e-002, -1.23295339e-003,
          -1.43543594e-002, -2.68427073e-003, -4.94231563e-003,
          -1.82278883e-002, -2.58034263e-002, -2.39555277e-002,
          -1.35806194e-002, 2.11620722e-002, 2.63987295e-002,
          -5.31383138e-003, -1.14555433e-002, 8.07206240e-003,
          2.31230464e-002, 5.18418243e-003, 3.73679609e-003,
          7.92681985e-003, 2.05760151e-002, 1.52177997e-002,
          -1.75399873e-002, -1.42043624e-002, -4.86243982e-004,
          3.88738466e-003, -2.00235303e-002, -1.90693643e-002,
          -4.43086168e-003, -6.26110332e-003, 4.86573903e-003,
          -9.33403522e-003, 5.91354864e-003, 8.78046267e-003,
          -4.23374306e-003, -1.90261379e-002, -7.83146918e-003,
          -5.61305648e-003, -7.86876492e-003, -8.04571528e-003,
          -1.34652350e-002, -1.07116299e-002, 2.19546296e-002,
          3.53524759e-002, 3.76696186e-003, 5.30631747e-004,
          4.42310050e-003, 8.05763155e-003, 1.05166005e-003,
          -4.74953931e-003, -4.24323697e-003, 1.86341442e-002,
          2.18164567e-002, -3.76112899e-003, -5.00502856e-003,
          -2.26434250e-003, 1.69722002e-003, -5.99021139e-003,
          -1.66164692e-002, -1.10826502e-002, -3.97410523e-003,
          -6.85137173e-004, -3.58309923e-003, 7.36036245e-003,
          1.01618655e-002, 7.00796815e-003, -5.36426716e-003,
          -3.64969415e-003, 1.91269796e-002, 1.69189088e-002,
          -8.30095913e-003, -4.72616451e-003, -2.62935704e-004,
          -3.72504280e-003, -9.20940749e-003, -4.58548917e-003,
          2.22351439e-002, 4.00870852e-002, 7.80371809e-003,
          1.54037552e-003, 2.00794684e-003, 4.36777901e-003,
          -2.17720843e-003, -5.16964449e-003, -6.95836218e-003,
          2.03625206e-002, 3.51521224e-002, 2.26959381e-002,
          -4.91922256e-003, -2.40089092e-003, 3.45360441e-003,
          -6.13956014e-003, 7.45054241e-003, 1.05314087e-002,
          3.12595069e-002, 2.01793737e-003, -1.16453618e-002,
          -1.50074279e-002, 4.70809732e-003, 2.88872551e-002,
          7.88557250e-003, -1.19060893e-002, -6.85825711e-003,
          9.33994190e-004, 3.66949826e-003, -8.13785126e-004,
          -1.11263711e-002, 8.73223972e-003, 3.04089766e-002,
          2.23150030e-002, 4.06854507e-003, 3.53334146e-003,
          6.76958542e-003, 1.01725524e-003, -5.40266838e-003,
          -2.06680428e-002, 1.82305910e-002, 3.96780856e-002,
          2.70396601e-002, -7.22936587e-003, -3.06764757e-003,
          7.55950948e-003, 1.15871162e-003, 7.96235632e-003,
          2.78438209e-003, 1.94769464e-002, -7.84598198e-003,
          -2.19076574e-002, -2.06795484e-002, 1.45114940e-002,
          3.57911885e-002, -1.95181914e-004, -1.99699793e-002,
          -1.43228592e-002, -2.00812193e-003, 9.61169042e-003,
          5.19481488e-003, -9.57041141e-003, 6.28245878e-004,
          1.63838379e-002, 2.76660379e-002, -2.58605974e-003,
          -3.00404616e-003, -2.70399055e-003, -1.51676992e-002,
          -2.10141316e-002, -2.62744445e-002, 1.54475477e-002,
          3.65734100e-002, 2.12396476e-002, -2.15198491e-002,
          -1.62356291e-002, -4.77118883e-003, -2.94131227e-003,
          -6.08172413e-005, -1.22139347e-003, 6.57744566e-003,
          5.51197212e-003, -6.32679742e-003, -1.52648063e-002,
          1.71067975e-002, 3.20046917e-002, -2.96451710e-003,
          -1.53074181e-002, -1.16785020e-002, -1.28145954e-002,
          7.98007846e-003, 8.43949709e-003, -8.23177863e-003,
          -4.03970573e-003, -1.95903587e-003, 2.72462238e-002,
          -4.64478915e-004, -4.38705087e-003, 1.92247995e-003,
          2.54908460e-003, -1.47139619e-003, -2.17979625e-002,
          1.30247492e-002, 2.72017382e-002, 1.92587115e-002,
          -1.44131491e-002, -1.52723845e-002, -1.02751115e-002,
          2.52544112e-003, 8.71938711e-004, 3.17015714e-004,
          4.19242168e-003, 1.22684119e-002, -1.05726188e-002,
          -2.70434618e-002, 2.73845438e-003, 1.45050632e-002,
          -3.11149401e-003, -9.66393668e-003, -7.89273717e-003,
          -1.38519248e-002, 1.69553161e-002, 1.92983132e-002,
          -1.88556649e-002, -1.72736663e-002, -1.17036458e-002,
          2.06112266e-002, 6.73638377e-003, 1.37263874e-003,
          4.49086819e-003, 9.27609764e-003, -1.64063269e-004,
          -3.21384296e-002, -9.67436191e-003, 4.73206816e-003,
          1.50954369e-002, -2.61108484e-003, -6.14352897e-003,
          -8.12000036e-003, -3.71971889e-003, -1.51767442e-003,
          -1.85891869e-003, -2.79954053e-003, 1.49336401e-002,
          -1.54712284e-002, -3.52027416e-002, -1.66105274e-002,
          -4.85821208e-003, -6.20335247e-003, -1.19118171e-003,
          1.00847357e-003, -8.13048054e-003, 2.04100069e-002,
          3.09536606e-002, -1.45874396e-002, -1.19404988e-002,
          -1.11943958e-002, 1.35710940e-003, 4.30326397e-003,
          -6.21201296e-004, 4.34816442e-003, 2.46912278e-002,
          9.72977653e-003, -3.32754180e-002, -1.88220255e-002,
          -9.78624076e-003, -8.62886300e-005, 3.29240016e-003,
          3.32183554e-004, -2.44516949e-003, -8.91472679e-003,
          -5.01358695e-003, -5.72626153e-003, -3.30116367e-003,
          -1.39270164e-003, -6.36231573e-003, -8.29883013e-003,
          -4.90231067e-003, 2.78795678e-002, 4.40370701e-002,
          5.52464603e-003, -4.64318175e-004, 1.97117659e-003,
          -1.32192830e-002, -1.89961847e-002, -4.29825275e-004,
          3.08566280e-002, 3.68546173e-002, 2.04093079e-003,
          -2.21750047e-003, -7.71026971e-005, -3.00046848e-003,
          -1.91191901e-002, -2.11714208e-002, -1.45759177e-003,
          2.74709240e-002, 4.46610898e-002, 4.20477092e-002,
          3.53059545e-003, -2.48825439e-004, -3.98871140e-004,
          -2.36750857e-004, 3.05313588e-004, 2.25569773e-002,
          1.97079703e-002, -8.62424634e-003, -1.49652762e-002,
          -1.50519721e-002, -1.23701664e-003, 3.48030031e-002,
          2.86841616e-002, -6.34331629e-003, -9.49626323e-003,
          -1.10680854e-003, -6.03193475e-004, -5.32481680e-003,
          -1.05819420e-003, 1.95698142e-002, 3.43497731e-002,
          2.13176571e-002, 3.23433359e-003, 5.72246732e-003,
          -5.06974684e-005, -1.56967044e-002, -1.61073077e-002,
          -1.40755186e-002, 2.02739052e-002, 4.67607342e-002,
          4.38505560e-002, -2.98498129e-003, -3.14592314e-003,
          -1.93470900e-004, 9.81906429e-003, 9.13694594e-003,
          1.00774402e-002, 1.04790190e-002, 2.13926099e-003,
          -1.21237282e-002, -1.27489483e-002, 9.70095024e-003,
          3.17537114e-002, 7.80711463e-003, -1.17531652e-002,
          -1.54818641e-002, -8.37967917e-003, 1.06152077e-003,
          -2.99356761e-003, -9.18868091e-003, 2.84581492e-003,
          2.10384335e-002, 3.00892927e-002, 5.59019798e-004,
          5.96061954e-003, 3.29510681e-003, -1.35939205e-002,
          -1.88526772e-002, -2.06931811e-002, 1.31907649e-002,
          3.93255092e-002, 3.82060409e-002, -9.23874509e-003,
          -6.50598574e-003, -2.97259074e-003, 5.47709549e-003,
          3.45735694e-003, 6.16893964e-003, 5.44079160e-003,
          2.54311343e-003, -8.28208961e-003, -8.65360815e-003,
          1.69590898e-002, 2.52274238e-002, -6.22578757e-003,
          -5.13242418e-003, -6.73339423e-003, -1.18038496e-002,
          6.04939833e-003, 1.29825983e-003, -1.58547591e-002,
          -1.08234277e-002, -8.64175439e-004, 2.73333453e-002,
          2.31014169e-003, 3.92114744e-003, -6.36678014e-004,
          1.51214562e-003, -7.32250651e-003, -2.10368708e-002,
          6.47679158e-003, 2.67142840e-002, 2.33025514e-002,
          -2.51132878e-003, -1.75643072e-003, -9.92162339e-003,
          1.87129283e-003, 2.45905365e-003, 1.40013197e-003,
          -7.18682073e-004, 1.28811924e-003, -2.01195907e-002,
          -2.38059331e-002, 3.84782674e-004, 1.01964604e-002,
          -8.29315744e-003, -4.73848870e-003, 5.05806296e-004,
          -1.92383851e-003, 2.05023531e-002, 1.31077366e-002,
          -1.62445083e-002, -1.27457688e-002, -9.61702131e-003,
          2.12427583e-002, 6.71348954e-003, 3.48374760e-003,
          -7.02899694e-003, 3.58450087e-003, -1.59146637e-002,
          -3.03496607e-002, -8.71565565e-003, 8.60412978e-003,
          1.25932507e-002, 2.04107002e-003, 3.99338175e-003,
          -7.43672531e-003, -7.54173240e-003, -3.18130292e-003,
          -8.31021811e-004, -1.21713453e-003, 7.51579599e-003,
          -1.16196508e-002, -2.26252917e-002, -1.14286356e-002,
          -1.49151832e-002, -1.59699935e-002, -7.26357615e-003,
          -3.04832333e-003, -1.12618064e-003, 3.24589796e-002,
          2.40565464e-002, -1.01436013e-002, -1.01190601e-002,
          -1.10335266e-002, 9.25929286e-003, 4.30442905e-003,
          -2.78764032e-003, -4.21944074e-004, 2.66505834e-002,
          7.84732308e-003, -2.97164973e-002, -1.72923896e-002,
          -1.81042925e-002, -3.61915585e-003, -2.55714986e-003,
          -5.35226334e-003, -1.04068744e-003, -1.34736570e-002,
          -2.95620901e-003, -4.40289546e-003, -3.36662517e-004,
          -3.68477451e-003, 1.96777331e-003, 2.73610861e-003,
          -3.31386509e-005, 4.31558490e-002, 5.66895269e-002,
          1.36053730e-002, 6.41218992e-003, 2.79553956e-003,
          -1.45340096e-002, -1.78134963e-002, 2.37362348e-002,
          1.74291227e-002, 1.07448166e-002, 7.82398740e-004,
          2.28180015e-005, -2.09913286e-003, -1.13573493e-002,
          -1.55261802e-002, -1.21209547e-002, 2.56894026e-002,
          1.97613016e-002, 3.78420651e-002, 5.07613197e-002,
          1.32217221e-002, 4.89334948e-003, -4.13688272e-003,
          7.22794235e-003, -3.83123383e-003, 3.96843776e-002,
          1.84629429e-002, -1.99020356e-002, -1.03868917e-002,
          5.65242590e-005, 1.02047091e-002, 5.01266979e-002,
          4.91894186e-002, 4.92154714e-003, 1.65213621e-003,
          3.23909381e-003, 2.54938472e-003, -5.86664537e-003,
          1.41451480e-002, 2.04399484e-003, 2.29718373e-003,
          1.07192639e-002, -9.43130173e-004, 1.75886205e-003,
          -1.82193778e-002, -1.81490555e-002, -1.08036259e-002,
          1.45797562e-002, 1.37534942e-002, 3.76341082e-002,
          5.07740267e-002, 3.90876923e-003, 3.88175086e-003,
          -1.37106515e-002, 1.27068469e-002, 6.75072847e-003,
          2.04447042e-002, 6.09970465e-003, -3.38186882e-003,
          -6.90589845e-003, -1.05416204e-003, 1.50037007e-002,
          4.61331010e-002, 3.18625793e-002, 3.18194693e-003,
          -4.47064545e-003, -5.95745211e-003, -1.00272312e-003,
          -1.30870817e-002, -6.26392197e-003, -1.10124080e-002,
          -5.74402045e-003, 1.82254240e-002, 3.24276928e-003,
          1.40190478e-002, -3.99008131e-004, -1.89209860e-002,
          -2.01320462e-002, -6.39204960e-003, 5.81111945e-003,
          3.16324420e-002, 4.16236632e-002, 6.16340106e-003,
          9.52671375e-003, -5.82782971e-003, 9.23623517e-003,
          4.66178730e-003, 1.36503689e-002, 6.57596113e-003,
          -9.71762650e-003, -6.23557484e-003, 2.94032716e-003,
          1.78639982e-002, 3.50417569e-002, 1.38097592e-002,
          -3.30793066e-003, -3.73545405e-003, -8.82465485e-003,
          1.14111546e-002, 3.26294306e-004, -8.00051913e-003,
          -1.34792868e-002, -1.22543015e-002, 2.05555335e-002,
          6.76896656e-003, 1.37450369e-002, -4.22092900e-003,
          -9.60990961e-004, -6.32207002e-003, -3.92219378e-003,
          6.56400248e-003, 2.08003614e-002, 2.85559501e-002,
          3.63285094e-003, 1.04969405e-002, -8.52685422e-003,
          1.20431918e-003, 7.25105917e-003, 1.12942355e-002,
          5.08682709e-003, -8.47386941e-003, -6.19365182e-003,
          -3.19016306e-003, 7.18197646e-003, 2.07268111e-002,
          8.91904254e-003, -5.51510509e-003, -2.07952945e-003,
          1.28485542e-003, 2.49756090e-002, 1.16971172e-002,
          -2.16408446e-003, -6.01406489e-003, -1.15147717e-002,
          1.65583417e-002, 4.54352330e-003, 3.50097218e-003,
          -1.84595697e-002, 2.13460345e-003, -3.02921445e-003,
          -5.43790823e-003, 3.41275427e-003, 9.86687187e-003,
          1.96143668e-002, -2.33261206e-004, 1.47800008e-003,
          -1.53710777e-002, 1.08556973e-003, 3.32613103e-003,
          3.87776038e-003, 8.57885182e-003, 1.65372377e-003,
          1.81772560e-003, -2.16721161e-003, -5.20275324e-004,
          -2.67442461e-004, -2.18774704e-003, -7.78088020e-003,
          -4.62541450e-003, 3.95020499e-004, 3.68630849e-002,
          2.28120927e-002, -6.75334595e-004, -2.77653639e-003,
          -1.51828248e-002, 1.21947536e-002, 1.09473113e-002,
          -4.17531701e-003, -1.21256877e-002, 2.53327843e-002,
          1.82267707e-002, -2.08393158e-003, 4.07300860e-004,
          -9.73624736e-003, 7.44597940e-003, 2.78265285e-003,
          -8.44308734e-003, -1.08250221e-002, 9.43104830e-003,
          -1.91160617e-003, 3.52335908e-003, 5.07862773e-003,
          1.58304162e-002, 7.58461421e-003, -8.51897639e-004,
          -1.40234502e-002, 2.40033288e-002, 4.39439639e-002,
          3.47561599e-003, -1.19295493e-002, -1.93725545e-002,
          -2.06715800e-002, -1.73595799e-005, 3.33654210e-002,
          1.38581954e-002, -7.37752905e-003, 3.98234883e-003,
          2.11499212e-003, -2.40222365e-003, 2.89226929e-003,
          -1.23113506e-002, 8.42997897e-003, 3.06867994e-002,
          4.26049996e-003, 2.31301319e-002, 3.64822112e-002,
          6.06990000e-003, -1.01555102e-002, -9.17381607e-003,
          -7.41249169e-005, -1.40034361e-002, 3.49684171e-002,
          1.41836694e-002, 2.09038402e-003, -2.31457828e-003,
          5.49328921e-004, -7.71215744e-003, 3.00994311e-002,
          4.41503413e-002, 6.96878554e-003, -2.86634406e-003,
          -2.00871634e-003, 8.86065944e-004, 2.95398408e-003,
          1.58032030e-002, -5.01176016e-003, -2.37576030e-002,
          -3.06122610e-003, -1.04395039e-002, -5.84102795e-003,
          -8.05419125e-003, -4.27314965e-003, 4.80436720e-003,
          1.54979527e-002, -6.94903964e-003, 1.40736699e-002,
          2.80742403e-002, -4.21962840e-003, -7.86264986e-003,
          -8.03965516e-003, 7.46435160e-003, -6.25132350e-003,
          1.51000079e-002, -1.02345133e-003, 1.32320877e-002,
          3.14873038e-003, -3.75901844e-004, -1.98418722e-002,
          2.05972884e-002, 4.04599532e-002, 7.97042344e-003,
          -1.69002020e-003, -1.00760511e-003, 5.10644913e-003,
          -1.35135395e-003, -4.14876034e-004, -1.81804411e-002,
          -3.64203937e-002, -1.69292148e-002, -8.58251844e-003,
          8.36824160e-003, 6.53875107e-003, 4.49792156e-003,
          2.01797928e-003, 3.53254518e-003, -2.08912417e-002,
          -2.72607245e-003, 1.33073460e-002, -1.52178272e-003,
          7.09579512e-003, 5.61066857e-003, 2.07891967e-003,
          -7.77510135e-003, 1.08099570e-002, -4.81786486e-003,
          1.17233424e-002, 1.06647154e-002, 5.87504031e-003,
          -1.76865701e-002, 1.21325022e-003, 2.58062780e-002,
          -3.22416006e-003, -1.20955389e-002, -1.14244586e-002,
          2.19386984e-002, 1.64938159e-002, 7.93513935e-003,
          -1.34550957e-002, -4.09320742e-002, -1.63407903e-002,
          -7.08786538e-003, 6.80703949e-003, -1.14063011e-003,
          2.49003768e-002, 2.41085794e-002, 1.47799803e-002,
          -1.42228622e-002, -1.64252482e-002, 2.66678911e-003,
          -1.12152714e-002, -4.12864611e-003, -5.44039067e-003,
          -3.20351473e-003, -1.03791356e-002, 9.24868695e-003,
          -2.70397589e-003, 9.30098759e-005, 1.35517837e-002,
          7.18641235e-003, -7.04124756e-003, 5.19040041e-003,
          2.37702914e-002, -7.44044455e-003, -1.64093785e-002,
          -1.00551015e-002, 2.64999662e-002, 1.52539536e-002,
          6.27184194e-003, -6.27484173e-003, -3.47623192e-002,
          -2.85903122e-002, -1.66435223e-002, -1.01007111e-002,
          -1.65464245e-002, 1.34944106e-002, 2.02457700e-002,
          1.35882469e-002, -6.70367433e-003, -1.62497889e-002,
          -1.01706032e-002, -2.31460053e-002, -2.44896207e-002,
          -2.30747387e-002, -2.94190669e-003, -1.08045517e-002,
          -1.40412210e-003, -1.12698060e-002, 3.01249884e-003,
          1.93498377e-002, 3.05154501e-003, -1.11053893e-002,
          -3.94348463e-004, 2.57675853e-002, -1.49490277e-003,
          -7.44750351e-003, -2.20443751e-003, 2.92773824e-002,
          1.92611609e-002, 6.28568418e-003, -5.02175791e-003,
          -4.56321985e-002, -4.02212553e-002, -9.23402794e-003,
          -1.41238654e-002, -1.93736479e-002, 1.86348762e-002,
          3.01360749e-002, 1.14801563e-002, -6.93061855e-003,
          -2.86577195e-002, -1.98653303e-002, -1.13916872e-002,
          -2.03391276e-002, -1.98947601e-002, 2.98606791e-003,
          -7.45558972e-003, -5.21289138e-003, -1.40043236e-002 ]
   decision_functions:
      -
         sv_count: 1
         rho: 8.5732285277090159e-001
         alpha: [ 1. ]
