%YAML:1.0
opencv_ml_svm:
   format: 3
   svmType: EPS_SVR
   kernel:
      type: LINEAR
   C: 1.0000000000000000e-002
   p: 1.0000000000000001e-001
   term_criteria: { epsilon:1.0000000000000000e-003, iterations:1000 }
   var_count: 868
   sv_total: 1
   support_vectors:
      - [ -1.56593637e-003, -6.40597800e-003, 1.08456751e-003,
          1.62847675e-002, 7.25033730e-002, 1.00269638e-001,
          5.69180287e-002, 4.51437756e-002, 5.14640771e-002,
          3.89199778e-002, -1.31078130e-002, -9.02926624e-002,
          -5.42296879e-002, 1.95520800e-002, -8.84685956e-004,
          -3.20150331e-002, -3.08901593e-002, -3.04155834e-002,
          3.43246013e-002, -1.96875762e-002, -8.99292454e-002,
          -5.43705001e-002, 1.75461229e-002, 3.78622860e-002,
          2.40996256e-002, 1.63168423e-002, 2.42464133e-002,
          2.27972865e-002, -4.98639536e-004, 4.85604070e-002,
          -3.76339373e-003, 1.48587860e-002, 4.62549329e-002,
          1.48387766e-002, 4.18664608e-003, 6.08903132e-002,
          6.94946423e-002, 3.76108773e-002, 2.79544368e-002,
          2.44012438e-002, 2.53315475e-002, -2.68793795e-002,
          -9.74536911e-002, -1.24282070e-001, -3.04361191e-002,
          2.36751679e-002, -5.26724830e-002, -5.56296557e-002,
          -6.02423213e-002, 1.34315779e-002, 9.08760075e-003,
          -7.73307979e-002, -1.28312483e-001, -2.31422335e-002,
          4.94899936e-002, -1.16155036e-002, -2.45859958e-002,
          -2.87074037e-002, -2.78503820e-002, -2.57195681e-002,
          1.53023284e-002, -7.97594432e-003, 4.72787134e-002,
          7.18483403e-002, 6.10563084e-002, 2.27931235e-002,
          3.20780426e-002, 2.14786492e-002, 1.53535996e-002,
          2.65286397e-002, 3.17661501e-002, 2.99090613e-002,
          1.46163523e-003, -6.54472113e-002, -1.06258944e-001,
          -2.36791428e-002, 1.47856940e-002, -5.16086482e-002,
          -4.83168326e-002, -3.30480374e-002, 7.53015950e-002,
          7.19856098e-002, 4.62611998e-003, -7.16116726e-002,
          -1.45452069e-002, 2.22959463e-002, -3.40669751e-002,
          -2.23226231e-002, 1.42707210e-003, 2.08077375e-002,
          2.31491588e-002, -1.32767633e-002, -8.06276593e-003,
          3.03142029e-003, 5.56322522e-002, 5.76451272e-002,
          5.26280925e-002, 8.03853199e-002, 7.99913611e-003,
          -6.61647134e-003, -1.78258382e-002, 9.63437371e-003,
          2.11990848e-002, -1.86271349e-003, -4.39538732e-002,
          -5.54455183e-002, 1.38321528e-002, -3.13309580e-002,
          -7.62255415e-002, -5.45415729e-002, -6.47855848e-002,
          1.33677693e-002, 5.06357253e-002, 1.50333485e-002,
          -1.74667547e-003, 2.39023715e-002, -1.94824170e-002,
          -7.66567066e-002, -7.10918605e-002, -5.17588854e-002,
          4.25340608e-002, 3.03235594e-002, -4.77034412e-002,
          -4.90075462e-002, -4.56466293e-003, 1.15276617e-003,
          3.31360172e-003, 1.00986836e-002, 1.08003560e-002,
          -1.98909026e-002, -1.12372339e-002, -6.43977663e-003,
          1.52539145e-002, 4.79575396e-002, 1.54227512e-002,
          -6.46135136e-002, -2.89800130e-002, 2.55778781e-003,
          -1.42122721e-002, -4.31989878e-003, -1.03421428e-003,
          -1.22086273e-003, 4.81233336e-002, 1.77784730e-002,
          -5.87388352e-002, -2.64277905e-002, 3.78367002e-003,
          -2.03863811e-002, -1.81081537e-002, -7.42470240e-003,
          1.65269654e-002, -1.96694210e-003, -4.76221479e-002,
          5.02630062e-002, -2.42231507e-002, 3.80109549e-002,
          2.04794295e-002, 7.08610285e-003, -1.16082821e-002,
          5.95773291e-003, -1.92842409e-002, -2.67124325e-002,
          -1.10931545e-002, 7.68737355e-003, 4.53267507e-002,
          5.70546603e-003, -4.57331687e-002, -2.25468408e-002,
          -8.85352585e-003, -1.19979156e-003, -6.91670179e-003,
          -1.53463315e-002, -1.80413984e-002, 4.51102927e-002,
          3.71202379e-002, -3.27735394e-002, -4.19965126e-002,
          -3.48076900e-003, -1.38461394e-002, -3.28923017e-002,
          -2.60585621e-002, -1.30495173e-003, -3.02330945e-002,
          -4.01952341e-002, 4.51063365e-002, -1.58649380e-003,
          4.66315225e-002, 3.47877555e-002, -1.60348066e-003,
          -2.67428383e-002, -1.83342081e-002, -1.63164958e-002,
          -2.50050314e-002, -1.31083392e-002, 1.69265270e-002,
          5.14317490e-002, 3.10050379e-002, -5.20874038e-002,
          -1.60214007e-002, -3.98575468e-003, -4.13612975e-003,
          -6.96260808e-003, -6.95550675e-003, -4.06403648e-004,
          1.01335175e-001, 6.75526410e-002, -4.81935441e-002,
          -4.63217981e-002, -1.69212874e-002, -1.31308986e-002,
          -2.85557788e-002, -1.93900540e-002, 2.10379735e-002,
          2.35790480e-002, 1.19092278e-002, -1.41156996e-002,
          -2.65028272e-002, 2.14983579e-002, 2.93522999e-002,
          2.93353014e-003, -1.99984293e-002, -5.85165247e-003,
          -2.19499506e-002, -1.70762930e-002, -3.34250033e-002,
          -1.67024825e-002, 3.82612832e-002, 2.89069507e-002,
          -2.57338025e-002, -2.85394234e-003, 4.76466529e-002,
          -6.72066642e-004, 8.13842658e-003, 1.52424760e-002,
          -6.55414630e-003, 4.02666740e-002, 4.68880236e-002,
          -1.75858419e-002, -2.04227045e-002, 2.67432127e-002,
          -7.16765132e-003, -1.06176045e-002, -1.93615519e-002,
          -1.65658314e-002, 5.74342757e-002, 4.36610803e-002,
          -3.35022695e-002, -4.81892228e-002, -8.71327647e-004,
          -1.34815666e-004, -6.52711489e-004, 4.03363444e-003,
          6.00625249e-003, -2.74665337e-002, -2.40667677e-003,
          -5.58359968e-003, -1.15471901e-002, 1.75979026e-002,
          4.46291901e-002, 1.20243162e-003, 1.70051362e-002,
          3.65892425e-002, 8.29025079e-003, 3.74054327e-003,
          2.49740179e-003, -1.07461587e-003, 3.71826366e-002,
          4.62277234e-002, 3.78101855e-003, 1.52953714e-002,
          1.51305636e-002, -1.76505055e-002, -2.77099200e-003,
          -2.32022302e-003, -8.19898490e-003, 3.56286322e-003,
          -2.65147835e-002, 4.69364375e-002, 1.93157010e-002,
          3.87452170e-002, 6.78569358e-003, -3.50470585e-003,
          -9.53428820e-003, -9.53496620e-003, -3.31444256e-002,
          -3.25851627e-002, -2.35215798e-002, -2.43642367e-002,
          -1.28335948e-003, 1.58846620e-002, -1.32237817e-003,
          4.47958009e-003, 6.97115145e-004, -1.31584108e-002,
          -7.90113211e-003, -1.31295677e-002, -2.80605676e-003,
          8.70215148e-003, 3.39878984e-002, -1.33044925e-003,
          -7.16114556e-003, -6.94927236e-004, -4.04980443e-002,
          -4.05719392e-002, -3.53708640e-002, -2.38885880e-002,
          -3.83988470e-002, -5.59223928e-002, 3.64225321e-002,
          6.42276648e-003, 2.60229278e-002, -8.24248604e-003,
          -2.16532666e-002, -2.17318740e-002, -1.19677801e-002,
          -1.73301939e-002, -3.33812349e-002, -3.03019136e-002,
          -1.42258843e-002, 2.76337862e-002, 7.69951642e-002,
          -1.11522004e-002, -5.29536512e-003, -1.56095466e-002,
          -1.67710166e-002, -6.94729527e-003, -3.86804203e-003,
          3.42461932e-003, 5.92933595e-002, 6.91588596e-002,
          -2.86214836e-002, -2.13878434e-002, -1.62545964e-002,
          -2.90988833e-002, -3.84199880e-002, -3.17716189e-002,
          -7.66769703e-003, 1.91141367e-002, 3.31214536e-003,
          -2.19791494e-002, -4.02340479e-002, 1.65054090e-002,
          -2.52407975e-003, -1.73487402e-002, -1.87274963e-002,
          -2.82763247e-003, 2.36576190e-003, -2.13297637e-004,
          -7.82617892e-004, -1.14704845e-002, 2.28268411e-002,
          4.82373834e-002, -1.40481291e-003, -5.37473755e-003,
          2.03249939e-002, 3.39960167e-003, 3.25618451e-003,
          1.43539766e-002, 2.25121789e-002, 4.60427813e-002,
          3.97692360e-002, -1.19654108e-002, -1.69085227e-002,
          1.21994726e-002, 6.22023887e-004, 2.56868079e-003,
          9.22909379e-003, 1.15393223e-002, 2.90720649e-002,
          5.29753864e-002, -1.09094810e-002, -2.72466578e-002,
          -2.10871501e-003, -9.10819042e-003, -1.82296187e-002,
          1.57015689e-003, 2.94693131e-002, 1.22770974e-002,
          2.20131259e-002, 1.07444846e-003, 1.14226649e-002,
          7.56242499e-003, 1.78502500e-002, 1.10799186e-002,
          4.14167065e-004, 2.34904699e-002, 6.09345408e-003,
          1.58482920e-002, 1.11074699e-002, 3.88867222e-003,
          3.61656435e-002, 3.29671167e-002, 4.75373212e-003,
          3.28289228e-003, 2.86977515e-002, 2.08714493e-002,
          2.86915973e-002, 1.09159919e-002, 1.89587772e-002,
          1.61977054e-003, -6.63106143e-003, 3.97551917e-002,
          3.39463428e-002, 4.21913043e-002, 6.82483427e-003,
          -1.45873055e-002, -2.07389742e-002, -1.75583716e-002,
          -1.61405224e-002, -1.01613989e-002, 4.14333073e-004,
          9.73585434e-003, 1.40969250e-002, 7.90947583e-003,
          -1.91526057e-003, -2.15387568e-002, -2.32737362e-002,
          -1.68400425e-002, -4.11036890e-003, -8.89755413e-003,
          8.66264198e-003, 2.82786917e-002, 2.71483120e-002,
          -1.15465410e-002, -3.56038064e-002, -2.85915155e-002,
          -2.63339300e-002, -1.40940361e-002, -7.19493022e-003,
          2.02962384e-002, -3.73939984e-002, -4.30694409e-002,
          2.90524699e-002, 2.03330163e-002, 1.09965587e-002,
          -2.25136299e-002, -2.38985885e-002, -2.04938222e-002,
          -2.74662506e-002, -1.41522782e-002, -1.07969064e-002,
          -1.36348670e-002, 9.57643613e-003, 3.45094427e-002,
          5.92745170e-002, -1.20947137e-002, -1.96580570e-002,
          -3.06869410e-002, -2.72110607e-002, -9.78112407e-003,
          4.20491258e-003, 1.37748115e-003, 4.65092175e-002,
          5.14789671e-002, -3.11076827e-002, -3.29546183e-002,
          -4.43294048e-002, -3.68989371e-002, -1.87323149e-002,
          -7.73365004e-003, 1.80002507e-002, 1.34855378e-002,
          5.35398535e-003, -3.03823054e-002, -4.14656214e-002,
          1.35330934e-004, -1.71753764e-002, -2.61511412e-002,
          -1.15360646e-002, 1.46763946e-003, 1.90028548e-002,
          1.36350710e-002, 6.02897257e-003, 1.26825552e-003,
          3.81982024e-003, 2.04095282e-002, -1.44199291e-002,
          -1.30680166e-002, 1.76390018e-002, -5.21044573e-003,
          -3.13203782e-003, 1.56054739e-002, 8.54101405e-003,
          2.92236004e-002, 1.67485923e-002, -3.00972592e-002,
          -1.69895366e-002, 4.96254722e-003, 3.55303823e-003,
          1.13017941e-002, 1.60353053e-002, 1.22298356e-002,
          8.47488083e-003, 2.19506230e-002, -4.36296919e-003,
          -1.81147549e-002, -1.08413715e-002, -2.02683024e-002,
          -2.12781578e-002, -4.10492066e-004, 1.66802835e-002,
          1.22346357e-002, 1.02989189e-002, 1.20231854e-002,
          1.43896770e-002, -8.23446270e-003, 8.90963245e-003,
          1.21554052e-002, -1.22965742e-002, 1.49184959e-002,
          6.24937098e-003, 3.02482527e-002, 2.08995398e-002,
          2.10697670e-002, 2.33816784e-002, 1.77949332e-002,
          -4.83492331e-004, -9.86657571e-003, 1.29878651e-002,
          1.77213307e-002, 3.04672047e-002, 3.11619323e-002,
          3.58409807e-002, -1.95289757e-002, -3.28219403e-003,
          3.67025957e-002, 3.64294946e-002, 3.52183543e-002,
          1.38429673e-002, -3.27505581e-002, -3.91799100e-002,
          -3.83770578e-002, -2.99646463e-002, -1.11762397e-002,
          3.21054505e-003, -9.66370746e-004, 1.00551853e-002,
          1.68181043e-002, 5.38492482e-003, -2.88854074e-002,
          -3.60447504e-002, -7.38485344e-003, 5.34565141e-003,
          1.56442192e-003, 3.48359458e-002, 3.49883027e-002,
          4.15917858e-002, -2.36702431e-002, -5.59143685e-002,
          -5.15415594e-002, -3.02709807e-002, -5.34182880e-003,
          3.62100964e-003, 3.82833071e-002, -5.27608991e-002,
          -3.45990546e-002, 1.21668512e-002, 2.87820287e-002,
          -2.33722827e-003, -1.35094048e-002, -2.85454299e-002,
          -2.17581857e-002, -4.10079136e-002, -3.11559103e-002,
          -2.09686346e-002, -1.98422801e-002, 1.33194122e-003,
          3.62131521e-002, 4.87598404e-002, -2.27596890e-003,
          -2.96198521e-002, -3.82640511e-002, -8.08271952e-003,
          4.91724582e-003, 5.00269327e-003, 1.15828728e-002,
          3.74021679e-002, 4.72777821e-002, -2.61009336e-002,
          -4.24149185e-002, -5.58696501e-002, -2.94046588e-002,
          -1.24800839e-002, -1.37983114e-002, 1.99362691e-002,
          1.95456925e-003, 1.37475096e-002, -4.96985875e-002,
          -3.65059972e-002, -9.06506274e-003, 1.46961611e-004,
          -1.37595208e-002, -3.07673146e-003, -9.21815925e-004,
          1.78082474e-002, 5.03962580e-003, -4.03931644e-003,
          -5.67906722e-003, -1.46664465e-002, -6.08719245e-004,
          -1.01213232e-002, -5.52219758e-003, 6.49269018e-003,
          -1.76098794e-004, 3.85369640e-003, 1.55771291e-002,
          1.63128786e-002, 1.65263992e-002, 1.90848820e-002,
          -1.98858567e-002, -4.69684275e-003, -8.96961312e-004,
          1.25960857e-002, 1.11411642e-002, 8.12494289e-003,
          1.35408519e-002, 1.01134712e-002, 9.56406910e-003,
          -1.41206160e-002, -6.69067353e-003, -3.55660133e-002,
          -3.08703426e-002, -1.90892201e-002, -2.21407451e-002,
          1.32831819e-002, 2.01723371e-002, 8.88784602e-003,
          1.30683333e-002, 1.62600707e-002, -1.35862250e-002,
          1.73001678e-003, -1.17109204e-002, -1.04857245e-002,
          -6.11105887e-003, 6.17040228e-003, 2.05051471e-002,
          9.45020095e-003, -1.23208552e-003, 5.36703644e-003,
          8.70350376e-003, -2.08910927e-002, -2.28940994e-002,
          4.32633841e-003, 2.01952923e-002, 2.56663952e-002,
          2.30486710e-002, 1.85680669e-002, -6.02082014e-002,
          -1.75837707e-002, 1.73776280e-002, 4.09621187e-002,
          1.01032434e-003, -2.43016072e-002, -4.18984815e-002,
          -4.24543098e-002, -2.30621770e-002, -1.04892431e-002,
          -1.48501219e-002, -1.41077423e-002, -6.60167122e-003,
          9.34389234e-003, 1.37672322e-002, -5.23201283e-003,
          -1.97792836e-002, -3.38151492e-002, 7.70471850e-003,
          5.76606486e-003, 2.44742632e-003, 3.72835808e-002,
          2.18497552e-002, 1.24821989e-002, -3.95560823e-002,
          -5.11286147e-002, -3.78672481e-002, -1.52475142e-003,
          -6.46365480e-003, -9.44527611e-003, 3.25342193e-002,
          -6.42528981e-002, -3.22322287e-002, -1.13161234e-002,
          3.27220559e-002, -1.46094197e-002, -2.34105457e-002,
          -2.11317837e-002, -5.39714238e-003, -3.13920863e-002,
          -1.05661247e-002, -3.04593239e-002, -4.07902114e-002,
          -2.59074159e-002, 2.58152355e-002, 3.40383686e-002,
          -1.45407161e-002, -3.15499417e-002, -3.39842327e-002,
          2.28499267e-002, 2.30641514e-002, 1.14390906e-002,
          8.59183073e-003, 2.13069338e-002, 2.14861166e-002,
          -3.03211808e-002, -2.94161458e-002, -4.56460193e-002,
          1.29180877e-002, -2.71208305e-003, -2.67871581e-002,
          -5.51701337e-003, -1.07444562e-002, 2.43547987e-002,
          -5.87781221e-002, -2.92852987e-002, 1.96054205e-003,
          7.57582346e-003, 9.38468147e-003, 1.22921458e-002,
          -7.06017204e-003, 1.27423843e-002, -5.74365444e-003,
          -1.97233222e-002, -2.31539067e-002, -3.49143036e-002,
          -1.93587579e-002, -1.69814974e-002, -2.55965758e-002,
          -1.18337972e-002, 1.50426533e-002, 2.13276464e-002,
          2.29393803e-002, 2.97679044e-002, 1.12041058e-002,
          9.28230770e-003, -3.61443614e-003, -6.93097571e-003,
          -5.79205714e-003, 2.58491598e-002, 1.81261245e-002,
          3.28553072e-003, 1.14379227e-002, 3.04994285e-002,
          1.29112769e-002, -4.22818251e-002, -1.58991739e-002,
          -3.74157615e-002, -5.19736558e-002, -4.98491414e-002,
          -7.50866160e-002, 5.07582873e-002, 1.01595521e-001,
          -1.30070355e-002, -4.22748998e-002, -6.35518208e-002,
          -2.79695783e-002, 2.44359188e-002, 3.88396569e-002,
          1.86216813e-002, 8.13382305e-003, 8.24114215e-003,
          -7.42759416e-003, -1.16146514e-002, -1.63759794e-002,
          -3.43090966e-002, 4.40187845e-003, 1.49201252e-003,
          -2.73680929e-002, 4.62101698e-002, 8.38354900e-002,
          -1.85718928e-002, -5.23861125e-002, -6.48846999e-002,
          -7.84111768e-002, -3.78999747e-002, 4.05988144e-003,
          4.34642546e-002, -8.40938091e-003, -6.81927875e-002,
          -7.10569322e-002, -7.39860684e-002, 3.66287939e-002,
          8.29467252e-002, -3.28838117e-002, -5.67243509e-002,
          -5.22047617e-002, 1.31754605e-002, 3.24229747e-002,
          1.78911220e-002, 5.24553470e-003, -3.67698930e-002,
          -1.45073468e-002, -2.63365507e-002, -2.03928724e-002,
          2.49724127e-002, 9.00804717e-003, -2.03706827e-002,
          -4.33187261e-002, -5.09196334e-002, -2.43351609e-003,
          3.95381674e-002, -5.48689030e-002, -7.27735236e-002,
          -2.28804871e-002, -6.64395690e-002, -4.30095457e-002,
          -2.53641065e-002, 1.78203490e-002, 4.63383505e-003,
          -3.33625562e-002, -2.65190527e-002, -2.69779228e-002,
          2.46674437e-002, 7.04337955e-002, -5.31686097e-002,
          -7.81795010e-002, -7.39229620e-002, 2.13955827e-002,
          4.63245325e-002, -9.18933097e-003, -5.01001216e-002,
          -7.09043741e-002, -1.89149752e-002, -1.04404278e-002,
          -1.40679851e-002, 1.62720121e-002, 2.24520136e-002,
          2.33732257e-002, -2.45900732e-002, -4.82665636e-002,
          -2.92702951e-002, 1.79699231e-002, -5.87784797e-002,
          -8.52829590e-002, -4.62716594e-002, -3.15930732e-002,
          6.47175824e-003, -6.39126003e-002, -4.39106040e-002,
          3.38710099e-002, 9.34422854e-003, -1.19782786e-003,
          -1.98742300e-002, 3.44019532e-002, 6.05291985e-002,
          -2.37375069e-002, -3.96872908e-002, -4.35986780e-002,
          -3.70184332e-002, -1.92186926e-002, -3.51723097e-002,
          -6.33296669e-002, -8.55686441e-002, -3.97743210e-002,
          -2.58013066e-002, -1.19128404e-003, 2.84823962e-002,
          1.16054229e-002, 2.61058356e-003, -2.86230147e-002,
          -5.78994676e-002, -3.31304707e-002, -2.24648090e-003,
          -4.62842211e-002, -3.68158333e-002, -2.96898931e-003,
          -3.98304593e-003, 1.98727697e-002, -8.83067697e-002,
          -5.41733690e-002 ]
   decision_functions:
      -
         sv_count: 1
         rho: 4.9392866045236183e-002
         alpha: [ 1. ]
