%YAML:1.0
opencv_ml_svm:
   format: 3
   svmType: EPS_SVR
   kernel:
      type: LINEAR
   C: 1.0000000000000000e-002
   p: 1.0000000000000001e-001
   term_criteria: { epsilon:1.0000000000000000e-003, iterations:1000 }
   var_count: 1395
   sv_total: 1
   support_vectors:
      - [ 6.34507649e-003, 2.11761706e-003, -6.91860216e-003,
          -3.98924667e-003, 1.90635957e-002, 1.09282928e-002,
          3.56801203e-003, 1.89431070e-003, 7.65490637e-004,
          1.49732204e-002, 2.00376683e-003, -2.09021736e-002,
          -2.10920218e-002, 4.42926120e-003, -9.93177947e-003,
          -1.07293706e-002, -1.09288618e-002, -1.13898506e-002,
          1.18919285e-002, 7.86642777e-004, -2.63323728e-002,
          -2.27397047e-002, 9.30209551e-003, 1.27446407e-003,
          -6.92059984e-003, -8.41163471e-003, -9.16753523e-003,
          -4.13051713e-003, -1.14214122e-002, 6.52612513e-003,
          -5.01873810e-003, 1.27359647e-002, 1.57833733e-002,
          -4.67972318e-003, -3.91003303e-003, 1.51002565e-002,
          6.02074107e-003, 1.09462836e-003, -9.97333555e-004,
          -2.71220109e-003, 1.31721022e-002, -1.28306053e-003,
          -2.60522645e-002, -3.12826447e-002, -7.75985699e-003,
          -1.43555058e-002, -1.50919706e-002, -1.51959294e-002,
          -1.55527908e-002, 1.55670820e-002, 1.14622805e-002,
          -2.90342327e-002, -3.24744955e-002, -4.47650626e-003,
          -7.84278940e-003, -1.33819617e-002, -1.57932155e-002,
          -1.72246229e-002, -2.94029899e-003, -9.77139827e-003,
          -6.26530545e-003, -1.63620878e-002, 1.41637875e-002,
          1.72705818e-002, -4.70715109e-003, -2.27947603e-003,
          7.51230773e-003, 3.94966541e-004, 2.69032927e-004,
          2.88945943e-004, -4.49029554e-004, 1.35846427e-002,
          1.68433238e-003, -2.18620840e-002, -3.21115553e-002,
          -9.27296188e-003, -1.16201993e-002, -1.33945756e-002,
          -1.40951714e-002, -1.43013075e-002, 1.36528425e-002,
          1.55064445e-002, -2.44891010e-002, -3.14521454e-002,
          -6.18758099e-003, -1.14911366e-002, -1.26780216e-002,
          -1.31762326e-002, -1.41817443e-002, 5.66230156e-003,
          -4.04777005e-003, -1.27246287e-002, -2.13811062e-002,
          2.80989502e-002, 2.36483030e-002, 4.78593772e-003,
          1.00498833e-003, 5.22560952e-003, -5.29848970e-003,
          -5.23822801e-003, 6.80410594e-004, 6.07205881e-003,
          6.08710060e-003, 3.50715988e-003, -6.65245811e-003,
          -3.10737882e-002, -1.80103704e-002, -6.63111312e-003,
          -4.95013827e-003, 1.02390070e-003, 9.42907482e-003,
          2.75180787e-002, 2.35041678e-002, -1.60279602e-003,
          -2.64947880e-002, -8.91483948e-003, -1.11238556e-002,
          -9.78761632e-003, 2.27973121e-003, 1.17109735e-002,
          1.56925842e-002, 9.13579483e-003, -4.48769424e-003,
          -1.48211038e-002, 2.35337485e-002, 2.15731915e-002,
          1.57665927e-002, 1.04192756e-002, 1.96828190e-002,
          4.01694328e-003, 2.27641058e-003, 3.59722343e-003,
          1.51057970e-002, 1.50975436e-002, 1.35278273e-002,
          5.22704577e-005, -2.25787554e-002, -2.17177141e-002,
          -2.36953609e-002, -1.88906509e-002, -6.87451102e-003,
          1.65932886e-002, 2.91822720e-002, 2.63602287e-002,
          1.38999950e-002, -1.18780164e-002, -3.98864411e-003,
          -1.86772272e-002, -1.44152744e-002, -1.34389056e-003,
          2.29908656e-002, 2.16923151e-002, 1.28984032e-002,
          2.85532023e-003, -5.63316653e-003, 1.34648560e-002,
          5.20695141e-003, -2.20728503e-003, -1.11743831e-003,
          1.66482069e-002, 5.33982739e-003, -1.19986816e-003,
          -2.49118730e-003, -2.92759365e-003, 2.06151791e-002,
          -1.06125313e-003, -2.61518881e-002, -1.95607301e-002,
          2.53944751e-003, -6.05418393e-003, -3.00659472e-003,
          -2.32249615e-003, -5.39957685e-003, 1.70032047e-002,
          1.73002493e-003, -2.65759379e-002, -2.02033315e-002,
          9.31277592e-003, 9.23373373e-005, -4.34400653e-003,
          -5.22305164e-003, -8.34022649e-003, -4.44213208e-003,
          -9.23219230e-003, 1.03214057e-002, -1.21288456e-003,
          1.26134865e-002, 7.29876012e-003, -5.92021365e-003,
          -3.50032933e-003, 1.19473524e-002, 5.09161316e-003,
          -5.79400221e-005, -1.90087163e-003, -2.41450872e-003,
          2.25280225e-002, 3.06839985e-003, -3.05902679e-002,
          -2.57029850e-002, -4.21447586e-003, -6.14398019e-003,
          -6.11332431e-003, -7.80904479e-003, -1.32309487e-002,
          1.85265336e-002, 8.43854900e-003, -3.35919671e-002,
          -2.77709030e-002, -2.54190614e-004, -9.66227730e-004,
          -5.96668338e-003, -9.55915917e-003, -1.46041317e-002,
          -2.79979990e-003, -6.33921055e-003, -2.77618598e-003,
          -9.32196528e-003, 1.00187985e-002, -6.54452131e-004,
          -1.58158932e-002, -9.87304561e-003, 2.00886349e-003,
          -1.39974465e-003, -1.53370888e-003, -3.11297993e-003,
          -3.98593675e-003, 1.89300869e-002, 4.99956030e-003,
          -2.50322167e-002, -2.67345831e-002, -6.66426541e-003,
          -8.90405010e-003, -6.04860345e-003, -7.12526124e-003,
          -1.19131999e-002, 1.04706446e-002, 6.55114464e-003,
          -3.41569781e-002, -3.09622176e-002, -6.37358474e-003,
          -1.00385752e-002, -7.51057686e-003, -1.00762183e-002,
          -1.53014502e-002, -7.59484712e-004, -4.14017681e-003,
          -1.71420388e-002, -2.17233747e-002, 2.57781073e-002,
          1.61740482e-002, -8.26276431e-004, -6.76900474e-003,
          -4.38125245e-003, -1.12331109e-002, -1.17324572e-002,
          -8.64948425e-003, -1.39987227e-004, 6.47610240e-003,
          2.43113609e-003, -1.34689566e-002, -2.24124864e-002,
          -7.62401568e-003, -4.46197437e-003, -1.62478362e-003,
          4.73610545e-003, 1.29665565e-002, 2.41728965e-002,
          1.55505817e-002, -1.24495486e-002, -2.21394356e-002,
          -9.03534796e-003, -1.55278407e-002, -1.31283682e-002,
          -3.65512981e-003, 8.00995436e-003, 6.88711694e-003,
          5.06716408e-003, -1.00640524e-002, -1.35629103e-002,
          1.79030523e-002, 1.66145060e-002, 1.50302649e-002,
          5.89190610e-003, 1.23821758e-002, -5.31841360e-004,
          -6.00145198e-003, -1.20508987e-002, -1.35422975e-003,
          1.30051253e-002, 1.46408752e-002, 1.08966115e-003,
          -1.65337380e-002, -4.30783862e-003, -4.79393872e-003,
          -3.33838072e-003, 3.20089166e-003, 2.26732306e-002,
          2.09445413e-002, 2.43726112e-002, 1.60147566e-002,
          -6.28601154e-003, 8.19728989e-003, -5.12851262e-003,
          -8.20822455e-003, -6.70443987e-003, 9.83023271e-003,
          1.97967999e-002, 1.59316678e-002, 6.60021557e-004,
          -1.73145859e-003, 1.62444878e-002, 3.78240971e-003,
          1.04838389e-003, -1.47191482e-003, -8.51770688e-004,
          -9.25711263e-003, -1.28710493e-002, -1.34873604e-002,
          -1.11076925e-002, 1.22173373e-002, -5.14467433e-003,
          -2.00507417e-002, -1.28525933e-002, 3.97461088e-004,
          -1.04069686e-003, 1.01280317e-003, 4.45688656e-003,
          2.81865662e-003, 1.26577755e-002, -2.52144854e-003,
          -1.76470466e-002, -1.33367795e-002, -1.36758736e-003,
          -9.55266319e-003, -1.17699839e-002, -9.73077398e-003,
          -9.63001698e-003, -1.09011251e-002, -1.32924812e-002,
          5.69969462e-003, -3.26458202e-003, 9.59080271e-003,
          -1.31025584e-002, -8.89409427e-003, -4.77279117e-003,
          4.39871044e-004, -1.73807878e-003, -5.24065318e-003,
          -5.54656750e-003, -6.37015235e-003, 1.96606647e-002,
          1.30171049e-003, -1.91927422e-002, -1.38822878e-002,
          -5.54013811e-003, -3.39918304e-003, -2.09404319e-003,
          -2.61473353e-004, -2.63488712e-003, 1.71828810e-002,
          -8.26627109e-003, -2.36234665e-002, -1.74672604e-002,
          -5.12402551e-003, -5.11062657e-003, -7.25465501e-003,
          -5.86158177e-003, -8.96933395e-003, -5.01291873e-003,
          -7.84345157e-003, -6.35275431e-003, -9.86522436e-003,
          8.13443586e-003, -2.59747971e-002, -1.95583887e-002,
          -6.57549500e-003, 1.17524221e-004, -2.89420504e-003,
          -4.32734471e-003, -6.68053143e-003, -7.94322975e-003,
          1.50654772e-002, 6.26901165e-003, -8.66743084e-003,
          -6.46841060e-003, -1.24395685e-003, -2.57686898e-003,
          -4.64373115e-005, 3.20855412e-003, -1.20796030e-004,
          5.74601581e-003, -1.32121174e-002, -2.31871381e-002,
          -1.20474016e-002, -9.44405037e-004, -5.42991795e-003,
          -4.30242764e-003, -3.67230107e-003, -8.59916862e-003,
          5.81295521e-004, 6.36187615e-004, -1.34709505e-002,
          -1.61638856e-002, 2.34830528e-002, 1.23117713e-003,
          -5.98341227e-003, -3.53984255e-003, 1.52696317e-004,
          -6.74995687e-003, -7.17047323e-003, -1.08070690e-002,
          -8.15358572e-003, -2.31643091e-003, 2.70547019e-003,
          -1.95248798e-003, -3.48211819e-004, 7.17534032e-003,
          3.59360524e-003, 6.26960723e-003, 1.52714672e-002,
          2.11087763e-002, 1.54596101e-002, 3.84283555e-003,
          -6.40574889e-003, -2.55453493e-003, 7.68563291e-003,
          -3.02593736e-003, -9.20424063e-004, 3.37949698e-003,
          7.08113331e-003, 1.23603111e-002, 1.27075166e-002,
          -4.66379710e-003, -4.39070445e-003, 1.06215132e-002,
          2.78551062e-003, 3.25441314e-003, -1.11915369e-003,
          1.27037603e-003, -6.13153633e-003, -4.21322230e-003,
          -8.02922063e-003, -4.11685091e-003, 1.35344896e-003,
          8.88221711e-003, 5.56271803e-003, 6.56853663e-003,
          1.68309547e-002, 9.83516593e-003, 1.73415449e-002,
          2.49074120e-002, 3.46743912e-002, 7.00035179e-003,
          1.11271432e-002, 1.30933179e-002, 6.49975846e-003,
          1.88501365e-002, 4.15559672e-003, 1.23664876e-002,
          1.31681850e-002, 1.69087015e-002, 2.26833783e-002,
          2.47977562e-002, 4.32742527e-003, 4.89059184e-003,
          1.61900353e-002, 3.36013176e-003, 1.40145700e-003,
          -2.15945276e-003, -1.71523343e-003, -6.18447969e-003,
          -7.72093423e-003, -8.35026242e-003, -1.04489485e-002,
          3.31620406e-003, -1.05770892e-002, -1.50812920e-002,
          -8.74145981e-003, 2.61910638e-004, 1.11663691e-003,
          3.63579858e-003, 7.82618206e-003, 4.82641719e-003,
          6.24190783e-003, -5.82388183e-003, -1.17707886e-002,
          -9.90468264e-003, -1.97408837e-003, -4.81068715e-003,
          -4.15674783e-003, -1.62676070e-003, -7.73494411e-003,
          -1.06798541e-002, -1.26611553e-002, 4.22560191e-003,
          5.42388810e-003, 5.04798349e-003, -1.51872160e-002,
          -8.16977676e-003, -2.59513548e-003, -2.34195939e-003,
          -2.78864661e-003, -5.89884026e-003, -4.98626428e-003,
          -6.81611896e-003, 1.05095180e-002, -1.86508661e-003,
          -1.28850387e-002, -7.99866673e-003, -4.64259833e-003,
          -2.53517902e-003, -9.20983846e-004, 8.61746608e-004,
          -4.77244565e-003, 1.06293485e-002, -1.20632742e-002,
          -1.65611077e-002, -1.03301387e-002, -6.80008391e-003,
          -5.31998742e-003, -6.72431383e-003, -4.11447417e-003,
          -1.16192950e-002, -5.77554293e-003, -7.71399355e-003,
          -8.58921744e-003, -9.96923819e-003, 4.40433901e-003,
          -1.67857111e-002, -7.24717882e-003, -7.46317615e-004,
          1.26080855e-003, -1.50222972e-003, -9.05515044e-004,
          -7.46428443e-004, -2.43959436e-003, 1.52954683e-002,
          6.12339983e-003, 3.64678679e-004, 3.87353648e-004,
          -1.98197505e-003, -5.20850671e-003, 2.39245681e-004,
          -9.52841016e-004, -9.17502400e-003, 2.29923334e-003,
          -8.57818965e-003, -5.95423533e-003, -2.30570760e-004,
          -3.22879147e-004, -6.56562299e-003, -5.81456523e-004,
          -1.17474003e-003, -1.08045302e-002, 5.43498341e-003,
          3.50521808e-003, -8.56443774e-003, -9.62275919e-003,
          2.12028977e-002, 4.96549439e-003, 3.29542812e-003,
          2.90060323e-003, 3.74088553e-003, -2.71709100e-003,
          -2.15427810e-003, -2.97949126e-004, -2.92862736e-004,
          -4.80097579e-003, 1.56413345e-003, 5.90230455e-004,
          3.88536812e-003, 2.92003481e-003, -2.74918944e-004,
          9.95554868e-003, 1.39699029e-002, 1.56832356e-002,
          1.49480598e-002, 5.64604439e-003, 4.88708867e-003,
          7.08490610e-003, 7.35403271e-003, -2.79886695e-003,
          7.82084838e-003, 1.24909561e-002, 9.84146725e-003,
          1.52411265e-002, 1.69714373e-002, 2.10552127e-003,
          6.29478076e-004, 6.16536569e-003, -1.15050923e-003,
          -3.25055094e-004, -1.39925268e-003, 4.44755470e-003,
          -2.01518554e-003, 5.40229632e-003, 1.31338136e-002,
          1.09427217e-002, -2.63593043e-003, 1.66991807e-003,
          5.92620624e-003, 8.69049225e-003, 1.43507365e-002,
          8.92571360e-003, 2.43653152e-002, 2.99695134e-002,
          3.21452282e-002, 5.90525661e-003, 3.87781742e-003,
          1.64338294e-002, 8.39914382e-003, 2.06819922e-002,
          8.61088559e-003, 2.83629205e-002, 3.78192738e-002,
          3.03909145e-002, 2.17284597e-002, 3.05030514e-002,
          1.02920486e-002, 1.22446967e-002, 1.29680727e-002,
          -1.33160618e-003, -4.77619888e-003, -5.62660024e-003,
          -8.43463058e-004, 5.43863978e-004, 2.48564780e-003,
          3.51395662e-004, -2.54421309e-003, -2.77322880e-003,
          -1.73989050e-002, -9.23656207e-003, -1.82287919e-003,
          1.33750378e-003, 1.02686230e-003, 4.75378428e-003,
          9.48489178e-003, 6.24036975e-003, 8.02833893e-005,
          -1.20758554e-002, -9.03590582e-003, -6.44840719e-003,
          9.41990758e-004, 2.16470985e-003, 7.02932151e-003,
          8.12577922e-003, 1.09775958e-003, -7.96583481e-003,
          -8.48092698e-003, 3.97727219e-003, 9.09366924e-003,
          6.49322197e-003, -9.54971090e-003, -8.53127614e-003,
          -6.28605671e-003, -6.33413205e-003, -4.24035126e-003,
          -4.90353256e-003, -4.40730574e-003, -4.97895014e-003,
          9.76321008e-003, 3.20309284e-003, -3.12829809e-003,
          -1.44122727e-003, -1.25787314e-003, -2.08867644e-003,
          -1.05652213e-003, -1.24992235e-004, -2.45137466e-003,
          1.02212382e-002, -4.23461152e-003, -9.99614224e-003,
          -7.58161768e-003, -7.23111862e-003, -6.14624377e-003,
          -5.81219792e-003, -4.34839865e-003, -7.33542116e-003,
          -2.51684873e-003, -3.79202561e-003, -6.37008855e-003,
          -6.79964013e-003, 1.45526472e-002, 1.94135611e-003,
          -2.95740087e-004, -2.38989037e-003, -8.05974193e-003,
          -4.06027492e-003, 1.64339715e-003, -4.57629154e-004,
          -2.81408196e-003, 1.45455087e-002, 7.13584479e-003,
          3.43242032e-003, 2.64911377e-003, -1.96421659e-003,
          -9.60323773e-003, -4.07006172e-003, -3.52720404e-003,
          -6.54407730e-003, 1.14068231e-002, 6.83787744e-003,
          3.31299729e-003, 1.19260498e-004, -4.33062715e-003,
          -1.01370811e-002, -2.23460980e-003, -2.53515854e-003,
          -6.50223438e-003, 8.29797890e-003, 7.20511191e-003,
          -6.59123389e-003, -7.91525468e-003, 1.61703881e-002,
          6.38750149e-003, 5.17156394e-003, -3.19830695e-004,
          -1.65752543e-003, -2.05115159e-003, 9.83724371e-003,
          1.04161724e-002, 7.38326740e-003, -5.46322204e-003,
          -1.81721686e-003, 1.05375063e-003, 2.46602227e-003,
          5.00266964e-004, -2.24881223e-003, 8.08545202e-003,
          1.09535903e-002, 8.95741861e-003, 1.37328859e-002,
          6.35565678e-003, 1.04980720e-002, 4.22711065e-003,
          7.50859780e-003, -8.99571984e-004, 1.72112081e-002,
          2.00481433e-002, 1.35668190e-002, 1.35573177e-002,
          1.63242519e-002, 2.99301883e-003, 1.92646042e-003,
          2.00797664e-003, 3.11682723e-003, 4.11259942e-004,
          -8.16336949e-004, 3.78628098e-003, -5.50379802e-004,
          1.73898786e-002, 2.28642449e-002, 1.97984017e-002,
          -3.56207776e-004, 3.71989794e-003, 7.96310417e-003,
          7.35723274e-003, 1.41721070e-002, 1.10417623e-002,
          2.52948292e-002, 2.51729339e-002, 2.30466574e-002,
          7.52273435e-003, 4.99260705e-003, 1.41051011e-002,
          9.67351999e-003, 2.18362622e-002, 1.41087156e-002,
          3.96397673e-002, 4.25442904e-002, 3.31248157e-002,
          2.21383013e-002, 3.10479496e-002, 1.57450009e-002,
          1.84759591e-002, 7.98945874e-003, -1.19395228e-003,
          -3.42631713e-003, -2.41223164e-003, -1.69687439e-003,
          -7.72711821e-004, 1.09173765e-003, 5.81470202e-004,
          -1.85025588e-003, -7.78997270e-003, -1.05421748e-002,
          -3.06896493e-003, 6.95697265e-004, 3.13718989e-003,
          1.46035571e-003, 6.94062980e-003, 1.07436711e-002,
          6.83485484e-003, -5.13804937e-003, -3.52726714e-003,
          -5.30304201e-003, -1.61312439e-003, 1.44084555e-003,
          8.63668800e-004, 7.79418973e-003, 9.81815625e-003,
          2.62715248e-003, -5.09980461e-003, -5.31077106e-003,
          3.97734158e-003, 9.60180257e-003, 4.48871666e-004,
          -1.03185950e-002, -7.63970334e-003, -4.37777257e-003,
          -3.87866283e-003, -2.52548605e-003, -2.76578194e-003,
          -3.98263801e-003, -7.39821093e-003, 8.69877730e-003,
          1.03418529e-002, 7.69868668e-004, 1.37646624e-003,
          3.65571817e-004, 1.40263845e-004, 2.74506689e-004,
          2.54647923e-003, -3.03816586e-003, 5.07650245e-003,
          2.87018623e-003, -6.97998377e-003, -3.39251920e-003,
          -3.60321510e-003, -2.17362936e-003, -2.48133042e-003,
          -1.24367606e-003, -9.87961795e-003, 8.08025245e-004,
          -8.54523969e-004, -4.60941764e-003, -5.22573898e-003,
          1.57105811e-002, 5.71705168e-003, -1.08442374e-003,
          -3.02929687e-003, -7.80980289e-003, -4.30239551e-003,
          3.49937868e-003, -8.07979028e-004, -7.59109948e-003,
          4.69796080e-003, 6.01524161e-003, 4.63532750e-003,
          4.64770989e-003, 5.44359162e-003, 9.36485652e-004,
          1.10129465e-003, 2.64625461e-003, 2.76108738e-004,
          6.19660504e-003, 9.59152821e-003, 3.59594822e-003,
          1.15910242e-003, -1.67555793e-003, -2.27413559e-003,
          4.65034693e-003, 2.15473142e-003, -4.57628584e-003,
          1.03339534e-002, 1.11133317e-002, -2.66632019e-003,
          -4.30804724e-003, 1.08559718e-002, 9.34456661e-003,
          6.40644925e-003, 2.18920317e-003, 2.52841390e-003,
          -3.11099575e-003, 1.03591541e-002, 1.11040520e-002,
          6.06992794e-003, -9.17134434e-003, -8.22858943e-004,
          7.67310243e-003, 7.45707052e-003, 1.00937625e-002,
          6.38339715e-003, 8.83649383e-003, 8.16281512e-003,
          9.48869437e-003, 7.06449524e-003, 8.37422162e-003,
          1.47814369e-002, 9.83768795e-003, 1.26332650e-002,
          4.71350597e-003, 1.84714552e-002, 1.88572686e-002,
          1.42124742e-002, 1.50852669e-002, 1.94365680e-002,
          6.88157044e-003, 7.55048310e-003, -4.24368680e-003,
          1.13457283e-002, 8.10466986e-003, 5.33900876e-003,
          1.03417300e-002, -6.46970351e-004, 1.64061673e-002,
          1.74867250e-002, 2.03005951e-002, -2.18354049e-003,
          7.27711618e-003, 1.05028683e-002, 8.91485158e-003,
          1.84206814e-002, 1.55322663e-002, 1.83556266e-002,
          1.43913897e-002, 1.74972024e-002, 2.86588958e-003,
          1.36954114e-002, 1.85215715e-002, 1.52664976e-002,
          2.49532964e-002, 1.61697567e-002, 3.31950858e-002,
          3.08945384e-002, 3.02345492e-002, 2.16555912e-002,
          2.95633674e-002, 1.78168360e-002, 2.20115464e-002,
          1.04848361e-002, 9.24774911e-003, 2.88409938e-004,
          2.95660179e-003, 2.21240552e-005, -8.89253453e-004,
          4.63984528e-004, 1.10868597e-003, -3.83250811e-003,
          -1.17779830e-002, 3.35760624e-003, -1.79258839e-003,
          5.16012369e-004, 3.14476970e-003, 7.33284571e-004,
          6.07570121e-003, 9.39879939e-003, 5.16905822e-003,
          -2.95627769e-003, 9.83380806e-003, -1.10832113e-003,
          3.51018924e-003, 3.40133463e-003, -3.07843766e-005,
          6.34716917e-003, 9.31573939e-003, 1.01839949e-003,
          -1.00256735e-003, -4.47161554e-004, 7.42243091e-003,
          1.03732301e-002, -4.92490362e-003, -8.28819000e-004,
          -3.40912025e-003, -1.68716081e-003, -2.12765695e-003,
          -1.59962545e-003, -1.17094116e-003, -6.71028683e-004,
          -4.00283514e-003, 7.60769472e-003, 1.59032401e-002,
          -1.19982893e-003, 1.61260192e-004, 1.04980113e-003,
          -4.54758047e-005, -4.11901798e-004, 3.38005414e-003,
          -4.14074957e-003, 2.09207810e-003, 1.31076109e-002,
          -4.42112982e-003, -1.59517094e-003, -8.17465538e-004,
          -1.42245018e-003, -1.15830160e-003, 2.61457660e-003,
          -7.58013222e-003, 1.78313756e-003, 4.21028072e-003,
          -2.60836654e-003, -2.49787536e-003, 1.07557001e-002,
          8.49996693e-003, -1.09953550e-003, 3.76049342e-004,
          -2.90616183e-004, -2.24593515e-003, 1.54462736e-003,
          3.78051976e-004, -8.69210716e-003, -4.58152173e-003,
          -3.57203011e-004, -2.76939035e-003, 1.89616124e-003,
          6.35702256e-003, 4.26676683e-003, 3.29713756e-003,
          8.16446077e-003, 6.25010021e-003, -1.69681176e-003,
          5.66150947e-003, -3.19403340e-003, 2.04989384e-003,
          6.36715116e-003, 2.32523470e-003, 4.74213716e-003,
          8.56369827e-003, -1.44683814e-003, 3.27527546e-003,
          1.42666558e-002, -1.98801048e-003, -5.87094924e-004,
          6.61765505e-003, 1.27510494e-002, 3.10888351e-003,
          3.56311328e-003, 7.45620020e-003, -1.21237570e-003,
          5.78411622e-003, 4.49851947e-003, -2.21878698e-004,
          -1.47610875e-002, -4.99038771e-003, 4.44290810e-004,
          3.71550303e-003, 1.09072095e-002, 9.27349366e-003,
          7.08667934e-003, 8.21196754e-003, 8.25233757e-003,
          -1.89111277e-003, 6.03675749e-003, 3.74797569e-003,
          7.01424479e-003, 1.66066922e-002, 8.48994870e-003,
          1.25747686e-002, 1.31775578e-002, 7.72321224e-003,
          3.11488635e-003, 2.04700269e-002, -2.07944860e-004,
          9.84979700e-003, -8.27270374e-003, 6.72354735e-003,
          3.86574096e-003, 5.76440617e-003, 1.41656119e-002,
          7.10398832e-004, 1.17950989e-002, 9.78102628e-003,
          9.75960959e-003, -5.98957809e-003, 3.95998172e-003,
          3.43893678e-003, 7.04950327e-003, 1.82729382e-002,
          1.31566646e-002, 9.70222987e-003, 7.41944928e-003,
          1.10783009e-002, -4.97907773e-003, 8.47516768e-003,
          7.67574878e-003, 1.29699437e-002, 2.61248294e-002,
          1.49345379e-002, 2.02011634e-002, 1.74261201e-002,
          1.49345146e-002, 9.30039771e-003, 2.49249358e-002,
          3.56829772e-003, 1.98968500e-002, 9.08791181e-003,
          6.85495324e-003, -4.59388568e-004, 1.49252557e-003,
          -6.36225741e-004, -1.31337857e-003, 4.51166445e-004,
          -5.64026064e-004, -8.55776202e-003, -8.76440946e-003,
          4.98177577e-003, -3.46525549e-003, -2.76101776e-003,
          -7.11779634e-004, 1.73710624e-003, 4.24928358e-003,
          5.38771320e-003, 7.55242212e-003, -1.25503910e-004,
          1.26134586e-002, -3.42512946e-003, -1.05730840e-003,
          -9.05556662e-004, 4.58987779e-004, 5.24747418e-003,
          5.39420359e-003, 2.60103820e-003, -3.47162015e-003,
          -1.50397001e-003, 5.94729278e-003, 5.89264324e-003,
          -1.24372095e-002, -7.52730388e-003, -5.45342965e-003,
          -5.03597828e-003, -1.88892172e-003, -1.45368429e-003,
          1.02576730e-003, 1.87492010e-003, 1.66426098e-003,
          9.49107949e-003, 1.02421055e-002, -6.73792418e-003,
          -5.97644784e-003, -3.29501973e-003, 3.91059974e-003,
          1.93802261e-005, 2.99472944e-004, -2.61158193e-003,
          1.63270932e-004, 5.25255082e-003, -1.12534817e-002,
          -1.01013286e-002, -4.64113429e-003, 1.76400936e-003,
          8.24745046e-004, 2.21474888e-003, -3.37805628e-004,
          -3.74128576e-003, 1.55158795e-003, -5.26354648e-003,
          -3.80846136e-003, 3.31514049e-003, 6.95657509e-004,
          -8.41135252e-003, -6.38005976e-003, -7.27479754e-004,
          -1.72097690e-003, -2.64369254e-003, -4.04987065e-003,
          -8.37157853e-003, -6.48536580e-003, -7.42618088e-003,
          -1.28347743e-002, -8.48603807e-003, 5.17035089e-003,
          1.34500125e-002, 7.27484655e-003, 8.85617640e-003,
          9.22357850e-003, -7.94300716e-003, -6.38995599e-003,
          -1.75046586e-002, -1.32821286e-002, 2.86080595e-003,
          1.06704999e-002, 4.39801300e-003, 4.71719541e-003,
          1.22226961e-003, -8.32095556e-003, 5.91854937e-003,
          -5.21405041e-003, -1.60016958e-003, -3.04408517e-004,
          5.68407821e-003, -4.09494573e-003, -2.15352559e-003,
          1.87276397e-003, -4.65685641e-003, -6.15953654e-003,
          -6.00984553e-003, -1.01136714e-002, -1.96693335e-002,
          -1.09852385e-002, -9.63941030e-003, -1.01514813e-002,
          1.54875787e-002, 2.38878503e-002, 8.41801614e-003,
          3.00297956e-003, 3.24879424e-004, -1.40259359e-002,
          -5.06643299e-003, -1.24664539e-002, -9.76311602e-003,
          1.27972728e-002, 1.81607809e-002, 3.32792732e-003,
          -1.04910415e-003, -7.18847197e-003, -1.17006404e-002,
          8.53629317e-003, -1.10702515e-002, 2.32698512e-003,
          -1.43638514e-002, -3.83687118e-004, -3.27056553e-003,
          2.58907094e-003, 6.91251922e-003, -1.12064066e-003,
          1.29593781e-003, 1.54008612e-003, -2.05224659e-003,
          -1.40227107e-002, -4.70251264e-003, -3.00281006e-003,
          -1.37108285e-003, 2.57092603e-002, 2.17638798e-002,
          3.15535278e-003, -4.59913118e-003, -3.70432180e-003,
          -1.87017433e-002, -3.63746798e-003, -4.65410110e-003,
          2.17796280e-003, 2.41901409e-002, 2.07519121e-002,
          4.69501410e-003, -1.85561576e-003, -6.40378427e-003,
          -4.44339123e-003, 1.29045974e-002, -1.16644455e-002,
          8.09285790e-003, 8.94951262e-003, 1.73046812e-003,
          -4.32000030e-003, -5.57764852e-003, -2.33745808e-003,
          1.92625797e-003, 5.73283248e-003, -4.71315812e-003,
          -1.00120520e-002, -9.26728919e-003, 3.35022132e-003,
          -2.02142494e-003, -3.56875011e-003, -2.20641377e-003,
          2.24776054e-003, 1.78807788e-003, 3.70154879e-003,
          1.11840963e-002, -2.19086325e-003, 8.48035328e-003,
          -6.47793943e-003, -7.20787374e-003, -2.25402554e-003,
          2.82161124e-003, 6.99680671e-003, 1.81814970e-003,
          2.66216998e-003, -6.29836367e-003, -4.30732500e-003,
          5.28193731e-003, 3.71466647e-003, -1.30741792e-002,
          -1.67117808e-002, -2.20904220e-002, -2.12442148e-002,
          4.19108808e-004, 1.13544948e-002, 9.91164241e-003,
          3.39296460e-003, -3.60737758e-004, 6.49028225e-003,
          1.02022812e-002, -5.93567500e-003, -7.71756889e-003,
          -4.03833063e-003, 8.51466786e-003, 1.33463216e-003,
          2.28334311e-003, 4.94523812e-003, -5.33710560e-003,
          -2.86932429e-003, -2.50996500e-002, -2.45813746e-002,
          -3.76762706e-003, 1.37233138e-002, 1.03294877e-002,
          5.82524203e-003, 4.98877931e-003, -7.37927249e-003,
          -4.37705894e-004, -4.56164544e-003, -2.85902969e-003,
          -4.14400315e-003, -6.90467795e-003, -2.27217693e-002,
          -2.21338458e-002, 9.97552462e-003, 1.22003062e-002,
          9.22065869e-004, -7.83635024e-003, -1.45886112e-002,
          -5.50520094e-003, -2.88877543e-003, -8.35491717e-003,
          -1.00263273e-002, 4.21130890e-003, 2.06683259e-002,
          6.39470574e-003, 5.62687684e-003, 5.92283672e-003,
          -1.16977599e-002, -9.89524648e-003, -2.76643243e-002,
          -2.60962360e-002, 9.30866692e-003, 2.37873252e-002,
          6.34520035e-003, -1.74646662e-003, -7.71034090e-003,
          -1.47783365e-002, -9.36880475e-004, -3.92782176e-003,
          1.17239519e-003, -4.39181691e-003, -4.14090202e-004,
          -1.05244247e-002, -1.03511559e-002, 1.12682236e-002,
          4.01897618e-004, -1.33404527e-002, -1.65106338e-002,
          -2.48191841e-002, -2.09597126e-002, -8.79393518e-003,
          -8.94355029e-003, -1.09704174e-002, 1.45326080e-002,
          3.14339958e-002, 4.99255722e-003, -5.77148004e-003,
          -5.93901845e-003, -2.13516317e-002, -1.00008119e-002,
          -1.87950432e-002, -1.65805668e-002, 1.47063844e-002,
          2.29192823e-002, -7.78097566e-003, -2.10374165e-002,
          -2.60832533e-002, -1.87795013e-002, -1.35300145e-003,
          -1.49766114e-002, -2.17890367e-003, -1.09409168e-002,
          -5.13082417e-003, -1.24425963e-002, -1.10175554e-003,
          9.78664216e-003, -2.34367116e-003, -6.27459306e-003,
          -5.61517430e-003, -1.31145036e-002, -1.64034739e-002,
          -5.91249764e-003, -8.26769695e-003, -1.07678929e-002,
          2.06376296e-002, 2.23833192e-002, -6.29626913e-003,
          -1.30923409e-002, -9.32218414e-003, -2.21314877e-002,
          -1.23080714e-002, -1.77092254e-002, -8.98954924e-003,
          1.59213301e-002, 1.66349430e-002, -1.20706819e-002,
          -1.82778891e-002, -2.23571230e-002, -1.39319450e-002,
          3.37498239e-003, -2.10686494e-002, -3.36113176e-003 ]
   decision_functions:
      -
         sv_count: 1
         rho: 8.7083488803302211e-001
         alpha: [ 1. ]
