%YAML:1.0
opencv_ml_svm:
   format: 3
   svmType: EPS_SVR
   kernel:
      type: LINEAR
   C: 1.0000000000000000e-002
   p: 1.0000000000000001e-001
   term_criteria: { epsilon:1.0000000000000000e-003, iterations:1000 }
   var_count: 1085
   sv_total: 1
   support_vectors:
      - [ 9.06053931e-003, -2.12439289e-003, 7.64008006e-003,
          -7.49982195e-003, -2.95343678e-002, -5.74668497e-002,
          -2.67790984e-002, 6.00319169e-002, 1.07190005e-001,
          1.30250841e-001, 1.22743316e-001, -1.07744122e-002,
          -5.74556366e-002, -7.15827122e-002, -6.20714528e-003,
          8.98707937e-003, 2.78958362e-002, 5.15161231e-002,
          1.22173756e-001, 1.04402252e-001, -9.61612351e-003,
          -4.83275503e-002, -6.88234568e-002, -5.28693348e-002,
          -1.64307281e-002, 7.83141330e-002, 1.34092912e-001,
          -4.45961654e-002, 9.07719787e-003, 5.92729338e-002,
          9.68731940e-002, 5.97758293e-002, -4.82414141e-002,
          -2.99668889e-002, -2.88037229e-002, -4.59341444e-002,
          -6.72670454e-002, -4.66704033e-002, 1.87449437e-002,
          6.72707930e-002, 9.03906822e-002, 7.39599392e-002,
          -1.38309784e-002, -8.85011330e-002, -1.16914220e-001,
          -1.68807097e-002, -1.00181242e-002, 2.97088586e-002,
          1.20265082e-001, 1.31450355e-001, 3.12146638e-002,
          -4.23776545e-002, -1.06006570e-001, -1.36724934e-001,
          -7.63689727e-002, -5.28818406e-002, 4.43242230e-002,
          1.57203794e-001, -6.31225556e-002, 1.11417025e-002,
          -1.71068776e-002, 4.41447087e-002, 4.26072702e-002,
          -1.02269486e-001, -5.91927990e-002, -3.70198302e-002,
          -4.91519012e-002, -7.31664896e-002, -6.31589741e-002,
          -2.14663520e-002, 3.70109044e-002, 6.95191994e-002,
          7.43512288e-002, 1.39241060e-003, -8.62377733e-002,
          -1.50844127e-001, -5.19447215e-002, -2.22777165e-002,
          1.45375216e-002, 1.41028002e-001, 9.75729898e-002,
          -1.61469337e-002, -5.10129966e-002, -1.04048252e-001,
          -1.75824150e-001, -1.20205022e-001, -8.19861218e-002,
          -6.40938478e-003, 1.47521555e-001, -7.42998943e-002,
          -3.30383680e-003, -7.79703408e-002, -2.95003038e-003,
          6.60476312e-002, -9.34986323e-002, -7.84950852e-002,
          -4.76662330e-002, -2.70438492e-002, -4.14245725e-002,
          -5.45446798e-002, -3.41748260e-002, 1.18974773e-002,
          8.10432807e-002, 1.14332773e-001, 6.69930279e-002,
          -2.88108494e-002, -1.18748806e-001, -6.20395206e-002,
          -5.32284193e-002, -3.65290768e-003, 1.30289108e-001,
          1.28068149e-001, 3.30522992e-002, -3.75660695e-003,
          -5.88859953e-002, -1.36766329e-001, -1.00380540e-001,
          -9.84825566e-002, -3.47393788e-002, 1.23988427e-001,
          -5.96740283e-002, 5.23075042e-003, -4.99657914e-002,
          2.29864661e-002, 1.21819302e-001, -7.07603619e-002,
          -9.12670046e-002, -6.85417801e-002, -5.30757420e-002,
          -4.58195247e-002, -3.47985029e-002, -1.20000262e-002,
          3.21114250e-002, 8.82878676e-002, 1.13165990e-001,
          4.96522002e-002, -1.40569611e-002, -1.02549262e-001,
          -8.02755207e-002, -9.21221003e-002, -5.73436320e-002,
          1.03673287e-001, 1.75668716e-001, 5.35828620e-002,
          -3.65754478e-002, -6.72805011e-002, -1.32475778e-001,
          -1.28794372e-001, -1.20906182e-001, -6.70057833e-002,
          1.23511642e-001, -5.76179549e-002, -9.00016050e-004,
          -5.53842038e-002, 1.30695524e-002, 1.44986510e-001,
          -4.50277962e-002, -7.55713433e-002, -6.17057383e-002,
          -5.23548089e-002, -6.11745752e-002, -5.35587408e-002,
          -2.59527657e-002, 1.87504273e-002, 7.18080699e-002,
          8.05382952e-002, 4.25939262e-002, -3.44593227e-002,
          -8.07109997e-002, -7.53980950e-002, -5.54162897e-002,
          -2.53956933e-002, 1.24116808e-001, 1.71290115e-001,
          4.35192063e-002, -2.89782938e-002, -8.23529437e-002,
          -1.13288946e-001, -1.28527299e-001, -1.02239721e-001,
          -4.88033220e-002, 1.22815967e-001, -1.95886604e-002,
          2.04518475e-002, -6.64432645e-002, -1.16975298e-002,
          1.19121693e-001, -6.90038141e-004, -1.55914249e-002,
          -3.06654945e-002, -3.68008651e-002, -4.30839956e-002,
          -3.02159954e-002, -4.50255303e-003, 1.54278176e-002,
          2.40574889e-002, 2.26860717e-002, 2.14710739e-002,
          6.75568171e-003, -2.62284670e-002, -8.41878727e-002,
          -4.56579588e-002, -2.50267442e-002, 1.13523901e-001,
          1.11384816e-001, 2.01047640e-002, 7.46976910e-003,
          -1.57049634e-002, -5.54452240e-002, -1.14347294e-001,
          -6.85300231e-002, -2.94499677e-002, 1.03668176e-001,
          3.09597477e-002, 5.45273274e-002, -6.23236224e-002,
          -3.24065164e-002, -1.30681796e-002, -2.41151522e-003,
          -1.34213371e-002, -2.99662054e-002, -7.27733970e-002,
          -1.30799428e-001, -1.12505428e-001, -1.58152096e-002,
          4.44791466e-002, 7.79900700e-002, 1.39369458e-001,
          4.41445271e-003, -2.82968786e-002, -2.26511899e-002,
          -1.33674720e-003, 3.24661029e-004, 3.92351532e-003,
          2.31099389e-002, 5.05246781e-002, 1.03588186e-001,
          -1.02944439e-002, -4.27737758e-002, -7.66606256e-002,
          -1.30931467e-001, -1.08640373e-001, -1.88446958e-002,
          4.72499989e-002, -8.32026005e-002, -4.84314300e-002,
          1.20366067e-002, 4.91541103e-002, 3.44657935e-002,
          -8.74819383e-002, -6.65317252e-002, -4.45569344e-002,
          -6.39174581e-002, -8.34598914e-002, -7.55194873e-002,
          -2.20385268e-002, 2.27974430e-002, 2.77276281e-002,
          1.08997792e-001, 4.45652008e-003, -4.92200349e-003,
          -2.10517030e-002, -1.15200831e-002, -1.35997673e-002,
          2.46170070e-002, 1.38314933e-001, 5.99269085e-002,
          1.21774562e-002, -5.99148832e-002, -4.50254381e-002,
          -7.56599531e-002, -9.11774635e-002, -8.43363553e-002,
          1.11475214e-003, 1.20344669e-001, -4.61305901e-002,
          -2.39058305e-002, -1.71789061e-002, 2.44142823e-002,
          3.37391160e-002, -1.42975375e-001, -1.24396771e-001,
          -6.47220239e-002, -5.90937138e-002, -6.31235540e-002,
          -7.15328380e-002, -5.99053986e-002, -9.05398745e-003,
          2.28198562e-002, 1.32671908e-001, 3.00466623e-002,
          -1.49961486e-002, -1.65592059e-002, -1.47295417e-002,
          -9.40513331e-003, 4.01120111e-002, 2.18779311e-001,
          5.05914651e-002, -2.91903634e-002, -8.47345144e-002,
          -6.19839318e-002, -7.71289617e-002, -7.68679902e-002,
          -7.77719766e-002, -1.66980978e-002, 1.69878900e-001,
          -3.66281308e-002, -2.36995006e-003, -3.40908505e-002,
          -8.14498588e-003, 5.61743081e-002, -1.06618434e-001,
          -1.04436569e-001, -5.99408485e-002, -2.88029369e-002,
          -2.95219347e-002, -6.14377111e-002, -8.24754238e-002,
          -4.92816307e-002, -1.49678038e-002, 1.45476446e-001,
          7.32468814e-002, -2.03682994e-003, -1.19284820e-002,
          -1.62773356e-002, -2.46685948e-002, 1.51341073e-002,
          1.87246948e-001, 3.08684614e-002, 2.47663185e-002,
          -2.57097539e-002, -5.01237400e-002, -4.59018834e-002,
          -4.69408818e-002, -8.34535584e-002, -6.26707673e-002,
          1.11069202e-001, -3.19484174e-002, -1.99239003e-003,
          -2.66341921e-002, 6.30939100e-003, 9.80257541e-002,
          -1.12382360e-001, -1.18325956e-001, -8.29201490e-002,
          -4.33559567e-002, -5.81881627e-002, -8.28175098e-002,
          -6.61782324e-002, -1.01888152e-002, 2.88631413e-002,
          1.47279158e-001, 6.42826930e-002, -3.59222293e-002,
          -3.46051827e-002, -2.84425113e-002, -3.73857431e-002,
          -2.27570441e-002, 1.51927918e-001, 9.35053304e-002,
          1.92782748e-002, -5.22074774e-002, -1.04546875e-001,
          -7.47867525e-002, -8.71155560e-002, -1.15677848e-001,
          -8.54282603e-002, 1.18308477e-001, -2.86566354e-002,
          -1.70312133e-002, -4.91185151e-002, -1.97868235e-002,
          1.23688243e-001, -9.80968475e-002, -9.14548486e-002,
          -7.26065263e-002, -4.79578003e-002, -4.67715636e-002,
          -7.23815337e-002, -6.88026026e-002, -3.25992554e-002,
          1.86405936e-003, 7.47311488e-002, 3.35777476e-002,
          -2.56693102e-002, -3.65375094e-002, -2.33618319e-002,
          -1.76401138e-002, -5.43318875e-003, 1.56265855e-001,
          8.96416232e-002, -2.10566018e-002, -5.41640557e-002,
          -8.39785486e-002, -7.18069449e-002, -6.85232431e-002,
          -8.62158313e-002, -7.11430460e-002, 9.11478549e-002,
          -1.20801423e-002, -2.63491188e-006, -5.77285476e-002,
          -4.76549044e-002, 1.00007147e-001, -6.61603287e-002,
          -3.52580287e-002, -2.97880191e-002, -4.27745394e-002,
          -3.71584669e-002, -3.39786112e-002, -1.75964460e-002,
          -1.52262496e-002, -1.45194456e-002, -5.20619797e-003,
          -6.96435431e-003, -2.08945200e-003, -6.65513752e-003,
          -2.20854115e-002, 1.85607374e-002, 1.76778324e-002,
          1.49828613e-001, 6.98771998e-002, -5.71678206e-002,
          -3.36777009e-002, -1.83841977e-002, -2.99369693e-002,
          -4.99725044e-002, -1.34088499e-002, 9.01820604e-004,
          1.23698838e-001, 3.29359956e-002, 4.96217385e-002,
          -5.84104396e-002, -4.74280268e-002, 9.62445163e-004,
          4.41287160e-002, -5.22326306e-003, -3.88385914e-002,
          -5.88155910e-002, -5.06783165e-002, -4.38177809e-002,
          6.84302940e-004, 2.73616370e-002, 1.65348370e-002,
          1.52036995e-001, 3.37811671e-002, -4.18629684e-002,
          -6.97626248e-002, -4.81689423e-002, -2.33302265e-002,
          -2.56163348e-003, 9.35388822e-003, 1.15570659e-002,
          1.19993463e-001, 2.40774956e-002, -5.84294647e-002,
          -1.02498837e-001, -9.37327966e-002, -6.27262220e-002,
          -7.79719884e-003, 2.46170107e-002, -5.91939725e-002,
          -4.47097048e-002, 2.16115126e-003, 5.54435290e-002,
          3.53109348e-003, -4.16253917e-002, -3.79201882e-002,
          -5.03466390e-002, -6.48696199e-002, -4.27508093e-002,
          -2.67332010e-002, -1.49881805e-003, 7.53974095e-002,
          -1.36303473e-002, 9.06902254e-002, -3.79749425e-002,
          -8.72252882e-002, -7.67736062e-002, -3.97053137e-002,
          -2.75526047e-002, 8.56489502e-003, 1.13984287e-001,
          2.01114677e-002, 3.25156339e-002, -7.69793317e-002,
          -1.11955293e-001, -1.20013170e-001, -7.84232914e-002,
          -5.21023609e-002, 8.34861305e-003, 1.39287919e-001,
          -4.02276814e-002, -3.83095965e-002, -3.13496292e-002,
          -1.09983617e-002, 1.73792224e-002, -5.83670214e-002,
          -4.65984568e-002, -5.72072826e-002, -5.91207817e-002,
          -3.65495719e-002, -3.42715494e-002, -1.83251593e-002,
          5.87674454e-002, -1.57801826e-002, 1.25185370e-001,
          -1.35151213e-002, -1.02155976e-001, -6.61166906e-002,
          -2.57930085e-002, -1.87504608e-002, 2.49132700e-002,
          1.90170869e-001, 2.50426284e-003, 5.00876829e-003,
          -6.52681813e-002, -1.24315448e-001, -1.11416847e-001,
          -5.91347888e-002, -4.98338826e-002, 8.98959767e-003,
          1.94692343e-001, -1.65792629e-002, -1.46305505e-002,
          -1.85978059e-002, -1.43664554e-002, 4.30590399e-002,
          -1.89908985e-002, -2.60927491e-002, -6.14466667e-002,
          -5.85466176e-002, -3.79168130e-002, -3.69548909e-002,
          -3.28970850e-002, 5.11692129e-002, -4.04060818e-002,
          1.00086175e-001, 4.23041992e-002, -7.63980076e-002,
          -5.57999574e-002, -2.92413235e-002, -3.47496197e-002,
          -2.77064997e-003, 1.67498738e-001, 6.05363119e-003,
          4.53481302e-002, 3.99246253e-003, -1.15258604e-001,
          -1.05686203e-001, -6.49519786e-002, -6.83195442e-002,
          -2.95499004e-002, 1.64493144e-001, -1.10794185e-002,
          -1.29864905e-002, -1.62897483e-002, -1.05998507e-002,
          5.32684214e-002, -4.65189219e-002, -4.87793051e-002,
          -5.67967370e-002, -4.20167558e-002, -3.46518159e-002,
          -4.19946425e-002, -3.41636539e-002, 6.97950721e-002,
          -2.26878040e-002, 9.44392607e-002, 5.37215956e-002,
          -4.80146781e-002, -5.65948524e-002, -4.26556990e-002,
          -3.18525173e-002, -2.27724873e-002, 1.52158156e-001,
          2.37940960e-002, 2.15284317e-003, -5.25339274e-003,
          -9.15197730e-002, -8.71040449e-002, -7.49555752e-002,
          -7.04403445e-002, -5.38858697e-002, 1.62094936e-001,
          -1.24940053e-002, -2.23537721e-003, -1.86889321e-002,
          -1.66054126e-002, 8.19816589e-002, -6.08519465e-002,
          -4.18798663e-002, -5.19263558e-002, -3.75701971e-002,
          -2.70874649e-002, -3.28748561e-002, -2.56728809e-002,
          4.45379801e-002, -5.37964255e-002, -1.08232070e-002,
          3.76984617e-003, -4.82300520e-002, -5.99039271e-002,
          -4.99871336e-002, -2.17832569e-002, -8.75438005e-003,
          1.66611448e-001, 3.62857319e-002, -6.58300072e-002,
          -4.14194614e-002, -8.63292441e-002, -8.95519182e-002,
          -7.32097626e-002, -5.27387150e-002, -3.16935256e-002,
          1.47004530e-001, -3.40535566e-002, 3.07052070e-003,
          -4.33790386e-002, -3.60591412e-002, 7.76548162e-002,
          -9.42865163e-002, -4.02357318e-002, -4.12147939e-002,
          -4.75169271e-002, -4.49547730e-002, -3.04484777e-002,
          -9.02781449e-003, 1.88060887e-002, -2.92155109e-002,
          -2.71222033e-002, -2.11651046e-002, -2.61666756e-002,
          -3.71821672e-002, -4.77400869e-002, 3.74252355e-004,
          3.78027707e-002, 2.05527514e-001, 6.55104145e-002,
          -1.02582008e-001, -5.36360778e-002, -5.57084382e-002,
          -6.50892332e-002, -7.78056085e-002, -2.61974819e-002,
          2.87323855e-002, 1.70081422e-001, -2.10765358e-002,
          5.73840551e-002, -7.18461722e-002, -3.80522273e-002,
          2.64285617e-002, 7.10368976e-002, 1.83877349e-002,
          -2.77764164e-002, -5.53533509e-002, -1.18261008e-002,
          -4.93310578e-003, 7.17153167e-003, 3.11674178e-002,
          -3.33679616e-002, 9.95345041e-002, 3.86715084e-002,
          -8.47277883e-003, -6.55475929e-002, -4.92141917e-002,
          -2.49573719e-002, 1.02454703e-003, 2.06063222e-002,
          -1.97160570e-003, 9.33679640e-002, 4.54395823e-002,
          -2.29853373e-002, -9.91235152e-002, -5.17433397e-002,
          -2.55133361e-002, 3.23036243e-003, 4.01678421e-002,
          -3.62685770e-002, -2.45478936e-002, 2.49512903e-002,
          5.12234643e-002, -9.92794801e-003, -2.02610972e-003,
          -1.35932378e-002, -3.70569564e-002, -5.05722798e-002,
          -1.37092043e-002, -4.63175401e-003, 1.29007418e-002,
          1.17679834e-001, -1.56611633e-002, 5.71237467e-002,
          -3.49431448e-002, -7.49266595e-002, -7.62346610e-002,
          -3.89562473e-002, -2.52065752e-002, 1.26544177e-003,
          6.96897358e-002, 5.70350513e-003, 1.01118758e-002,
          -3.79648916e-002, -7.87874982e-002, -1.09810524e-001,
          -4.64067571e-002, -2.51885932e-002, 1.47132017e-002,
          1.34908080e-001, -2.07674019e-002, -1.68184955e-002,
          -2.21444964e-002, -5.69353765e-003, 4.74153794e-002,
          5.88929988e-002, 2.74397247e-002, -4.20289300e-002,
          -6.72499537e-002, -3.00340056e-002, -2.03766339e-002,
          3.96134052e-003, 1.27973586e-001, -8.15234426e-003,
          4.96486761e-002, -2.24257372e-002, -9.17260274e-002,
          -5.77476099e-002, -3.18372846e-002, -2.51350161e-002,
          3.31828743e-003, 1.14767186e-001, 2.28525344e-002,
          3.40825729e-002, 1.68318173e-003, -8.79302621e-002,
          -1.06911100e-001, -5.80197573e-002, -4.08539474e-002,
          7.57233100e-003, 1.83473215e-001, 1.02607328e-002,
          4.39500902e-003, -3.64741450e-003, 6.29376480e-003,
          3.45605239e-002, 6.92914724e-002, 5.69982789e-002,
          -2.25944147e-002, -6.89651147e-002, -4.26290333e-002,
          -2.82689258e-002, 4.71469131e-004, 1.46665335e-001,
          -3.12390253e-002, 2.31307861e-003, 7.47752516e-003,
          -7.45691359e-002, -5.86103536e-002, -3.36261280e-002,
          -3.59741338e-002, -2.38037463e-002, 9.33671221e-002,
          1.02879712e-002, 4.91117276e-002, 5.10801151e-002,
          -7.71829560e-002, -1.00408137e-001, -6.94183260e-002,
          -5.97444065e-002, -1.93214286e-002, 1.84876814e-001,
          -3.74815031e-003, 2.93361582e-003, -1.87186175e-003,
          -1.61993736e-003, 3.66134718e-002, 4.14575487e-002,
          3.54993083e-002, -1.41576463e-002, -4.93057892e-002,
          -4.23180722e-002, -2.23959610e-002, 1.26422467e-002,
          1.59332052e-001, -4.63539995e-002, -1.94840617e-002,
          1.69121800e-003, -5.66029660e-002, -5.59824519e-002,
          -3.55931707e-002, -2.31810864e-002, -2.59882156e-002,
          9.04475451e-002, -1.08855190e-002, -2.76329406e-002,
          2.26054657e-002, -5.99462129e-002, -7.88396969e-002,
          -6.69440404e-002, -4.28373590e-002, -1.72772594e-002,
          1.75137654e-001, -1.58799849e-002, 1.01602571e-002,
          -4.62546851e-003, 3.89643130e-003, 1.70449559e-002,
          -1.81897674e-002, 1.62728075e-002, -3.38587314e-002,
          -3.57411988e-002, -4.21584956e-002, -2.75144894e-002,
          9.80895571e-003, 1.48029521e-001, -5.51205017e-002,
          -9.36718136e-002, -1.39534641e-002, -3.32518108e-002,
          -5.05657904e-002, -2.10435186e-002, 1.03923138e-002,
          -6.28813403e-003, 1.13591626e-001, -7.61189638e-003,
          -1.01963878e-001, -9.01192613e-003, -5.83748966e-002,
          -7.48570487e-002, -5.03065363e-002, -1.80918463e-002,
          -4.08442365e-003, 1.76728398e-001, -2.37443149e-002,
          8.28725938e-003, -3.26935761e-002, -6.63431361e-003,
          1.65086929e-002, -9.94262546e-002, -8.10545776e-003,
          -1.12329749e-002, -1.63580384e-002, -3.82580757e-002,
          -2.46623326e-002, -8.15383508e-004, 6.35274649e-002,
          -3.09095271e-002, -6.45213798e-002, -2.56728400e-002,
          -1.41848074e-002, -8.77400581e-003, 2.28350405e-002,
          4.84097637e-002, 5.91751561e-002, 1.65888563e-001,
          1.20861847e-002, -1.30705863e-001, -3.32143493e-002,
          -2.37727128e-002, -2.61187609e-002, -1.20905871e-002,
          2.20562089e-002, 4.88806739e-002, 1.60799876e-001,
          2.24234853e-002, 4.92273048e-002, -4.30021770e-002,
          -1.28927277e-002, 4.61591706e-002, 7.25354776e-002,
          3.51776406e-002, -6.47927751e-004, -2.04061158e-002,
          8.65030959e-002, 6.26569316e-002, -4.25652415e-003,
          2.88783130e-003, -5.30258939e-002, 2.67327782e-002,
          2.67277677e-002, -1.09030856e-002, -9.00760293e-002,
          -6.27285093e-002, -2.82266382e-002, 2.10373919e-003,
          3.68918628e-002, -7.31306244e-003, 5.57426214e-002,
          4.65239510e-002, 3.70868901e-003, -7.85442367e-002,
          2.48085149e-002, 3.40534449e-002, -2.74335593e-003,
          2.76913419e-002, 4.98236390e-003, -3.35099623e-002,
          5.08278757e-002, 3.80886868e-002, 6.05783053e-003,
          4.23465893e-002, 3.28427739e-002, 2.47074850e-002,
          -1.21679418e-002, 5.77330962e-002, 4.16229777e-002,
          1.24670118e-002, 1.30267829e-001, -4.50061256e-004,
          7.75325764e-003, -2.71827560e-002, -5.19133322e-002,
          -1.02936938e-001, -7.62884691e-002, -5.65570705e-002,
          -2.91137751e-002, 1.16024688e-002, 1.08442537e-003,
          5.08996518e-003, -4.47273301e-003, -3.13731935e-003,
          -8.65382031e-002, -1.40472287e-002, -1.17179668e-002,
          -1.45304352e-002, 1.01082221e-001, 3.87847759e-002,
          -2.57982183e-002, 1.59550607e-002, -2.38547474e-002,
          7.25487247e-002, 1.45078123e-001, 1.08894587e-001,
          3.66386473e-002, -4.00629640e-002, 1.41010815e-002,
          2.35067755e-002, 3.74383815e-002, 1.86469302e-001,
          1.87392104e-002, -4.58828509e-002, -6.14559837e-002,
          -1.11161597e-001, -1.31350905e-001, -9.57715586e-002,
          -6.21840917e-002, -2.47167610e-002, 3.55369747e-002,
          6.46590590e-002, 5.13828844e-002, 3.92026156e-002,
          -2.50430722e-002, -1.17839471e-001, -7.40721077e-002,
          -3.88303101e-002, 1.20051298e-002, 1.69503808e-001,
          6.02300316e-002, -1.60213280e-002, 3.15054767e-002,
          -2.55736727e-002, 3.24883610e-002, 1.01058923e-001,
          9.24801156e-002, -2.73451814e-003, -7.42838159e-002,
          -2.57087909e-002, -9.36969463e-003, 2.60084588e-002,
          2.15906635e-001, 3.81349027e-002, -6.89876229e-002,
          -6.71200678e-002, -1.39056101e-001, -1.12088695e-001,
          -6.87785670e-002, -4.68645357e-002, -4.04061601e-002,
          1.29365604e-002, 6.33544102e-002, 3.73843387e-002,
          2.18061376e-002, -7.01209828e-002, -1.27211392e-001,
          -8.91936123e-002, -5.57843149e-002, -1.23634310e-002,
          1.84189007e-001, 9.50114802e-003, -4.54909503e-002,
          1.57160964e-002, -4.40180078e-002, 4.00600508e-002,
          9.65102240e-002, 8.91192928e-002, 2.64224987e-002,
          -4.22528759e-002, -4.24326211e-002, -2.26339642e-002,
          3.94417904e-003, 1.89286768e-001, 1.07428655e-002,
          -8.33995715e-002, -8.06990042e-002, -1.08529821e-001,
          -7.90540501e-002, -7.08099753e-002, -5.54048158e-002,
          -5.59591055e-002, 2.99778637e-002, 4.00209315e-002,
          -1.60981081e-002, -1.46394235e-003, -6.48024231e-002,
          -9.52030718e-002, -1.03832409e-001, -7.56787509e-002,
          -5.01765348e-002, 1.52142912e-001, -9.21293220e-004,
          -4.49959114e-002, 1.05820503e-002, -3.77846733e-002,
          8.62639677e-003, 3.84007618e-002, 3.65909375e-002,
          2.11893860e-002, 2.25515943e-002, 1.70931183e-002,
          2.64337528e-002, 4.85063940e-002, 1.70788378e-001,
          -3.02347988e-002, -1.25102088e-001, -7.70743191e-002,
          -5.10183908e-002, -7.01164380e-002, -6.98463097e-002,
          -3.96814309e-002, -4.19072025e-002, 2.61559524e-002,
          -2.18720511e-002, -9.17125568e-002, -4.69997749e-002,
          -3.08601540e-002, -4.20222059e-002, -5.57881147e-002,
          -1.96588803e-002, 2.08089506e-004, 1.25122622e-001,
          9.48828738e-003, -1.72921605e-002, -1.14233932e-004,
          -3.38688269e-002, -1.04765901e-002, -1.94083937e-002,
          2.01412756e-002, 4.53264266e-002, 6.02527149e-002,
          3.84873338e-002, 4.51687910e-002, 5.01309484e-002,
          9.51003507e-002, -2.63176858e-002, -8.73441771e-002,
          -4.47489284e-002, -2.67795995e-002, -9.69237536e-002,
          -9.01311189e-002, -2.36752797e-002, 2.80939485e-003,
          5.76841943e-002, -2.74912212e-002, -8.77465159e-002,
          -2.27592494e-002, 7.71499984e-003, -4.02265601e-002,
          -5.38087711e-002, 1.18756220e-002, 4.05133329e-002,
          9.10737887e-002, 3.42348628e-002, 2.75474917e-002,
          -2.08211243e-002, -4.60071415e-002 ]
   decision_functions:
      -
         sv_count: 1
         rho: 5.8810967832803751e-001
         alpha: [ 1. ]
