%YAML:1.0
opencv_ml_svm:
   format: 3
   svmType: EPS_SVR
   kernel:
      type: LINEAR
   C: 1.0000000000000000e-002
   p: 1.0000000000000001e-001
   term_criteria: { epsilon:1.0000000000000000e-003, iterations:1000 }
   var_count: 1488
   sv_total: 1
   support_vectors:
      - [ -6.42071106e-003, 1.39550341e-003, 2.30833329e-003,
          1.30122723e-002, 2.66465619e-002, 1.90404188e-002,
          1.36945480e-002, 2.29829196e-002, 3.42469141e-002,
          4.35959958e-002, 2.80162077e-002, -9.26062185e-003,
          -3.34019326e-002, -2.86891647e-002, -1.53538240e-002,
          -9.49301478e-003, 3.48717300e-003, 1.20754270e-002,
          3.88522781e-002, 2.72846930e-002, -5.40214824e-003,
          -2.41084620e-002, -5.48951607e-003, 3.36491177e-003,
          5.36853448e-003, 2.69307513e-002, 4.45183963e-002,
          -2.02585501e-003, -2.20097438e-003, 3.67682092e-002,
          2.30286662e-002, -1.69712515e-003, 2.21359846e-003,
          -5.64235263e-004, 1.44610768e-002, 2.68280413e-002,
          1.41366394e-002, 1.42725231e-002, 1.81647968e-002,
          2.95947734e-002, 3.46030705e-002, 1.49279954e-002,
          -3.91296968e-002, -7.29886666e-002, -6.32425025e-002,
          -2.58025359e-002, 6.42508827e-003, 2.93664131e-002,
          3.37889828e-002, 3.27382274e-002, 1.39753893e-002,
          -3.66159715e-002, -6.75204843e-002, -5.03893085e-002,
          -1.22587001e-002, 1.91507917e-002, 4.52592820e-002,
          5.96698895e-002, -6.58902200e-003, 5.46716386e-003,
          7.11601973e-003, 1.06737129e-002, -9.13345162e-003,
          -1.88611809e-003, -3.29405908e-003, 5.58081362e-003,
          1.94183942e-002, 7.44852656e-003, 1.90810598e-002,
          1.45794135e-002, 2.39146929e-002, 4.13002893e-002,
          2.42313817e-002, -3.51259112e-002, -6.74076751e-002,
          -8.33534226e-002, -5.80337457e-002, -1.30278599e-002,
          2.01268606e-002, 2.76199039e-002, 3.12271416e-002,
          2.02731341e-002, -3.45391147e-002, -6.44384921e-002,
          -7.43255988e-002, -4.51491922e-002, 4.66111116e-003,
          3.18523869e-002, 4.80087288e-002, -1.37061188e-002,
          4.09396191e-004, -1.56712290e-002, -3.06881941e-003,
          -1.76558662e-002, -7.22953770e-003, -9.64096747e-003,
          -1.09898078e-003, 2.31167991e-002, -4.82986434e-005,
          8.23310483e-003, 1.09607521e-002, 2.06159372e-002,
          4.99108881e-002, 3.02198362e-002, -1.60535257e-002,
          -4.12362441e-002, -5.46066724e-002, -4.71643172e-002,
          -2.13894416e-002, -1.85903127e-003, 1.19370874e-003,
          3.04729659e-002, 2.10390221e-002, -2.31567007e-002,
          -3.68733518e-002, -5.11290915e-002, -4.13627662e-002,
          -1.32599194e-002, 8.45367368e-003, 2.06107702e-002,
          -2.06763875e-002, -1.58398915e-002, -7.39393290e-003,
          9.15301591e-003, -6.86429162e-003, 2.53671757e-003,
          -6.16632216e-003, 6.62187085e-006, 2.51052491e-002,
          -1.28776012e-002, -1.21796280e-002, -4.95965779e-003,
          5.91119938e-003, 4.16541807e-002, 1.38569027e-002,
          -1.78920757e-002, -3.97253968e-002, -4.70831208e-002,
          -5.61415963e-002, -3.01431064e-002, -1.25771074e-003,
          -3.24710063e-003, 2.25896612e-002, 1.16920825e-002,
          -2.31535491e-002, -3.48336212e-002, -5.42196073e-002,
          -6.13705963e-002, -3.99610661e-002, -6.00909907e-003,
          2.98973406e-003, -3.15593407e-002, -3.52218561e-002,
          -6.06716191e-003, 2.38973834e-003, 1.11016668e-002,
          1.01621291e-002, 4.90235281e-004, 1.28141539e-002,
          1.14904670e-002, -1.75920408e-002, -2.04913076e-002,
          -1.88517459e-002, -6.72844984e-003, 3.37280110e-002,
          9.04777180e-003, -1.39546776e-002, -1.98355559e-002,
          -4.47368510e-002, -7.97197297e-002, -7.27038085e-002,
          -4.89845835e-002, -2.53672451e-002, 2.79122628e-002,
          1.42396083e-002, -1.62102897e-002, -1.71675198e-002,
          -5.90147898e-002, -8.81601050e-002, -8.48529264e-002,
          -6.25073314e-002, -2.73206737e-002, -3.57182883e-002,
          -4.92705591e-002, -2.36659590e-002, -2.33992096e-002,
          3.87484138e-003, 1.48187038e-002, 5.18064480e-003,
          6.24257419e-003, 1.85919479e-002, 5.28711453e-003,
          -2.25779810e-003, 8.19644332e-003, 1.30563118e-002,
          4.63404432e-002, 2.12581549e-002, -3.26201692e-002,
          -3.51467654e-002, -1.51196923e-002, -1.00461105e-002,
          3.56635498e-003, 1.03702610e-002, 1.29266949e-002,
          4.58011217e-002, 2.63140108e-002, -2.17938609e-002,
          -2.97180135e-002, 3.69248656e-003, -1.43787009e-003,
          1.49897183e-003, 1.79988034e-002, 2.30916962e-002,
          -8.41034763e-003, -1.41866989e-002, 3.22814323e-002,
          2.54443251e-002, -1.40608437e-002, -1.69392191e-002,
          -1.21062631e-002, 1.30859250e-002, 3.04671954e-002,
          -1.69349508e-003, -1.42709855e-002, -2.36573839e-003,
          -6.26221474e-004, 3.75540704e-002, 1.99516583e-002,
          -5.90655059e-002, -4.92869616e-002, -1.86621994e-002,
          -8.84035695e-003, 7.03429198e-003, 3.57003771e-002,
          2.89778579e-002, 2.20512915e-002, -2.56925356e-003,
          -5.88560328e-002, -4.69066985e-002, -8.50951951e-003,
          -8.06534290e-003, -6.23229099e-003, 2.80994195e-002,
          2.62907110e-002, -1.66688208e-002, -9.80143528e-003,
          1.04641924e-002, 4.15204419e-003, -1.82964504e-002,
          -2.32306924e-002, -2.41475254e-002, -1.01036450e-003,
          1.37875378e-002, -8.82723741e-003, -1.46124512e-002,
          -1.03603341e-002, -1.63415242e-002, 4.83378433e-002,
          3.74076068e-002, -5.04699275e-002, -3.99030484e-002,
          -2.18778290e-002, -1.33587876e-002, 1.61283370e-002,
          5.02291992e-002, 3.53482030e-002, 1.91700812e-002,
          2.08799867e-003, -6.04918636e-002, -4.35934290e-002,
          -2.34425422e-002, -1.94135774e-002, 1.72497460e-003,
          3.41854915e-002, 2.07212046e-002, -1.46044567e-002,
          2.37733801e-003, -6.84704259e-003, -3.46314511e-004,
          -2.57611088e-002, -1.43100685e-002, -2.94243880e-002,
          -5.71204349e-003, 1.68129951e-002, -1.52981477e-002,
          -1.96340960e-002, -3.65467975e-003, -3.89985926e-003,
          5.61749302e-002, 4.10553664e-002, -2.79145315e-002,
          -3.29700522e-002, -1.71969645e-002, -7.95543753e-003,
          1.19148623e-002, 3.15334648e-002, 3.56498454e-003,
          1.91278644e-002, 1.38212414e-002, -5.20707257e-002,
          -3.30663212e-002, -1.57940313e-002, -2.03261189e-002,
          -6.58579404e-003, 2.19396316e-002, 3.58120794e-003,
          -1.24120889e-002, -6.02877978e-003, -9.98065900e-003,
          8.30463879e-003, -9.93929803e-003, 2.05506850e-003,
          -1.88904516e-002, -3.44667933e-003, 1.86830498e-002,
          -1.99369155e-002, -3.74968462e-002, -2.53453292e-002,
          -9.96951852e-003, 4.81963940e-002, 2.06781123e-002,
          -3.15654278e-002, -3.90739702e-002, -1.88134052e-002,
          -1.39141157e-002, 3.32408957e-003, 2.97664758e-002,
          7.05305545e-004, 1.62132550e-002, 1.20108547e-002,
          -4.79326658e-002, -3.60354073e-002, -2.50624511e-002,
          -3.03344354e-002, -3.23761441e-002, -8.29797704e-004,
          -6.85415417e-003, -1.45680560e-002, -2.67103128e-002,
          -9.60091501e-003, 1.39008160e-003, -1.14254910e-003,
          -2.82616791e-004, -1.45948399e-002, 1.55877683e-003,
          7.23284483e-003, -1.98458228e-002, -2.73091979e-002,
          -3.31217945e-002, -2.32323855e-002, 3.57080027e-002,
          2.04503350e-002, -1.17038684e-002, -1.37947574e-002,
          -2.62140706e-002, -3.39642316e-002, -2.64604222e-002,
          -1.38062453e-002, -2.12599505e-002, 1.50126172e-002,
          1.21609513e-002, -2.43141875e-002, -1.59541797e-002,
          -3.50214690e-002, -4.79778238e-002, -5.00571281e-002,
          -4.39111553e-002, -3.80217992e-002, -1.15494709e-002,
          -4.19944711e-002, -1.56020690e-002, -2.59743985e-002,
          1.64547637e-002, 3.64928059e-002, 1.36624640e-002,
          -3.37856961e-003, -3.58706922e-003, -1.33356415e-002,
          -2.36012414e-002, -5.04370173e-003, -1.49692371e-002,
          1.43817794e-002, 1.97953638e-002, -2.18824055e-002,
          -1.24892686e-002, 3.72493290e-003, 2.28267442e-003,
          7.19419541e-003, 1.09123895e-002, 1.15059512e-002,
          2.98691615e-002, 3.79460678e-002, -4.86801611e-003,
          -1.62245464e-002, -5.79010637e-004, -9.06569231e-003,
          -1.41350329e-002, 6.29704306e-003, -3.78541392e-003,
          -1.33104539e-002, -8.38565547e-003, 1.23827262e-002,
          2.72832382e-002, -2.17641722e-002, -2.26187669e-002,
          -1.43121667e-002, 5.17176418e-003, 1.00294352e-002,
          -5.42827649e-003, -7.80728413e-003, 8.84069968e-003,
          -1.90902781e-002, 1.71584133e-002, 3.41240577e-002,
          -3.17785665e-002, -2.21977085e-002, -1.20147225e-002,
          -5.84740005e-003, 5.16266003e-003, 2.96125263e-002,
          1.51302656e-002, 5.17577457e-004, 2.98609515e-003,
          -3.57552804e-002, -2.22664587e-002, -5.90019999e-003,
          -9.68632661e-003, -1.69728207e-003, 3.29971239e-002,
          -4.73399367e-003, -1.64325573e-002, -1.42469136e-002,
          4.11241548e-003, 8.82850215e-003, -1.43194925e-002,
          -4.30587791e-002, -4.38288562e-002, -1.33444369e-002,
          -8.19778419e-004, -7.68581638e-003, -7.43359514e-003,
          9.05644335e-003, -3.60308439e-002, 3.53795253e-002,
          5.16814254e-002, -2.41475254e-002, -1.64017491e-002,
          -1.71753522e-002, -9.33180004e-003, 1.67504456e-002,
          5.68043664e-002, 3.58409621e-002, -4.82949987e-003,
          -4.83911345e-003, -5.24751581e-002, -2.94589326e-002,
          -1.86531637e-002, -1.59637854e-002, 9.63221118e-003,
          5.59220128e-002, 8.56689294e-004, -1.29196364e-002,
          -3.79131688e-003, 2.07191042e-004, 3.27399001e-003,
          -1.11198062e-002, -1.91915240e-002, -4.06332240e-002,
          -1.99327469e-002, -8.74655228e-003, -1.55112725e-002,
          -1.87375043e-002, 7.96745159e-003, -2.36372482e-002,
          3.48365121e-002, 4.07771803e-002, -9.50733572e-003,
          -7.15593295e-003, -1.22684231e-002, -4.20631748e-003,
          2.40527596e-002, 6.53597564e-002, 1.72087383e-002,
          -3.57523584e-003, 6.15342427e-003, -4.70982157e-002,
          -2.39337813e-002, -1.77467875e-002, -1.89677384e-002,
          6.20672153e-003, 6.40406534e-002, -1.04707673e-004,
          1.02419744e-003, -7.41763797e-004, -6.41936623e-003,
          5.92692895e-003, -9.44394991e-003, -5.59325377e-003,
          -3.20512056e-002, -2.04777252e-002, -1.54546797e-002,
          -1.96842011e-002, -3.21474187e-002, -1.97419040e-002,
          -2.80123297e-002, 2.11822875e-002, 2.04225220e-002,
          -2.09691804e-002, -9.30732954e-003, -1.45523725e-002,
          -5.84484776e-003, 2.42532305e-002, 6.72362223e-002,
          1.28408875e-002, -7.59010995e-003, 4.60535986e-003,
          -4.91355583e-002, -2.64982451e-002, -2.53783874e-002,
          -2.38454938e-002, -6.78247074e-003, 3.97725552e-002,
          -1.34109734e-002, -6.29112544e-003, -1.74060538e-002,
          -9.10454709e-003, -8.37282185e-003, -5.33912843e-003,
          -1.54310921e-002, -4.29970361e-002, -3.31172086e-002,
          -2.70966981e-002, -2.24415343e-002, -1.65850651e-002,
          -1.95073169e-002, -2.21537761e-002, 2.94692200e-002,
          2.82698013e-002, -1.16228657e-002, -3.15525103e-003,
          -1.89472381e-002, -8.74179415e-003, 1.86884850e-002,
          3.83265875e-002, 1.10729728e-002, 1.55906295e-002,
          8.59957468e-003, -3.58427763e-002, -3.26491408e-002,
          -3.42747197e-002, -2.75380388e-002, 3.10109439e-003,
          1.65747460e-002, -2.20764731e-003, -9.31509398e-003,
          -1.83815900e-002, -1.11287320e-002, -1.83596164e-002,
          2.94165071e-002, 3.89181077e-002, 9.35187470e-003,
          -8.01010337e-003, -6.70754723e-003, -3.69682768e-003,
          -1.13940742e-002, 6.37081335e-004, -2.00263001e-002,
          -2.97466572e-002, 1.34217311e-002, -1.61379855e-002,
          -1.60497352e-002, 7.33715110e-003, 1.15958396e-002,
          1.74249522e-002, 2.11220365e-002, 1.14809312e-002,
          6.20506890e-003, 2.99713649e-002, -1.88456976e-003,
          -1.72514394e-002, 6.02683518e-003, 8.78984667e-003,
          7.47243268e-003, 2.17717923e-002, -5.74298622e-003,
          -1.50701180e-002, 4.57174517e-003, 1.32526111e-004,
          3.34347412e-002, -1.89558212e-002, -1.51154296e-002,
          -9.66193154e-003, -1.34182926e-002, -9.92735196e-003,
          -7.39696296e-003, -2.02259072e-003, 2.96974871e-002,
          -8.63244664e-003, -1.71501227e-002, 1.59021467e-002,
          -3.67276967e-002, -2.78636031e-002, -1.16679389e-002,
          3.10844765e-003, 1.69000141e-002, 2.59267557e-002,
          5.16960863e-003, -2.34112013e-002, -5.30996965e-003,
          -3.74591537e-002, -3.51756103e-002, -1.69098601e-002,
          -2.20240327e-003, 1.51432781e-002, 4.88602631e-002,
          -3.86242685e-003, -1.74723286e-002, -1.28792077e-002,
          -1.27860121e-002, 4.56018606e-003, -5.57542918e-003,
          -3.36030424e-002, -2.50650533e-002, -1.20099038e-002,
          -6.30504824e-003, -4.08390537e-003, 7.66280666e-003,
          4.38045971e-002, -1.51206357e-002, 8.90353788e-003,
          1.67071205e-002, -3.41142081e-002, -3.31284814e-002,
          -2.64917742e-002, -1.17047541e-002, 1.65697485e-002,
          3.84060405e-002, 2.19857022e-002, -2.42273882e-002,
          -3.08055077e-002, -5.37249930e-002, -4.13262881e-002,
          -2.87191086e-002, -1.40106957e-002, 2.53103487e-002,
          7.31508061e-002, 6.13341248e-003, -9.71855968e-003,
          -1.09208822e-002, -4.42528818e-003, 3.83773113e-006,
          3.93368350e-003, -1.93761345e-002, -2.44998559e-002,
          -1.55158769e-002, -1.26806954e-002, -4.63905837e-003,
          1.38317719e-002, 5.42698242e-002, 8.41662928e-004,
          9.15118307e-003, 3.70331830e-003, -2.80083008e-002,
          -2.23256610e-002, -2.12465990e-002, -4.84709116e-003,
          2.08507292e-002, 4.60214540e-002, 4.39023925e-003,
          -1.63114630e-002, -2.03771759e-002, -5.07358387e-002,
          -3.32233943e-002, -2.79054958e-002, -8.35465454e-003,
          3.51959616e-002, 9.05799791e-002, 1.04111144e-002,
          4.97691613e-003, 2.74947449e-003, -3.40510416e-003,
          -2.50423164e-003, -1.02735022e-002, -1.91231277e-002,
          -4.27838415e-002, -2.31029801e-002, -2.21336391e-002,
          -1.02227069e-002, 1.45382751e-002, 3.91364321e-002,
          3.91127961e-003, -4.33913060e-003, -2.00986997e-005,
          -3.08551081e-002, -1.65054633e-003, -6.61507621e-003,
          -3.46659240e-003, 2.49762945e-002, 5.71975410e-002,
          1.02538578e-002, -2.59262566e-002, -2.01418325e-002,
          -5.77016361e-002, -2.13626195e-002, -2.00087614e-002,
          -1.08070988e-002, 3.99567112e-002, 8.63301978e-002,
          1.46561135e-002, -4.31346009e-003, -6.45257169e-005,
          -4.32056142e-003, -2.88500846e-003, 1.98281440e-003,
          -1.69573016e-002, -4.48887236e-002, -3.31501849e-002,
          -2.98386961e-002, -1.53772077e-002, 8.90283287e-003,
          1.95146948e-002, -7.90996104e-003, 4.55292407e-003,
          1.74119044e-002, -1.19359475e-002, 2.01509129e-002,
          5.67070092e-004, -5.43618982e-004, 2.41713040e-002,
          5.21289445e-002, 3.11950482e-002, 1.39065534e-002,
          1.42559095e-003, -4.17563282e-002, -1.08141201e-002,
          -1.81218907e-002, -9.90965590e-003, 3.36208828e-002,
          6.61628321e-002, 2.65901443e-002, -1.27121713e-002,
          1.29508572e-002, -6.16754769e-005, 9.24005639e-003,
          1.79894567e-002, 1.30917588e-002, -2.97429622e-003,
          -1.11613693e-002, -3.53699178e-003, 1.21943401e-002,
          -5.39596286e-003, 8.38197861e-003, -5.23506990e-003,
          -3.05243116e-002, 2.33741757e-002, 7.35161174e-003,
          -9.55720153e-003, 6.81854831e-003, 2.13303976e-002,
          4.15005386e-002, 4.47324142e-002, 2.19521560e-002,
          1.68286089e-003, 2.67411545e-002, 1.80899166e-002,
          -8.09732731e-003, 1.14342263e-002, 3.20810564e-002,
          3.75020653e-002, 4.72231023e-002, 1.75631102e-002,
          2.06225249e-003, 1.60150900e-002, 1.44706285e-002,
          3.83186154e-002, -2.20691413e-002, -2.12659892e-002,
          -8.48527160e-003, -1.73302479e-002, -1.72674116e-002,
          -7.05800951e-004, -1.77224621e-003, 3.22234817e-002,
          2.55991449e-003, -1.76317319e-002, 1.68353189e-002,
          -1.66696832e-002, -2.87294891e-002, -7.33723678e-003,
          1.57965850e-002, 4.64209430e-002, 5.74421138e-002,
          2.02258229e-002, -2.11109277e-002, -1.19962832e-002,
          -1.36602260e-002, -3.51456180e-002, -1.57642812e-002,
          1.67701095e-002, 4.52291705e-002, 7.87263885e-002,
          2.23259572e-002, 2.09604343e-003, 2.80546630e-003,
          3.62589344e-005, 1.02601340e-002, 4.13409900e-003,
          -2.13555433e-002, -1.08183306e-002, -2.10415814e-002,
          -2.22406164e-002, -1.68474263e-003, 1.40636070e-002,
          4.71464321e-002, -1.37532409e-002, -5.07482281e-003,
          -4.12220275e-003, -3.39066163e-002, -3.80400680e-002,
          -3.13522406e-002, -8.01877677e-003, 3.39081176e-002,
          4.57109027e-002, 1.92308277e-002, -2.71771513e-002,
          -3.95882390e-002, -3.56470533e-002, -4.75104488e-002,
          -3.87116447e-002, -8.90632346e-003, 4.81375605e-002,
          8.44744444e-002, 8.26237909e-003, -4.52177972e-003,
          -1.15757603e-002, -2.25665094e-003, -3.90286162e-003,
          1.39968162e-002, -1.50852036e-002, -1.12551898e-002,
          -1.67547110e-002, -2.62147654e-002, -1.12704420e-002,
          3.04919109e-002, 7.72180483e-002, 8.36061034e-003,
          -9.83874034e-003, -1.82176121e-002, -2.89582647e-002,
          -3.14265937e-002, -3.47407833e-002, -4.57097637e-003,
          3.08283232e-002, 3.62030305e-002, -2.25929334e-003,
          -2.13218462e-002, -3.46203707e-002, -3.72701176e-002,
          -3.76985632e-002, -4.13316637e-002, -1.28745455e-002,
          6.12424836e-002, 1.04213096e-001, 1.39714014e-002,
          2.59488402e-003, 2.60942848e-003, -3.41031491e-003,
          -8.15499015e-003, -1.26604363e-002, -1.31478496e-002,
          -3.38656269e-002, -1.72998440e-002, -2.22550686e-002,
          -1.36831813e-002, 3.77923883e-002, 8.02187100e-002,
          3.85784209e-002, -1.08240144e-002, -7.63900205e-003,
          -1.91120002e-002, 6.75319135e-003, -1.39537454e-002,
          -1.19389109e-002, 1.98837966e-002, 3.62706333e-002,
          -1.57998912e-002, -3.28633003e-002, -2.42780652e-002,
          -4.25052531e-002, -7.63617642e-003, -2.68798321e-002,
          -1.95800364e-002, 5.76542616e-002, 1.06378838e-001,
          2.57486198e-002, -3.15298070e-003, 7.15023698e-003,
          2.97631253e-003, 5.90393413e-003, 8.88773799e-003,
          5.98289352e-003, -3.20773162e-002, -2.36782003e-002,
          -2.67438572e-002, -1.18364729e-002, 2.79192235e-002,
          4.72771227e-002, 2.37370580e-002, 1.49871776e-004,
          7.36258226e-003, -9.05197766e-003, 2.36355793e-002,
          -3.46628507e-003, -1.33318827e-002, 6.52051298e-004,
          2.85856687e-002, 9.59990360e-003, 9.62869823e-003,
          6.01782417e-003, -3.73225287e-002, 2.34067626e-003,
          -2.22325753e-002, -2.25204900e-002, 2.96071656e-002,
          7.01336339e-002, 3.63496244e-002, -9.03274305e-003,
          8.48710351e-003, 8.90714396e-003, 2.16212813e-002,
          -5.91568695e-003, 1.56770926e-002, 1.59216095e-002,
          1.98516585e-002, 3.41759697e-002, 4.90436293e-002,
          1.68506522e-002, 3.05267982e-002, 3.00473231e-003,
          -3.14719528e-002, 1.51793594e-002, -1.31847057e-002,
          -3.05637792e-002, -1.52563164e-002, 8.34859721e-003,
          3.21740806e-002, 3.20488997e-002, 2.13455269e-003,
          -9.76485759e-003, 1.57108903e-002, 1.14671616e-002,
          -5.37653640e-003, 2.32532918e-002, 5.37177287e-002,
          4.98167872e-002, 5.02244085e-002, 6.30315254e-003,
          1.64640285e-002, 1.30508272e-002, 2.81814039e-002,
          2.64699440e-002, -3.85386050e-002, -2.66648047e-002,
          -3.04504344e-003, 5.72946016e-003, 1.86862927e-002,
          3.93159874e-002, 2.31580921e-002, 5.51053695e-002,
          6.81207050e-003, -2.09952071e-002, 4.90719732e-003,
          -3.02480012e-002, -4.18918915e-002, -1.23011246e-002,
          1.21086193e-002, 4.12187018e-002, 6.20264933e-002,
          6.51179301e-003, -4.28111255e-002, -2.45262198e-002,
          -1.42455529e-002, -2.59883311e-002, 1.05938334e-002,
          4.76102494e-002, 6.41833544e-002, 9.45342481e-002,
          1.38212871e-002, 1.65505800e-002, 7.15491781e-003,
          1.58414561e-002, 8.48653633e-003, 5.12665277e-003,
          -2.23485027e-002, -1.32180443e-002, -1.63939968e-002,
          -7.47131975e-003, 2.18999945e-002, 3.10519561e-002,
          5.78985661e-002, -3.67552438e-003, -2.40875836e-002,
          -1.94026995e-002, -3.59770358e-002, -3.41106169e-002,
          -2.17443835e-002, 2.03709095e-003, 3.21507864e-002,
          5.15365750e-002, 1.36383958e-002, -4.30032983e-002,
          -4.58275154e-002, -3.96651328e-002, -3.82304564e-002,
          -1.73922628e-002, 2.11296789e-002, 6.22538999e-002,
          9.41719711e-002, 1.21052992e-002, 5.49642323e-003,
          -7.26854056e-003, 1.08021144e-002, -1.05847477e-003,
          1.13441432e-002, -1.06146177e-002, -4.18673735e-004,
          -5.66585362e-003, -1.71260610e-002, -5.92735130e-003,
          2.95953676e-002, 7.07761124e-002, 8.73362739e-003,
          -2.55565550e-002, -3.18659507e-002, -2.80382279e-002,
          -2.34511308e-002, -2.06809863e-002, 4.46989248e-003,
          2.75439825e-002, 2.44259965e-002, -1.67715978e-002,
          -3.30003053e-002, -3.91179807e-002, -2.59554517e-002,
          -2.21568178e-002, -2.19613761e-002, -4.53305984e-004,
          5.59868664e-002, 8.91584903e-002, 2.74537415e-005,
          2.33797636e-003, -2.65228935e-003, 4.12451057e-003,
          -8.16022046e-003, -3.83188878e-003, 1.11076413e-002,
          -1.57335624e-002, -5.61125018e-003, -1.29273375e-002,
          -1.25274369e-002, 2.36466508e-002, 6.56702891e-002,
          4.27028090e-002, -2.95000616e-003, -1.61601789e-002,
          -1.70876700e-002, -5.74534154e-003, -1.30921062e-002,
          -7.64096854e-003, 6.46127714e-003, 2.31651310e-003,
          -4.41663861e-002, -2.59157307e-002, -1.31508112e-002,
          -3.17532718e-002, -9.66264494e-003, -2.12756563e-002,
          -1.44940028e-002, 3.07002328e-002, 6.30490184e-002,
          2.00160523e-003, -4.05146461e-003, -5.57006523e-003,
          5.90722635e-003, 1.08909898e-003, 1.33567993e-002,
          2.75258888e-002, -1.81327723e-002, -1.53869567e-002,
          -2.07082480e-002, -9.44803283e-003, 1.99654009e-002,
          4.45964336e-002, 3.36663574e-002, 1.69942658e-002,
          1.21479842e-003, -1.60216819e-002, -4.04033484e-003,
          -1.57259032e-002, -1.86156128e-002, -2.00649183e-002,
          -9.17901844e-003, -2.62893345e-002, 1.26061104e-002,
          1.75094213e-002, -3.22921798e-002, -1.72302723e-002,
          -3.06266192e-002, -2.58009434e-002, 4.00148705e-003,
          3.31142955e-002, 1.25044566e-002, -3.16879386e-003,
          -1.55039066e-002, 5.90982055e-003, 5.08242147e-003,
          -2.99314532e-004, 2.00514793e-002, 2.73111071e-002,
          2.78684348e-002, 5.46070486e-002, 7.01585263e-002,
          3.39498594e-002, 3.73810641e-002, -1.31914159e-002,
          -5.05833663e-002, -3.75972153e-003, -2.59535052e-002,
          -5.16887382e-002, -2.80903261e-002, 9.17411596e-003,
          3.62041704e-002, 1.87287237e-002, -3.44169815e-003,
          -2.79987697e-002, 2.81473272e-003, 1.03113912e-002,
          -1.60019845e-002, 3.00324056e-002, 7.11001307e-002,
          6.82253167e-002, 4.58353832e-002, -7.71061657e-003,
          3.19713801e-002, -5.91322314e-003, 4.43810597e-002,
          4.24301624e-003, -4.55844477e-002, -2.21965276e-002,
          5.17916493e-003, 1.29016303e-002, 3.32111754e-002,
          5.35358936e-002, 4.23229113e-002, 7.15521351e-002,
          2.19123885e-002, -2.49966737e-002, -6.96284929e-003,
          -3.00204419e-002, -4.77433428e-002, -2.20492966e-002,
          4.30947961e-003, 2.32043453e-002, 1.78389475e-002,
          -2.48121507e-002, -5.22432439e-002, -2.75716707e-002,
          -7.99218379e-003, -2.07173917e-002, 1.48553271e-002,
          5.09693213e-002, 6.37013465e-002, 6.51543364e-002,
          -1.77524344e-003, 2.53624544e-002, -1.26740392e-002,
          2.75875963e-002, -1.12366648e-002, 8.35479237e-003,
          -1.03575038e-002, -3.87887866e-003, -4.32710722e-003,
          1.17159141e-002, 2.85168327e-002, 3.99946459e-002,
          6.83000907e-002, 2.41868198e-002, -1.63581539e-002,
          -4.21630107e-002, -6.05440475e-002, -5.21677658e-002,
          -2.72480641e-002, -5.09684300e-003, 1.46341342e-002,
          2.90143061e-002, 7.05922814e-003, -2.27736924e-002,
          -4.67003956e-002, -5.17027900e-002, -4.18431573e-002,
          -1.03943050e-002, 1.93048436e-002, 5.37816323e-002,
          7.82716498e-002, 2.89282333e-002, 1.30189667e-002,
          -2.06458140e-002, 2.49277651e-002, -1.27587933e-002,
          2.94371564e-002, 1.53720090e-002, 1.03361718e-002,
          4.42683464e-003, -9.17604193e-004, 5.12336567e-003,
          2.47018747e-002, 5.24711013e-002, 2.37518568e-002,
          -7.78193166e-003, -5.05547263e-002, -5.05868681e-002,
          -4.33746465e-002, -2.31217798e-002, -6.40662247e-003,
          1.32285329e-002, 7.92786572e-003, -1.24472221e-002,
          -1.59309246e-004, -2.97803171e-002, -3.29131484e-002,
          -3.11139617e-002, -1.96339339e-002, -1.95287168e-003,
          3.73212360e-002, 5.67301922e-002, 1.45847341e-002,
          5.94933284e-003, -1.55326836e-002, 1.96800958e-002,
          -1.40634030e-002, 2.17294022e-002, 3.50707956e-002,
          4.93024103e-003, -2.92721903e-003, -4.01627785e-003,
          4.30412497e-003, 2.50572618e-002, 4.50990647e-002,
          3.85102220e-002, 1.49037549e-002, -3.17453481e-002,
          -1.83007102e-002, -2.65428424e-002, -1.83120761e-002,
          -1.26621360e-002, -1.19156521e-002, -2.83245053e-002,
          -5.22412844e-002, 7.62395561e-003, 3.71538545e-003,
          -1.15005709e-002, -2.48912498e-002, -1.81760415e-002,
          -7.40347011e-003, 1.35561191e-002, 1.58575904e-002,
          -9.64185968e-003, 3.92644992e-003, -1.78884603e-002,
          1.43077532e-002, -8.54017492e-003, 3.78131047e-002,
          4.16734107e-002, -9.57673357e-004, -9.77809727e-003,
          -4.97994712e-003, 4.81941458e-003, 2.80779544e-002,
          4.51221615e-002, 4.19516265e-002, 3.14433761e-002,
          -8.65256321e-003, -1.06540034e-002, -2.14069448e-002,
          -3.05406768e-002, -3.02912537e-002, -2.44618692e-002,
          -3.18655893e-002, -3.93328294e-002, 3.82203311e-002,
          3.02055664e-002, -9.53582674e-003, -2.71768514e-002,
          -2.87275016e-002, -2.46227048e-002, 4.07883711e-003,
          1.19279651e-002, 4.27306956e-003, 2.52472553e-002,
          -2.03201529e-002, 1.30491322e-002, -9.50064790e-003,
          2.25882139e-002, 2.16055997e-002, 2.85403281e-002,
          1.19944406e-003, 5.38455695e-002, 8.17004591e-002,
          2.48385314e-002, -6.68981904e-003, -3.39985527e-002,
          -4.41785268e-002, -6.69438904e-003, 1.18328100e-002,
          -3.02022900e-002, -1.63149983e-002, 1.16303237e-002,
          4.70372476e-002, 2.48262323e-002, 1.80292800e-002,
          -1.56117734e-002, 1.27963899e-002, 4.40021455e-002,
          -1.03171635e-002, 4.67996486e-002, 7.93678612e-002,
          6.28644526e-002, 1.63379759e-002, -9.65084229e-003,
          4.53941338e-002, -6.34714495e-003, 5.69893532e-002,
          2.76695983e-003, -6.14783028e-003, 3.59283714e-003,
          1.31541602e-002, -1.83579195e-002, 2.03697365e-002,
          5.63321114e-002, 4.31659557e-002, 4.82589491e-002,
          2.38994416e-002, -6.32666610e-003, -8.97794869e-003,
          4.59615374e-003, -2.95730904e-002, -3.23562510e-002,
          -1.65424086e-002, 1.36498809e-002, -6.02701562e-004,
          -8.20375420e-003, -8.71174876e-003, 5.07769349e-004,
          2.31412817e-002, -2.68139951e-002, 5.27878432e-003,
          3.20070982e-002, 5.15466854e-002, 3.91654447e-002,
          1.45960255e-002, 3.47220339e-002, -1.47081362e-002,
          3.93811539e-002, -1.22877425e-002, 3.54962125e-002,
          2.54120715e-002, -8.61798879e-003, -4.69056405e-002,
          -1.62995397e-003, 2.99803000e-002, 4.24597450e-002,
          5.61457798e-002, 3.76271531e-002, 3.47528160e-002,
          -1.81937870e-002, -2.59485971e-002, -4.07396220e-002,
          -3.27013321e-002, -3.13881189e-002, -4.67336271e-003,
          7.86976423e-003, 1.37096047e-002, 4.82567362e-002,
          1.59335937e-002, -1.59757342e-002, -4.78244312e-002,
          -2.12535281e-002, -5.10914717e-003, 3.59861515e-002,
          5.40379398e-002, 4.66482975e-002, 2.30484158e-002,
          -2.12225672e-002, 4.13636565e-002, -8.93991720e-003,
          5.76957017e-002, 5.45335785e-002, 1.11751072e-002,
          -2.32670512e-002, -1.02546532e-002, 4.15524188e-003,
          1.15595674e-002, 1.09777525e-002, 1.40211200e-002,
          4.72980365e-002, -7.62034813e-003, -1.59059372e-002,
          -3.58281061e-002, -3.79533023e-002, -3.42719480e-002,
          -3.66327004e-003, 1.67022995e-003, 5.68167819e-003,
          7.12464973e-002, 4.64198478e-002, 3.19163990e-003,
          -3.59005183e-002, -3.26942578e-002, -2.92851813e-002,
          6.58220751e-003, 1.08622350e-002, 2.41947044e-002,
          2.03165486e-002, -2.51112804e-002, 3.84998843e-002,
          -1.01335486e-002, 5.78746088e-002, 6.93669096e-002,
          2.22466271e-002, -1.05686542e-002, -3.33179836e-004,
          1.69005860e-002, 2.04381645e-002, 1.39393527e-002,
          2.83669680e-002, 3.77646312e-002, -1.52947856e-002,
          -1.10874875e-002, -3.49445008e-002, -4.05647233e-002,
          -4.76560220e-002, -3.77149247e-002, -3.44003588e-002,
          -3.06964163e-002, 6.75506145e-002, 5.29916957e-002,
          1.42478347e-002, -3.11284494e-002, -2.87205223e-002,
          -2.87306365e-002, -1.81481317e-002, -1.90808959e-002,
          2.91607762e-003, 1.87711902e-002, -2.87333224e-002,
          3.13408189e-002, -1.96643062e-002, 6.00747019e-002,
          7.16539845e-002, 1.16103198e-002, -3.54881510e-002,
          -3.00158793e-003, 2.30759643e-002, 3.16359811e-002,
          4.20957878e-002, 6.85506389e-002, 5.54804057e-002,
          1.29723782e-003, -1.05843311e-002, -3.08932904e-002,
          -6.41097128e-002, -1.03061937e-001, -6.65469542e-002,
          -3.94813642e-002, -2.95061730e-002, 8.23267326e-002,
          6.97281212e-002, 1.04997056e-002, -5.17538674e-002,
          -5.11632152e-002, -7.45915994e-002, -3.49488929e-002,
          2.49723974e-003, 3.69525701e-002, 2.52282210e-002,
          -1.86944623e-002, 1.59065966e-002, -3.05477176e-002 ]
   decision_functions:
      -
         sv_count: 1
         rho: 7.7087767797874507e-001
         alpha: [ 1. ]
