%YAML:1.0
opencv_ml_svm:
   format: 3
   svmType: EPS_SVR
   kernel:
      type: LINEAR
   C: 1.0000000000000000e-002
   p: 1.0000000000000001e-001
   term_criteria: { epsilon:1.0000000000000000e-003, iterations:1000 }
   var_count: 620
   sv_total: 1
   support_vectors:
      - [ 7.90850911e-003, 6.00715429e-002, 5.64881898e-002,
          3.22739892e-002, 2.94716787e-002, -6.91667898e-003,
          1.27986248e-003, 1.28569743e-002, 2.24481430e-002,
          1.67323407e-002, 1.38304876e-002, -1.06873144e-004,
          -4.56673093e-002, -2.72747930e-002, -1.47613063e-002,
          -9.22985282e-003, -1.09915761e-002, -1.72477663e-002,
          1.86132081e-002, 5.62364124e-002, 2.89132595e-002,
          -1.43552488e-002, -2.42683149e-004, -1.50423022e-002,
          -6.16525114e-003, 2.33636890e-003, 5.73296519e-003,
          -9.80150141e-003, 2.43530888e-002, 1.39210876e-002,
          2.86447741e-002, -2.11971197e-002, 1.30635900e-002,
          2.16380935e-002, 3.36246192e-003, 4.70525539e-003,
          -8.26425850e-003, 1.13589289e-002, 2.04167552e-002,
          4.27556671e-002, 1.40782176e-002, 1.85961761e-002,
          7.07660569e-003, -6.59918934e-002, -6.35927618e-002,
          -2.03988943e-002, -7.05629587e-003, -7.56028714e-003,
          -2.42706966e-002, -4.78178868e-003, 2.40937322e-002,
          1.81958582e-002, -4.30040732e-002, -5.36623709e-002,
          -2.30477098e-002, 4.69472259e-003, 1.37708252e-002,
          1.99698545e-002, -3.84382419e-002, -8.54019448e-003,
          -1.21242609e-002, 3.02150883e-002, -3.70511599e-002,
          -8.18873290e-003, 5.14134998e-003, -3.70616512e-003,
          -1.49753680e-002, -2.94384528e-002, -4.71798051e-003,
          9.55687836e-003, 4.98524047e-002, 8.84754118e-003,
          1.21782199e-002, 4.89088036e-002, -4.30465378e-002,
          -9.68195722e-002, -4.45644632e-002, -8.70760251e-003,
          1.18199792e-002, 3.68117215e-003, -2.10981630e-002,
          2.83441041e-003, 3.18013467e-002, -3.30805667e-002,
          -8.40785131e-002, -6.37440607e-002, -1.39841875e-002,
          2.31918935e-002, 4.43226807e-002, -3.71487662e-002,
          -1.39416764e-002, -2.68905666e-002, 1.14053376e-002,
          -3.42889614e-002, -1.43741099e-002, 1.14857908e-002,
          1.13216061e-002, 8.85266997e-003, -9.38214641e-003,
          -2.48514977e-003, -1.51930898e-002, 3.16671617e-002,
          6.63658837e-004, -6.43733935e-003, 1.84123255e-002,
          1.94180291e-003, -7.35404715e-002, -8.34563971e-002,
          -4.99325357e-002, -5.40084392e-003, 2.45479736e-002,
          -2.77121216e-002, -1.83869973e-002, 1.85886919e-002,
          5.61504904e-003, -6.03461713e-002, -8.27628002e-002,
          -4.48681787e-002, -8.63916986e-003, 4.17545885e-002,
          -2.74483245e-002, -6.05254248e-003, -4.01025936e-002,
          -1.38874641e-002, 9.81304981e-003, 4.07221168e-002,
          4.33258340e-002, 6.37491141e-003, -1.33376289e-002,
          -4.68121991e-002, -3.37861441e-002, -2.04282347e-002,
          -1.40651362e-002, -3.95361967e-002, -2.71636918e-002,
          1.62362400e-002, -7.59246759e-003, 5.92113379e-003,
          3.42297391e-003, 6.65776525e-003, 9.06572305e-003,
          5.41407708e-003, -1.76374316e-002, 1.46195423e-002,
          3.03451885e-002, -3.63700930e-003, -2.62990431e-003,
          -3.78270447e-002, -2.47412380e-002, -1.11164553e-002,
          -8.15658830e-003, -3.72007489e-002, -5.14825247e-003,
          -1.15931127e-002, 2.76531354e-002, -4.38999496e-002,
          -5.34500182e-002, -3.00415624e-002, -3.39829437e-002,
          -2.72468477e-002, -3.91286016e-002, -1.81112327e-002,
          -6.63057156e-003, 1.78388152e-002, -2.70040743e-002,
          8.71527661e-003, 5.96730709e-002, 3.09578446e-003,
          -2.76844949e-003, -1.36706023e-003, -6.59560726e-004,
          -9.06867068e-003, -2.11206712e-002, -6.14550598e-002,
          -4.50608470e-002, 3.76089551e-002, -2.21163873e-002,
          -2.49417536e-002, -3.81130949e-002, -1.90952905e-002,
          -1.48686897e-002, -2.99979816e-003, -5.04134670e-002,
          -2.83594914e-002, -3.03775929e-002, 3.01141292e-003,
          -2.80698091e-002, -2.16043796e-002, -6.33999147e-003,
          -2.85393801e-002, -3.99030633e-002, -4.17656116e-002,
          -3.97554226e-002, -3.52963507e-002, 2.24824529e-002,
          -1.69775840e-002, -9.68867354e-003, 7.41327181e-002,
          5.91654517e-002, 9.90381837e-003, -4.13344014e-006,
          1.06395837e-002, 1.68079361e-002, 1.69373062e-002,
          -3.57745215e-002, -3.89174521e-002, 2.94035673e-002,
          2.42029577e-002, -2.28446331e-002, -4.01254520e-002,
          -2.95067430e-002, -1.90417375e-002, 2.12915409e-002,
          -1.18928561e-002, -4.52458439e-003, -1.82888750e-002,
          7.42397550e-003, -1.35793723e-002, -3.15890200e-002,
          -2.65707932e-002, -2.59292200e-002, -2.56133750e-002,
          -1.80962142e-002, -7.35571282e-003, -3.40632461e-002,
          3.37389228e-003, -3.46650556e-003, -2.42275130e-002,
          1.71416264e-003, 2.43115127e-002, 2.38282396e-003,
          -9.66496114e-003, 1.77474562e-002, 5.00866696e-002,
          7.28933439e-002, -4.65463614e-003, -4.89754528e-002,
          -9.80200153e-003, -4.40002140e-003, -1.40149230e-002,
          -2.09726896e-002, 9.62602533e-003, 2.11093388e-002,
          6.72877431e-002, -5.23418933e-003, 6.74055843e-003,
          -1.64796095e-002, -7.48711685e-003, -1.61242355e-002,
          9.46795382e-003, 2.84904577e-002, -1.17480354e-002,
          -1.38703221e-002, -2.69026104e-002, -2.08120048e-002,
          -2.11870056e-002, -1.52576314e-002, -6.53109923e-002,
          -1.77120883e-002, 5.55099435e-002, 1.49615500e-002,
          -1.75411304e-004, -3.42326192e-003, 3.14131449e-003,
          1.15891183e-002, 2.68627256e-002, -3.47787440e-002,
          1.93547606e-002, 6.17956035e-002, 6.64395746e-003,
          -1.09988144e-002, -2.65542679e-002, -1.62708908e-002,
          -9.10312589e-003, 1.10846069e-002, -2.63650548e-002,
          -1.44569976e-002, -7.88405072e-003, 1.92433503e-002,
          -3.69498543e-002, -3.02254818e-002, 7.93976337e-003,
          -1.63888186e-002, -2.43533198e-002, -2.94118896e-002,
          -1.18165659e-002, -5.22118667e-003, 3.37425470e-002,
          -7.92281795e-003, 3.84913720e-002, 9.19870958e-002,
          2.54306849e-002, -1.39838653e-002, -1.07091013e-002,
          -9.24447365e-003, -1.11729149e-002, 1.62460865e-003,
          -3.53023894e-002, -5.49116265e-003, 6.12315275e-002,
          6.93247234e-003, -2.55559962e-002, -3.61385234e-002,
          -1.74062587e-002, -9.98724811e-003, 3.45622897e-002,
          -1.30722253e-002, -5.28211240e-003, 1.54047812e-004,
          1.43422475e-002, 9.14624799e-003, 5.84550761e-003,
          2.14025192e-002, -1.14743914e-002, -3.10760625e-002,
          -2.44429745e-002, 4.82448423e-003, 1.54900439e-002,
          5.70214726e-002, 3.61366430e-003, -4.86755418e-003,
          2.73387991e-002, 1.58466212e-002, -1.77018736e-002,
          -1.79063752e-002, -1.76105369e-002, -1.21168997e-002,
          1.84779838e-002, 2.19525062e-002, -7.62891863e-003,
          2.24217884e-002, 9.90875415e-004, -3.81060690e-002,
          -3.84551845e-002, -1.15416925e-002, 7.65745481e-003,
          5.83844073e-002, 5.05734608e-003, 1.09747732e-002,
          -2.67804298e-003, 6.35547424e-003, 1.42202275e-002,
          -2.30625793e-002, -5.52946609e-003, -2.40530726e-002,
          -3.14879753e-002, -2.43770182e-002, 9.44254361e-003,
          2.34251563e-002, 3.30313593e-002, -1.99067350e-002,
          -1.41749820e-002, -2.27119960e-002, -1.39625603e-002,
          -2.25080606e-002, -2.16441564e-002, -4.67476016e-003,
          2.32307930e-002, 6.73801750e-002, 2.35521980e-002,
          -2.31310129e-002, -5.57431160e-003, -3.39398757e-002,
          -4.18923497e-002, -3.57215703e-002, 5.22189448e-003,
          4.50746007e-002, 8.15637931e-002, -1.28534837e-002,
          3.01176566e-003, -1.10826148e-002, -6.11663610e-003,
          -5.70885949e-002, -1.07183857e-002, 1.67399552e-002,
          3.21379921e-004, 3.81661346e-003, -4.83911578e-003,
          4.45942301e-003, 1.61474291e-002, 2.46703457e-002,
          -6.66993856e-002, -1.97154973e-002, 3.89042273e-002,
          -1.44228684e-002, -7.60860741e-003, 6.26313547e-003,
          2.43465658e-002, 3.17111202e-002, -1.54479669e-004,
          -3.71039920e-002, -2.03511324e-002, 4.40352522e-002,
          -1.17822234e-002, -3.65491724e-004, 2.25302647e-003,
          2.75726952e-002, 4.50524427e-002, 2.12442540e-002,
          -1.36469249e-002, -1.14570865e-002, 9.35146958e-003,
          9.21575818e-003, -4.33233678e-002, -2.41988190e-002,
          9.61938966e-003, 8.62771831e-003, -3.15467501e-003,
          -7.42458180e-003, 3.99769749e-003, 1.01291826e-002,
          2.75586266e-002, -3.91424494e-003, 2.88283210e-002,
          4.76123318e-002, -4.33916599e-003, -2.19340739e-003,
          3.69931874e-003, 2.10195221e-002, 1.51686557e-002,
          -4.04745946e-003, -3.31662707e-002, -6.59702171e-004,
          4.26629931e-002, -5.64876711e-004, -6.26633875e-004,
          -1.24417350e-003, 2.38369331e-002, 2.35107746e-002,
          1.64331291e-002, 5.48260985e-003, 1.98687264e-003,
          1.48302494e-002, 1.71399694e-002, -1.64866075e-002,
          -1.65605545e-002, 4.61053886e-002, 3.62751484e-002,
          -7.58700632e-003, -1.19397836e-002, -2.75015761e-003,
          1.16613917e-002, 3.96602042e-002, 6.40591932e-003,
          5.26490621e-003, 8.21939111e-003, -8.42958223e-003,
          -4.60008532e-003, 2.66281934e-003, 2.02857982e-002,
          1.93472169e-002, 1.72815323e-002, 4.55379859e-003,
          -1.90274250e-002, 3.24193016e-002, 2.10611392e-002,
          -6.19427720e-003, -6.87928079e-003, 1.64454374e-002,
          2.90251598e-002, 5.40979691e-002, 1.55346943e-002,
          2.09516715e-002, 1.72227975e-002, 1.45570710e-002,
          -2.60790735e-002, -1.43031068e-002, 5.25324903e-002,
          4.58388031e-002, -4.96099843e-003, -1.40435500e-002,
          -1.06564481e-002, 1.26046073e-002, 4.41543795e-002,
          -2.00193617e-002, -2.52488051e-002, -4.03818861e-003,
          -1.01000164e-002, -2.44197203e-003, -4.28000698e-004,
          6.26646075e-003, -6.90918509e-003, 1.43988500e-003,
          -1.83842424e-002, -1.87585447e-002, 3.63964960e-002,
          2.91687679e-002, -3.75832315e-003, -1.26229702e-002,
          -2.71060574e-003, 7.32538756e-003, 3.59669104e-002,
          8.80276412e-003, 5.17683045e-004, -1.29375351e-003,
          3.10207857e-003, -2.59253159e-002, -1.61262155e-002,
          -3.82615090e-003, 3.56059591e-003, 1.16240410e-002,
          1.77750513e-002, 3.22514549e-002, 6.68296218e-003,
          -2.54386314e-003, -3.74369510e-002, -1.84229556e-002,
          -7.12825265e-003, -2.94137988e-002, -1.60689242e-002,
          4.06348193e-003, 8.47180560e-003, -6.00654725e-003,
          -1.02617498e-002, -3.03399824e-002, -1.40488092e-002,
          -8.47869460e-003, -2.00630724e-002, 7.14806793e-003,
          2.00476535e-002, 3.59962583e-002, 6.13863161e-003,
          1.49789862e-002, -1.87028889e-002, -2.48420667e-002,
          3.74307879e-003, -2.02607061e-003, -2.45245378e-002,
          -3.94506939e-002, -1.14932060e-002, 2.43788287e-002,
          3.58062759e-002, 2.35251784e-002, 4.74790335e-002,
          3.55772637e-002, 3.06883380e-002, 1.17145071e-003,
          -2.99375388e-003, -7.66941952e-003, -3.44808288e-002,
          -3.49348970e-002, -4.34902832e-002, -2.88702864e-002,
          -2.70438008e-002, -7.05642486e-003, -1.86520480e-002,
          -2.11031958e-002, -1.30902613e-002, -5.06044924e-003,
          3.21114599e-003, -1.66307930e-002, 1.35328546e-002,
          5.70900179e-003, 1.45415924e-002, -3.40924738e-003,
          -2.06599124e-002, 7.54094159e-004, -6.56309910e-003,
          -2.29412690e-002, -1.32436864e-002, 4.96117398e-002,
          5.73584214e-002, 2.92445868e-002, 5.01590222e-003,
          6.51506567e-003, -1.20120440e-002, -1.28178634e-002,
          7.46222353e-003, 8.97247158e-003, -2.26458851e-002,
          -6.21870756e-002, -5.12815416e-002, -4.11115810e-002,
          6.63749129e-003, 1.06903268e-002, -3.58840451e-003,
          -1.09197693e-002, -6.16393099e-003, 1.73754878e-002,
          1.03383148e-002, -1.47256786e-002, -3.29655297e-002,
          6.98953960e-003, -2.47804401e-003, 7.02309189e-004,
          5.67823974e-003, -1.56979822e-002, -5.20845177e-004,
          -1.78947877e-002, -3.81074287e-002, 8.15823860e-003,
          4.48461510e-002, 4.32170294e-002, 9.67771374e-003,
          -6.53431797e-003, -7.19064102e-003, -8.67005438e-003,
          9.01561417e-003, -4.95541375e-004, -1.65883452e-002,
          -2.51939539e-002, -3.80957611e-002, -2.34203171e-002,
          -3.55860218e-002, -1.39998347e-002, -3.09677292e-002,
          -5.26416861e-002, -2.63451263e-002, 1.61732105e-003,
          3.92055549e-002, 2.11761389e-002, -1.49812372e-002,
          -3.46320681e-002, -1.88529398e-002, -3.62928770e-002,
          -3.63221429e-002, 7.64423236e-003, -3.25865410e-002,
          -2.10636444e-002, -4.00607884e-002 ]
   decision_functions:
      -
         sv_count: 1
         rho: 7.6199058555095578e-001
         alpha: [ 1. ]
