%YAML:1.0
opencv_ml_svm:
   format: 3
   svmType: EPS_SVR
   kernel:
      type: LINEAR
   C: 1.0000000000000000e-002
   p: 1.0000000000000001e-001
   term_criteria: { epsilon:1.0000000000000000e-003, iterations:1000 }
   var_count: 3038
   sv_total: 1
   support_vectors:
      - [ -1.13914059e-002, -7.12008029e-003, 2.50397949e-004,
          1.93362422e-002, 2.00507119e-002, 8.71129893e-003,
          1.95093278e-004, -2.15891562e-003, -3.79945477e-003,
          -1.34055065e-002, -1.09269423e-002, -9.63898841e-003,
          -5.67957899e-003, 4.99989474e-005, 1.11280060e-004,
          -2.27392372e-003, -6.21281890e-003, -7.93603621e-003,
          -1.80014446e-002, -1.45335095e-002, -8.40580463e-003,
          9.21392161e-003, 1.02820694e-002, 6.25657756e-003,
          -1.47016649e-003, -7.34378584e-003, -9.34190955e-003,
          5.18650934e-003, -9.12722107e-003, 4.79999837e-003,
          -1.58680156e-002, -9.53707658e-003, -5.12939552e-003,
          6.15064928e-004, 1.20420353e-002, 1.01195360e-002,
          1.77617802e-003, -1.06535736e-003, -4.08204552e-003,
          3.05152382e-003, -5.79617312e-003, -3.64128617e-003,
          -5.27198380e-003, -6.90121809e-003, -9.78502631e-003,
          -3.40697425e-003, -3.81750683e-003, -6.17741235e-003,
          -8.07375833e-003, -9.35662817e-003, -7.06789689e-003,
          -4.23012488e-003, 2.63697747e-003, -2.82796449e-003,
          -1.40718126e-003, -4.46050754e-003, -9.32429358e-003,
          -3.22208577e-003, 1.14884169e-003, -1.06328912e-002,
          1.05153548e-003, -1.28186094e-002, -4.77896491e-003,
          -6.17648533e-004, 5.01001894e-004, 4.64287912e-003,
          -2.22331437e-004, -1.33316425e-004, -4.38030198e-004,
          -2.21273606e-003, 6.51274761e-003, -8.10235273e-004,
          -2.93703913e-003, 7.22193392e-004, -1.82344171e-003,
          -1.16943866e-002, -1.26754642e-002, -1.30827976e-002,
          -1.26959635e-002, -1.25099802e-002, -4.20186250e-003,
          -1.32410764e-003, 1.99283194e-003, 2.22010212e-003,
          -8.25188123e-003, -1.20485798e-002, -1.30942119e-002,
          -1.44829033e-002, -5.00130374e-003, -4.53767180e-003,
          -1.34253353e-002, 2.48641678e-004, -1.25747407e-002,
          -7.19367061e-003, -1.95061730e-003, -3.08879465e-003,
          3.87185044e-003, -1.80011138e-003, 2.38891761e-003,
          2.01724051e-003, 2.11387314e-003, 9.90851130e-003,
          -1.12013317e-004, -2.89789541e-003, 5.45546040e-003,
          1.07665062e-002, 4.44334495e-004, -6.06537424e-003,
          -8.17566644e-003, -1.48145175e-002, -1.94122642e-002,
          -5.93037019e-003, -2.82592210e-003, 3.57285049e-003,
          1.23616727e-002, 3.54560587e-004, -3.34334234e-003,
          -5.50918886e-003, -1.19101657e-002, -7.78668188e-003,
          3.39737715e-004, -1.02463746e-002, 2.82185874e-003,
          -6.37097191e-003, -4.87039378e-003, -1.31360197e-003,
          -3.70174390e-003, 2.09075259e-003, -3.50963511e-003,
          7.79732945e-004, 9.96983261e-004, 4.32178611e-003,
          5.11368085e-003, -5.84223308e-003, -7.00183818e-003,
          4.25387826e-003, 2.11108499e-003, -2.18874635e-003,
          -1.60149147e-003, 5.46749076e-003, 3.87812662e-003,
          -7.33468076e-003, -8.26285779e-003, -7.03112083e-003,
          9.95621784e-004, 2.54540332e-003, -3.55161051e-003,
          -5.98459796e-004, 6.61249086e-003, 5.74643770e-003,
          -2.21574548e-004, 4.01681755e-003, -7.30302790e-003,
          3.90328816e-003, -4.55366820e-003, -5.78931253e-003,
          -4.56460658e-003, -4.38984856e-003, 1.71039166e-004,
          -2.84074084e-003, -1.03134057e-003, 1.40345586e-003,
          5.95885189e-003, 2.38148379e-003, -7.34427338e-003,
          -7.26853823e-003, -4.05850261e-003, -6.38525747e-003,
          -1.36906290e-002, -1.21800192e-002, 3.98057606e-003,
          1.57768242e-002, 3.24821169e-003, -9.80156194e-003,
          -9.59188677e-003, -7.70177040e-003, -5.72725432e-003,
          -1.26171242e-002, -1.15665942e-002, 5.68720978e-003,
          1.82825346e-002, 6.56419061e-003, 3.08176549e-003,
          -1.01682851e-002, 5.48377284e-004, -1.07257636e-002,
          -5.02953725e-003, -3.68082151e-003, 1.41653384e-003,
          2.87517183e-003, 3.06090247e-003, -1.38672139e-003,
          5.82105247e-004, 9.58204153e-004, -1.74853182e-003,
          -2.81777256e-003, -2.87171570e-003, -1.02035590e-002,
          -1.08516216e-002, -1.51434075e-002, -1.85384434e-002,
          -9.08598676e-003, 8.75281449e-003, 4.01923992e-003,
          -4.20275377e-003, -5.32318046e-003, -8.12602229e-003,
          -6.89682970e-003, -9.32384934e-003, -1.75109040e-002,
          -6.92234794e-003, 7.48363975e-003, 3.87543347e-003,
          2.16641417e-003, -1.54679958e-002, -3.72741488e-004,
          -1.44650256e-002, -6.39589317e-003, 2.92713463e-004,
          4.61023441e-003, 1.21633559e-002, 1.31331412e-002,
          6.83022849e-003, 5.68739418e-003, 1.48227811e-003,
          -2.04982702e-003, -9.77619365e-003, -1.30825592e-002,
          -1.40765188e-002, -6.39394484e-003, 3.60360905e-003,
          1.71290303e-003, 3.30183539e-003, 1.16625289e-003,
          4.43915662e-004, -1.18530551e-002, -1.09114312e-002,
          -8.28291383e-003, 3.62371211e-003, 1.02345468e-002,
          7.98773579e-003, 8.57284945e-003, 3.27377394e-003,
          2.90952099e-004, 3.11793783e-003, -5.79959108e-003,
          9.11071897e-003, -5.17847575e-003, -3.76741495e-003,
          -1.49371405e-003, 1.82409608e-003, 7.04174722e-003,
          8.42908025e-003, 2.53462559e-003, 2.59837694e-003,
          3.45137450e-005, 9.52147134e-003, 5.42169018e-003,
          -1.12171809e-003, -1.21971536e-002, -9.75951832e-003,
          -2.41088029e-003, -4.18104784e-004, 8.88409209e-004,
          -2.77141039e-003, -3.73872602e-003, 1.55184674e-003,
          -7.16760522e-004, -9.21292603e-003, -4.24123695e-003,
          2.22109118e-003, 2.47267052e-003, 3.59285390e-003,
          -2.35228613e-003, 6.40836963e-003, 4.81012510e-004,
          -2.95688072e-003, 5.29299723e-003, -2.52704322e-003,
          -9.18781210e-004, 7.00842403e-003, -1.49286643e-004,
          2.61105038e-003, 8.55943770e-004, 5.62334782e-004,
          2.44153687e-003, 1.59052783e-004, 1.48214009e-002,
          1.44968042e-002, -9.35011019e-004, -7.81130465e-003,
          -9.32279136e-003, -7.43535068e-003, -6.58620475e-003,
          -7.64644612e-003, -1.07396236e-002, -1.44435009e-002,
          6.75449707e-003, 5.04041091e-003, -7.15282653e-003,
          -7.74642080e-003, -6.48867246e-003, -5.70800621e-003,
          -4.75278823e-003, -1.02383262e-002, 5.04527998e-004,
          -4.53086151e-003, -6.84383651e-003, 1.65769155e-003,
          -1.14016142e-003, -5.54410089e-003, 5.35103725e-003,
          -3.26590054e-003, 3.37654375e-003, -9.56400181e-004,
          1.98349776e-003, 5.53970411e-003, 8.28330964e-003,
          1.92509368e-002, 1.40323844e-002, 1.48534868e-003,
          -5.14019700e-003, -7.68752210e-003, -7.13143032e-003,
          -6.91660726e-003, -8.11700709e-003, -1.45418718e-002,
          -2.18757316e-002, 3.35244392e-003, 6.35296851e-003,
          -6.84183091e-003, -5.04621910e-003, -7.07373628e-003,
          -4.41960804e-003, -2.51528970e-003, -6.16079057e-003,
          -1.54915557e-003, -6.66810025e-004, -5.70208440e-003,
          -7.60649797e-004, -3.18186288e-003, 5.49121341e-003,
          6.98652258e-003, -2.66233878e-003, 2.36632302e-003,
          -6.65816059e-003, -4.71186312e-003, 2.63399561e-003,
          1.40569173e-002, 1.70999505e-002, 6.02315227e-003,
          -2.62661790e-003, -5.26641402e-003, -1.58379879e-002,
          -1.06913196e-002, -4.34714789e-003, -3.34838347e-004,
          1.96136883e-003, -5.05164964e-003, 7.14175310e-003,
          3.74390557e-003, -7.34475674e-003, -1.29425153e-002,
          -1.39980102e-002, -8.71544704e-003, 2.29232805e-003,
          1.30180167e-002, 1.24784522e-002, 1.94604264e-003,
          -2.45742896e-003, 1.97086413e-003, -2.19905539e-003,
          2.99020531e-003, 2.26344075e-003, -8.93849006e-004,
          3.00699729e-003, -6.54658827e-004, -2.16789986e-003,
          1.27685291e-003, 1.08968373e-002, 1.11090392e-002,
          -4.66648303e-003, -8.65228754e-003, -9.29052196e-003,
          -1.85643267e-002, -1.92649290e-002, -1.25758322e-002,
          -1.04492193e-003, 1.56967621e-002, 9.67844483e-003,
          1.94259210e-005, -5.53344563e-003, -9.74678155e-003,
          -1.56712420e-002, -1.82165746e-002, -1.35606704e-002,
          8.23214068e-004, 2.29506064e-002, 1.98930260e-002,
          5.75268059e-004, -3.43822665e-003, -1.46054360e-003,
          -5.50854951e-003, 3.35710729e-003, 8.89795017e-004,
          2.45699426e-003, 1.60061626e-003, 9.50461021e-004,
          -1.82740536e-004, 3.95665970e-003, 7.17186742e-003,
          4.73837694e-003, -3.99931101e-003, -9.01168399e-003,
          -1.12889772e-002, -1.35282734e-002, -1.65754743e-002,
          -1.89958196e-002, -1.92437749e-002, 2.17519957e-003,
          6.88229455e-003, 1.32153160e-003, -6.88129943e-003,
          -8.11500475e-003, -1.12746367e-002, -1.48267886e-002,
          -1.82719976e-002, -1.41586075e-002, 6.81456923e-003,
          1.14735663e-002, -2.56431196e-003, -8.75469018e-003,
          -5.96104516e-003, -1.03659984e-002, -1.67020783e-003,
          3.42509430e-003, 6.12418819e-003, 1.35942576e-002,
          1.26682250e-002, 4.07949043e-003, -2.03071581e-003,
          -6.91241072e-003, -6.14243327e-003, -9.92584787e-003,
          -1.42131513e-002, -9.20085981e-003, 7.26240501e-003,
          1.15677491e-002, 9.37137660e-003, 9.93768126e-003,
          4.42185299e-003, 2.98879086e-003, -9.60887503e-003,
          -1.00222360e-002, -2.70658033e-003, 1.51051953e-002,
          1.61045417e-002, 1.11194644e-002, 7.16149062e-003,
          -1.59040303e-003, -3.07722436e-003, 8.19897046e-004,
          1.79809693e-003, 5.63328620e-003, 8.41058046e-003,
          -6.09272742e-004, 2.55391700e-003, 3.33054690e-003,
          7.07128877e-003, 8.60057026e-003, 2.43480923e-003,
          -1.75901107e-003, -5.05058235e-003, 5.24934707e-003,
          7.68020423e-003, -3.14894156e-003, -9.83564090e-003,
          -1.68986619e-003, 4.09640837e-003, 5.94892167e-003,
          3.34875681e-003, -5.47029660e-004, -2.21233000e-003,
          4.17310046e-003, -2.75780130e-005, -5.95968217e-003,
          2.40442459e-003, 7.31851952e-003, 6.47337222e-003,
          1.73264986e-003, -5.38321119e-003, 3.38861998e-003,
          -2.38227149e-004, 5.01414121e-004, 5.02975425e-003,
          6.70989137e-003, 4.75930888e-003, 7.17914943e-003,
          -1.49074488e-003, 2.39001238e-003, 1.91381201e-003,
          1.43774645e-003, 7.42000819e-004, -1.34117261e-003,
          1.17806802e-002, 1.71102434e-002, -3.03387037e-003,
          -1.35795614e-002, -8.21947958e-003, -2.52993545e-003,
          -9.49955836e-004, -2.27135816e-003, -4.54812776e-003,
          -9.07650869e-003, 1.00507578e-002, 2.56682653e-003,
          -1.38983587e-002, -6.18882431e-003, -1.80104841e-003,
          2.28361125e-004, -1.51045935e-003, -5.81976818e-003,
          2.97577679e-003, -2.54675583e-003, -3.76911857e-003,
          2.57173716e-003, 3.87247000e-003, 3.51383846e-004,
          5.32783917e-004, -9.39757563e-003, -3.05841025e-003,
          -1.90811080e-003, 2.41656075e-004, 4.32605390e-003,
          7.36587448e-003, 1.76046211e-002, 1.95958298e-002,
          5.11788938e-004, -1.45868072e-002, -1.45393135e-002,
          -1.22295842e-002, -6.93125324e-003, -6.87494176e-003,
          -8.41946341e-003, -1.63971726e-002, 9.46167763e-003,
          2.71457573e-003, -2.18246449e-002, -1.49661629e-002,
          -1.31856138e-002, -6.50309678e-003, -2.40681646e-003,
          -1.03211519e-003, 1.71057088e-003, -3.65908816e-003,
          -5.69930207e-003, -4.78611281e-003, -6.50877552e-003,
          7.71927787e-003, 6.71767164e-003, -7.93085806e-003,
          -5.91419358e-003, -9.62819625e-003, -7.45761301e-003,
          2.52093683e-004, 1.49498815e-002, 2.04785187e-002,
          1.42942593e-002, -1.24769565e-003, -1.27623947e-002,
          -1.52282333e-002, -8.61915946e-003, -3.51901143e-003,
          -3.73161840e-003, -2.81144911e-003, -6.96425652e-003,
          1.45638436e-002, 4.51110443e-003, -1.90448500e-002,
          -1.57507956e-002, -1.63125359e-002, -1.08372560e-002,
          -3.35423462e-003, 9.92601924e-003, 1.35522513e-002,
          -2.00572377e-003, -3.31483711e-003, -1.66502618e-003,
          -3.10377707e-003, 4.68766177e-003, 4.52254945e-003,
          -5.74681675e-004, 1.15171215e-003, -2.75868992e-003,
          -5.98923909e-003, -6.68341573e-003, 2.78003584e-003,
          5.16668381e-003, 8.51334407e-005, -6.40543643e-003,
          -9.48250014e-003, -1.28290337e-002, -8.04423913e-003,
          -1.01196324e-003, -1.35450636e-003, 7.68726971e-003,
          8.10952019e-003, 6.45161700e-003, -1.49625237e-003,
          -9.58706718e-003, -1.07814241e-002, -9.31455661e-003,
          -6.84861327e-003, -7.56920176e-003, 8.27184599e-003,
          1.02107385e-002, -1.04128802e-003, -2.18637357e-003,
          -2.69835093e-003, -3.94658279e-003, 1.01707445e-003,
          -1.85305031e-003, -8.62932302e-006, -4.26515413e-004,
          -1.31500675e-003, -6.20623643e-004, 7.18242140e-004,
          3.29183554e-003, -3.49364826e-004, -1.94507779e-003,
          -5.27921226e-003, -5.60822617e-003, -6.11256156e-003,
          -6.15128549e-003, -4.06278064e-003, -6.42787712e-003,
          5.60668716e-003, 1.06790718e-002, 1.15270121e-003,
          -6.24265056e-003, -5.46814129e-003, -6.10667234e-003,
          -7.04232976e-003, -4.61625680e-003, -5.32270409e-003,
          7.40399864e-003, 9.26022418e-003, -1.62178371e-003,
          -1.35905354e-003, -2.27221590e-003, -3.63156456e-003,
          -2.37355684e-003, 9.67879256e-004, 7.09604891e-003,
          1.24698319e-002, 6.22313283e-003, 2.10650894e-003,
          1.74887071e-003, -5.53206168e-003, -6.26391731e-003,
          -9.75969527e-003, -1.08007127e-002, -4.71647596e-003,
          1.24099758e-002, 1.77059490e-002, 1.84621774e-002,
          1.56979188e-002, 6.06785482e-003, 4.06418415e-003,
          -9.82411671e-003, -8.43288004e-003, 2.45682383e-003,
          1.86824426e-002, 1.65168867e-002, 1.58020332e-002,
          1.34189809e-002, 3.93849419e-004, -1.62656303e-003,
          3.57573549e-003, 7.34621147e-003, 5.13526751e-003,
          1.48543287e-002, 1.28534203e-003, 1.26497878e-003,
          4.72648768e-003, 5.70104131e-003, 3.26888170e-003,
          -1.84761429e-005, -2.61218892e-003, -6.57703867e-003,
          -4.45612660e-003, 6.33183634e-004, -5.82958991e-003,
          -8.30754638e-003, 3.92705156e-003, 1.10415593e-002,
          1.24684097e-002, 9.44728963e-003, 3.61835607e-003,
          7.82278134e-004, -2.19463720e-003, -3.64015810e-003,
          -2.74838810e-003, 6.52825972e-003, 9.95451305e-003,
          9.62402206e-003, 5.75333741e-003, -3.07853264e-003,
          -3.33930459e-003, 2.15111650e-004, 9.87528008e-004,
          4.72488813e-003, 8.38601217e-003, 3.58222285e-003,
          -1.34110043e-003, -1.89627742e-003, 1.42848061e-003,
          8.57840059e-004, -1.71225402e-005, 1.05272850e-003,
          -4.63731383e-004, 2.99956976e-003, 1.33559313e-002,
          -1.18044484e-003, -9.54327174e-003, -3.61718214e-003,
          3.10591306e-004, 2.70619988e-003, 2.22030981e-003,
          -9.79855773e-004, -3.01974406e-003, 5.61558921e-003,
          -1.18912826e-003, -9.53767542e-003, -2.10695877e-003,
          3.25547036e-004, 2.30143918e-003, 2.72808410e-003,
          -1.39577989e-003, 1.37834795e-004, -1.72551803e-003,
          -2.78852601e-003, 3.51410592e-003, 4.04289272e-003,
          -9.08184447e-005, -1.05596175e-002, -1.30556831e-002,
          -4.72562108e-003, -2.19999137e-003, -1.08242326e-003,
          2.29521911e-003, 3.56708886e-003, 7.07240030e-003,
          1.74014047e-002, 5.09205181e-003, -8.56253225e-003,
          -8.00291821e-003, -6.68468326e-003, -3.93795641e-003,
          -3.78704816e-003, -4.64413734e-003, -7.36714993e-003,
          6.24667900e-003, -3.76863917e-003, -1.99561212e-002,
          -1.15446299e-002, -8.55735783e-003, -5.01440419e-003,
          -1.42574974e-003, -1.09029992e-003, 3.50561255e-004,
          -3.91519070e-003, -4.77969600e-003, -4.49926266e-003,
          -5.31886751e-003, 5.46483323e-003, -2.65302905e-003,
          -1.08220074e-002, -6.72937185e-003, -4.88433521e-003,
          -2.23262096e-003, 7.65666692e-003, 1.43677611e-002,
          1.34752002e-002, 1.27070937e-002, -5.90257172e-004,
          -5.69490017e-003, -4.10243263e-003, -3.19420942e-003,
          -2.73062661e-003, -3.65138706e-003, -4.79050446e-003,
          -5.15623717e-003, 1.08506614e-002, -4.14719759e-003,
          -1.43847158e-002, -9.37655848e-003, -7.59472093e-003,
          -4.66183573e-003, 4.16141609e-003, 9.15306993e-003,
          8.65738839e-003, -1.31936523e-003, -1.00944319e-003,
          7.30722037e-004, -8.02693976e-005, 4.05365648e-003,
          1.26085698e-003, -3.07129906e-003, -2.14220071e-003,
          -2.02929205e-003, -3.29669775e-003, 1.95546565e-003,
          3.32796830e-003, 4.16853046e-003, 1.11744076e-003,
          -5.88674331e-003, -5.79615822e-003, -3.30681913e-003,
          -2.38964939e-003, -1.09513302e-003, -1.68123888e-003,
          8.08053068e-004, 4.01533907e-003, 5.74809220e-003,
          -4.19460284e-003, -8.36393517e-003, -4.95335599e-003,
          -4.17343015e-003, -4.32760082e-003, 5.56957908e-004,
          4.19080397e-003, 4.78894031e-003, 6.79154007e-004,
          -9.14346834e-004, -2.23175669e-003, -2.24135607e-003,
          3.72346630e-003, -7.54430797e-003, -6.56673545e-003,
          -4.18089097e-003, -4.35502827e-003, -2.95286416e-003,
          2.77196849e-003, 5.55080641e-003, 4.45378428e-005,
          -4.03774623e-003, -6.10828446e-003, -4.05014120e-003,
          -7.84796895e-004, -2.11733254e-003, -1.87665038e-003,
          -1.32167269e-003, 1.03396876e-002, 1.64667591e-002,
          2.02748808e-003, -1.09133217e-002, -9.87508800e-003,
          -4.83213412e-003, -6.01982744e-003, -4.47738729e-003,
          1.74994161e-003, 1.55281387e-002, 1.32282088e-002,
          -4.15801798e-004, -1.28683529e-003, 1.70160492e-004,
          -1.76695851e-003, -2.96519184e-003, -8.03889125e-004,
          2.09754449e-003, 7.46471854e-003, 4.63453494e-003,
          1.08690867e-002, 1.19810328e-002, 4.77817282e-003,
          -1.39685185e-003, -9.27120261e-003, -9.81585402e-003,
          -5.01383794e-003, 7.24701025e-003, 1.69937424e-002,
          2.43708324e-002, 2.08230224e-002, 7.15106493e-003,
          6.53157337e-003, -1.01204114e-002, -9.45763942e-003,
          -1.94120931e-003, 9.65392403e-003, 1.40599422e-002,
          2.56928075e-002, 2.14880370e-002, 9.27232578e-003,
          4.23528068e-003, 1.02596087e-002, 1.08791851e-002,
          9.71224159e-003, 1.42503995e-002, 1.10059313e-003,
          1.01728481e-003, 2.57627666e-003, 5.02950558e-003,
          5.20864269e-003, 6.56521227e-003, 7.07218470e-003,
          2.14797608e-003, -4.57982766e-003, -2.88124173e-003,
          -7.77440472e-003, -8.73964466e-003, 2.03127321e-003,
          9.33677610e-003, 1.80293638e-002, 1.66513007e-002,
          6.91589760e-003, 5.11116162e-003, -5.17730135e-003,
          -5.98395150e-003, -4.93380101e-003, 4.31801192e-003,
          1.03375269e-002, 1.78048294e-002, 1.66396573e-002,
          6.61951443e-003, -9.93258218e-005, 3.68254981e-003,
          4.32710396e-003, 1.09749977e-002, 1.15707098e-002,
          -2.34853732e-003, -5.86852664e-003, -2.27066153e-003,
          1.47685129e-003, 1.97186973e-003, 1.86697242e-003,
          4.26446646e-003, 2.24196003e-003, -4.65739664e-004,
          1.02510387e-002, 2.73792888e-003, -4.57912590e-003,
          2.50274898e-004, 1.31800189e-003, 5.13563491e-003,
          7.33920885e-003, 1.69985672e-003, -1.48476893e-003,
          2.00083363e-003, -1.57135655e-003, -3.88825173e-003,
          1.68039929e-003, 2.31709913e-003, 5.50586078e-003,
          8.46470334e-003, 3.52641824e-003, -1.78651861e-003,
          -5.97794315e-005, -8.58842570e-004, 5.71181905e-003,
          6.30200608e-003, -3.20094335e-003, -1.73767824e-002,
          -9.77844093e-003, -1.44131063e-003, -1.09455350e-003,
          -9.92445508e-004, 2.90167169e-004, 1.30882673e-003,
          5.18719375e-004, 1.31132193e-002, 9.21666902e-003,
          -5.26412368e-005, -3.70457477e-004, -1.94052421e-003,
          -1.18203450e-003, -7.02386897e-004, -2.15855474e-003,
          -4.66891751e-003, 1.95052021e-003, -5.97950257e-003,
          -8.85431934e-003, -1.49737776e-003, -2.67422246e-003,
          -2.08288664e-003, -3.70830123e-004, -7.35165959e-004,
          -3.56648909e-003, -2.50267889e-003, -2.88531254e-003,
          -1.63223618e-003, -2.64931261e-003, 5.82312327e-003,
          -4.00400674e-003, -8.26015230e-003, -2.84873275e-003,
          -1.84192357e-003, 2.79388594e-004, 4.36914060e-003,
          8.24973453e-003, 7.79022137e-003, 8.37271195e-003,
          3.15240747e-003, 9.94147034e-004, 3.69407167e-003,
          -2.34255291e-004, -9.41706414e-004, -1.94268022e-003,
          -3.11414804e-003, -2.97580007e-003, 9.77841206e-003,
          -2.49921763e-003, -6.81082997e-003, 9.69182875e-004,
          -2.00690562e-003, -6.31853938e-004, 2.42932793e-003,
          5.17094648e-003, 4.90496354e-003, 1.01484335e-003,
          4.15308605e-004, 3.35909869e-003, 3.01785953e-003,
          9.48228699e-004, -1.23660162e-003, -2.30419729e-003,
          -1.47794909e-003, -1.72894122e-003, -3.08920629e-003,
          4.20924276e-004, 4.57893405e-003, 5.89682534e-003,
          1.46581908e-003, -4.63239104e-003, -4.70137922e-003,
          2.98833125e-003, -7.87131212e-005, -7.50590989e-004,
          -6.94492541e-004, -1.14473409e-003, 1.55253289e-003,
          3.28275608e-003, -4.64671897e-003, -6.16172701e-003,
          1.58473838e-003, -1.61854399e-003, -3.56857246e-003,
          -9.06482528e-005, 3.70825990e-003, 4.90991585e-003,
          8.30747362e-004, 8.12081620e-004, -1.58343767e-003,
          -1.93914596e-003, 2.19291286e-003, -4.39413032e-003,
          -6.64808881e-003, -5.15923649e-003, -7.60809472e-003,
          -5.65767521e-003, 6.60931226e-004, 7.71730673e-003,
          8.32806900e-003, 3.96665512e-003, -4.81627323e-003,
          -3.40950931e-003, 2.78024049e-003, -5.28999022e-004,
          -5.05516829e-004, -2.92339479e-004, 8.47321469e-003,
          1.35748219e-002, 8.74041766e-003, -3.46028805e-003,
          -3.94957187e-003, -1.88127498e-003, -7.07171345e-003,
          -5.49593661e-003, 9.30474780e-004, 1.61066707e-002,
          1.87445413e-002, -1.57191796e-004, 8.39758199e-004,
          1.74541422e-003, 1.66107877e-003, -2.35479019e-004,
          -7.47791491e-004, 1.01462379e-003, 1.87615072e-003,
          2.64598615e-003, 1.36638181e-002, 2.47170217e-002,
          1.72881428e-002, 3.32978298e-003, -9.61981900e-003,
          -1.34954238e-002, -8.23865738e-003, 1.61760863e-006,
          1.08122164e-002, 1.75926518e-002, 1.56667400e-002,
          7.31423404e-003, 5.73486276e-003, -7.33886426e-003,
          -1.27656143e-002, -6.64516212e-003, 1.29807752e-003,
          1.11242589e-002, 2.42163446e-002, 2.78489422e-002,
          2.05257628e-002, 9.39333718e-003, 1.12549458e-002,
          8.48348904e-003, 1.41447634e-002, 8.22256971e-003,
          1.68108183e-003, 5.22692513e-004, 3.86719912e-004,
          1.98447891e-003, 2.36653653e-003, 1.00842835e-002,
          1.70763619e-002, 1.38771757e-002, -1.95241795e-004,
          -6.67266734e-003, -7.20061641e-003, -1.22474758e-002,
          -3.05362465e-003, 5.38167637e-003, 1.57072898e-002,
          1.67057943e-002, 7.07572699e-003, 6.17861794e-003,
          -8.33476335e-003, -6.56255893e-003, -9.64772142e-003,
          -1.15554605e-003, 6.61400054e-003, 2.04654839e-002,
          2.46078316e-002, 1.76711604e-002, 5.55822486e-003,
          3.63041786e-003, 4.01347829e-003, 1.39771318e-002,
          1.12161357e-002, -5.98939694e-003, -6.14741491e-003,
          -2.84875510e-003, 1.12398033e-004, 5.41159709e-004,
          4.16121120e-003, 7.59908138e-003, 5.41271083e-003,
          2.30092043e-003, 8.00586306e-003, 5.54290880e-003,
          -4.02139314e-003, -1.33452564e-003, -1.19180605e-003,
          5.47605008e-003, 8.61989427e-003, 5.72624209e-004,
          -2.43916572e-003, -1.92739023e-003, -1.54083740e-004,
          -4.57106251e-003, -1.11283944e-003, -5.55248174e-004,
          7.35774497e-003, 1.17764603e-002, 5.55505278e-003,
          1.68360013e-004, -1.60837924e-004, 2.51292309e-004,
          5.44207171e-003, 5.95660647e-003, -4.01437329e-003,
          -1.12919677e-002, -5.95256872e-003, -7.71213905e-004,
          -1.50986144e-003, -5.43568167e-004, 4.66573169e-004,
          1.29922188e-003, 1.25550304e-003, 1.31157469e-002,
          1.04137016e-002, 2.93540931e-003, 2.50634085e-003,
          -9.94526199e-004, -2.23145005e-003, -1.90308504e-003,
          -5.57963550e-003, -8.41108151e-003, -3.07288021e-004,
          -1.35318458e-003, -2.64461688e-003, 1.86693820e-003,
          -2.48224521e-003, -2.69378722e-003, -1.40161801e-003,
          -4.11838852e-003, -6.37576589e-003, -1.83296727e-003,
          -2.10849429e-003, -7.68148748e-004, -5.75177255e-004,
          9.51502565e-003, 5.06057928e-004, -2.72486894e-003,
          -1.32522732e-003, -6.30289898e-004, 8.21679248e-004,
          2.07584188e-003, 2.95132189e-003, 4.56335209e-003,
          6.07619155e-003, 4.31537488e-003, 3.85918329e-003,
          7.30874809e-003, -1.82633777e-003, -4.24503535e-003,
          -3.31662828e-003, -4.90626600e-003, -2.21327832e-003,
          1.12654921e-002, 2.80458760e-003, 5.19248948e-004,
          5.33381663e-003, -2.21114070e-003, -3.14081647e-003,
          -1.24663056e-003, -1.89121685e-003, 2.64844298e-003,
          2.49104318e-003, 5.99978550e-004, 3.28272348e-003,
          3.43365851e-003, -6.53552765e-004, -4.46426962e-003,
          1.43132653e-004, 2.58863135e-003, -1.10432669e-003,
          -1.25796208e-003, 2.33082916e-004, 3.07465694e-003,
          9.71716922e-003, 5.46456268e-003, -3.34111322e-003,
          -9.87481908e-004, 8.14374536e-003, -1.62931904e-003,
          -3.98560474e-003, -1.92265597e-003, -1.66798313e-003,
          -1.63396588e-003, 6.28584856e-003, -3.28007294e-003,
          4.99771675e-004, 8.85829516e-003, -1.81612163e-003,
          -4.71088476e-003, -1.49251730e-003, 1.48745871e-003,
          7.59255514e-003, 3.78620316e-004, 2.12388090e-003,
          9.96030518e-004, -3.32257187e-004, -9.75570816e-004,
          -4.26799105e-003, 3.40193976e-003, 6.06491975e-003,
          -1.15037488e-003, -1.30232933e-004, 1.38256187e-003,
          5.65914763e-003, 1.07445614e-002, 5.79218287e-003,
          9.38593177e-004, 2.50390056e-003, 6.56657340e-003,
          -2.82101287e-003, -4.33814200e-003, -1.16985256e-003,
          3.59138777e-003, 4.68301680e-003, 9.14241001e-003,
          2.29084608e-003, 7.28363916e-003, 1.06536159e-002,
          -2.46004853e-003, -3.33138090e-003, 8.65018868e-004,
          9.14193131e-003, 1.41231203e-002, 2.31258129e-003,
          4.43142094e-003, 4.17050906e-003, 6.28008973e-003,
          4.24960366e-004, 6.46859698e-004, 1.12904340e-003,
          1.65192795e-003, 7.28939008e-003, 1.53227672e-002,
          2.73879878e-002, 2.00630315e-002, 2.06781342e-003,
          -1.19871087e-002, -1.27084507e-002, -4.31992905e-003,
          6.43500779e-003, 1.05605684e-002, 9.64592583e-003,
          1.35369133e-002, 7.09013222e-003, 5.29039185e-003,
          -8.37953296e-003, -9.36505478e-003, -3.48873902e-003,
          7.12884543e-003, 1.62400138e-002, 2.03971323e-002,
          3.03028934e-002, 2.22696550e-002, 7.22673209e-003,
          1.17322346e-002, 6.52794866e-003, 1.91634819e-002,
          9.49347205e-003, 8.99740437e-004, -1.28125050e-003,
          -8.55830614e-004, -3.51907511e-004, 3.63296922e-003,
          1.15194377e-002, 1.88534539e-002, 1.47757642e-002,
          5.64608397e-003, -7.90490117e-003, -4.98798350e-003,
          -3.03128362e-003, 5.02510369e-003, 8.49585328e-003,
          1.08217699e-002, 1.40627706e-002, 5.70143852e-003,
          5.74819744e-003, -8.36135447e-003, -5.31184347e-003,
          -2.12184992e-003, 4.74953745e-003, 1.20045301e-002,
          1.80364568e-002, 2.43688077e-002, 1.66210122e-002,
          1.04540344e-002, 4.62261215e-003, 3.15062911e-003,
          1.94285698e-002, 1.37012973e-002, -6.62020547e-003,
          -2.90255237e-004, -1.02791516e-003, -1.45857665e-003,
          4.05003579e-004, 4.26857779e-003, 6.07548235e-003,
          4.62410552e-003, 7.45763723e-003, 1.03126308e-002,
          1.00971255e-002, 2.71844026e-003, 3.29113402e-003,
          3.00195697e-003, 4.11150325e-003, 4.84550279e-003,
          -1.81318063e-003, 1.17713258e-004, 1.33576046e-003,
          8.23233370e-003, 2.33991630e-003, 1.96663779e-003,
          3.52319749e-003, 6.04845770e-003, 6.63782470e-003,
          2.06379918e-003, 6.65640878e-003, 3.32866237e-003,
          2.31710752e-003, 9.77668911e-003, 8.20254441e-003,
          -2.31264741e-003, 1.02965010e-003, -7.90122373e-004,
          -1.03957439e-003, -4.08894848e-004, 1.28533784e-003,
          1.14817824e-003, 5.40939218e-004, 3.81699926e-003,
          1.33763002e-002, 1.24497758e-002, 9.04554781e-003,
          7.59100914e-003, -2.64070253e-003, -1.05748028e-002,
          -6.86299289e-003, -9.21976659e-003, -2.77142762e-003,
          1.38879044e-003, 1.12183597e-002, 8.00884329e-003,
          6.14856742e-003, -1.94283365e-003, -8.44350923e-003,
          -5.34263486e-003, -8.34953319e-003, 1.68716279e-003,
          2.83004506e-003, 3.61381040e-004, 2.15227343e-003,
          1.09694724e-003, 7.68442452e-003, 4.27739136e-003,
          4.99063917e-003, 1.02353760e-003, 2.89284042e-003,
          9.62892605e-004, -8.12223181e-004, 5.82993438e-004,
          2.79613025e-003, 2.08833301e-003, 1.87305070e-003,
          8.51107575e-003, 1.35614853e-002, -3.72846890e-003,
          -1.02251656e-002, -2.53262976e-003, -3.46924621e-003,
          3.38973966e-003, 7.32274586e-003, 6.80042244e-003,
          1.00679090e-002, 1.06492545e-002, -4.73297172e-004,
          -7.75465043e-003, -3.24461982e-003, -2.83276197e-003,
          6.10599900e-003, 2.86539202e-003, 3.69902258e-003,
          5.33736404e-003, 4.06303117e-003, -5.12737827e-003,
          -8.40120297e-003, 8.67662858e-003, 9.57928784e-003,
          2.67379312e-003, 9.87936626e-004, -1.26323750e-004,
          1.02019566e-003, 6.35915902e-003, 1.47943594e-003,
          -6.51906303e-004, 5.71959047e-003, 1.58481058e-002,
          -2.13502930e-003, -8.28140881e-003, -1.26248167e-003,
          -1.62069732e-003, -1.87547470e-003, -1.84395805e-003,
          -2.44062697e-003, 1.18004074e-002, 1.90287922e-002,
          1.49685575e-003, -5.36895497e-003, -1.32794015e-003,
          -5.64340269e-004, 4.86211665e-003, 1.45152223e-003,
          3.29453382e-003, 2.59780255e-003, 3.43339681e-003,
          -6.58024941e-003, -5.11145964e-003, 1.28773497e-002,
          1.49251372e-002, 2.12868094e-003, 3.45860887e-003,
          1.99862826e-003, 1.64505001e-003, 5.60120447e-003,
          -1.03814877e-003, 1.52936543e-003, 8.18986818e-003,
          1.19134365e-002, 1.78232498e-004, -5.40690124e-003,
          1.55916176e-004, -6.84695842e-004, -1.04915106e-003,
          -2.13882071e-003, 1.32187211e-003, 1.59913879e-002,
          2.02896781e-002, 3.39320442e-003, -2.85658374e-004,
          1.81622780e-003, 6.84054801e-004, 5.06989565e-003,
          5.06533915e-003, 4.86673228e-003, 4.43398207e-003,
          6.72007957e-003, -8.79955827e-004, 2.88408373e-005,
          3.58578633e-003, 2.71542673e-003, 1.15026971e-002,
          9.97858681e-003, 1.72932856e-002, 1.21633736e-002,
          7.82335468e-004, -1.34334210e-002, -1.42617561e-002,
          5.42625785e-003, 1.44293085e-002, 1.78547092e-002,
          8.01820308e-003, 8.72057583e-003, 3.63982213e-003,
          2.10348214e-003, -9.24493093e-003, -8.95836484e-003,
          7.74125895e-003, 1.60188731e-002, 2.33148225e-002,
          1.60754751e-002, 2.21488997e-002, 1.45640802e-002,
          3.02567752e-003, 9.79259796e-003, 4.44636587e-003,
          1.89403649e-002, 9.08995606e-003, 1.13934663e-003,
          -1.53778994e-003, -2.94489833e-003, -1.11608440e-003,
          4.33961395e-003, 5.89115312e-003, 1.06322449e-002,
          7.40872696e-003, 1.01774130e-002, -5.25325909e-003,
          -4.20690048e-003, 6.15330879e-003, 1.05433771e-002,
          1.30661288e-002, 7.46935187e-003, 8.57471023e-003,
          2.57244706e-003, 2.13944493e-003, -5.95730636e-003,
          -4.43742564e-003, 4.39544767e-003, 9.14583448e-003,
          1.47742014e-002, 1.14167808e-002, 1.55866388e-002,
          9.22434032e-003, 1.13358218e-002, 3.44482367e-003,
          4.08257358e-004, 1.84827633e-002, 1.30419414e-002,
          4.10304929e-005, 2.47977790e-003, -2.56478577e-003,
          -3.84241855e-003, -2.05277605e-003, 1.34312140e-003,
          1.27441774e-003, -3.45707958e-004, 1.05080381e-002,
          1.15172649e-002, 9.30663664e-003, 6.33234391e-003,
          6.23117853e-003, 4.79763560e-003, 2.53398740e-003,
          2.25161342e-003, -1.43611396e-003, 5.18418057e-003,
          8.61369632e-003, 1.16556548e-002, 3.75477993e-003,
          2.41790223e-003, 2.45334208e-003, 2.39805831e-003,
          1.81756448e-003, -1.55921676e-003, 1.37708671e-002,
          4.33124369e-003, 2.51974841e-003, 1.08409934e-002,
          7.55592715e-003, 5.28250402e-003, 8.47525708e-003,
          -7.72846222e-004, -5.94678707e-003, -4.83180257e-003,
          1.03925203e-003, 6.48520421e-004, -1.26653514e-003,
          6.14036247e-003, 1.25871263e-002, 7.75210606e-003,
          9.15157516e-003, 9.05838516e-003, -1.34515215e-003,
          -9.75544751e-003, -4.14511794e-003, -4.84604156e-003,
          4.98955371e-003, 8.90198350e-003, 1.46399373e-002,
          8.16999190e-003, 2.91293627e-003, -3.92508553e-003,
          -7.41786556e-003, -3.22832773e-003, -5.66662662e-003,
          1.09560918e-002, 5.79351420e-003, 2.72246310e-003,
          4.28957306e-003, 2.38055922e-003, 6.57613343e-003,
          4.58328845e-003, 8.16055480e-003, -1.51548628e-003,
          3.27883800e-003, 2.73921364e-003, 1.50890625e-003,
          1.05279894e-003, 1.22518686e-003, -1.39238720e-003,
          -2.22720648e-003, 9.16946772e-003, 1.28168985e-002,
          -1.99549971e-003, -9.87872668e-003, -8.84635258e-004,
          -1.88838830e-003, 4.83107287e-003, 4.18201974e-003,
          6.29426353e-003, 1.33552132e-002, 7.78299384e-003,
          2.48524151e-003, -5.77865215e-003, 7.60004739e-004,
          -8.06619995e-004, 6.14318764e-003, 5.01262024e-003,
          1.81104534e-003, 6.56767143e-003, 3.65450117e-003,
          -6.87177619e-003, -7.94756226e-003, 1.19783254e-002,
          7.65296258e-003, 4.42624418e-003, 2.91499309e-003,
          1.67532533e-003, 9.29354748e-004, 1.70297106e-003,
          -3.85546940e-003, -2.81525077e-004, 1.08541204e-002,
          1.50474161e-002, 1.47702638e-003, -4.74064052e-003,
          9.15419951e-004, -1.44288017e-004, -1.54388486e-003,
          -8.10496137e-003, -3.17991385e-003, 1.69137903e-002,
          1.75994653e-002, 6.92957034e-003, -1.04648224e-003,
          2.70590419e-003, 9.77703137e-004, 8.91286239e-004,
          6.64022053e-003, 1.67280238e-003, 5.32037392e-003,
          2.48330412e-003, -1.05783325e-002, -4.80681378e-003,
          1.69450603e-002, 1.31971026e-002, 3.69188841e-003,
          4.63135587e-003, 4.97004157e-003, 1.83520583e-003,
          -6.39937527e-004, -7.70507148e-003, -1.25533752e-005,
          9.25110467e-003, 1.28659355e-002, 4.49633971e-003,
          -9.59662779e-004, 2.17643077e-003, 8.41828078e-005,
          -2.25446513e-003, -1.15873888e-002, -1.82150491e-003,
          1.88099779e-002, 1.89775750e-002, 6.89737499e-003,
          4.01907507e-003, 6.21102052e-003, 2.01438926e-003,
          -1.80316973e-003, 9.43064410e-003, 2.68384605e-003,
          6.86104596e-003, 3.26879788e-003, -7.76501838e-003,
          -2.80693616e-003, 6.26685843e-003, 3.69095709e-003,
          1.57896224e-002, 4.52946825e-003, 7.33963400e-003,
          1.80921878e-003, 1.21147884e-003, -1.52520016e-002,
          -1.05488272e-002, 1.05236145e-002, 1.72223710e-002,
          2.11844370e-002, 6.41050562e-003, 7.09779095e-003,
          2.38251546e-003, -1.05984008e-003, -1.40287634e-002,
          -7.15738535e-003, 1.49836168e-002, 1.92281809e-002,
          2.59313192e-002, 1.08215930e-002, 1.38782067e-002,
          4.23490442e-003, 6.25735440e-004, 6.21968415e-003,
          3.71409929e-003, 1.29208528e-002, 9.21274908e-003,
          -3.98751581e-003, -2.12818594e-003, -1.41109130e-003,
          1.68091341e-004, 7.40201585e-003, 1.35279272e-003,
          2.66780239e-003, -9.43066145e-004, 1.02872001e-002,
          -3.86061962e-003, 6.55563490e-005, 1.05003901e-002,
          1.20140687e-002, 1.43928668e-002, 3.96853639e-003,
          3.38865467e-003, 1.99534581e-003, 7.27562656e-005,
          -9.15619452e-003, -1.29633688e-003, 8.64380412e-003,
          1.18885729e-002, 1.59462616e-002, 5.29625453e-003,
          5.75989857e-003, 1.34131650e-003, 9.94854514e-003,
          1.04448746e-003, -2.11334045e-004, 1.40990065e-002,
          1.14405947e-002, -2.81934021e-003, 1.49597647e-003,
          -4.10815142e-003, -3.46685969e-003, -2.74060224e-003,
          -1.52043323e-003, -4.92260908e-004, -3.35396663e-003,
          1.19614061e-002, 1.12964064e-002, 9.55976546e-003,
          6.18622918e-003, 5.68141276e-003, 4.45943046e-003,
          6.67580403e-004, 1.35584339e-003, 3.36033729e-004,
          4.69275098e-003, 5.98747144e-003, 9.40281991e-003,
          1.99907273e-003, 2.26168102e-003, 1.07933395e-003,
          -5.10193699e-004, 7.69489154e-004, -2.81292968e-003,
          1.61587894e-002, 2.45353417e-003, 1.50739925e-003,
          7.89672974e-003, 6.61707763e-003, 3.27530317e-003,
          7.00822752e-003, -2.10563163e-003, -7.90357683e-003,
          -3.73547128e-003, 1.43225247e-003, 2.21468566e-004,
          -1.28872413e-003, 2.96353875e-003, 7.56413210e-003,
          6.57243887e-003, 5.94982086e-003, 6.77535543e-003,
          1.32092799e-003, -8.99921404e-004, 2.95085972e-003,
          3.07254668e-004, 8.87975749e-003, 2.69560260e-003,
          1.16104726e-002, 3.67361028e-003, -9.16569436e-004,
          -2.11797282e-003, 1.33151596e-003, 3.08990269e-003,
          -9.61903716e-004, 1.21669890e-002, 6.89807488e-003,
          4.04390087e-003, 4.43824939e-003, 3.14014358e-003,
          2.99860351e-003, 3.59895895e-003, 6.24162611e-003,
          -2.05992092e-003, 5.45666274e-003, 6.53509796e-003,
          5.15670574e-004, -6.76227850e-004, -3.09895608e-003,
          -5.89366537e-003, -1.84212055e-003, 7.09090941e-003,
          1.05526270e-002, 4.10788646e-003, -9.27353612e-005,
          5.98720647e-003, 4.02301550e-004, 7.38342293e-003,
          -1.24486524e-003, 4.11057286e-003, 1.07924268e-002,
          5.62828174e-003, 7.51734199e-003, 6.45008637e-003,
          6.33081002e-003, -1.99189308e-004, 4.45376150e-003,
          7.26441992e-003, 2.77961954e-003, 7.85500929e-003,
          4.35449509e-003, -9.34805069e-003, -8.78127851e-003,
          1.01410430e-002, 5.82679687e-003, 9.34722461e-003,
          7.12422095e-003, 7.49235041e-004, -1.86824321e-003,
          -4.40687174e-003, -9.22847632e-003, -2.71558901e-003,
          8.61244462e-003, 1.29765682e-002, 9.46595147e-003,
          3.98519402e-003, 7.49457721e-003, 1.73249829e-003,
          1.74543215e-003, -1.48772253e-002, -9.31100827e-003,
          1.39816450e-002, 1.51984785e-002, 1.53362984e-002,
          1.11089712e-002, 8.15426186e-003, 3.40903875e-006,
          -2.06167507e-003, 9.14301910e-003, 2.77542835e-003,
          6.00312045e-003, 2.27918383e-003, -8.74652807e-003,
          -7.35341338e-003, 1.21980254e-002, 9.80332308e-003,
          8.08634982e-003, 6.16121525e-003, 2.57164752e-003,
          -2.32189312e-003, -5.69434697e-003, -1.13719134e-002,
          -4.77530621e-003, 4.86665545e-003, 1.25799654e-002,
          1.17039820e-002, 5.02194231e-003, 6.91131968e-003,
          2.21203594e-003, -4.89416532e-004, -1.39659662e-002,
          -8.92322883e-003, 1.27170421e-002, 1.61791481e-002,
          1.50514850e-002, 1.10706063e-002, 9.13495757e-003,
          -1.54370515e-004, -4.88962419e-003, 7.76755624e-003,
          2.76763574e-003, 7.13839149e-003, 1.82523869e-003,
          -9.04311426e-003, 1.32766517e-003, 6.18310971e-003,
          5.08591253e-003, 1.93103813e-002, 5.70846023e-003,
          3.57768382e-003, 1.62702671e-003, 2.27106502e-003,
          -1.56707093e-002, -5.36745181e-003, 9.38935019e-003,
          1.94123723e-002, 2.32178550e-002, 8.73474218e-003,
          7.52649363e-003, 8.78645340e-004, -1.86759059e-003,
          -1.46864280e-002, -1.84930780e-003, 1.41655486e-002,
          2.20456328e-002, 2.81808246e-002, 1.45467147e-002,
          1.10969637e-002, 2.75940681e-003, 1.46988663e-003,
          6.29636645e-003, 7.08440365e-003, 1.25860367e-002,
          1.28303077e-002, -5.80626912e-003, 1.52534409e-003,
          2.30462709e-003, 1.67588273e-003, 1.02158422e-002,
          2.39996123e-003, 7.82824180e-004, -5.52157289e-005,
          1.02951135e-002, -3.44033120e-003, 2.56684609e-003,
          7.13356398e-003, 9.26846731e-003, 1.21600619e-002,
          4.02283343e-003, 2.28599436e-003, 3.70281836e-004,
          -3.23753548e-003, -1.06809111e-002, 3.30011407e-003,
          8.96331947e-003, 1.01687135e-002, 1.52805019e-002,
          6.31268742e-003, 3.11187701e-003, 3.98898061e-004,
          6.81535108e-003, 3.91077192e-004, 1.02283678e-003,
          1.16631761e-002, 1.25992633e-002, -4.79330681e-003,
          2.37462096e-004, -1.44669611e-003, -1.26231136e-003,
          -4.75348206e-004, -6.65234576e-004, 2.21375940e-005,
          -7.93470303e-004, 8.74057226e-003, 1.01003395e-002,
          1.08637661e-002, 1.73347420e-003, 1.57236110e-003,
          2.47228239e-003, 6.89956476e-004, 1.28612330e-003,
          1.56751880e-003, 1.97685673e-003, 1.51018554e-003,
          9.31555778e-003, 4.29497333e-004, 4.63981647e-004,
          1.24330400e-003, 1.45303246e-004, 1.69587531e-003,
          8.38292879e-004, 1.06634721e-002, 1.25943427e-003,
          1.98210333e-003, 5.55308256e-003, 6.20838441e-003,
          3.17899836e-003, 5.32957818e-003, 1.51819069e-004,
          -2.03015353e-003, -1.58290209e-006, 2.25010142e-003,
          -1.71746957e-004, -7.41373515e-004, -3.07088594e-005,
          1.47487107e-003, 3.78763862e-003, -1.66544109e-004,
          1.85699595e-004, 6.51279523e-004, 1.43778301e-003,
          5.91953471e-003, 5.62370569e-003, 7.88654480e-003,
          -2.69800588e-003, 7.68342102e-003, 3.47997382e-004,
          -1.51336612e-003, 6.16576930e-004, 3.60141601e-003,
          5.24615357e-003, 4.79219202e-003, 7.87262898e-003,
          6.50532776e-003, 5.04939025e-003, 2.19722441e-003,
          2.62234593e-003, 4.88083955e-004, 5.57667669e-003,
          3.28524201e-003, 1.39251689e-003, 6.78055547e-003,
          9.24667157e-003, 1.25526718e-003, -2.96603917e-004,
          -4.11007041e-003, -9.44926031e-003, -3.10943648e-003,
          6.12201693e-004, 2.16485839e-003, 5.04526775e-003,
          4.10303287e-003, 9.70083848e-003, 6.71033794e-003,
          7.92988669e-003, -5.35918260e-003, 3.15536489e-003,
          3.35817388e-003, 3.46189481e-003, 9.69432388e-003,
          1.24851093e-002, 1.01767527e-002, 6.32437691e-003,
          4.24126303e-003, 8.05774517e-003, 3.98806389e-003,
          6.31179055e-003, 3.95190809e-003, -1.12380208e-002,
          -3.33827804e-003, 5.08922245e-003, 5.09592099e-003,
          1.10990880e-002, 1.13827046e-002, 3.24777700e-003,
          -1.74615253e-003, -5.51505201e-003, -1.10981772e-002,
          -6.21564593e-003, 3.30234552e-003, 6.63486402e-003,
          1.08144311e-002, 8.45961832e-003, 1.15496609e-002,
          6.04933593e-003, 3.10606346e-003, -1.75829250e-002,
          -7.56407389e-003, 7.24800024e-003, 1.08969975e-002,
          1.72535721e-002, 1.87961962e-002, 1.42407585e-002,
          4.19669319e-003, -1.55616738e-003, 1.00512756e-002,
          4.51703276e-003, 5.52470423e-003, 1.91179989e-003,
          -1.11290654e-002, -4.77483589e-003, 4.73148050e-003,
          6.40704762e-003, 8.24842975e-003, 7.47142639e-003,
          3.95007012e-003, -6.96679112e-004, -5.83184185e-003,
          -1.03010815e-002, -4.18466888e-003, 7.09067471e-003,
          1.25305969e-002, 1.38861472e-002, 1.11505324e-002,
          1.01966737e-002, 4.73164441e-003, 6.75072719e-004,
          -1.44039588e-002, -7.26500945e-003, 1.09547935e-002,
          1.64206810e-002, 1.65892262e-002, 1.79033708e-002,
          1.39386719e-002, 4.34122235e-003, -3.90899414e-003,
          5.15431352e-003, 4.59122891e-003, 9.72497929e-003,
          6.05655368e-003, -6.21752534e-003, 5.07304864e-003,
          3.87696386e-003, 4.58174804e-003, 1.56712271e-002,
          8.62185284e-003, 4.38356120e-003, 2.42656074e-003,
          2.16902071e-003, -1.48219122e-002, -1.67732884e-003,
          5.10019995e-003, 1.55163594e-002, 2.27712467e-002,
          9.29987431e-003, 7.23520759e-003, 2.85209040e-003,
          -3.31706554e-003, -1.09994309e-002, 3.95618845e-003,
          9.63318162e-003, 1.82306822e-002, 2.56483983e-002,
          1.69825815e-002, 1.16720255e-002, 5.48756169e-003,
          2.61640904e-004, 6.27046032e-003, 7.61827035e-003,
          1.25656445e-002, 1.29287988e-002, -5.64135145e-003,
          1.87361485e-003, 2.20894767e-003, 2.23952509e-003,
          7.90165644e-003, 2.91427737e-003, 9.72214970e-004,
          1.27142074e-003, 6.66452711e-003, -3.30133503e-003,
          3.69189377e-003, 2.98124971e-003, 6.43836102e-003,
          1.07769473e-002, 4.07860847e-003, 1.16289582e-003,
          -1.28473388e-003, -6.38240669e-003, -1.07106855e-002,
          6.09924039e-003, 5.28014172e-003, 8.17153603e-003,
          1.32269161e-002, 6.56261668e-003, 2.24333908e-003,
          3.70480149e-004, 5.01284609e-004, -1.04294543e-003,
          -2.54694896e-004, 9.24497284e-003, 1.02328286e-002,
          -6.09480729e-003, -7.22965319e-003, -5.47140429e-004,
          -1.03899033e-003, 8.72466655e-004, 1.93621614e-004,
          -4.49886487e-004, -6.30071096e-004, 4.80631972e-003,
          1.22066103e-002, 1.09718982e-002, -1.89157459e-003,
          -3.21909145e-004, 8.63773515e-004, -3.82603990e-004,
          1.47875544e-004, 4.71679261e-004, -5.94481360e-004,
          1.10806257e-003, 3.17666796e-003, -1.81330380e-003,
          -9.44275409e-004, 1.16985606e-003, -1.69015591e-004,
          -2.36459469e-004, -1.21059536e-004, 4.26932983e-003,
          -6.22059335e-004, 1.96702531e-004, 2.57214275e-003,
          3.20507865e-003, 5.64476289e-003, -1.38465432e-003,
          -3.64391919e-004, -1.38190389e-003, -2.30322730e-005,
          4.77283320e-004, -1.05400279e-003, -2.42968183e-003,
          -3.88407870e-003, 3.05591268e-004, 1.32710487e-003,
          -4.77862637e-003, -9.48000757e-004, 8.05282732e-004,
          1.00544177e-003, 4.07526316e-003, 4.50012414e-003,
          6.00173650e-003, -1.17807579e-003, 4.00852237e-004,
          -4.15972294e-003, -1.62168290e-003, 9.50388436e-004,
          1.70225999e-003, 2.62774131e-003, 2.13311939e-003,
          2.48379284e-003, 2.29641772e-003, 2.93716392e-003,
          -1.11924519e-003, -3.93002032e-004, 4.04786645e-003,
          5.02153765e-003, 2.79693282e-003, 4.49194631e-004,
          6.67951303e-004, 2.65843235e-003, -8.01872637e-004,
          -3.96845862e-003, -7.53717031e-003, -9.90378764e-003,
          -5.85123571e-003, -3.84870335e-003, -1.06636621e-003,
          4.40337416e-003, 4.15423466e-003, 7.76847033e-003,
          7.58393388e-003, 5.41923195e-003, -2.78395065e-003,
          2.35678308e-004, -3.64941749e-004, -1.99073969e-004,
          3.93598713e-003, 6.42812951e-003, 6.55581383e-003,
          4.25688829e-003, -2.43599570e-004, 1.44708366e-003,
          1.56421040e-003, 1.15782104e-003, 1.48465170e-003,
          -9.26695764e-003, -1.55235594e-003, 3.66197969e-003,
          3.61987343e-003, 2.36967835e-003, 6.03370368e-003,
          3.08439531e-003, -2.36595073e-003, -3.78095009e-003,
          -1.08243655e-002, -5.59640303e-003, -3.91955487e-004,
          3.87073029e-003, 9.31718387e-003, 7.81471934e-003,
          9.08524171e-003, 5.30704483e-003, -1.45120942e-003,
          -1.55279897e-002, -6.23448798e-003, 3.34906345e-003,
          7.19894841e-003, 9.39242449e-003, 1.32182017e-002,
          1.18628237e-002, 3.61048779e-003, -4.28456580e-003,
          1.79688784e-003, 3.53665883e-003, 1.62544521e-003,
          1.96668482e-003, -9.63991974e-003, -1.30406162e-003,
          4.04399820e-003, 6.68690912e-003, 1.53300387e-003,
          3.79861193e-003, 2.11130222e-003, -4.92783671e-004,
          -4.11706138e-003, -1.22542772e-002, -1.84399413e-003,
          1.04631959e-002, 1.11612035e-002, 9.85917449e-003,
          8.05364642e-003, 8.56915955e-003, 3.50193377e-003,
          -2.81090941e-003, -1.59318112e-002, -2.88515980e-003,
          1.25585208e-002, 1.57419164e-002, 9.27627552e-003,
          1.07611148e-002, 1.04286727e-002, 3.44903325e-003,
          -5.21614216e-003, -2.16817809e-003, 3.34996195e-003,
          6.55734353e-003, 9.85311158e-003, -6.34438125e-004,
          3.74153582e-003, 4.11173934e-003, 5.23608830e-003,
          1.12887602e-002, 6.80414261e-003, 5.10666892e-003,
          6.22484322e-006, -4.92068473e-003, -1.47441821e-002,
          7.62541895e-004, 8.71935301e-003, 1.10217705e-002,
          1.89516544e-002, 8.49265046e-003, 5.21083456e-003,
          1.87382393e-003, -3.22028692e-003, -9.29669850e-003,
          5.65578416e-003, 1.30828191e-002, 1.44351982e-002,
          2.13955361e-002, 1.47599131e-002, 1.04380893e-002,
          2.11310736e-003, -5.11541683e-003, 2.21072463e-003,
          6.73091225e-003, 8.47987551e-003, 1.45432726e-002,
          -5.11111459e-003, -3.45623773e-003, 1.71421201e-003,
          1.62088731e-003, 3.63714830e-003, 1.96491927e-003,
          1.50427187e-003, 6.85870880e-004, 1.13049557e-003,
          -1.11511920e-003, 7.28755491e-003, 5.03298780e-003,
          3.18848505e-003, 7.04984413e-003, 2.58011604e-003,
          -4.54522757e-004, -3.70795676e-003, -5.58713591e-003,
          -6.34785974e-003, 6.25913218e-003, 6.70095719e-003,
          4.36566677e-003, 8.41677468e-003, 4.22570296e-003,
          1.20345829e-003, -2.72720563e-003, -3.96231795e-003,
          -3.40867206e-003, -2.07481068e-003, 4.87405248e-003,
          9.07799229e-003, -4.62232158e-003, -1.69833265e-002,
          -3.17334966e-003, -3.02252220e-003, -7.39108538e-004,
          1.90182182e-004, -9.63328581e-004, -3.63508443e-004,
          6.02659071e-004, 1.55880526e-002, 1.30713964e-002,
          -2.85066431e-003, -3.89922084e-003, -2.43291724e-003,
          -2.08848575e-003, -4.23120189e-004, 7.40222458e-004,
          5.59298927e-003, 5.16341580e-003, -2.79528205e-003,
          -4.12252359e-003, -6.12807414e-003, -2.93018389e-003,
          -1.76236581e-003, -1.28509430e-003, 4.81668889e-004,
          6.39818842e-003, -2.25497223e-003, -1.53203052e-003,
          -9.68668101e-005, 1.16088800e-003, 7.47469580e-003,
          -9.15262941e-003, -2.43113167e-003, -3.47288861e-003,
          -2.50459183e-003, 9.78563257e-005, -2.69559328e-003,
          -3.58914281e-003, -7.64721818e-003, -3.56073637e-004,
          1.49597053e-003, -5.90194855e-003, -2.95630144e-003,
          -2.31240573e-003, -2.99413427e-004, 1.61198934e-003,
          3.94262979e-003, 1.00154197e-002, 9.49016132e-004,
          -6.22530188e-003, -7.36767659e-003, -6.00046758e-003,
          -3.57812666e-003, -1.60189826e-004, -1.12837343e-003,
          4.90199658e-004, 2.53595808e-003, -4.49233968e-003,
          9.75496485e-004, -2.92701763e-003, -2.36225734e-003,
          4.29048249e-003, 2.44388008e-003, 3.71522992e-003,
          -1.19794102e-003, -4.34411690e-003, 8.93534627e-004,
          -4.04476235e-003, -7.20634311e-003, -1.13601601e-002,
          -1.06570842e-002, -5.94425434e-003, -4.81704017e-003,
          -2.91466131e-003, -2.14082468e-003, 6.91873429e-004,
          6.99641695e-003, 7.29965838e-003, 4.51939972e-003,
          -3.09762987e-003, -2.94289878e-003, -9.00437357e-004,
          -3.02538602e-003, -4.42892825e-003, 1.32555817e-003,
          3.15675628e-003, 4.67857695e-004, -4.22706502e-003,
          -7.22048851e-003, 6.09341718e-004, -5.21367555e-003,
          6.16479665e-004, -7.15726940e-003, -3.48509115e-004,
          1.86175527e-003, -4.37323644e-004, -5.72234578e-003,
          1.64802722e-003, -8.33907048e-004, -3.92087176e-003,
          -4.81778150e-003, -8.31653085e-003, -1.72137341e-004,
          -3.20121209e-004, 1.61964897e-004, -5.29588957e-004,
          9.05918365e-004, 7.20382668e-003, 3.82995466e-003,
          -2.73113907e-003, -1.17188040e-002, -1.03190760e-004,
          1.76685769e-003, -7.27633160e-005, -3.52133391e-003,
          2.60666478e-003, 6.40504481e-003, 4.21115168e-004,
          -6.38253381e-003, -7.56732281e-003, 1.07033167e-003,
          -5.98969264e-003, 3.20195290e-003, -5.89585723e-003,
          -1.00529462e-003, 1.73173510e-004, -8.79909436e-004,
          -5.93151385e-003, 3.51806986e-004, -3.82764527e-004,
          -1.43811118e-003, -3.71485483e-003, -7.09104771e-003,
          7.75944348e-003, 1.25758117e-002, 4.87035513e-003,
          -1.11738067e-004, -2.36639217e-003, 4.65004332e-003,
          1.01150293e-003, -3.98516376e-003, -8.69714562e-003,
          4.79213707e-003, 1.07775312e-002, 4.62881988e-003,
          -3.00482870e-003, -2.25314079e-003, 4.28144168e-003,
          -3.57527664e-004, -6.06013602e-003, -7.54992571e-003,
          -1.43071474e-003, -1.25358475e-003, 9.56931058e-003,
          1.17103904e-004, 1.42535043e-003, 2.40010885e-003,
          3.21834162e-003, 6.68637082e-003, 6.70840358e-003,
          1.96703034e-003, -3.05922749e-003, -1.20211439e-002,
          -1.38012618e-002, 1.49897521e-003, 1.50064118e-002,
          1.85116380e-002, 2.49986444e-002, 1.00533897e-002,
          3.27635161e-003, 1.03620207e-003, -1.25498127e-003,
          -1.10982638e-002, 4.25692601e-003, 1.74965598e-002,
          1.99466757e-002, 2.41671689e-002, 1.46303093e-002,
          5.57941338e-003, -1.66422070e-003, -9.95776430e-003,
          8.14888976e-004, 7.98247196e-003, 6.89846743e-003,
          1.57784708e-002, -7.70222628e-003, -1.05663016e-002,
          -3.55538726e-003, -3.99743626e-003, -1.62900798e-003,
          6.60394959e-004, -9.58950492e-004, -2.62093428e-003,
          -4.52512316e-003, -1.39050197e-003, 1.08162165e-002,
          1.22100739e-002, 9.49302968e-003, 1.10199079e-002,
          4.07945644e-003, -2.09254562e-003, -2.86572659e-003,
          -1.40812458e-003, -5.22552943e-003, 3.56169906e-003,
          8.79674498e-003, 6.03494328e-003, 8.34925286e-003,
          3.67295789e-003, -2.89886375e-003, -5.33856172e-003,
          -5.71590709e-003, -4.58130101e-003, -1.52691861e-003,
          9.91684617e-004, 7.45789148e-003, -9.37962253e-003,
          -2.53978092e-002, -1.08040646e-002, -9.49519221e-003,
          -2.85013067e-003, 2.69158190e-004, -1.77173340e-003,
          -1.37213129e-003, -3.05338972e-003, 1.67655945e-002,
          1.89807918e-002, 3.98278562e-003, -1.04639202e-003,
          -7.17786897e-004, 4.50914173e-004, 3.33459175e-004,
          4.16299328e-003, 9.70181730e-003, 4.19907225e-003,
          -4.91728773e-003, -3.54272895e-003, -7.88216945e-003,
          -3.11322510e-003, 6.68809807e-004, -1.36024621e-003,
          2.77645304e-003, 6.52508717e-003, -3.68753937e-003,
          -1.39301538e-003, -1.38415187e-003, 1.16582250e-003,
          2.71462626e-003, -1.27600972e-002, -9.64278821e-003,
          -8.25883448e-003, -5.00781229e-003, -1.28867419e-003,
          -3.76892905e-003, -6.12869859e-003, -1.30795948e-002,
          -2.18939051e-004, 4.54477081e-003, -2.72280397e-003,
          -1.86744542e-003, -2.75881088e-004, 4.70634736e-003,
          2.88784644e-003, 6.64740242e-003, 1.15164528e-002,
          2.31051508e-005, -6.44414732e-003, -9.61732771e-003,
          -8.59452412e-003, -4.34427988e-003, 2.54202844e-003,
          -9.87323932e-004, 5.66720846e-004, -1.06258399e-003,
          -1.00495163e-002, -1.74975779e-003, -2.77867704e-003,
          -5.08288271e-004, 9.22586943e-004, -3.41734895e-003,
          -2.35316507e-003, -4.03708173e-003, -8.92618950e-003,
          -6.16399711e-003, -7.16814399e-003, -8.94354843e-003,
          -1.56718828e-002, -1.28522571e-002, -5.46723092e-003,
          -2.57273018e-003, -2.06443481e-003, -3.26110027e-003,
          7.93258194e-003, 8.80132802e-003, 6.04632590e-003,
          2.79757404e-003, -8.43086001e-003, -7.61582097e-003,
          -5.31882606e-003, -4.91980463e-003, -9.59592033e-003,
          6.13940065e-004, 1.91086298e-003, -3.17876996e-003,
          -8.28040577e-003, -1.35392230e-002, -2.45809136e-003,
          -9.72007401e-003, -8.68966337e-004, -6.52821735e-003,
          -3.48743307e-003, -2.80604791e-003, -3.13778827e-003,
          -7.54237222e-003, -4.75395704e-003, -4.10313020e-003,
          -6.37314701e-003, -5.90151548e-003, -4.91617667e-003,
          7.66191923e-004, -3.47455801e-003, -2.91712047e-003,
          -3.80257191e-003, 5.28080668e-003, 6.55255094e-003,
          -1.74522604e-004, -6.51763985e-003, -8.90404731e-003,
          -2.64990563e-003, -5.82862739e-003, -5.65821957e-003,
          -9.58649535e-003, -4.20764205e-004, 2.13309680e-003,
          -6.75175386e-003, -1.12026483e-002, -1.25727933e-002,
          -2.53373035e-003, -1.14690717e-002, 1.19699922e-003,
          -3.14018875e-003, -6.25045458e-003, -4.34276508e-003,
          -3.99575289e-003, -8.53182841e-003, -3.94735858e-003,
          -2.27532210e-003, -3.05508915e-003, 1.97995780e-003,
          2.44574901e-003, 8.89625587e-003, 4.71465802e-003,
          -1.88810343e-003, -9.78720933e-003, -1.92516763e-003,
          3.36835254e-003, -1.05978735e-003, -2.50466377e-003,
          -1.00241113e-003, 1.94500748e-003, -2.00075650e-004,
          -5.39206201e-003, -1.42136030e-002, -5.69637213e-003,
          2.48402910e-004, -4.02815966e-003, -2.17429805e-003,
          -1.02159064e-002, -3.02629592e-003, -6.76577492e-003,
          5.25376154e-003, -2.55690003e-003, -2.15591840e-003,
          -4.15511755e-003, -3.50889191e-003, 1.29307415e-002,
          1.03664398e-002, -3.01260757e-003, -7.02121854e-003,
          -1.45082427e-002, -1.74053703e-002, -5.64023620e-003,
          2.20236070e-002, 2.76264455e-002, 2.58905850e-002,
          5.68538159e-003, 1.88996689e-003, -4.87989048e-004,
          -2.80844071e-003, -1.68801118e-002, -6.17507333e-003,
          1.78012308e-002, 2.26416420e-002, 2.60952823e-002,
          1.52606843e-002, -8.69795098e-004, -6.86766952e-003,
          -1.56334639e-002, -7.71231542e-004, 4.94504301e-003,
          4.69016237e-003, 1.14779891e-002, -8.60576797e-003,
          -1.85495727e-002, -1.83853097e-002, -1.68759953e-002,
          4.69873101e-003, 1.00213764e-002, -3.77552770e-003,
          -5.97807858e-003, -8.97086784e-003, -9.06333141e-003,
          1.64588436e-003, 1.72236376e-002, 1.86269041e-002,
          1.68320201e-002, 2.46962649e-003, -2.79016589e-004,
          -1.14575890e-003, 1.74548838e-003, -1.26809580e-002,
          -9.94894933e-003, -6.62853534e-004, 1.93117256e-003,
          1.37775270e-002, 1.16212582e-002, -3.84445977e-003,
          -7.01675750e-003, -7.17928400e-003, -6.72757160e-003,
          -2.27095559e-003, -2.71865795e-003, 3.05966148e-003,
          -1.41729070e-002, -3.00194491e-002, -2.52727661e-002,
          -1.82391405e-002, 7.27048330e-003, 1.33681064e-002,
          -2.52601039e-003, -4.67147445e-003, -7.32521713e-003,
          7.64467753e-003, 1.23968292e-002, 8.96248594e-003,
          6.58841711e-003, 5.93265193e-003, 5.05081890e-003,
          4.37051849e-003, 4.72627301e-003, 1.06752887e-002,
          -6.29940163e-003, -1.60325468e-002, -1.50567638e-002,
          -1.02216071e-002, 9.53600463e-003, 1.50474133e-002,
          1.98626053e-003, 6.88640212e-005, 3.41143133e-003,
          -6.01761788e-003, -1.29141065e-003, -1.81630184e-003,
          1.94099871e-003, -4.30366211e-003, -1.76088531e-002,
          -1.62775647e-002, -1.08829029e-002, 6.26080576e-003,
          1.25321411e-002, -3.72227747e-003, -8.13367870e-003,
          -1.64112113e-002, -6.57670852e-003, 4.50337480e-004,
          -1.20132917e-003, -1.36013157e-004, 3.08009633e-003,
          1.23411641e-002, 6.54684519e-003, 4.00004163e-003,
          1.02667259e-002, -9.32856556e-003, -1.50206080e-002,
          -1.64249633e-002, -1.02891447e-002, 6.86392887e-003,
          1.73116662e-002, 2.74503301e-003, -3.67711321e-003,
          -4.61230194e-003, -1.31396288e-002, -3.36575950e-003,
          -8.45822797e-004, 3.31478310e-003, -4.56483848e-003,
          -1.27169862e-002, -1.12152882e-002, -2.82622478e-003,
          3.05945985e-003, 2.69681448e-003, -9.62038524e-003,
          -1.22348322e-002, -1.94975287e-002, -1.61694046e-002,
          -9.90744960e-003, -5.47693251e-003, -1.97426672e-003,
          -2.93693901e-003, 1.78973563e-002, 7.96889607e-003,
          2.15114770e-003, 5.39074838e-003, -1.69998985e-002,
          -1.93771105e-002, -1.59549229e-002, -4.60022595e-003,
          -3.26595291e-005, 1.28544057e-002, -1.27421389e-003,
          -9.58806742e-003, -1.16279079e-002, -1.53882513e-002,
          -5.35679469e-003, -1.10582812e-002, -1.18366769e-003,
          -9.39070340e-003, -1.30692450e-002, -1.45821301e-002,
          -1.86084502e-003, 9.04449902e-004, -1.88392180e-003,
          -6.96960464e-003, -9.20270104e-003, -7.05326721e-003,
          -6.70677843e-003, -3.80658382e-003, -7.23108789e-003,
          -4.58468730e-003, -8.16985499e-003, 1.49535220e-002,
          4.83533554e-003, -4.00075282e-004, -4.93226154e-003,
          -1.29106455e-002, -1.40777146e-002, -2.00492907e-002,
          -5.39460545e-003, -6.13085367e-003, 7.89859891e-003,
          -1.89300813e-003, -9.72243212e-003, -1.07918605e-002,
          -1.39531624e-002, -5.28573524e-003, -1.39420684e-002,
          -4.13055113e-003, -3.21554812e-003, -1.18235145e-002,
          -1.48470895e-002, -6.46634214e-003, -5.57480613e-003,
          -2.62052636e-003, -6.56755874e-004, -2.87142186e-003,
          4.88598039e-003, 1.52075966e-003, 3.17922002e-003,
          -5.18029882e-003, -6.01013098e-003, -1.26082832e-002,
          5.84264891e-003, 4.37187497e-003, 1.47669425e-003,
          5.28060889e-004, -1.70896237e-003, -7.73696089e-003,
          -1.79214664e-002, -1.07811131e-002, -1.34708202e-002,
          2.31721881e-003, 2.56609404e-003, -1.58892723e-003,
          2.77060340e-003, -9.99758672e-003, -3.69580672e-003,
          -9.39823501e-003, -5.11123508e-004 ]
   decision_functions:
      -
         sv_count: 1
         rho: 8.6303664967800786e-001
         alpha: [ 1. ]
