%YAML:1.0
opencv_ml_svm:
   format: 3
   svmType: EPS_SVR
   kernel:
      type: LINEAR
   C: 1.0000000000000000e-002
   p: 1.0000000000000001e-001
   term_criteria: { epsilon:1.0000000000000000e-003, iterations:1000 }
   var_count: 1736
   sv_total: 1
   support_vectors:
      - [ 2.17735907e-003, 1.24107683e-002, 2.78679878e-002,
          1.79517251e-002, 1.48770744e-002, 1.54647473e-002,
          -1.32350978e-002, -9.96636879e-003, -1.02786603e-003,
          -7.31032388e-003, -6.50567876e-004, 1.04164903e-003,
          -1.69200990e-002, -2.47557666e-002, -1.64601002e-002,
          -1.40652722e-002, -1.21635860e-002, -1.24860415e-002,
          -6.68000150e-003, 3.85652622e-003, 1.53163252e-002,
          -5.98606328e-003, -1.77650955e-002, -9.74771846e-003,
          -2.55831275e-002, -2.04966236e-002, -1.14348941e-002,
          7.78786326e-003, -1.44752534e-002, 2.61655264e-003,
          -1.34887090e-002, -5.00743045e-003, 7.67146004e-003,
          1.29325930e-002, 1.57628413e-002, 2.88337842e-002,
          2.31517777e-002, -4.00733575e-003, -2.33589346e-003,
          8.49905703e-003, -4.43415530e-003, 8.35672603e-004,
          -2.64869560e-003, -3.92796807e-002, -3.16890441e-002,
          -1.31737092e-003, -6.17288286e-003, -4.52430593e-003,
          -1.08223725e-002, -8.39748885e-003, 3.09778377e-003,
          2.67279404e-003, -2.20237151e-002, -1.83320008e-002,
          1.11691719e-002, -9.73018166e-003, -6.45152060e-003,
          -3.69825982e-003, 1.36110727e-002, -9.28812567e-003,
          5.28835878e-003, -1.64711103e-002, -5.26808389e-003,
          -6.24122855e-004, 7.42684491e-003, 9.20043420e-003,
          2.81341691e-002, 2.11966857e-002, 9.08741634e-003,
          7.34508270e-003, 2.43686941e-002, 7.41425809e-003,
          4.68185265e-003, -1.14583662e-002, -5.27938753e-002,
          -4.09719795e-002, -1.45789888e-003, -8.82851239e-003,
          1.85396010e-003, -6.62722066e-003, 2.31097871e-003,
          1.82536896e-003, -8.86341557e-003, -3.90883386e-002,
          -2.81853955e-002, 8.23382102e-003, 1.78977043e-005,
          8.29998031e-003, 1.31833991e-002, 8.79427791e-003,
          -5.16360672e-003, 8.56370106e-003, -1.56453326e-002,
          4.46441770e-003, 2.95907492e-003, -7.33921654e-004,
          4.82412579e-005, 1.28436191e-002, 8.50167871e-003,
          1.27851097e-002, 1.41883073e-002, 3.33915912e-002,
          2.16514580e-002, 1.25326440e-002, -1.49077568e-002,
          -5.40774353e-002, -4.70361635e-002, -7.81201757e-003,
          -6.46240031e-003, 6.11115154e-003, 1.06365012e-003,
          2.27250569e-002, 1.51573820e-002, -1.39150023e-002,
          -4.78889085e-002, -3.91247906e-002, -2.41853110e-003,
          5.36874589e-003, 1.81903411e-002, 2.92046126e-002,
          7.86088035e-003, -1.36091176e-003, 4.20808000e-003,
          -1.09384470e-002, 1.69126019e-002, 2.07326412e-002,
          6.06501754e-003, 7.41496682e-003, 4.87716263e-003,
          3.38220946e-003, 7.85693619e-003, 1.48708504e-002,
          2.90331207e-002, 2.25230269e-002, 1.42874718e-002,
          -1.15222251e-002, -4.83923778e-002, -4.61989827e-002,
          -2.33663060e-002, -1.15819871e-002, 3.96802742e-003,
          1.56261530e-002, 3.68005969e-002, 3.36103328e-002,
          -4.29442851e-003, -3.61826010e-002, -3.89513783e-002,
          -2.16253325e-002, -4.56086919e-003, 1.68699306e-002,
          3.97717245e-002, 1.14741651e-002, 4.19711834e-003,
          3.43939383e-003, -6.62409049e-003, 8.29933584e-003,
          2.77799442e-002, 1.48361726e-002, 2.28519533e-002,
          1.56436451e-002, 1.36745244e-003, -2.65441439e-003,
          5.17330831e-003, 1.46873835e-002, 1.56111512e-002,
          1.02965273e-002, -1.33490665e-002, -3.54346856e-002,
          -3.23807783e-002, -3.50512825e-002, -2.71642040e-002,
          -1.42010869e-002, -2.04619975e-003, 2.01104432e-002,
          3.41655873e-002, 2.22314289e-003, -1.02070980e-002,
          -2.19296906e-002, -3.31154652e-002, -2.87047140e-002,
          -9.95691679e-003, 1.16748037e-002, 7.86547316e-004,
          -6.08019391e-003, 8.24598537e-005, -6.92021893e-003,
          2.63863266e-003, 2.60756128e-002, 1.46169038e-002,
          2.93631591e-002, 3.01021468e-002, 9.48672928e-003,
          -5.17987041e-003, -2.90735485e-003, 3.23672593e-003,
          1.52850645e-002, 1.33765247e-002, -1.25253759e-002,
          -2.46181842e-002, -1.94577649e-002, -3.52963470e-002,
          -4.26515229e-002, -3.02923918e-002, -1.48745524e-002,
          1.46512557e-002, 3.26810479e-002, 2.85506691e-003,
          5.11147501e-003, -6.70921104e-003, -2.73193289e-002,
          -4.35229242e-002, -3.07559390e-002, -1.00751398e-002,
          -9.65862069e-003, -1.72239058e-002, 5.98865515e-003,
          3.30523937e-004, 1.11400383e-002, 3.06411665e-002,
          2.89600082e-002, 1.48290414e-002, -2.66457605e-003,
          -9.51892324e-003, -2.19478067e-002, -1.53544396e-002,
          -6.32970920e-003, -1.28541524e-002, -4.68872767e-003,
          -1.02479737e-002, -3.03577203e-002, -2.94130854e-002,
          -1.01399319e-002, 2.07463541e-004, -2.71349563e-004,
          -2.45927367e-003, -1.02004490e-003, 1.36014968e-002,
          9.14570317e-003, -1.70546826e-002, -2.62800772e-002,
          -2.10827012e-002, -2.10889429e-002, -1.54279359e-002,
          -8.09404254e-003, 1.10236788e-002, -1.47054670e-002,
          -7.05966819e-003, -2.24780794e-002, -3.60317412e-004,
          1.50903240e-002, 1.84848178e-002, 1.79875158e-002,
          1.25775198e-002, -4.02602600e-003, -1.28527898e-002,
          -3.04518826e-003, 1.62785202e-002, 1.44201459e-003,
          2.03029206e-003, -1.20010423e-002, -4.16276231e-002,
          -2.74975859e-002, 3.74518451e-003, 5.68811782e-003,
          8.05111509e-003, -2.33016501e-004, 5.98505547e-004,
          6.29650708e-003, 1.39691081e-004, -2.26998497e-002,
          -1.39108179e-002, -2.54066731e-003, -6.65810518e-003,
          4.84676333e-003, 1.30986413e-002, 1.44970408e-002,
          -5.83991967e-003, 7.88375735e-003, -1.66672915e-002,
          -1.97256380e-003, -6.67708088e-003, 6.80319441e-004,
          5.00861276e-003, 1.00456430e-002, -4.43929108e-003,
          -5.44341467e-003, 6.06096862e-003, 3.92283648e-002,
          2.42306534e-002, 1.24292299e-002, -1.69321224e-002,
          -4.94156666e-002, -3.58950943e-002, 4.47273394e-003,
          4.31679422e-003, 1.58640537e-002, 9.22183972e-003,
          1.84189230e-002, 3.69719439e-003, -1.58312228e-002,
          -4.03805822e-002, -2.61606630e-002, -3.34018585e-003,
          -8.30388162e-004, 2.09373161e-002, 3.83956097e-002,
          3.10032978e-003, -5.12793567e-003, 1.46281226e-002,
          -7.51694851e-003, 6.86836382e-003, -1.14555992e-002,
          -1.41191110e-002, -9.39602964e-003, -3.77643760e-003,
          -7.78733985e-003, -4.92644729e-003, 4.10187710e-003,
          3.84432562e-002, 3.19017433e-002, 1.78173352e-002,
          -1.30224414e-002, -4.58946973e-002, -4.74038981e-002,
          -8.76400806e-003, 8.90385360e-004, 1.63695104e-002,
          1.66116189e-002, 3.20386738e-002, 8.90253950e-003,
          -2.14984808e-002, -4.80590388e-002, -4.55865189e-002,
          -1.58576202e-002, -4.16997634e-003, 1.90169252e-002,
          4.39161696e-002, -6.65387744e-003, -3.73574882e-003,
          2.85139843e-003, -8.27343296e-003, 2.02290863e-002,
          4.67704190e-003, -1.11265909e-002, -7.57163670e-003,
          -8.46695993e-003, -7.37504708e-003, -5.59503399e-003,
          4.21251496e-003, 2.62237210e-002, 2.59491187e-002,
          1.51198870e-002, -1.46731976e-002, -3.97124738e-002,
          -4.01255265e-002, -1.52300103e-002, -3.23871523e-003,
          9.38958302e-003, 2.57322676e-002, 3.88863459e-002,
          1.92358121e-002, -2.42716148e-002, -4.25722525e-002,
          -4.17163335e-002, -2.14773975e-002, -9.06293932e-003,
          1.19457319e-002, 4.27974761e-002, -6.50999427e-004,
          2.93612131e-003, -7.98040908e-003, -4.47845552e-003,
          8.36890470e-003, 9.09076072e-003, -1.36114843e-003,
          2.35740142e-003, -7.69228674e-004, -5.53977676e-003,
          -1.15222046e-002, -6.99115964e-003, 4.29753447e-003,
          1.85975451e-002, 1.73735190e-002, -9.96757951e-003,
          -3.03215608e-002, -2.15638168e-002, -1.29622491e-002,
          -3.09395301e-003, 1.04386511e-003, 8.90277699e-003,
          2.10173968e-002, 2.20015645e-002, -1.06824543e-002,
          -2.24731937e-002, -1.73076913e-002, -1.72881987e-002,
          -1.45709701e-002, -6.91174669e-003, 1.16403159e-002,
          -3.80643620e-003, -1.37697416e-003, -7.70875160e-003,
          -3.16389557e-003, -3.34104872e-003, 8.36994778e-003,
          -5.62488276e-004, 4.49656555e-003, 6.65990729e-003,
          3.31533561e-003, -8.71048123e-003, -1.16863670e-002,
          -1.06927678e-002, 1.24347229e-002, 2.45535709e-002,
          5.94647508e-003, -1.59012794e-003, -1.89323316e-003,
          -1.00293513e-002, -1.15936268e-002, -1.51229575e-002,
          -1.12138130e-002, 4.61692782e-003, 2.53368132e-002,
          7.19127618e-003, 4.60303901e-003, 3.73421377e-003,
          -4.46283491e-003, -1.96804628e-002, -2.55553145e-002,
          -1.96034778e-002, -9.46014654e-003, -8.66045337e-003,
          2.10393360e-003, 6.27766643e-003, 2.41433121e-002,
          3.48711684e-002, 1.56721789e-002, -3.83590255e-003,
          -2.55001485e-002, -3.49439457e-002, -3.13006341e-002,
          -2.24455558e-002, -1.65422987e-002, -2.12131646e-002,
          -6.41788531e-004, -3.36223468e-003, -1.86185315e-002,
          -6.61050715e-003, 1.49346492e-003, 7.14786677e-003,
          8.76731705e-003, 1.15432106e-002, 3.79364868e-003,
          1.91219654e-002, 7.32121756e-003, -1.87722314e-002,
          -2.95891985e-002, -3.30595225e-002, -2.31300052e-002,
          -1.30984150e-002, -3.43474885e-003, -7.45700148e-004,
          -5.15287509e-004, -1.91100333e-002, -1.79897156e-002,
          9.05433670e-003, 1.65741108e-002, 1.07656484e-002,
          4.64863656e-003, -1.19279204e-002, -2.98851151e-002,
          -2.16644648e-002, -1.27934748e-002, 1.04635628e-002,
          -5.94422128e-003, -3.07577243e-003, -8.86059366e-003,
          -2.25668829e-002, 2.71630194e-003, 1.17177302e-002,
          1.05757061e-002, 1.21555775e-002, 8.15373566e-003,
          3.32299946e-003, 1.00819964e-003, -6.37658581e-004,
          -1.45080527e-002, -1.02352332e-002, -2.04310305e-002,
          -1.05870133e-002, -6.24543987e-004, 1.49271395e-002,
          -1.43008874e-004, 1.85032713e-003, -6.22416288e-003,
          -4.86076204e-003, 8.20596411e-004, -1.57239661e-002,
          -1.23511143e-002, -4.49507684e-003, -7.62328971e-003,
          -2.48895325e-002, -1.98547151e-002, -1.24092121e-002,
          3.36393490e-002, 1.59958228e-002, 3.08712060e-003,
          -5.92184905e-003, -1.28454231e-002, 3.92174069e-003,
          7.66389119e-003, 5.66187175e-003, 1.11562768e-002,
          1.37803694e-002, 1.27103664e-002, -1.21688526e-002,
          -1.18746376e-002, -1.25017399e-002, -8.44769645e-003,
          -2.11374983e-002, -1.45731326e-002, -1.55032112e-003,
          3.60892862e-002, -8.93533230e-003, -5.73012186e-003,
          1.38830638e-003, 3.66664957e-003, 1.17920535e-002,
          -1.86262578e-002, -2.44318042e-002, -1.17377648e-002,
          -8.68687592e-003, -2.01074481e-002, -2.05934308e-002,
          -1.49497399e-002, 2.90872343e-002, 1.82261635e-002,
          3.28145828e-003, -2.95622437e-003, -7.27052754e-003,
          -4.67720442e-003, -3.43589741e-003, -1.86020217e-003,
          6.99524255e-003, 2.03110352e-002, 1.89919658e-002,
          -8.04542284e-003, -2.15432756e-002, -1.66615713e-002,
          -1.35581875e-002, -2.30428167e-002, -2.23782584e-002,
          -8.38649459e-003, 3.67841423e-002, -1.23232733e-002,
          -8.23983829e-003, -3.06422636e-003, 2.26951510e-004,
          2.99495757e-002, -1.76214054e-003, -2.15726458e-002,
          -1.35432985e-002, -1.04069738e-002, -1.25980843e-002,
          -1.82232205e-002, -1.22180367e-002, 1.91766489e-002,
          1.87297314e-002, 1.02162799e-002, -2.14204495e-003,
          -7.49660050e-003, -5.56357345e-003, -3.56058753e-003,
          1.32281636e-003, 8.44065566e-003, 3.28564681e-002,
          3.39213200e-002, 7.91609939e-003, -2.20321491e-002,
          -1.93404388e-002, -1.49130654e-002, -1.57958493e-002,
          -1.69473346e-002, -4.24403045e-003, 4.08103466e-002,
          4.93633607e-003, 6.12803223e-003, -5.19864727e-003,
          -3.95138690e-004, 1.49948644e-002, -1.06454163e-003,
          -1.91276483e-002, -1.07911974e-002, -8.31581652e-003,
          -6.14862703e-003, -1.29731931e-002, -9.63614229e-003,
          1.99807971e-003, 1.56861264e-002, 1.42402397e-002,
          -2.84776115e-003, -1.23762377e-002, -3.07091337e-004,
          -8.70436779e-004, 4.60462132e-003, 7.35561969e-003,
          2.07969286e-002, 2.18551140e-002, 1.06969746e-002,
          -1.69868600e-002, -2.02335846e-002, -7.21532991e-003,
          -6.11693179e-003, -8.18211772e-003, -2.63872696e-003,
          2.03427486e-002, -1.43559161e-003, 3.10035818e-003,
          -3.19725834e-003, -7.21843971e-004, 4.36042342e-003,
          -3.93624231e-003, -2.34215911e-002, -1.68072078e-002,
          -9.39171854e-003, 2.01601163e-003, -4.00035409e-003,
          -2.77590030e-003, 4.86778514e-003, 2.25314405e-002,
          3.15821618e-002, 1.31855663e-002, 6.05719304e-003,
          1.19854398e-002, 1.87611312e-003, 1.68116437e-003,
          2.66425603e-004, 5.23536373e-003, 1.83971655e-002,
          1.80989802e-002, 3.86609090e-003, -7.63356918e-003,
          1.71655160e-003, 6.15712954e-003, -1.62928586e-003,
          -2.46916269e-003, 7.79932039e-003, -3.79789318e-003,
          3.49734258e-003, 8.83470662e-003, 1.28259556e-002,
          2.28158422e-002, 2.13178098e-002, -2.11550226e-003,
          -8.55668355e-003, -1.23291928e-002, -1.34364245e-002,
          -1.26851648e-002, -9.99804493e-003, -9.95068066e-003,
          -2.05327794e-002, -1.24277454e-002, -1.42751485e-002,
          -1.82131864e-002, -4.49176691e-003, 9.20943450e-003,
          1.54271983e-002, 1.46283526e-002, 1.67858750e-002,
          -1.19416195e-003, -1.24576909e-003, -1.39029203e-002,
          -2.30884254e-002, -1.50352521e-002, -7.34651089e-003,
          2.36404431e-003, 4.34053643e-003, 7.05547817e-003,
          -9.45380889e-003, 1.29454676e-002, -2.10815389e-002,
          -7.13546702e-004, 1.52151345e-003, 4.00469732e-003,
          -3.81694222e-003, -1.25316775e-003, -5.19607624e-004,
          -6.70730695e-003, -7.88830221e-003, -6.30532065e-003,
          8.09756014e-003, -1.42606832e-002, -1.64959654e-002,
          -1.16946520e-002, -1.11114886e-002, 1.57026388e-002,
          1.94898676e-002, 1.29558919e-002, 1.20826773e-002,
          8.71845800e-003, -1.16689308e-002, -1.78350322e-002,
          -9.93521512e-003, -8.97749420e-003, 8.35084077e-003,
          6.25531515e-003, 5.46117872e-003, 5.83230378e-003,
          1.52991777e-002, -3.86403338e-003, 1.28366267e-002,
          -1.60148907e-002, 8.23016372e-003, -6.23256294e-003,
          -9.93764400e-003, -8.15966632e-003, 6.57476671e-003,
          7.08648702e-003, -6.03750721e-003, -1.38176130e-002,
          -7.19085988e-003, 3.24499048e-002, 3.83439776e-003,
          -1.61468424e-002, 1.00171822e-003, 1.00522842e-002,
          2.11135596e-002, 1.12457732e-002, 4.72966162e-003,
          5.95269538e-003, 5.18455822e-003, -5.19734249e-003,
          -2.63874121e-002, -4.52464400e-003, 1.20429778e-002,
          1.46810105e-002, -2.84056761e-004, -8.91284831e-003,
          -1.16303656e-003, 2.94875205e-002, -2.41262629e-003,
          6.71704905e-003, -1.81484420e-003, 1.71692688e-002,
          1.26210116e-002, -1.15700834e-003, -1.10582309e-002,
          2.83401040e-003, 4.35136538e-003, -5.22662234e-003,
          -1.17435511e-002, -5.57499332e-003, 3.31209265e-002,
          1.26141226e-002, -9.60694812e-003, 9.66761913e-003,
          1.61683224e-002, 1.29548199e-002, -4.48675454e-003,
          -8.16274062e-003, -8.57311115e-003, 5.20785013e-003,
          1.25239091e-002, -1.10429227e-002, -5.54755039e-004,
          1.26871634e-002, 8.81080516e-003, -1.01596005e-002,
          -1.87419131e-002, -1.12525513e-002, 3.03807035e-002,
          2.40255147e-003, 4.01197467e-003, 2.42000003e-003,
          1.18835457e-002, 3.14030014e-002, 8.73308163e-003,
          -1.61114130e-002, -2.75773206e-003, -2.28760694e-003,
          -6.09314023e-003, -8.75236280e-003, -2.92813894e-003,
          2.28234679e-002, 8.25940724e-003, -1.38581730e-003,
          1.44114636e-003, 4.77971183e-003, -8.74801131e-004,
          -6.79973979e-003, -4.64235293e-003, -5.95094264e-003,
          1.93200931e-002, 2.54740100e-002, 5.42082498e-003,
          -1.23403203e-002, -6.94755174e-004, -3.40774842e-003,
          -1.18885553e-002, -1.29083227e-002, -8.15591589e-003,
          3.37497033e-002, 1.00510987e-002, 1.03647513e-002,
          -2.71843816e-003, 2.98687868e-004, 1.44919017e-002,
          -1.01969233e-002, -3.46872397e-002, -1.46049764e-002,
          -4.08766372e-003, -3.22067790e-004, -2.79488368e-003,
          4.08751145e-003, 1.16347792e-002, 1.10987136e-002,
          5.93549805e-003, -3.48531222e-003, -8.10091663e-003,
          -1.86729245e-003, -4.67689335e-003, 8.33161874e-004,
          2.51949020e-003, 1.70789342e-002, 2.20837817e-002,
          -2.02532019e-003, -2.04090085e-002, -1.76064447e-002,
          -3.78340762e-003, -3.41473450e-003, -1.58509205e-003,
          6.71305880e-003, 2.63206456e-002, -4.93476959e-003,
          7.52408669e-005, -1.42317789e-003, -1.79906050e-003,
          5.96454972e-003, -1.14215678e-002, -3.16667035e-002,
          -2.35344768e-002, -1.20896949e-002, 7.11520109e-003,
          9.50403232e-003, 1.38196610e-002, 1.95671599e-002,
          3.20760943e-002, 3.23515423e-002, 1.73127260e-002,
          8.10290047e-004, 4.29301430e-003, -3.27250524e-003,
          -2.36068666e-003, 2.43218802e-003, 8.35739542e-003,
          2.97972318e-002, 1.45765161e-002, -7.05652125e-003,
          -1.86399128e-002, -6.08268194e-003, 5.86695503e-003,
          7.45197246e-003, 1.62878055e-002, 2.37073340e-002,
          -4.06319508e-003, 6.01829682e-003, 1.37643050e-002,
          1.69289168e-002, -8.86495924e-004, -6.33751322e-003,
          -8.50111246e-003, -8.67944793e-004, 1.88564733e-002,
          1.75885130e-002, 1.07817480e-003, -2.86380574e-003,
          -5.75737096e-003, -2.27592029e-002, -3.37225199e-002,
          -2.82090325e-002, -1.70856807e-002, 1.64001423e-003,
          2.35960241e-002, 2.34458577e-002, 1.53632611e-002,
          5.66340284e-003, -2.22874861e-002, -3.57743688e-002,
          -3.09458878e-002, -1.63584594e-002, 1.38338944e-002,
          2.70259492e-002, 2.12408286e-002, 1.21562611e-002,
          3.28179798e-004, -2.42823618e-003, 5.03546884e-003,
          -7.67208682e-003, -4.24951874e-003, -1.59206949e-002,
          -1.69704910e-002, -9.87063069e-003, 1.11127840e-002,
          2.73483302e-002, 1.01774205e-002, -4.29112138e-003,
          -5.31149609e-003, 5.72376698e-003, -1.93713158e-002,
          -2.85437498e-002, -1.13203097e-002, 2.15935434e-004,
          3.10139079e-002, 3.12284585e-002, 1.70258768e-002,
          8.93358141e-003, -1.27787807e-003, -3.15731540e-002,
          -4.35893573e-002, -1.68509576e-002, 7.14859040e-003,
          3.39630693e-002, 2.87704542e-002, 1.13288378e-002,
          3.52197886e-003, 4.44451859e-003, 4.57456755e-003,
          1.30124539e-002, -5.45435399e-003, 1.96331227e-003,
          -1.44200893e-002, -1.22916661e-002, -4.03267564e-003,
          2.63095740e-002, 2.82616206e-002, 4.22849989e-004,
          -1.14387851e-002, -1.22463526e-002, 1.77783277e-002,
          -6.73206151e-003, -2.64020097e-002, 6.11034874e-003,
          2.33085770e-002, 3.99864130e-002, 2.15078145e-002,
          1.16831716e-002, 8.44022166e-003, -2.45039049e-003,
          -2.18198430e-002, -3.55946794e-002, 2.14667851e-003,
          3.67372483e-002, 3.95496935e-002, 1.66695639e-002,
          -9.89796128e-004, -4.86882729e-003, 1.29883457e-002,
          8.01820960e-003, 1.36981755e-002, 6.44815108e-003,
          1.60503760e-002, 4.67590149e-003, 1.63065630e-003,
          -5.05903969e-003, 1.66626666e-002, 1.43292584e-002,
          -1.12680660e-003, -6.50501391e-003, -9.59286373e-003,
          2.22811773e-002, 5.42928837e-003, -1.55854272e-002,
          1.14573026e-002, 2.41846573e-002, 2.32892204e-002,
          2.72708293e-003, 2.27603177e-003, 4.11355169e-003,
          8.47676210e-003, 1.41335221e-003, -1.33806700e-002,
          6.56576548e-003, 2.97979191e-002, 2.27024686e-002,
          3.43347830e-003, -4.19054786e-003, -3.49646038e-003,
          2.85482071e-002, 1.25937918e-002, 1.42899826e-002,
          7.85860233e-003, 1.41250240e-002, 1.38049265e-002,
          -5.01714787e-003, -1.65039245e-002, 2.55500898e-003,
          9.73566668e-004, -3.19892261e-003, -1.63352501e-003,
          1.75908301e-003, 2.35958286e-002, 5.94973564e-003,
          -8.33919272e-003, 3.65644530e-003, 1.11202244e-002,
          2.74153473e-003, -7.78517220e-003, 3.84058175e-003,
          6.36191480e-003, 2.09333599e-002, 1.03271352e-002,
          -1.13840699e-002, -7.04388786e-003, 9.24425758e-003,
          4.57574287e-003, -7.41722295e-003, 1.31442235e-003,
          6.35727914e-003, 3.94684188e-002, 9.54037812e-003,
          1.54014258e-002, -5.78570587e-004, 1.47623976e-003,
          1.19998562e-003, -1.64065268e-002, -3.14381532e-002,
          -1.58433355e-002, -5.71252173e-003, 1.94542998e-004,
          2.63419817e-003, 9.40465741e-003, 1.69088561e-002,
          5.08660916e-003, -3.16843530e-003, 8.15594161e-004,
          2.51285965e-003, 9.31325951e-004, -6.32343441e-003,
          5.73330605e-003, 8.35484266e-003, 1.93055440e-002,
          7.74814421e-003, -1.51173603e-002, -2.28098929e-002,
          -1.06302891e-002, -1.00522046e-003, -3.46551626e-003,
          8.19955952e-003, 1.70232393e-002, 3.38074714e-002,
          -5.98284462e-003, 5.12493483e-004, -7.89879938e-004,
          3.52135953e-003, -8.27864092e-003, -1.82517860e-002,
          -2.06936393e-002, -1.79676637e-002, -5.88855427e-003,
          1.06233405e-002, 1.71308089e-002, 2.49209274e-002,
          2.56824587e-002, 2.66965479e-002, 1.10458639e-002,
          4.27056011e-003, -1.32581242e-003, -1.08959968e-003,
          -4.37645847e-003, -3.11467727e-003, 4.11158660e-003,
          1.14440620e-002, 1.46341827e-002, -6.49433536e-003,
          -1.54503165e-002, -1.69440564e-002, -5.66084450e-003,
          6.29019877e-003, 1.31451329e-002, 2.77518220e-002,
          3.35881226e-002, -7.13426713e-003, 1.80446089e-003,
          1.40493801e-002, 1.71788223e-002, -1.80752426e-002,
          -1.34024937e-002, -4.35311208e-003, 1.24288220e-002,
          5.56966066e-002, 4.79021110e-002, 1.04368292e-002,
          -3.85398103e-004, -6.99657574e-003, -2.91572399e-002,
          -3.90134938e-002, -2.33771484e-002, -1.86905488e-002,
          2.17068731e-003, 2.29344107e-002, 2.17206944e-002,
          9.44174919e-003, -9.64658335e-003, -3.80954631e-002,
          -4.41001244e-002, -2.57185269e-002, -5.92677295e-003,
          4.29948196e-002, 5.37288897e-002, 2.79866811e-002,
          8.56551714e-003, -1.45984096e-002, 1.43772336e-002,
          -6.51555276e-003, 1.48485918e-002, -1.34547679e-002,
          -3.25221233e-002, -2.19217762e-002, -2.76409113e-003,
          2.97374595e-002, 6.28101155e-002, 3.40571627e-002,
          7.81620946e-003, 4.26674262e-003, 5.46463206e-003,
          -2.10955087e-002, -3.34421135e-002, -1.24044698e-002,
          -7.65129738e-003, 2.44026091e-002, 2.88141649e-002,
          1.42136710e-002, 4.09080368e-003, -1.87968612e-002,
          -4.67763878e-002, -5.03934547e-002, -1.46832382e-002,
          1.57756116e-002, 5.86841106e-002, 4.91937436e-002,
          1.98878311e-002, 8.07334203e-003, -1.25940563e-002,
          1.76816713e-002, 3.37710464e-003, 1.71091352e-002,
          -7.49139907e-003, -2.78870575e-002, -1.62780713e-002,
          -2.25899369e-003, 3.89063209e-002, 5.24992421e-002,
          1.94974430e-002, 9.67298355e-003, 7.67978234e-003,
          1.64699797e-002, -1.28118284e-002, -2.70037539e-002,
          -6.58983970e-003, 6.59648608e-003, 3.28269824e-002,
          1.83316302e-002, 1.10604018e-002, 6.93675736e-003,
          -1.53013077e-002, -3.75487171e-002, -3.96194048e-002,
          -7.80929904e-003, 3.33380252e-002, 5.59429638e-002,
          3.33081707e-002, 1.88240800e-002, 1.07574798e-002,
          1.12773152e-003, 1.56884547e-002, 7.65386038e-003,
          2.26448756e-002, 6.97325729e-003, -9.00827814e-003,
          -4.83526196e-003, -4.45530191e-003, 2.36215778e-002,
          2.85630170e-002, 4.31180093e-003, 6.69545541e-003,
          7.68650183e-003, 2.15436425e-002, -5.80875017e-003,
          -1.28697483e-002, -8.12868064e-004, 1.09156417e-002,
          1.96732730e-002, 7.78660737e-003, 9.91162565e-003,
          1.50242299e-002, 3.54211102e-003, -1.66444760e-002,
          -1.65007114e-002, -4.58867615e-003, 2.33141519e-002,
          3.14450115e-002, 1.27195250e-002, 1.51818572e-002,
          1.64578985e-002, 2.24848986e-002, 1.40541643e-002,
          1.46515723e-002, 1.89223923e-002, 9.64003243e-003,
          -6.32277876e-003, -9.43961646e-003, -1.12397335e-002,
          3.45710292e-003, 8.76013841e-003, 1.68687338e-003,
          3.23009514e-003, 8.18626955e-003, 2.44332794e-002,
          8.85236441e-005, -3.54288099e-003, 2.91121798e-003,
          7.30519695e-003, 8.69135000e-003, 4.63993847e-003,
          1.20326150e-002, 2.02998929e-002, 1.04524316e-002,
          -8.08744039e-003, -1.29500777e-002, -7.48917973e-003,
          6.91534346e-003, 1.32541303e-002, 7.52875861e-003,
          1.40848449e-002, 2.25434620e-002, 3.26202475e-002,
          8.73841159e-003, 1.85336769e-002, 6.86915684e-003,
          6.22469839e-003, -1.07580507e-002, -1.37261301e-002,
          -1.55471498e-002, -8.04537721e-003, 2.06325157e-003,
          2.03134702e-003, 2.41198996e-003, 9.05102026e-003,
          1.33648356e-002, -7.80113693e-003, -1.20032523e-002,
          -2.18934193e-003, 3.23685515e-003, 6.76662428e-003,
          3.32132005e-003, 9.84377880e-003, 1.55170355e-002,
          9.87236388e-003, -1.28364991e-002, -2.19541676e-002,
          -1.66724883e-002, -4.26395610e-003, 8.38516094e-003,
          6.30778680e-003, 1.14297252e-002, 2.07930002e-002,
          2.09586211e-002, -2.10522301e-003, 1.63768290e-003,
          -1.98798068e-003, 5.94858732e-003, -1.36970039e-002,
          -2.16348171e-002, -1.02262450e-002, -1.14331460e-002,
          1.56859448e-003, 1.42638292e-002, 2.08206754e-002,
          2.31289994e-002, 1.51009299e-002, 4.92131943e-003,
          -1.20341135e-002, -7.73306470e-003, 2.72286386e-004,
          8.89381452e-004, 4.62293392e-003, 2.60265032e-003,
          6.26049144e-003, 5.31949569e-003, -5.41984430e-003,
          -2.83448156e-002, -1.70101188e-002, -1.03113139e-002,
          2.68473849e-003, 1.76985748e-002, 2.12606527e-002,
          2.70355307e-002, 1.90656800e-002, 6.37846184e-004,
          -8.94401968e-003, 9.16570984e-003, 9.98888444e-003,
          -8.92173126e-003, -1.12453371e-003, 1.27430644e-003,
          1.33832777e-002, 6.39258847e-002, 5.45264632e-002,
          2.04023197e-002, 6.38389494e-004, -1.42033203e-002,
          -2.84530222e-002, -2.09614597e-002, -7.89972860e-003,
          -1.32239405e-002, -3.82414949e-003, 1.74279418e-002,
          2.08334457e-002, 7.71223288e-003, -7.29160616e-003,
          -2.91933119e-002, -1.94128752e-002, -6.41941652e-003,
          4.19710716e-003, 4.70082760e-002, 5.66891767e-002,
          3.61807831e-002, 8.85923672e-003, -1.36556560e-002,
          2.78249271e-002, -8.76661204e-003, 3.41589600e-002,
          -8.80160555e-003, -2.54699606e-002, -8.51741806e-003,
          5.50498301e-003, 2.59892009e-002, 6.27388731e-002,
          3.99743058e-002, 1.71732660e-002, 1.07399076e-002,
          5.24176564e-003, -1.42184971e-002, -1.82334781e-002,
          -4.31117928e-003, -9.74153075e-003, 4.98478906e-003,
          1.64945312e-002, 3.95063078e-003, -5.36167994e-003,
          -1.89609602e-002, -3.24183367e-002, -2.28767712e-002,
          1.10653462e-003, 1.62374862e-002, 4.98743765e-002,
          4.38090749e-002, 1.89787820e-002, 4.90688859e-003,
          -1.28061129e-002, 2.12200265e-002, -5.66125661e-003,
          3.32527570e-002, -7.33891036e-003, -2.78170593e-002,
          -1.19548850e-002, 2.01983168e-003, 2.39910372e-002,
          4.60454896e-002, 2.31046714e-002, 1.97094399e-002,
          2.79867649e-002, 2.55968738e-002, -3.21922032e-003,
          -1.40954005e-002, -1.16475942e-002, -1.46979764e-002,
          3.22630210e-003, 5.24453400e-003, 2.46252539e-003,
          2.31832638e-003, -1.56235797e-002, -2.60713194e-002,
          -2.31094453e-002, -8.76366906e-003, 1.12015996e-002,
          3.30677703e-002, 2.39664856e-002, 1.95013266e-002,
          2.50406526e-002, 9.00693331e-003, 1.06146187e-002,
          -4.97804210e-003, 3.12174987e-002, 2.10717251e-003,
          -1.17193069e-002, -9.98133700e-003, -6.46970794e-003,
          8.90063401e-003, 2.15828829e-002, 8.25704727e-003,
          1.48841450e-002, 2.89260671e-002, 2.91207917e-002,
          9.65723768e-003, -1.53021410e-003, -1.57353599e-002,
          -1.76072773e-002, -6.32821163e-003, 3.81824590e-004,
          4.26349556e-003, 1.33144706e-002, -3.69556365e-004,
          -3.85157298e-003, -8.94067530e-003, -1.87966861e-002,
          -6.42458024e-003, 1.12464754e-002, 9.14449245e-003,
          1.75232813e-002, 3.30859534e-002, 2.53325570e-002,
          2.63685989e-003, 2.46833521e-003, 2.24686246e-002,
          5.21093095e-003, -1.14962757e-002, -4.66546649e-003,
          -4.74061910e-003, -7.01927987e-004, 2.69564171e-003,
          4.56502382e-003, 1.05362413e-002, 1.91264302e-002,
          2.26808470e-002, 1.28440876e-002, 6.98318426e-003,
          -8.77191033e-003, -1.48429237e-002, -9.15283337e-003,
          2.46273773e-003, 9.34453309e-003, 1.55249750e-002,
          -7.53632048e-003, 7.12151406e-004, 2.90661165e-003,
          -1.24665815e-002, -1.29828239e-002, -2.76009832e-003,
          8.12862441e-003, 1.66524071e-002, 2.66473200e-002,
          1.65863428e-002, 1.95197493e-003, 8.96440726e-003,
          6.17428543e-003, 4.05417848e-003, -7.57747283e-003,
          -3.13100009e-003, -3.86526505e-003, -5.36940806e-003,
          1.58535549e-003, 9.69895348e-003, 1.09952530e-002,
          1.08258668e-002, 9.33967344e-003, -5.22678578e-003,
          -9.61967278e-003, -7.91820511e-003, -3.32327350e-003,
          -5.40593266e-003, -3.87505931e-003, 9.71037429e-003,
          1.48357414e-002, -4.53339936e-003, -1.10301273e-002,
          -9.94080584e-003, -1.08051784e-002, -7.24228797e-003,
          -7.92860868e-004, 7.15338159e-003, 1.69252940e-002,
          1.93090178e-002, 3.58089502e-003, 8.14391300e-003,
          6.15926750e-004, -5.12662390e-003, -2.64712115e-004,
          -6.74007228e-003, -6.26281928e-003, -2.94532860e-003,
          -6.33554719e-003, 3.61078442e-003, 1.94336679e-002,
          2.19272692e-002, 1.66112538e-002, 5.31938812e-003,
          -4.72743483e-003, -9.77735594e-003, -5.69381658e-003,
          6.70069567e-005, -8.59925151e-003, -5.81568806e-003,
          1.21345278e-002, 1.35004316e-002, 7.25592196e-004,
          -5.58543298e-003, -1.22442888e-002, -7.20486278e-003,
          -4.37725335e-003, -1.06117420e-003, 1.35779977e-002,
          2.79635657e-002, 2.79797111e-002, 6.56274473e-003,
          2.08068639e-002, -9.46303923e-003, 6.97656488e-003,
          -1.14605844e-003, 1.30173685e-002, 1.28710726e-002,
          6.21532183e-003, -1.22013874e-003, 3.19421776e-002,
          2.77971383e-002, 1.18594691e-002, -1.72740854e-002,
          -2.44499985e-002, -1.54647119e-002, -4.15163068e-003,
          9.48975235e-003, 1.02314064e-002, 1.49796586e-002,
          1.61371063e-002, 2.02179365e-002, 1.89911686e-002,
          1.44301560e-002, -3.03700357e-003, 1.02552278e-002,
          1.58611499e-002, 1.18886260e-002, 3.81422490e-002,
          3.63036357e-002, 2.65704095e-002, 3.86781525e-003,
          -5.95197501e-003, 2.97748838e-002, -2.29698769e-003,
          3.76691520e-002, 3.49782617e-003, 3.06569552e-003,
          4.49709874e-003, 4.02924651e-003, -8.76099861e-004,
          2.01765653e-002, 1.24177607e-002, 1.40950456e-002,
          1.72772293e-003, 6.42424915e-004, -6.84493966e-003,
          -5.76011138e-003, 5.57288947e-003, 3.97739699e-003,
          1.12602515e-002, 2.98515568e-003, 8.21668364e-004,
          3.64935352e-003, 6.92510698e-003, -4.14704252e-003,
          1.05320965e-003, 8.18671845e-003, 5.18672913e-003,
          2.50415802e-002, 1.34505462e-002, 1.31345131e-002,
          5.66630810e-003, 6.63755834e-003, 1.68423709e-002,
          -9.40999854e-003, 3.18601504e-002, -4.66967351e-004,
          -4.95914090e-003, -3.54632945e-003, -9.08607524e-003,
          -1.21320654e-002, 6.33103400e-003, 8.39179847e-003,
          2.04697177e-002, 2.40877979e-002, 2.18115095e-002,
          -2.13145022e-003, 4.51345788e-003, 6.55492442e-003,
          -9.52078495e-003, -4.54238569e-003, -9.65776853e-003,
          -2.66978727e-003, 3.49412113e-003, -1.23843248e-003,
          -8.10377393e-003, 2.51933234e-003, -3.00418236e-003,
          -9.49505717e-003, 2.14172923e-003, -2.07527983e-003,
          1.56238377e-002, 2.27934457e-002, 1.89328287e-002,
          1.67166512e-003, -1.57864094e-002, 2.90389229e-002,
          2.12642783e-003, 3.08603700e-003, -7.50292232e-003,
          -1.57882068e-002, -1.31714251e-002, -5.95422601e-003,
          2.10328680e-003, 1.94673147e-002, 2.54860241e-002,
          1.90006699e-002, 1.45599665e-002, 2.28903573e-002,
          1.00691197e-002, -1.19728977e-002, -1.57129690e-002,
          -1.10601252e-002, -4.39923815e-003, 8.84198025e-003,
          5.41891623e-003, 1.34256985e-002, 1.73602980e-002,
          -6.34147041e-003, -1.37187680e-002, -1.17420200e-002,
          -8.06005951e-003, 1.27267940e-002, 2.53152587e-002,
          2.12524831e-002, 7.44018645e-004, -1.01625668e-002,
          2.45647896e-002, 6.23724563e-003, 1.44678410e-002,
          3.87767283e-003, -4.58053360e-003, -4.58204001e-003,
          -1.23260468e-002, 7.44696101e-003, 1.69356707e-002,
          1.08198049e-002, 2.73545738e-003, 1.30829345e-002,
          2.19620056e-002, 5.41102653e-003, -1.29984012e-002,
          -1.85330585e-002, -1.65273994e-002, -9.74300969e-003,
          8.41380004e-003, 6.00008585e-004, 2.48918515e-002,
          2.68011726e-002, -5.46509284e-004, -1.06354104e-002,
          -1.97498389e-002, -8.02332815e-003, 3.28458985e-003,
          1.15043372e-002, 1.14680249e-002, 3.26775364e-003,
          -8.12674931e-004, 1.11594088e-002, -1.13997480e-003,
          2.14314610e-002, 1.31610846e-002, -1.11846859e-003,
          -8.35445523e-003, -8.37478414e-003, 2.53894851e-002,
          2.63723284e-002, 3.88390920e-003, -3.35251936e-003,
          1.23792782e-003, 1.46334630e-003, -4.27412661e-003,
          -7.96162058e-003, -2.92048045e-002, -3.24977860e-002,
          -6.97070407e-003, 1.46647831e-002, 7.27157621e-003,
          2.11305711e-002, 1.61487963e-002, -4.43146983e-003,
          -1.21508781e-002, -2.22529583e-002, -6.41947240e-003,
          1.02982195e-002, 1.17662419e-002, 3.96128744e-003,
          1.28779290e-002, 5.26995491e-003, -3.10384482e-003,
          -9.02584754e-003, 1.58925280e-002, 1.48864267e-002,
          -8.26183707e-003, -2.79087462e-002, -9.46839340e-003,
          3.55998464e-002, 2.88686100e-002, 9.96947289e-003,
          1.40494271e-003, 2.01990642e-003, -1.02125225e-003,
          -2.76860246e-003, -2.89818621e-003, -3.35180014e-002,
          -3.78976725e-002, 3.39165446e-003, 2.07768064e-002,
          1.21170143e-002, 1.90417171e-002, 1.60473417e-002,
          -6.27484871e-003, -1.98044758e-002, -2.41331365e-002,
          -5.05520962e-003, 2.14752629e-002, 2.91239917e-002,
          1.40233841e-002, 1.86353419e-002, 3.77391395e-003,
          -2.40889401e-003, -1.00139771e-002 ]
   decision_functions:
      -
         sv_count: 1
         rho: 8.2820444364086887e-001
         alpha: [ 1. ]
