%YAML:1.0
opencv_ml_svm:
   format: 3
   svmType: EPS_SVR
   kernel:
      type: LINEAR
   C: 1.0000000000000000e-002
   p: 1.0000000000000001e-001
   term_criteria: { epsilon:1.0000000000000000e-003, iterations:1000 }
   var_count: 930
   sv_total: 1
   support_vectors:
      - [ 1.91812757e-002, 1.22608952e-002, 1.73830497e-003,
          7.46260537e-003, -6.49267435e-003, -2.68222224e-002,
          -2.09080745e-002, 1.60680944e-003, 2.96920240e-002,
          4.55001667e-002, 2.27364656e-002, -3.19008506e-003,
          -2.42783912e-002, -2.49422323e-002, -1.14474734e-002,
          -4.37152898e-003, -4.02236497e-003, -5.93123632e-003,
          4.44265865e-002, 2.89602019e-002, -1.64142507e-003,
          -1.81313213e-002, -2.81950142e-002, -2.92917322e-002,
          -2.33334173e-002, -1.95031567e-003, 2.28713006e-002,
          -7.17474474e-003, -2.75505148e-003, 6.48274319e-003,
          7.11089931e-003, 3.79613824e-002, 1.77253857e-002,
          1.20943098e-003, 7.68147968e-003, 7.70473504e-004,
          -2.08680239e-002, -9.56371520e-003, 4.62491531e-003,
          3.27087753e-002, 4.79378179e-002, 2.72765569e-002,
          -1.59636559e-003, -4.44307551e-002, -4.90554348e-002,
          -5.65475877e-003, 1.57632784e-003, 6.18537888e-003,
          1.53181432e-002, 5.69687150e-002, 3.62191871e-002,
          1.01207185e-003, -3.53249423e-002, -4.40620482e-002,
          -2.26030815e-002, -7.86456466e-003, 1.04480833e-002,
          4.17247415e-002, 3.29671474e-003, 1.32827740e-002,
          5.29784011e-003, 1.10296961e-002, 3.54548842e-002,
          8.52386095e-003, -2.56861886e-003, -1.18397558e-002,
          -8.23284127e-003, -1.13696270e-002, -4.62960685e-003,
          4.26816102e-003, 1.92213263e-002, 2.84220185e-002,
          1.37331840e-002, -9.38785914e-003, -4.50642481e-002,
          -6.16590567e-002, -2.05878057e-002, -1.59885432e-003,
          1.41550628e-002, 2.78078821e-002, 4.11191992e-002,
          1.57182794e-002, -5.61945979e-003, -4.42992263e-002,
          -6.14234917e-002, -3.01021021e-002, -6.46757567e-003,
          1.48424516e-002, 3.75670977e-002, -1.64271926e-003,
          8.92199483e-003, -1.35352584e-002, -5.69489924e-003,
          3.72587480e-002, 1.45065589e-002, 4.90444340e-003,
          -1.13114519e-002, -1.23197306e-002, -1.20836124e-002,
          -2.51847878e-003, 6.34907745e-003, 8.83422699e-003,
          1.72757395e-002, 1.24410363e-002, -1.19669866e-002,
          -5.18144704e-002, -6.90862089e-002, -2.92449743e-002,
          -1.19639270e-004, 3.06956358e-002, 4.36342806e-002,
          4.34345454e-002, 2.02062763e-002, -5.94243500e-003,
          -4.55194376e-002, -5.77587597e-002, -3.82890627e-002,
          -2.13233335e-003, 3.17620076e-002, 4.55992371e-002,
          1.33227659e-002, 1.99204534e-002, -2.55496465e-002,
          -1.92738939e-002, 1.33014200e-002, 9.12903715e-003,
          1.51230246e-002, 1.43699143e-002, 1.54914763e-002,
          -2.23710923e-003, -6.87481510e-003, 4.72212536e-003,
          1.45403454e-002, 1.94671694e-002, 1.75099783e-002,
          -6.88917190e-003, -3.60172652e-002, -4.48829308e-002,
          -2.63287593e-002, 5.81406010e-003, 3.56439203e-002,
          3.14302407e-002, 2.85940208e-002, 2.06713043e-002,
          6.84061926e-003, -1.74554586e-002, -2.13829167e-002,
          -2.09928472e-002, -2.49758805e-003, 3.29565965e-002,
          4.06943262e-002, 2.79394165e-002, 3.31860706e-002,
          -1.62125342e-002, -1.03533613e-002, 2.14211782e-003,
          1.03519205e-002, 1.73816718e-002, 1.64881293e-002,
          4.15515825e-002, 2.66811159e-002, 2.14383844e-002,
          7.90075585e-003, 1.53530482e-002, 1.80159099e-002,
          1.95511822e-002, 6.21407386e-003, -1.98406503e-002,
          -1.99015345e-002, -2.31223926e-002, -2.85667367e-003,
          2.03844551e-002, 1.62028633e-002, 2.14710906e-002,
          3.07276491e-002, 2.48395409e-002, 1.26475166e-003,
          1.12353358e-002, 5.37603535e-003, 1.51951723e-002,
          2.30951831e-002, 2.87355930e-002, 2.55788155e-002,
          2.60399934e-002, 1.43610882e-002, 1.60135161e-002,
          4.35299203e-002, 2.45790314e-002, 9.81480582e-004,
          1.32948335e-003, -2.99039744e-002, -5.33775687e-002,
          -4.42185439e-002, -1.72268022e-002, 2.32088333e-003,
          3.49853523e-002, 2.23518517e-002, -8.43438972e-003,
          -1.18845385e-002, 1.24962709e-003, -2.57276813e-003,
          -2.16284627e-003, 1.57432677e-003, 3.00673861e-003,
          4.24499251e-002, 3.45874131e-002, -5.84794628e-003,
          -9.31603275e-003, -2.38918364e-002, -5.07194661e-002,
          -4.39771153e-002, -1.48607651e-002, 5.01061510e-003,
          -1.26273157e-002, -5.45384130e-003, -1.57577265e-003,
          3.68932076e-003, 5.08155152e-002, 6.08061347e-003,
          -9.06725693e-003, -1.94326509e-003, -1.56968664e-002,
          -4.30811830e-002, -2.87047531e-002, -1.31588755e-002,
          8.89427401e-003, 3.25293876e-002, 2.32088342e-002,
          -1.29759451e-002, -1.89678892e-002, -6.23299275e-004,
          3.38493567e-003, 1.91147625e-003, 1.07122902e-002,
          2.66050454e-002, 4.62200195e-002, 1.97595768e-002,
          -1.57918483e-002, -1.53520899e-002, -1.30049959e-002,
          -3.75684611e-002, -2.60786489e-002, -2.75689573e-003,
          2.94020995e-002, -3.41431098e-003, 6.62542460e-003,
          -1.24836946e-003, 7.42897810e-003, 4.53767404e-002,
          -1.09266108e-002, -2.31066998e-002, -2.26911772e-002,
          -1.43870795e-002, -2.30580643e-002, -2.18545534e-002,
          -1.31137418e-002, 1.63958466e-003, 1.58194676e-002,
          7.29336962e-003, -1.23808347e-002, -1.01692760e-002,
          -2.98200920e-003, -8.01741611e-003, 3.89868132e-004,
          2.18207873e-002, 5.13596199e-002, 2.62719169e-002,
          -1.15182903e-002, -2.40296777e-002, -2.07974147e-002,
          -1.60713978e-002, -2.93349773e-002, -2.02187020e-002,
          7.52064539e-003, 4.35675643e-002, -3.75073380e-003,
          9.10251308e-003, -1.13121886e-002, -2.99054547e-003,
          4.45327982e-002, -3.64818377e-003, -3.04615311e-003,
          -1.85943898e-002, -1.21312626e-002, -1.01164915e-002,
          -1.57624856e-002, -1.15727894e-002, -6.70756679e-003,
          6.83577964e-003, 1.25936409e-002, -6.54936489e-003,
          -2.81041604e-003, 1.58094370e-003, -5.49389888e-003,
          2.69896607e-003, 3.31675112e-002, 6.71109781e-002,
          3.57006602e-002, 5.61575755e-004, -6.49460033e-003,
          -1.87391341e-002, -1.05493423e-002, -1.47040328e-002,
          -1.21538248e-002, 1.93864461e-002, 5.19880913e-002,
          2.35532317e-002, 3.42861041e-002, -1.77383535e-002,
          -6.11887779e-003, 1.99433211e-002, 5.01266727e-003,
          5.23309596e-003, -2.11294348e-004, 1.42744521e-003,
          -8.09716294e-004, -1.24435611e-002, -1.73574928e-002,
          -1.39473015e-002, -1.45962543e-003, 1.09350784e-002,
          -1.11106215e-002, -1.51252598e-002, 1.99189000e-002,
          1.50176594e-002, 2.49839388e-002, 4.72219549e-002,
          5.91174290e-002, 1.81162655e-002, 1.06716771e-002,
          -1.65601273e-003, -1.22286938e-002, 2.18197349e-002,
          1.39699336e-002, 1.17527181e-002, 2.72299815e-002,
          4.00771499e-002, 3.25032808e-002, 4.75078560e-002,
          -1.29751060e-002, -2.76223128e-003, 2.86566000e-003,
          -5.61037194e-003, -6.99939020e-003, -1.14537403e-002,
          1.54745849e-002, 1.31433122e-002, 2.26853825e-002,
          1.95908383e-003, -1.05437892e-003, 2.95859599e-003,
          1.40097216e-002, 5.66015812e-003, 5.48570417e-003,
          3.30601819e-002, 2.75067873e-002, 3.77876237e-002,
          3.88572775e-002, 3.61781567e-002, 1.23197688e-002,
          1.05970483e-002, 1.71127655e-002, 9.30162705e-003,
          4.16951403e-002, 4.21272777e-002, 5.02462760e-002,
          3.95931713e-002, 3.40294726e-002, 2.63309143e-002,
          4.26958203e-002, 1.37379728e-002, 2.68425569e-002,
          3.56772989e-002, 1.72518212e-002, -2.88500078e-003,
          1.75017479e-003, -5.00168279e-003, -1.70725596e-003,
          -2.48640426e-003, 4.62795794e-003, 4.12925566e-003,
          2.56000999e-002, -2.54581170e-003, -2.93468628e-002,
          -1.83969419e-002, -1.16535311e-003, -3.47956596e-003,
          -1.82473916e-004, 1.04971533e-003, 1.35446368e-002,
          2.75008380e-002, 8.42189603e-003, -2.44690850e-002,
          -1.02967685e-002, -5.14182216e-003, -5.16468566e-003,
          -3.35946353e-003, 5.27986279e-003, 1.41319735e-002,
          -2.19842140e-003, -2.24232208e-004, 5.47303166e-003,
          1.41244261e-002, 3.06389425e-002, 7.63571472e-004,
          -5.98300854e-003, -4.49581211e-003, -1.09842047e-002,
          -7.28953537e-003, -4.20276448e-003, 9.71435849e-003,
          1.50313694e-002, 1.87576320e-002, -4.73185070e-003,
          -2.61936355e-002, -1.18310526e-002, 2.75132898e-003,
          -1.17920153e-003, -2.22052142e-004, 1.31904241e-002,
          3.04238386e-002, 1.48061812e-002, -4.43729525e-003,
          -2.87550353e-002, -8.70787725e-003, -5.43136848e-003,
          -7.15681771e-003, -4.20988072e-003, 1.63766593e-002,
          3.59059647e-002, 3.64220934e-003, 5.93799492e-003,
          4.97447513e-003, 6.26156665e-003, 3.01324800e-002,
          -1.58216571e-003, 3.42584593e-004, -8.03145859e-003,
          -1.86948795e-002, -9.54721496e-003, -9.47335269e-003,
          -3.46918532e-004, 1.07453270e-002, 1.13774994e-002,
          8.28201999e-004, -1.38189401e-002, -4.83530894e-004,
          -6.13932917e-003, -1.90909300e-002, -3.82566079e-003,
          2.74579544e-002, 4.86877300e-002, 9.71467420e-003,
          -1.01648755e-002, -1.19452821e-002, -8.17944389e-003,
          -1.97492875e-002, -2.32445169e-002, -1.04249911e-002,
          2.40043569e-002, 4.89361361e-002, 4.60801972e-003,
          1.17520047e-002, 2.80969776e-004, 1.52553536e-003,
          2.31175628e-002, -9.03071941e-006, 2.77835992e-003,
          -7.20633520e-003, -2.30582859e-002, -6.58756867e-003,
          5.97975217e-004, 1.85075623e-003, 8.68944358e-003,
          2.58332561e-003, 5.10771852e-003, -6.17095642e-003,
          -3.55308643e-003, -1.39100058e-002, -2.00726558e-002,
          6.35792920e-003, 3.26005220e-002, 5.56613468e-002,
          1.51099879e-002, -1.39194704e-003, -1.26502570e-003,
          -1.05277030e-002, -2.01890990e-002, -1.87138263e-002,
          7.96112418e-003, 3.14316712e-002, 5.36197647e-002,
          1.09625440e-002, 3.73578332e-002, -1.45097263e-002,
          -6.10316452e-003, 5.95240341e-003, -5.75628830e-003,
          -9.12227761e-003, -1.11703277e-002, -1.53535120e-002,
          -3.21175647e-003, 4.40445496e-003, 2.46662507e-003,
          1.17964880e-003, -1.52496863e-002, -1.07187685e-002,
          -1.13848839e-002, -7.05887936e-003, 3.31123569e-003,
          4.09019180e-003, 3.01417857e-002, 4.43764180e-002,
          4.61677611e-002, -3.84824700e-003, -1.67212449e-002,
          -3.77795193e-003, -8.30226857e-003, 5.26368525e-003,
          6.29847171e-003, 3.31164524e-002, 4.51157019e-002,
          4.02162857e-002, -6.76050026e-004, 4.80948538e-002,
          -2.28374060e-002, 4.33041074e-004, -4.97993128e-003,
          -7.97384419e-003, -1.05735864e-002, -1.74189582e-002,
          -3.35912826e-003, 7.99447205e-003, 1.83863007e-002,
          1.19579807e-002, 7.56753888e-003, -5.17261820e-003,
          2.92777899e-003, 9.61514004e-003, 1.66047197e-002,
          2.68996637e-002, 2.25109458e-002, 3.81077528e-002,
          3.51347066e-002, 3.06259319e-002, 1.12104835e-003,
          2.80930923e-004, 5.32922335e-003, 7.77674234e-003,
          2.68381480e-002, 3.40753756e-002, 5.06965257e-002,
          4.66337949e-002, 3.35149951e-002, -1.44092855e-003,
          5.62728569e-002, -7.27123953e-003, 3.67514975e-002,
          6.06304314e-003, 2.00095528e-004, 1.16761145e-003,
          1.25469845e-002, 9.67152137e-003, 1.14842402e-002,
          8.48948769e-003, 8.21873639e-003, -9.16618761e-003,
          4.62675467e-004, -1.22239823e-002, -2.15158463e-002,
          -1.44550446e-002, -7.85740558e-003, 8.75545759e-003,
          1.21653862e-002, 4.44734422e-003, 1.28806904e-002,
          -1.99463742e-004, -8.94345902e-003, -1.66479610e-002,
          -1.30580273e-003, 5.90967573e-003, 1.76109858e-002,
          1.84920784e-002, 1.05860522e-002, 2.12006809e-004,
          2.87727383e-003, -4.74882731e-003, 1.53918238e-002,
          1.25095889e-003, -9.58200637e-003, -2.00780164e-002,
          -4.11283411e-003, 8.89439508e-003, 3.10496753e-003,
          9.70840361e-003, 2.00022534e-002, 3.29949409e-002,
          8.17147829e-003, 4.80175251e-004, -8.50647409e-003,
          -1.85037144e-002, -5.90616325e-003, 2.19722884e-003,
          1.07084038e-002, 1.47450529e-002, 1.31055089e-002,
          1.55035881e-002, -1.86979286e-002, -2.51998976e-002,
          -2.11391207e-002, 2.89750518e-003, 6.35488285e-003,
          1.81486458e-002, 3.08488626e-002, 3.27907018e-002,
          1.55116133e-002, 9.69236530e-003, 5.27550932e-003,
          1.43746193e-002, 5.03538409e-003, -4.87629650e-003,
          -1.72541663e-002, -5.88116655e-003, -7.12431921e-003,
          -1.57712568e-002, 4.52991389e-003, 2.65919939e-002,
          2.87061110e-002, 4.03701887e-003, -1.37751903e-002,
          -1.63814072e-002, -1.58940870e-002, -5.23129571e-003,
          -2.32935906e-003, 1.31979818e-004, 3.12878229e-002,
          4.79084440e-002, 3.73296365e-002, -3.09745725e-002,
          -3.60780358e-002, -2.08782945e-002, -1.14470171e-002,
          -1.22933593e-002, 7.88333081e-003, 4.51766439e-002,
          5.84165826e-002, 3.15068439e-002, 9.16156545e-003,
          9.64449160e-003, 1.08037284e-002, 6.21867739e-003,
          -2.04005502e-002, -2.59407815e-002, -1.03470609e-002,
          -1.45286536e-002, -2.06350423e-002, -5.34597959e-004,
          2.34918445e-002, 1.96912345e-002, 7.69137684e-003,
          -1.91364214e-002, -1.59259476e-002, -1.56520493e-002,
          -1.26065714e-002, -4.98764869e-003, 1.07904496e-002,
          5.22204451e-002, 5.91695420e-002, 2.52286568e-002,
          -3.76538709e-002, -4.31885384e-002, -2.37303898e-002,
          -2.48089191e-002, -1.74430180e-002, 1.01070087e-002,
          6.01140149e-002, 6.29820898e-002, 2.55793016e-002,
          -1.21067092e-003, 2.64147781e-002, -4.13969811e-003,
          -3.34531791e-003, -2.64558792e-002, -2.50113346e-002,
          -5.35232015e-003, -5.46091003e-003, -7.18013151e-003,
          -4.98428987e-003, 7.59726996e-003, 4.98996489e-003,
          5.96427033e-003, -2.48181317e-002, -2.60149967e-002,
          -1.07103055e-002, -3.43772676e-003, 8.24417733e-003,
          3.94355990e-002, 5.37126623e-002, 4.20907103e-002,
          8.32109340e-003, -4.21946980e-002, -4.86121401e-002,
          -1.51917525e-002, -7.69444322e-003, 5.89801744e-003,
          2.96454392e-002, 4.92295101e-002, 4.31016162e-002,
          8.35287478e-003, -5.52853057e-003, 3.20944414e-002,
          -1.77871771e-002, 5.80153568e-003, -2.06043124e-002,
          -1.23446351e-002, 2.86446069e-003, 7.52057042e-003,
          8.57290905e-003, -3.46932490e-003, -7.11698027e-004,
          5.67162700e-004, 3.86969792e-003, -8.80758837e-003,
          -9.56662372e-003, 5.70392760e-004, 4.52998886e-003,
          2.68249847e-002, 5.42848371e-002, 4.70901951e-002,
          2.40699854e-002, 1.08208815e-002, -2.11017914e-002,
          -1.50202382e-002, 3.13306320e-003, 1.41769536e-002,
          2.83531956e-002, 4.31270115e-002, 3.94681804e-002,
          2.46242825e-002, 9.63490177e-003, 6.42877445e-003,
          3.84889282e-002, -7.39483163e-003, 2.66261324e-002,
          3.23470565e-003, 5.21870982e-003, 1.21101039e-002,
          1.85101181e-002, 2.39848811e-002, 3.47293578e-002,
          9.11184307e-003, -1.16916159e-002, -2.99117062e-002,
          -1.22986250e-002, -2.37528235e-003, -7.89570063e-003,
          -9.21537168e-003, -1.63889918e-002, 8.73182435e-003,
          8.49802420e-003, -4.35161684e-003, 1.30849797e-002,
          -8.79923534e-003, 6.11832039e-003, 6.22086972e-003,
          1.25255426e-002, 2.03095693e-002, 3.67525183e-002,
          1.68637224e-002, -1.21362433e-002, -1.39050018e-002,
          3.43018165e-003, -7.64676603e-003, 1.74955558e-002,
          7.03159906e-003, -2.15144232e-002, -1.51760867e-002,
          6.85040932e-003, 2.71099042e-002, 2.07275953e-002,
          2.57132389e-002, 3.50810289e-002, 3.59948874e-002,
          5.82591398e-003, -8.68106633e-003, -1.48687446e-002,
          -2.09929422e-002, -1.40186036e-002, -2.23829802e-002,
          -1.28675103e-002, -7.18099577e-003, -7.16078188e-003,
          4.44816845e-003, -2.61880625e-002, -1.67268515e-002,
          -1.23557355e-002, 1.53698660e-002, 6.73571741e-003,
          1.22863818e-002, 2.25794762e-002, 1.59018300e-002,
          3.31865461e-003, 8.00735503e-003, -8.21094494e-003,
          1.02361934e-002, -2.06263899e-003, -2.22046692e-002,
          -2.02435609e-002, -3.24900495e-003, -6.22390257e-003,
          1.49385585e-003, 2.95742415e-002, 5.56711815e-002,
          5.01001328e-002, 1.39953475e-002, -1.45292543e-002,
          -2.34906096e-002, -2.90438235e-002, -3.18897031e-002,
          -3.51034030e-002, -2.97740605e-002, 1.46685038e-002,
          2.72701792e-002, 1.78168789e-002, -3.46459448e-002,
          -4.04832549e-002, -2.74588019e-002, -1.93938464e-002,
          -1.98091120e-002, 3.20012704e-003, 5.13839833e-002,
          5.74419238e-002, 2.12501548e-002, -1.28537253e-003,
          -7.01478496e-003, 1.10802157e-002, -5.21327229e-003,
          -2.82214358e-002, -1.76702198e-002, -5.38912788e-003,
          -1.71926226e-002, -7.17266044e-003, 2.31314469e-002,
          4.08231243e-002, 2.08203066e-002, 6.07844326e-004,
          -1.45454118e-002, -2.07822416e-002, -2.64299698e-002,
          -3.83350998e-002, -3.99114303e-002, -1.73750110e-002,
          4.07396518e-002, 3.06656417e-002, -1.03017865e-002,
          -4.12658006e-002, -3.71016636e-002, -2.93940771e-002,
          -3.95513326e-002, -2.45475005e-002, -1.79763103e-003,
          5.77194281e-002, 3.61678787e-002, -9.99725051e-003,
          -1.77644454e-002, -5.44180535e-003, -5.66243613e-003,
          -1.19258007e-002, -2.42279246e-002, -8.02389719e-003,
          -2.64312199e-004, 3.30937491e-003, 1.93709098e-002,
          2.44054683e-002, 1.44997286e-002, -6.01110887e-003,
          -7.24504236e-003, -1.87495612e-002, -2.71176454e-002,
          -2.64219325e-002, -2.83425730e-002, -2.66516358e-002,
          4.89935931e-003, 3.05943768e-002, 9.16736573e-003,
          -1.93437673e-002, -4.08277474e-002, -3.40241417e-002,
          -2.55350675e-002, -1.87075976e-002, -1.71191012e-003,
          1.69586036e-002, 3.03000472e-002, 9.76011623e-004,
          -2.78246272e-002, -1.45266410e-002, 5.57302684e-003,
          -2.13864464e-002, -1.02723800e-002, -2.12865807e-002,
          -4.47233720e-003, -2.12303200e-003, 1.72669441e-002,
          3.40337642e-002, 2.17280537e-002, 9.42261831e-004,
          -7.08322553e-003, -4.84040705e-003, -1.42268678e-002,
          -1.56327877e-002, -1.74007285e-002, -1.98169574e-002,
          -1.62673965e-002, 1.52592780e-002, 1.81107894e-002,
          -7.99745438e-004, -1.66079905e-002, -3.21630388e-002,
          -1.73894968e-002, -1.52935060e-002, 4.08068206e-003,
          9.68159083e-003, 2.15594061e-002, 1.55823762e-002,
          -6.80774404e-003, -2.31275000e-002, -5.19563584e-003,
          1.25066126e-002, -2.10572891e-002, -1.91216508e-003 ]
   decision_functions:
      -
         sv_count: 1
         rho: 8.9201972385033101e-001
         alpha: [ 1. ]
