%YAML:1.0
opencv_ml_svm:
   format: 3
   svmType: EPS_SVR
   kernel:
      type: LINEAR
   C: 1.0000000000000000e-002
   p: 1.0000000000000001e-001
   term_criteria: { epsilon:1.0000000000000000e-003, iterations:1000 }
   var_count: 744
   sv_total: 1
   support_vectors:
      - [ 1.28644817e-002, 1.55469086e-002, 9.53502022e-003,
          6.86866371e-003, 7.45776482e-003, -1.14409383e-002,
          -4.52120090e-004, -1.71588582e-003, 1.84115041e-002,
          2.87788175e-002, 1.69567391e-002, 8.05668160e-003,
          -1.87079143e-002, -2.13722847e-002, -9.80736315e-003,
          6.14535343e-003, 2.20430177e-003, 2.86689890e-003,
          3.57938930e-002, 2.83504296e-002, 1.40153607e-002,
          -1.11437161e-002, -1.42714987e-002, -1.69533212e-002,
          3.86033510e-003, 1.29342801e-003, 1.94943063e-002,
          7.50048226e-003, 9.96284094e-003, 1.64264441e-002,
          1.43723766e-004, 8.33554193e-003, 5.24581270e-003,
          3.67902219e-003, -3.56086274e-003, 8.50345753e-003,
          -3.94436345e-003, 8.90901964e-003, 4.51835291e-003,
          1.90705750e-002, 2.89415494e-002, 1.84722655e-002,
          1.05312811e-002, -4.46039215e-002, -5.52744754e-002,
          -1.22177517e-002, -6.75538741e-003, -2.53897347e-003,
          -5.42065222e-003, 2.94315945e-002, 2.38271765e-002,
          1.13079529e-002, -4.18106876e-002, -4.37878445e-002,
          -1.40448520e-002, 2.16030190e-003, 1.93809182e-003,
          9.35809687e-003, -1.86759438e-002, -1.55045614e-002,
          1.16937133e-002, 1.39499679e-002, 1.62684300e-003,
          -7.55650923e-003, -7.61247284e-005, -9.36661032e-004,
          3.39287915e-003, -2.45486503e-003, 2.11992227e-002,
          1.09492019e-002, 6.08192524e-003, 1.79147795e-002,
          2.39534099e-002, 2.99921613e-002, -5.42569757e-002,
          -7.01111853e-002, -1.90795232e-002, -1.31239183e-002,
          -4.23177471e-003, -1.47425383e-003, 1.67650040e-002,
          1.46332327e-002, 2.17437781e-002, -4.20379750e-002,
          -5.48792705e-002, -2.25758851e-002, 2.45772256e-003,
          6.53354824e-003, 2.12008832e-003, -1.25678191e-002,
          -1.58550106e-002, -1.55099796e-003, 2.54241796e-003,
          6.28273143e-003, 6.66376296e-003, 2.43345965e-002,
          3.39633077e-002, 3.37277725e-002, 1.78873651e-002,
          2.58294716e-002, -1.26427673e-002, -2.45280694e-002,
          -1.43376375e-002, -8.98747984e-003, 1.36488387e-002,
          -2.28361357e-002, -5.17648309e-002, -4.90631163e-002,
          -4.71193418e-002, -1.00666964e-002, 1.08639663e-002,
          -7.37915747e-003, -1.47682533e-003, 2.81370413e-002,
          1.07438229e-002, -2.03289352e-002, -2.76986379e-002,
          -1.95331331e-002, -1.95771921e-002, -1.58665981e-002,
          2.23390572e-003, -1.34348199e-002, -9.98227485e-003,
          -1.09400153e-002, 4.24451660e-003, -2.33106874e-003,
          1.54107006e-003, 1.23057002e-003, -5.92986168e-003,
          -3.15367430e-002, -5.72005939e-003, 5.43941697e-003,
          1.83007326e-002, 3.77567648e-003, -1.04851816e-002,
          -1.07500013e-002, -1.09977592e-002, 1.97423878e-003,
          2.35762261e-003, 1.30930608e-002, 1.60723440e-002,
          1.55847613e-002, 8.59671552e-003, -5.90785313e-003,
          -6.05746545e-003, -7.50623876e-003, -2.10202721e-004,
          -2.53554620e-002, 7.20234122e-003, 1.76988319e-002,
          3.25872637e-002, -7.74952956e-003, -3.03772814e-003,
          8.87299515e-003, 4.67823911e-003, -1.81096178e-002,
          -4.96552065e-002, -3.99667211e-002, -2.06998959e-002,
          -9.07535572e-003, -2.93322541e-002, -3.92149622e-003,
          9.16273147e-003, 1.89254042e-002, 9.65162832e-003,
          1.12884480e-003, 6.58950303e-003, -1.47886146e-002,
          -1.23765385e-002, -8.76754930e-004, 9.91994422e-003,
          2.51712687e-002, 1.52519476e-002, -8.57978221e-003,
          -2.79211514e-002, -1.27893034e-002, -2.85036862e-002,
          -2.03739889e-002, -2.89847404e-002, 5.29162912e-003,
          2.80244797e-002, 2.81982534e-002, -3.23724374e-002,
          -2.55759805e-002, 3.03358468e-003, 6.36007497e-003,
          -1.76714174e-002, -4.03514914e-002, -2.67602466e-002,
          -1.58018470e-002, -1.03798658e-002, -1.39472540e-002,
          7.00486219e-003, -6.30577607e-003, -8.97224247e-003,
          -6.47935877e-003, 7.83467107e-003, 3.15366127e-002,
          3.50186322e-003, -8.85695219e-003, 9.62490041e-004,
          9.82414186e-003, 3.99866812e-002, 2.35008784e-002,
          -2.25121360e-002, -2.40631215e-002, 5.24584902e-004,
          -1.07825715e-002, -2.02422682e-002, -1.44323101e-002,
          1.24758976e-002, 2.56984979e-002, 1.16736153e-002,
          -8.10304657e-003, -8.68592132e-003, -3.55417747e-003,
          5.55332145e-003, -2.19164416e-003, -2.33545974e-002,
          -5.66638773e-003, 2.01179292e-002, 1.90267619e-002,
          1.22103831e-002, 2.21446622e-002, -2.69923881e-002,
          -4.53594476e-002, -2.78510638e-002, -1.89967379e-002,
          -2.35882867e-003, -1.16353214e-003, 3.16053722e-003,
          7.10952049e-003, 1.99141614e-002, 5.33175692e-002,
          3.69776860e-002, -2.93429717e-002, -3.81195210e-002,
          -3.52329342e-003, 1.97451338e-002, 2.00586859e-002,
          1.76350661e-002, 3.66309881e-002, 2.51879077e-002,
          -8.99701752e-003, 1.84301157e-002, 6.63916022e-003,
          -3.25636496e-003, -2.93589383e-003, -2.27424372e-002,
          -2.40839347e-002, -5.09533379e-003, -9.72473237e-004,
          5.39534725e-003, -3.76940682e-003, 3.67163047e-002,
          4.06062864e-002, 2.79464591e-002, -1.94584075e-002,
          -2.99755987e-002, -8.95796996e-003, 1.43758953e-002,
          1.81160569e-002, 1.28193880e-002, 1.14122815e-002,
          1.78779736e-002, 9.31753777e-003, -2.71012262e-002,
          -3.02471258e-002, -2.98182643e-003, 1.48070529e-002,
          2.28055827e-002, 1.08610280e-002, 4.60432097e-002,
          5.19835949e-002, 3.59273478e-002, 3.68242210e-004,
          9.98363612e-005, 1.35536278e-002, 2.34677792e-002,
          -4.81451675e-002, -6.16431385e-002, -2.89076921e-002,
          -3.65156238e-003, 3.65923904e-003, -9.80766583e-003,
          3.05293668e-002, 3.91340964e-002, 3.12670954e-002,
          -1.15017332e-002, -3.49928997e-003, 1.14019541e-002,
          1.90229956e-002, 6.36362412e-004, -1.63255702e-003,
          1.07043041e-002, 2.62433272e-002, 4.22084797e-003,
          -5.58965951e-002, -5.57554364e-002, -1.03772506e-002,
          1.45020857e-002, 3.24209267e-003, -1.06772846e-002,
          3.51154916e-002, 5.53895012e-002, 3.02894749e-002,
          -1.75461024e-002, -1.80755593e-002, 1.91076193e-002,
          2.02997532e-002, -1.56397950e-002, -3.61406952e-002,
          -1.90478787e-002, -4.12904425e-003, -6.40851725e-003,
          -3.30401491e-003, 3.61251719e-002, 3.17465737e-002,
          1.71672436e-003, -2.76615918e-002, -1.64816882e-002,
          1.55829766e-003, 6.12785667e-003, -1.88945588e-002,
          -1.42015368e-002, 2.12835763e-002, 4.85304259e-002,
          2.07010359e-002, -4.01463769e-002, -4.51780483e-002,
          -1.34741310e-002, 1.57784880e-003, -1.61585063e-002,
          -1.47859976e-002, 4.96810824e-002, 6.63505346e-002,
          1.97979547e-002, -6.65616244e-004, -2.96354317e-003,
          2.98356102e-003, 3.41759156e-003, -9.73855890e-003,
          -4.95451391e-002, -3.67891006e-002, -2.07685353e-003,
          -5.69775992e-004, 4.08786396e-003, 3.49421985e-002,
          1.78561974e-002, -2.60420348e-002, -4.02532890e-002,
          -3.24979685e-002, -2.67129913e-002, -9.87669080e-003,
          -1.81327369e-002, -8.39916430e-003, 3.99394184e-002,
          8.49563181e-002, 5.53684197e-002, -4.33315225e-002,
          -6.57082871e-002, -3.25901993e-002, -1.02534164e-002,
          -7.02702207e-003, 1.12401706e-003, 6.72208816e-002,
          8.66385549e-002, 2.71843243e-002, 1.65033550e-003,
          6.36386964e-003, -8.59179441e-003, -1.04927188e-002,
          -5.90441525e-002, -3.30559723e-002, -3.18173273e-003,
          4.50871978e-003, 2.72498820e-002, 2.28479635e-002,
          6.14606887e-002, 5.20092919e-002, 2.88727116e-002,
          -4.96581085e-002, -5.35718985e-002, 5.00305044e-003,
          3.14236879e-002, 3.20837572e-002, 2.14815140e-002,
          1.28845563e-002, 1.65947173e-002, -9.61870048e-003,
          -7.30121732e-002, -5.71336448e-002, 1.07508069e-002,
          3.37876491e-002, 5.29370904e-002, 4.34700996e-002,
          7.07445145e-002, 6.12953566e-002, 1.86326411e-002,
          1.66517589e-003, 4.49534785e-003, 2.07323469e-002,
          2.41550226e-002, -6.27302229e-002, -4.84706610e-002,
          -1.11531159e-002, -2.34037894e-003, 1.04469704e-002,
          9.96323489e-003, 6.20662794e-002, 5.72574399e-002,
          2.90041603e-002, -2.56861150e-002, -2.34069638e-002,
          8.47263634e-003, 2.37784069e-002, 1.87125690e-002,
          9.27219540e-003, 1.79902054e-002, 2.35910937e-002,
          -1.24982325e-002, -7.72878528e-002, -6.39084503e-002,
          -2.40154099e-003, 2.00478304e-002, 2.66056806e-002,
          2.12504957e-002, 7.30357245e-002, 7.16879666e-002,
          1.55461533e-002, -7.78191490e-003, -9.08046868e-003,
          2.63107698e-002, 3.02762594e-002, -3.97283174e-002,
          -4.89994027e-002, -1.42176691e-002, -3.90017801e-003,
          -1.74031556e-002, -7.06486963e-003, 5.48864566e-002,
          6.90887645e-002, 2.75650769e-002, -2.49287672e-002,
          -2.92788520e-002, -1.49671668e-002, -2.45835539e-003,
          -1.04597760e-002, -6.34075003e-003, 3.00300885e-002,
          5.12046926e-002, 9.57545079e-003, -5.29405214e-002,
          -6.73253983e-002, -2.48405077e-002, -5.66878729e-003,
          -1.35205984e-002, -6.11512968e-003, 7.60335997e-002,
          1.03334263e-001, 3.70058231e-002, -6.74213329e-003,
          1.70712057e-003, 8.87544733e-003, 6.81475084e-003,
          -3.42130363e-002, -5.51234335e-002, -3.19371186e-002,
          -6.16052514e-003, -2.21456122e-002, -1.11265583e-002,
          2.99307257e-002, 5.11734746e-002, 9.16541647e-003,
          -3.36537957e-002, -2.38409378e-002, -1.98968574e-002,
          -1.23037035e-002, -1.56409349e-002, -4.27291123e-003,
          4.24328335e-002, 8.11872035e-002, 4.23998199e-002,
          -5.49591742e-002, -6.81517422e-002, -4.19131145e-002,
          -1.33850472e-002, -2.28866320e-002, -1.01294741e-002,
          6.43182173e-002, 1.14137225e-001, 4.64986153e-002,
          -8.83203186e-003, 7.51579460e-003, -5.85526228e-003,
          5.59670210e-004, -6.66484833e-002, -1.83561351e-002,
          1.20522864e-002, 1.35323228e-002, 3.47771943e-002,
          3.52503248e-002, 5.73629886e-002, 4.75249104e-002,
          8.35220329e-003, -6.39111027e-002, -4.65962365e-002,
          1.65663138e-002, 3.28961052e-002, 3.32653560e-002,
          3.68592292e-002, 2.37042848e-002, 2.14557489e-003,
          -4.47382070e-002, -8.58442038e-002, -4.86466065e-002,
          2.72055529e-002, 4.48660180e-002, 6.33432940e-002,
          6.74240440e-002, 7.41206706e-002, 4.77554835e-002,
          -2.83729844e-002, -3.75752989e-003, 7.04005547e-003,
          2.30264496e-002, 2.74489783e-002, -7.20089898e-002,
          -3.84458974e-002, 8.42036825e-005, 9.02189966e-003,
          2.28778180e-002, 2.69439593e-002, 6.91828579e-002,
          6.71005249e-002, 1.95957366e-002, -4.33079116e-002,
          -3.56371626e-002, -9.73414816e-003, 1.98744070e-002,
          2.75984835e-002, 3.63955796e-002, 2.80631557e-002,
          3.29477596e-003, -3.82561460e-002, -9.81929749e-002,
          -6.70896992e-002, -8.80660769e-003, 2.72292122e-002,
          4.68744785e-002, 5.90517223e-002, 8.69902968e-002,
          6.32772967e-002, -1.71651430e-002, -6.12458121e-003,
          -2.81716697e-003, 2.03335080e-002, 3.22802141e-002,
          -6.40370399e-002, -2.63632219e-002, 1.46585517e-002,
          7.73952203e-003, 3.20438296e-004, 5.86866168e-003,
          4.57336530e-002, 6.29373342e-002, 2.43910477e-002,
          -3.17178071e-002, -2.43539512e-002, -1.48056876e-002,
          -2.93529104e-003, 1.22859310e-002, 2.55205948e-002,
          3.46525460e-002, 2.65643168e-002, -2.39070226e-002,
          -6.91199154e-002, -4.92437184e-002, -1.08287309e-003,
          5.86253870e-003, 1.44736748e-002, 2.91155837e-002,
          6.98954612e-002, 7.95801431e-002, 8.68550502e-003,
          -4.56602825e-003, 5.29997097e-003, 1.49661787e-002,
          1.85011663e-002, -4.15151753e-002, -1.66527182e-002,
          1.28942635e-002, 6.63037039e-003, -1.00093856e-002,
          -6.69469452e-003, 2.00286582e-002, 4.32380140e-002,
          2.75990963e-002, -2.76018772e-002, -1.77007802e-002,
          -1.50277875e-002, -1.14614330e-002, 4.70164290e-004,
          7.55335018e-003, 2.19959822e-002, 3.70514952e-002,
          -7.58250942e-003, -5.70406467e-002, -3.04581728e-002,
          -3.36581725e-003, -2.84782960e-003, -6.40417170e-003,
          -2.46764452e-004, 3.65437306e-002, 6.96542263e-002,
          1.80574227e-002, 1.03571010e-003, 5.53515134e-003,
          -3.07851704e-003, 7.45122135e-003, -3.62462029e-002,
          -2.14251447e-002, -2.97031063e-003, -1.88634843e-002,
          1.23698516e-002, 3.33386399e-002, 3.67335491e-002,
          1.60233211e-002, -2.16311365e-002, -5.40753715e-002,
          -3.55823189e-002, 1.51562449e-002, 3.52696031e-002,
          3.44199799e-002, 4.33942825e-002, 1.58436727e-002,
          -1.20232431e-002, -3.04923765e-002, -6.13591895e-002,
          -3.04609556e-002, 1.16632748e-002, 2.28586849e-002,
          4.99734916e-002, 5.84890693e-002, 4.70331535e-002,
          7.80652929e-003, -3.74272838e-002, -1.82441156e-002,
          -7.03422353e-003, 8.15348048e-003, 2.14803834e-002,
          -5.08463159e-002, -3.66146937e-002, -1.90006234e-002,
          -2.05722414e-002, 2.64659673e-002, 3.97037342e-002,
          4.17703614e-002, 3.31121795e-002, 3.53599316e-003,
          -2.72976067e-002, -2.20414046e-002, -1.68179143e-002,
          1.07905883e-002, 2.22474057e-002, 3.53757963e-002,
          1.06237633e-002, -9.30838007e-003, -3.10100242e-002,
          -6.52212426e-002, -4.99709025e-002, -2.20803376e-002,
          3.94422887e-003, 3.86699252e-002, 5.64545877e-002,
          4.46118936e-002, 2.11708471e-002, -2.62803845e-002,
          -1.42356260e-002, -1.29080452e-002, 5.50818490e-003,
          1.69764441e-002, -3.79428566e-002, 3.91617371e-003,
          2.23784875e-002, -4.24365839e-003, 1.99474115e-002,
          1.65108871e-002, 1.36994747e-002, 1.99931618e-002,
          -1.08002068e-003, -9.54791252e-003, 1.37023395e-003,
          -1.74273197e-002, -1.76139567e-002, -4.49129427e-003,
          1.70390252e-002, 8.65024421e-003, -7.03157438e-003,
          -4.41330932e-002, -4.09461446e-002, 7.96693843e-004,
          5.09916712e-003, -5.05474396e-003, 1.09424125e-002,
          2.05739588e-002, 1.69105828e-002, 1.01964790e-002,
          -2.62908395e-002, -9.51476861e-003, -1.18057989e-002,
          5.26815793e-003, 6.62130304e-003, -1.96210090e-002,
          2.31408961e-002, 2.72915345e-002, -1.12523499e-003,
          3.20474338e-003, 6.78664364e-004, 1.53974036e-003,
          2.06180643e-002, 1.59772448e-002, -4.17405553e-003,
          3.74910422e-004, -2.44679544e-002, -2.63005085e-002,
          -1.58889461e-002, -2.53899600e-002, -3.38636450e-002,
          -2.80810967e-002, -4.52756435e-002, -1.98823530e-002,
          1.93549991e-002, 1.32003026e-002, -1.47134159e-002,
          -1.94528159e-002, -2.64202058e-002, -3.03176045e-002,
          -8.32063146e-003, -2.41254847e-002, -4.38262848e-003,
          -1.89574361e-002, -1.87529679e-002, -1.98311340e-002 ]
   decision_functions:
      -
         sv_count: 1
         rho: 7.3399289112670862e-001
         alpha: [ 1. ]
