%YAML:1.0
opencv_ml_svm:
   format: 3
   svmType: EPS_SVR
   kernel:
      type: LINEAR
   C: 1.0000000000000000e-002
   p: 1.0000000000000001e-001
   term_criteria: { epsilon:1.0000000000000000e-003, iterations:1000 }
   var_count: 1302
   sv_total: 1
   support_vectors:
      - [ -1.77107509e-002, -2.12965272e-002, 9.98395495e-004,
          1.05440700e-002, 9.18956250e-002, 5.79430349e-002,
          -4.04503755e-003, -1.88908947e-003, -2.49223178e-003,
          7.71330018e-003, 3.00903595e-003, -1.22922622e-002,
          2.40454189e-002, 2.01096646e-002, -6.19613938e-002,
          -2.11256761e-002, -2.13430785e-002, -1.64696462e-002,
          -1.26707256e-002, -1.64463948e-002, -1.51182041e-002,
          1.24591161e-002, 3.46766189e-002, -1.38831115e-003,
          -2.40688659e-002, -2.29894314e-002, -1.96578801e-002,
          -1.58979855e-002, -2.56147585e-003, 7.91746378e-003,
          2.73393244e-002, -1.33162364e-002, -4.18787170e-003,
          -6.34739501e-003, -4.66932729e-003, 1.11105449e-001,
          7.26330653e-002, -5.47816802e-004, 2.45164172e-003,
          -2.00207834e-003, 1.15510458e-002, -1.25401309e-002,
          -3.44773792e-002, -3.11465915e-002, 1.69322584e-002,
          -5.54600954e-002, -1.91387217e-002, -1.78184547e-002,
          -1.98106337e-002, -7.28703802e-003, -1.87132210e-002,
          -3.74927483e-002, -3.70386802e-002, 2.94578783e-002,
          1.79696009e-002, -1.71008296e-002, -1.47696082e-002,
          -2.04013456e-002, -1.73331071e-002, 1.56852733e-002,
          -9.50536132e-003, 7.95273483e-003, 2.16854765e-004,
          2.58905087e-002, 8.84743035e-003, 5.88941853e-003,
          9.35428813e-002, 6.16702959e-002, -3.69192520e-003,
          8.62063561e-003, -1.41061447e-003, 2.16831267e-002,
          -2.16166638e-002, -4.97108102e-002, -6.95597902e-002,
          -7.01893214e-003, -4.47189137e-002, -2.36691013e-002,
          -2.76538003e-002, -3.47180553e-002, 1.08577413e-002,
          1.05682050e-003, -3.74966785e-002, -5.61448745e-002,
          1.49885640e-002, 1.59105230e-002, -2.48471983e-002,
          -1.74799655e-002, -3.23637538e-002, -2.46453285e-002,
          1.37988720e-002, -2.74811294e-002, 1.12657137e-002,
          -4.51703090e-003, 2.91572995e-002, 1.56989670e-003,
          3.77959572e-002, 8.46683532e-002, 2.88578849e-002,
          -3.38989077e-003, 3.33725056e-003, -8.81888322e-004,
          2.05734242e-002, -7.26031186e-003, -2.28391308e-002,
          -7.35945329e-002, -1.34865642e-002, -2.23820582e-002,
          -3.03796008e-002, -3.26250829e-002, -4.58751917e-002,
          7.00496929e-003, 2.05280911e-002, -1.71515122e-002,
          -1.43551156e-002, 1.51442178e-002, 6.35989476e-003,
          -3.20259593e-002, -2.74418183e-002, -4.27732244e-002,
          -1.53961424e-002, 7.16550509e-003, -3.01596709e-002,
          1.42210638e-002, -2.54496969e-002, 7.86706712e-003,
          1.94463842e-002, 7.81437308e-002, 1.09653398e-001,
          3.77651281e-003, -3.15568075e-002, -1.88034922e-002,
          -8.91879108e-003, 1.62540888e-003, -1.14431707e-002,
          -5.46816364e-003, -5.22508323e-002, -1.90166272e-002,
          -3.36840935e-002, -3.37664299e-002, -2.96372157e-002,
          -3.97459492e-002, -2.55199037e-002, -2.66667502e-003,
          1.51599720e-002, 3.37183401e-002, 1.87218618e-002,
          -2.61700545e-002, -6.32475689e-002, -4.60616685e-002,
          -4.67745438e-002, -1.01378225e-002, -9.17841960e-003,
          -2.76839100e-002, 4.93771210e-003, -2.91438233e-002,
          -4.71260981e-004, 3.66092138e-002, 1.10975429e-001,
          1.32018790e-001, 2.20647510e-002, -2.32169516e-002,
          -2.31648125e-002, -9.23375040e-003, 4.93431522e-004,
          -1.34472558e-002, 3.56866396e-003, -2.26619057e-002,
          -5.41848410e-003, -6.28590509e-002, -5.58693260e-002,
          -2.43251100e-002, -3.80866788e-002, -2.35047359e-002,
          -7.35709909e-003, 4.05023769e-002, 8.10439736e-002,
          4.50124443e-002, -3.95445600e-002, -6.87634349e-002,
          -4.57052588e-002, -4.34131250e-002, 2.03204527e-002,
          5.14698960e-003, -2.05607209e-002, -5.92877436e-003,
          -1.75336264e-002, -1.89973991e-002, 2.00422313e-002,
          3.50882858e-002, 1.96283739e-002, -1.65704526e-002,
          -3.22467424e-002, -1.76034421e-002, -1.85468197e-002,
          1.47190196e-002, -5.34180261e-004, -3.22505720e-002,
          -4.31153597e-003, -1.18354545e-003, -4.50172201e-002,
          -7.91596621e-003, -5.31286979e-003, -8.46124906e-003,
          -5.68635715e-003, -1.93713848e-002, -1.80392601e-002,
          4.34995629e-003, 1.32931015e-002, -4.17713039e-002,
          -4.12398614e-002, -2.44898871e-002, -2.75635365e-002,
          -2.25375574e-002, -3.96314748e-002, 1.56757012e-002,
          -1.80921052e-002, -3.86333588e-004, 2.78562686e-004,
          -4.24480438e-003, 3.47360549e-003, 4.18436453e-002,
          -1.60374623e-002, -4.77574840e-002, -2.49515921e-002,
          -2.94149630e-002, 3.42567973e-002, 9.57243610e-003,
          -5.09856157e-002, -2.99738534e-002, 1.26917353e-002,
          -2.24044956e-002, -1.09576117e-002, -1.52972564e-002,
          -1.82319749e-002, 1.06476545e-002, -4.18481213e-004,
          -5.16445488e-002, -3.10285240e-002, 1.79382563e-002,
          -2.69513503e-002, -5.72949909e-002, -3.94550301e-002,
          -4.49809395e-002, -3.73726077e-002, -2.50467174e-002,
          -1.30730029e-003, -1.57168470e-002, 3.20002139e-002,
          1.39656467e-002, -1.82330683e-002, -1.06749507e-002,
          2.88848095e-002, -5.80954598e-003, -4.23219837e-002,
          -1.64058171e-002, -2.83098593e-002, 5.46650328e-002,
          1.21016474e-002, -5.15945628e-002, -3.54000628e-002,
          2.20019165e-002, 4.46917163e-003, -4.53269016e-003,
          -2.16319412e-002, -2.58384831e-002, 4.03433479e-002,
          1.72361843e-002, -6.25131503e-002, -4.15798202e-002,
          1.89069491e-002, 6.66922657e-003, -4.43520136e-002,
          -3.58036868e-002, -4.98370714e-002, -2.44505554e-002,
          -1.45699922e-003, -1.41377533e-002, -3.63675179e-003,
          3.48810814e-002, 1.10555356e-002, -4.81750518e-002,
          -4.86032525e-003, 1.42671047e-002, -1.35533186e-002,
          -1.86633673e-002, -9.78403259e-003, -1.51434401e-002,
          4.52407412e-002, 1.53171681e-002, -2.59949099e-002,
          -2.91295107e-002, 2.60607526e-002, 2.17950512e-002,
          -1.21617119e-003, -2.05098819e-002, -2.48095598e-002,
          3.46444659e-002, 1.72612835e-002, -6.69628307e-002,
          -2.20196042e-002, 1.47849955e-002, 1.10111991e-002,
          -1.87344626e-002, -2.88965479e-002, -3.62093076e-002,
          1.13130417e-002, 6.12727366e-003, -3.09494194e-002,
          -6.86580967e-003, 9.52716917e-003, 4.04749950e-003,
          -1.96558870e-002, 2.34495718e-002, 6.75313687e-003,
          -4.51790951e-002, -4.12165374e-002, -2.94092037e-002,
          -2.26651076e-002, -3.96181131e-003, -1.08660739e-002,
          -1.63808540e-002, -1.12280240e-002, 5.31221740e-002,
          4.88794185e-002, 1.60555691e-002, 2.32455553e-004,
          -9.18307062e-003, -5.21816686e-003, -1.07351774e-002,
          -3.06302980e-002, 1.65095441e-002, 2.94800382e-002,
          8.28993320e-003, -2.39769146e-002, -2.83985473e-002,
          -3.04815378e-002, 3.48271057e-002, -7.33779231e-003,
          -2.81730611e-002, -2.17919759e-002, -1.92726236e-002,
          -4.97523975e-003, 2.05920395e-002, 5.67791313e-002,
          8.69013648e-003, -6.33009821e-002, -4.22467701e-002,
          -3.24193276e-002, -2.78858449e-002, -1.80726293e-002,
          -1.78904291e-002, 4.06148704e-003, -8.28242453e-004,
          5.54749779e-002, 4.98188138e-002, 3.48407999e-002,
          1.41938347e-002, -5.64791402e-003, -3.12587284e-002,
          -1.70582179e-002, 2.34143920e-002, 4.97360528e-002,
          4.49338667e-002, 6.77670212e-003, -7.54065253e-003,
          -1.73071362e-002, -2.98373867e-002, 5.80909923e-002,
          -4.01425967e-003, -1.07207373e-002, -3.77410464e-002,
          -3.87998414e-003, -1.17626907e-002, 1.34602031e-002,
          1.39334099e-002, -1.21435151e-002, -2.30975486e-002,
          -2.44790912e-002, -2.07995083e-002, -2.48961207e-002,
          1.59481633e-002, 1.49959680e-002, 8.28598568e-004,
          1.71068199e-002, 1.82231013e-002, -1.81882381e-002,
          1.13392866e-003, 1.03002712e-002, -1.90370460e-003,
          5.37054474e-003, 2.60284613e-003, 9.93605051e-003,
          2.01971158e-002, 2.67954357e-003, -3.26308906e-002,
          -2.51834374e-002, -1.19569050e-002, -2.73714550e-002,
          -8.37028306e-003, -4.31809314e-002, 4.17110473e-002,
          -6.76251575e-003, 2.20880676e-002, 3.74067994e-003,
          -9.88091622e-003, -7.96119776e-003, -2.47098226e-003,
          -2.95069609e-002, -3.98685597e-002, -3.61665897e-002,
          -4.88891192e-002, 2.08878201e-002, 1.01540592e-002,
          -2.40059420e-002, 1.36096869e-002, 1.60561502e-002,
          -2.16800347e-002, -1.26694143e-002, -8.63947161e-003,
          -1.39294406e-002, 6.45419676e-003, 2.95379222e-003,
          -3.08011677e-002, 2.39377865e-003, 3.38021014e-003,
          -4.77916449e-002, -5.06934151e-002, -4.47778590e-002,
          -6.17683604e-002, -3.45527455e-002, -4.71007824e-002,
          1.78169962e-002, -1.58923715e-002, 4.63151857e-002,
          -8.41915142e-003, -3.03746518e-002, -1.25816846e-002,
          -5.00031514e-003, -2.61412021e-002, -4.57092226e-002,
          -4.21679504e-002, -6.09960668e-002, 3.56220677e-002,
          -3.06414743e-003, -3.25259306e-002, 9.62378632e-004,
          1.04949558e-002, -1.23184603e-002, -1.59372278e-002,
          -1.64101757e-002, -7.08578341e-003, 1.01872412e-002,
          -2.30148658e-002, -5.95562384e-002, -8.15440062e-003,
          6.10899413e-004, -3.47730853e-002, -5.88374063e-002,
          -5.72117157e-002, -6.53975531e-002, -2.95417029e-002,
          -3.59881073e-002, -1.36000607e-002, -2.70941705e-002,
          3.16675939e-002, -2.07496900e-002, -4.86378968e-002,
          -7.40659598e-004, 3.49612004e-004, -1.34172607e-002,
          -2.40638610e-002, -2.28606071e-002, -3.71313170e-002,
          3.88188474e-002, 4.06524679e-003, -2.31773928e-002,
          -7.71718426e-003, 8.66314955e-003, 7.75386579e-003,
          -5.72637562e-003, -7.67249474e-003, -2.14042506e-004,
          9.73630231e-003, -1.96422376e-002, -6.74827769e-002,
          -4.15016757e-003, 4.49332129e-003, -5.62876416e-003,
          -2.86910757e-002, -3.02574355e-002, -3.58793586e-002,
          1.06011257e-002, -1.89780490e-003, -3.06023899e-002,
          -3.50415558e-002, 1.56167941e-002, -1.18694864e-002,
          -1.82640664e-002, 3.24359946e-002, 1.06103560e-002,
          -2.28224583e-002, -1.93673261e-002, -9.28840786e-003,
          -1.42687131e-002, 3.07326578e-003, -2.17224262e-003,
          -6.83374004e-003, -3.73227085e-004, 2.68464237e-002,
          3.54794115e-002, 1.17000109e-002, 7.37372134e-003,
          1.01510491e-002, 6.35118398e-004, -1.62254889e-002,
          -2.49259993e-002, 2.30063796e-002, 1.96136553e-002,
          1.09814964e-002, -5.20716747e-003, -9.82791418e-004,
          -3.77351162e-003, 3.19444612e-002, 2.89236903e-002,
          -1.57150552e-002, -2.25129947e-002, 4.31900378e-003,
          1.01861591e-002, 2.38992255e-002, 6.24421537e-002,
          3.03474232e-003, -5.84927648e-002, -3.12082972e-002,
          -7.44069740e-003, -7.88380858e-003, -1.16768656e-002,
          -7.35647371e-003, 1.94244646e-002, 1.86363049e-002,
          5.28536327e-002, 5.10303006e-002, 2.97108591e-002,
          2.43484061e-002, 1.67546254e-002, -1.95877464e-003,
          6.02528360e-003, 3.49665768e-002, 6.32747933e-002,
          3.50618921e-002, -2.52149627e-003, 4.49626765e-004,
          1.73848718e-002, 1.00316592e-002, 3.87482308e-002,
          5.50039895e-002, -3.41298548e-003, 4.43437166e-004,
          2.33034790e-003, -3.55170458e-003, 3.91405355e-003,
          3.03724431e-004, 2.57600155e-002, 3.46534476e-002,
          8.89306422e-003, -1.51946135e-002, -1.91137958e-002,
          1.91317629e-002, 2.51440331e-002, 1.28906835e-002,
          1.03892516e-002, 1.35440864e-002, -1.25439065e-002,
          5.56170754e-003, 1.50109278e-002, 5.04824053e-003,
          1.50893545e-002, 2.53781322e-002, 1.69852506e-002,
          1.41595332e-002, 4.00699675e-002, 2.47030053e-002,
          1.21857841e-002, -1.03063870e-003, -1.38434255e-002,
          -5.07227797e-003, -1.26878815e-002, 4.09504138e-002,
          3.91153097e-002, 3.11166979e-002, 4.92586754e-003,
          -1.31151490e-002, -1.21694775e-002, 1.51683595e-002,
          2.59395186e-002, -4.49917658e-004, -2.31147148e-002,
          -3.43313366e-002, 2.51144934e-002, 4.90073580e-003,
          -1.49452742e-002, -9.99377924e-004, -9.37213097e-003,
          -2.10035313e-002, -8.16873834e-003, -4.29875171e-003,
          -1.01806293e-003, 1.32803218e-002, 4.94780298e-003,
          -2.46461816e-002, -1.28574567e-002, 9.09628533e-003,
          5.79605671e-003, -7.81655405e-003, -2.69032661e-002,
          -3.38220671e-002, -2.89949495e-002, -3.27111594e-002,
          2.62305178e-002, 1.85896661e-002, 4.60636765e-002,
          -2.42290972e-003, -2.24847998e-002, -1.44802183e-002,
          -8.63876846e-003, 3.90619249e-003, -1.01238592e-002,
          -1.84333213e-002, -2.28673220e-002, 6.69510961e-002,
          -1.65725092e-003, -3.60420980e-002, -1.99021492e-002,
          -2.51726341e-002, -2.19583437e-002, -2.03704312e-002,
          -1.82055607e-002, 1.44041218e-002, 3.17403115e-002,
          -1.23341326e-002, -5.66608459e-002, -3.11482698e-002,
          -2.34852843e-002, -1.51493661e-002, -2.87114121e-002,
          -3.57680619e-002, -1.12011880e-002, -2.16946695e-002,
          -2.13992782e-002, -2.75820913e-003, -6.67810347e-003,
          3.57070789e-002, -7.39022484e-003, -3.07543948e-002,
          9.46107961e-004, -1.03435954e-002, -4.72611282e-003,
          -1.14493202e-002, -1.06550939e-002, -1.58782378e-002,
          6.64843917e-002, 9.41100158e-003, -2.54036710e-002,
          -2.36201361e-002, -2.83954777e-002, -1.95758995e-002,
          -1.46626560e-002, -8.33451934e-003, 3.49941738e-002,
          3.26627754e-002, 6.46341708e-004, -5.40111735e-002,
          -1.93118937e-002, -2.57750321e-002, -2.07189657e-002,
          -2.52712108e-002, -1.91790760e-002, 1.57806017e-002,
          1.08271558e-002, 1.43884141e-002, -2.76120435e-002,
          -2.76065283e-002, 9.05388501e-003, -1.33102969e-003,
          -1.03463745e-002, 3.32169197e-002, 2.36995798e-002,
          -7.28755677e-003, -1.24513479e-002, -1.80000032e-003,
          -2.81044515e-003, 1.29843457e-002, 1.63853681e-003,
          -1.74952555e-003, -1.62092235e-003, -1.03288321e-002,
          -6.35459833e-003, -5.12028637e-004, 1.55983935e-003,
          1.69746261e-002, -2.45943986e-004, -1.37028843e-003,
          -1.38560561e-002, 2.24315207e-002, 1.17179593e-002,
          -1.09588122e-002, -1.15288841e-002, 9.91585897e-004,
          1.31794848e-002, 1.88354924e-002, 3.56648304e-002,
          -2.03944147e-002, -1.40548749e-002, -1.08478758e-002,
          1.08366704e-003, 1.81230400e-002, 6.18792996e-002,
          4.94578555e-002, 1.56316929e-003, 1.24587782e-003,
          1.04993610e-002, -9.54288291e-004, -1.29906600e-002,
          -1.38867870e-002, 2.49965079e-002, 3.12322248e-002,
          3.57156657e-002, 1.54102091e-002, 9.25748982e-003,
          1.10017019e-003, -2.75692728e-004, -1.50993410e-002,
          -6.45751134e-003, 3.44489813e-002, 6.95246086e-002,
          5.49101867e-002, 1.79354940e-002, 1.24601163e-002,
          1.28160622e-002, 2.27808743e-003, 2.31905449e-002,
          5.65865338e-002, 3.28893447e-003, 2.18719784e-002,
          6.36678236e-003, 6.57756929e-004, 8.76827445e-003,
          2.37866445e-003, 4.75356076e-003, 2.25147884e-002,
          1.86501015e-002, -1.68902741e-003, -1.36559960e-002,
          1.88820027e-002, 8.67867842e-003, 1.34569164e-002,
          2.09466536e-002, 3.27477679e-002, 8.53007135e-004,
          1.40250595e-002, 1.43139102e-002, 2.87458836e-003,
          1.85939409e-002, 1.62595306e-002, 2.06950530e-002,
          2.73219552e-002, 2.95742098e-002, 2.37209834e-002,
          3.07182893e-002, 1.19618038e-002, -8.28206632e-003,
          -6.23617845e-004, -1.77228707e-003, 4.55240496e-002,
          3.96136269e-002, 2.70350669e-002, -2.23536813e-003,
          -2.07098946e-002, -2.03040894e-002, -1.94522496e-002,
          1.35700114e-003, 7.61675183e-005, -1.38281845e-002,
          -2.23845206e-002, 1.04245907e-002, -5.82997175e-003,
          -9.29531083e-003, -4.01900557e-004, 2.29336042e-003,
          -1.15211764e-002, 1.39789074e-003, -2.17863172e-003,
          1.15152029e-002, 4.83136717e-003, -4.60092258e-003,
          -2.55421791e-002, -1.51236393e-002, -1.07655367e-002,
          -7.71690626e-003, 2.74385675e-003, -1.56040220e-002,
          -9.37217660e-003, -4.39303108e-002, -3.63911018e-002,
          2.42332518e-002, 2.11847536e-002, 3.68825197e-002,
          -1.56080583e-002, -3.62559743e-002, -2.83117518e-002,
          -4.30774614e-002, -2.00260170e-002, -1.45194465e-002,
          -1.83437467e-002, -6.57418603e-003, 6.52148724e-002,
          2.98607200e-002, -1.63901728e-002, -1.62319485e-002,
          -3.10331620e-002, -1.02720782e-002, -3.44368815e-003,
          -9.06202104e-003, 2.88379584e-002, 2.87340600e-002,
          1.44133600e-003, -5.07267378e-002, -3.95718403e-002,
          -5.67133985e-002, -2.82669682e-002, -1.70148313e-002,
          -2.63078418e-002, 1.75335314e-002, -2.68599521e-002,
          -1.91622861e-002, -5.60322590e-003, 5.47558011e-004,
          4.85878401e-002, -6.50474010e-003, -4.28077243e-002,
          -2.33098399e-002, -4.10686620e-002, -2.55051721e-002,
          -1.78708639e-002, -1.66356601e-002, -9.38532315e-003,
          6.26519173e-002, 2.91899499e-002, -1.27270864e-002,
          -1.89230889e-002, -3.22035588e-002, -1.13381296e-002,
          7.56614050e-003, 8.15284811e-003, 4.45873141e-002,
          4.95291166e-002, 1.55436415e-002, -5.33018932e-002,
          -3.70951593e-002, -5.32724671e-002, -3.24256308e-002,
          -1.07165352e-002, -8.63362849e-003, 2.82994695e-002,
          1.04693603e-002, 1.55959465e-002, -3.02239433e-002,
          -2.29675304e-002, 2.59130877e-002, -9.38418880e-003,
          -1.65258255e-002, 7.12096365e-003, -3.51168122e-003,
          -1.91255677e-002, -1.36609226e-002, -4.55751736e-003,
          -7.88857229e-003, 3.00709507e-003, -4.88005858e-003,
          3.20586073e-003, -1.58647285e-003, -1.25668962e-002,
          3.96150688e-004, 2.63936985e-002, 1.66563317e-002,
          3.29411775e-002, 1.13490848e-002, -1.30793694e-002,
          -1.52136739e-002, -5.07747871e-004, -1.39888478e-002,
          -1.67725235e-002, 1.28239617e-002, 1.24500636e-002,
          2.47676913e-002, 2.65925098e-002, 2.18857992e-002,
          -2.12710835e-002, -1.68615710e-002, -1.21627282e-002,
          -1.06352465e-002, 1.28763635e-002, 4.12945896e-002,
          4.02119979e-002, 9.27014649e-003, 1.24535803e-002,
          1.20552229e-002, -2.47162767e-003, -2.23675389e-002,
          -2.33123340e-002, 1.48623055e-002, 2.65670102e-002,
          3.16939466e-002, 2.01454703e-002, 2.08104998e-002,
          8.73514544e-003, 6.91387709e-003, -2.15442944e-002,
          -2.30544861e-002, 2.51103807e-002, 4.90850396e-002,
          4.00852114e-002, 2.65521761e-002, 3.38131264e-002,
          2.09622383e-002, 8.67910683e-003, 3.90938446e-002,
          2.57581230e-002, 1.33321974e-002, 9.93967149e-003,
          8.72485805e-003, 9.94787738e-003, 1.41046140e-002,
          4.29954758e-004, 3.97704029e-003, 2.23659407e-002,
          2.48765629e-002, 1.59962885e-002, 4.59968951e-003,
          1.70095395e-002, 7.86704384e-003, 1.81622133e-002,
          1.24428496e-002, 3.32218781e-002, 1.49899803e-003,
          1.91058088e-002, 1.41008068e-002, -1.03917369e-003,
          1.57183390e-002, 2.23950651e-002, 2.94256937e-002,
          1.98592786e-002, 2.41143256e-002, 2.76648458e-002,
          3.99593227e-002, 2.64208578e-002, 3.33126727e-003,
          -7.80966226e-003, 6.58200821e-003, 5.75733259e-002,
          5.08472882e-002, 7.87984394e-003, -7.31627177e-003,
          -1.96895339e-002, -2.50457097e-002, -1.03488518e-002,
          2.17286944e-002, 1.05762901e-002, -3.50512145e-003,
          -6.25638384e-003, 4.64779383e-004, -5.84042212e-003,
          -3.96455667e-004, -2.38837232e-003, 4.55352757e-003,
          -5.61382342e-003, -1.10761495e-003, 8.36866209e-004,
          9.31724207e-004, -1.12811672e-002, -4.64418205e-003,
          -1.63509678e-002, -1.68947559e-002, -5.84273133e-004,
          1.96604915e-002, 1.00122970e-002, -2.63440516e-003,
          -4.45043482e-003, -5.20994738e-002, -3.31602842e-002,
          2.59461496e-002, 4.02045436e-002, 7.18069356e-003,
          -2.04125997e-002, -2.90458761e-002, -2.14473773e-002,
          -1.67832002e-002, 1.28918178e-002, -1.19949421e-002,
          -1.94480978e-002, -1.27763096e-002, 5.08498847e-002,
          3.19491848e-002, -4.58901748e-003, -1.16483150e-002,
          -3.35604139e-002, -1.14815198e-002, 5.60091157e-003,
          -4.59686713e-003, 7.75805814e-003, -7.94249587e-004,
          1.26104080e-003, -3.00425366e-002, -2.54019909e-002,
          -3.39646339e-002, 2.79642898e-003, -4.30999650e-003,
          -2.28703152e-002, -5.79955149e-003, -2.72129513e-002,
          -1.36306556e-002, -7.88706075e-003, 1.02861207e-002,
          3.42795923e-002, 4.44741017e-004, -1.75886024e-002,
          4.77330796e-005, -1.19966045e-002, 1.86368520e-003,
          -2.35805046e-002, -2.39941515e-002, -2.28212215e-002,
          4.41036411e-002, 2.05058530e-002, -1.83679648e-002,
          -2.36288216e-002, -4.08164449e-002, -9.15821455e-003,
          1.55582055e-002, 7.98805617e-003, 1.45844724e-002,
          2.38868967e-002, 1.55805582e-002, -3.34513336e-002,
          -1.82646662e-002, -3.66893448e-002, -5.50715718e-003,
          -6.98827440e-003, -1.44236675e-002, -6.16820203e-003,
          9.16541833e-003, 2.05785818e-002, -3.35053019e-002,
          -2.10232865e-002, 3.23531292e-002, 2.37759091e-002,
          1.20290276e-002, 3.14812697e-002, 9.73804947e-003,
          -8.51448567e-004, -1.80325266e-002, -1.12606939e-002,
          -6.63201837e-003, 7.24705961e-003, -1.52355321e-002,
          -1.63107943e-002, -2.40305904e-002, -3.02047580e-002,
          -1.61655748e-003, 3.47894169e-002, 1.69437416e-002,
          2.10050698e-002, 1.98296662e-002, 9.79392044e-003,
          -8.72329576e-004, 7.78774871e-003, -9.48228315e-003,
          -2.23949389e-003, 1.70883816e-002, 6.33814605e-003,
          1.54836290e-002, 4.23801653e-002, 2.97961384e-002,
          -2.41783764e-002, -1.72684193e-002, 1.07256509e-002,
          9.68779344e-003, 3.73621993e-002, 4.88318652e-002,
          3.53026912e-002, 9.30363033e-003, -3.61609971e-003,
          8.25218391e-003, 6.75059296e-003, 5.71254734e-003,
          1.31617719e-003, 1.25755565e-002, -1.66975183e-003,
          7.79285654e-003, 1.80712659e-002, 3.73116806e-002,
          1.96164530e-002, 1.32053355e-002, 1.26706529e-002,
          1.58913750e-002, 4.86349426e-002, 4.26961631e-002,
          3.22627313e-002, 2.40170602e-002, 3.52548696e-002,
          2.83367727e-002, 2.18567979e-002, 6.92729726e-002,
          3.03537585e-002, 1.94000155e-002, 1.13307294e-002,
          1.34262573e-002, -3.32698721e-004, 5.07771620e-004,
          -2.61568390e-002, 1.49501720e-002, 5.39311208e-002,
          3.19203138e-002, 1.39953541e-002, -1.43123353e-002,
          -2.18847627e-003, 2.07396708e-002, 2.51743309e-002,
          1.55401686e-002, 1.58487484e-002, -8.75489879e-003,
          1.26617122e-002, 1.47216925e-002, 6.12950325e-003,
          -5.87892719e-003, 2.25218423e-002, 2.48847492e-002,
          4.86950809e-003, 2.64481548e-002, 4.15976867e-002,
          3.66695076e-002, 2.31168531e-002, -7.44077237e-003,
          -1.96271744e-002, -1.59606915e-002, 7.03427047e-002,
          5.37748262e-002, -9.54408257e-004, -3.59378606e-002,
          -3.52065824e-002, -3.31365690e-002, 2.68627424e-002,
          6.75112382e-002, 9.31142829e-003, -1.64814256e-002,
          -3.01765855e-002, -3.98193672e-003, 1.12104556e-002,
          4.96221473e-003, 5.70884859e-003, 1.54362200e-003,
          -1.25793135e-002, -1.03308856e-002, 3.01976735e-003,
          9.86885163e-004, -2.40678843e-002, -1.06785167e-002,
          -2.64961459e-002, -1.84812807e-002, 2.81524621e-002,
          5.05757257e-002, -4.04581981e-004, -1.42273232e-002,
          -2.49430817e-002, -4.63937633e-002, -4.90704849e-002,
          3.57692875e-002, 3.72240953e-002, 4.87581734e-003,
          -4.35342975e-002, -2.89289579e-002, -1.24837151e-002,
          3.15104537e-002, 6.32189438e-002, -1.11534987e-002,
          -3.66953835e-002, -4.32461649e-002, 4.42210920e-002,
          5.45641221e-002, 8.26356001e-003, 4.68370831e-003,
          -3.45750712e-002, -2.76002586e-002, -7.90418033e-003,
          3.69701139e-003, 1.35341771e-002, 3.88966221e-003,
          1.28649706e-002, -1.56333409e-002, -6.36840146e-003,
          2.40666931e-003, 2.84476988e-002, -1.74887832e-002,
          -3.11494619e-002, -2.78493688e-002, -3.40635353e-003,
          -1.84978209e-002, 9.87451524e-003, 3.75534035e-003,
          4.08392474e-002, 4.32227785e-003, 7.23074377e-003,
          1.50537714e-002, 2.22766101e-002, 4.91002277e-002,
          -2.15958431e-002, -4.13389578e-002, -4.78106476e-002,
          3.39010246e-002, 3.23713273e-002, -1.09722568e-002,
          -3.04212067e-002, -7.00727701e-002, -5.56025431e-002,
          -1.64536329e-003, 1.52759319e-002, 3.00362632e-002,
          3.37046236e-002, 3.89007181e-002, 1.12243462e-003,
          -5.29735070e-003, -2.48760302e-002, -1.71081573e-002,
          -2.52747517e-002, -2.40895059e-002, -1.47602586e-002,
          2.30993573e-002, 1.64268762e-002, -1.76332891e-002,
          -3.55881341e-002, 5.12416251e-002, 3.89686152e-002,
          3.07149868e-002, 3.62626724e-002, 1.84194203e-002,
          3.96870375e-002, -1.18437521e-002, -1.61278285e-002,
          -1.10306125e-002, 1.47069097e-002, 7.90815428e-003,
          -8.12067091e-003, -3.82988639e-002, -7.16655776e-002,
          -6.75168186e-002, 6.14253897e-003, 1.39831146e-002,
          3.02682370e-002, 4.52346802e-002, 4.39851433e-002,
          2.84404531e-002, 1.28243901e-002, -3.33127081e-002,
          -4.00942042e-002, -8.71375855e-003, -4.96780383e-004,
          2.02328954e-002, 4.85270582e-002, 4.11890671e-002,
          -2.58049332e-002, -3.38833928e-002, 4.28132266e-002,
          3.76314521e-002, 2.60479301e-002, 3.15571576e-002,
          2.71902811e-002, 3.91537063e-002, 1.08485613e-002,
          1.26766162e-002, 2.19098944e-002, 4.18416597e-002,
          4.89683114e-002, 4.29760292e-002, -2.01134267e-003,
          -4.38793413e-002, -5.91543466e-002, 1.51332114e-002,
          1.07520903e-002, 3.39777954e-002, 6.64456189e-002,
          7.80269951e-002, 6.36257306e-002, 4.00924645e-002,
          -8.19995534e-003, -2.89252438e-002, 2.32423972e-002,
          2.53218748e-002, 5.27369715e-002, 7.32480586e-002,
          5.84231280e-002, 1.61056053e-002, 1.17604788e-002 ]
   decision_functions:
      -
         sv_count: 1
         rho: 9.0962296955938871e-001
         alpha: [ 1. ]
