%YAML:1.0
opencv_ml_svm:
   format: 3
   svmType: EPS_SVR
   kernel:
      type: LINEAR
   C: 1.0000000000000000e-002
   p: 1.0000000000000001e-001
   term_criteria: { epsilon:1.0000000000000000e-003, iterations:1000 }
   var_count: 744
   sv_total: 1
   support_vectors:
      - [ 1.15835197e-001, 1.14978373e-001, -1.58141125e-002,
          -2.60071047e-002, -3.25440653e-002, -3.51737477e-002,
          -2.03351807e-002, -2.41398183e-003, 7.10930501e-004,
          5.96145801e-002, 4.36337069e-002, -1.03987209e-001,
          -8.77149850e-002, -5.02140224e-002, -2.81138089e-003,
          6.50701812e-004, 9.44403186e-003, 3.02121025e-002,
          1.24661818e-001, 1.04017571e-001, -1.01233914e-001,
          -1.02890171e-001, -7.37564340e-002, -3.21828686e-002,
          -1.86039638e-002, 3.00151971e-003, 2.98550427e-002,
          -3.09195910e-002, 1.41983228e-002, -1.24579407e-002,
          2.82665007e-002, 6.08171374e-002, 7.71515071e-002,
          -1.29918037e-002, -2.68940590e-002, -4.64839265e-002,
          -4.39119488e-002, -2.77886875e-002, -2.09242869e-002,
          5.83726913e-003, 7.33835325e-002, 6.73947334e-002,
          -5.28672561e-002, -1.06031872e-001, -1.03245571e-001,
          -3.62189673e-002, -2.03028023e-002, -2.10658181e-002,
          -2.85158064e-002, 8.24437961e-002, 9.74393114e-002,
          -4.78857942e-002, -1.15958273e-001, -1.27106816e-001,
          -7.05653355e-002, -4.51787934e-002, -3.68324034e-002,
          -1.78705510e-002, -5.03088199e-002, 6.92810223e-004,
          -5.84693961e-002, -1.57318767e-002, 7.56754801e-002,
          8.49190131e-002, -2.51242593e-002, -2.48239711e-002,
          -3.58323753e-002, -4.15154286e-002, -2.32843552e-002,
          -1.23709841e-002, 2.29971968e-002, 5.61139360e-002,
          3.36015970e-002, -2.02957913e-002, -1.68800615e-002,
          -3.44086401e-002, -2.64112148e-002, -1.33684287e-002,
          -1.73971523e-002, -1.78486239e-002, 9.75436270e-002,
          8.50667432e-002, -3.20748426e-002, -3.26562300e-002,
          -5.70416749e-002, -5.65845929e-002, -3.35823782e-002,
          -2.54347697e-002, 9.59006045e-003, -3.60138230e-002,
          3.09671536e-002, -3.19511443e-002, 1.99076496e-002,
          5.56146801e-002, 7.19012991e-002, -4.09442224e-002,
          -3.49384658e-002, -4.92172688e-002, -3.57858948e-002,
          -1.39830923e-002, -1.21431993e-002, 3.73861082e-002,
          7.04805180e-002, 3.74166407e-002, -2.00650115e-002,
          -1.74973141e-002, -6.04031719e-002, -6.53186217e-002,
          -3.93483862e-002, -2.66526695e-002, -4.11367193e-002,
          9.07437652e-002, 8.68169293e-002, -5.44818006e-002,
          -4.56137694e-002, -8.79353285e-002, -9.97186601e-002,
          -5.42561598e-002, -3.47307548e-002, 7.64939934e-004,
          -5.90386651e-002, 1.42980795e-002, -5.40032499e-002,
          1.17069930e-002, 1.10240027e-001, 5.87850213e-002,
          -3.13034244e-002, -4.25455496e-002, -5.80600537e-002,
          -5.91273941e-002, -6.58577681e-002, -5.67145422e-002,
          -6.77033663e-002, 1.07434196e-002, 2.19838358e-002,
          -1.02993064e-001, -4.52001169e-002, -1.25395395e-002,
          -7.47892121e-003, -8.95104930e-003, 1.20841125e-002,
          6.80888370e-002, 9.13189799e-002, 6.12161979e-002,
          -1.17757760e-001, -8.12172815e-002, -6.29616901e-002,
          -6.51181042e-002, -7.27598220e-002, -4.28346135e-002,
          -5.66646550e-003, -4.89806309e-002, -3.26417387e-002,
          -3.14457417e-002, -1.72973406e-002, 3.68508697e-002,
          -1.97770800e-002, -5.24095558e-002, -4.90364581e-002,
          -6.54200986e-002, -5.64460307e-002, -4.47785966e-002,
          -4.15698290e-002, -4.48136143e-002, 5.07043637e-002,
          6.61161318e-002, -3.28692570e-002, -1.04125217e-002,
          -5.49211912e-003, -7.90307671e-003, -8.37406889e-003,
          6.66604843e-003, 4.32443619e-002, 5.37913516e-002,
          3.29327323e-002, -4.76215333e-002, -5.06189167e-002,
          -5.87848090e-002, -5.75189888e-002, -4.97947633e-002,
          -3.19197364e-002, 5.65233128e-003, -4.14772294e-002,
          -8.32870789e-003, -4.09975313e-002, -2.03151908e-002,
          6.18472882e-002, 3.92243378e-002, -5.14116250e-002,
          -4.17156331e-002, -5.42396531e-002, -5.19372337e-002,
          -7.59714097e-002, -7.59623051e-002, -3.56997438e-002,
          2.49849670e-002, 3.08097526e-002, -2.24476717e-002,
          3.49471271e-002, 2.51185335e-002, 7.52216578e-003,
          3.52089060e-003, 1.51758967e-002, 2.54960470e-002,
          5.53027131e-002, 4.75199483e-002, -6.48221374e-002,
          -4.03324887e-003, -1.75883155e-002, -4.50522788e-002,
          -7.03262836e-002, -6.00490123e-002, -6.33950811e-003,
          -3.13450620e-002, -4.46742587e-003, -3.08602769e-002,
          3.28743190e-004, 3.02364957e-002, 6.26310706e-003,
          -8.60108361e-002, -5.41899502e-002, -5.23546413e-002,
          -3.03029735e-002, -5.27066924e-002, -7.05257207e-002,
          -3.20824236e-002, 6.41327724e-002, 6.73599243e-002,
          -2.05215923e-002, 1.57696661e-002, 1.15570379e-002,
          7.91120902e-003, 1.39428349e-002, 1.57483146e-002,
          7.67805800e-003, 7.60031790e-002, 5.60294464e-002,
          -8.66506845e-002, -3.24620269e-002, -2.67601348e-002,
          -2.74705868e-002, -3.96621153e-002, -5.01205921e-002,
          -1.19720763e-002, -3.84095162e-002, -2.40325998e-003,
          -2.92183235e-002, -4.49506985e-003, 4.26792465e-002,
          -9.81809571e-003, -3.54758576e-002, -5.07884845e-002,
          -5.38097173e-002, -4.08145748e-002, -2.47132052e-002,
          -9.27421637e-003, 1.90708879e-002, -1.49389263e-002,
          -3.80877927e-002, -6.74614087e-002, -4.90748845e-002,
          -5.12097366e-002, -2.84314957e-002, -5.37000224e-003,
          3.95091958e-002, 1.18028745e-001, 7.30499104e-002,
          -2.08381955e-002, -8.88308808e-002, -8.42276737e-002,
          -8.75967443e-002, -6.21659048e-002, -2.69784220e-002,
          2.51009781e-002, 1.09727718e-001, -4.55947518e-002,
          -4.20465283e-002, -1.41816605e-002, -2.07317788e-002,
          -1.47475787e-002, -6.23491928e-002, -3.67929898e-002,
          -4.55042236e-002, -6.12670556e-002, -4.78992909e-002,
          -3.53758484e-002, -1.99546944e-002, 1.74085479e-002,
          6.81806058e-002, 4.69297729e-002, -2.95820609e-002,
          -2.34311614e-002, -4.96560931e-002, -2.95925271e-002,
          3.65801534e-004, 3.81695405e-002, 9.55954194e-002,
          4.39250283e-002, -2.32071802e-002, -5.94671443e-002,
          -6.23972490e-002, -9.63906199e-002, -6.98200315e-002,
          -3.30204293e-002, 1.56377330e-002, 8.94839466e-002,
          -3.32825109e-002, -1.56730618e-002, -2.19507478e-002,
          -1.84254032e-002, 4.20001410e-002, 1.59003939e-002,
          -4.45814207e-002, -4.80077192e-002, -5.03561534e-002,
          -3.68921161e-002, -4.42912243e-002, -4.17679101e-002,
          1.65325415e-003, 4.30458225e-002, 3.90187129e-002,
          -2.28099674e-002, -9.74704791e-003, -3.18241864e-002,
          -1.65118426e-002, 1.16983876e-002, 4.01532240e-002,
          5.49174249e-002, 5.09670600e-002, 3.14890929e-002,
          -5.97982816e-002, -4.89686914e-002, -7.37770796e-002,
          -4.67500351e-002, -3.07086390e-002, -3.19754332e-003,
          5.30843921e-002, -9.28261131e-003, -5.83965471e-003,
          -2.41950266e-002, -7.06951879e-003, 1.52157024e-002,
          -1.97390858e-002, -7.54687935e-002, -5.05893044e-002,
          -4.68408577e-002, -2.71526668e-002, -3.51471081e-002,
          -3.60274874e-002, 4.43476439e-003, 5.59541397e-002,
          5.67703992e-002, -2.43975185e-002, -2.12079678e-002,
          -4.17929441e-002, -2.20823847e-002, 1.77097844e-003,
          1.66901238e-002, 2.28917114e-002, 8.84252563e-002,
          4.94030863e-002, -7.16297776e-002, -6.19035363e-002,
          -7.00100958e-002, -4.41733748e-002, -2.94304248e-002,
          -1.89014357e-002, 3.03426851e-002, -3.58764455e-002,
          -3.15687545e-002, -2.19131932e-002, -1.75166130e-002,
          -5.53708151e-002, -6.69215769e-002, -4.95389514e-002,
          -7.00559095e-002, -7.89692700e-002, -2.41800025e-002,
          2.08239201e-002, 6.98390156e-002, 1.11887418e-001,
          -5.07290885e-002, -9.37474370e-002, -5.83086684e-002,
          -5.93119711e-002, -5.99695481e-002, -1.79623552e-002,
          3.14950421e-002, 8.50711092e-002, 1.20708622e-001,
          -1.11374063e-002, -1.13371007e-001, -9.22833085e-002,
          -1.08084477e-001, -1.10251009e-001, -3.91096845e-002,
          3.97764966e-002, 1.37654468e-001, 1.95454463e-001,
          -5.32724820e-002, -4.61816378e-002, 2.61165877e-003,
          -1.87638924e-002, -7.27459267e-002, -6.57973960e-002,
          -4.17322591e-002, -7.47680441e-002, -9.26089808e-002,
          -2.34986208e-002, 5.96320489e-003, 3.44695114e-002,
          3.85470539e-002, 4.06909660e-002, 3.62805231e-003,
          -2.63875816e-002, -4.74425182e-002, -7.19416812e-002,
          7.74668623e-003, 6.14850372e-002, 8.88531134e-002,
          8.46677125e-002, -1.89237669e-002, -5.93239218e-002,
          -6.77632838e-002, -1.07462324e-001, -1.17913812e-001,
          -1.81082860e-002, 5.26475236e-002, 1.04271062e-001,
          1.01122178e-001, -3.11464462e-002, -1.84147190e-002,
          -1.22961942e-002, -9.26354807e-003, 9.98437032e-003,
          -9.18525551e-003, -4.76258323e-002, -6.53426722e-002,
          -6.92183748e-002, -2.18105875e-002, -1.29089179e-002,
          -1.04397377e-002, -2.68302020e-003, 2.34483853e-002,
          2.86358455e-003, -2.10563038e-002, -4.57662679e-002,
          -6.31769300e-002, 2.42060758e-002, 7.32933506e-002,
          8.94040242e-002, 6.13944791e-002, 4.45279339e-003,
          -2.38492843e-002, -6.36437610e-002, -9.43066776e-002,
          -9.95289087e-002, -4.69528692e-004, 4.87112738e-002,
          6.53258488e-002, 6.15804493e-002, -5.28256642e-003,
          -4.57622402e-004, -2.33274810e-002, -1.08220233e-002,
          -2.96010333e-003, 7.43470807e-003, -3.87682281e-002,
          -5.32233380e-002, -5.20048290e-002, -2.29288470e-002,
          -3.88688743e-002, -3.34178731e-002, 5.45373792e-003,
          3.79862115e-002, 1.84022170e-002, -6.74487371e-003,
          -3.07813138e-002, -4.48772945e-002, 2.18243450e-002,
          2.92934291e-002, 2.03839503e-002, 2.03388389e-002,
          6.52045608e-002, 4.38720733e-002, -3.65701988e-002,
          -7.19545409e-002, -7.35684931e-002, -7.87909050e-003,
          -1.11021698e-002, -9.68050957e-003, 2.83195302e-002,
          -2.75523514e-002, -2.54364889e-002, -1.56703256e-002,
          -8.39499757e-003, -1.29518151e-001, -7.83343241e-002,
          -4.81567122e-002, -5.61480336e-002, -2.51958240e-002,
          6.46215454e-002, 1.12994164e-001, 1.46921188e-001,
          1.12309121e-001, -9.35140029e-002, -1.02682307e-001,
          -6.74134269e-002, -6.33136258e-002, -4.27532755e-002,
          7.24768965e-003, 4.65759151e-002, 6.16574138e-002,
          6.98316004e-003, -1.17456026e-001, -1.51234284e-001,
          -1.01569548e-001, -9.85701010e-002, -4.34543267e-002,
          6.27002269e-002, 1.32956162e-001, 1.83636516e-001,
          9.79950652e-002, -5.31660467e-002, -5.37948571e-002,
          4.09264565e-002, -3.60050681e-003, -1.23050570e-001,
          -5.76751754e-002, -5.78109361e-002, -7.89262056e-002,
          -3.44618820e-002, 8.89495239e-002, 1.08946778e-001,
          1.17067255e-001, 6.18560947e-002, -1.68154817e-002,
          -4.90134172e-002, -5.31960465e-002, -6.07464015e-002,
          -5.75936399e-002, 3.89747173e-002, 6.19981736e-002,
          3.99950445e-002, -2.24888101e-002, -1.11120664e-001,
          -9.45931524e-002, -1.05843507e-001, -1.21296950e-001,
          -5.91093265e-002, 9.58907977e-002, 1.42529979e-001,
          1.35881722e-001, 2.30586249e-002, -3.13291401e-002,
          -2.02282146e-002, 7.43355928e-003, -1.83555312e-004,
          -3.91296707e-002, -6.15944620e-003, -9.85121541e-003,
          -5.31798862e-002, -1.39687182e-002, 8.26299638e-002,
          4.64582890e-002, 1.99722368e-002, 4.29134612e-004,
          -1.35305598e-002, -4.90827784e-002, -4.40170616e-002,
          -5.78523725e-002, -4.89127226e-002, 6.16999939e-002,
          8.03797990e-002, 5.67280091e-002, -7.44385365e-003,
          -5.94351813e-002, -7.17229024e-002, -5.53666577e-002,
          -9.86826420e-002, -3.66867445e-002, 1.06971629e-001,
          1.01248033e-001, 6.45804480e-002, 8.13191466e-004,
          2.72742938e-003, 1.38445999e-002, -1.18925544e-002,
          -2.24274048e-003, -2.70089209e-002, 5.81376404e-002,
          3.38095091e-002, -3.57417092e-002, -6.21311180e-003,
          4.39570583e-002, -1.68244019e-002, -3.00077591e-002,
          7.31209246e-003, 4.37444355e-003, -2.29963791e-002,
          -1.04463845e-002, -2.65268832e-002, -2.32904628e-002,
          5.61179519e-002, 4.71900776e-002, 3.29947053e-003,
          -3.47026139e-002, 2.49803923e-002, 4.30130586e-002,
          2.25435011e-002, -4.89816628e-002, -1.06210895e-002,
          6.76403791e-002, 2.60370225e-002, -1.53207872e-002,
          -2.09349412e-002, 1.91488359e-002, -9.38349217e-003,
          -6.79627992e-003, 6.66617183e-003, -7.56102577e-002,
          -5.00220507e-002, -4.31131721e-002, -5.64207956e-002,
          1.68936346e-002, 1.13415129e-001, 1.26691550e-001,
          9.81611162e-002, 5.17358165e-003, -8.24193582e-002,
          -6.50005788e-002, -6.23949170e-002, -5.16214967e-002,
          -2.22614910e-002, 1.02426177e-002, 2.42823437e-002,
          9.22318734e-003, -3.56512591e-002, -1.24955490e-001,
          -1.00552291e-001, -8.69896859e-002, -8.22987929e-002,
          2.82716542e-003, 9.71212685e-002, 1.15686551e-001,
          9.36304182e-002, -1.39583806e-002, -3.82795744e-002,
          -9.13928449e-002, 6.85093105e-002, -5.03663532e-003,
          -7.45272785e-002, -3.53283919e-002, -4.11815494e-002,
          -8.91376361e-002, 7.71911908e-003, 1.50914177e-001,
          1.38394877e-001, 1.16470911e-001, 6.41712025e-002,
          1.82287022e-002, -4.92241718e-002, -5.33811487e-002,
          -7.80723840e-002, -9.05697495e-002, -3.03864814e-002,
          -2.62756217e-002, -3.40081789e-002, -6.26823232e-002,
          -4.26179022e-002, -7.34895542e-002, -8.50283429e-002,
          -1.41161203e-001, -4.26420979e-002, 8.57284740e-002,
          8.50716829e-002, 6.89796284e-002, -2.49424414e-003,
          -1.21362861e-002, -7.45044723e-002, 3.80041003e-002,
          -3.09714526e-002, -4.60983887e-002, 4.58374135e-002,
          5.68607263e-002, -5.31930774e-002, 3.04188933e-002,
          1.35546982e-001, 7.96776190e-002, 2.43258737e-002,
          -5.15105389e-003, 4.08247299e-002, -3.65671217e-002,
          -6.90379441e-002, -1.14827119e-001, -9.96730551e-002,
          -2.12065913e-002, 3.04047787e-003, -1.49332620e-002,
          -6.36874735e-002, -2.03364603e-002, -1.07155759e-002,
          -1.89941470e-002, -1.15380466e-001, -3.01374290e-002,
          7.56460726e-002, 6.06454127e-002, 5.65754529e-003,
          -4.92554270e-002, 1.23597523e-002, -3.32418345e-002,
          2.13995948e-002, -5.13544083e-002, -2.83011869e-002,
          1.34719566e-001, 1.15948565e-001, 2.32101278e-003,
          4.26438376e-002, 8.98910835e-002, 2.98411157e-002,
          6.03999384e-003, 1.72343813e-002, 4.17573266e-002,
          -2.59707719e-002, -2.04792563e-002, -4.48385812e-002,
          -8.97030905e-002, -5.24638928e-002, -4.09238562e-002,
          -6.33429438e-002, -1.07175268e-001, 3.19161676e-002,
          9.09139588e-002, 8.48989934e-002, -3.78486626e-002,
          -2.03675479e-002, 6.82208128e-003, -2.05753092e-002,
          -5.34321591e-002, -7.11976066e-002, 5.63361384e-002,
          -2.22456902e-002, 9.49277449e-003, -4.01900671e-002 ]
   decision_functions:
      -
         sv_count: 1
         rho: 6.0759005541245092e-001
         alpha: [ 1. ]
