%YAML:1.0
opencv_ml_svm:
   format: 3
   svmType: EPS_SVR
   kernel:
      type: LINEAR
   C: 1.0000000000000000e-002
   p: 1.0000000000000001e-001
   term_criteria: { epsilon:1.0000000000000000e-003, iterations:1000 }
   var_count: 1302
   sv_total: 1
   support_vectors:
      - [ 7.16981012e-003, 1.15829976e-002, 1.11041684e-002,
          1.46219442e-002, 9.40532610e-003, -9.92866815e-004,
          5.80312684e-003, 7.06759002e-003, 1.48570845e-002,
          1.55477785e-002, 1.20819174e-002, 4.94841393e-003,
          -1.92978960e-002, -2.28966568e-002, -1.36058861e-002,
          -4.06189216e-003, 1.10159777e-002, 1.39502464e-002,
          1.98607985e-002, 1.63585655e-002, 1.03126001e-002,
          -6.40123989e-003, -6.59768144e-003, -1.22198220e-002,
          2.69087334e-003, 1.65875126e-002, 2.27345955e-002,
          5.90069173e-003, -1.94709399e-003, 1.96635798e-002,
          1.32940020e-002, 7.98535882e-004, 5.59815764e-003,
          3.79096298e-003, 8.50950088e-003, 8.99368431e-003,
          6.67907589e-004, 1.21912723e-002, 1.30670443e-002,
          2.29369905e-002, 1.61600728e-002, 7.52609316e-003,
          7.18906103e-003, -1.50119644e-002, -2.82775965e-002,
          -1.15447817e-002, -4.92385356e-003, -2.03151186e-003,
          1.14395097e-003, 1.49083296e-002, 1.13827530e-002,
          9.56323370e-003, -8.92987568e-003, -1.44490786e-002,
          -1.00524742e-002, 7.42968218e-003, 1.11547271e-002,
          2.07631681e-002, 1.54805405e-003, -3.85770807e-003,
          1.56277735e-002, 8.73563439e-003, -2.88162730e-004,
          -4.95363772e-003, -3.60201835e-003, 6.19963801e-004,
          4.09545423e-003, 2.47825054e-004, 1.04800621e-002,
          1.15110576e-002, 2.47891210e-002, 1.14360414e-002,
          -1.89460674e-003, -3.01361433e-003, -1.83083490e-002,
          -2.73734964e-002, -1.34477764e-002, -3.34052392e-003,
          -2.11694534e-003, 6.22386625e-003, 8.21270514e-003,
          -6.71339128e-003, -5.36482036e-003, -1.66908950e-002,
          -1.87036581e-002, -1.21100517e-002, 7.16674887e-003,
          9.06847790e-003, 2.26792879e-002, -5.28240716e-003,
          -6.72444282e-003, 6.98067341e-003, 8.13868886e-004,
          -1.74770399e-003, -1.10684931e-002, -6.97826548e-003,
          -5.96688315e-003, -4.29962808e-003, -5.30064851e-003,
          2.26624077e-003, 5.25547983e-003, 1.92748830e-002,
          5.62425563e-003, -5.83751081e-003, -7.02688750e-003,
          -1.82337444e-002, -2.75299046e-002, -1.69341005e-002,
          -7.11111771e-003, -5.13740489e-003, 1.19591737e-002,
          2.38302443e-003, -1.56766679e-002, -1.26870247e-002,
          -1.94319915e-002, -2.51992848e-002, -2.03360058e-002,
          -4.48876293e-003, -2.11365696e-004, 2.24657655e-002,
          -9.16953478e-003, -8.10738839e-003, -8.16196483e-003,
          -1.17037836e-002, 2.67765322e-003, -8.17013253e-003,
          -9.41225968e-004, 4.41996781e-005, -7.46259978e-003,
          -7.02624582e-003, -2.85911490e-003, -1.34655647e-003,
          7.77371181e-003, 4.40927193e-004, -5.30066248e-003,
          -4.53118737e-005, -1.15264924e-002, -2.66550742e-002,
          -1.21381003e-002, -2.96567916e-003, 2.81111244e-003,
          2.30421238e-002, 1.96633651e-003, -1.18528195e-002,
          -4.74536465e-003, -1.47146024e-002, -2.34094039e-002,
          -1.81116164e-002, -5.00897784e-003, 1.30324427e-003,
          2.19463725e-002, -6.75806776e-003, -1.83015794e-003,
          -7.54545536e-003, -7.27013499e-003, 4.92289895e-003,
          8.93626770e-004, 1.16728228e-002, 1.07429940e-002,
          1.05725066e-003, -4.48922301e-003, 3.92804184e-004,
          -4.28442657e-003, -5.35880867e-003, -9.40001570e-003,
          -4.97672521e-003, -1.40933320e-003, -3.24787758e-003,
          -1.94459520e-002, -1.60094332e-002, -5.66261820e-003,
          2.03530141e-003, 1.77508909e-002, -3.72234010e-003,
          -3.73132597e-003, 6.02177018e-003, -1.05348311e-003,
          -1.14117516e-002, -1.70139484e-002, -4.54246998e-003,
          -2.82111461e-003, 1.03250099e-002, -2.61180871e-003,
          4.48187208e-003, -9.06470418e-003, -4.50353744e-003,
          -6.26782712e-004, 3.13792005e-003, 1.53781148e-002,
          1.49785811e-002, 1.37098441e-002, 9.39042494e-003,
          4.97130537e-003, -5.85345505e-003, -1.11099938e-002,
          -9.97540914e-003, -2.61590956e-003, -1.34439685e-003,
          7.32577173e-003, -1.10960202e-002, -2.82883309e-002,
          -2.08246540e-002, -5.09540644e-003, 1.00512998e-002,
          -9.60959494e-003, 4.80713497e-004, 1.14407307e-002,
          1.36226527e-002, 1.19622599e-003, -1.47502897e-002,
          -1.13046831e-002, -9.13103390e-003, -1.04753289e-003,
          -2.99334503e-003, 2.22614617e-003, -7.02233333e-003,
          -6.42445637e-004, 1.28447441e-002, 1.43393800e-002,
          1.47024710e-002, 1.50146997e-002, 6.19451748e-003,
          -1.56822987e-002, -9.20348708e-003, -9.82390600e-004,
          1.69505868e-002, 9.75891016e-003, 7.76658999e-003,
          1.64892338e-003, -1.22397151e-002, -8.73599201e-003,
          -2.90350034e-003, 5.65299811e-003, 1.39843384e-002,
          1.87665392e-002, 1.64266545e-002, 1.63003672e-002,
          1.13836406e-002, 6.65565080e-004, 2.69607431e-003,
          -1.56241413e-002, -2.55234051e-003, 1.24968793e-002,
          2.47734245e-002, 8.25748406e-003, -3.87444277e-004,
          2.20681056e-002, 1.14872213e-002, 4.37095854e-003,
          2.44008587e-003, -4.09783592e-004, 8.65810085e-003,
          9.35026444e-003, -1.03808893e-002, -1.97938015e-003,
          5.82395447e-003, 2.76498478e-002, 1.80003103e-002,
          5.23364730e-003, -6.08474948e-003, -1.66052952e-002,
          -1.40786525e-002, -2.21788557e-003, 2.44369218e-003,
          5.08238329e-003, 7.35019101e-003, 1.74919441e-002,
          5.67975128e-003, -4.99446224e-003, -1.04040457e-002,
          -3.39723378e-003, -1.15858717e-002, 1.03704818e-003,
          1.05281491e-002, 2.70985384e-002, -2.83920701e-004,
          -4.48456313e-003, 1.75834056e-002, 8.23157933e-003,
          -5.99310128e-003, -2.02518273e-002, -1.94361378e-002,
          -7.60878017e-003, 8.84623267e-004, -5.05585643e-003,
          4.65898495e-003, 7.41994241e-003, 3.41822281e-002,
          1.85678247e-002, -2.38833396e-004, -1.03491498e-002,
          -1.37781156e-002, -1.60432719e-002, -3.97438556e-003,
          -2.88902724e-004, 2.57947599e-003, 9.59667936e-003,
          8.94378219e-003, -1.86086185e-002, -2.17947923e-002,
          -1.59609970e-002, -1.32277403e-002, -8.57200474e-003,
          4.13552765e-003, 9.62362532e-003, 3.33220325e-002,
          -9.58267041e-003, -9.05875582e-003, 6.19283970e-003,
          6.02963846e-004, 1.14475738e-003, -2.25861706e-002,
          -2.28434317e-002, -1.57724340e-002, -6.83713984e-003,
          -1.05782626e-002, -7.21178157e-003, -3.93991405e-003,
          1.98990274e-002, 8.60561617e-003, -6.11278927e-003,
          -7.86784478e-003, -6.32910663e-003, -1.05621731e-002,
          -5.11740614e-003, -2.85885879e-003, -4.20038443e-004,
          1.89596098e-002, 7.17321923e-003, -2.37165783e-002,
          -2.50300355e-002, -1.69811845e-002, -1.50271412e-002,
          -1.51518267e-002, -9.50055011e-003, -4.08602273e-003,
          2.95465868e-002, -1.12800449e-002, -9.17358790e-003,
          -8.23529251e-003, -9.22499504e-003, 1.33816330e-002,
          -1.04919439e-002, -6.95687300e-003, -8.00138526e-003,
          -9.34059266e-003, -8.58498085e-003, -9.64926649e-003,
          -8.95978604e-003, 3.23438738e-003, -1.72122475e-003,
          -7.53013929e-003, -1.48943497e-003, 2.52057263e-003,
          -3.96012608e-003, -2.31645652e-003, -2.19843653e-003,
          2.78464140e-004, 2.58207656e-002, 7.71139096e-003,
          -1.66959036e-002, -1.08902920e-002, -7.69029697e-003,
          -9.63087846e-003, -1.05563765e-002, -1.15404548e-002,
          -8.52396525e-003, 2.10037734e-002, -1.32315233e-003,
          -4.03131591e-003, -6.58622431e-003, -5.01312409e-003,
          1.03131346e-002, 2.83502438e-003, 1.16328783e-002,
          5.24364924e-003, -3.57410591e-003, -7.57382018e-003,
          -5.76396938e-003, -9.53779370e-003, -1.17820427e-002,
          -8.76616407e-003, -7.90620688e-003, -7.79601326e-003,
          6.64450647e-003, 6.29524002e-003, 1.28122407e-003,
          -2.01027011e-004, 1.42116041e-004, 1.64340101e-002,
          1.69472676e-003, -5.15614497e-003, 2.42804084e-003,
          4.17589676e-003, 3.07844835e-003, -5.06022200e-003,
          -5.79391466e-003, -9.03984904e-003, 4.82936064e-003,
          7.19545688e-003, 5.55371342e-004, -3.27786081e-003,
          -5.45317866e-003, -6.44245977e-003, -4.38629184e-003,
          5.03376499e-003, 2.11234204e-003, 6.71374146e-003,
          7.19763851e-003, 7.62262009e-003, -6.31123642e-003,
          -1.36289177e-002, -1.24017410e-002, -8.15121830e-003,
          -8.14413931e-003, 1.40187601e-002, 1.40726473e-002,
          4.22521634e-003, 3.69230798e-003, 2.39613489e-003,
          7.17884675e-003, -1.75493453e-002, -1.18642198e-002,
          4.85962303e-003, 1.41217271e-002, 1.76171567e-002,
          1.29700731e-002, 1.00260861e-002, -2.79046502e-003,
          -4.75416100e-003, 1.01587940e-002, -7.31999055e-004,
          2.12086318e-003, -4.57187276e-003, 1.44845713e-002,
          1.64667349e-002, 1.27128353e-002, 8.33830051e-003,
          4.83905344e-004, -8.46279506e-003, -6.94647012e-003,
          -2.56472966e-003, 1.60190612e-002, 3.56071233e-003,
          6.61911210e-003, 8.75201949e-005, -7.21634459e-003,
          -2.55390047e-003, 8.80463864e-004, 1.10957799e-002,
          1.47620412e-002, 1.98721047e-002, 1.23938490e-002,
          1.64975002e-002, 1.15851508e-002, 3.70919588e-003,
          2.05561146e-003, -5.67110721e-003, 4.97460831e-003,
          1.20739583e-002, 2.51054820e-002, 7.20429048e-003,
          6.15925528e-003, 1.38122877e-002, 1.88511461e-002,
          2.44295970e-003, -2.64066365e-003, -2.82444246e-003,
          -1.92828733e-003, -1.82826712e-003, -1.06232055e-002,
          -4.76619555e-003, -1.26074985e-004, 1.85322892e-002,
          8.49675795e-004, 2.64395447e-003, -5.04149729e-003,
          -1.29173063e-002, -5.16098971e-003, 2.10512290e-003,
          7.88378250e-003, 9.45846923e-003, 1.28811859e-002,
          2.61258869e-003, -6.80418234e-005, -4.74398583e-003,
          -7.04612769e-003, -3.66293453e-003, -7.43499072e-003,
          3.15830112e-003, 9.03786067e-003, 2.41672583e-002,
          -6.15998218e-003, -7.20497547e-003, 8.92474968e-003,
          8.65476392e-003, -8.33143760e-003, -2.23202426e-002,
          -1.44133475e-002, -5.54049900e-003, -4.01371391e-003,
          -1.12494910e-002, -5.04456693e-003, 2.91828881e-004,
          3.29801887e-002, 1.66428518e-002, 1.02501260e-002,
          2.44931597e-003, -7.85180833e-003, -1.23478938e-002,
          -6.12606620e-003, -2.96887360e-004, -1.88399409e-003,
          8.28938559e-003, 7.12487474e-003, -9.83929075e-003,
          -1.01228524e-002, -1.04866261e-002, -1.38690779e-002,
          -1.53913191e-002, -5.08293835e-003, -1.49543257e-003,
          3.19634266e-002, -1.00964764e-002, -1.00882947e-002,
          3.69007676e-003, 3.05213383e-003, 8.92036874e-003,
          -1.73402000e-002, -1.17841428e-002, -6.24187477e-003,
          -6.55301800e-003, -7.63240363e-003, -6.86504832e-003,
          -4.67823632e-003, 2.43317168e-002, 1.58898868e-002,
          3.49197141e-003, 4.89429897e-003, 4.32395423e-003,
          -3.97020578e-003, -9.50500183e-003, -1.05541879e-002,
          -1.11644901e-002, 1.44024622e-002, 2.07255334e-002,
          -1.24853924e-002, -7.56469043e-003, -3.13034956e-003,
          -8.03553965e-003, -1.52391559e-002, -1.56448912e-002,
          -1.27073433e-002, 3.05450894e-002, -3.47606093e-003,
          -4.08209488e-003, -1.21860509e-003, -6.67338667e-004,
          2.75474675e-002, -4.06145724e-003, 3.21378116e-004,
          3.88041860e-003, -5.29167941e-003, -5.78786200e-003,
          -5.61204646e-003, -6.02050778e-003, 7.23706791e-003,
          -2.12977873e-003, -6.31530490e-003, -2.24129227e-003,
          2.79907533e-003, -4.93027968e-003, -7.89135695e-003,
          -7.60124996e-003, -5.38718654e-003, 2.66461875e-002,
          2.09836643e-002, -8.25869106e-003, -3.75629310e-003,
          -1.26201718e-003, -5.64500364e-003, -1.26052219e-002,
          -1.26773240e-002, -1.09424442e-002, 2.62050536e-002,
          2.95718596e-003, 2.54518585e-003, -1.36369700e-003,
          -1.70550018e-003, 1.90951359e-002, -1.91407313e-003,
          -7.76935427e-004, 2.07973714e-003, 9.77253309e-004,
          4.06145770e-003, 8.65696929e-003, 8.06830707e-004,
          -9.24653746e-003, -1.49344224e-002, -9.77776013e-003,
          -9.99983586e-003, 1.17255026e-003, 9.00659419e-004,
          -4.20427928e-003, 4.94746855e-005, 2.58320174e-003,
          2.44882200e-002, 7.45816855e-003, -1.03826439e-002,
          7.62520009e-004, 1.89468416e-003, 5.97715331e-003,
          1.91014737e-003, 8.47400725e-003, 3.39824823e-003,
          1.40603082e-002, 7.69062806e-003, 5.37609123e-003,
          -3.27354460e-003, -3.18525592e-003, -2.51515000e-003,
          -6.51895814e-003, -8.73361598e-004, -7.09278975e-004,
          9.09811631e-003, 1.42313121e-002, 2.06701290e-002,
          8.16104840e-003, -2.38390733e-003, -5.44302259e-003,
          -4.07244172e-003, -3.89094558e-003, 5.15391445e-003,
          6.35976531e-003, -1.38809008e-003, 3.55603709e-003,
          6.30657794e-003, 1.72158945e-002, -3.14512546e-003,
          -9.18701198e-003, 1.35590055e-003, 3.36256367e-003,
          1.56382043e-002, 1.53995454e-002, 2.27314923e-002,
          1.43688135e-002, 1.31101031e-002, 1.49892494e-002,
          8.99808481e-003, 3.91000975e-003, 1.78088690e-003,
          -1.34953856e-003, 4.23295144e-003, 5.81820076e-003,
          3.77234910e-003, 5.23203344e-004, 4.41685443e-005,
          1.55961316e-004, 2.41156109e-003, 1.45919900e-002,
          -9.35388729e-003, -8.13414529e-003, 6.60383026e-004,
          5.49610471e-003, 7.20512960e-003, 6.82631787e-003,
          1.34712383e-002, 1.34621728e-002, 1.50433742e-002,
          -9.09553748e-003, -1.93922827e-003, 9.44505259e-003,
          1.12957899e-002, 1.01544857e-002, 7.38149555e-003,
          1.39452582e-002, 1.56468190e-002, 2.01793499e-002,
          1.58823759e-003, 1.00664357e-002, 5.39369369e-003,
          1.82489045e-002, -1.00256875e-002, -8.63537192e-003,
          -6.55384210e-005, -5.24301594e-003, -6.91965641e-003,
          -6.86001591e-003, -3.67120933e-003, -4.36660164e-004,
          1.58808473e-002, -8.48974008e-003, -4.76178917e-004,
          1.75050590e-002, 1.11339698e-002, 5.28114894e-003,
          6.23837532e-003, 1.18856365e-002, 1.04410928e-002,
          9.92523506e-003, -1.52877579e-002, -6.51878864e-003,
          1.16868494e-002, 8.67420807e-003, -1.12485533e-004,
          -7.78147005e-005, 8.38034879e-003, 1.01554869e-002,
          1.98463388e-002, -5.55091910e-003, 6.46968139e-004,
          5.88572118e-003, 1.66807808e-002, -1.36839831e-002,
          -1.78130195e-002, -1.01063075e-003, -1.12833641e-003,
          -6.54668733e-003, -1.16289482e-002, -1.15138413e-002,
          -9.45380330e-003, 2.51665972e-002, 1.24900332e-002,
          1.04837157e-002, 2.09318865e-002, 8.32385104e-003,
          -5.11100399e-004, -7.97337154e-004, 3.00989044e-003,
          1.70230327e-004, 5.10241883e-003, -8.99906037e-004,
          -3.69983842e-003, 1.18064703e-002, 6.64873235e-003,
          -6.23347610e-003, -1.03633702e-002, -7.82074220e-003,
          -8.30878690e-003, 2.45207865e-002, -5.31570381e-003,
          -3.09869903e-003, 3.54350824e-003, 1.03348624e-002,
          3.95349320e-003, -8.12931266e-003, 2.36295583e-003,
          -9.90202767e-004, -8.57939292e-003, -6.75222138e-003,
          -6.70230249e-003, -1.07942475e-002, 2.01580897e-002,
          1.10555720e-002, 2.48145149e-003, 1.04078054e-002,
          5.59416134e-003, -1.70539704e-003, -7.87894335e-003,
          -5.50434878e-003, -1.37454143e-003, 1.63965225e-002,
          1.15127582e-002, -1.93567807e-003, 6.38674758e-003,
          3.89287295e-003, -7.93308113e-003, -1.23408716e-002,
          -1.13768717e-002, -8.39796476e-003, 3.02110948e-002,
          -6.97297801e-004, 1.40149717e-003, 1.46250206e-003,
          4.43249289e-003, 1.25187747e-002, -8.27149302e-003,
          -3.81287443e-003, 5.55895327e-004, -9.83882602e-003,
          -6.26158901e-003, -2.32217973e-003, -1.80956617e-003,
          1.43423509e-002, -2.09931354e-003, -8.03124439e-003,
          -6.82965619e-003, -5.99229289e-003, -8.45578406e-003,
          -9.86656547e-003, -5.85989514e-003, 5.85693400e-003,
          2.68093720e-002, 8.84123240e-003, -1.27068106e-002,
          -6.10508723e-003, -5.84774045e-003, -1.29320631e-002,
          -1.34052932e-002, -7.88487308e-003, 3.88850085e-003,
          3.34899463e-002, -4.30904701e-003, 8.27928830e-004,
          -3.41396919e-003, -2.23496626e-003, 7.07676448e-003,
          -9.92205832e-003, -6.44879788e-003, -5.84541494e-003,
          -8.33673030e-003, -2.42852070e-003, 4.41062311e-003,
          2.60103261e-003, -6.50005357e-004, -1.39676211e-002,
          -1.25945350e-002, -5.25790267e-003, -3.19951237e-003,
          -1.61161239e-003, -7.42178061e-004, 1.45975826e-003,
          1.33039262e-002, 2.85899304e-002, -2.51248619e-003,
          -1.87522732e-002, -8.86913575e-003, -8.67445581e-003,
          -4.27024532e-003, -1.43292837e-003, 5.87772531e-003,
          1.55099276e-002, 2.30826829e-002, 6.38049620e-004,
          5.64509211e-003, -8.77833925e-003, -3.89833166e-003,
          -6.85361167e-003, -1.02237072e-002, 8.73353332e-004,
          7.52026681e-004, -2.48343058e-005, 7.01063173e-003,
          1.24345878e-002, 7.05508608e-003, 3.99501901e-003,
          -2.22698855e-003, -4.55600535e-003, -2.74097966e-003,
          -1.90747238e-003, 1.93661894e-003, 1.09587796e-003,
          2.83431658e-003, 1.02662779e-002, 1.98758077e-002,
          -4.49727196e-003, -1.09255267e-002, -2.09422526e-003,
          -1.55764481e-003, 5.54760918e-003, 9.32491012e-003,
          1.45151932e-002, 1.69381090e-002, 1.81577969e-002,
          6.81890547e-003, 1.18035162e-002, -2.08099326e-003,
          2.12412910e-003, -1.32044870e-002, 5.35146915e-004,
          1.20867956e-002, 1.30763818e-002, 3.87776294e-003,
          1.03429414e-003, 9.97508541e-005, 9.40408790e-004,
          4.48359968e-003, -1.68719422e-002, -7.41824973e-003,
          1.74824204e-002, 1.69736352e-002, 9.23014339e-003,
          7.92860985e-003, 1.46062551e-002, 5.83480066e-003,
          1.91299315e-003, -1.81864705e-002, -3.26630892e-003,
          2.32799947e-002, 2.46458910e-002, 1.39312875e-002,
          9.90493037e-003, 1.49960965e-002, 7.34912371e-003,
          7.65280565e-003, 1.22553448e-003, 1.03769619e-002,
          4.76286793e-003, 1.78621989e-002, -2.19338238e-002,
          -4.80354019e-003, 1.86441951e-002, 1.81931350e-002,
          3.61969881e-003, -4.22264129e-004, -8.40738066e-004,
          4.49105846e-006, 8.60249810e-003, -1.53231500e-002,
          -3.57610988e-003, 2.84611546e-002, 2.19167937e-002,
          5.62234689e-003, 3.59199103e-003, 7.48912385e-003,
          -1.26004685e-003, -5.08364895e-003, -2.98475493e-002,
          -4.58500255e-003, 3.16314436e-002, 3.25088501e-002,
          9.70812887e-003, 3.73340352e-003, 6.88624103e-003,
          -8.66737741e-004, 2.84621981e-003, -2.80992263e-005,
          3.74828139e-003, 7.23003317e-003, 1.87018365e-002,
          -2.23804619e-002, -1.48806768e-002, 1.28596881e-002,
          1.23630427e-002, -9.13564349e-004, -1.79824221e-003,
          -8.27673823e-004, 2.95217091e-004, 2.25113500e-002,
          1.10822648e-003, 5.61741414e-003, 1.99254639e-002,
          3.39142489e-003, -4.34961263e-003, -2.55335029e-003,
          2.13682838e-003, -1.88163691e-003, -1.88056519e-003,
          -1.81428939e-002, -5.24225412e-003, 1.78626198e-002,
          1.29036689e-002, -3.11450940e-003, -3.40388203e-003,
          1.37299707e-003, -1.30412239e-003, 1.68130323e-002,
          -8.69032112e-004, -1.05667522e-003, 4.80213296e-003,
          1.06729651e-002, -9.36551020e-003, -1.36160906e-002,
          4.67898929e-003, 2.13582115e-003, -6.44461531e-003,
          -2.65535899e-003, -1.65933953e-003, 6.27109024e-004,
          1.97426919e-002, -7.21862959e-003, -5.86703280e-003,
          7.26398197e-004, -7.02889729e-003, -8.15252028e-003,
          -3.65454028e-003, -1.64970430e-003, 5.31808566e-003,
          1.76201072e-002, -1.50887128e-002, -1.44170979e-002,
          -2.61102011e-003, -3.84773430e-003, -1.20031480e-002,
          -5.92422532e-003, -3.15428129e-003, 5.13233570e-003,
          2.89055537e-002, -5.90346800e-003, -2.89483625e-003,
          5.35221479e-004, 5.02406794e-004, -5.23043424e-003,
          -1.17619922e-002, -7.09309941e-003, -3.92069016e-003,
          -6.46413071e-003, -4.38676635e-003, -4.43848735e-003,
          2.64068274e-003, 1.74531247e-002, -8.28839093e-003,
          -9.89274401e-003, -7.59361265e-003, -1.01224715e-002,
          -9.16634966e-003, 2.01726239e-003, 3.71584715e-003,
          1.51769379e-002, 2.19444353e-002, -1.11349020e-002,
          -1.91433541e-002, -1.43018235e-002, -1.26320776e-002,
          -1.23168798e-002, -2.42894329e-003, 1.09743720e-004,
          1.69968754e-002, 3.28237042e-002, -8.50347430e-003,
          -1.18176080e-003, -2.39751628e-003, 1.04061350e-004,
          -7.75965070e-003, -7.98551831e-003, -4.14711703e-003,
          -9.47317982e-004, -5.01197577e-003, -4.06272383e-003,
          -2.06825463e-003, 1.84625026e-003, 2.92671751e-003,
          -1.50104109e-002, -1.46325054e-002, -6.12285035e-003,
          -6.23047305e-003, -1.20767136e-003, 1.09833535e-002,
          7.74116954e-003, 1.63817350e-002, 2.32048146e-002,
          -1.75152421e-002, -1.94683634e-002, -1.00088008e-002,
          -6.48973417e-003, -3.25154816e-003, 7.05854362e-003,
          5.73443482e-003, 1.67960655e-002, 1.97840761e-002,
          -2.63289694e-004, 6.99662231e-003, -9.87226702e-003,
          -2.56615109e-003, -6.13932591e-003, -7.28436140e-003,
          3.80062475e-003, 2.41711061e-003, -2.15970504e-004,
          -3.91703052e-003, 4.97880275e-004, 2.05424475e-003,
          4.68282588e-003, -2.87124142e-003, -8.62422213e-003,
          -6.38952386e-003, -4.04296303e-003, 6.56705350e-003,
          1.56064145e-002, 1.19592426e-002, 1.59237888e-002,
          2.07391046e-002, -5.19034080e-003, -1.15158362e-002,
          -2.46724789e-003, -7.70989398e-004, 8.16375483e-003,
          1.23140858e-002, 1.21455602e-002, 1.78681444e-002,
          2.00298708e-002, 1.33567229e-002, 1.11115621e-002,
          -5.43846190e-003, 2.07176176e-003, 4.57713410e-004,
          3.79236037e-004, 8.39179661e-003, 1.08975871e-002,
          4.95507894e-003, 5.02861629e-004, -5.83162904e-003,
          -7.47244293e-003, -6.92394655e-003, -1.34097254e-002,
          -2.38042953e-003, 1.73676964e-002, 1.56341009e-002,
          2.72093224e-003, 2.48513953e-003, 8.40287935e-003,
          2.90210894e-003, 6.70863641e-003, -1.12989275e-002,
          2.29724031e-003, 1.99535601e-002, 2.24132314e-002,
          1.26320384e-002, 3.88036552e-003, 4.13523242e-003,
          -8.42034875e-004, 4.69828444e-003, 2.01655691e-003,
          4.75977175e-003, 2.62327003e-003, 1.21846730e-002,
          -1.14725810e-002, -1.60448428e-003, 2.08293553e-002,
          2.07896475e-002, 5.16128086e-004, -2.96525657e-003,
          -1.67468772e-003, 2.74081132e-004, 3.38293123e-003,
          -1.40107851e-002, -5.24578243e-003, 2.39118990e-002,
          2.03348361e-002, -1.59049500e-003, -7.24825123e-003,
          -5.06724790e-003, -5.56677487e-003, -1.17702053e-004,
          -2.16142014e-002, -2.07076967e-003, 2.94941496e-002,
          3.25103737e-002, 5.35753556e-003, -6.69997372e-003,
          -4.38961899e-003, -4.99010552e-003, 3.47706489e-003,
          3.03970301e-003, -9.71972768e-004, 4.17526532e-003,
          9.53704026e-003, -2.05467641e-002, -1.27152111e-002,
          8.80959816e-003, -1.10126706e-003, -9.68075637e-003,
          -2.74632173e-003, 2.30478286e-003, 1.01938955e-002,
          2.33492702e-002, -1.78765599e-003, -3.06646805e-004,
          1.36976568e-002, -5.04089100e-003, -1.71541646e-002,
          -1.42712453e-002, -4.22807969e-003, -4.15499834e-003,
          -3.22698033e-003, -1.94886290e-002, -9.04111564e-003,
          9.30680707e-003, 3.38608772e-003, -1.69040188e-002,
          -1.57135185e-002, -1.73437013e-003, 5.65487565e-003,
          1.73544586e-002, -4.59633488e-003, -1.02740703e-002,
          -8.15171632e-004, -2.51318770e-003, -1.16488999e-002,
          -1.49365561e-002, -2.28534290e-003, -1.42783849e-002,
          -1.26577318e-002, -1.22124577e-004, 1.16456370e-003,
          7.08910543e-003, 2.14449372e-002, -5.46317361e-003,
          -5.40855713e-003, -2.15626904e-003, -1.25260297e-002,
          -1.70581825e-002, -9.95979737e-003, -4.22148919e-003,
          5.39758382e-003, 1.01405587e-002, -1.50797786e-002,
          -1.50896311e-002, -1.11857224e-002, -1.65974181e-002,
          -2.15025805e-002, -1.02817472e-002, -2.77124066e-003,
          1.08574927e-002, 2.43135281e-002, -1.20318495e-002,
          -1.25344135e-002, -1.04454090e-003, -6.20199693e-003,
          -6.77872309e-003, -8.19136947e-003, -4.53934493e-003,
          -9.48974455e-004, -3.85025050e-003, -1.37062889e-004,
          -4.95427428e-003, 6.43003674e-004, 1.07840691e-002,
          -7.37824431e-003, -8.39749444e-003, -1.01007149e-002,
          -1.53627880e-002, -1.72082596e-002, 7.71422870e-004,
          -4.02887788e-004, 9.77460295e-003, 1.09508336e-002,
          -1.25897760e-002, -1.56953186e-002, -1.42963361e-002,
          -1.25233578e-002, -1.34167103e-002, -1.63062825e-003,
          -4.09326563e-003, 1.07089356e-002, 1.98521614e-002,
          -1.16194366e-002, -9.02904943e-003, -2.12895707e-003,
          -3.30344983e-003, -6.01906562e-003, -5.32313343e-003,
          -1.45012466e-003, 5.37910359e-003, 1.44965050e-003,
          3.42541700e-003, -3.36474157e-004, 1.54081674e-003,
          8.28506541e-004, -9.78380535e-003, -1.35799907e-002,
          -1.42797669e-002, -1.41627491e-002, -1.29923755e-002,
          2.76175537e-003, -4.13909182e-003, 6.63985312e-003,
          9.34470445e-003, -1.47437444e-002, -1.73868965e-002,
          -1.43394107e-002, -6.06845552e-003, -6.36943337e-003,
          4.25334508e-003, -3.02062393e-003, 7.15108681e-003,
          5.02061844e-003, -3.10469652e-003, 9.01428502e-005,
          -1.16610983e-002, -9.22280550e-003, -6.42994838e-003,
          -1.45356485e-003, 2.74547911e-003, 6.52186340e-003,
          3.11357458e-003, -9.94029688e-004, 5.06390934e-004,
          -7.94001971e-004, -2.61427893e-004, -4.41605039e-003,
          -7.55690504e-003, -1.03348624e-002, -1.57199875e-002,
          -1.15320589e-002, 1.18244009e-003, 1.70846761e-003,
          6.69164071e-003, 1.08438404e-002, -9.20860097e-003,
          -7.46989483e-003, -6.99615944e-003, -1.23367854e-003,
          -2.51612905e-003, -3.25418805e-004, 2.83388351e-003,
          5.43358596e-003, 5.02124801e-003, 5.13884472e-003,
          7.37668946e-003, -1.43913450e-002, -1.04650352e-002 ]
   decision_functions:
      -
         sv_count: 1
         rho: 8.5870761583481325e-001
         alpha: [ 1. ]
