%YAML:1.0
opencv_ml_svm:
   format: 3
   svmType: EPS_SVR
   kernel:
      type: LINEAR
   C: 1.0000000000000000e-002
   p: 1.0000000000000001e-001
   term_criteria: { epsilon:1.0000000000000000e-003, iterations:1000 }
   var_count: 620
   sv_total: 1
   support_vectors:
      - [ 1.35438313e-004, -1.82550366e-003, 1.42737525e-003,
          -1.43148599e-003, -1.55260286e-003, -3.61191644e-003,
          -1.21687865e-003, -1.48176390e-003, -4.87516751e-004,
          -6.73360075e-004, -2.52642063e-003, 1.12772256e-003,
          6.86121813e-004, 1.64862722e-003, -8.05677148e-004,
          3.87775654e-004, -8.95282428e-004, 1.85470140e-004,
          2.71267985e-004, 2.14551971e-003, -5.66479925e-004,
          9.82521451e-004, 1.59387337e-003, 9.26713110e-004,
          -1.78786472e-003, 3.54366057e-004, 1.59883325e-003,
          2.86731549e-004, -1.78457878e-003, -1.11052499e-003,
          -2.53454805e-003, 1.65265243e-004, -1.55985728e-003,
          2.53975648e-003, -1.83626043e-003, 4.40811738e-004,
          -2.39354093e-003, -1.77846884e-003, -1.76804885e-003,
          -2.53709615e-003, 6.11159543e-004, -4.46436316e-004,
          9.69186076e-004, -4.90237144e-004, 8.91083910e-005,
          -1.78128283e-003, 3.48128204e-004, -9.45340376e-004,
          -7.79235968e-004, -2.08312133e-003, 1.13844906e-003,
          -8.97473597e-004, 1.93827122e-003, 1.48525368e-003,
          9.84255748e-005, 2.78249057e-003, 1.88385122e-004,
          7.37242517e-004, -1.95087353e-003, -2.41447779e-004,
          -1.78372371e-003, -1.28119066e-003, 1.17866439e-003,
          -3.48368776e-003, 1.58795621e-003, -3.59547185e-003,
          -8.14367551e-004, -7.86765449e-005, -1.09672314e-003,
          -3.21014813e-004, -4.55150526e-004, 3.55945260e-004,
          -1.05650059e-003, 3.51769896e-003, -7.31545500e-004,
          -7.05263577e-004, -1.46175001e-003, -1.04769901e-003,
          -2.71602930e-003, 1.78969780e-003, -1.37266493e-003,
          3.24225810e-004, -2.72638194e-004, 7.60560506e-004,
          7.96913169e-004, 1.30827888e-003, 4.87906655e-004,
          -7.95230211e-004, 1.28538429e-003, 4.89746744e-004,
          -8.12503975e-004, -1.75318751e-003, -2.22978671e-003,
          -4.46074228e-005, -7.17640680e-004, -7.63385266e-004,
          -1.55834784e-003, 3.54938384e-004, -1.11577054e-003,
          -2.02749550e-004, 1.73975532e-005, 2.64063681e-004,
          8.31326761e-004, 5.44462782e-005, -7.41725788e-004,
          -3.50176007e-004, -1.69800303e-004, -5.49690822e-006,
          1.28872765e-004, -1.73455116e-003, -1.21491449e-003,
          -1.23174372e-003, 2.23100971e-004, -5.15306951e-004,
          6.46089262e-004, 1.22919399e-003, 1.37285527e-003,
          -1.28148973e-003, -2.11191073e-004, 4.90127306e-004,
          7.45320518e-004, -1.73031376e-003, -1.20764482e-003,
          -1.09214021e-003, 1.86666468e-004, -1.16999680e-003,
          -4.88727201e-005, -9.57240700e-004, 6.17637590e-004,
          8.01564835e-004, -1.95325655e-003, 5.29051409e-004,
          -1.14795531e-003, 2.91458739e-004, 2.35312487e-004,
          -9.11141469e-005, 5.09235542e-004, 2.27137492e-003,
          -1.35764806e-003, -6.44988846e-004, -3.57737346e-003,
          -3.92820832e-004, -2.78916094e-003, -1.80473505e-003,
          -7.05378072e-004, 9.94995120e-004, -2.99222098e-004,
          -1.89713945e-004, 1.11299241e-003, -2.58827757e-004,
          9.62073391e-004, -1.41247828e-003, 1.31419220e-003,
          -1.68614218e-003, -9.96345887e-004, 2.36772280e-003,
          -1.35632511e-003, -5.70505857e-004, -1.85137417e-003,
          -1.04738993e-003, -3.91208159e-004, -7.18841911e-004,
          -2.41929782e-003, -3.38122086e-003, 2.87584815e-004,
          -7.22632569e-004, 3.88619606e-004, -5.68198506e-004,
          1.40095910e-003, 5.80901396e-004, 1.20270000e-004,
          -3.03263031e-003, 1.03903774e-004, -2.10191915e-003,
          -7.18478463e-004, -1.28807011e-003, 1.19378301e-003,
          1.24356512e-003, -2.72806763e-004, -1.51025597e-004,
          3.34759206e-005, 1.31034269e-003, -1.64602883e-004,
          -3.05749942e-003, -4.89316182e-004, -1.38425676e-003,
          1.91579061e-003, -5.20664908e-004, -1.62105309e-003,
          -8.88271374e-004, 2.26505566e-004, -2.25408818e-003,
          -1.09517213e-003, -1.66156550e-003, -2.39388621e-003,
          4.47110302e-004, -9.78249242e-004, 1.90892466e-003,
          -3.12847173e-004, -1.89241196e-004, -1.72361010e-003,
          -1.84258306e-003, -5.15911437e-004, 3.00754997e-004,
          -8.69240321e-004, -1.11733773e-003, 4.28312487e-004,
          1.59556128e-003, 9.77017567e-004, 1.77321734e-003,
          -2.14116426e-006, 7.13704794e-004, 3.07317311e-003,
          -7.78340269e-004, -1.88443693e-003, -1.12491823e-003,
          -1.49106490e-003, 2.82488181e-004, -1.97499339e-003,
          -6.55197888e-004, -1.02343725e-003, -1.50170515e-003,
          -5.37358806e-004, -2.28490843e-003, -2.07258016e-003,
          -1.40790304e-003, -1.41083298e-003, -4.76763031e-004,
          1.52230880e-003, 8.39075074e-004, 1.41600752e-003,
          -1.85358676e-003, -4.04264400e-004, 3.96101212e-004,
          1.90026592e-003, -4.47138125e-004, 6.38634665e-004,
          -7.04398903e-004, -5.88723342e-004, 1.96640939e-003,
          1.52588822e-003, 6.64425141e-004, 6.92355912e-004,
          1.66330370e-003, 2.06062046e-004, -1.46019366e-003,
          -1.17101823e-003, -1.93402485e-003, 7.75756926e-005,
          -1.20131555e-003, -3.14422115e-003, -2.42933122e-004,
          -6.51835988e-004, -1.33297662e-003, -6.00538660e-005,
          -1.50928134e-003, -5.16846660e-004, 7.30416388e-004,
          -1.50822708e-003, -2.27145028e-005, 3.16379330e-004,
          7.58915732e-004, 1.61381089e-004, -8.85165064e-004,
          -1.05761969e-003, -2.24640081e-003, -1.19891495e-003,
          -1.04857504e-003, 7.51162530e-004, 1.33777168e-004,
          3.22588184e-003, 1.30555755e-003, -2.73853890e-004,
          8.56434635e-004, 3.24476487e-003, -5.78323263e-004,
          -8.54210346e-004, -2.36350531e-003, -2.01864494e-003,
          1.27383706e-003, -1.16325263e-003, -2.43189256e-003,
          -1.62731810e-003, -6.14309392e-004, -2.64261162e-005,
          -1.90836086e-003, -1.55533920e-003, -6.07166614e-004,
          -9.04462126e-004, 1.00724178e-003, 5.31816273e-004,
          -4.37369163e-004, 2.84330989e-003, -8.54028447e-004,
          7.28328945e-004, -5.11670776e-004, -1.05143269e-003,
          -3.04782938e-004, 5.04129101e-004, 1.07289711e-003,
          -1.84904702e-003, -3.30035800e-005, 1.34317251e-003,
          7.01063313e-004, 5.20096568e-004, 2.11998052e-003,
          -3.63973435e-004, -2.38272216e-004, -1.40235981e-003,
          -1.44061749e-003, -1.50217197e-003, 9.33777192e-004,
          -1.67975458e-003, -6.51465554e-004, -8.14729661e-004,
          4.46810649e-004, -1.87786983e-003, -3.33339511e-003,
          -2.95326608e-005, 8.96752463e-004, -5.81956156e-005,
          -1.00634014e-003, -1.65878655e-003, 6.23794273e-004,
          -2.03875056e-003, -7.80556176e-004, -2.21992261e-004,
          -1.17634528e-003, 4.44280682e-004, -1.49080413e-003,
          5.74352045e-004, -1.16074225e-004, -1.51199207e-003,
          -1.89774859e-004, -1.04740786e-003, 1.93256058e-003,
          1.43738464e-003, -1.98608101e-003, -1.51201535e-003,
          -1.72132999e-003, -1.34659151e-003, 2.18071486e-003,
          -1.23045989e-003, -1.04181841e-003, -9.03342967e-004,
          -8.48470489e-004, -1.84129749e-003, -6.44575863e-004,
          -2.69959844e-003, -1.21485349e-003, -1.99180977e-005,
          1.14209845e-003, -1.05567175e-004, -1.78539415e-003,
          5.34665654e-004, -2.05672812e-003, -2.75983335e-003,
          -1.01425359e-003, -1.78928929e-003, -2.24478566e-003,
          1.08542059e-004, -1.83975557e-004, 6.53197814e-004,
          2.58414843e-003, 1.48259487e-003, -8.73124809e-005,
          5.98494953e-004, 8.00604234e-004, -1.90195558e-003,
          -7.15289963e-004, -3.53857945e-003, -1.43273675e-003,
          8.62386602e-004, -2.70230277e-003, -9.38561629e-004,
          -8.94711004e-004, -6.96582836e-004, -5.06660261e-004,
          -1.87529968e-005, -1.25304249e-003, -1.01094902e-003,
          -7.50603911e-004, -1.65712566e-003, 4.42642886e-005,
          -9.00833518e-004, -8.95216072e-004, -8.54826649e-004,
          2.76217470e-004, -1.02914090e-003, -1.67046674e-003,
          -1.81856961e-003, 2.71919183e-003, -5.14048385e-004,
          2.43589631e-003, -2.25589582e-004, 2.41648464e-004,
          1.35504967e-003, 1.77394506e-003, -1.52973356e-004,
          -2.33510789e-003, 3.68481327e-004, -2.93500675e-003,
          -1.97934825e-003, 2.25428055e-004, -1.01029954e-003,
          -1.36849540e-003, -1.01168407e-003, -6.91315974e-004,
          -8.24722461e-004, 5.58775442e-004, -2.75901076e-003,
          -1.62570016e-003, 1.17871922e-003, -1.40366040e-003,
          1.31048448e-003, -1.45815336e-003, -2.74997414e-003,
          -7.05136335e-004, -3.63771047e-004, -7.46372971e-004,
          -4.06918721e-003, -1.43680396e-003, 2.54877203e-004,
          -9.13738681e-004, 1.11899211e-003, 3.48032033e-003,
          1.20408658e-003, -5.76196799e-005, 1.97292329e-003,
          2.23597023e-003, -2.73586251e-003, -1.19809434e-003,
          -3.08814459e-003, -1.23403745e-003, 1.65345659e-003,
          -4.56442451e-003, -1.32617273e-003, -8.29710159e-004,
          2.49806501e-004, 1.11537392e-003, -2.77536601e-004,
          -1.09470868e-003, -1.02112512e-003, 1.77153284e-004,
          -1.55766960e-003, -3.86838889e-004, -5.70996257e-004,
          3.14758545e-005, -6.37118239e-004, -1.07042713e-003,
          -2.66191945e-003, -6.24391483e-004, -8.30092758e-004,
          2.49176356e-003, 9.83372098e-004, -1.06276863e-003,
          7.94602151e-004, 9.13489959e-004, 1.16152420e-004,
          2.23200256e-003, 2.35078624e-003, -6.57372235e-004,
          -1.36458594e-003, -3.73138185e-003, -5.61430410e-004,
          -7.72373169e-004, -1.42295833e-003, 1.44675767e-004,
          -6.87115884e-004, -1.08193629e-003, -1.64630415e-003,
          1.88748387e-003, -1.53020257e-003, -1.79882976e-004,
          -2.23515625e-003, -3.39198741e-004, 1.35288632e-003,
          1.32714841e-003, -8.76322010e-005, -3.36398813e-003,
          -2.53610918e-003, -2.34364503e-004, -1.16167113e-003,
          -3.02753382e-004, -1.22976338e-003, 6.79410063e-004,
          1.47524313e-003, 7.78899121e-004, 1.78661081e-003,
          -1.70781757e-004, 7.56445224e-004, 3.11539439e-003,
          -3.19671258e-003, -1.18160772e-003, 1.84442528e-004,
          -1.73006533e-003, 1.47647911e-003, -1.31769187e-003,
          1.10327921e-004, -3.35362297e-003, -3.30878771e-003,
          -4.21548402e-003, 1.49068877e-003, -1.84145325e-003,
          -5.48897777e-004, -7.12982728e-005, 3.46546120e-004,
          -1.19504977e-004, -3.85180429e-005, -2.29469078e-004,
          -2.48303637e-003, -2.21261964e-003, -8.69698590e-004,
          5.22192786e-005, 2.35160277e-003, 7.54709996e-004,
          7.62816810e-004, 1.84805365e-003, 8.00876180e-004,
          2.58772075e-003, 1.44016615e-003, 1.56175555e-003,
          2.18115165e-003, -1.63593155e-004, -1.00706134e-003,
          -5.12247067e-003, -1.78375712e-003, -5.56924824e-005,
          -1.48958887e-003, 1.07554632e-004, -3.51128844e-003,
          -7.98459630e-004, -1.73146464e-003, -7.06474239e-004,
          -2.56337086e-003, 2.58797291e-003, -8.36984662e-004,
          -1.34691061e-003, 9.68641660e-004, -1.19020918e-003,
          -1.74066995e-003, -8.41366826e-004, -1.79546024e-003,
          3.39652906e-004, -4.54489054e-004, 8.78919032e-004,
          6.22698106e-004, -1.24418130e-003, 1.82974746e-003,
          1.33876246e-003, 3.58092802e-004, 1.77425798e-004,
          -1.42455945e-004, 5.08969766e-004, -1.36560004e-004,
          -1.46588532e-003, -2.57796445e-003, -2.91821989e-003,
          -8.13673309e-004, -1.28840678e-003, -8.34401639e-004,
          -1.15981139e-003, 2.44673342e-004, -2.78174388e-003,
          -2.93809688e-004, -1.45849946e-003, 2.07762379e-004,
          -1.21100259e-003, 8.87498201e-004, 1.05773914e-003,
          5.03247320e-005, -7.70894287e-004, -1.32625969e-003,
          -4.53803135e-004, -6.06331159e-004, -2.04732083e-003,
          -2.12823346e-004, -1.35946495e-004, 3.35165969e-004,
          1.47064938e-003, 1.13750680e-003, 1.01188011e-003,
          1.06829051e-004, 7.58333190e-004, 1.15186896e-003,
          -5.05959149e-004, -4.52161563e-004, -3.02722258e-003,
          -1.95333268e-003, -1.52278408e-005, -2.99078389e-003,
          -3.80420149e-003, 3.57345154e-004, -2.75836501e-004,
          -1.82131189e-004, 5.42596215e-004, -6.04793604e-004,
          -9.89615335e-004, -1.18097349e-003, -2.52795662e-003,
          -1.35139690e-003, -2.05806433e-003, 7.34780275e-004,
          -8.35653453e-004, -1.55076545e-004, -1.06035732e-003,
          -3.60845734e-005, 1.73330875e-004, 3.51838348e-003,
          1.53994467e-003, 8.22531319e-007, 9.46877582e-004,
          5.92413417e-004, 2.44264229e-004, 9.46544227e-004,
          2.60421145e-003, 1.02574180e-004, -1.93350110e-003,
          -2.41558370e-003, -3.50021035e-003 ]
   decision_functions:
      -
         sv_count: 1
         rho: -5.9755685925498292e-003
         alpha: [ 1. ]
