%YAML:1.0
opencv_ml_svm:
   format: 3
   svmType: EPS_SVR
   kernel:
      type: LINEAR
   C: 1.0000000000000000e-002
   p: 1.0000000000000001e-001
   term_criteria: { epsilon:1.0000000000000000e-003, iterations:1000 }
   var_count: 992
   sv_total: 1
   support_vectors:
      - [ 5.81701426e-003, 1.63428038e-002, 1.98570490e-002,
          -2.34194589e-003, -4.72972961e-003, -7.86341913e-003,
          3.50480434e-003, 3.45355878e-003, 5.52091934e-003,
          5.83203137e-003, -1.74674299e-002, -3.47542129e-002,
          -2.26713698e-002, 8.35795514e-003, -4.89647593e-003,
          -4.09927266e-003, 1.45260361e-003, -1.36040058e-002,
          1.85222887e-002, 7.46824360e-003, -1.68957803e-002,
          -2.90803500e-002, -7.58205028e-003, -1.35665825e-002,
          -5.68231335e-003, -5.01321338e-004, -6.15166128e-003,
          -3.72272879e-002, -1.62573457e-002, 1.24149788e-002,
          2.11345609e-002, -1.38000315e-002, 8.76364298e-003,
          -2.51219957e-003, -1.08991889e-002, -1.09032644e-002,
          -7.45202275e-003, -1.74408604e-003, -9.48660821e-003,
          -3.06678517e-003, 2.95256055e-003, -1.35573335e-002,
          -3.41740213e-002, -3.89317684e-002, -6.13942882e-003,
          -4.48522763e-003, 3.27080459e-004, 1.13720214e-002,
          -1.76294781e-002, 2.94982665e-003, 1.43174396e-003,
          -2.93017086e-002, -5.31499647e-002, -2.43386161e-002,
          -1.38434060e-002, -5.23362681e-003, -3.19460337e-003,
          -1.73073113e-002, -1.33811403e-002, 3.09024029e-003,
          -4.34367210e-002, -1.76263787e-002, -4.67111915e-003,
          5.29195461e-003, 7.66171317e-004, -6.74812822e-003,
          -6.84522837e-003, -6.49813621e-004, -7.28821009e-003,
          -9.15619638e-003, -1.04040261e-002, -9.36174009e-004,
          7.25404499e-003, -6.36840006e-003, -1.53468754e-002,
          1.16886862e-003, 5.13897103e-004, -8.94006516e-004,
          3.70584754e-003, -1.09494466e-003, 1.86716150e-002,
          2.41512917e-002, 7.82617790e-005, -1.72305126e-002,
          -1.09798182e-002, -8.89885612e-003, -9.51902475e-003,
          -5.40759368e-003, -1.09411944e-002, -5.95126534e-003,
          1.96672697e-002, -2.73496006e-002, -1.07388794e-002,
          1.52373631e-002, 1.48054315e-002, 7.98869971e-003,
          -6.14055945e-003, 1.67268477e-002, 3.58814094e-003,
          -5.05458144e-003, -7.69669190e-003, -5.77043090e-003,
          -9.54767969e-003, 6.00511022e-003, -6.45828387e-003,
          -6.97839260e-003, 8.31908453e-003, -1.32494932e-002,
          -8.71996861e-003, 6.57918688e-004, 1.66443549e-002,
          1.44418702e-002, 1.94302928e-002, -3.52449296e-003,
          -1.12104816e-002, -6.06144499e-003, -2.53684614e-002,
          -1.63085982e-002, -7.79614737e-003, 6.71786536e-003,
          1.44519918e-002, 4.38621938e-002, -3.58855762e-002,
          -1.28323790e-002, 5.25715761e-003, 1.80949513e-002,
          2.09281710e-003, -2.19323356e-002, -2.06815228e-002,
          -2.41378136e-002, -1.00202160e-002, -7.67311314e-003,
          -1.19787361e-002, 7.96293188e-003, -2.92509906e-002,
          -2.71025579e-002, -4.22634045e-003, 1.30539844e-002,
          -3.93653475e-003, -4.33224114e-003, -4.64472966e-003,
          -8.16393364e-003, 3.56663167e-002, 1.28020691e-002,
          -2.13741884e-002, -2.20454205e-002, -4.78995917e-003,
          -2.11530328e-002, -1.28131043e-002, -1.28088398e-002,
          -1.64620243e-002, -4.03871797e-002, -4.59500141e-002,
          1.31501975e-002, 1.11416942e-002, -7.63096334e-003,
          -9.49486345e-003, -8.88522714e-003, -2.85318252e-002,
          -3.37088704e-002, -2.56287362e-002, -1.74912512e-002,
          -2.26094406e-002, -1.60999373e-002, 5.72813489e-003,
          -7.17263296e-003, -1.56262908e-002, -8.45013186e-003,
          5.62601723e-003, -3.40142986e-003, 4.77010570e-003,
          1.36918649e-002, -2.21091136e-003, 2.15231348e-002,
          1.01640290e-002, -1.46046225e-002, -3.02136093e-002,
          -1.60607547e-002, -2.32230928e-002, -1.58273540e-002,
          -6.81501813e-003, -1.36950063e-002, -1.06110526e-002,
          -7.12589268e-003, -3.17005329e-002, -3.40599008e-002,
          -2.64739944e-003, -6.10553892e-003, -1.07262591e-002,
          -1.40131107e-002, -2.09271889e-002, -1.56233264e-002,
          -1.60848629e-002, -1.86961628e-002, -1.49495658e-002,
          -3.51227680e-003, -2.70052953e-003, -1.36581846e-002,
          -6.93011971e-004, 1.46427285e-002, 3.32919275e-003,
          4.36633406e-003, 1.10792834e-003, -6.22678723e-004,
          2.78629716e-002, 1.29252700e-002, -1.63262375e-002,
          -6.67001819e-003, 4.89334622e-003, -1.16966330e-002,
          -1.25545906e-002, -1.51990019e-002, -1.17074894e-002,
          -3.25918128e-003, -7.43262470e-004, -2.69456878e-002,
          -2.44479291e-002, 1.59766860e-002, 2.61154566e-002,
          -6.15109457e-003, -3.18734557e-003, -6.66298345e-003,
          -1.93625707e-002, -1.86657310e-002, -2.98284218e-002,
          -1.75535586e-002, -1.16016492e-002, -2.59081786e-003,
          -1.41771846e-002, -8.86244792e-003, 1.67356525e-002,
          1.22892493e-002, 1.73149854e-002, 1.72608774e-002,
          9.79647692e-003, 2.03470048e-002, 2.81097032e-002,
          -1.86153539e-002, -9.62312054e-003, 4.09685820e-003,
          -8.40931106e-003, -5.73643856e-003, -1.08642951e-002,
          -6.21035183e-003, 2.30025593e-002, 2.39065923e-002,
          -2.94927265e-002, -2.83314176e-002, 3.03787109e-003,
          5.32423239e-003, 2.98008788e-003, -1.96649916e-002,
          -2.50537787e-002, -3.06266919e-002, -2.29490548e-002,
          -1.79238860e-002, -9.64702945e-003, 5.20185381e-003,
          -3.59627861e-003, -1.42274918e-002, -1.62561405e-002,
          -5.99534309e-004, -8.10228102e-003, -7.29105808e-003,
          -7.78991776e-003, -5.49782533e-003, 3.77407707e-002,
          2.61876490e-002, -1.03739267e-002, -3.16355005e-002,
          -1.66123267e-002, -3.24875116e-002, -2.78329290e-002,
          -2.59858053e-002, -1.66336149e-002, -4.06151228e-002,
          -5.00848815e-002, 1.99131714e-003, 7.30643328e-003,
          -1.86693240e-002, -1.70948450e-002, -4.00601653e-003,
          -1.80432424e-002, -2.66936421e-002, -2.69442238e-002,
          -2.37811469e-002, -2.53903903e-002, -1.89699493e-002,
          -4.88778530e-003, 2.32826523e-003, -2.21845992e-002,
          -1.27017610e-002, -1.22081453e-003, -4.22978716e-004,
          -2.73883413e-003, -1.13273654e-002, -1.24947801e-002,
          1.02242809e-002, 9.56028327e-003, -2.07062066e-002,
          -3.10295466e-002, -2.16771476e-002, -2.19529346e-002,
          -2.76200585e-002, -3.47533785e-002, -2.71668881e-002,
          -1.59678105e-002, -2.25095246e-002, -3.36382799e-002,
          -4.34921421e-002, -1.80413164e-002, 4.11574962e-003,
          2.95687397e-003, -8.76498967e-003, -2.14432329e-002,
          -1.92362331e-002, -1.53859500e-002, -1.89767405e-002,
          -2.63757128e-002, -6.67297700e-003, -6.17158925e-003,
          -1.49373068e-002, -1.47419190e-002, 1.32408820e-003,
          1.41305588e-002, 1.25940014e-002, -1.43829398e-002,
          -1.29074957e-002, 4.82403813e-003, 1.16536105e-002,
          -8.56278837e-003, -1.72993802e-002, -1.00269672e-002,
          -5.53939631e-003, -6.06924435e-003, -3.24942656e-002,
          -3.46538387e-002, -5.99850807e-003, -8.86083208e-003,
          -2.82453243e-002, -3.36944722e-002, -3.79077462e-003,
          1.73453987e-002, 8.41842848e-004, -6.29940024e-003,
          -1.54808434e-002, -1.30995186e-002, -9.33097955e-003,
          -1.33781796e-002, -1.97760407e-002, -1.54699916e-002,
          4.16735827e-004, 5.86197257e-006, -2.90662190e-003,
          6.27637422e-003, 6.40155608e-003, 2.39714142e-002,
          8.80350079e-003, -2.86825141e-003, 6.03007013e-003,
          2.25175712e-002, 9.29292932e-004, -3.55442427e-003,
          -5.88017097e-003, -8.37776624e-003, 8.86505656e-003,
          -8.57217517e-003, -2.31559593e-002, 3.36933928e-003,
          2.73602493e-002, -2.14012228e-002, -2.74008606e-002,
          -1.30869057e-002, -2.78379390e-004, 1.72900816e-003,
          -2.52713938e-003, -1.47886816e-002, -1.90739576e-002,
          -1.84247084e-002, -1.13981310e-002, -1.04024187e-002,
          -6.28761342e-003, -1.55874956e-002, -1.47115281e-002,
          -2.93460587e-004, 7.02600647e-003, -5.77537576e-003,
          6.77891914e-003, 4.37032286e-005, -5.73451538e-003,
          1.37544032e-002, 3.22847115e-003, -1.10339578e-002,
          -1.65475793e-002, -7.29004992e-003, -1.54270148e-002,
          -9.46863927e-003, -1.26260892e-002, -1.32604316e-002,
          -3.37603800e-002, -3.31635550e-002, -8.48280359e-003,
          1.75222754e-002, -2.86472347e-002, -2.98586814e-003,
          8.87529086e-003, -3.82778398e-003, -2.14900728e-002,
          -1.23662604e-002, -4.75126132e-003, -8.64380319e-003,
          -1.09154601e-002, -8.85835476e-003, -5.82866138e-003,
          -2.60704309e-002, -5.78609994e-003, 8.53779912e-003,
          9.15812980e-003, 7.08694058e-003, -1.07696075e-002,
          -1.81340519e-002, -7.39310216e-003, 1.68018707e-003,
          -1.71144456e-002, -1.59628466e-002, -1.15607586e-002,
          -4.79777530e-003, -1.61944272e-003, -1.73997991e-002,
          -2.44154185e-002, -1.43351676e-002, -5.59384329e-003,
          -2.29211394e-002, -2.09853258e-002, -2.05170773e-002,
          7.98953604e-003, 1.09728507e-003, -3.65957548e-003,
          -2.50726454e-002, -1.63044538e-002, -8.90815072e-003,
          -8.91967956e-003, -9.68481880e-003, -1.70054454e-002,
          -8.54602735e-003, -1.81640871e-002, -1.23139210e-002,
          1.77017674e-002, 1.86547861e-002, 2.18564477e-002,
          2.26865686e-003, -1.58052426e-002, -1.56853478e-002,
          2.59440485e-003, -1.63578764e-002, -1.93518642e-002,
          -8.28161649e-003, 4.91627678e-003, 1.04217697e-002,
          -7.57711288e-003, -2.08961479e-002, -8.49827658e-003,
          6.36095228e-003, -2.49284394e-002, -1.78740490e-002,
          -1.39228171e-002, 2.59620254e-003, -2.46313890e-003,
          -9.90382209e-003, -2.07457058e-002, -4.43131989e-003,
          9.69095621e-003, -1.87690835e-003, -9.38396528e-003,
          -3.15201357e-002, -7.46168708e-003, -1.20147448e-002,
          -2.34878366e-003, 2.66805422e-002, 9.07566492e-003,
          2.39014346e-002, 1.87261030e-002, 7.16062030e-003,
          -6.61968766e-003, 3.13017494e-003, -1.03899855e-002,
          -9.81378742e-003, 1.09615186e-002, 2.22895271e-003,
          2.51502078e-002, 1.67749543e-002, -7.03911763e-003,
          -1.06594535e-002, 2.45911907e-002, -1.63086969e-002,
          -6.22208230e-003, -7.83274975e-003, 8.16065818e-003,
          -1.10236891e-002, 7.17220735e-003, -2.14199796e-002,
          -2.43913643e-002, -1.63051449e-002, -1.39293969e-002,
          -5.85067226e-003, -1.06661804e-002, -2.16091964e-002,
          -1.71269067e-002, -1.58878858e-003, 6.92109484e-003,
          -3.35618644e-003, 9.69069079e-003, 4.35742503e-003,
          3.52400402e-003, 1.07534323e-002, 6.08017494e-004,
          -2.08843313e-002, -2.93395692e-003, -4.64045722e-003,
          -1.68868452e-002, -5.84057113e-003, -9.62896831e-003,
          -7.41829805e-004, -2.42189579e-002, -2.31717862e-002,
          -1.39414715e-002, 6.99197035e-003, -2.87591126e-002,
          5.13230730e-003, -1.14508765e-003, -4.83598938e-004,
          -2.60887407e-002, -1.88718699e-002, -5.14219049e-003,
          3.79452505e-003, 6.00759871e-003, -2.99870665e-003,
          -4.37773811e-003, -2.60929521e-002, -5.84922172e-003,
          1.01772901e-002, 1.95221230e-002, 6.52344059e-003,
          -6.26829779e-003, -1.84688047e-002, -3.74595402e-003,
          9.97410994e-003, -2.36863662e-002, -1.22478651e-002,
          -3.50244972e-003, 6.94856396e-007, -6.55109703e-004,
          1.52729859e-004, -7.61990203e-003, -1.97778307e-002,
          -1.87510834e-003, -1.19229723e-002, -1.04476810e-002,
          -1.93130504e-002, 3.51849524e-003, 8.96579586e-003,
          1.33879259e-002, -2.05056705e-002, -2.90218480e-002,
          -1.19851958e-002, -5.19187050e-003, 8.97568278e-003,
          -4.51980438e-003, -1.28437178e-002, -2.98127271e-002,
          -2.79083964e-003, 2.61232611e-002, 1.77055802e-002,
          1.78641900e-002, 5.58561785e-003, -2.01909002e-002,
          -5.56372479e-003, -1.31396414e-003, -1.71651300e-002,
          1.56813732e-003, 5.14540356e-003, 1.34164386e-003,
          7.02987006e-003, -2.46712449e-003, -1.36452029e-002,
          -1.78187322e-002, 1.39997229e-002, -1.83747504e-002,
          -3.28497356e-003, -1.10568395e-002, 7.46013969e-003,
          -5.37398597e-003, -1.26421778e-002, -2.98188478e-002,
          1.33827387e-003, 1.80120319e-002, 1.27517721e-002,
          8.77714902e-003, -3.39495912e-002, -1.80810876e-002,
          -2.25718319e-002, 8.78453348e-003, 3.98781970e-002,
          2.14590784e-003, 9.50494129e-003, 1.12280510e-002,
          8.82297847e-003, -1.62097253e-002, -4.84153815e-003,
          -2.41389815e-002, -8.10413249e-003, 1.09535847e-002,
          1.03745246e-002, 2.10947134e-002, 2.09796485e-002,
          1.26433950e-002, -3.01367175e-002, 2.61924621e-002,
          -1.31838284e-002, 1.48698902e-002, -1.18689463e-002,
          4.00273362e-003, 4.81638126e-003, 3.04946257e-003,
          -2.26846337e-002, -2.40735300e-002, -1.64854210e-002,
          -1.81609970e-002, -1.15936585e-002, -9.31708049e-003,
          -2.13067476e-002, -2.13568527e-002, -3.49272066e-003,
          -3.00156535e-004, -1.18406750e-002, -1.51212711e-003,
          1.81841734e-003, 1.21015562e-002, 5.82288892e-004,
          -6.78171823e-003, -1.21915583e-002, -9.73020773e-003,
          -1.22793410e-002, -2.74505541e-002, -1.63973756e-002,
          -1.37980133e-002, 1.52662222e-003, -3.33150253e-002,
          -1.52364206e-002, -2.13836581e-002, 7.12732290e-005,
          -2.01565158e-002, 3.71529092e-003, 2.09589326e-003,
          -5.86501835e-003, -2.01842748e-002, -2.12894771e-002,
          -7.01884367e-003, -1.36578875e-003, -1.92872062e-003,
          8.55855923e-003, 6.93116221e-004, -3.46193910e-002,
          -1.26229934e-002, 2.54031457e-002, 1.60641409e-002,
          -7.55134644e-003, -1.67662855e-002, -1.10393101e-002,
          4.27808287e-003, 1.28155351e-002, -2.70652324e-002,
          -1.06685152e-002, 8.18134937e-003, -4.01235186e-003,
          -1.51507622e-002, -1.74989402e-002, -1.04349395e-002,
          -2.45552249e-002, -5.99695835e-003, -1.88823417e-002,
          4.66517260e-004, -2.31072567e-002, 7.40623521e-003,
          1.59147419e-002, 2.15452146e-002, -2.82293148e-002,
          -3.12375315e-002, -1.49900541e-002, -5.55023318e-004,
          5.13051916e-003, 5.53056598e-003, -8.37740581e-003,
          -4.02410738e-002, -1.60371065e-002, 3.05012595e-002,
          2.38604136e-002, 2.13692430e-002, 3.89392558e-003,
          -1.95324104e-002, -1.90070667e-003, -3.44236498e-003,
          -2.07106639e-002, 1.12668751e-002, 1.38199218e-002,
          2.04828591e-003, 6.25034561e-003, -4.82556084e-003,
          -1.53946858e-002, -1.82419829e-002, 6.40868768e-003,
          -1.43508911e-002, 3.95528972e-003, -2.95253862e-002,
          8.54611862e-003, 1.11122215e-002, -1.55318752e-002,
          -3.84859554e-002, 2.55583622e-003, 6.44074241e-003,
          1.45237707e-002, 1.28543973e-002, -2.99437288e-002,
          -1.93040054e-002, -2.91372128e-002, 1.68112258e-003,
          2.90071256e-002, 3.07111070e-003, 8.09411798e-003,
          2.20640074e-003, -5.65766310e-003, -2.60620136e-002,
          -1.58402175e-002, -1.74121000e-002, -8.37995205e-003,
          2.99396226e-003, 9.35343746e-003, 1.45863574e-002,
          1.39105059e-002, 2.64636311e-003, -3.41653004e-002,
          1.63819094e-003, -1.31456256e-002, 1.38565945e-002,
          -2.46875845e-002, -1.27579626e-002, 1.62429530e-002,
          9.08451807e-003, -1.70925576e-002, -3.18577662e-002,
          -2.78874673e-002, -2.01679412e-002, -7.64126610e-003,
          1.16684794e-006, -1.38117215e-002, -3.84978130e-002,
          -8.34091380e-003, 8.75470135e-003, 4.68910672e-003,
          3.61583405e-003, 5.81585057e-003, 6.46675052e-003,
          -2.98524532e-003, -1.87133104e-002, -1.40724955e-002,
          -3.92797589e-003, -1.30193233e-002, -1.43009024e-002,
          -2.08845846e-002, -1.34092234e-002, -4.69781645e-003,
          -3.41897607e-002, -1.19481217e-002, -2.43815947e-002,
          7.18288124e-004, -2.82248873e-002, -2.32108030e-002,
          1.88519084e-003, 1.24204084e-002, -1.13960896e-002,
          -3.09011079e-002, -1.08926278e-002, 8.74703226e-004,
          6.15014462e-003, 2.44409479e-002, 7.25839613e-003,
          -2.40147524e-002, 7.68703595e-003, 2.23056450e-002,
          1.22717042e-002, -4.72467672e-003, -1.42755955e-002,
          -1.38449091e-002, 9.65149701e-003, -3.53231654e-003,
          -1.78491138e-002, -2.81320489e-003, -5.79567823e-005,
          -1.25464322e-002, -1.50559032e-002, -1.04360832e-002,
          -5.47532272e-003, -2.38711331e-002, 2.04137119e-004,
          -1.75029766e-002, 9.96740907e-003, -2.75854953e-002,
          -8.54575541e-003, 3.39706317e-002, 3.23425271e-002,
          -1.60122365e-002, -3.24045718e-002, -1.03070606e-002,
          -9.69131594e-004, 5.94055047e-003, 5.86850941e-003,
          -1.04261870e-002, -3.82773392e-002, -7.80022843e-003,
          2.13709567e-002, 2.27948967e-002, 1.21945199e-002,
          2.03804718e-003, -1.35172904e-002, -9.71797109e-003,
          -1.71178840e-002, -9.62605327e-003, 1.19921742e-002,
          -1.52445002e-003, -7.57843442e-003, -3.44797783e-003,
          -6.44496176e-003, -1.12768691e-002, -1.57394856e-002,
          3.51163116e-003, -1.11151086e-002, 9.51931626e-003,
          -1.91844702e-002, 4.22514696e-003, 2.02480741e-002,
          4.80659679e-003, -2.98557691e-002, -9.54592228e-003,
          1.63986571e-002, 1.18392678e-002, 6.85359957e-003,
          -2.56019980e-002, -1.32140480e-002, -1.74134113e-002,
          -1.29044347e-003, 8.12370796e-003, -3.22539033e-003,
          2.66614323e-003, 1.07478499e-002, 1.26897439e-003,
          -1.97823476e-002, -1.56951733e-002, 1.13680947e-003,
          -4.21476644e-003, -1.97553560e-002, -5.83662838e-003,
          1.36812842e-002, 1.64428018e-002, 1.20895281e-002,
          -2.70069600e-003, -1.33326491e-002, -8.53962917e-003,
          9.41584166e-003, -4.25132969e-003, -1.70407947e-002,
          2.09163805e-003, 1.11769196e-002, -1.58632849e-003,
          -1.59662925e-002, -1.80518571e-002, -1.56711657e-002,
          -1.38553809e-002, 4.51617688e-003, -1.99254099e-002,
          -4.19634655e-002, -2.96746437e-002, -8.84469412e-003,
          1.00644818e-002, -5.49646746e-003, -2.95670121e-003,
          -4.22577560e-003, -5.80732478e-003, -2.83651408e-002,
          -3.56916003e-002, -1.92955416e-002, -5.59339067e-003,
          -1.81899028e-004, -2.08231416e-002, -1.91215426e-002,
          -1.51444031e-002, -4.19740453e-002, -1.30806183e-002,
          -2.53245700e-002, -5.41808491e-004, -1.39950244e-002,
          -3.10545750e-002, -2.20263544e-002, 1.30787240e-002,
          5.83800068e-003, -1.09745478e-002, -1.69444329e-003,
          -1.05017307e-003, 1.88381467e-002, 3.16180624e-002,
          1.79283111e-003, -1.97967179e-002, -1.15041835e-002,
          -2.48571541e-002, -6.45608502e-003, -2.41044965e-002,
          -2.16127019e-002, -1.64845195e-002, 1.01212095e-002,
          -2.01734211e-002, -3.68415006e-002, -1.46575132e-002,
          -1.46971280e-002, -1.81461759e-002, -2.50847917e-002,
          -2.10876297e-002, 5.04230382e-004, -3.31814885e-002,
          -5.32920426e-003, -2.93534361e-002, 4.48665302e-003,
          -1.82725620e-002, -2.88183475e-003, 3.13254190e-003,
          2.77695730e-002, 1.57227684e-002, 1.44232530e-004,
          -1.61010008e-002, -4.69886372e-003, 4.10040235e-003,
          1.78242512e-002, -8.17041099e-003, -3.02740671e-002,
          -2.45912299e-002, -2.75447667e-002, -1.65293161e-002,
          -3.06511652e-002, -2.93659363e-002, -1.81798153e-002,
          1.30000652e-003, -9.86452214e-003, -3.21605019e-002,
          1.86456691e-005, -1.21777570e-002, -2.73277350e-002,
          -4.31398116e-002, -3.22580226e-002, -1.84162967e-002,
          -2.64199600e-002, -1.34305125e-002, -3.01318318e-002,
          -4.76627517e-003, 4.69302386e-003, 2.22020391e-002,
          -2.41377205e-003, 1.89542547e-002, 1.59477983e-002,
          -1.35609880e-002, -8.32990557e-003, 5.91094047e-003,
          2.74405372e-003, -7.19979266e-003, -2.14986783e-002,
          -2.46837381e-002, -1.46506559e-002, -3.38228680e-002,
          -3.50193828e-002, -4.18732129e-002, -2.67321058e-002,
          -1.36794383e-002, 6.39919844e-003, -4.19492513e-004,
          -2.79642045e-002, -4.60276194e-003, -2.93883458e-002,
          -4.63791974e-002, -4.63207103e-002, -1.95929203e-002,
          -5.26099186e-003, -1.49043538e-002, -1.67685859e-002,
          -3.31619196e-002, -1.67232007e-002 ]
   decision_functions:
      -
         sv_count: 1
         rho: -1.3906503260135633e-001
         alpha: [ 1. ]
