%YAML:1.0
opencv_ml_svm:
   format: 3
   svmType: EPS_SVR
   kernel:
      type: LINEAR
   C: 1.0000000000000000e-002
   p: 1.0000000000000001e-001
   term_criteria: { epsilon:1.0000000000000000e-003, iterations:1000 }
   var_count: 496
   sv_total: 1
   support_vectors:
      - [ -1.81629008e-003, 8.77409242e-004, -7.68460624e-004,
          2.70123885e-004, 1.66034617e-004, -9.37214820e-004,
          -6.49924856e-004, -1.15517341e-003, 1.46112766e-003,
          -7.11474684e-004, -8.25697964e-004, -1.46873796e-003,
          -2.99140902e-005, 1.27968844e-003, -1.53823267e-003,
          1.38777762e-003, -9.09652081e-005, -1.28772599e-003,
          -1.52464025e-004, 2.68606911e-003, 2.00970541e-003,
          -3.02139582e-004, -2.38443003e-003, 8.40475317e-004,
          -7.20735814e-004, -8.27541924e-004, 7.08532287e-004,
          -1.16510736e-003, -6.63178042e-004, -1.56678958e-003,
          6.43207692e-004, 3.90808797e-004, 3.39914521e-004,
          -2.24845251e-003, -2.02336465e-003, -1.30359840e-003,
          -1.00074231e-003, -1.85059023e-003, -8.12896469e-004,
          -5.19198715e-004, 3.41879902e-004, 1.20865006e-004,
          4.95464083e-005, 5.81041677e-004, 9.13189841e-004,
          -1.79542939e-003, -1.75069424e-003, -1.79314840e-004,
          -1.85989472e-003, -6.46029075e-004, 2.06320328e-004,
          1.33508327e-003, -8.91318723e-006, -1.57213444e-003,
          6.41639053e-004, 1.27190747e-003, 1.84822106e-003,
          2.14742683e-003, -1.78051984e-003, -8.51460791e-004,
          -6.63430255e-004, -2.64749560e-003, 8.90708761e-004,
          1.57069720e-004, -1.52452942e-003, -5.27310069e-004,
          -3.24672880e-003, -2.97665130e-003, -1.30441040e-003,
          -7.00673772e-005, -3.49231326e-004, -1.20403396e-003,
          -2.62329937e-004, -3.38749698e-004, 9.65210609e-004,
          -7.68789905e-004, -8.60785542e-004, 5.33038867e-004,
          -8.78231018e-004, -3.38797021e-004, 5.77058236e-004,
          -9.19680111e-004, 9.63801867e-004, 3.25055839e-003,
          2.36932421e-003, 1.72771793e-003, 5.09951380e-004,
          2.19356129e-003, 1.09574210e-003, 1.73836997e-005,
          -2.91914330e-003, -6.33187359e-004, -2.17117020e-003,
          2.06787232e-003, -1.18530774e-003, -4.40451899e-004,
          2.50874524e-004, -1.14199368e-003, 1.42846361e-003,
          6.94959366e-004, 9.80387558e-004, 1.94169302e-003,
          4.98794310e-004, -2.68590823e-003, -1.84748508e-003,
          -1.22733752e-003, -8.39750341e-004, -2.17561028e-003,
          -7.07596890e-004, -6.32981653e-004, 5.27511002e-004,
          -1.13903487e-003, 1.92736843e-004, 4.07802360e-003,
          5.52245532e-004, 1.20769127e-003, -3.55498109e-004,
          1.20970421e-003, -3.60544436e-005, -4.87323938e-004,
          7.15311908e-004, -8.35477607e-004, -4.01166471e-004,
          -1.59707922e-003, 3.77818447e-004, -3.03902081e-004,
          -6.12460542e-004, 6.25755929e-004, 1.41436898e-003,
          -1.60998048e-003, 8.67832161e-004, -5.43196453e-004,
          -2.94854143e-003, -4.18286472e-005, -3.03299603e-004,
          -6.34097261e-004, -1.91809493e-004, 1.93090981e-003,
          -1.22620258e-003, 3.28531780e-004, 1.38883991e-003,
          -1.76742394e-003, -1.49431650e-003, -5.11832244e-004,
          3.43918597e-004, -8.37466156e-004, -3.91453825e-004,
          9.96438670e-004, -1.02904407e-004, 3.58324876e-004,
          -8.99425882e-004, -1.28329475e-003, -5.64136019e-004,
          9.07295209e-004, -5.91296004e-004, 1.18841021e-003,
          1.74444087e-003, -2.16135546e-003, 2.07176243e-004,
          -1.63907721e-003, -2.50325608e-003, -1.56527254e-004,
          6.48649409e-004, -3.14276922e-003, -4.16755138e-005,
          2.86008843e-004, -4.60897689e-004, -1.23629894e-003,
          -4.80483548e-004, -3.33839748e-003, -3.18941381e-003,
          -1.48440071e-003, -1.49691923e-005, -4.91383660e-004,
          -1.51750736e-003, 1.93385466e-003, 1.34029018e-003,
          3.57329263e-003, 1.06986810e-003, 1.35967229e-003,
          1.40487705e-003, 3.30283097e-003, -1.31595694e-003,
          -1.82071945e-003, -1.33765710e-003, -2.96192570e-003,
          9.15529730e-004, 2.01196017e-004, -7.67792051e-004,
          -8.60221218e-004, -2.42492813e-003, -4.04261373e-004,
          -1.05391478e-003, -2.20570900e-003, -2.11796979e-003,
          -2.75553367e-003, -2.46594689e-004, 1.78310322e-004,
          5.69235708e-004, -1.15764723e-003, -1.57523016e-003,
          -2.80382694e-003, -4.76827117e-004, -1.33091630e-003,
          4.87654266e-004, -1.40200043e-003, 1.00296061e-003,
          1.25869864e-003, 3.14005045e-003, 7.78732181e-004,
          1.68662891e-003, 1.57806347e-003, 9.71145055e-004,
          -1.02477137e-003, -3.06973001e-003, -1.54740002e-003,
          -2.99277878e-003, 4.64959041e-004, -1.06988999e-003,
          -1.29375118e-003, -7.96930050e-004, -2.22030896e-004,
          5.28432029e-005, 1.57663992e-004, 1.25171762e-004,
          -3.09567025e-004, -7.80598843e-004, -1.35438249e-003,
          -1.30160246e-003, 1.71622599e-003, -9.68286418e-004,
          -2.07603001e-003, -2.86925538e-003, -1.14948547e-003,
          6.86709478e-004, -1.76966295e-003, 1.50519633e-003,
          6.44757936e-004, 2.25288142e-003, 2.05195555e-003,
          5.73919679e-004, 2.65818345e-003, 1.54883368e-003,
          -1.65954372e-003, -3.15032055e-004, -1.64113403e-003,
          -1.00599846e-003, -2.21769139e-003, -3.46665794e-004,
          5.58646047e-004, -1.23864785e-003, -1.70745759e-003,
          -6.08554168e-004, -2.94903689e-003, -7.57992966e-004,
          -2.24960642e-003, -1.11958385e-003, -9.54998482e-004,
          -3.13385681e-004, 6.99064636e-004, -2.28226976e-003,
          -9.33097093e-004, -4.96708381e-004, 1.87860860e-003,
          2.79640488e-004, -1.50905224e-003, -3.53148585e-004,
          2.23603565e-003, 8.36390303e-004, -2.64289149e-004,
          -5.70154225e-005, 2.48571421e-004, 5.26918448e-005,
          5.20998845e-004, -3.55869910e-004, -2.60586804e-003,
          -1.91287906e-003, -3.24968412e-003, 1.14474399e-003,
          1.12117478e-003, 8.50688783e-004, -1.60751457e-003,
          -2.29196227e-003, -1.54670724e-003, -2.57024774e-003,
          -9.29740127e-005, -1.84246385e-003, -7.67478545e-004,
          7.07167550e-004, 7.89203157e-004, 3.86904925e-004,
          -1.52091286e-003, -9.58582677e-004, -3.05669289e-003,
          -1.19768304e-003, -2.42981734e-003, -2.13065301e-003,
          -1.66152127e-003, 2.17444278e-004, 1.51082990e-004,
          9.10217816e-004, 6.51311770e-004, 1.13011047e-003,
          2.95734103e-003, 3.41377547e-003, 2.92515173e-003,
          -1.91307778e-003, -2.33044522e-003, -2.86335219e-003,
          -1.45306753e-003, 4.22588855e-005, -7.93554878e-004,
          1.50892040e-004, -4.34337126e-004, -1.23888836e-003,
          -6.74398674e-004, -5.42794471e-004, -1.72987441e-003,
          -2.13313336e-003, -1.75360241e-003, 5.38591994e-004,
          1.37685798e-004, -8.52494850e-004, -4.26326820e-004,
          -1.33400282e-003, 2.20764516e-004, -1.76268315e-003,
          -3.08930338e-003, -6.59554556e-004, 3.40473198e-004,
          5.17638691e-004, 2.21578593e-004, 3.35301709e-004,
          1.76776666e-003, 1.26429449e-003, 1.35821104e-003,
          3.40577960e-003, -1.14278111e-003, -2.67728290e-004,
          -4.24418785e-003, -1.73458923e-003, 1.03773607e-004,
          -1.67478714e-003, -2.42513022e-003, -3.84142855e-004,
          -1.28024811e-004, -1.02778897e-003, -2.68360903e-003,
          -3.47379500e-005, -1.66902947e-003, 1.30623381e-003,
          8.73149293e-006, -2.84423644e-004, -9.37125762e-004,
          -1.62640307e-003, -2.85321707e-003, -3.19022569e-003,
          -2.12676544e-003, 2.32864186e-005, -2.58833775e-003,
          -1.23994439e-004, 1.47869857e-003, 1.51256856e-003,
          2.06071138e-003, 1.99811137e-003, 1.10354426e-003,
          1.79751846e-003, 1.56522682e-003, -3.08591523e-004,
          -3.04053887e-003, -3.22159170e-003, -2.67031440e-003,
          1.83505559e-004, -4.94689506e-004, -1.32744887e-003,
          -6.77772681e-004, -1.27780787e-003, -1.39264017e-003,
          -4.18656622e-004, -9.29081056e-004, 6.97745592e-004,
          -8.20167654e-004, -2.73047135e-005, -1.84491323e-003,
          -1.85931171e-003, -1.21624989e-003, 2.90044729e-004,
          -2.39358182e-004, -8.32807447e-004, -7.53165223e-005,
          8.08443816e-004, -9.08808026e-004, 2.53247935e-003,
          4.16124443e-004, 1.17737625e-003, -3.20249703e-004,
          1.23992213e-003, 8.74552410e-004, 2.76172231e-003,
          -4.08923207e-003, 1.59815012e-003, -2.21311022e-003,
          -1.07622053e-003, -2.20800564e-003, 1.70632367e-004,
          -1.32287852e-003, -4.08909778e-004, -1.62422063e-003,
          -1.57178007e-003, -8.16399930e-004, -9.17376601e-004,
          -2.04006094e-004, -1.70693558e-003, 6.91858353e-004,
          -2.36663991e-003, -2.31816270e-003, 1.18790730e-003,
          -5.43691858e-004, -2.14522309e-003, -8.43561720e-004,
          5.84508874e-004, -3.24279477e-004, -2.07198830e-003,
          1.21738564e-003, 1.85217406e-003, 6.57448545e-004,
          5.03227056e-004, 8.05268646e-004, 1.16230547e-003,
          2.30651349e-005, -2.82301381e-003, 6.06856542e-004,
          -3.61406803e-003, -1.88323657e-003, -1.54172769e-004,
          -6.71257905e-004, 3.95124924e-004, -1.57467774e-004,
          3.85416888e-006, -4.30111657e-004, 4.09669941e-004,
          -1.71873695e-003, -3.12972465e-003, -1.62771507e-003,
          -3.62054503e-004, 1.10312318e-003, 1.90913060e-003,
          -1.14284200e-003, -1.13352982e-003, -1.01607665e-003,
          -2.33468949e-003, -3.71761096e-004, 5.52711310e-004,
          5.83463698e-004, -1.56968972e-003, -5.63018315e-004,
          3.32821393e-004, 7.95341388e-004, 9.28360561e-004,
          -3.41169871e-005, 2.76692933e-003, -3.01735708e-003,
          1.01786666e-003, -2.77324370e-003, -1.43606958e-004,
          -1.40589627e-003, -1.13250292e-003, -1.78481836e-003,
          -9.71522764e-004, 3.01203079e-004, -8.75926053e-004,
          5.48436801e-005, -8.31264129e-004, -2.07492756e-003,
          -4.61877498e-004, -6.84029015e-004, -1.73884546e-004,
          9.48949775e-004, -8.59413063e-004, -3.40359844e-003,
          -8.34146806e-004, 5.77329774e-004, -8.58360901e-004,
          -6.40352257e-004, -2.86142429e-004, 2.69919611e-003,
          1.48877711e-003, 2.81891844e-004, 1.05723018e-004,
          1.14623422e-003, 1.17118761e-003, 1.83218520e-003,
          -9.77021875e-004, 1.99566493e-005, -3.23448563e-003,
          -2.62953038e-003 ]
   decision_functions:
      -
         sv_count: 1
         rho: -4.9076002836226373e-003
         alpha: [ 1. ]
